-0.102582
-0.102582
-0.101777
-0.101777
-0.101777
-0.101777
-0.101777
-0.101777
-0.101777
-0.101777
-0.101777
-0.101777
-0.101777
-0.101777
-0.101777
-0.100973
-0.100973
-0.100973
-0.100973
-0.100973
-0.100973
-0.100973
-0.100973
-0.100973
-0.100168
-0.100168
-0.100168
-0.100168
-0.100168
-0.100168
-0.100168
-0.0993635
-0.0993635
-0.0993635
-0.0993635
-0.0993635
-0.0993635
-0.0993635
-0.0993635
-0.0993635
-0.0993635
-0.0993635
-0.0985589
-0.0985589
-0.0977544
-0.0977544
-0.0977544
-0.0977544
-0.0977544
-0.0977544
-0.0977544
-0.0977544
-0.0969498
-0.0969498
-0.0969498
-0.0969498
-0.0969498
-0.0969498
-0.0961453
-0.0961453
-0.0961453
-0.0961453
-0.0961453
-0.0961453
-0.0953407
-0.0953407
-0.0953407
-0.0953407
-0.0953407
-0.0953407
-0.0953407
-0.0945361
-0.0945361
-0.0945361
-0.0945361
-0.0945361
-0.0945361
-0.0945361
-0.0945361
-0.0945361
-0.0945361
-0.0945361
-0.0937316
-0.0937316
-0.092927
-0.092927
-0.092927
-0.092927
-0.092927
-0.092927
-0.092927
-0.092927
-0.092927
-0.092927
-0.0921224
-0.0921224
-0.0921224
-0.0921224
-0.0921224
-0.0921224
-0.0921224
-0.0913179
-0.0913179
-0.0913179
-0.0913179
-0.0913179
-0.0913179
-0.0913179
-0.0913179
-0.0913179
-0.0905133
-0.0905133
-0.0905133
-0.0905133
-0.0905133
-0.0905133
-0.0905133
-0.0905133
-0.0905133
-0.0905133
-0.0897088
-0.0897088
-0.0897088
-0.0897088
-0.0897088
-0.0897088
-0.0889042
-0.0889042
-0.0889042
-0.0889042
-0.0889042
-0.0880996
-0.0880996
-0.0880996
-0.0880996
-0.0880996
-0.0872951
-0.0872951
-0.0872951
-0.0872951
-0.0872951
-0.0872951
-0.0872951
-0.0872951
-0.0864905
-0.0864905
-0.0864905
-0.0864905
-0.0864905
-0.0864905
-0.0864905
-0.0856859
-0.0856859
-0.0856859
-0.0856859
-0.0848814
-0.0848814
-0.0848814
-0.0848814
-0.0848814
-0.0848814
-0.0848814
-0.0848814
-0.0848814
-0.0848814
-0.0848814
-0.0840768
-0.0840768
-0.0840768
-0.0840768
-0.0832723
-0.0832723
-0.0832723
-0.0832723
-0.0832723
-0.0832723
-0.0832723
-0.0824677
-0.0824677
-0.0824677
-0.0824677
-0.0824677
-0.0824677
-0.0824677
-0.0824677
-0.0816631
-0.0816631
-0.0816631
-0.0816631
-0.0816631
-0.0816631
-0.0816631
-0.0816631
-0.0816631
-0.0808586
-0.0808586
-0.0808586
-0.0808586
-0.0808586
-0.0808586
-0.0808586
-0.0808586
-0.0808586
-0.0808586
-0.080054
-0.080054
-0.0792494
-0.0792494
-0.0792494
-0.0792494
-0.0792494
-0.0792494
-0.0784449
-0.0784449
-0.0784449
-0.0776403
-0.0776403
-0.0776403
-0.0776403
-0.0776403
-0.0776403
-0.0776403
-0.0768358
-0.0768358
-0.0768358
-0.0768358
-0.0768358
-0.0768358
-0.0768358
-0.0768358
-0.0768358
-0.0760312
-0.0760312
-0.0760312
-0.0760312
-0.0760312
-0.0760312
-0.0760312
-0.0760312
-0.0760312
-0.0752266
-0.0752266
-0.0752266
-0.0752266
-0.0752266
-0.0744221
-0.0744221
-0.0744221
-0.0744221
-0.0744221
-0.0736175
-0.0736175
-0.0736175
-0.0736175
-0.0736175
-0.0736175
-0.0728129
-0.0728129
-0.0728129
-0.0728129
-0.0728129
-0.0720084
-0.0720084
-0.0720084
-0.0720084
-0.0720084
-0.0712038
-0.0712038
-0.0712038
-0.0712038
-0.0712038
-0.0712038
-0.0712038
-0.0712038
-0.0703992
-0.0703992
-0.0703992
-0.0695947
-0.0695947
-0.0695947
-0.0695947
-0.0695947
-0.0695947
-0.0695947
-0.0695947
-0.0687901
-0.0687901
-0.0687901
-0.0687901
-0.0687901
-0.0687901
-0.0687901
-0.0687901
-0.0687901
-0.0687901
-0.0687901
-0.0679856
-0.0679856
-0.0679856
-0.0679856
-0.0679856
-0.0679856
-0.0679856
-0.0679856
-0.0679856
-0.0679856
-0.0679856
-0.067181
-0.067181
-0.067181
-0.067181
-0.067181
-0.067181
-0.067181
-0.067181
-0.0663764
-0.0663764
-0.0663764
-0.0663764
-0.0663764
-0.0663764
-0.0663764
-0.0663764
-0.0655719
-0.0655719
-0.0655719
-0.0655719
-0.0655719
-0.0647673
-0.0647673
-0.0647673
-0.0647673
-0.0647673
-0.0647673
-0.0647673
-0.0647673
-0.0639627
-0.0639627
-0.0639627
-0.0639627
-0.0639627
-0.0639627
-0.0631582
-0.0631582
-0.0631582
-0.0631582
-0.0631582
-0.0631582
-0.0623536
-0.0623536
-0.0623536
-0.0623536
-0.0623536
-0.0623536
-0.0623536
-0.0623536
-0.0615491
-0.0615491
-0.0615491
-0.0615491
-0.0615491
-0.0607445
-0.0607445
-0.0607445
-0.0607445
-0.0607445
-0.0607445
-0.0607445
-0.0599399
-0.0599399
-0.0599399
-0.0599399
-0.0599399
-0.0599399
-0.0599399
-0.0591354
-0.0591354
-0.0591354
-0.0591354
-0.0591354
-0.0591354
-0.0583308
-0.0583308
-0.0583308
-0.0583308
-0.0583308
-0.0583308
-0.0575262
-0.0575262
-0.0575262
-0.0575262
-0.0575262
-0.0575262
-0.0575262
-0.0567217
-0.0567217
-0.0567217
-0.0567217
-0.0559171
-0.0559171
-0.0559171
-0.0559171
-0.0559171
-0.0551126
-0.0551126
-0.0551126
-0.0551126
-0.0551126
-0.0551126
-0.0551126
-0.054308
-0.054308
-0.054308
-0.054308
-0.054308
-0.054308
-0.054308
-0.054308
-0.0535034
-0.0535034
-0.0535034
-0.0535034
-0.0535034
-0.0535034
-0.0535034
-0.0526989
-0.0526989
-0.0526989
-0.0526989
-0.0526989
-0.0526989
-0.0526989
-0.0526989
-0.0526989
-0.0526989
-0.0526989
-0.0526989
-0.0518943
-0.0518943
-0.0518943
-0.0518943
-0.0518943
-0.0518943
-0.0518943
-0.0518943
-0.0518943
-0.0518943
-0.0518943
-0.0518943
-0.0510897
-0.0510897
-0.0510897
-0.0510897
-0.0510897
-0.0510897
-0.0510897
-0.0510897
-0.0510897
-0.0510897
-0.0502852
-0.0502852
-0.0502852
-0.0502852
-0.0502852
-0.0502852
-0.0502852
-0.0502852
-0.0494806
-0.0494806
-0.0494806
-0.0494806
-0.0494806
-0.048676
-0.048676
-0.048676
-0.048676
-0.048676
-0.0478715
-0.0478715
-0.0478715
-0.0478715
-0.0478715
-0.0478715
-0.0478715
-0.0470669
-0.0470669
-0.0470669
-0.0470669
-0.0470669
-0.0470669
-0.0462624
-0.0462624
-0.0462624
-0.0462624
-0.0462624
-0.0462624
-0.0454578
-0.0454578
-0.0454578
-0.0454578
-0.0454578
-0.0454578
-0.0446532
-0.0446532
-0.0446532
-0.0446532
-0.0446532
-0.0446532
-0.0446532
-0.0446532
-0.0438487
-0.0438487
-0.0438487
-0.0438487
-0.0438487
-0.0430441
-0.0430441
-0.0430441
-0.0430441
-0.0422395
-0.0422395
-0.0422395
-0.0422395
-0.0422395
-0.0422395
-0.0422395
-0.0422395
-0.0422395
-0.0422395
-0.041435
-0.041435
-0.041435
-0.041435
-0.041435
-0.041435
-0.0406304
-0.0406304
-0.0406304
-0.0406304
-0.0406304
-0.0406304
-0.0406304
-0.0406304
-0.0406304
-0.0406304
-0.0406304
-0.0406304
-0.0398259
-0.0398259
-0.0398259
-0.0398259
-0.0398259
-0.0390213
-0.0390213
-0.0390213
-0.0390213
-0.0390213
-0.0390213
-0.0382167
-0.0382167
-0.0382167
-0.0382167
-0.0382167
-0.0374122
-0.0374122
-0.0374122
-0.0374122
-0.0374122
-0.0374122
-0.0366076
-0.0366076
-0.0366076
-0.0366076
-0.0366076
-0.0366076
-0.035803
-0.035803
-0.035803
-0.035803
-0.035803
-0.0349985
-0.0341939
-0.0341939
-0.0341939
-0.0341939
-0.0333894
-0.0333894
-0.0333894
-0.0325848
-0.0325848
-0.0325848
-0.0325848
-0.0325848
-0.0325848
-0.0325848
-0.0317802
-0.0317802
-0.0317802
-0.0309757
-0.0309757
-0.0309757
-0.0309757
-0.0301711
-0.0301711
-0.0301711
-0.0301711
-0.0301711
-0.0301711
-0.0301711
-0.0301711
-0.0301711
-0.0301711
-0.0301711
-0.0301711
-0.0301711
-0.0301711
-0.0301711
-0.0301711
-0.0301711
-0.0293665
-0.0293665
-0.0293665
-0.0293665
-0.0293665
-0.0293665
-0.0293665
-0.0293665
-0.0293665
-0.028562
-0.028562
-0.028562
-0.028562
-0.028562
-0.028562
-0.028562
-0.028562
-0.028562
-0.028562
-0.028562
-0.0277574
-0.0277574
-0.0277574
-0.0277574
-0.0277574
-0.0277574
-0.0277574
-0.0277574
-0.0277574
-0.0277574
-0.0269529
-0.0269529
-0.0269529
-0.0269529
-0.0269529
-0.0269529
-0.0269529
-0.0261483
-0.0261483
-0.0261483
-0.0261483
-0.0261483
-0.0261483
-0.0261483
-0.0261483
-0.0261483
-0.0261483
-0.0261483
-0.0253437
-0.0253437
-0.0253437
-0.0253437
-0.0253437
-0.0253437
-0.0253437
-0.0253437
-0.0253437
-0.0253437
-0.0245392
-0.0245392
-0.0245392
-0.0245392
-0.0245392
-0.0245392
-0.0245392
-0.0245392
-0.0245392
-0.0245392
-0.0245392
-0.0245392
-0.0245392
-0.0245392
-0.0237346
-0.0237346
-0.0237346
-0.0237346
-0.0237346
-0.0237346
-0.0237346
-0.02293
-0.02293
-0.02293
-0.02293
-0.02293
-0.02293
-0.02293
-0.02293
-0.02293
-0.02293
-0.0221255
-0.0221255
-0.0221255
-0.0221255
-0.0221255
-0.0221255
-0.0221255
-0.0221255
-0.0221255
-0.0221255
-0.0213209
-0.0213209
-0.0213209
-0.0213209
-0.0213209
-0.0213209
-0.0213209
-0.0213209
-0.0213209
-0.0205163
-0.0205163
-0.0205163
-0.0205163
-0.0205163
-0.0205163
-0.0205163
-0.0205163
-0.0205163
-0.0205163
-0.0205163
-0.0205163
-0.0205163
-0.0205163
-0.0205163
-0.0205163
-0.0197118
-0.0197118
-0.0197118
-0.0197118
-0.0197118
-0.0197118
-0.0197118
-0.0197118
-0.0197118
-0.0197118
-0.0197118
-0.0197118
-0.0189072
-0.0189072
-0.0189072
-0.0189072
-0.0189072
-0.0189072
-0.0189072
-0.0189072
-0.0189072
-0.0189072
-0.0189072
-0.0189072
-0.0189072
-0.0181027
-0.0181027
-0.0181027
-0.0181027
-0.0181027
-0.0181027
-0.0181027
-0.0181027
-0.0181027
-0.0181027
-0.0172981
-0.0172981
-0.0172981
-0.0172981
-0.0172981
-0.0172981
-0.0172981
-0.0172981
-0.0172981
-0.0172981
-0.0172981
-0.0172981
-0.0164935
-0.0164935
-0.0164935
-0.0164935
-0.0164935
-0.0164935
-0.0164935
-0.0164935
-0.0164935
-0.0164935
-0.0164935
-0.0164935
-0.015689
-0.015689
-0.015689
-0.015689
-0.015689
-0.015689
-0.015689
-0.015689
-0.015689
-0.015689
-0.015689
-0.015689
-0.015689
-0.015689
-0.015689
-0.015689
-0.015689
-0.015689
-0.015689
-0.0148844
-0.0148844
-0.0148844
-0.0148844
-0.0148844
-0.0148844
-0.0148844
-0.0148844
-0.0148844
-0.0148844
-0.0148844
-0.0148844
-0.0148844
-0.0148844
-0.0148844
-0.0148844
-0.0148844
-0.0148844
-0.0148844
-0.0148844
-0.0148844
-0.0148844
-0.0148844
-0.0148844
-0.0140798
-0.0140798
-0.0140798
-0.0140798
-0.0140798
-0.0140798
-0.0140798
-0.0140798
-0.0140798
-0.0140798
-0.0140798
-0.0140798
-0.0140798
-0.0140798
-0.0140798
-0.0132753
-0.0132753
-0.0132753
-0.0132753
-0.0132753
-0.0132753
-0.0132753
-0.0132753
-0.0132753
-0.0132753
-0.0132753
-0.0132753
-0.0132753
-0.0132753
-0.0132753
-0.0132753
-0.0132753
-0.0132753
-0.0132753
-0.0124707
-0.0124707
-0.0124707
-0.0124707
-0.0124707
-0.0124707
-0.0124707
-0.0124707
-0.0124707
-0.0124707
-0.0124707
-0.0124707
-0.0116662
-0.0116662
-0.0116662
-0.0116662
-0.0116662
-0.0116662
-0.0116662
-0.0116662
-0.0116662
-0.0116662
-0.0108616
-0.0108616
-0.0108616
-0.0108616
-0.0108616
-0.0108616
-0.0108616
-0.0108616
-0.0108616
-0.0108616
-0.0108616
-0.0108616
-0.010057
-0.010057
-0.010057
-0.010057
-0.010057
-0.010057
-0.010057
-0.010057
-0.010057
-0.010057
-0.010057
-0.010057
-0.010057
-0.010057
-0.010057
-0.010057
-0.010057
-0.010057
-0.010057
-0.010057
-0.010057
-0.010057
-0.010057
-0.00925247
-0.00925247
-0.00925247
-0.00925247
-0.00925247
-0.00925247
-0.00925247
-0.00925247
-0.00925247
-0.00925247
-0.00925247
-0.00925247
-0.00925247
-0.00925247
-0.00925247
-0.00925247
-0.00925247
-0.00925247
-0.00925247
-0.0084479
-0.0084479
-0.0084479
-0.0084479
-0.0084479
-0.0084479
-0.0084479
-0.0084479
-0.0084479
-0.0084479
-0.0084479
-0.0084479
-0.0084479
-0.0084479
-0.0084479
-0.0084479
-0.0084479
-0.0084479
-0.0084479
-0.0084479
-0.0084479
-0.0084479
-0.00764334
-0.00764334
-0.00764334
-0.00764334
-0.00764334
-0.00764334
-0.00764334
-0.00764334
-0.00764334
-0.00764334
-0.00764334
-0.00764334
-0.00764334
-0.00764334
-0.00764334
-0.00764334
-0.00764334
-0.00764334
-0.00764334
-0.00683878
-0.00683878
-0.00683878
-0.00683878
-0.00683878
-0.00683878
-0.00683878
-0.00683878
-0.00683878
-0.00683878
-0.00683878
-0.00683878
-0.00683878
-0.00683878
-0.00683878
-0.00683878
-0.00683878
-0.00683878
-0.00683878
-0.00603421
-0.00603421
-0.00603421
-0.00603421
-0.00603421
-0.00603421
-0.00603421
-0.00603421
-0.00603421
-0.00603421
-0.00603421
-0.00603421
-0.00603421
-0.00603421
-0.00603421
-0.00603421
-0.00603421
-0.00603421
-0.00603421
-0.00522965
-0.00522965
-0.00522965
-0.00522965
-0.00522965
-0.00522965
-0.00522965
-0.00522965
-0.00522965
-0.00522965
-0.00522965
-0.00522965
-0.00522965
-0.00522965
-0.00522965
-0.00522965
-0.00522965
-0.00522965
-0.00522965
-0.00522965
-0.00522965
-0.00522965
-0.00522965
-0.00522965
-0.00522965
-0.00522965
-0.00522965
-0.00522965
-0.00522965
-0.00522965
-0.00442509
-0.00442509
-0.00442509
-0.00442509
-0.00442509
-0.00442509
-0.00442509
-0.00442509
-0.00442509
-0.00442509
-0.00442509
-0.00442509
-0.00442509
-0.00442509
-0.00442509
-0.00442509
-0.00442509
-0.00442509
-0.00442509
-0.00442509
-0.00442509
-0.00442509
-0.00442509
-0.00442509
-0.00442509
-0.00362053
-0.00362053
-0.00362053
-0.00362053
-0.00362053
-0.00362053
-0.00362053
-0.00362053
-0.00362053
-0.00362053
-0.00362053
-0.00362053
-0.00362053
-0.00362053
-0.00362053
-0.00362053
-0.00362053
-0.00362053
-0.00362053
-0.00362053
-0.00362053
-0.00281596
-0.00281596
-0.00281596
-0.00281596
-0.00281596
-0.00281596
-0.00281596
-0.00281596
-0.00281596
-0.00281596
-0.00281596
-0.00281596
-0.00281596
-0.00281596
-0.00281596
-0.00281596
-0.00281596
-0.00281596
-0.00281596
-0.00281596
-0.00281596
-0.00281596
-0.00281596
-0.00281596
-0.00281596
-0.00281596
-0.00281596
-0.00281596
-0.0020114
-0.0020114
-0.0020114
-0.0020114
-0.0020114
-0.0020114
-0.0020114
-0.0020114
-0.0020114
-0.0020114
-0.0020114
-0.0020114
-0.0020114
-0.0020114
-0.0020114
-0.0020114
-0.0020114
-0.0020114
-0.0020114
-0.0020114
-0.0020114
-0.0020114
-0.0020114
-0.0020114
-0.0020114
-0.0020114
-0.0020114
-0.0020114
-0.00120684
-0.00120684
-0.00120684
-0.00120684
-0.00120684
-0.00120684
-0.00120684
-0.00120684
-0.00120684
-0.00120684
-0.00120684
-0.00120684
-0.00120684
-0.00120684
-0.00120684
-0.00120684
-0.00120684
-0.00120684
-0.00120684
-0.00120684
-0.00120684
-0.00120684
-0.00120684
-0.00120684
-0.00120684
-0.00120684
-0.00120684
-0.000402275
-0.000402275
-0.000402275
-0.000402275
-0.000402275
-0.000402275
-0.000402275
-0.000402275
-0.000402275
-0.000402275
-0.000402275
-0.000402275
-0.000402275
-0.000402275
-0.000402275
-0.000402275
-0.000402275
-0.000402275
-0.000402275
-0.000402275
-0.000402275
-0.000402275
-0.000402275
-0.000402275
-0.000402275
-0.000402275
-0.000402275
-0.000402275
0.000402288
0.000402288
0.000402288
0.000402288
0.000402288
0.000402288
0.000402288
0.000402288
0.000402288
0.000402288
0.000402288
0.000402288
0.000402288
0.000402288
0.000402288
0.000402288
0.000402288
0.000402288
0.000402288
0.000402288
0.00120685
0.00120685
0.00120685
0.00120685
0.00120685
0.00120685
0.00120685
0.00120685
0.00120685
0.00120685
0.00120685
0.00120685
0.00120685
0.00120685
0.00120685
0.00120685
0.00120685
0.00120685
0.00120685
0.00120685
0.00120685
0.00120685
0.00120685
0.00120685
0.00120685
0.00120685
0.00120685
0.00120685
0.00120685
0.00120685
0.00120685
0.00120685
0.00120685
0.00201141
0.00201141
0.00201141
0.00201141
0.00201141
0.00201141
0.00201141
0.00201141
0.00201141
0.00201141
0.00201141
0.00201141
0.00201141
0.00201141
0.00201141
0.00201141
0.00201141
0.00201141
0.00201141
0.00201141
0.00201141
0.00201141
0.00201141
0.00201141
0.00201141
0.00281598
0.00281598
0.00281598
0.00281598
0.00281598
0.00281598
0.00281598
0.00281598
0.00281598
0.00281598
0.00281598
0.00281598
0.00281598
0.00281598
0.00281598
0.00281598
0.00281598
0.00281598
0.00281598
0.00281598
0.00281598
0.00281598
0.00281598
0.00281598
0.00281598
0.00281598
0.00281598
0.00281598
0.00281598
0.00281598
0.00281598
0.00362054
0.00362054
0.00362054
0.00362054
0.00362054
0.00362054
0.00362054
0.00362054
0.00362054
0.00362054
0.00362054
0.00362054
0.00362054
0.00362054
0.00362054
0.00362054
0.00362054
0.00362054
0.00362054
0.00362054
0.00362054
0.00362054
0.00362054
0.00362054
0.00362054
0.00362054
0.00362054
0.00362054
0.00362054
0.00362054
0.0044251
0.0044251
0.0044251
0.0044251
0.0044251
0.0044251
0.0044251
0.0044251
0.0044251
0.0044251
0.0044251
0.0044251
0.0044251
0.0044251
0.0044251
0.0044251
0.0044251
0.0044251
0.00522966
0.00522966
0.00522966
0.00522966
0.00522966
0.00522966
0.00522966
0.00522966
0.00522966
0.00522966
0.00522966
0.00522966
0.00522966
0.00522966
0.00522966
0.00522966
0.00522966
0.00522966
0.00522966
0.00522966
0.00522966
0.00522966
0.00522966
0.00603423
0.00603423
0.00603423
0.00603423
0.00603423
0.00603423
0.00603423
0.00603423
0.00603423
0.00603423
0.00603423
0.00603423
0.00603423
0.00603423
0.00603423
0.00603423
0.00603423
0.00603423
0.00603423
0.00603423
0.00603423
0.00683879
0.00683879
0.00683879
0.00683879
0.00683879
0.00683879
0.00683879
0.00683879
0.00683879
0.00683879
0.00683879
0.00683879
0.00683879
0.00683879
0.00683879
0.00683879
0.00683879
0.00683879
0.00683879
0.00683879
0.00764335
0.00764335
0.00764335
0.00764335
0.00764335
0.00764335
0.00764335
0.00764335
0.00764335
0.00764335
0.00764335
0.00764335
0.00764335
0.00764335
0.00764335
0.00764335
0.00764335
0.00764335
0.00764335
0.00764335
0.00764335
0.00764335
0.00764335
0.00844792
0.00844792
0.00844792
0.00844792
0.00844792
0.00844792
0.00844792
0.00844792
0.00844792
0.00844792
0.00844792
0.00844792
0.00844792
0.00844792
0.00844792
0.00925248
0.00925248
0.00925248
0.00925248
0.00925248
0.00925248
0.00925248
0.00925248
0.00925248
0.00925248
0.00925248
0.00925248
0.00925248
0.00925248
0.00925248
0.00925248
0.00925248
0.010057
0.010057
0.010057
0.010057
0.010057
0.010057
0.010057
0.010057
0.010057
0.010057
0.010057
0.010057
0.010057
0.010057
0.010057
0.010057
0.0108616
0.0108616
0.0108616
0.0108616
0.0108616
0.0108616
0.0108616
0.0108616
0.0108616
0.0108616
0.0108616
0.0108616
0.0108616
0.0108616
0.0108616
0.0108616
0.0108616
0.0116662
0.0116662
0.0116662
0.0116662
0.0116662
0.0116662
0.0116662
0.0116662
0.0116662
0.0116662
0.0116662
0.0116662
0.0116662
0.0116662
0.0116662
0.0116662
0.0116662
0.0116662
0.0116662
0.0124707
0.0124707
0.0124707
0.0124707
0.0124707
0.0124707
0.0124707
0.0124707
0.0124707
0.0124707
0.0124707
0.0132753
0.0132753
0.0132753
0.0132753
0.0132753
0.0132753
0.0132753
0.0132753
0.0132753
0.0132753
0.0132753
0.0132753
0.0132753
0.0132753
0.0132753
0.0140799
0.0140799
0.0140799
0.0140799
0.0140799
0.0140799
0.0140799
0.0140799
0.0140799
0.0140799
0.0140799
0.0140799
0.0140799
0.0140799
0.0140799
0.0140799
0.0140799
0.0148844
0.0148844
0.0148844
0.0148844
0.0148844
0.0148844
0.0148844
0.0148844
0.0148844
0.0148844
0.0148844
0.0148844
0.0148844
0.0148844
0.0148844
0.0148844
0.0148844
0.0148844
0.0148844
0.015689
0.015689
0.015689
0.015689
0.015689
0.015689
0.015689
0.015689
0.015689
0.015689
0.015689
0.015689
0.0164935
0.0164935
0.0164935
0.0164935
0.0164935
0.0164935
0.0164935
0.0164935
0.0164935
0.0164935
0.0164935
0.0164935
0.0164935
0.0164935
0.0164935
0.0164935
0.0164935
0.0164935
0.0172981
0.0172981
0.0172981
0.0172981
0.0172981
0.0172981
0.0172981
0.0172981
0.0172981
0.0172981
0.0172981
0.0172981
0.0172981
0.0172981
0.0172981
0.0172981
0.0172981
0.0172981
0.0181027
0.0181027
0.0181027
0.0181027
0.0181027
0.0181027
0.0181027
0.0181027
0.0181027
0.0181027
0.0181027
0.0181027
0.0181027
0.0181027
0.0181027
0.0181027
0.0181027
0.0181027
0.0181027
0.0181027
0.0189072
0.0189072
0.0189072
0.0189072
0.0189072
0.0189072
0.0189072
0.0189072
0.0189072
0.0189072
0.0189072
0.0189072
0.0189072
0.0189072
0.0189072
0.0189072
0.0189072
0.0197118
0.0197118
0.0197118
0.0197118
0.0197118
0.0197118
0.0197118
0.0197118
0.0197118
0.0197118
0.0197118
0.0197118
0.0197118
0.0197118
0.0197118
0.0197118
0.0197118
0.0205164
0.0205164
0.0205164
0.0205164
0.0205164
0.0205164
0.0205164
0.0205164
0.0205164
0.0205164
0.0205164
0.0205164
0.0205164
0.0205164
0.0205164
0.0205164
0.0213209
0.0213209
0.0213209
0.0213209
0.0213209
0.0213209
0.0213209
0.0213209
0.0213209
0.0213209
0.0213209
0.0213209
0.0213209
0.0213209
0.0221255
0.0221255
0.0221255
0.0221255
0.0221255
0.0221255
0.0221255
0.0221255
0.0221255
0.0221255
0.0221255
0.0221255
0.02293
0.02293
0.02293
0.02293
0.02293
0.02293
0.02293
0.02293
0.0237346
0.0237346
0.0237346
0.0237346
0.0237346
0.0237346
0.0237346
0.0237346
0.0237346
0.0237346
0.0237346
0.0245392
0.0245392
0.0245392
0.0245392
0.0245392
0.0245392
0.0245392
0.0245392
0.0245392
0.0245392
0.0253437
0.0253437
0.0253437
0.0253437
0.0253437
0.0253437
0.0253437
0.0253437
0.0253437
0.0253437
0.0253437
0.0253437
0.0253437
0.0253437
0.0261483
0.0261483
0.0261483
0.0261483
0.0261483
0.0261483
0.0261483
0.0261483
0.0261483
0.0261483
0.0269529
0.0269529
0.0269529
0.0269529
0.0269529
0.0277574
0.0277574
0.0277574
0.0277574
0.0277574
0.0277574
0.0277574
0.0277574
0.0277574
0.0277574
0.0277574
0.0277574
0.028562
0.028562
0.028562
0.028562
0.028562
0.028562
0.028562
0.028562
0.028562
0.0293665
0.0293665
0.0293665
0.0293665
0.0293665
0.0293665
0.0301711
0.0301711
0.0301711
0.0301711
0.0301711
0.0301711
0.0309757
0.0309757
0.0309757
0.0309757
0.0309757
0.0309757
0.0309757
0.0309757
0.0317802
0.0317802
0.0317802
0.0317802
0.0317802
0.0317802
0.0317802
0.0325848
0.0325848
0.0325848
0.0325848
0.0325848
0.0325848
0.0325848
0.0325848
0.0325848
0.0325848
0.0325848
0.0333894
0.0333894
0.0333894
0.0333894
0.0333894
0.0333894
0.0333894
0.0333894
0.0333894
0.0333894
0.0341939
0.0341939
0.0341939
0.0341939
0.0341939
0.0341939
0.0341939
0.0341939
0.0349985
0.0349985
0.0349985
0.0349985
0.0349985
0.0349985
0.0349985
0.035803
0.035803
0.035803
0.035803
0.035803
0.035803
0.035803
0.035803
0.035803
0.0366076
0.0366076
0.0366076
0.0366076
0.0366076
0.0366076
0.0366076
0.0374122
0.0374122
0.0374122
0.0374122
0.0374122
0.0374122
0.0374122
0.0382167
0.0382167
0.0382167
0.0382167
0.0382167
0.0382167
0.0382167
0.0390213
0.0390213
0.0390213
0.0390213
0.0390213
0.0390213
0.0398259
0.0398259
0.0398259
0.0398259
0.0398259
0.0398259
0.0398259
0.0406304
0.0406304
0.0406304
0.041435
0.041435
0.041435
0.041435
0.0422396
0.0422396
0.0422396
0.0422396
0.0422396
0.0430441
0.0430441
0.0430441
0.0430441
0.0430441
0.0438487
0.0438487
0.0438487
0.0438487
0.0438487
0.0438487
0.0438487
0.0438487
0.0446532
0.0446532
0.0446532
0.0446532
0.0446532
0.0446532
0.0454578
0.0454578
0.0454578
0.0454578
0.0454578
0.0454578
0.0454578
0.0462624
0.0462624
0.0462624
0.0462624
0.0462624
0.0470669
0.0470669
0.0470669
0.0470669
0.0470669
0.0470669
0.0470669
0.0470669
0.0478715
0.0478715
0.0478715
0.0478715
0.0478715
0.0486761
0.0486761
0.0486761
0.0486761
0.0494806
0.0494806
0.0494806
0.0494806
0.0494806
0.0502852
0.0502852
0.0502852
0.0502852
0.0502852
0.0502852
0.0510897
0.0510897
0.0510897
0.0510897
0.0510897
0.0510897
0.0510897
0.0518943
0.0518943
0.0518943
0.0518943
0.0518943
0.0518943
0.0518943
0.0526989
0.0526989
0.0526989
0.0526989
0.0526989
0.0535034
0.0535034
0.054308
0.054308
0.054308
0.054308
0.054308
0.054308
0.054308
0.054308
0.054308
0.054308
0.0551126
0.0551126
0.0551126
0.0551126
0.0551126
0.0559171
0.0567217
0.0567217
0.0567217
0.0567217
0.0567217
0.0567217
0.0567217
0.0575263
0.0575263
0.0575263
0.0583308
0.0591354
0.0591354
0.0591354
0.0591354
0.0591354
0.0591354
0.0591354
0.0591354
0.0599399
0.0599399
0.0599399
0.0599399
0.0607445
0.0607445
0.0607445
0.0615491
0.0615491
0.0615491
0.0615491
0.0615491
0.0623536
0.0623536
0.0623536
0.0623536
0.0623536
0.0623536
0.0631582
0.0631582
0.0631582
0.0639628
0.0639628
0.0639628
0.0639628
0.0639628
0.0639628
0.0639628
0.0639628
0.0647673
0.0647673
0.0647673
0.0647673
0.0647673
0.0647673
0.0655719
0.0655719
0.0655719
0.0655719
0.0655719
0.0655719
0.0655719
0.0655719
0.0655719
0.0663764
0.0663764
0.0663764
0.0663764
0.0663764
0.067181
0.067181
0.067181
0.067181
0.0679856
0.0679856
0.0679856
0.0679856
0.0679856
0.0687901
0.0687901
0.0687901
0.0695947
0.0695947
0.0695947
0.0695947
0.0695947
0.0695947
0.0703993
0.0703993
0.0703993
0.0703993
0.0703993
0.0703993
0.0712038
0.0712038
0.0712038
0.0712038
0.0712038
0.0712038
0.0712038
0.0712038
0.0712038
0.0720084
0.0720084
0.0720084
0.0720084
0.0720084
0.0720084
0.072813
0.072813
0.072813
0.072813
0.072813
0.072813
0.072813
0.0736175
0.0736175
0.0736175
0.0736175
0.0736175
0.0736175
0.0736175
0.0736175
0.0736175
0.0744221
0.0752266
0.0752266
0.0752266
0.0752266
0.0752266
0.0752266
0.0752266
0.0760312
0.0760312
0.0760312
0.0760312
0.0760312
0.0760312
0.0760312
0.0760312
0.0760312
0.0760312
0.0768358
0.0768358
0.0776403
0.0776403
0.0776403
0.0776403
0.0776403
0.0776403
0.0776403
0.0776403
0.0776403
0.0776403
0.0776403
0.0784449
0.0784449
0.0784449
0.0784449
0.0784449
0.0784449
0.0784449
0.0784449
0.0784449
0.0784449
0.0784449
0.0792495
0.0792495
0.0792495
0.0792495
0.0792495
0.080054
0.080054
0.080054
0.080054
0.080054
0.080054
0.080054
0.080054
0.080054
0.080054
0.0808586
0.0808586
0.0808586
0.0816631
0.0816631
0.0816631
0.0816631
0.0816631
0.0816631
0.0816631
0.0824677
0.0824677
0.0824677
0.0824677
0.0824677
0.0824677
0.0832723
0.0832723
0.0832723
0.0840768
0.0840768
0.0840768
0.0840768
0.0840768
0.0840768
0.0840768
0.0848814
0.0848814
0.0848814
0.0848814
0.0848814
0.0848814
0.0848814
0.0848814
0.085686
0.085686
0.085686
0.085686
0.0864905
0.0864905
0.0864905
0.0864905
0.0864905
0.0864905
0.0864905
0.0864905
0.0872951
0.0872951
0.0872951
0.0872951
0.0872951
0.0872951
0.0880996
0.0880996
0.0880996
0.0880996
0.0880996
0.0880996
0.0889042
0.0889042
0.0889042
0.0889042
0.0889042
0.0889042
0.0889042
0.0889042
0.0897088
0.0897088
0.0897088
0.0897088
0.0897088
0.0897088
0.0897088
0.0897088
0.0897088
0.0897088
0.0897088
0.0897088
0.0905133
0.0905133
0.0905133
0.0905133
0.0905133
0.0905133
0.0905133
0.0905133
0.0905133
0.0905133
0.0913179
0.0913179
0.0913179
0.0913179
0.0913179
0.0913179
0.0913179
0.0913179
0.0913179
0.0913179
0.0921225
0.0921225
0.0921225
0.0921225
0.0921225
0.0921225
0.0921225
0.0921225
0.0921225
0.0921225
0.092927
0.092927
0.092927
0.092927
0.092927
0.092927
0.092927
0.092927
0.092927
0.092927
0.0937316
0.0937316
0.0937316
0.0937316
0.0937316
0.0937316
0.0937316
0.0937316
0.0937316
0.0945361
0.0945361
0.0953407
0.0953407
0.0953407
0.0953407
0.0953407
0.0953407
0.0961453
0.0961453
0.0961453
0.0961453
0.0961453
0.0961453
0.0961453
0.0961453
0.0961453
0.0969498
0.0969498
0.0969498
0.0969498
0.0969498
0.0969498
0.0969498
0.0969498
0.0977544
0.0977544
0.0977544
0.0977544
0.0977544
0.0977544
0.0977544
0.0977544
0.0977544
0.098559
0.098559
0.098559
0.098559
0.098559
0.0993635
0.100168
0.100168
0.100168
0.100168
0.100973
