-0.179766
-0.179766
-0.178357
-0.175537
-0.175537
-0.175537
-0.175537
-0.175537
-0.175537
-0.175537
-0.174127
-0.171307
-0.169897
-0.168487
-0.167077
-0.167077
-0.167077
-0.165667
-0.162847
-0.161437
-0.161437
-0.160027
-0.160027
-0.158617
-0.158617
-0.157208
-0.155798
-0.154388
-0.154388
-0.152978
-0.150158
-0.147338
-0.147338
-0.147338
-0.145928
-0.145928
-0.144518
-0.144518
-0.141698
-0.141698
-0.140288
-0.138878
-0.137468
-0.137468
-0.136059
-0.136059
-0.134649
-0.134649
-0.134649
-0.129009
-0.127599
-0.126189
-0.124779
-0.121959
-0.119139
-0.119139
-0.116319
-0.11491
-0.11209
-0.11068
-0.11068
-0.10786
-0.10645
-0.10504
-0.10504
-0.10504
-0.10363
-0.10363
-0.10081
-0.0994003
-0.0979903
-0.0965804
-0.0965804
-0.0965804
-0.0937606
-0.0923506
-0.0909407
-0.0909407
-0.0895308
-0.0895308
-0.0881208
-0.0881208
-0.0881208
-0.0881208
-0.0881208
-0.0867109
-0.083891
-0.0824811
-0.0824811
-0.0824811
-0.0810712
-0.0768414
-0.0754314
-0.0754314
-0.0754314
-0.0740215
-0.0726116
-0.0726116
-0.0726116
-0.0712016
-0.0712016
-0.0697917
-0.0697917
-0.0683818
-0.0683818
-0.0669718
-0.0655619
-0.064152
-0.064152
-0.064152
-0.064152
-0.064152
-0.064152
-0.0613321
-0.0613321
-0.0613321
-0.0613321
-0.0599222
-0.0599222
-0.0599222
-0.0585122
-0.0585122
-0.0585122
-0.0571023
-0.0571023
-0.0571023
-0.0571023
-0.0556924
-0.0556924
-0.0556924
-0.0556924
-0.0542824
-0.0542824
-0.0528725
-0.0514626
-0.0514626
-0.0514626
-0.0514626
-0.0500526
-0.0500526
-0.0500526
-0.0486427
-0.0486427
-0.0486427
-0.0486427
-0.0472328
-0.0472328
-0.0472328
-0.0472328
-0.0458228
-0.0458228
-0.0444129
-0.0430029
-0.041593
-0.0401831
-0.0387731
-0.0359533
-0.0345434
-0.0345434
-0.0331334
-0.0331334
-0.0317235
-0.0317235
-0.0317235
-0.0303136
-0.0303136
-0.0289036
-0.0246738
-0.0246738
-0.0246738
-0.0232639
-0.0232639
-0.0190341
-0.0176242
-0.0162142
-0.0162142
-0.0148043
-0.0148043
-0.0148043
-0.0133944
-0.0133944
-0.0119844
-0.0119844
-0.0105745
-0.00916455
-0.00775462
-0.00352482
-0.00352482
-0.00211489
-0.00211489
-0.000704956
-0.000704956
-0.000704956
-0.000704956
0.000704977
0.00352484
0.00352484
0.00775464
0.00775464
0.00916458
0.00916458
0.00916458
0.00916458
0.0133944
0.0162142
0.0162142
0.0162142
0.0176242
0.0176242
0.020444
0.0246738
0.0260838
0.0274937
0.0289036
0.0289036
0.0289036
0.0289036
0.0303136
0.0303136
0.0303136
0.0317235
0.0317235
0.0359533
0.0373632
0.0387732
0.0387732
0.0401831
0.0401831
0.043003
0.0444129
0.0458228
0.0472328
0.0472328
0.0486427
0.0486427
0.0486427
0.0514626
0.0514626
0.0514626
0.0514626
0.0514626
0.0528725
0.0556924
0.0571023
0.0571023
0.0571023
0.0585122
0.0599222
0.0599222
0.0599222
0.0613321
0.0613321
0.0613321
0.0613321
0.0613321
0.0613321
0.064152
0.0655619
0.0669718
0.0683818
0.0683818
0.0683818
0.0683818
0.0697917
0.0712016
0.0726116
0.0726116
0.0726116
0.0754314
0.0754314
0.0768414
0.0768414
0.0782513
0.0796612
0.0796612
0.0796612
0.0810712
0.0810712
0.0824811
0.0867109
0.0881208
0.0881208
0.0881208
0.0895308
0.0895308
0.0937606
0.0965805
0.0979904
0.0994003
0.0994003
0.0994003
0.10363
0.10504
0.10504
0.10504
0.10927
0.11068
0.11209
0.1135
0.137469
