-0.647366
-0.637211
-0.637211
-0.637211
-0.632134
-0.632134
-0.632134
-0.627056
-0.627056
-0.627056
-0.621979
-0.621979
-0.621979
-0.621979
-0.621979
-0.616902
-0.611824
-0.611824
-0.611824
-0.611824
-0.606747
-0.606747
-0.606747
-0.606747
-0.606747
-0.606747
-0.606747
-0.606747
-0.596592
-0.596592
-0.591515
-0.591515
-0.591515
-0.586437
-0.586437
-0.586437
-0.586437
-0.58136
-0.58136
-0.58136
-0.58136
-0.58136
-0.576283
-0.576283
-0.576283
-0.576283
-0.576283
-0.576283
-0.571205
-0.571205
-0.571205
-0.571205
-0.571205
-0.566128
-0.566128
-0.566128
-0.566128
-0.566128
-0.56105
-0.56105
-0.56105
-0.56105
-0.56105
-0.56105
-0.56105
-0.56105
-0.555973
-0.555973
-0.555973
-0.555973
-0.550896
-0.550896
-0.550896
-0.545818
-0.545818
-0.545818
-0.545818
-0.545818
-0.540741
-0.540741
-0.540741
-0.535664
-0.535664
-0.535664
-0.530586
-0.530586
-0.530586
-0.530586
-0.530586
-0.530586
-0.525509
-0.520431
-0.520431
-0.515354
-0.515354
-0.515354
-0.515354
-0.515354
-0.515354
-0.515354
-0.515354
-0.505199
-0.500122
-0.500122
-0.500122
-0.495045
-0.495045
-0.495045
-0.495045
-0.495045
-0.489967
-0.489967
-0.489967
-0.48489
-0.48489
-0.48489
-0.479812
-0.479812
-0.474735
-0.474735
-0.474735
-0.469658
-0.469658
-0.469658
-0.469658
-0.469658
-0.46458
-0.459503
-0.454426
-0.454426
-0.454426
-0.449348
-0.444271
-0.444271
-0.444271
-0.439193
-0.439193
-0.439193
-0.439193
-0.439193
-0.434116
-0.434116
-0.429039
-0.429039
-0.429039
-0.429039
-0.423961
-0.418884
-0.413806
-0.413806
-0.408729
-0.408729
-0.408729
-0.408729
-0.403652
-0.403652
-0.403652
-0.393497
-0.393497
-0.393497
-0.393497
-0.393497
-0.38842
-0.38842
-0.383342
-0.383342
-0.383342
-0.383342
-0.378265
-0.373187
-0.373187
-0.373187
-0.36811
-0.363033
-0.363033
-0.357955
-0.357955
-0.357955
-0.352878
-0.3478
-0.3478
-0.342723
-0.337646
-0.337646
-0.337646
-0.332568
-0.332568
-0.327491
-0.327491
-0.322414
-0.317336
-0.317336
-0.317336
-0.312259
-0.312259
-0.307181
-0.307181
-0.302104
-0.302104
-0.302104
-0.302104
-0.297027
-0.297027
-0.291949
-0.291949
-0.291949
-0.291949
-0.286872
-0.286872
-0.286872
-0.281795
-0.281795
-0.276717
-0.276717
-0.276717
-0.276717
-0.276717
-0.27164
-0.266562
-0.266562
-0.266562
-0.261485
-0.256408
-0.256408
-0.256408
-0.25133
-0.25133
-0.25133
-0.246253
-0.246253
-0.246253
-0.241176
-0.241176
-0.241176
-0.236098
-0.236098
-0.231021
-0.231021
-0.225943
-0.225943
-0.220866
-0.220866
-0.215789
-0.210711
-0.210711
-0.210711
-0.210711
-0.210711
-0.210711
-0.210711
-0.210711
-0.205634
-0.200557
-0.200557
-0.200557
-0.200557
-0.200557
-0.195479
-0.195479
-0.195479
-0.185324
-0.185324
-0.185324
-0.185324
-0.180247
-0.180247
-0.180247
-0.17517
-0.170092
-0.170092
-0.170092
-0.165015
-0.159937
-0.159937
-0.159937
-0.159937
-0.15486
-0.15486
-0.149783
-0.149783
-0.144705
-0.144705
-0.144705
-0.139628
-0.139628
-0.139628
-0.134551
-0.134551
-0.134551
-0.134551
-0.134551
-0.134551
-0.124396
-0.124396
-0.124396
-0.124396
-0.119318
-0.119318
-0.114241
-0.114241
-0.114241
-0.114241
-0.109164
-0.109164
-0.109164
-0.109164
-0.104086
-0.0990089
-0.0990089
-0.0939315
-0.0939315
-0.0939315
-0.0939315
-0.0939315
-0.0939315
-0.0888541
-0.0837767
-0.0837767
-0.0837767
-0.0837767
-0.0786993
-0.0786993
-0.0786993
-0.0786993
-0.0786993
-0.073622
-0.073622
-0.073622
-0.073622
-0.0685446
-0.0685446
-0.0685446
-0.0685446
-0.0634672
-0.0634672
-0.0634672
-0.0634672
-0.0634672
-0.0634672
-0.0583898
-0.0583898
-0.0583898
-0.0583898
-0.0583898
-0.0583898
-0.0533124
-0.0533124
-0.0533124
-0.0533124
-0.0533124
-0.0533124
-0.0482351
-0.0482351
-0.0482351
-0.0482351
-0.0482351
-0.0431577
-0.0431577
-0.0431577
-0.0431577
-0.0431577
-0.0431577
-0.0431577
-0.0431577
-0.0380803
-0.0380803
-0.0380803
-0.0380803
-0.0380803
-0.0380803
-0.0380803
-0.0380803
-0.0380803
-0.0380803
-0.0380803
-0.0380803
-0.0380803
-0.0380803
-0.0330029
-0.0330029
-0.0330029
-0.0330029
-0.0330029
-0.0330029
-0.0330029
-0.0330029
-0.0330029
-0.0330029
-0.0330029
-0.0330029
-0.0330029
-0.0279255
-0.0279255
-0.0279255
-0.0279255
-0.0279255
-0.0279255
-0.0279255
-0.0279255
-0.0279255
-0.0279255
-0.0228482
-0.0228482
-0.0228482
-0.0228482
-0.0228482
-0.0228482
-0.0177708
-0.0177708
-0.0177708
-0.0177708
-0.0177708
-0.0177708
-0.0177708
-0.0177708
-0.0177708
-0.0177708
-0.0177708
-0.0177708
-0.0126934
-0.0126934
-0.0126934
-0.0126934
-0.0126934
-0.0126934
-0.0126934
-0.0126934
-0.0126934
-0.0126934
-0.0126934
-0.0126934
-0.0126934
-0.00761603
-0.00761603
-0.00761603
-0.00761603
-0.00761603
-0.00761603
-0.00761603
-0.00761603
-0.00761603
-0.00761603
-0.00761603
-0.00761603
-0.00253865
-0.00253865
-0.00253865
-0.00253865
-0.00253865
-0.00253865
-0.00253865
-0.00253865
-0.00253865
0.00253873
0.00253873
0.00253873
0.00253873
0.00253873
0.00253873
0.00253873
0.00253873
0.00253873
0.00253873
0.00253873
0.00253873
0.00253873
0.00761611
0.00761611
0.00761611
0.00761611
0.00761611
0.00761611
0.00761611
0.00761611
0.0126935
0.0126935
0.0126935
0.0126935
0.0126935
0.0126935
0.0126935
0.0126935
0.0126935
0.0177709
0.0177709
0.0177709
0.0177709
0.0177709
0.0177709
0.0177709
0.0177709
0.0177709
0.0177709
0.0177709
0.0177709
0.0177709
0.0228482
0.0228482
0.0228482
0.0228482
0.0228482
0.0228482
0.0228482
0.0228482
0.0279256
0.0279256
0.0279256
0.0279256
0.0279256
0.0279256
0.033003
0.033003
0.033003
0.033003
0.033003
0.033003
0.0380804
0.0380804
0.0380804
0.0380804
0.0380804
0.0380804
0.0431578
0.0431578
0.0431578
0.0431578
0.0431578
0.0431578
0.0482351
0.0482351
0.0482351
0.0482351
0.0482351
0.0482351
0.0482351
0.0482351
0.0533125
0.0533125
0.0533125
0.0533125
0.0583899
0.0583899
0.0583899
0.0583899
0.0634673
0.0634673
0.0634673
0.0634673
0.0634673
0.0634673
0.0685447
0.0685447
0.0685447
0.0685447
0.0685447
0.073622
0.073622
0.073622
0.073622
0.0786994
0.0786994
0.0837768
0.0888542
0.0888542
0.0888542
0.0888542
0.0939316
0.0939316
0.0939316
0.0990089
0.104086
0.104086
0.109164
0.109164
0.109164
0.114241
0.119318
0.119318
0.119318
0.119318
0.124396
0.124396
0.124396
0.129473
0.129473
0.134551
0.134551
0.139628
0.139628
0.139628
0.139628
0.144705
0.149783
0.149783
0.149783
0.149783
0.15486
0.15486
0.15486
0.15486
0.165015
0.165015
0.170092
0.170092
0.17517
0.17517
0.17517
0.180247
0.180247
0.180247
0.185324
0.185324
0.185324
0.190402
0.195479
0.200557
0.200557
0.200557
0.205634
0.205634
0.205634
0.210711
0.210711
0.210711
0.210711
0.215789
0.215789
0.220866
0.220866
0.220866
0.220866
0.225943
0.225943
0.225943
0.225943
0.225943
0.231021
0.231021
0.231021
0.236098
0.236098
0.236098
0.236098
0.241176
0.241176
0.241176
0.246253
0.246253
0.246253
0.246253
0.246253
0.246253
0.25133
0.25133
0.25133
0.256408
0.256408
0.256408
0.261485
0.261485
0.261485
0.261485
0.261485
0.261485
0.261485
0.261485
0.266562
0.266562
0.266562
0.27164
0.27164
0.27164
0.276717
0.276717
0.276717
0.276717
0.276717
0.281795
0.281795
0.286872
0.286872
0.286872
0.286872
0.286872
0.286872
0.286872
0.286872
0.291949
0.291949
0.291949
0.291949
0.291949
0.291949
0.291949
0.297027
0.297027
0.297027
0.302104
0.302104
0.302104
0.307182
0.307182
0.307182
0.307182
0.307182
0.312259
0.312259
0.312259
0.312259
0.312259
0.312259
0.312259
0.312259
0.312259
0.317336
0.317336
0.317336
0.322414
0.322414
0.322414
0.327491
0.327491
0.327491
0.327491
0.332568
0.332568
0.332568
0.332568
0.337646
0.342723
0.342723
0.342723
0.342723
0.347801
0.347801
0.352878
0.352878
0.352878
0.352878
0.352878
0.352878
0.357955
0.357955
0.357955
0.357955
0.357955
0.363033
0.363033
0.363033
0.36811
0.36811
0.36811
0.36811
0.36811
0.373188
0.373188
0.373188
0.373188
0.373188
0.378265
0.378265
0.378265
0.378265
0.383342
0.383342
0.383342
0.383342
0.38842
0.38842
0.38842
0.38842
0.38842
0.393497
0.393497
0.398574
0.398574
0.403652
0.403652
0.403652
0.408729
0.408729
0.408729
0.413807
0.413807
0.413807
0.418884
0.418884
0.418884
0.418884
0.423961
0.423961
0.423961
0.429039
0.429039
0.429039
0.434116
0.434116
0.434116
0.434116
0.434116
0.439193
0.439193
0.439193
0.439193
0.439193
0.439193
0.444271
0.449348
0.449348
0.449348
0.449348
0.449348
0.454426
0.459503
0.459503
0.459503
0.46458
0.46458
0.46458
0.469658
0.479813
0.48489
0.48489
0.495045
0.505199
0.510277
0.515354
0.520432
0.525509
0.530586
0.530586
0.535664
0.540741
0.540741
0.550896
0.555973
0.561051
0.566128
0.586437
0.586437
