-0.206938
-0.198823
-0.193953
-0.189084
-0.184215
-0.1761
-0.174477
-0.167985
-0.163116
-0.161493
-0.156624
-0.155
-0.153377
-0.151754
-0.145262
-0.143639
-0.143639
-0.143639
-0.142016
-0.140393
-0.140393
-0.140393
-0.13877
-0.13877
-0.135524
-0.135524
-0.133901
-0.125786
-0.125786
-0.125786
-0.125786
-0.124163
-0.124163
-0.124163
-0.124163
-0.120917
-0.120917
-0.120917
-0.119294
-0.119294
-0.119294
-0.117671
-0.117671
-0.116047
-0.116047
-0.116047
-0.114424
-0.114424
-0.114424
-0.114424
-0.114424
-0.112801
-0.111178
-0.111178
-0.109555
-0.109555
-0.109555
-0.109555
-0.109555
-0.109555
-0.109555
-0.109555
-0.107932
-0.107932
-0.107932
-0.107932
-0.107932
-0.106309
-0.106309
-0.106309
-0.104686
-0.104686
-0.104686
-0.104686
-0.103063
-0.10144
-0.10144
-0.10144
-0.0998171
-0.0998171
-0.098194
-0.098194
-0.098194
-0.098194
-0.098194
-0.0949479
-0.0949479
-0.0949479
-0.0933249
-0.0933249
-0.0933249
-0.0933249
-0.0933249
-0.0933249
-0.0933249
-0.0933249
-0.0917018
-0.0917018
-0.0917018
-0.0900788
-0.0900788
-0.0900788
-0.0900788
-0.0900788
-0.0884558
-0.0884558
-0.0884558
-0.0884558
-0.0884558
-0.0868327
-0.0868327
-0.0868327
-0.0868327
-0.0852097
-0.0852097
-0.0852097
-0.0852097
-0.0852097
-0.0852097
-0.0835866
-0.0835866
-0.0835866
-0.0835866
-0.0835866
-0.0835866
-0.0835866
-0.0835866
-0.0819636
-0.0819636
-0.0819636
-0.0819636
-0.0819636
-0.0819636
-0.0819636
-0.0819636
-0.0819636
-0.0803406
-0.0803406
-0.0803406
-0.0803406
-0.0803406
-0.0803406
-0.0803406
-0.0787175
-0.0787175
-0.0787175
-0.0787175
-0.0787175
-0.0787175
-0.0787175
-0.0787175
-0.0770945
-0.0770945
-0.0770945
-0.0770945
-0.0770945
-0.0770945
-0.0770945
-0.0770945
-0.0770945
-0.0770945
-0.0770945
-0.0770945
-0.0770945
-0.0754714
-0.0754714
-0.0754714
-0.0754714
-0.0754714
-0.0754714
-0.0754714
-0.0738484
-0.0738484
-0.0738484
-0.0738484
-0.0738484
-0.0738484
-0.0738484
-0.0738484
-0.0738484
-0.0738484
-0.0722253
-0.0722253
-0.0722253
-0.0722253
-0.0722253
-0.0722253
-0.0722253
-0.0722253
-0.0706023
-0.0706023
-0.0706023
-0.0706023
-0.0706023
-0.0706023
-0.0689793
-0.0689793
-0.0689793
-0.0689793
-0.0689793
-0.0689793
-0.0689793
-0.0689793
-0.0673562
-0.0673562
-0.0673562
-0.0673562
-0.0673562
-0.0673562
-0.0673562
-0.0673562
-0.0673562
-0.0657332
-0.0657332
-0.0657332
-0.0657332
-0.0657332
-0.0657332
-0.0657332
-0.0657332
-0.0641101
-0.0641101
-0.0641101
-0.0641101
-0.0641101
-0.0641101
-0.0641101
-0.0624871
-0.0624871
-0.0624871
-0.0624871
-0.0624871
-0.0624871
-0.0624871
-0.0624871
-0.0624871
-0.0624871
-0.0608641
-0.0608641
-0.0608641
-0.0608641
-0.0608641
-0.0608641
-0.0608641
-0.0608641
-0.0608641
-0.0608641
-0.0608641
-0.0608641
-0.0608641
-0.059241
-0.059241
-0.059241
-0.059241
-0.059241
-0.059241
-0.059241
-0.059241
-0.059241
-0.059241
-0.059241
-0.057618
-0.057618
-0.057618
-0.057618
-0.057618
-0.057618
-0.057618
-0.057618
-0.057618
-0.057618
-0.057618
-0.057618
-0.057618
-0.057618
-0.0559949
-0.0559949
-0.0559949
-0.0559949
-0.0559949
-0.0559949
-0.0559949
-0.0559949
-0.0559949
-0.0559949
-0.0559949
-0.0559949
-0.0559949
-0.0543719
-0.0543719
-0.0543719
-0.0543719
-0.0543719
-0.0543719
-0.0543719
-0.0543719
-0.0543719
-0.0543719
-0.0543719
-0.0543719
-0.0543719
-0.0543719
-0.0543719
-0.0543719
-0.0543719
-0.0543719
-0.0527488
-0.0527488
-0.0527488
-0.0527488
-0.0527488
-0.0527488
-0.0527488
-0.0527488
-0.0527488
-0.0527488
-0.0527488
-0.0511258
-0.0511258
-0.0511258
-0.0511258
-0.0511258
-0.0511258
-0.0511258
-0.0511258
-0.0511258
-0.0511258
-0.0511258
-0.0511258
-0.0511258
-0.0511258
-0.0511258
-0.0511258
-0.0511258
-0.0511258
-0.0511258
-0.0495028
-0.0495028
-0.0495028
-0.0495028
-0.0495028
-0.0495028
-0.0495028
-0.0495028
-0.0495028
-0.0495028
-0.0495028
-0.0495028
-0.0495028
-0.0495028
-0.0495028
-0.0495028
-0.0495028
-0.0495028
-0.0495028
-0.0478797
-0.0478797
-0.0478797
-0.0478797
-0.0478797
-0.0478797
-0.0478797
-0.0478797
-0.0478797
-0.0478797
-0.0478797
-0.0478797
-0.0478797
-0.0478797
-0.0478797
-0.0478797
-0.0478797
-0.0462567
-0.0462567
-0.0462567
-0.0462567
-0.0462567
-0.0462567
-0.0462567
-0.0462567
-0.0462567
-0.0462567
-0.0462567
-0.0462567
-0.0462567
-0.0462567
-0.0462567
-0.0462567
-0.0462567
-0.0462567
-0.0462567
-0.0462567
-0.0462567
-0.0462567
-0.0446336
-0.0446336
-0.0446336
-0.0446336
-0.0446336
-0.0446336
-0.0446336
-0.0446336
-0.0446336
-0.0446336
-0.0446336
-0.0446336
-0.0446336
-0.0446336
-0.0446336
-0.0446336
-0.0446336
-0.0446336
-0.0446336
-0.0446336
-0.0446336
-0.0446336
-0.0446336
-0.0446336
-0.0446336
-0.0446336
-0.0430106
-0.0430106
-0.0430106
-0.0430106
-0.0430106
-0.0430106
-0.0430106
-0.0430106
-0.0430106
-0.0430106
-0.0430106
-0.0430106
-0.0430106
-0.0430106
-0.0430106
-0.0430106
-0.0430106
-0.0430106
-0.0430106
-0.0430106
-0.0430106
-0.0430106
-0.0430106
-0.0430106
-0.0430106
-0.0413875
-0.0413875
-0.0413875
-0.0413875
-0.0413875
-0.0413875
-0.0413875
-0.0413875
-0.0413875
-0.0413875
-0.0413875
-0.0413875
-0.0413875
-0.0413875
-0.0413875
-0.0413875
-0.0413875
-0.0413875
-0.0413875
-0.0397645
-0.0397645
-0.0397645
-0.0397645
-0.0397645
-0.0397645
-0.0397645
-0.0397645
-0.0397645
-0.0397645
-0.0381415
-0.0381415
-0.0381415
-0.0381415
-0.0381415
-0.0381415
-0.0381415
-0.0381415
-0.0381415
-0.0381415
-0.0381415
-0.0381415
-0.0381415
-0.0381415
-0.0381415
-0.0381415
-0.0381415
-0.0381415
-0.0381415
-0.0381415
-0.0365184
-0.0365184
-0.0365184
-0.0365184
-0.0365184
-0.0365184
-0.0365184
-0.0365184
-0.0365184
-0.0365184
-0.0365184
-0.0365184
-0.0365184
-0.0365184
-0.0365184
-0.0365184
-0.0365184
-0.0365184
-0.0365184
-0.0365184
-0.0348954
-0.0348954
-0.0348954
-0.0348954
-0.0348954
-0.0348954
-0.0348954
-0.0348954
-0.0348954
-0.0348954
-0.0348954
-0.0348954
-0.0348954
-0.0348954
-0.0348954
-0.0348954
-0.0348954
-0.0348954
-0.0348954
-0.0348954
-0.0348954
-0.0348954
-0.0332723
-0.0332723
-0.0332723
-0.0332723
-0.0332723
-0.0332723
-0.0332723
-0.0332723
-0.0332723
-0.0332723
-0.0332723
-0.0332723
-0.0332723
-0.0332723
-0.0332723
-0.0332723
-0.0332723
-0.0332723
-0.0332723
-0.0332723
-0.0332723
-0.0332723
-0.0316493
-0.0316493
-0.0316493
-0.0316493
-0.0316493
-0.0316493
-0.0316493
-0.0316493
-0.0316493
-0.0316493
-0.0316493
-0.0316493
-0.0316493
-0.0316493
-0.0316493
-0.0316493
-0.0316493
-0.0316493
-0.0316493
-0.0316493
-0.0316493
-0.0316493
-0.0316493
-0.0300263
-0.0300263
-0.0300263
-0.0300263
-0.0300263
-0.0300263
-0.0300263
-0.0300263
-0.0300263
-0.0300263
-0.0300263
-0.0300263
-0.0300263
-0.0300263
-0.0300263
-0.0300263
-0.0300263
-0.0300263
-0.0300263
-0.0300263
-0.0300263
-0.0300263
-0.0284032
-0.0284032
-0.0284032
-0.0284032
-0.0284032
-0.0284032
-0.0284032
-0.0284032
-0.0284032
-0.0284032
-0.0284032
-0.0284032
-0.0284032
-0.0284032
-0.0284032
-0.0284032
-0.0284032
-0.0284032
-0.0284032
-0.0284032
-0.0284032
-0.0284032
-0.0284032
-0.0284032
-0.0284032
-0.0284032
-0.0284032
-0.0284032
-0.0267802
-0.0267802
-0.0267802
-0.0267802
-0.0267802
-0.0267802
-0.0267802
-0.0267802
-0.0267802
-0.0267802
-0.0267802
-0.0267802
-0.0267802
-0.0267802
-0.0267802
-0.0267802
-0.0267802
-0.0267802
-0.0267802
-0.0267802
-0.0267802
-0.0267802
-0.0267802
-0.0267802
-0.0267802
-0.0267802
-0.0267802
-0.0267802
-0.0267802
-0.0267802
-0.0267802
-0.0251571
-0.0251571
-0.0251571
-0.0251571
-0.0251571
-0.0251571
-0.0251571
-0.0251571
-0.0251571
-0.0251571
-0.0251571
-0.0251571
-0.0251571
-0.0251571
-0.0251571
-0.0251571
-0.0251571
-0.0251571
-0.0251571
-0.0251571
-0.0251571
-0.0251571
-0.0251571
-0.0251571
-0.0251571
-0.0235341
-0.0235341
-0.0235341
-0.0235341
-0.0235341
-0.0235341
-0.0235341
-0.0235341
-0.0235341
-0.0235341
-0.0235341
-0.0235341
-0.0235341
-0.0235341
-0.0235341
-0.0235341
-0.0235341
-0.0235341
-0.0235341
-0.0235341
-0.0235341
-0.0235341
-0.0235341
-0.021911
-0.021911
-0.021911
-0.021911
-0.021911
-0.021911
-0.021911
-0.021911
-0.021911
-0.021911
-0.021911
-0.021911
-0.021911
-0.021911
-0.021911
-0.021911
-0.021911
-0.021911
-0.021911
-0.021911
-0.021911
-0.021911
-0.021911
-0.021911
-0.021911
-0.021911
-0.021911
-0.021911
-0.021911
-0.020288
-0.020288
-0.020288
-0.020288
-0.020288
-0.020288
-0.020288
-0.020288
-0.020288
-0.020288
-0.020288
-0.020288
-0.020288
-0.020288
-0.020288
-0.020288
-0.020288
-0.020288
-0.020288
-0.020288
-0.020288
-0.020288
-0.020288
-0.020288
-0.020288
-0.020288
-0.020288
-0.020288
-0.020288
-0.020288
-0.020288
-0.020288
-0.020288
-0.020288
-0.020288
-0.018665
-0.018665
-0.018665
-0.018665
-0.018665
-0.018665
-0.018665
-0.018665
-0.018665
-0.018665
-0.018665
-0.018665
-0.018665
-0.018665
-0.018665
-0.018665
-0.018665
-0.018665
-0.018665
-0.018665
-0.018665
-0.018665
-0.018665
-0.018665
-0.018665
-0.0170419
-0.0170419
-0.0170419
-0.0170419
-0.0170419
-0.0170419
-0.0170419
-0.0170419
-0.0170419
-0.0170419
-0.0170419
-0.0170419
-0.0170419
-0.0170419
-0.0170419
-0.0170419
-0.0170419
-0.0170419
-0.0170419
-0.0170419
-0.0170419
-0.0170419
-0.0170419
-0.0170419
-0.0170419
-0.0154189
-0.0154189
-0.0154189
-0.0154189
-0.0154189
-0.0154189
-0.0154189
-0.0154189
-0.0154189
-0.0154189
-0.0154189
-0.0154189
-0.0154189
-0.0154189
-0.0154189
-0.0154189
-0.0154189
-0.0154189
-0.0154189
-0.0154189
-0.0154189
-0.0154189
-0.0154189
-0.0154189
-0.0154189
-0.0137958
-0.0137958
-0.0137958
-0.0137958
-0.0137958
-0.0137958
-0.0137958
-0.0137958
-0.0137958
-0.0137958
-0.0137958
-0.0137958
-0.0137958
-0.0137958
-0.0137958
-0.0137958
-0.0137958
-0.0137958
-0.0137958
-0.0137958
-0.0137958
-0.0137958
-0.0137958
-0.0137958
-0.0137958
-0.0137958
-0.0137958
-0.0137958
-0.0137958
-0.0137958
-0.0137958
-0.0137958
-0.0137958
-0.0121728
-0.0121728
-0.0121728
-0.0121728
-0.0121728
-0.0121728
-0.0121728
-0.0121728
-0.0121728
-0.0121728
-0.0121728
-0.0121728
-0.0121728
-0.0121728
-0.0121728
-0.0121728
-0.0121728
-0.0121728
-0.0121728
-0.0121728
-0.0121728
-0.0121728
-0.0121728
-0.0121728
-0.0121728
-0.0121728
-0.0121728
-0.0121728
-0.0121728
-0.0121728
-0.0121728
-0.0121728
-0.0121728
-0.0121728
-0.0121728
-0.0121728
-0.0121728
-0.0121728
-0.0121728
-0.0105498
-0.0105498
-0.0105498
-0.0105498
-0.0105498
-0.0105498
-0.0105498
-0.0105498
-0.0105498
-0.0105498
-0.0105498
-0.0105498
-0.0105498
-0.0105498
-0.0105498
-0.0105498
-0.0105498
-0.0105498
-0.0105498
-0.0105498
-0.0105498
-0.0105498
-0.0105498
-0.0105498
-0.0105498
-0.0105498
-0.00892672
-0.00892672
-0.00892672
-0.00892672
-0.00892672
-0.00892672
-0.00892672
-0.00892672
-0.00892672
-0.00892672
-0.00892672
-0.00892672
-0.00892672
-0.00892672
-0.00892672
-0.00892672
-0.00892672
-0.00892672
-0.00892672
-0.00892672
-0.00892672
-0.00892672
-0.00892672
-0.00892672
-0.00892672
-0.00892672
-0.00892672
-0.00892672
-0.00892672
-0.00892672
-0.00892672
-0.00730367
-0.00730367
-0.00730367
-0.00730367
-0.00730367
-0.00730367
-0.00730367
-0.00730367
-0.00730367
-0.00730367
-0.00730367
-0.00730367
-0.00730367
-0.00730367
-0.00730367
-0.00730367
-0.00730367
-0.00730367
-0.00730367
-0.00730367
-0.00730367
-0.00730367
-0.00730367
-0.00730367
-0.00730367
-0.00730367
-0.00568063
-0.00568063
-0.00568063
-0.00568063
-0.00568063
-0.00568063
-0.00568063
-0.00568063
-0.00568063
-0.00568063
-0.00568063
-0.00568063
-0.00568063
-0.00568063
-0.00568063
-0.00568063
-0.00568063
-0.00568063
-0.00568063
-0.00568063
-0.00568063
-0.00568063
-0.00568063
-0.00568063
-0.00568063
-0.00568063
-0.00568063
-0.00568063
-0.00568063
-0.00568063
-0.00568063
-0.00568063
-0.00568063
-0.00568063
-0.00568063
-0.00568063
-0.00568063
-0.00568063
-0.00568063
-0.00405759
-0.00405759
-0.00405759
-0.00405759
-0.00405759
-0.00405759
-0.00405759
-0.00405759
-0.00405759
-0.00405759
-0.00405759
-0.00405759
-0.00405759
-0.00405759
-0.00405759
-0.00405759
-0.00405759
-0.00405759
-0.00405759
-0.00405759
-0.00405759
-0.00405759
-0.00405759
-0.00405759
-0.00405759
-0.00405759
-0.00405759
-0.00405759
-0.00243455
-0.00243455
-0.00243455
-0.00243455
-0.00243455
-0.00243455
-0.00243455
-0.00243455
-0.00243455
-0.00243455
-0.00243455
-0.00243455
-0.00243455
-0.00243455
-0.00243455
-0.00243455
-0.00243455
-0.00243455
-0.00243455
-0.00243455
-0.00243455
-0.00243455
-0.00243455
-0.00243455
-0.00243455
-0.00243455
-0.00243455
-0.00243455
-0.00243455
-0.00243455
-0.00243455
-0.000811508
-0.000811508
-0.000811508
-0.000811508
-0.000811508
-0.000811508
-0.000811508
-0.000811508
-0.000811508
-0.000811508
-0.000811508
-0.000811508
-0.000811508
-0.000811508
-0.000811508
-0.000811508
-0.000811508
-0.000811508
-0.000811508
-0.000811508
-0.000811508
-0.000811508
-0.000811508
-0.000811508
-0.000811508
-0.000811508
-0.000811508
-0.000811508
-0.000811508
-0.000811508
-0.000811508
-0.000811508
-0.000811508
-0.000811508
-0.000811508
-0.000811508
-0.000811508
-0.000811508
-0.000811508
-0.000811508
-0.000811508
-0.000811508
-0.000811508
-0.000811508
-0.000811508
-0.000811508
-0.000811508
-0.000811508
0.000811533
0.000811533
0.000811533
0.000811533
0.000811533
0.000811533
0.000811533
0.000811533
0.000811533
0.000811533
0.000811533
0.000811533
0.000811533
0.000811533
0.000811533
0.000811533
0.000811533
0.000811533
0.000811533
0.000811533
0.000811533
0.000811533
0.000811533
0.000811533
0.000811533
0.000811533
0.000811533
0.000811533
0.000811533
0.000811533
0.000811533
0.000811533
0.000811533
0.000811533
0.000811533
0.000811533
0.000811533
0.000811533
0.000811533
0.000811533
0.000811533
0.000811533
0.000811533
0.00243457
0.00243457
0.00243457
0.00243457
0.00243457
0.00243457
0.00243457
0.00243457
0.00243457
0.00243457
0.00243457
0.00243457
0.00243457
0.00243457
0.00243457
0.00243457
0.00243457
0.00243457
0.00243457
0.00243457
0.00243457
0.00243457
0.00243457
0.00243457
0.00243457
0.00243457
0.00243457
0.00243457
0.00243457
0.00243457
0.00243457
0.00243457
0.00243457
0.00243457
0.00243457
0.00243457
0.00243457
0.00243457
0.00243457
0.00243457
0.00405762
0.00405762
0.00405762
0.00405762
0.00405762
0.00405762
0.00405762
0.00405762
0.00405762
0.00405762
0.00405762
0.00405762
0.00405762
0.00405762
0.00405762
0.00405762
0.00405762
0.00405762
0.00405762
0.00405762
0.00405762
0.00405762
0.00405762
0.00405762
0.00405762
0.00405762
0.00405762
0.00405762
0.00405762
0.00405762
0.00405762
0.00405762
0.00405762
0.00405762
0.00405762
0.00568066
0.00568066
0.00568066
0.00568066
0.00568066
0.00568066
0.00568066
0.00568066
0.00568066
0.00568066
0.00568066
0.00568066
0.00568066
0.00568066
0.00568066
0.00568066
0.00568066
0.00568066
0.00568066
0.00568066
0.00568066
0.00568066
0.00568066
0.00568066
0.00568066
0.00568066
0.00568066
0.00568066
0.00568066
0.0073037
0.0073037
0.0073037
0.0073037
0.0073037
0.0073037
0.0073037
0.0073037
0.0073037
0.0073037
0.0073037
0.0073037
0.0073037
0.0073037
0.0073037
0.0073037
0.0073037
0.0073037
0.0073037
0.0073037
0.0073037
0.0073037
0.0073037
0.0073037
0.0073037
0.0073037
0.0073037
0.00892674
0.00892674
0.00892674
0.00892674
0.00892674
0.00892674
0.00892674
0.00892674
0.00892674
0.00892674
0.00892674
0.00892674
0.00892674
0.00892674
0.00892674
0.00892674
0.00892674
0.00892674
0.00892674
0.00892674
0.00892674
0.00892674
0.00892674
0.00892674
0.00892674
0.00892674
0.00892674
0.00892674
0.00892674
0.00892674
0.00892674
0.00892674
0.00892674
0.00892674
0.00892674
0.00892674
0.00892674
0.00892674
0.00892674
0.00892674
0.00892674
0.00892674
0.00892674
0.00892674
0.00892674
0.00892674
0.00892674
0.00892674
0.00892674
0.00892674
0.00892674
0.00892674
0.00892674
0.0105498
0.0105498
0.0105498
0.0105498
0.0105498
0.0105498
0.0105498
0.0105498
0.0105498
0.0105498
0.0105498
0.0105498
0.0105498
0.0105498
0.0105498
0.0105498
0.0105498
0.0105498
0.0105498
0.0105498
0.0105498
0.0105498
0.0105498
0.0105498
0.0121728
0.0121728
0.0121728
0.0121728
0.0121728
0.0121728
0.0121728
0.0121728
0.0121728
0.0121728
0.0121728
0.0121728
0.0121728
0.0121728
0.0121728
0.0121728
0.0121728
0.0121728
0.0121728
0.0121728
0.0121728
0.0121728
0.0121728
0.0121728
0.0121728
0.0121728
0.0121728
0.0121728
0.0121728
0.0121728
0.0121728
0.0121728
0.0121728
0.0121728
0.0121728
0.0121728
0.0137959
0.0137959
0.0137959
0.0137959
0.0137959
0.0137959
0.0137959
0.0137959
0.0137959
0.0137959
0.0137959
0.0137959
0.0137959
0.0137959
0.0137959
0.0137959
0.0137959
0.0137959
0.0137959
0.0137959
0.0137959
0.0137959
0.0137959
0.0137959
0.0137959
0.0137959
0.0137959
0.0137959
0.0137959
0.0137959
0.0137959
0.0137959
0.0154189
0.0154189
0.0154189
0.0154189
0.0154189
0.0154189
0.0154189
0.0154189
0.0154189
0.0154189
0.0154189
0.0154189
0.0154189
0.0154189
0.0154189
0.0154189
0.0154189
0.0154189
0.0154189
0.0154189
0.0154189
0.0154189
0.0154189
0.0154189
0.0154189
0.0154189
0.0154189
0.0154189
0.0154189
0.0154189
0.0154189
0.0154189
0.0154189
0.0154189
0.0154189
0.0154189
0.0154189
0.0154189
0.0154189
0.0154189
0.0154189
0.0154189
0.0154189
0.0170419
0.0170419
0.0170419
0.0170419
0.0170419
0.0170419
0.0170419
0.0170419
0.0170419
0.0170419
0.0170419
0.0170419
0.0170419
0.0170419
0.0170419
0.0170419
0.0170419
0.0170419
0.0170419
0.0170419
0.0170419
0.0170419
0.0170419
0.0170419
0.0170419
0.0170419
0.0170419
0.0170419
0.0170419
0.0170419
0.0170419
0.0170419
0.0170419
0.0170419
0.018665
0.018665
0.018665
0.018665
0.018665
0.018665
0.018665
0.018665
0.018665
0.018665
0.018665
0.018665
0.018665
0.018665
0.018665
0.018665
0.018665
0.018665
0.018665
0.018665
0.018665
0.018665
0.018665
0.018665
0.018665
0.020288
0.020288
0.020288
0.020288
0.020288
0.020288
0.020288
0.020288
0.020288
0.020288
0.020288
0.020288
0.020288
0.020288
0.020288
0.020288
0.020288
0.020288
0.020288
0.020288
0.020288
0.020288
0.020288
0.020288
0.020288
0.020288
0.020288
0.020288
0.020288
0.020288
0.020288
0.020288
0.020288
0.020288
0.0219111
0.0219111
0.0219111
0.0219111
0.0219111
0.0219111
0.0219111
0.0219111
0.0219111
0.0219111
0.0219111
0.0219111
0.0219111
0.0219111
0.0219111
0.0219111
0.0219111
0.0219111
0.0219111
0.0219111
0.0219111
0.0219111
0.0219111
0.0219111
0.0219111
0.0219111
0.0219111
0.0219111
0.0219111
0.0219111
0.0219111
0.0219111
0.0219111
0.0235341
0.0235341
0.0235341
0.0235341
0.0235341
0.0235341
0.0235341
0.0235341
0.0235341
0.0235341
0.0235341
0.0235341
0.0235341
0.0235341
0.0235341
0.0235341
0.0235341
0.0235341
0.0235341
0.0235341
0.0235341
0.0235341
0.0235341
0.0235341
0.0235341
0.0235341
0.0235341
0.0235341
0.0235341
0.0235341
0.0235341
0.0235341
0.0235341
0.0235341
0.0235341
0.0235341
0.0235341
0.0251572
0.0251572
0.0251572
0.0251572
0.0251572
0.0251572
0.0251572
0.0251572
0.0251572
0.0251572
0.0251572
0.0251572
0.0251572
0.0251572
0.0251572
0.0251572
0.0251572
0.0251572
0.0251572
0.0251572
0.0251572
0.0267802
0.0267802
0.0267802
0.0267802
0.0267802
0.0267802
0.0267802
0.0267802
0.0267802
0.0267802
0.0267802
0.0267802
0.0267802
0.0267802
0.0267802
0.0267802
0.0267802
0.0267802
0.0267802
0.0267802
0.0267802
0.0267802
0.0267802
0.0267802
0.0267802
0.0267802
0.0267802
0.0267802
0.0284032
0.0284032
0.0284032
0.0284032
0.0284032
0.0284032
0.0284032
0.0284032
0.0284032
0.0284032
0.0284032
0.0284032
0.0284032
0.0284032
0.0284032
0.0284032
0.0284032
0.0284032
0.0284032
0.0284032
0.0284032
0.0284032
0.0284032
0.0284032
0.0284032
0.0284032
0.0284032
0.0284032
0.0300263
0.0300263
0.0300263
0.0300263
0.0300263
0.0300263
0.0300263
0.0300263
0.0300263
0.0300263
0.0300263
0.0300263
0.0300263
0.0300263
0.0300263
0.0300263
0.0300263
0.0300263
0.0300263
0.0300263
0.0300263
0.0300263
0.0300263
0.0300263
0.0300263
0.0300263
0.0300263
0.0300263
0.0300263
0.0300263
0.0316493
0.0316493
0.0316493
0.0316493
0.0316493
0.0316493
0.0316493
0.0316493
0.0316493
0.0316493
0.0316493
0.0316493
0.0316493
0.0316493
0.0316493
0.0316493
0.0316493
0.0316493
0.0316493
0.0316493
0.0316493
0.0316493
0.0316493
0.0316493
0.0316493
0.0332724
0.0332724
0.0332724
0.0332724
0.0332724
0.0332724
0.0332724
0.0332724
0.0332724
0.0332724
0.0332724
0.0332724
0.0332724
0.0332724
0.0332724
0.0332724
0.0332724
0.0332724
0.0332724
0.0332724
0.0332724
0.0332724
0.0332724
0.0332724
0.0332724
0.0332724
0.0348954
0.0348954
0.0348954
0.0348954
0.0348954
0.0348954
0.0348954
0.0348954
0.0348954
0.0348954
0.0348954
0.0348954
0.0348954
0.0348954
0.0348954
0.0348954
0.0348954
0.0348954
0.0348954
0.0348954
0.0348954
0.0348954
0.0348954
0.0348954
0.0348954
0.0348954
0.0348954
0.0348954
0.0348954
0.0348954
0.0365184
0.0365184
0.0365184
0.0365184
0.0365184
0.0365184
0.0365184
0.0365184
0.0365184
0.0365184
0.0365184
0.0365184
0.0365184
0.0365184
0.0365184
0.0365184
0.0365184
0.0365184
0.0365184
0.0365184
0.0365184
0.0365184
0.0365184
0.0365184
0.0365184
0.0365184
0.0365184
0.0365184
0.0365184
0.0365184
0.0365184
0.0365184
0.0365184
0.0381415
0.0381415
0.0381415
0.0381415
0.0381415
0.0381415
0.0381415
0.0381415
0.0381415
0.0381415
0.0381415
0.0381415
0.0381415
0.0381415
0.0381415
0.0381415
0.0381415
0.0381415
0.0381415
0.0381415
0.0381415
0.0381415
0.0381415
0.0381415
0.0381415
0.0381415
0.0381415
0.0381415
0.0397645
0.0397645
0.0397645
0.0397645
0.0397645
0.0397645
0.0397645
0.0397645
0.0397645
0.0397645
0.0397645
0.0397645
0.0397645
0.0397645
0.0397645
0.0397645
0.0397645
0.0397645
0.0397645
0.0397645
0.0397645
0.0397645
0.0397645
0.0413876
0.0413876
0.0413876
0.0413876
0.0413876
0.0413876
0.0413876
0.0413876
0.0413876
0.0413876
0.0413876
0.0413876
0.0413876
0.0413876
0.0413876
0.0413876
0.0413876
0.0413876
0.0413876
0.0413876
0.0413876
0.0413876
0.0413876
0.0413876
0.0413876
0.0413876
0.0413876
0.0413876
0.0413876
0.0413876
0.0413876
0.0413876
0.0430106
0.0430106
0.0430106
0.0430106
0.0430106
0.0430106
0.0430106
0.0430106
0.0430106
0.0430106
0.0430106
0.0430106
0.0430106
0.0430106
0.0430106
0.0430106
0.0430106
0.0430106
0.0430106
0.0430106
0.0430106
0.0430106
0.0430106
0.0430106
0.0430106
0.0430106
0.0430106
0.0430106
0.0446337
0.0446337
0.0446337
0.0446337
0.0446337
0.0446337
0.0446337
0.0446337
0.0446337
0.0446337
0.0446337
0.0446337
0.0446337
0.0446337
0.0446337
0.0446337
0.0446337
0.0446337
0.0446337
0.0446337
0.0446337
0.0446337
0.0446337
0.0462567
0.0462567
0.0462567
0.0462567
0.0462567
0.0462567
0.0462567
0.0462567
0.0462567
0.0462567
0.0462567
0.0462567
0.0462567
0.0462567
0.0462567
0.0462567
0.0462567
0.0462567
0.0462567
0.0478797
0.0478797
0.0478797
0.0478797
0.0478797
0.0478797
0.0478797
0.0478797
0.0478797
0.0478797
0.0478797
0.0478797
0.0478797
0.0478797
0.0478797
0.0478797
0.0478797
0.0478797
0.0478797
0.0495028
0.0495028
0.0495028
0.0495028
0.0495028
0.0495028
0.0495028
0.0495028
0.0495028
0.0495028
0.0495028
0.0495028
0.0495028
0.0495028
0.0495028
0.0495028
0.0495028
0.0495028
0.0495028
0.0495028
0.0511258
0.0511258
0.0511258
0.0511258
0.0511258
0.0511258
0.0511258
0.0511258
0.0511258
0.0511258
0.0511258
0.0511258
0.0511258
0.0511258
0.0511258
0.0511258
0.0511258
0.0511258
0.0527489
0.0527489
0.0527489
0.0527489
0.0527489
0.0527489
0.0527489
0.0527489
0.0527489
0.0527489
0.0527489
0.0527489
0.0527489
0.0527489
0.0527489
0.0527489
0.0527489
0.0543719
0.0543719
0.0543719
0.0543719
0.0543719
0.0543719
0.0543719
0.0543719
0.0543719
0.0543719
0.0543719
0.0543719
0.0543719
0.0543719
0.0559949
0.0559949
0.0559949
0.0559949
0.0559949
0.0559949
0.0559949
0.0559949
0.0559949
0.0559949
0.0559949
0.0559949
0.0559949
0.0559949
0.0559949
0.0559949
0.0559949
0.0559949
0.057618
0.057618
0.057618
0.057618
0.057618
0.057618
0.057618
0.057618
0.057618
0.057618
0.057618
0.057618
0.057618
0.057618
0.057618
0.057618
0.059241
0.059241
0.059241
0.059241
0.059241
0.059241
0.059241
0.0608641
0.0608641
0.0608641
0.0608641
0.0608641
0.0608641
0.0608641
0.0608641
0.0608641
0.0608641
0.0608641
0.0608641
0.0608641
0.0624871
0.0624871
0.0624871
0.0624871
0.0624871
0.0624871
0.0624871
0.0624871
0.0624871
0.0624871
0.0624871
0.0641102
0.0641102
0.0641102
0.0641102
0.0641102
0.0641102
0.0641102
0.0641102
0.0641102
0.0641102
0.0641102
0.0657332
0.0657332
0.0657332
0.0657332
0.0657332
0.0657332
0.0657332
0.0657332
0.0657332
0.0657332
0.0657332
0.0657332
0.0657332
0.0673562
0.0673562
0.0673562
0.0673562
0.0673562
0.0673562
0.0673562
0.0673562
0.0689793
0.0689793
0.0689793
0.0689793
0.0689793
0.0689793
0.0689793
0.0689793
0.0689793
0.0689793
0.0689793
0.0689793
0.0689793
0.0689793
0.0706023
0.0706023
0.0706023
0.0706023
0.0706023
0.0706023
0.0722254
0.0722254
0.0722254
0.0738484
0.0738484
0.0738484
0.0738484
0.0738484
0.0738484
0.0754714
0.0754714
0.0754714
0.0754714
0.0770945
0.0770945
0.0770945
0.0770945
0.0770945
0.0770945
0.0770945
0.0770945
0.0770945
0.0770945
0.0770945
0.0787175
0.0787175
0.0787175
0.0787175
0.0787175
0.0787175
0.0803406
0.0803406
0.0803406
0.0803406
0.0803406
0.0803406
0.0803406
0.0803406
0.0803406
0.0819636
0.0819636
0.0819636
0.0819636
0.0819636
0.0819636
0.0819636
0.0819636
0.0819636
0.0835866
0.0835866
0.0835866
0.0835866
0.0835866
0.0835866
0.0835866
0.0835866
0.0852097
0.0852097
0.0852097
0.0852097
0.0852097
0.0852097
0.0868327
0.0868327
0.0868327
0.0884558
0.0884558
0.0884558
0.0900788
0.0900788
0.0900788
0.0900788
0.0900788
0.0917019
0.0917019
0.0917019
0.0917019
0.0917019
0.0933249
0.0949479
0.096571
0.096571
0.096571
0.098194
0.098194
0.098194
0.098194
0.098194
0.098194
0.098194
0.0998171
0.10144
0.10144
0.10144
0.10144
0.103063
0.103063
0.103063
0.103063
0.104686
0.106309
0.107932
0.107932
0.107932
0.107932
0.107932
0.107932
0.107932
0.111178
0.111178
0.112801
0.112801
0.114424
0.114424
0.117671
0.119294
0.12254
0.12254
0.12254
0.124163
0.125786
0.129032
0.130655
0.130655
0.132278
0.133901
0.135524
0.137147
0.13877
0.140393
0.140393
0.140393
0.142016
0.142016
0.145262
0.145262
0.145262
0.148508
0.148508
0.148508
0.150131
0.150131
0.151754
0.151754
0.151754
0.15987
