-0.169753
-0.164071
-0.16265
-0.149866
-0.145604
-0.139922
-0.137081
-0.13566
-0.131399
-0.131399
-0.129978
-0.129978
-0.128558
-0.127137
-0.125717
-0.118614
-0.111511
-0.110091
-0.110091
-0.105829
-0.105829
-0.105829
-0.104409
-0.104409
-0.104409
-0.104409
-0.102988
-0.101568
-0.100147
-0.100147
-0.0973061
-0.0973061
-0.0930445
-0.091624
-0.091624
-0.0902035
-0.0887829
-0.0887829
-0.0887829
-0.0859419
-0.0845214
-0.0845214
-0.0831008
-0.0831008
-0.0816803
-0.0802598
-0.0774187
-0.0774187
-0.0774187
-0.0774187
-0.0731571
-0.0703161
-0.0688956
-0.0688956
-0.0688956
-0.0660545
-0.064634
-0.064634
-0.0632135
-0.0617929
-0.0575313
-0.0561108
-0.0561108
-0.0490082
-0.0461671
-0.0447466
-0.0433261
-0.0433261
-0.0419055
-0.040485
-0.0390645
-0.037644
-0.0362234
-0.0305413
-0.0305413
-0.0305413
-0.0277003
-0.0277003
-0.0277003
-0.0277003
-0.0262797
-0.0248592
-0.0248592
-0.0220182
-0.0205976
-0.0205976
-0.0191771
-0.016336
-0.016336
-0.0149155
-0.0149155
-0.0149155
-0.0120745
-0.0106539
-0.0106539
0.000710274
0.00355133
0.00639238
0.00781291
0.00781291
0.00923344
0.010654
0.010654
0.0120745
0.0120745
0.013495
0.0149155
0.0163361
0.0191771
0.0262798
0.0277003
0.0291208
0.0319619
0.0319619
0.037644
0.037644
0.037644
0.040485
0.0447466
0.0475877
0.0575314
0.0688956
0.0688956
0.0688956
0.0731572
0.0816803
0.0816803
0.0845214
0.0845214
0.0859419
0.0873624
0.088783
0.0902035
0.0902035
0.0944651
0.0944651
0.0973061
0.0987267
0.10725
0.112932
0.112932
0.118614
0.121455
0.128558
0.13566
0.145604
0.151286
0.158389
0.165491
0.181117
