-0.0500081
-0.0500081
-0.0500081
-0.0500081
-0.0500081
-0.0500081
-0.0500081
-0.0500081
-0.0500081
-0.0500081
-0.0500081
-0.0500081
-0.0500081
-0.0500081
-0.0500081
-0.0500081
-0.0500081
-0.0500081
-0.0500081
-0.0500081
-0.0500081
-0.0500081
-0.0500081
-0.0500081
-0.0500081
-0.0500081
-0.0500081
-0.0500081
-0.0500081
-0.0500081
-0.0500081
-0.0500081
-0.0500081
-0.0500081
-0.0500081
-0.0500081
-0.0500081
-0.0500081
-0.0500081
-0.0500081
-0.0500081
-0.0500081
-0.0500081
-0.0500081
-0.0500081
-0.0500081
-0.0500081
-0.0500081
-0.0500081
-0.0500081
-0.0500081
-0.0500081
-0.0500081
-0.0500081
-0.0500081
-0.0500081
-0.0500081
-0.0500081
-0.0500081
-0.0500081
-0.0500081
-0.0500081
-0.0500081
-0.0500081
-0.0500081
-0.0500081
-0.0500081
-0.0500081
-0.0500081
-0.0500081
-0.0500081
-0.0500081
-0.0500081
-0.0500081
-0.0500081
-0.0500081
-0.0500081
-0.0500081
-0.0500081
-0.0500081
-0.0500081
-0.0500081
-0.0500081
-0.0500081
-0.0500081
-0.0500081
-0.0500081
-0.0500081
-0.0500081
-0.0500081
-0.0500081
-0.0500081
-0.0500081
-0.0500081
-0.0500081
-0.0500081
-0.0500081
-0.0500081
-0.0500081
-0.0500081
-0.0500081
-0.0500081
-0.0500081
-0.0500081
-0.0500081
-0.0500081
-0.0500081
-0.0500081
-0.0500081
-0.0500081
-0.0500081
-0.0500081
-0.0500081
-0.0500081
-0.0500081
-0.0500081
-0.0500081
-0.0500081
-0.0500081
-0.0500081
-0.0500081
-0.0500081
-0.0500081
-0.0500081
-0.0500081
-0.0500081
-0.0500081
-0.0500081
-0.0500081
-0.0500081
-0.0500081
-0.0500081
-0.0500081
-0.0500081
-0.0500081
-0.0500081
-0.0500081
-0.0500081
-0.0500081
-0.0500081
-0.0500081
-0.0500081
-0.0500081
-0.0500081
-0.0500081
-0.0500081
-0.0500081
-0.0500081
-0.0500081
-0.0500081
-0.0500081
-0.0500081
-0.0500081
-0.0500081
-0.0500081
-0.0500081
-0.0500081
-0.0500081
-0.0500081
-0.0500081
-0.0500081
-0.0500081
-0.0500081
-0.0500081
-0.0500081
-0.0500081
-0.0500081
-0.0500081
-0.0500081
-0.0500081
-0.0500081
-0.0500081
-0.0500081
-0.0500081
-0.0500081
-0.0500081
-0.0500081
-0.0500081
-0.0500081
-0.0500081
-0.0500081
-0.0500081
-0.0500081
-0.0500081
-0.0500081
-0.0500081
-0.0500081
-0.0500081
-0.0500081
-0.0500081
-0.0500081
-0.0500081
-0.0500081
-0.0500081
-0.0500081
-0.0500081
-0.0500081
-0.0500081
-0.0500081
-0.0500081
-0.0500081
-0.0500081
-0.0500081
-0.0500081
-0.0500081
-0.0500081
-0.0500081
-0.0500081
-0.0500081
-0.0500081
-0.0500081
-0.0500081
-0.0500081
-0.0500081
-0.0500081
-0.0500081
-0.0500081
-0.0500081
-0.0500081
-0.0500081
-0.0500081
-0.0500081
-0.0500081
-0.0500081
-0.0500081
-0.0500081
-0.0500081
-0.0500081
-0.0500081
-0.0500081
-0.0500081
-0.0500081
-0.0500081
-0.0500081
-0.0500081
-0.0500081
-0.0500081
-0.0500081
-0.0500081
-0.0500081
-0.0500081
-0.0500081
-0.0500081
-0.0500081
-0.0500081
-0.0500081
-0.0500081
-0.0500081
-0.0500081
-0.0500081
-0.0500081
-0.0500081
-0.0500081
-0.0500081
-0.0500081
-0.0500081
-0.0500081
-0.0500081
-0.0500081
-0.0500081
-0.0500081
-0.0500081
-0.0500081
-0.0500081
-0.0500081
-0.0500081
-0.0500081
-0.0500081
-0.0500081
-0.0500081
-0.0500081
-0.0500081
-0.0500081
-0.0500081
-0.0500081
-0.0500081
-0.0500081
-0.0500081
-0.0500081
-0.0500081
-0.0500081
-0.0500081
-0.0500081
-0.0500081
-0.0500081
-0.0500081
-0.0500081
-0.0500081
-0.0500081
-0.0500081
-0.0500081
-0.0500081
-0.0500081
-0.0500081
-0.0500081
-0.0500081
-0.0500081
-0.0500081
-0.0500081
-0.0500081
-0.0500081
-0.0500081
-0.0500081
-0.0500081
-0.0500081
-0.0500081
-0.0500081
-0.0500081
-0.0500081
-0.0500081
-0.0500081
-0.0500081
-0.0500081
-0.0500081
-0.0500081
-0.0500081
-0.0500081
-0.0500081
-0.0500081
-0.0500081
-0.0500081
-0.0500081
-0.0500081
-0.0500081
-0.0500081
-0.0500081
-0.0500081
-0.0500081
-0.0500081
-0.0500081
-0.0500081
-0.0500081
-0.0500081
-0.0500081
-0.0500081
-0.0500081
-0.0500081
-0.0500081
-0.0500081
-0.0500081
-0.0500081
-0.0500081
-0.0500081
-0.0500081
-0.0500081
-0.0500081
-0.0500081
-0.0500081
-0.0500081
-0.0500081
-0.0500081
-0.0500081
-0.0500081
-0.0500081
-0.0500081
-0.0500081
-0.0500081
-0.0500081
-0.0500081
-0.0500081
-0.0500081
-0.0500081
-0.0500081
-0.0500081
-0.0500081
-0.0500081
-0.0500081
-0.0500081
-0.0500081
-0.0500081
-0.0500081
-0.0500081
-0.0500081
-0.0500081
-0.0500081
-0.0500081
-0.0500081
-0.0500081
-0.0500081
-0.0500081
-0.0500081
-0.0500081
-0.0500081
-0.0500081
-0.0500081
-0.0500081
-0.0500081
-0.0500081
-0.0500081
-0.0500081
-0.0500081
-0.0500081
-0.0500081
-0.0500081
-0.0500081
-0.0500081
-0.0500081
-0.0500081
-0.0500081
-0.0500081
-0.0500081
-0.0500081
-0.0500081
-0.0500081
-0.0500081
-0.0500081
-0.0500081
-0.0500081
-0.0500081
-0.0500081
-0.0500081
-0.0500081
-0.0500081
-0.0500081
-0.0500081
-0.0500081
-0.0500081
-0.0500081
-0.0500081
-0.0500081
-0.0500081
-0.0500081
-0.0500081
-0.0500081
-0.0500081
-0.0500081
-0.0500081
-0.0500081
-0.0500081
-0.0500081
-0.0500081
-0.0500081
-0.0500081
-0.0500081
-0.0500081
-0.0500081
-0.0500081
-0.0500081
-0.0500081
-0.0500081
-0.0500081
-0.0500081
-0.0500081
-0.0500081
-0.0500081
-0.0500081
-0.0500081
-0.0500081
-0.0500081
-0.0500081
-0.0500081
-0.0500081
-0.0500081
-0.0500081
-0.0500081
-0.0500081
-0.0500081
-0.0500081
-0.0500081
-0.0500081
-0.0500081
-0.0500081
-0.0500081
-0.0500081
-0.0500081
-0.0500081
-0.0500081
-0.0500081
-0.0500081
-0.0500081
-0.0500081
-0.0500081
-0.0500081
-0.0500081
-0.0500081
-0.0500081
-0.0500081
-0.0500081
-0.0500081
-0.0500081
-0.0500081
-0.0500081
-0.0500081
-0.0500081
-0.0500081
-0.0500081
-0.0500081
-0.0500081
-0.0500081
-0.0500081
-0.0500081
-0.0500081
-0.0500081
-0.0500081
-0.0500081
-0.0500081
-0.0500081
-0.0500081
-0.0500081
-0.0500081
-0.0500081
-0.0500081
-0.0500081
-0.0500081
-0.0500081
-0.0500081
-0.0500081
-0.0500081
-0.0500081
-0.0500081
-0.0500081
-0.0500081
-0.0500081
-0.0500081
-0.0500081
-0.0500081
-0.0500081
-0.0500081
-0.0500081
-0.0500081
-0.0500081
-0.0500081
-0.0500081
-0.0500081
-0.0500081
-0.0500081
-0.0500081
-0.0500081
-0.0500081
-0.0500081
-0.0500081
-0.0500081
-0.0500081
-0.0500081
-0.0500081
-0.0500081
-0.0500081
-0.0500081
-0.0500081
-0.0500081
-0.0500081
-0.0500081
-0.0500081
-0.0500081
-0.0500081
-0.0500081
-0.0500081
-0.0500081
-0.0500081
-0.0500081
-0.0500081
-0.0500081
-0.0500081
-0.0500081
-0.0500081
-0.0500081
-0.0500081
-0.0500081
-0.0500081
-0.0500081
-0.0500081
-0.0500081
-0.0500081
-0.0500081
-0.0500081
-0.0500081
-0.0500081
-0.0500081
-0.0500081
-0.0500081
-0.0500081
-0.0500081
-0.0500081
-0.0500081
-0.0500081
-0.0500081
-0.0500081
-0.0500081
-0.0500081
-0.0500081
-0.0500081
-0.0500081
-0.0500081
-0.0500081
-0.0500081
-0.0500081
-0.0500081
-0.0500081
-0.0500081
-0.0500081
-0.0500081
-0.0500081
-0.0500081
-0.0500081
-0.0500081
-0.0500081
-0.0500081
-0.0500081
-0.0500081
-0.0500081
-0.0500081
-0.0500081
-0.0500081
-0.0500081
-0.0500081
-0.0500081
-0.0500081
-0.0500081
-0.0500081
-0.0500081
-0.0500081
-0.0500081
-0.0500081
-0.0500081
-0.0500081
-0.0500081
-0.0500081
-0.0500081
-0.0500081
-0.0500081
-0.0500081
-0.0500081
-0.0500081
-0.0500081
-0.0500081
-0.0500081
-0.0500081
-0.0500081
-0.0500081
-0.0500081
-0.0500081
-0.0500081
-0.0500081
-0.0500081
-0.0500081
-0.0500081
-0.0500081
-0.0500081
-0.0500081
-0.0500081
-0.0500081
-0.0500081
-0.0500081
-0.0500081
-0.0500081
-0.0500081
-0.0500081
-0.0500081
-0.0500081
-0.0500081
-0.0500081
-0.0500081
-0.0500081
-0.0500081
-0.0500081
-0.0500081
-0.0500081
-0.0500081
-0.0500081
-0.0500081
-0.0500081
-0.0500081
-0.0500081
-0.0500081
-0.0500081
-0.0500081
-0.0500081
-0.0500081
-0.0500081
-0.0500081
-0.0500081
-0.0500081
-0.0500081
-0.0500081
-0.0500081
-0.0500081
-0.0500081
-0.0500081
-0.0500081
-0.0500081
-0.0500081
-0.0500081
-0.0500081
-0.0500081
-0.0500081
-0.0500081
-0.0500081
-0.0500081
-0.0500081
-0.0500081
-0.0500081
-0.0500081
-0.0500081
-0.0500081
-0.0500081
-0.0500081
-0.0500081
-0.0500081
-0.0500081
-0.0500081
-0.0500081
-0.0500081
-0.0500081
-0.0500081
-0.0500081
-0.0500081
-0.0500081
-0.0500081
-0.0500081
-0.0500081
-0.0500081
-0.0500081
-0.0500081
-0.0500081
-0.0500081
-0.0500081
-0.0500081
-0.0500081
-0.0500081
-0.0500081
-0.0500081
-0.0500081
-0.0500081
-0.0500081
-0.0500081
-0.0500081
-0.0500081
-0.0500081
-0.0500081
-0.0500081
-0.0500081
-0.0500081
-0.0500081
-0.0500081
-0.0500081
-0.0500081
-0.0500081
-0.0500081
-0.0500081
-0.0500081
-0.0500081
-0.0500081
-0.0500081
-0.0500081
-0.0500081
-0.0500081
-0.0500081
-0.0500081
-0.0500081
-0.0500081
-0.0500081
-0.0500081
-0.0500081
-0.0500081
-0.0500081
-0.0500081
-0.0500081
-0.0500081
-0.0500081
-0.0500081
-0.0500081
-0.0500081
-0.0500081
-0.0500081
-0.0500081
-0.0500081
-0.0500081
-0.0500081
-0.0500081
-0.0500081
-0.0500081
-0.0500081
-0.0500081
-0.0500081
-0.0500081
-0.0500081
-0.0500081
-0.0500081
-0.0500081
-0.0500081
-0.0500081
-0.0500081
-0.0500081
-0.0500081
-0.0500081
-0.0500081
-0.0500081
-0.0500081
-0.0500081
-0.0500081
-0.0500081
-0.0500081
-0.0500081
-0.0500081
-0.0500081
-0.0500081
-0.0500081
-0.0500081
-0.0500081
-0.0500081
-0.0500081
-0.0500081
-0.0500081
-0.0500081
-0.0500081
-0.0500081
-0.0500081
-0.0500081
-0.0500081
-0.0500081
-0.0500081
-0.0500081
-0.0500081
-0.0500081
-0.0500081
-0.0500081
-0.0500081
-0.0500081
-0.0500081
-0.0500081
-0.0500081
-0.0500081
-0.0500081
-0.0500081
-0.0500081
-0.0500081
-0.0500081
-0.0500081
-0.0500081
-0.0500081
-0.0500081
-0.0500081
-0.0500081
-0.0500081
-0.0500081
-0.0500081
-0.0500081
-0.0500081
-0.0500081
-0.0500081
-0.0500081
-0.0500081
-0.0500081
-0.0500081
-0.0500081
-0.0500081
-0.0500081
-0.0500081
-0.0500081
-0.0500081
-0.0500081
-0.0500081
-0.0500081
-0.0500081
-0.0500081
-0.0500081
-0.0500081
-0.0500081
-0.0500081
-0.0500081
-0.0500081
-0.0500081
-0.0500081
-0.0500081
-0.0500081
-0.0500081
-0.0500081
-0.0500081
-0.0500081
-0.0500081
-0.0500081
-0.0500081
-0.0500081
-0.0500081
-0.0500081
-0.0500081
-0.0500081
-0.0500081
-0.0500081
-0.0500081
-0.0500081
-0.0500081
-0.0500081
-0.0500081
-0.0500081
-0.0500081
-0.0500081
-0.0500081
-0.0500081
-0.0500081
-0.0500081
-0.0500081
-0.0500081
-0.0500081
-0.0500081
-0.0500081
-0.0500081
-0.0500081
-0.0500081
-0.0500081
-0.0500081
-0.0500081
-0.0500081
-0.0500081
-0.0500081
-0.0500081
-0.0500081
-0.0500081
-0.0500081
-0.0500081
-0.0500081
-0.0500081
-0.0500081
-0.0500081
-0.0500081
-0.0500081
-0.0500081
-0.0500081
-0.0500081
-0.0500081
-0.0500081
-0.0500081
-0.0500081
-0.0500081
-0.0500081
-0.0500081
-0.0500081
-0.0500081
-0.0500081
-0.0500081
-0.0500081
-0.0500081
-0.0500081
-0.0500081
-0.0500081
-0.0500081
-0.0500081
-0.0500081
-0.0500081
-0.0500081
-0.0500081
-0.0500081
-0.0500081
-0.0500081
-0.0500081
-0.0500081
-0.0500081
-0.0500081
-0.0500081
-0.0500081
-0.0500081
-0.0500081
-0.0500081
-0.0500081
-0.0500081
-0.0500081
-0.0500081
-0.0500081
-0.0500081
-0.0500081
-0.0500081
-0.0500081
-0.0500081
-0.0500081
-0.0500081
-0.0500081
-0.0500081
-0.0500081
-0.0500081
-0.0500081
-0.0500081
-0.0500081
-0.0500081
-0.0500081
-0.0500081
-0.0500081
-0.0500081
-0.0500081
-0.0500081
-0.0500081
-0.0500081
-0.0500081
-0.0500081
-0.0500081
-0.0500081
-0.0500081
-0.0500081
-0.0500081
-0.0500081
-0.0500081
-0.0500081
-0.0500081
-0.0500081
-0.0500081
-0.0500081
-0.0500081
-0.0500081
-0.0500081
-0.0500081
-0.0500081
-0.0500081
-0.0500081
-0.0500081
-0.0500081
-0.0500081
-0.0500081
-0.0500081
-0.0500081
-0.0500081
-0.0500081
-0.0500081
-0.0500081
-0.0500081
-0.0500081
-0.0500081
-0.0500081
-0.0500081
-0.0500081
-0.0500081
-0.0500081
-0.0500081
-0.0500081
-0.0500081
-0.0500081
-0.0500081
-0.0500081
-0.0500081
-0.0500081
-0.0500081
-0.0500081
-0.0500081
-0.0500081
-0.0500081
-0.0500081
-0.0500081
-0.0500081
-0.0500081
-0.0500081
-0.0500081
-0.0500081
-0.0500081
-0.0500081
-0.0500081
-0.0500081
-0.0500081
-0.0500081
-0.0500081
-0.0500081
-0.0500081
-0.0500081
-0.0500081
-0.0500081
-0.0500081
-0.0500081
-0.0500081
-0.0500081
-0.0500081
-0.0500081
-0.0500081
-0.0500081
-0.0500081
-0.0500081
-0.0500081
-0.0500081
-0.0500081
-0.0500081
-0.0500081
-0.0500081
-0.0500081
-0.0500081
-0.0500081
-0.0500081
-0.0500081
-0.0500081
-0.0500081
-0.0500081
-0.0500081
-0.0500081
-0.0500081
-0.0500081
-0.0500081
-0.0500081
-0.0500081
-0.0500081
-0.0500081
-0.0500081
-0.0500081
-0.0500081
-0.0500081
-0.0500081
-0.0500081
-0.0500081
-0.0500081
-0.0500081
-0.0500081
-0.0500081
-0.0500081
-0.0500081
-0.0500081
-0.0500081
-0.0500081
-0.0500081
-0.0500081
-0.0500081
-0.0500081
-0.0500081
-0.0500081
-0.0500081
-0.0500081
-0.0500081
-0.0500081
-0.0500081
-0.0500081
-0.0500081
-0.0500081
-0.0500081
-0.0500081
-0.0500081
-0.0500081
-0.0500081
-0.0500081
-0.0500081
-0.0500081
-0.0500081
-0.0500081
-0.0500081
-0.0500081
-0.0500081
-0.0500081
-0.0500081
-0.0500081
-0.0500081
-0.0500081
-0.0500081
-0.0500081
-0.0500081
-0.0500081
-0.0500081
-0.0500081
-0.0500081
-0.0500081
-0.0500081
-0.0500081
-0.0500081
-0.0500081
-0.0500081
-0.0500081
-0.0500081
-0.0500081
-0.0500081
-0.0500081
-0.0500081
-0.0500081
-0.0500081
-0.0500081
-0.0500081
-0.0500081
-0.0500081
-0.0500081
-0.0500081
-0.0500081
-0.0500081
-0.0500081
-0.0500081
-0.0500081
-0.0500081
-0.0500081
-0.0500081
-0.0500081
-0.0500081
-0.0500081
-0.0500081
-0.0500081
-0.0500081
-0.0500081
-0.0500081
-0.0500081
-0.0500081
-0.0500081
-0.0500081
-0.0500081
-0.0500081
-0.0500081
-0.0500081
-0.0500081
-0.0500081
-0.0500081
-0.0500081
-0.0500081
-0.0500081
-0.0500081
-0.0500081
-0.0500081
-0.0500081
-0.0500081
-0.0500081
-0.0500081
-0.0500081
-0.0500081
-0.0500081
-0.0500081
-0.0500081
-0.0500081
-0.0500081
-0.0500081
-0.0500081
-0.0500081
-0.0500081
-0.0500081
-0.0500081
-0.0500081
-0.0500081
-0.0500081
-0.0500081
-0.0500081
-0.0500081
-0.0500081
-0.0500081
-0.0500081
-0.0500081
-0.0500081
-0.0500081
-0.0500081
-0.0500081
-0.0500081
-0.0500081
-0.0500081
-0.0500081
-0.0500081
-0.0500081
-0.0500081
-0.0500081
-0.0500081
0.0500081
0.0500081
0.0500081
0.0500081
0.0500081
0.0500081
0.0500081
0.0500081
0.0500081
0.0500081
0.0500081
0.0500081
0.0500081
0.0500081
0.0500081
0.0500081
0.0500081
0.0500081
0.0500081
0.0500081
0.0500081
0.0500081
0.0500081
0.0500081
0.0500081
0.0500081
0.0500081
0.0500081
0.0500081
0.0500081
0.0500081
0.0500081
0.0500081
0.0500081
0.0500081
0.0500081
0.0500081
0.0500081
0.0500081
0.0500081
0.0500081
0.0500081
0.0500081
0.0500081
0.0500081
0.0500081
0.0500081
0.0500081
0.0500081
0.0500081
0.0500081
0.0500081
0.0500081
0.0500081
0.0500081
0.0500081
0.0500081
0.0500081
0.0500081
0.0500081
0.0500081
0.0500081
0.0500081
0.0500081
0.0500081
0.0500081
0.0500081
0.0500081
0.0500081
0.0500081
0.0500081
0.0500081
0.0500081
0.0500081
0.0500081
0.0500081
0.0500081
0.0500081
0.0500081
0.0500081
0.0500081
0.0500081
0.0500081
0.0500081
0.0500081
0.0500081
0.0500081
0.0500081
0.0500081
0.0500081
0.0500081
0.0500081
0.0500081
0.0500081
0.0500081
0.0500081
0.0500081
0.0500081
0.0500081
0.0500081
0.0500081
0.0500081
0.0500081
0.0500081
0.0500081
0.0500081
0.0500081
0.0500081
0.0500081
0.0500081
0.0500081
0.0500081
0.0500081
0.0500081
0.0500081
0.0500081
0.0500081
0.0500081
0.0500081
0.0500081
0.0500081
0.0500081
0.0500081
0.0500081
0.0500081
0.0500081
0.0500081
0.0500081
0.0500081
0.0500081
0.0500081
0.0500081
0.0500081
0.0500081
0.0500081
0.0500081
0.0500081
0.0500081
0.0500081
0.0500081
0.0500081
0.0500081
0.0500081
0.0500081
0.0500081
0.0500081
0.0500081
0.0500081
0.0500081
0.0500081
0.0500081
0.0500081
0.0500081
0.0500081
0.0500081
0.0500081
0.0500081
0.0500081
0.0500081
0.0500081
0.0500081
0.0500081
0.0500081
0.0500081
0.0500081
0.0500081
0.0500081
0.0500081
0.0500081
0.0500081
0.0500081
0.0500081
0.0500081
0.0500081
0.0500081
0.0500081
0.0500081
0.0500081
0.0500081
0.0500081
0.0500081
0.0500081
0.0500081
0.0500081
0.0500081
0.0500081
0.0500081
0.0500081
0.0500081
0.0500081
0.0500081
0.0500081
0.0500081
0.0500081
0.0500081
0.0500081
0.0500081
0.0500081
0.0500081
0.0500081
0.0500081
0.0500081
0.0500081
0.0500081
0.0500081
0.0500081
0.0500081
0.0500081
0.0500081
0.0500081
0.0500081
0.0500081
0.0500081
0.0500081
0.0500081
0.0500081
0.0500081
0.0500081
0.0500081
0.0500081
0.0500081
0.0500081
0.0500081
0.0500081
0.0500081
0.0500081
0.0500081
0.0500081
0.0500081
0.0500081
0.0500081
0.0500081
0.0500081
0.0500081
0.0500081
0.0500081
0.0500081
0.0500081
0.0500081
0.0500081
0.0500081
0.0500081
0.0500081
0.0500081
0.0500081
0.0500081
0.0500081
0.0500081
0.0500081
0.0500081
0.0500081
0.0500081
0.0500081
0.0500081
0.0500081
0.0500081
0.0500081
0.0500081
0.0500081
0.0500081
0.0500081
0.0500081
0.0500081
0.0500081
0.0500081
0.0500081
0.0500081
0.0500081
0.0500081
0.0500081
0.0500081
0.0500081
0.0500081
0.0500081
0.0500081
0.0500081
0.0500081
0.0500081
0.0500081
0.0500081
0.0500081
0.0500081
0.0500081
0.0500081
0.0500081
0.0500081
0.0500081
0.0500081
0.0500081
0.0500081
0.0500081
0.0500081
0.0500081
0.0500081
0.0500081
0.0500081
0.0500081
0.0500081
0.0500081
0.0500081
0.0500081
0.0500081
0.0500081
0.0500081
0.0500081
0.0500081
0.0500081
0.0500081
0.0500081
0.0500081
0.0500081
0.0500081
0.0500081
0.0500081
0.0500081
0.0500081
0.0500081
0.0500081
0.0500081
0.0500081
0.0500081
0.0500081
0.0500081
0.0500081
0.0500081
0.0500081
0.0500081
0.0500081
0.0500081
0.0500081
0.0500081
0.0500081
0.0500081
0.0500081
0.0500081
0.0500081
0.0500081
0.0500081
0.0500081
0.0500081
0.0500081
0.0500081
0.0500081
0.0500081
0.0500081
0.0500081
0.0500081
0.0500081
0.0500081
0.0500081
0.0500081
0.0500081
0.0500081
0.0500081
0.0500081
0.0500081
0.0500081
0.0500081
0.0500081
0.0500081
0.0500081
0.0500081
0.0500081
0.0500081
0.0500081
0.0500081
0.0500081
0.0500081
0.0500081
0.0500081
0.0500081
0.0500081
0.0500081
0.0500081
0.0500081
0.0500081
0.0500081
0.0500081
0.0500081
0.0500081
0.0500081
0.0500081
0.0500081
0.0500081
0.0500081
0.0500081
0.0500081
0.0500081
0.0500081
0.0500081
0.0500081
0.0500081
0.0500081
0.0500081
0.0500081
0.0500081
0.0500081
0.0500081
0.0500081
0.0500081
0.0500081
0.0500081
0.0500081
0.0500081
0.0500081
0.0500081
0.0500081
0.0500081
0.0500081
0.0500081
0.0500081
0.0500081
0.0500081
0.0500081
0.0500081
0.0500081
0.0500081
0.0500081
0.0500081
0.0500081
0.0500081
0.0500081
0.0500081
0.0500081
0.0500081
0.0500081
0.0500081
0.0500081
0.0500081
0.0500081
0.0500081
0.0500081
0.0500081
0.0500081
0.0500081
0.0500081
0.0500081
0.0500081
0.0500081
0.0500081
0.0500081
0.0500081
0.0500081
0.0500081
0.0500081
0.0500081
0.0500081
0.0500081
0.0500081
0.0500081
0.0500081
0.0500081
0.0500081
0.0500081
0.0500081
0.0500081
0.0500081
0.0500081
0.0500081
0.0500081
0.0500081
0.0500081
0.0500081
0.0500081
0.0500081
0.0500081
0.0500081
0.0500081
0.0500081
0.0500081
0.0500081
0.0500081
0.0500081
0.0500081
0.0500081
0.0500081
0.0500081
0.0500081
0.0500081
0.0500081
0.0500081
0.0500081
0.0500081
0.0500081
0.0500081
0.0500081
0.0500081
0.0500081
0.0500081
0.0500081
0.0500081
0.0500081
0.0500081
0.0500081
0.0500081
0.0500081
0.0500081
0.0500081
0.0500081
0.0500081
0.0500081
0.0500081
0.0500081
0.0500081
0.0500081
0.0500081
0.0500081
0.0500081
0.0500081
0.0500081
0.0500081
0.0500081
0.0500081
0.0500081
0.0500081
0.0500081
0.0500081
0.0500081
0.0500081
0.0500081
0.0500081
0.0500081
0.0500081
0.0500081
0.0500081
0.0500081
0.0500081
0.0500081
0.0500081
0.0500081
0.0500081
0.0500081
0.0500081
0.0500081
0.0500081
0.0500081
0.0500081
0.0500081
0.0500081
0.0500081
0.0500081
0.0500081
0.0500081
0.0500081
0.0500081
0.0500081
0.0500081
0.0500081
0.0500081
0.0500081
0.0500081
0.0500081
0.0500081
0.0500081
0.0500081
0.0500081
0.0500081
0.0500081
0.0500081
0.0500081
0.0500081
0.0500081
0.0500081
0.0500081
0.0500081
0.0500081
0.0500081
0.0500081
0.0500081
0.0500081
0.0500081
0.0500081
0.0500081
0.0500081
0.0500081
0.0500081
0.0500081
0.0500081
0.0500081
0.0500081
0.0500081
0.0500081
0.0500081
0.0500081
0.0500081
0.0500081
0.0500081
0.0500081
0.0500081
0.0500081
0.0500081
0.0500081
0.0500081
0.0500081
0.0500081
0.0500081
0.0500081
0.0500081
0.0500081
0.0500081
0.0500081
0.0500081
0.0500081
0.0500081
0.0500081
0.0500081
0.0500081
0.0500081
0.0500081
0.0500081
0.0500081
0.0500081
0.0500081
0.0500081
0.0500081
0.0500081
0.0500081
0.0500081
0.0500081
0.0500081
0.0500081
0.0500081
0.0500081
0.0500081
0.0500081
0.0500081
0.0500081
0.0500081
0.0500081
0.0500081
0.0500081
0.0500081
0.0500081
0.0500081
0.0500081
0.0500081
0.0500081
0.0500081
0.0500081
0.0500081
0.0500081
0.0500081
0.0500081
0.0500081
0.0500081
0.0500081
0.0500081
0.0500081
0.0500081
0.0500081
0.0500081
0.0500081
0.0500081
0.0500081
0.0500081
0.0500081
0.0500081
0.0500081
0.0500081
0.0500081
0.0500081
0.0500081
0.0500081
0.0500081
0.0500081
0.0500081
0.0500081
0.0500081
0.0500081
0.0500081
0.0500081
0.0500081
0.0500081
0.0500081
0.0500081
0.0500081
0.0500081
0.0500081
0.0500081
0.0500081
0.0500081
0.0500081
0.0500081
0.0500081
0.0500081
0.0500081
0.0500081
0.0500081
0.0500081
0.0500081
0.0500081
0.0500081
0.0500081
0.0500081
0.0500081
0.0500081
0.0500081
0.0500081
0.0500081
0.0500081
0.0500081
0.0500081
0.0500081
0.0500081
0.0500081
0.0500081
0.0500081
0.0500081
0.0500081
0.0500081
0.0500081
0.0500081
0.0500081
0.0500081
0.0500081
0.0500081
0.0500081
0.0500081
0.0500081
0.0500081
0.0500081
0.0500081
0.0500081
0.0500081
0.0500081
0.0500081
0.0500081
0.0500081
0.0500081
0.0500081
0.0500081
0.0500081
0.0500081
0.0500081
0.0500081
0.0500081
0.0500081
0.0500081
0.0500081
0.0500081
0.0500081
0.0500081
0.0500081
0.0500081
0.0500081
0.0500081
0.0500081
0.0500081
0.0500081
0.0500081
0.0500081
0.0500081
0.0500081
0.0500081
0.0500081
0.0500081
0.0500081
0.0500081
0.0500081
0.0500081
0.0500081
0.0500081
0.0500081
0.0500081
0.0500081
0.0500081
0.0500081
0.0500081
0.0500081
0.0500081
0.0500081
0.0500081
0.0500081
0.0500081
0.0500081
0.0500081
0.0500081
0.0500081
0.0500081
0.0500081
0.0500081
0.0500081
0.0500081
0.0500081
0.0500081
0.0500081
0.0500081
0.0500081
0.0500081
0.0500081
0.0500081
0.0500081
0.0500081
0.0500081
0.0500081
0.0500081
0.0500081
0.0500081
0.0500081
0.0500081
0.0500081
0.0500081
0.0500081
0.0500081
0.0500081
0.0500081
0.0500081
0.0500081
0.0500081
0.0500081
0.0500081
0.0500081
0.0500081
0.0500081
0.0500081
0.0500081
0.0500081
0.0500081
0.0500081
0.0500081
0.0500081
0.0500081
0.0500081
0.0500081
0.0500081
0.0500081
0.0500081
0.0500081
0.0500081
0.0500081
0.0500081
0.0500081
0.0500081
0.0500081
0.0500081
0.0500081
0.0500081
0.0500081
0.0500081
0.0500081
0.0500081
0.0500081
0.0500081
0.0500081
0.0500081
0.0500081
0.0500081
0.0500081
0.0500081
0.0500081
0.0500081
0.0500081
0.0500081
0.0500081
0.0500081
0.0500081
0.0500081
0.0500081
0.0500081
0.0500081
0.0500081
0.0500081
0.0500081
0.0500081
0.0500081
0.0500081
0.0500081
0.0500081
0.0500081
0.0500081
0.0500081
0.0500081
0.0500081
0.0500081
0.0500081
0.0500081
0.0500081
0.0500081
0.0500081
0.0500081
0.0500081
0.0500081
0.0500081
0.0500081
0.0500081
0.0500081
0.0500081
0.0500081
0.0500081
0.0500081
0.0500081
0.0500081
0.0500081
0.0500081
0.0500081
0.0500081
0.0500081
0.0500081
0.0500081
0.0500081
0.0500081
0.0500081
0.0500081
0.0500081
0.0500081
0.0500081
0.0500081
0.0500081
0.0500081
0.0500081
0.0500081
0.0500081
0.0500081
0.0500081
0.0500081
0.0500081
0.0500081
0.0500081
0.0500081
0.0500081
0.0500081
0.0500081
0.0500081
0.0500081
0.0500081
0.0500081
0.0500081
0.0500081
0.0500081
0.0500081
0.0500081
0.0500081
0.0500081
0.0500081
0.0500081
0.0500081
0.0500081
0.0500081
0.0500081
0.0500081
0.0500081
0.0500081
0.0500081
0.0500081
0.0500081
0.0500081
0.0500081
0.0500081
0.0500081
0.0500081
0.0500081
0.0500081
0.0500081
0.0500081
0.0500081
0.0500081
0.0500081
0.0500081
0.0500081
0.0500081
0.0500081
0.0500081
0.0500081
0.0500081
0.0500081
0.0500081
0.0500081
0.0500081
0.0500081
0.0500081
0.0500081
0.0500081
0.0500081
0.0500081
0.0500081
0.0500081
0.0500081
0.0500081
0.0500081
0.0500081
0.0500081
0.0500081
0.0500081
0.0500081
0.0500081
0.0500081
0.0500081
0.0500081
0.0500081
0.0500081
0.0500081
0.0500081
0.0500081
0.0500081
0.0500081
0.0500081
0.0500081
0.0500081
0.0500081
0.0500081
0.0500081
0.0500081
0.0500081
0.0500081
0.0500081
0.0500081
0.0500081
0.0500081
0.0500081
0.0500081
0.0500081
0.0500081
0.0500081
0.0500081
0.0500081
0.0500081
0.0500081
0.0500081
0.0500081
0.0500081
0.0500081
0.0500081
0.0500081
0.0500081
0.0500081
0.0500081
0.0500081
0.0500081
0.0500081
0.0500081
0.0500081
0.0500081
0.0500081
0.0500081
0.0500081
0.0500081
0.0500081
0.0500081
0.0500081
0.0500081
0.0500081
0.0500081
0.0500081
0.0500081
0.0500081
0.0500081
0.0500081
0.0500081
0.0500081
0.0500081
0.0500081
0.0500081
0.0500081
0.0500081
0.0500081
0.0500081
0.0500081
0.0500081
0.0500081
0.0500081
0.0500081
0.0500081
0.0500081
0.0500081
0.0500081
0.0500081
0.0500081
0.0500081
0.0500081
0.0500081
0.0500081
0.0500081
0.0500081
0.0500081
0.0500081
0.0500081
0.0500081
0.0500081
0.0500081
0.0500081
0.0500081
0.0500081
0.0500081
0.0500081
0.0500081
0.0500081
0.0500081
0.0500081
0.0500081
0.0500081
0.0500081
0.0500081
0.0500081
0.0500081
0.0500081
0.0500081
0.0500081
0.0500081
0.0500081
0.0500081
0.0500081
0.0500081
0.0500081
0.0500081
0.0500081
0.0500081
0.0500081
0.0500081
0.0500081
0.0500081
0.0500081
0.0500081
0.0500081
0.0500081
0.0500081
0.0500081
0.0500081
0.0500081
0.0500081
0.0500081
0.0500081
0.0500081
0.0500081
0.0500081
0.0500081
0.0500081
0.0500081
0.0500081
0.0500081
0.0500081
0.0500081
0.0500081
0.0500081
0.0500081
0.0500081
0.0500081
0.0500081
0.0500081
0.0500081
0.0500081
0.0500081
0.0500081
0.0500081
0.0500081
0.0500081
0.0500081
0.0500081
0.0500081
0.0500081
0.0500081
0.0500081
0.0500081
0.0500081
0.0500081
0.0500081
0.0500081
0.0500081
0.0500081
0.0500081
0.0500081
0.0500081
0.0500081
0.0500081
0.0500081
0.0500081
0.0500081
0.0500081
