-0.316962
-0.316962
-0.316962
-0.316962
-0.316962
-0.316962
-0.316962
-0.316962
-0.316962
-0.316962
-0.316962
-0.316962
-0.316962
-0.316962
-0.316962
-0.316962
-0.316962
-0.316962
-0.316962
-0.316962
-0.316962
-0.316962
-0.316962
-0.316962
-0.316962
-0.316962
-0.316962
-0.316962
-0.316962
-0.316962
-0.316962
-0.316962
-0.316962
-0.316962
-0.316962
-0.316962
-0.316962
-0.316962
-0.316962
-0.316962
-0.316962
-0.316962
-0.316962
-0.316962
-0.316962
-0.316962
-0.316962
-0.316962
-0.316962
-0.316962
-0.316962
-0.316962
-0.316962
-0.316962
-0.316962
-0.316962
-0.316962
-0.316962
-0.316962
-0.316962
-0.316962
-0.316962
-0.316962
-0.316962
-0.316962
-0.316962
-0.316962
-0.316962
-0.316962
-0.316962
-0.316962
-0.316962
-0.316962
-0.316962
-0.316962
-0.316962
-0.316962
-0.316962
-0.316962
-0.316962
-0.316962
-0.316962
-0.316962
-0.316962
-0.316962
-0.316962
-0.316962
-0.316962
-0.316962
-0.316962
-0.316962
-0.316962
-0.316962
-0.316962
-0.316962
-0.316962
-0.316962
-0.316962
-0.316962
-0.316962
-0.316962
-0.316962
-0.316962
-0.316962
-0.316962
-0.316962
-0.316962
-0.316962
-0.316962
-0.316962
-0.316962
-0.316962
-0.316962
-0.316962
-0.316962
-0.316962
-0.316962
-0.316962
-0.316962
-0.316962
-0.316962
-0.316962
-0.316962
-0.316962
-0.316962
-0.316962
-0.316962
-0.316962
-0.316962
-0.316962
-0.316962
-0.316962
-0.316962
-0.316962
-0.316962
-0.316962
-0.316962
-0.316962
-0.316962
-0.316962
-0.316962
-0.316962
-0.316962
-0.316962
-0.316962
-0.316962
-0.316962
-0.316962
-0.316962
-0.316962
-0.316962
-0.316962
-0.316962
-0.316962
-0.316962
-0.316962
-0.316962
-0.316962
-0.316962
-0.316962
-0.316962
-0.316962
-0.316962
-0.316962
-0.316962
-0.316962
-0.316962
-0.316962
-0.316962
-0.316962
-0.316962
-0.316962
-0.316962
-0.316962
-0.316962
-0.316962
-0.316962
-0.316962
-0.316962
-0.316962
-0.316962
-0.316962
-0.316962
-0.316962
-0.316962
-0.316962
-0.316962
-0.316962
-0.316962
-0.316962
-0.316962
-0.316962
-0.316962
-0.316962
-0.316962
-0.316962
-0.316962
-0.316962
-0.316962
-0.316962
-0.316962
-0.316962
-0.316962
-0.316962
-0.316962
-0.316962
-0.316962
-0.316962
-0.316962
-0.316962
-0.316962
-0.316962
-0.316962
-0.316962
-0.316962
-0.316962
-0.316962
-0.316962
-0.316962
-0.316962
-0.316962
-0.316962
-0.316962
-0.316962
-0.316962
-0.316962
-0.316962
-0.316962
-0.316962
-0.316962
-0.316962
-0.316962
-0.316962
-0.316962
-0.316962
-0.316962
-0.316962
-0.316962
-0.316962
-0.316962
-0.316962
-0.316962
-0.316962
-0.316962
-0.316962
-0.316962
-0.316962
-0.316962
-0.316962
-0.316962
-0.316962
-0.316962
-0.316962
-0.316962
-0.316962
-0.316962
-0.316962
-0.316962
-0.316962
-0.316962
-0.316962
-0.316962
-0.316962
-0.316962
-0.316962
-0.316962
-0.316962
-0.316962
-0.316962
-0.316962
-0.316962
-0.316962
-0.316962
-0.316962
-0.316962
-0.316962
-0.316962
-0.316962
-0.316962
-0.316962
-0.316962
-0.316962
-0.316962
-0.316962
-0.316962
-0.316962
-0.316962
-0.316962
-0.316962
-0.316962
-0.316962
-0.316962
-0.316962
-0.316962
-0.316962
-0.316962
-0.316962
-0.316962
-0.316962
-0.316962
-0.316962
-0.316962
-0.316962
-0.316962
-0.316962
-0.316962
-0.316962
-0.316962
-0.316962
-0.316962
-0.316962
-0.316962
-0.316962
-0.316962
-0.316962
-0.316962
-0.316962
-0.316962
-0.316962
-0.316962
-0.316962
-0.316962
-0.316962
-0.316962
-0.316962
-0.316962
-0.316962
-0.316962
-0.316962
-0.316962
-0.316962
-0.316962
-0.316962
-0.316962
-0.316962
-0.316962
-0.316962
-0.316962
-0.316962
-0.316962
-0.316962
-0.316962
-0.316962
-0.316962
-0.316962
-0.316962
-0.316962
-0.316962
-0.316962
-0.316962
-0.316962
-0.316962
-0.316962
-0.316962
-0.316962
-0.316962
-0.316962
-0.316962
-0.316962
-0.316962
-0.316962
-0.316962
-0.316962
-0.316962
-0.316962
-0.316962
-0.316962
-0.316962
-0.316962
-0.316962
-0.316962
-0.316962
-0.316962
-0.316962
-0.316962
-0.316962
-0.316962
-0.316962
-0.316962
-0.316962
-0.316962
-0.316962
-0.316962
-0.316962
-0.316962
-0.316962
-0.316962
-0.316962
-0.316962
-0.316962
-0.316962
-0.316962
-0.316962
-0.316962
-0.316962
-0.316962
-0.316962
-0.316962
-0.316962
-0.316962
-0.316962
-0.316962
-0.316962
-0.316962
-0.316962
-0.316962
-0.316962
-0.316962
-0.316962
-0.316962
-0.316962
-0.316962
-0.316962
-0.316962
-0.316962
-0.316962
-0.316962
-0.316962
-0.316962
-0.316962
-0.316962
-0.316962
-0.316962
-0.316962
-0.316962
-0.316962
-0.316962
-0.316962
-0.316962
-0.316962
-0.316962
-0.316962
-0.316962
-0.316962
-0.316962
-0.316962
-0.316962
-0.316962
-0.316962
-0.316962
-0.316962
-0.316962
-0.316962
-0.316962
-0.316962
-0.316962
-0.316962
-0.316962
-0.316962
-0.316962
-0.316962
-0.316962
0.316962
0.316962
0.316962
0.316962
0.316962
0.316962
0.316962
0.316962
0.316962
0.316962
0.316962
0.316962
0.316962
0.316962
0.316962
0.316962
0.316962
0.316962
0.316962
0.316962
0.316962
0.316962
0.316962
0.316962
0.316962
0.316962
0.316962
0.316962
0.316962
0.316962
0.316962
0.316962
0.316962
0.316962
0.316962
0.316962
0.316962
0.316962
0.316962
0.316962
0.316962
0.316962
0.316962
0.316962
0.316962
0.316962
0.316962
0.316962
0.316962
0.316962
0.316962
0.316962
0.316962
0.316962
0.316962
0.316962
0.316962
0.316962
0.316962
0.316962
0.316962
0.316962
0.316962
0.316962
0.316962
0.316962
0.316962
0.316962
0.316962
0.316962
0.316962
0.316962
0.316962
0.316962
0.316962
0.316962
0.316962
0.316962
0.316962
0.316962
0.316962
0.316962
0.316962
0.316962
0.316962
0.316962
0.316962
0.316962
0.316962
0.316962
0.316962
0.316962
0.316962
0.316962
0.316962
0.316962
0.316962
0.316962
0.316962
0.316962
0.316962
0.316962
0.316962
0.316962
0.316962
0.316962
0.316962
0.316962
0.316962
0.316962
0.316962
0.316962
0.316962
0.316962
0.316962
0.316962
0.316962
0.316962
0.316962
0.316962
0.316962
0.316962
0.316962
0.316962
0.316962
0.316962
0.316962
0.316962
0.316962
0.316962
0.316962
0.316962
0.316962
0.316962
0.316962
0.316962
0.316962
0.316962
0.316962
0.316962
0.316962
0.316962
0.316962
0.316962
0.316962
0.316962
0.316962
0.316962
0.316962
0.316962
0.316962
0.316962
0.316962
0.316962
0.316962
0.316962
0.316962
0.316962
0.316962
0.316962
0.316962
0.316962
0.316962
0.316962
0.316962
0.316962
0.316962
0.316962
0.316962
0.316962
0.316962
0.316962
0.316962
0.316962
0.316962
0.316962
0.316962
0.316962
0.316962
0.316962
0.316962
0.316962
0.316962
0.316962
0.316962
0.316962
0.316962
0.316962
0.316962
0.316962
0.316962
0.316962
0.316962
0.316962
0.316962
0.316962
0.316962
0.316962
0.316962
0.316962
0.316962
0.316962
0.316962
0.316962
0.316962
0.316962
0.316962
0.316962
0.316962
0.316962
0.316962
0.316962
0.316962
0.316962
0.316962
0.316962
0.316962
0.316962
0.316962
0.316962
0.316962
0.316962
0.316962
0.316962
0.316962
0.316962
0.316962
0.316962
0.316962
0.316962
0.316962
0.316962
0.316962
0.316962
0.316962
0.316962
0.316962
0.316962
0.316962
0.316962
0.316962
0.316962
0.316962
0.316962
0.316962
0.316962
0.316962
0.316962
0.316962
0.316962
0.316962
0.316962
0.316962
0.316962
0.316962
0.316962
0.316962
0.316962
0.316962
0.316962
0.316962
0.316962
0.316962
0.316962
0.316962
0.316962
0.316962
0.316962
0.316962
0.316962
0.316962
0.316962
0.316962
0.316962
0.316962
0.316962
0.316962
0.316962
0.316962
0.316962
0.316962
0.316962
0.316962
0.316962
0.316962
0.316962
0.316962
0.316962
0.316962
0.316962
0.316962
0.316962
0.316962
0.316962
0.316962
0.316962
0.316962
0.316962
0.316962
0.316962
0.316962
0.316962
0.316962
0.316962
0.316962
0.316962
0.316962
0.316962
0.316962
0.316962
0.316962
0.316962
0.316962
0.316962
0.316962
0.316962
0.316962
0.316962
0.316962
0.316962
0.316962
0.316962
0.316962
0.316962
0.316962
0.316962
0.316962
0.316962
0.316962
0.316962
0.316962
0.316962
0.316962
0.316962
0.316962
0.316962
0.316962
0.316962
0.316962
0.316962
0.316962
0.316962
0.316962
0.316962
0.316962
0.316962
0.316962
0.316962
0.316962
0.316962
0.316962
0.316962
0.316962
0.316962
0.316962
0.316962
0.316962
0.316962
0.316962
0.316962
0.316962
0.316962
0.316962
0.316962
0.316962
0.316962
0.316962
0.316962
0.316962
0.316962
0.316962
0.316962
0.316962
0.316962
0.316962
0.316962
0.316962
0.316962
0.316962
0.316962
0.316962
0.316962
0.316962
0.316962
0.316962
0.316962
0.316962
0.316962
