-0.6236445904
-0.6228494048
-0.6153537631
-0.5727151632
-0.5606101155
-0.5521709323
-0.5502716303
-0.5207484365
-0.5051418543
-0.4924725294
-0.4826209247
-0.4808293283
-0.4800272882
-0.4791457951
-0.4573547542
-0.4541732371
-0.4392214715
-0.4351420999
-0.4334184825
-0.4251615703
-0.4234542549
-0.4217385948
-0.4203053117
-0.4084756076
-0.3960661888
-0.3955294192
-0.3944874406
-0.3906374276
-0.3825847208
-0.3823238909
-0.3798974752
-0.3778149486
-0.3769249916
-0.3758575618
-0.3701701462
-0.3691930175
-0.3641721904
-0.3638672233
-0.3558686674
-0.3549531698
-0.3528241217
-0.3511881232
-0.3437218964
-0.3427985907
-0.340302527
-0.3382208645
-0.3375440538
-0.3374754488
-0.3353880048
-0.3289129436
-0.3261326551
-0.3258881867
-0.3248032033
-0.3215732574
-0.3198624849
-0.3137224913
-0.3129889369
-0.3118254244
-0.3072512448
-0.3055178225
-0.305218935
-0.3043958545
-0.3043664992
-0.3041443825
-0.3024362326
-0.3002330363
-0.2995083332
-0.2987755239
-0.2968359292
-0.2961975038
-0.2946326137
-0.2935150862
-0.2933884859
-0.2908629179
-0.2888424098
-0.2870512009
-0.2857594192
-0.2855550349
-0.2850762606
-0.2845030427
-0.2844528556
-0.2817208469
-0.2806533575
-0.2798434198
-0.2796136141
-0.278832078
-0.2784048915
-0.2783796787
-0.2773475945
-0.2770156264
-0.2760875821
-0.2757161558
-0.2740872502
-0.2725429535
-0.2707054913
-0.2697153986
-0.268363148
-0.2665101588
-0.265902549
-0.2658309042
-0.2653480768
-0.2648780942
-0.2640277743
-0.2627502084
-0.2621233463
-0.2618518472
-0.2612129152
-0.261167407
-0.2610108852
-0.2590948343
-0.2585616112
-0.2573383451
-0.2542721033
-0.2541095018
-0.2530077994
-0.2528794706
-0.2514840066
-0.2501965463
-0.2496691793
-0.2484009713
-0.248264432
-0.2480379045
-0.2464855462
-0.2457443178
-0.2454458922
-0.2448478341
-0.2444212735
-0.243719548
-0.2437113822
-0.2429638058
-0.2415429056
-0.240565747
-0.2396204174
-0.2396162003
-0.2388216555
-0.2382473946
-0.2379957736
-0.237359032
-0.2354725152
-0.2339886278
-0.2339712977
-0.2338996083
-0.2336621583
-0.2335878909
-0.2333569676
-0.2328828871
-0.232045725
-0.2309457958
-0.2308501303
-0.2304760963
-0.2303749472
-0.2298072278
-0.2291558832
-0.228242889
-0.2268090695
-0.2256900072
-0.2253212482
-0.2251408994
-0.2248836607
-0.2237513065
-0.2234077007
-0.2229554504
-0.2220087498
-0.2219571918
-0.2218725532
-0.2206739932
-0.2193864882
-0.2191806585
-0.2190738171
-0.2186576426
-0.2182625979
-0.2182009518
-0.2181731761
-0.2179875374
-0.2178669572
-0.2177280188
-0.2167965919
-0.2149995863
-0.2146496773
-0.2143730223
-0.2132568508
-0.2118585408
-0.2118236274
-0.2117010057
-0.2114715129
-0.2112901509
-0.2112838179
-0.2112037688
-0.2110421956
-0.2107389122
-0.2102307081
-0.2092449218
-0.2088565379
-0.2088406533
-0.2080880105
-0.207744047
-0.2074961364
-0.2073090672
-0.2070559114
-0.2068577856
-0.2068124264
-0.2067445517
-0.2060036808
-0.2053914666
-0.2053667605
-0.204075247
-0.2035844922
-0.2034629881
-0.2020492554
-0.2019269764
-0.2017808259
-0.2009047717
-0.2007310241
-0.1996109635
-0.1995008588
-0.1990375966
-0.1990249455
-0.1984779686
-0.1982429326
-0.1973353326
-0.1971968263
-0.1967397779
-0.1965118945
-0.1963602602
-0.1960180551
-0.1958927661
-0.1954349428
-0.1954070479
-0.1952583194
-0.1951676756
-0.1944563389
-0.1936381608
-0.1936057359
-0.1934215426
-0.1923474967
-0.1921467483
-0.1919267923
-0.1908937842
-0.1908335686
-0.1906602532
-0.1905619502
-0.189805299
-0.1897520423
-0.1896618903
-0.1894668043
-0.1894197911
-0.1893695295
-0.1892159283
-0.1889533401
-0.188903898
-0.1887709796
-0.1882325411
-0.1881720126
-0.1874459237
-0.1869632304
-0.1866467893
-0.1865838617
-0.1863193363
-0.1861368418
-0.186090529
-0.1856678724
-0.1852445006
-0.1847701222
-0.1847376674
-0.1841408461
-0.1826926768
-0.1825365275
-0.182138145
-0.1814826131
-0.181209147
-0.1808779389
-0.1802280247
-0.1796749532
-0.1793652177
-0.1793301702
-0.1792967767
-0.178832382
-0.1786970049
-0.1784233004
-0.178210035
-0.1781480163
-0.1780535132
-0.1769435555
-0.176750347
-0.1757693142
-0.1756102294
-0.1755006909
-0.174964264
-0.1743519604
-0.1741405129
-0.1740100831
-0.1739968657
-0.1738937199
-0.173725754
-0.1736279428
-0.1736178398
-0.1735654771
-0.1726468056
-0.1726190448
-0.1725812107
-0.1722763777
-0.1719574779
-0.1718627363
-0.1706671715
-0.1695533246
-0.1683676094
-0.1683105081
-0.1682452708
-0.1675843149
-0.1671702713
-0.1670624018
-0.1662908196
-0.1660778522
-0.1660675853
-0.1656601727
-0.1651636213
-0.1649756432
-0.1649447978
-0.1634435505
-0.1632653922
-0.1631854922
-0.1629051864
-0.1626795381
-0.1621244252
-0.1608037204
-0.1607343853
-0.1602675915
-0.1600128859
-0.1599434614
-0.1596213579
-0.1593023092
-0.1589145064
-0.1586318612
-0.1585422307
-0.1582195908
-0.1579920948
-0.1579134613
-0.1566622108
-0.1564107984
-0.1563610435
-0.1561490744
-0.1560308784
-0.1557994485
-0.1550864577
-0.1550173014
-0.1548746228
-0.1546516865
-0.1545195878
-0.154385671
-0.1543026865
-0.154245317
-0.1542343497
-0.154191941
-0.1541090757
-0.1538400799
-0.1532367319
-0.1530824453
-0.1528382599
-0.152498737
-0.1524287313
-0.1522667259
-0.1519794613
-0.1518136561
-0.1517917663
-0.1517512202
-0.1517116576
-0.1516906172
-0.151570797
-0.151478529
-0.1511775702
-0.1508715749
-0.1508094519
-0.1504986435
-0.1499495208
-0.1498859078
-0.1497866213
-0.1492748708
-0.149202466
-0.1490667611
-0.1478379071
-0.1477095038
-0.1476843804
-0.1476032585
-0.1475999802
-0.1475908011
-0.1475044042
-0.1473605633
-0.1472636312
-0.1472036839
-0.1457809806
-0.1456460059
-0.1455035955
-0.1453949809
-0.1453030109
-0.1452820003
-0.1450899392
-0.1446212381
-0.1438758373
-0.1438171566
-0.1437844336
-0.1437063217
-0.1435902268
-0.1434082389
-0.1430573761
-0.1429857612
-0.142616719
-0.1425727308
-0.1422869712
-0.1421962976
-0.1420782655
-0.1416554749
-0.1416159719
-0.141422987
-0.1412722617
-0.1408586055
-0.1407532245
-0.1405988783
-0.1403401643
-0.1400406063
-0.1399648041
-0.1399088949
-0.139573738
-0.1393637806
-0.1393498331
-0.139329046
-0.1384879649
-0.138321057
-0.1375808418
-0.1368607432
-0.1366917193
-0.1366649717
-0.1363471299
-0.1362580061
-0.135517776
-0.1354342997
-0.1352740377
-0.135120675
-0.135046497
-0.1350138187
-0.1349858493
-0.1349653751
-0.1348882765
-0.1347122788
-0.1345302016
-0.1344855428
-0.1342971027
-0.1341279447
-0.1340371966
-0.1328537315
-0.1319990605
-0.1316956431
-0.1315326393
-0.1306701303
-0.1306553632
-0.1306108832
-0.1303704828
-0.1303369701
-0.1303343326
-0.1300578266
-0.1300536096
-0.1299760491
-0.1299261451
-0.1298752278
-0.1298535466
-0.1291684061
-0.1285520345
-0.1284325421
-0.1284268498
-0.1275520027
-0.1275393814
-0.1270961463
-0.1270924807
-0.126551941
-0.1264758259
-0.1264434606
-0.1263764799
-0.1257582307
-0.1255213171
-0.1253018081
-0.1250379831
-0.1250246465
-0.1245051771
-0.1244766563
-0.1244297326
-0.1242498383
-0.1239410713
-0.1235885099
-0.1226784289
-0.1224683374
-0.1221742183
-0.1219075024
-0.1218097061
-0.1216894612
-0.1215888038
-0.1215713322
-0.1215282083
-0.1214485988
-0.1212497354
-0.1205700263
-0.1205376238
-0.1203225106
-0.1199904233
-0.1196786985
-0.1195634604
-0.119302392
-0.1192187816
-0.1191288531
-0.1189874485
-0.1189013124
-0.1187832206
-0.1187069938
-0.1185207665
-0.1180944443
-0.11754141
-0.1174508855
-0.1174121201
-0.1171106398
-0.1166173443
-0.1165415719
-0.1165188774
-0.1164075136
-0.1163085848
-0.1161769181
-0.1160402969
-0.1159453392
-0.1157425344
-0.1155771241
-0.1155543178
-0.1154916063
-0.115323171
-0.1152377427
-0.1152316853
-0.1151628941
-0.114448294
-0.1143425331
-0.1142694131
-0.1142643392
-0.1139133424
-0.1137888879
-0.1137367412
-0.1136300042
-0.1136072651
-0.1135018915
-0.1134907231
-0.113480404
-0.1134718284
-0.113360554
-0.1127393991
-0.11207176
-0.1118612587
-0.1117518172
-0.1109998301
-0.1109299511
-0.1108611897
-0.1106048077
-0.1105509624
-0.1103408784
-0.1102750376
-0.1101899296
-0.1096409634
-0.1096020937
-0.1091892272
-0.1091868132
-0.1091159731
-0.1091141328
-0.1090930626
-0.1088616922
-0.1083727777
-0.1083128452
-0.1082539633
-0.1081804559
-0.1080853045
-0.1077544317
-0.1077222824
-0.1074626893
-0.107394211
-0.1067712381
-0.1066340059
-0.106458649
-0.1064494476
-0.1063655242
-0.1063539311
-0.1063400134
-0.1060314476
-0.1060164124
-0.1047063917
-0.1045196876
-0.1044342071
-0.1042878702
-0.1041307226
-0.1038243845
-0.1035663858
-0.1034000739
-0.103212975
-0.1031477675
-0.1031233445
-0.1031009108
-0.1030842885
-0.1030251905
-0.1029631048
-0.1029097587
-0.1028900668
-0.1028486863
-0.1025258601
-0.1014895439
-0.101487264
-0.1013311818
-0.1007185802
-0.1005279869
-0.1003030315
-0.1002199799
-0.1001069173
-0.1000946239
-0.09928511828
-0.09923307598
-0.09922657162
-0.09887234867
-0.09828654677
-0.09814141691
-0.09781997651
-0.09762866795
-0.09750856459
-0.09748832136
-0.09747293591
-0.09734736383
-0.09734688699
-0.09648541361
-0.09628222138
-0.09611095488
-0.09603833407
-0.09590631723
-0.09579025954
-0.0951654464
-0.09505547583
-0.09472661465
-0.09462229162
-0.09458653629
-0.09427824616
-0.0941709727
-0.09412866086
-0.09299198538
-0.09259483218
-0.09255354851
-0.09241078794
-0.09232312441
-0.09219566733
-0.09210202098
-0.09167227149
-0.09140338749
-0.09133072942
-0.09119416773
-0.09014820307
-0.08997904509
-0.08954918385
-0.08906584978
-0.08897078037
-0.08892434835
-0.08881183714
-0.08815121651
-0.08808334917
-0.08798908442
-0.08767042309
-0.08749403059
-0.0874158442
-0.08739616722
-0.08726020902
-0.08714248985
-0.08697865903
-0.08647207916
-0.08585393429
-0.08585245907
-0.08576133847
-0.08563113213
-0.08529914171
-0.08524796367
-0.08524457365
-0.08500480652
-0.08474634588
-0.08415296674
-0.08414552361
-0.0841389671
-0.08378186077
-0.0837783739
-0.08372408152
-0.08324827254
-0.08320003003
-0.08313312382
-0.08308935165
-0.08276200294
-0.08264449239
-0.08263862133
-0.08259610087
-0.082369335
-0.08230724931
-0.08227231354
-0.08225786686
-0.08204305172
-0.08186523616
-0.0817758441
-0.08170431852
-0.08151434362
-0.0813113898
-0.08120630682
-0.08086996526
-0.08082201332
-0.08075684309
-0.08048114181
-0.0804239437
-0.08039886504
-0.08026368916
-0.08025897294
-0.0802167207
-0.08021298051
-0.07991443574
-0.07976200432
-0.07969975471
-0.07953432947
-0.07943077385
-0.0793447867
-0.0788448602
-0.07881586999
-0.07866218686
-0.07848519087
-0.07839763165
-0.0782128498
-0.07813212276
-0.07806654274
-0.07771620899
-0.07761562616
-0.07748928666
-0.0774192065
-0.07736557722
-0.07736136764
-0.07720090449
-0.07700207084
-0.0769937411
-0.07697372139
-0.07696915418
-0.07666696608
-0.07662073523
-0.07655890286
-0.07653687149
-0.07645202428
-0.07640887797
-0.07626339048
-0.07625865936
-0.0761987865
-0.07604377717
-0.07570896298
-0.0755456984
-0.07548436522
-0.07511348277
-0.07504992187
-0.07498390973
-0.074841097
-0.07434721291
-0.07426555455
-0.07394816726
-0.07393239439
-0.07391940802
-0.07383150607
-0.07374557853
-0.07357020676
-0.07338637859
-0.07335451245
-0.07311820239
-0.07309019566
-0.0730876103
-0.07289242744
-0.07287374884
-0.07275643945
-0.07262318581
-0.07239877433
-0.07210993022
-0.07194685191
-0.07192070782
-0.07168124616
-0.07110918313
-0.07110592723
-0.07104659081
-0.07094937563
-0.07039302588
-0.07034096122
-0.07023420185
-0.06990592927
-0.06982634217
-0.06939154863
-0.06886807829
-0.06883142143
-0.06864605844
-0.06855976582
-0.06854442507
-0.06829354167
-0.06823027134
-0.06821484864
-0.06820061803
-0.06786431372
-0.0677838251
-0.06773922592
-0.06761948019
-0.06743276864
-0.06724518538
-0.0668579787
-0.06670749187
-0.06586813927
-0.06566985697
-0.06558347493
-0.06546185911
-0.06535556167
-0.06522511691
-0.06504938006
-0.06462371349
-0.06426157057
-0.06367815286
-0.06354739517
-0.06350756437
-0.06348767132
-0.0632174015
-0.06321578473
-0.06305907667
-0.0630306676
-0.06292942911
-0.06277445704
-0.06248084456
-0.06242917478
-0.06239726767
-0.06217514351
-0.06208103523
-0.06186187267
-0.06164680794
-0.0612574853
-0.06088070199
-0.06082556397
-0.06081226096
-0.06050347909
-0.06033595279
-0.06027451903
-0.05995829776
-0.05989263952
-0.05985856801
-0.05961700529
-0.05959510431
-0.05951987952
-0.05936582759
-0.05910095572
-0.05906442553
-0.05891970545
-0.05886982754
-0.05881223455
-0.05879635364
-0.05857232586
-0.05832058936
-0.05827016011
-0.05768774077
-0.05760402232
-0.05750795454
-0.05744417012
-0.05737873167
-0.05679538846
-0.05678904802
-0.05676807836
-0.05656215921
-0.05625045672
-0.05611648038
-0.05604973808
-0.05556272715
-0.05544085801
-0.05498234183
-0.0549512431
-0.05484044179
-0.05481706187
-0.05466733128
-0.05431229621
-0.05430462956
-0.05425478891
-0.05407067388
-0.05393178388
-0.05383732915
-0.05374260619
-0.0536840409
-0.05342197046
-0.05332871526
-0.05327349901
-0.05327082053
-0.05299855396
-0.0529028289
-0.05248692632
-0.05187238753
-0.05129976571
-0.0512666665
-0.05112384632
-0.05110579729
-0.0510433428
-0.05099584535
-0.05077996105
-0.05047976971
-0.050113976
-0.04977015033
-0.04953989387
-0.04950942099
-0.0489138104
-0.04881995544
-0.0485670343
-0.04837689921
-0.04833327606
-0.04813303426
-0.04792281985
-0.0479135327
-0.04768482223
-0.04728078097
-0.04724137858
-0.04676554725
-0.04666193575
-0.04664035514
-0.04654340073
-0.04632349685
-0.04625720903
-0.04615649953
-0.04596368596
-0.04594036564
-0.04582178593
-0.04571891576
-0.04546920955
-0.04537214339
-0.04535947368
-0.04522563145
-0.04511920363
-0.04447328672
-0.04445947707
-0.04429555684
-0.04425376281
-0.0442445837
-0.04418154806
-0.04381375387
-0.04368345812
-0.04360786453
-0.0435186848
-0.04319724441
-0.04307827353
-0.04259235412
-0.04245359451
-0.04244669154
-0.04233074561
-0.04226865619
-0.04184215888
-0.04173107818
-0.04169686511
-0.04088636488
-0.04086648673
-0.0408539921
-0.04082137346
-0.04061692581
-0.04031679034
-0.04019675031
-0.03989415988
-0.03977248818
-0.03965125605
-0.03941467032
-0.03932727501
-0.0392398499
-0.03914288804
-0.03907261789
-0.03869159892
-0.0386393629
-0.03844045848
-0.03835464641
-0.03805208579
-0.037802618
-0.03768856451
-0.03762286156
-0.03677927703
-0.03669573367
-0.03656582162
-0.03649216518
-0.03644022718
-0.03640501946
-0.03633981943
-0.0362640135
-0.03592403606
-0.03584920242
-0.03571332246
-0.03544614464
-0.03529959917
-0.03519760445
-0.03512810916
-0.03500285
-0.03484769538
-0.03479566798
-0.03475956991
-0.03462449834
-0.03451659903
-0.0339605622
-0.03394968063
-0.03381571546
-0.03376407549
-0.03376135603
-0.03359702229
-0.03342860937
-0.03342818469
-0.03329113126
-0.03301096708
-0.03296658397
-0.03289392963
-0.03283279762
-0.03273995221
-0.03267995268
-0.03265777975
-0.03225880116
-0.03205801919
-0.03171065077
-0.0315188542
-0.03144048527
-0.03111891635
-0.03084986657
-0.03080775589
-0.03059888072
-0.03048119135
-0.03026376292
-0.03022423759
-0.0301394444
-0.03001612984
-0.02994055673
-0.02989937551
-0.02948757447
-0.02946562879
-0.02925685607
-0.02922797576
-0.02917761356
-0.02901711129
-0.0288512744
-0.02870250493
-0.02868188731
-0.02860044688
-0.0282182768
-0.02807429619
-0.02806515433
-0.02805629559
-0.02804932185
-0.02793326043
-0.02791079879
-0.02790894173
-0.02788527869
-0.0274684038
-0.02745108865
-0.02713433094
-0.0271246694
-0.0271199923
-0.0269873254
-0.02696481161
-0.02667541802
-0.02663192339
-0.02660078742
-0.02647690475
-0.02647342347
-0.02612267248
-0.0258413814
-0.02582258731
-0.02573193982
-0.02554878965
-0.02551633492
-0.02540096827
-0.02521838248
-0.02492995188
-0.02492840588
-0.024898801
-0.02488362603
-0.02486885339
-0.02474896424
-0.02452079207
-0.02443815395
-0.02427809499
-0.02424436808
-0.02420857176
-0.02399852872
-0.02379050478
-0.02363752201
-0.02347892523
-0.02341950312
-0.0231508594
-0.02279564925
-0.02274915576
-0.0226944536
-0.02258565091
-0.02247526124
-0.02243719436
-0.0223159492
-0.02204704843
-0.02202352136
-0.02192615345
-0.02186240815
-0.021686472
-0.02133364044
-0.02117789537
-0.0210113246
-0.02095711604
-0.02066056617
-0.02047344111
-0.02028262429
-0.02027257159
-0.02025286667
-0.0200228896
-0.01998693123
-0.01998198405
-0.01982763223
-0.01959080249
-0.01936049946
-0.0191600062
-0.01909109019
-0.01897651516
-0.0188541133
-0.01852134056
-0.01845952123
-0.01845420897
-0.01840401813
-0.0183139313
-0.01740080677
-0.01727798022
-0.017088864
-0.01684584096
-0.01677540503
-0.0167157352
-0.01660771482
-0.01658152044
-0.01639357768
-0.01639010012
-0.01631292887
-0.01618197188
-0.01600808464
-0.01600300148
-0.01596429385
-0.01563262008
-0.01551717054
-0.01514707692
-0.01512635872
-0.01501899958
-0.01446326822
-0.01424260065
-0.01421795599
-0.01421051752
-0.014117538
-0.01387814991
-0.01370406058
-0.01369034499
-0.01360003743
-0.01359650306
-0.01358203311
-0.01323804911
-0.01320776064
-0.01291973889
-0.01289601065
-0.01288141496
-0.01275565103
-0.01264339592
-0.01263035648
-0.01261602249
-0.01257169526
-0.01240262669
-0.01228507143
-0.01205866318
-0.0118096387
-0.01177867781
-0.01168142352
-0.0116191553
-0.0114540318
-0.01142002642
-0.01117428858
-0.01109999791
-0.01096955687
-0.01089783385
-0.01088839956
-0.01077503245
-0.01075307559
-0.0107052708
-0.01069302764
-0.01067196485
-0.01056891121
-0.01036435924
-0.01034659334
-0.01008966193
-0.0100105973
-0.009958220646
-0.009721159935
-0.009594776668
-0.009495103732
-0.009103541262
-0.008948515169
-0.008921462111
-0.00855066441
-0.008448807523
-0.008439079858
-0.008333384059
-0.007964179851
-0.007865910418
-0.00752699608
-0.00706740329
-0.006976483855
-0.006742869969
-0.006564238574
-0.006544814445
-0.006544156466
-0.006014192477
-0.005991315935
-0.005931965541
-0.00590382563
-0.005750279408
-0.005155477673
-0.004926023539
-0.004805000499
-0.004784136545
-0.004772212356
-0.004432816058
-0.004334279802
-0.003974915016
-0.003894488327
-0.003740320448
-0.003685708856
-0.003626760794
-0.003503836459
-0.003439011751
-0.003400573973
-0.003370800754
-0.00327543891
-0.00325681828
-0.003249281086
-0.003192757489
-0.003188864095
-0.003015140304
-0.002459183102
-0.00227266713
-0.002249343786
-0.002197667724
-0.002129077446
-0.002123323502
-0.001651889062
-0.00164958823
-0.001364341937
-0.001162179746
-0.00109365501
-0.001090119011
-0.0008462746628
-0.0002733869187
-0.0002336381585
-0.0002276313608
-0.0002167782513
-0.0002114429371
-6.083795961e-05
-4.340544183e-05
5.466806033e-05
0.0002709309338
0.0003540512116
0.0004186336882
0.0006033582031
0.0006384269218
0.0006427941262
0.0007000173791
0.0007593078772
0.0008285940858
0.001172951772
0.001409631805
0.00155631802
0.001596103539
0.001603932818
0.001607272308
0.001766125555
0.001792387338
0.002454807051
0.002637579571
0.002638415201
0.002797939582
0.003113427199
0.00321027264
0.003236835822
0.003241182771
0.003292106325
0.0033490723
0.003467640607
0.003473503282
0.003580124117
0.003596428316
0.003656534245
0.003693608567
0.003734128783
0.004114877433
0.004157891963
0.004184167366
0.004537009634
0.004820703063
0.005087621976
0.005185022019
0.005403283518
0.005526490044
0.00558975013
0.005590419285
0.005896903109
0.005962220486
0.005964984652
0.006005436648
0.006043813657
0.006144446321
0.006256069522
0.006409606431
0.006773643661
0.006903451867
0.006934505887
0.007050673477
0.007225605659
0.007565277629
0.007617457304
0.007641448174
0.00799976103
0.00804498978
0.008071138524
0.008135563694
0.0081362864
0.00816964265
0.008326125331
0.008343579248
0.008462277241
0.008634532802
0.008736137301
0.008884476498
0.008906538598
0.00903158728
0.009135952219
0.009234244004
0.009398587048
0.009474742226
0.009481207468
0.009613231756
0.009692260996
0.009828638285
0.009948448278
0.0100635998
0.01010910235
0.01013570745
0.01024948992
0.01047460828
0.01049089618
0.01050986163
0.01053387672
0.01054004207
0.01055560168
0.01062004268
0.01069716737
0.01078020409
0.01110441051
0.01112848334
0.01132469531
0.01143002324
0.01148837153
0.01164887473
0.01165116392
0.01220761053
0.01221383642
0.01248095091
0.01271509938
0.01278924383
0.01282251719
0.0128653245
0.01322047599
0.0135037126
0.01401652209
0.0142900534
0.01453728229
0.01477595791
0.01482294779
0.0150603801
0.01513714157
0.01514212228
0.01542439312
0.01546917576
0.01550757885
0.01559883729
0.0156175876
0.0158242695
0.01601481065
0.01610361598
0.01618940011
0.01640947536
0.01655704342
0.01657354832
0.01674311608
0.01676706038
0.01679598913
0.01703673229
0.01732475683
0.01743862405
0.0175048653
0.01751130633
0.01752513088
0.01773015037
0.01777372137
0.0179739669
0.01828789152
0.0183202289
0.01835635863
0.01872574538
0.01878493279
0.01883536205
0.01886579394
0.01914469711
0.01916323602
0.01935479976
0.01960787177
0.01986650191
0.01986861229
0.01988646202
0.01992824115
0.01998687349
0.02009693161
0.02015329339
0.0201957915
0.02030231431
0.02040633932
0.02043224312
0.0204356201
0.02053468861
0.02061869763
0.0208112523
0.02107863687
0.02115215547
0.0216197148
0.02181125619
0.02187675796
0.02222175896
0.02240452543
0.0224951487
0.02297904901
0.02302398905
0.02329215221
0.02340125665
0.02341456898
0.02343415469
0.02367674373
0.02376696654
0.02381629311
0.02385789342
0.02394639887
0.02407845855
0.0241345726
0.02418699861
0.02427390963
0.02434802428
0.02437542938
0.02476254478
0.02478511631
0.02482382208
0.02486617118
0.02504387312
0.02514085174
0.02532100119
0.02547302842
0.02548221126
0.02552884445
0.02567860298
0.02575567178
0.02587729506
0.0258976575
0.02589811012
0.02597043663
0.02598596551
0.02600130066
0.02603190206
0.02607641369
0.02613697387
0.026168501
0.0263068378
0.0264791958
0.02651122957
0.02652493119
0.02657445148
0.02669265307
0.02678826265
0.02691509388
0.02711574547
0.02729818225
0.02745896764
0.02764083631
0.02769602649
0.02774505317
0.02809219621
0.02821379527
0.02847971022
0.02858864516
0.02882694826
0.0288507808
0.02888143994
0.02908202074
0.02934605628
0.02940846235
0.0294779148
0.02951801196
0.02967883274
0.0300078541
0.03010497801
0.03016703948
0.03037487343
0.03040540405
0.03043591045
0.03046132997
0.03056083992
0.03060012497
0.03096855991
0.03112707101
0.03119494952
0.03127866238
0.03137850016
0.03140310198
0.03143279999
0.03165663779
0.03181261942
0.03181488812
0.03186977655
0.03195507079
0.03206025064
0.03213529289
0.03254998475
0.03256616369
0.03264331818
0.03280903772
0.03298768029
0.0330860652
0.0333612971
0.03357260674
0.03363141418
0.03393454105
0.03422097862
0.03424923494
0.03458422422
0.03481703997
0.03487631679
0.03502869233
0.0353432931
0.03556707874
0.0356566608
0.03583009914
0.03583237156
0.03586307168
0.0359473601
0.03608743474
0.03617471457
0.03649986535
0.03666888177
0.03683299944
0.03687350079
0.03693239763
0.03712302819
0.03727823496
0.0374305062
0.03759849444
0.03808813915
0.03846652433
0.03868888691
0.03879945725
0.0388260819
0.03902346641
0.03920077533
0.03924781457
0.03944198042
0.03945397213
0.03965978697
0.03975803778
0.03983386606
0.03993525729
0.0401914008
0.04024366662
0.04025075212
0.04032246396
0.04038033634
0.04039318487
0.04052278772
0.04098172858
0.04103753343
0.04131976143
0.04150415957
0.0415671207
0.04168442637
0.04182264954
0.0418413952
0.04190166295
0.04191048443
0.04195515439
0.04207466915
0.04230850562
0.04230971262
0.04245856032
0.0424686186
0.04248884693
0.04252711684
0.04277170822
0.04295786843
0.04309163988
0.04318077117
0.04318509996
0.04334292561
0.043642845
0.04366990924
0.04370741174
0.04372063279
0.04405742511
0.04417153075
0.04422057793
0.04445819184
0.04446141422
0.04468490556
0.04468863085
0.04472688586
0.04487317801
0.04513946921
0.04514385387
0.04519244283
0.04548831657
0.04562613368
0.04571422189
0.04577223957
0.04579160735
0.0460485965
0.04622520134
0.04622985795
0.04624063149
0.04624402896
0.04634518921
0.04678959399
0.04696001485
0.04702554643
0.04707577452
0.0471514985
0.04723761976
0.04752552509
0.04777187109
0.04793197289
0.04799223691
0.04803877324
0.04812927917
0.04826594144
0.04829912633
0.0486663878
0.04872106761
0.04884552583
0.04893719777
0.04915302619
0.04917864129
0.0494841896
0.04950097948
0.04959110171
0.04959187657
0.04969984666
0.0499429442
0.0499637574
0.04997790232
0.0500312373
0.05011773109
0.05020290241
0.05060007796
0.05063145608
0.05078738928
0.05110208318
0.0511517413
0.05149832368
0.05159109458
0.05159973726
0.05160620809
0.05161883682
0.05164361745
0.05204231292
0.05214126036
0.05247884989
0.05249049515
0.05253090337
0.05281936005
0.05285063013
0.05292632431
0.05297313258
0.05304555595
0.05333828181
0.05362531543
0.05364098027
0.05372959003
0.05384166166
0.05405273661
0.05409067869
0.0543881841
0.05456193164
0.05462156609
0.05464908108
0.05493304133
0.05495906994
0.05508870631
0.05526132509
0.05538963154
0.05550352484
0.05556416884
0.05561285838
0.05563184619
0.05568675324
0.05569575354
0.05631315708
0.05632901564
0.05660096928
0.05664256215
0.05680724978
0.05717448518
0.05722440779
0.05739406124
0.05757769197
0.05808013678
0.058212623
0.05825144053
0.05828047171
0.05846078321
0.05852182955
0.05859454721
0.05866439641
0.05874615163
0.05896933004
0.05905844644
0.05912018195
0.05913713574
0.05938420445
0.05948091298
0.05983156711
0.06018330157
0.06079798192
0.06091206521
0.06096907705
0.06122364476
0.06186659262
0.06190931797
0.06203221157
0.06209178269
0.06211706623
0.06240464002
0.06300263107
0.06329344213
0.0633257255
0.06342829764
0.06343654543
0.06350492686
0.06362184137
0.06375245005
0.0638242662
0.06400495023
0.06437526643
0.06438095123
0.06451352686
0.06493002921
0.0649458766
0.06516717374
0.06518267095
0.06530562043
0.06534484029
0.06547550857
0.06559393555
0.06560115516
0.0657184422
0.06595917791
0.06609258056
0.0661964789
0.06620390713
0.06623571366
0.06645066291
0.06669547409
0.06674248725
0.06684745848
0.06696173549
0.06699480116
0.06703858078
0.06738138199
0.06744481623
0.06754845381
0.06793913245
0.06810668856
0.06842877716
0.06857146323
0.06889560074
0.06917939335
0.06968872994
0.06979934871
0.07009454817
0.07012182474
0.07018892467
0.07045338303
0.07046499103
0.07062721997
0.07083672285
0.07084017992
0.07084085047
0.07109680772
0.07111929357
0.07112838328
0.07115695626
0.07137740403
0.0718100369
0.07190673053
0.07191418111
0.07199237496
0.07231806964
0.07232581824
0.0728687793
0.07288110256
0.07297985256
0.07325041294
0.0735027194
0.0735444352
0.07355270535
0.07363948971
0.07367707044
0.07368385792
0.07379467785
0.07436861843
0.07464276999
0.07477369159
0.07505391538
0.07507877797
0.07507941127
0.07519652694
0.07562724501
0.07577320188
0.07580225915
0.07580261678
0.07581306994
0.07597577572
0.07611505687
0.07612875104
0.07631059736
0.07676014304
0.07693737
0.07704749703
0.07713719457
0.07714506984
0.07739368826
0.07742507756
0.07760901749
0.07765123993
0.07774020731
0.07788355649
0.0783066079
0.07838279009
0.07839183509
0.07846898586
0.07870934904
0.07902437449
0.07906498015
0.07913319767
0.07937581837
0.07942433655
0.07962087542
0.07989438623
0.07996960729
0.08028610796
0.08032260835
0.0803701058
0.08049156517
0.08061051369
0.08069130778
0.08076906949
0.08089117706
0.08096457273
0.08114157617
0.08142413199
0.08187704533
0.08197242767
0.08202546835
0.08216753602
0.08224102855
0.08227987587
0.0823046118
0.08234533668
0.08296212554
0.08303675056
0.08320000768
0.08349101245
0.08360952139
0.08376669139
0.08406377584
0.08414931595
0.08415917307
0.08423509449
0.08425085247
0.08463704586
0.08487421274
0.08490066975
0.0850610882
0.08517298102
0.08560205996
0.08561193198
0.08569105715
0.08574339002
0.08583844453
0.08596845716
0.08609803021
0.08613077551
0.08650454134
0.08656846732
0.08694971353
0.08709143847
0.08722542971
0.08740029484
0.08775393665
0.0881908834
0.0883449465
0.08834784478
0.08856803179
0.08901632577
0.08912467957
0.08928732574
0.089344576
0.08962140232
0.08962614834
0.08989683539
0.08998603374
0.09006075561
0.09035503864
0.09055687487
0.09067891538
0.09075850248
0.0908645913
0.09142618626
0.09177517146
0.0920753032
0.09231156111
0.09234263748
0.09243439883
0.092490457
0.09254608303
0.09267509729
0.09291508049
0.09309065342
0.09319659323
0.09322347492
0.09329664707
0.09334349632
0.09353636205
0.09354611486
0.09358750284
0.09359171242
0.09365116805
0.09365770966
0.09370744973
0.09373495728
0.09409321845
0.09416922182
0.09444912523
0.09455227107
0.09462384135
0.09469917417
0.0949434042
0.09503615648
0.09527423978
0.09540239722
0.09550558031
0.09557892382
0.09568955749
0.09598635882
0.09600377828
0.09604351223
0.09638373554
0.09640179574
0.0969087258
0.09696166962
0.09700567275
0.09704163671
0.09743946046
0.0979102999
0.0980425328
0.0981232971
0.09812489897
0.09832880646
0.09841071814
0.09900046885
0.09927980602
0.09970843047
0.09981063753
0.0999135524
0.1002604961
0.10037186
0.100604333
0.100684464
0.1007227153
0.1007474661
0.1007724628
0.1017602012
0.1021803468
0.1022394896
0.1023042947
0.1023525298
0.102392152
0.1025636345
0.1026521027
0.1027138904
0.1030603051
0.1039730161
0.1040287986
0.1041693389
0.1043395251
0.1044891849
0.1045526937
0.1045692414
0.1046396568
0.1048405841
0.1049107909
0.1058203951
0.1066533327
0.1074168459
0.1076519936
0.1077798381
0.1078225151
0.1083992794
0.1084479168
0.1086365432
0.108899802
0.1090034693
0.1090875044
0.1093076989
0.1094458774
0.1095278114
0.1095480397
0.1095585227
0.1097409949
0.1100404412
0.1102185547
0.110418424
0.1104768515
0.110610947
0.1109007224
0.1109898463
0.1111509055
0.1111588255
0.1114090011
0.1114392355
0.1115052104
0.1115812361
0.1119506806
0.1120389551
0.1120655686
0.1121428162
0.1122516468
0.1123384759
0.1127442792
0.1129537448
0.1129548326
0.1136831492
0.1139211431
0.1140040532
0.1140296906
0.1141348705
0.1141928583
0.1142134219
0.114267163
0.1143250242
0.1143440977
0.1144884154
0.1144949868
0.1144970357
0.1145918146
0.1148459315
0.1150086448
0.1152830943
0.1154765412
0.1156094298
0.1157107353
0.1160025001
0.1160926744
0.1161321402
0.11654035
0.1172878072
0.1173560023
0.1173623055
0.117409125
0.117437385
0.1176848039
0.1178417727
0.117857188
0.1178701445
0.1179338843
0.1181813329
0.1182860732
0.1183580235
0.1184161231
0.118656747
0.1190173328
0.1191497371
0.1194657162
0.1194812432
0.1195763052
0.11967621
0.1196968779
0.1202640086
0.1206071824
0.1206714958
0.1208998039
0.1212544963
0.1216250658
0.1217400134
0.1217698678
0.1221664846
0.1222129539
0.1223720163
0.1224948317
0.1225876287
0.1227365434
0.1231182143
0.1235701665
0.1236066073
0.1237711683
0.1239067912
0.1241168529
0.1241791248
0.124219127
0.1244232804
0.1253084689
0.1255985796
0.1257004142
0.1257697642
0.1260010749
0.1263263822
0.1264400333
0.1265330017
0.1265373379
0.1268320829
0.1270039082
0.1270618141
0.1274449676
0.1275491118
0.127582714
0.1276209652
0.1277501136
0.1279517859
0.1282167584
0.1283318102
0.1284916699
0.1288488507
0.1293552816
0.1298849583
0.1299138367
0.1299545169
0.1300748438
0.1301299036
0.1301612109
0.1301823109
0.1303844005
0.1303935349
0.1315976679
0.1321055293
0.1322783083
0.1323666424
0.1325220764
0.13277556
0.132884264
0.1328917742
0.133030653
0.1335464716
0.1336402148
0.1336490661
0.1342310905
0.13449727
0.1346114129
0.1353593916
0.1354770809
0.1356392503
0.1357264817
0.1360909492
0.1362709701
0.1363564134
0.1364265531
0.1370843947
0.1371058077
0.1375645548
0.1379965991
0.1380841285
0.1381113827
0.1383653283
0.1384925693
0.1385272592
0.1394484788
0.1394980699
0.1396444738
0.1396652609
0.1397173405
0.1397978365
0.1400241256
0.1404599249
0.1406787634
0.1408188641
0.1417461038
0.1419694275
0.1421470791
0.1423731595
0.1425244361
0.1426196545
0.1426944733
0.1427222043
0.1428948641
0.1431667805
0.1432707906
0.1435492486
0.1435729414
0.1442236006
0.1442902237
0.1445679814
0.1446328312
0.1449269652
0.145128727
0.1456799507
0.1457414478
0.1459147185
0.1459516585
0.1459697783
0.146108225
0.1461486965
0.1464759707
0.1465220153
0.1469641477
0.1472611427
0.1472655386
0.1474197209
0.1480304152
0.1480588168
0.1487646252
0.1490992904
0.1491892189
0.1494212002
0.1495884806
0.1496823132
0.1497207582
0.1498166919
0.1503084153
0.150688991
0.1509805471
0.1511860788
0.1518187374
0.1519211382
0.1522573084
0.1525912136
0.1532879621
0.1535392255
0.1539656967
0.1540710032
0.1541211307
0.1542394161
0.1557327956
0.1558728814
0.1559470296
0.1560753882
0.1562038213
0.1563074887
0.1566169113
0.1566882282
0.1569212824
0.1575298607
0.158120811
0.1582923532
0.1600008607
0.1600995213
0.16056481
0.1606434435
0.1608282924
0.161159724
0.1612490714
0.1616745442
0.1616920531
0.1618460417
0.1622984409
0.1627452075
0.1638493687
0.1639064699
0.1640899032
0.1645477116
0.164806053
0.1649115086
0.1651939154
0.1654021144
0.165882349
0.1665978134
0.1667513549
0.1669223607
0.1682767123
0.1683187634
0.1686415225
0.1705017835
0.1707196832
0.1710373759
0.1711135358
0.1718859673
0.1724647284
0.1728848368
0.1733499616
0.1736496836
0.1741437167
0.1747040004
0.1750601083
0.1762094647
0.1762712151
0.1768117249
0.1768881679
0.1771673709
0.1772988588
0.1774840653
0.1776276827
0.1779036373
0.178371191
0.1790381819
0.1791922301
0.1799595952
0.180310756
0.1808591485
0.1809224635
0.1830122024
0.1831835806
0.1836325824
0.1836479455
0.1855426729
0.185793519
0.1871349365
0.187302351
0.1873499751
0.1875978112
0.188181296
0.1884743869
0.1890016794
0.1904625893
0.1914726943
0.1922500134
0.1924285591
0.1924584955
0.1924842894
0.1939100623
0.1941165328
0.1947689354
0.1949062198
0.195025444
0.1961841285
0.1967769414
0.1968970299
0.1970711946
0.1980277747
0.1984350383
0.1990895718
0.1994619966
0.1995043159
0.1996661127
0.2002743483
0.2017246783
0.2034730166
0.2037154585
0.2045369595
0.2061582208
0.2064997554
0.2068910301
0.2072303146
0.2088257819
0.2089547962
0.2117806226
0.2121680677
0.2130765617
0.2130954117
0.2133114487
0.2137262374
0.2139228582
0.2181746513
0.2189942896
0.2210353911
0.2213180065
0.2257041484
0.2257270068
0.2279260308
0.2281849533
0.2294413596
0.2339922041
0.2344790548
0.2346339673
0.2357959747
0.2369776219
0.2369840294
0.2383307368
0.2393804044
0.2430481017
0.2435511202
0.2465461642
0.2503625751
0.2504472733
0.254986912
0.2586733103
0.259400636
0.2630681098
0.2640327513
0.2649331391
0.2682184875
0.2733009458
0.2748332024
0.2773360014
0.279694736
0.2819418907
0.2851846218
0.2872082293
0.2918492258
0.2940948904
0.295468539
0.299888432
0.3023245037
