-0.3011851907
-0.3010528088
-0.2591152489
-0.2572777271
-0.2411937565
-0.239207834
-0.2356730849
-0.2205307037
-0.2161228508
-0.2085627913
-0.2007124424
-0.1929949224
-0.1766530573
-0.1754722148
-0.1675748974
-0.1649361551
-0.1641270965
-0.1603335589
-0.1563985348
-0.156340003
-0.1529818624
-0.1460199952
-0.1438577175
-0.1425856799
-0.1387712955
-0.1363683045
-0.1342273057
-0.1302485019
-0.1260741502
-0.1247712821
-0.113062717
-0.1102097556
-0.106500484
-0.1039932072
-0.0984563902
-0.0979436785
-0.09575679898
-0.09561438113
-0.09250576049
-0.09131912887
-0.08734104037
-0.08576963842
-0.08027646691
-0.08003312349
-0.07960362732
-0.07666977495
-0.07568757236
-0.0675066337
-0.05992141739
-0.05977562442
-0.05904973298
-0.05771413073
-0.05475262925
-0.05411564186
-0.05252011865
-0.04796473682
-0.04245059192
-0.04137790203
-0.03988376632
-0.03980595618
-0.03817945346
-0.03736076877
-0.03659767658
-0.03620586172
-0.02494785748
-0.02313931845
-0.01827134937
-0.01685203239
-0.01435207389
-0.01433713734
-0.01396269631
-0.01209111791
-0.01206518617
-0.005708202254
-0.004540342372
-0.001786799519
0.001129621058
0.004293636419
0.005535961129
0.009703353047
0.009955757298
0.01209355984
0.01860854775
0.01916431449
0.02076807432
0.02150328457
0.02739154547
0.02800770849
0.03009423055
0.03041264601
0.03196423128
0.03315235674
0.03501562402
0.03507436812
0.03737945855
0.04520530999
0.05226298794
0.05462011695
0.05654899776
0.05777522177
0.05914881825
0.06188131124
0.06199811399
0.06291712075
0.06394532323
0.06865045428
0.07353541255
0.07691432536
0.0779505223
0.08428607136
0.08641735464
0.09052500874
0.09290295839
0.09587163478
0.1024722233
0.1033082381
0.1072447896
0.1121485978
0.1206423417
0.1225610152
0.127511695
0.1311870515
0.1318920851
0.1447049081
0.1636085808
0.1679153442
0.1714361757
0.1763976961
0.1774445176
0.1799985021
0.1801051348
0.1859594285
0.1871293187
0.1972560734
0.216891259
0.2209399343
0.2220957279
0.2302708477
0.2307030112
0.2332305759
0.2398651242
0.2461363673
0.2489408851
0.2504471242
0.2550089061
0.2697173357
0.3186494112
0.3201552033
0.3373933136
0.3455119133
