-0.8424027562
-0.5402214527
-0.5053724647
-0.5052313805
-0.500551939
-0.4910004437
-0.4801073074
-0.4270989895
-0.4119408131
-0.3935013413
-0.3473101258
-0.3465912938
-0.3455812931
-0.3402310908
-0.3190639615
-0.315985918
-0.3135922551
-0.3103520572
-0.3082680702
-0.3073084652
-0.306715399
-0.3060283065
-0.298745662
-0.2978987694
-0.2882542908
-0.2875761092
-0.2837535739
-0.2791529298
-0.2777078748
-0.2769977152
-0.2756018639
-0.2751455307
-0.27430287
-0.2727835774
-0.2712966502
-0.2681714892
-0.266967535
-0.2596540451
-0.2589504421
-0.2576284707
-0.2575215995
-0.2571462989
-0.2562648952
-0.2557678521
-0.247390911
-0.2442306131
-0.2440164089
-0.2434964478
-0.2395708859
-0.2393761724
-0.2376472205
-0.2352860272
-0.2318858355
-0.2291875482
-0.2287761718
-0.2275345176
-0.2271982133
-0.22718063
-0.2271003276
-0.2261936367
-0.221404016
-0.2196849287
-0.2183141261
-0.2165431678
-0.2160121948
-0.214808315
-0.2143871486
-0.2142409384
-0.2138756514
-0.2134038359
-0.2094211578
-0.2090734243
-0.2065751106
-0.2059427202
-0.2054268122
-0.2051021457
-0.2039794177
-0.2033660561
-0.2023915946
-0.2016749531
-0.2015250772
-0.1989979297
-0.1974261999
-0.1938105077
-0.1931829304
-0.1923246384
-0.1920699179
-0.1912884563
-0.1901389807
-0.1885432452
-0.1870058924
-0.1868647635
-0.1864031702
-0.1857658625
-0.1852081269
-0.1849543005
-0.1832730323
-0.1818365008
-0.178799361
-0.1763547361
-0.1748360246
-0.1739570946
-0.1725056469
-0.1710629165
-0.1698696017
-0.1688765734
-0.1658417434
-0.1656390727
-0.1648408622
-0.1645011604
-0.1626162827
-0.1621291041
-0.1605220735
-0.1602236181
-0.1599262357
-0.1590849012
-0.1586735249
-0.1586252302
-0.1582905799
-0.1579504013
-0.155985713
-0.1554625034
-0.1548440605
-0.1544929296
-0.1543432772
-0.1542923898
-0.1541973948
-0.1538186669
-0.1533039957
-0.1527665257
-0.1525529325
-0.1518409401
-0.1503799707
-0.1492805481
-0.1485169083
-0.1481304616
-0.1479848325
-0.1477912366
-0.1462322176
-0.1458583921
-0.145530358
-0.1430795044
-0.1410486698
-0.1408949494
-0.1393604726
-0.1389234066
-0.1381488442
-0.1380016655
-0.1374247372
-0.1372513026
-0.1353405267
-0.1351306438
-0.1348530054
-0.1345031857
-0.1340471208
-0.1335385144
-0.1335300356
-0.1326194257
-0.1319635659
-0.1302968562
-0.1297633052
-0.1278457195
-0.1270812601
-0.1270804852
-0.126636371
-0.1265797764
-0.1258843541
-0.1253364682
-0.1251002401
-0.1250360459
-0.1244560108
-0.124378182
-0.123927772
-0.122368224
-0.1217665076
-0.1215594336
-0.1208828986
-0.1196978018
-0.1187820882
-0.1185131744
-0.1180811599
-0.1174862683
-0.1170810312
-0.1155253351
-0.115317516
-0.1149767116
-0.114831388
-0.1137455031
-0.1126143113
-0.1125387251
-0.1121400669
-0.1120226681
-0.1113397107
-0.1112410128
-0.1111454293
-0.1107092649
-0.1107067838
-0.1105182618
-0.1102649495
-0.1098239124
-0.1096462458
-0.1094788611
-0.109389171
-0.1091701463
-0.1088077202
-0.1087846234
-0.1066713408
-0.106492877
-0.1059676036
-0.1057573557
-0.1044038311
-0.1043550521
-0.1043081507
-0.1037989333
-0.1036202908
-0.1030368581
-0.1027579904
-0.1015480235
-0.1003308073
-0.1000293195
-0.09982260317
-0.09972137958
-0.09937433898
-0.09925865382
-0.09923156351
-0.09888071567
-0.0983961001
-0.09737259895
-0.09692489356
-0.09622699022
-0.09598372877
-0.09529159218
-0.09513377398
-0.09194010496
-0.09190330654
-0.09184849262
-0.09152168781
-0.08933319896
-0.08885522932
-0.08841124177
-0.08790997416
-0.08763039857
-0.08759859204
-0.08711068332
-0.08709236979
-0.08646971732
-0.08635462075
-0.08585223556
-0.08533230424
-0.08502209932
-0.08500210196
-0.08453893661
-0.08430018276
-0.0840832442
-0.08374596387
-0.08337016404
-0.08290359378
-0.08280128986
-0.08276002109
-0.08275388181
-0.08244783431
-0.08204959333
-0.08101205528
-0.08064485341
-0.08055453002
-0.08035700768
-0.08022955805
-0.08006557822
-0.0795904398
-0.07957589626
-0.07887276262
-0.07875424623
-0.07788387686
-0.0774339065
-0.07734854519
-0.07674793899
-0.07490480691
-0.07410696149
-0.07393530011
-0.07362449914
-0.07361487299
-0.07321668416
-0.07315602154
-0.07312505692
-0.07288181782
-0.07261775434
-0.07207037508
-0.07089037448
-0.07060787827
-0.07019465417
-0.06976146996
-0.06972677261
-0.06970666349
-0.06961466372
-0.06954666227
-0.0693090409
-0.0689881891
-0.06885229051
-0.06859152764
-0.06848759204
-0.06841856986
-0.06733752042
-0.06576377153
-0.06576327235
-0.06534874439
-0.0644306764
-0.06438396871
-0.06424529105
-0.06413076073
-0.06386145949
-0.06371515989
-0.06329245865
-0.06279137731
-0.06255801767
-0.06245608255
-0.06225802749
-0.06194023415
-0.06168235838
-0.06134603545
-0.06119945273
-0.06102431938
-0.06092634797
-0.06033311784
-0.06028998643
-0.06006558239
-0.05997417122
-0.05995718762
-0.05942746997
-0.05907959491
-0.05841362849
-0.05742247775
-0.05719515309
-0.05701576546
-0.05695163086
-0.05680761859
-0.05644221604
-0.05635831878
-0.05632735789
-0.05557334423
-0.05529680103
-0.0537587963
-0.0535249263
-0.05276587605
-0.05260264874
-0.05233475193
-0.05181847885
-0.05095386133
-0.05052763224
-0.05036854744
-0.04972732812
-0.0494473502
-0.04904263094
-0.04895834252
-0.04890399426
-0.04833674058
-0.04827194661
-0.04774863273
-0.0475214012
-0.0475197807
-0.04718574136
-0.04693090916
-0.04545949399
-0.04494912177
-0.04417236149
-0.04416374862
-0.04374163598
-0.04333989322
-0.0431144312
-0.04261607677
-0.04197895527
-0.04144638032
-0.04140372947
-0.04134500772
-0.04096166044
-0.04092917219
-0.04070514813
-0.04051885381
-0.03987354413
-0.03957476094
-0.03949495777
-0.03884170949
-0.03873293102
-0.03860412911
-0.03798808157
-0.03731890768
-0.03646657243
-0.03609051183
-0.0360773392
-0.03558076173
-0.03532372043
-0.03468906134
-0.03416329622
-0.03313855454
-0.03306914866
-0.03305855393
-0.03205314279
-0.03193300217
-0.03151572496
-0.03143245354
-0.03108990565
-0.03092150949
-0.03061801568
-0.0305046998
-0.02961110324
-0.02952216752
-0.02943435125
-0.02842115425
-0.02827611938
-0.0277698338
-0.02737570368
-0.02666123398
-0.02603104524
-0.02559112385
-0.02548877336
-0.02486897632
-0.02477521077
-0.02442819625
-0.02433269843
-0.02424609102
-0.02424016036
-0.02401230298
-0.02368713729
-0.02364999428
-0.02345299721
-0.02317190915
-0.02230001613
-0.02228679694
-0.02222685516
-0.02169969864
-0.02164717764
-0.02137323469
-0.02090071328
-0.02030999959
-0.02024280652
-0.0202373527
-0.02017578855
-0.02004538849
-0.01938957535
-0.01913356967
-0.01884713769
-0.01880295202
-0.01870749705
-0.01860203966
-0.01788596064
-0.01782891154
-0.01764456183
-0.01722054929
-0.01718923077
-0.01683068275
-0.01681139134
-0.01566871814
-0.01560169086
-0.01556920633
-0.01533749513
-0.01455343049
-0.01431911718
-0.01307808422
-0.01292689238
-0.01268788613
-0.01256394014
-0.01205408014
-0.01125297043
-0.01119057648
-0.01117100194
-0.01116666198
-0.01084243506
-0.01082373038
-0.01071860734
-0.009184293449
-0.008834327571
-0.008688081056
-0.008640247397
-0.008378497325
-0.008031958714
-0.007697543595
-0.006927175913
-0.006358398125
-0.006215495523
-0.00609891396
-0.005936949514
-0.005834410433
-0.005309576634
-0.005249966402
-0.005067450926
-0.004980138037
-0.004252048209
-0.003610909218
-0.003084225114
-0.003068642924
-0.002702444326
-0.001986027928
-0.001685537165
-0.0007592956536
-0.0003952095867
-0.000311427546
0.0002147626656
0.0003181938664
0.000689025328
0.0007381591713
0.0007919506752
0.001135122264
0.001307080733
0.002570744837
0.002600884764
0.003123688744
0.003217163729
0.003234347329
0.003273074282
0.00335134007
0.003419828368
0.004117975943
0.004368791822
0.004484874662
0.004558101762
0.004950954579
0.005313179456
0.005317592062
0.005480987951
0.00576424133
0.006343919318
0.00711570587
0.007185688242
0.007425457239
0.007516893558
0.007526656147
0.007725554518
0.007962890901
0.007981216535
0.008933324367
0.009371390566
0.009581135586
0.009890392423
0.01048585866
0.01077084523
0.01101044193
0.01129620429
0.01146494225
0.01149100624
0.01177833881
0.01198643073
0.01227681711
0.01251530275
0.01252535731
0.01264549699
0.01322971936
0.01340206899
0.01348474808
0.01391490176
0.01402174495
0.0145243071
0.01458363421
0.01527642738
0.01628337801
0.01692825928
0.0176148098
0.0178373903
0.01798869111
0.01840789802
0.01895240508
0.01900793985
0.02022404224
0.02051633596
0.0213440489
0.02184310369
0.02203745581
0.02214107849
0.02235567197
0.02333793603
0.02379197814
0.02392540872
0.02485652827
0.02500200458
0.02534062229
0.02618245222
0.02658985369
0.02685745806
0.02702051774
0.0273683276
0.02777683921
0.02795842849
0.02799908631
0.02826468647
0.02832132205
0.02837889642
0.02934723347
0.02951406315
0.02956301533
0.02967178263
0.03041214868
0.0314491652
0.03151791543
0.03152772039
0.03203385696
0.03213850036
0.03235508874
0.03273321316
0.03286160901
0.03298676759
0.03302535042
0.03357829526
0.0336221084
0.03418119252
0.03435641527
0.03466252983
0.0346958302
0.03477591276
0.03480762616
0.03498116136
0.03558596224
0.0368431285
0.0372874476
0.03750391677
0.03776791319
0.03873166069
0.03923534229
0.03940290958
0.03972876817
0.03995191306
0.04190715402
0.04263523594
0.04341391101
0.04342198372
0.04412391782
0.04441337287
0.04445425048
0.04451251775
0.04647225887
0.0469452776
0.04694795981
0.04754674807
0.04757862911
0.04768948629
0.04799163714
0.04799943417
0.04810576886
0.04819583148
0.04822744057
0.04823742062
0.04825309664
0.04891969636
0.0504998453
0.05065188929
0.05072688311
0.05084312335
0.05091424659
0.05123566836
0.05135681853
0.05138126388
0.05170666054
0.05171429738
0.05171602219
0.05270841718
0.05294242129
0.05363296345
0.05421167612
0.05454148352
0.05547344312
0.05551804602
0.05583416298
0.05589446425
0.05592374131
0.05628793314
0.05671994016
0.05703981593
0.05828966573
0.05847501755
0.05851730704
0.05895518512
0.05942389742
0.05984102562
0.0604467839
0.06049012765
0.06087271124
0.06124325469
0.06145799905
0.06185820326
0.06307812035
0.06356370449
0.06420954317
0.06501618773
0.06526577473
0.06533397734
0.06568249315
0.06616497785
0.06679732352
0.06702949107
0.06721099466
0.06747037917
0.06800471991
0.06823322177
0.06838747859
0.06902731955
0.069381468
0.06963839382
0.06999223679
0.07034287602
0.07075121254
0.07078882307
0.07085540146
0.07122335583
0.07196059078
0.07200814039
0.0743118152
0.07437890023
0.07441973686
0.07458460331
0.07534024864
0.07555070519
0.0759056285
0.07637238503
0.07729230076
0.07742957771
0.07747413963
0.0776315257
0.07798282057
0.07812888175
0.07838110626
0.07850761712
0.07894781977
0.07911811024
0.07925888896
0.08014725894
0.08052559197
0.08074405044
0.08162751794
0.08172620088
0.08230732381
0.08258157223
0.08262702823
0.08266603202
0.08310909569
0.08350291848
0.0842313692
0.08472508192
0.08504571766
0.08548378944
0.08565442264
0.08596088737
0.086377047
0.08670524508
0.08689971268
0.08790815622
0.08791572601
0.08795650303
0.08835242689
0.09038186073
0.09086057544
0.09129564464
0.09290780872
0.0934311524
0.09357686341
0.09359753132
0.09411529452
0.09438725561
0.09455571324
0.09505346417
0.09629140049
0.09820941836
0.09855623543
0.09875537455
0.09876631945
0.09932234138
0.09939082712
0.09945308417
0.09949355572
0.09976748377
0.1006469429
0.1017091498
0.1017527953
0.1020988449
0.1022881418
0.1024200171
0.1030232161
0.1036333963
0.1041800678
0.1042561159
0.1045002267
0.1049936712
0.1055695191
0.1075310856
0.1078061685
0.1080333516
0.1085720584
0.1089690998
0.1103015319
0.1117658168
0.1121955812
0.1126164272
0.1130524576
0.1136742756
0.1138444021
0.1139388457
0.114208594
0.1142485216
0.1180666834
0.1181805283
0.1182829738
0.1183864996
0.1201967895
0.1207789928
0.1216639727
0.122651197
0.1230994761
0.1253762841
0.1254016757
0.1268962771
0.1285320818
0.1292123348
0.1293778867
0.1293802708
0.1319303215
0.132632181
0.1336591542
0.135167852
0.1368710697
0.1373341233
0.1385181993
0.1394825429
0.1436604857
0.1438393593
0.1458614469
0.1465904117
0.1477261335
0.1481061578
0.1500240266
0.1511059105
0.1523265541
0.1582470387
0.1591881663
0.1626700908
0.1638502926
0.1687900871
0.1688845158
0.1735533923
0.179362461
0.1806575209
0.1902495921
0.1971306354
0.200526163
0.2291323096
