-1.492629051
-1.358148098
-1.132032156
-1.111226201
-1.048200607
-1.036758184
-0.896910131
-0.8834209442
-0.8710786104
-0.8708530068
-0.8550194502
-0.8476380706
-0.8154230118
-0.7927055359
-0.7662059665
-0.7284020782
-0.7159826159
-0.689606905
-0.6832185984
-0.6716594696
-0.6627933383
-0.6597478986
-0.6556498408
-0.6547584534
-0.6498208046
-0.6421975493
-0.6394494772
-0.6330087185
-0.6311122775
-0.6245114803
-0.6220107675
-0.5811761618
-0.5747299194
-0.5745741725
-0.5745546222
-0.5677451491
-0.5668749809
-0.5534952879
-0.529494822
-0.5292233229
-0.5275888443
-0.5224872828
-0.519451499
-0.5094851851
-0.5049360991
-0.5029734373
-0.4967078567
-0.4832991362
-0.4739244282
-0.4735053778
-0.4720184505
-0.4714301527
-0.468601048
-0.4632780254
-0.4626704454
-0.4597852528
-0.4580817819
-0.4577575326
-0.4522483051
-0.4456498623
-0.445033282
-0.4449643791
-0.4402619302
-0.4396935403
-0.4381497204
-0.4286954105
-0.4271564484
-0.4197280109
-0.4193705916
-0.4122417271
-0.4121656716
-0.4096561372
-0.4092356563
-0.4077632725
-0.4037227035
-0.4024064243
-0.4010355771
-0.3933799565
-0.3907920122
-0.3905543089
-0.3893272281
-0.3873417377
-0.3867513239
-0.3855637908
-0.383559972
-0.3831412196
-0.3795902133
-0.3774551451
-0.3755020201
-0.3753491342
-0.3705453575
-0.3700030148
-0.3683156967
-0.3682756722
-0.3667629957
-0.3622366488
-0.3585073054
-0.3583681881
-0.357558459
-0.3574121892
-0.3572566509
-0.3563514948
-0.3549571931
-0.3533013463
-0.3526112139
-0.3517869711
-0.3466875553
-0.341529727
-0.3393556774
-0.3391374648
-0.337836653
-0.3374014795
-0.3368538916
-0.3348048329
-0.3330911398
-0.3325447738
-0.3305650055
-0.330000639
-0.3291465938
-0.3234662414
-0.3228622377
-0.321495384
-0.3214097619
-0.3211387098
-0.3204911053
-0.3202677071
-0.319968909
-0.3192385137
-0.3187770545
-0.3183609545
-0.3162840307
-0.3148853481
-0.3146707416
-0.3138020337
-0.3128427565
-0.3110648096
-0.3103418648
-0.3103125691
-0.308573097
-0.3081115782
-0.3073452711
-0.3044559956
-0.303337425
-0.3030261993
-0.3026962578
-0.3024323285
-0.3022354543
-0.3011189997
-0.3009160757
-0.2998700142
-0.2997428477
-0.2995569706
-0.2983169854
-0.2976029515
-0.2970454395
-0.296546489
-0.2965309322
-0.295601517
-0.2955053747
-0.2943628132
-0.2932323515
-0.2928904891
-0.2927044332
-0.291012913
-0.2909386754
-0.2905890644
-0.2902420759
-0.2892904878
-0.2887514234
-0.2862691283
-0.285689503
-0.2854191065
-0.2848851383
-0.283395648
-0.2827713192
-0.2825319767
-0.2804918885
-0.2804464698
-0.2803218067
-0.2793862522
-0.2776741683
-0.2776340842
-0.2774478793
-0.2770277262
-0.2766893208
-0.2758818567
-0.2755330205
-0.2732203901
-0.2723839879
-0.2719831467
-0.2716135085
-0.2710295916
-0.2705903947
-0.2693976462
-0.2688817382
-0.267670989
-0.2669577003
-0.2662458718
-0.2652621269
-0.2641426921
-0.2633708119
-0.2606028914
-0.2602624297
-0.2588890493
-0.2575269341
-0.2574018538
-0.2571455836
-0.2558112741
-0.2554794848
-0.2547442615
-0.2534166873
-0.2532838285
-0.2516568303
-0.2504723966
-0.2495646477
-0.2494759858
-0.2494571507
-0.2489765286
-0.2483864129
-0.2475154549
-0.2471809536
-0.2469768673
-0.2457370013
-0.2455831468
-0.2455781847
-0.2446849346
-0.2446343452
-0.2438870817
-0.2438822836
-0.2433292419
-0.2433206141
-0.2424080074
-0.2410787791
-0.2406557202
-0.2398676425
-0.2388157696
-0.2387810946
-0.2385411561
-0.2383310199
-0.2379160076
-0.2376254499
-0.236712113
-0.2358086854
-0.2354724854
-0.2352082431
-0.2347189486
-0.2346193045
-0.2346002311
-0.2335879058
-0.2331835181
-0.2329350263
-0.2329134941
-0.2325952947
-0.2321235836
-0.2317568362
-0.2308450639
-0.2305483371
-0.2301725149
-0.2286546677
-0.2279222161
-0.2273687422
-0.2261814922
-0.2258948088
-0.2256311178
-0.2255727202
-0.2255145609
-0.2244052887
-0.2243182063
-0.2238942087
-0.2221235186
-0.2219449878
-0.2211189419
-0.2203708142
-0.220300898
-0.2198566645
-0.2197497487
-0.219121635
-0.218246296
-0.2179067284
-0.2170602232
-0.2160398364
-0.2159219235
-0.2158213705
-0.215634048
-0.2154914141
-0.2153794914
-0.2149285972
-0.2141615897
-0.2134186476
-0.2123602629
-0.2105321437
-0.2103961259
-0.2100777179
-0.2098305076
-0.209561035
-0.2090507746
-0.2089995742
-0.2088796198
-0.2086542398
-0.2086087912
-0.2083717138
-0.2070799321
-0.206673488
-0.2059268653
-0.2054720819
-0.2050719857
-0.2047804594
-0.2044869661
-0.2044473588
-0.2038196176
-0.2038037479
-0.2037432045
-0.2033894956
-0.2031208426
-0.2031042129
-0.2021630853
-0.2018229812
-0.2017624378
-0.2002406865
-0.2001775503
-0.2000053078
-0.1997614354
-0.1990642995
-0.1987527609
-0.1983978748
-0.1979822963
-0.1978567839
-0.1977274418
-0.1971093714
-0.1968248338
-0.1961149871
-0.195930317
-0.1953444332
-0.19442828
-0.1932695061
-0.1928652674
-0.1923978776
-0.1921311617
-0.1919132024
-0.1916047335
-0.191135183
-0.1908046454
-0.1905537844
-0.1898955256
-0.1897673309
-0.1889791489
-0.1879800111
-0.1879410595
-0.1878397018
-0.1875245571
-0.1872620881
-0.187062785
-0.186580807
-0.1864436567
-0.1859143674
-0.1845944226
-0.1845890433
-0.181811884
-0.1816356331
-0.1811746806
-0.1811141074
-0.1808789819
-0.1802294701
-0.1796031743
-0.1795071512
-0.179468438
-0.1785048395
-0.1772051752
-0.1772009432
-0.1771823913
-0.1769120544
-0.1763230115
-0.1755764633
-0.1751068383
-0.1746436059
-0.173705548
-0.1735950112
-0.1733590513
-0.1732011586
-0.1728169769
-0.1719639003
-0.1718090028
-0.1716761142
-0.1714999378
-0.1713819206
-0.1708890498
-0.1703279614
-0.1679314822
-0.1677659601
-0.1675091237
-0.1672782004
-0.1650072634
-0.1644559205
-0.1640001684
-0.1635082066
-0.1635009348
-0.1626050919
-0.1624603868
-0.1616303921
-0.1612287462
-0.1596012414
-0.1594670862
-0.1594141871
-0.1591096669
-0.1589591056
-0.1585125029
-0.1582384557
-0.157788828
-0.157703653
-0.1572531164
-0.1570839584
-0.1567525119
-0.1567255259
-0.1567250341
-0.1565387547
-0.1564619541
-0.1563297808
-0.1559455395
-0.155744195
-0.1552297324
-0.1551570892
-0.1539520472
-0.1528912187
-0.1524005234
-0.1523188204
-0.1522318423
-0.1519300938
-0.1517522186
-0.1514774114
-0.1511558145
-0.1509898305
-0.1507737339
-0.1506476849
-0.1502268016
-0.149758935
-0.1491494924
-0.1489435732
-0.1486167014
-0.1483500898
-0.1481820345
-0.147649765
-0.1469324082
-0.1457003504
-0.1450971216
-0.1444359124
-0.143393755
-0.1432383955
-0.1430583
-0.1427492201
-0.1427492052
-0.1426273286
-0.1423963904
-0.142351523
-0.1422564089
-0.1421815008
-0.141773507
-0.141562447
-0.1415092051
-0.1412650198
-0.1397776455
-0.1396868229
-0.1385703087
-0.1379958838
-0.1379334927
-0.1378136426
-0.1376865655
-0.1374341249
-0.1372943372
-0.136927858
-0.136415869
-0.1364003271
-0.1361260265
-0.1355394721
-0.1354842782
-0.1352017969
-0.1346256435
-0.1340332776
-0.1338846684
-0.1335913241
-0.1335173547
-0.1334244758
-0.1333931834
-0.133110106
-0.1330437362
-0.1328690648
-0.1325419992
-0.1325349659
-0.1323917657
-0.131891042
-0.1311777383
-0.1311675459
-0.1310682148
-0.1310295165
-0.1297329217
-0.129622072
-0.1295985878
-0.1289871633
-0.1287010461
-0.128357321
-0.128246069
-0.1282284409
-0.1280840933
-0.1280390769
-0.1279519647
-0.1275148839
-0.1267870665
-0.1266122162
-0.1265706867
-0.1264494658
-0.1263383329
-0.1251343042
-0.1243030876
-0.1240980178
-0.1239724308
-0.1237866879
-0.12320856
-0.1229044124
-0.1228501126
-0.1226577684
-0.122607097
-0.1223799065
-0.1221306697
-0.1219542772
-0.1217664331
-0.1215233505
-0.1212279797
-0.1210956275
-0.1210757047
-0.120754078
-0.1207330152
-0.1205482259
-0.1200539321
-0.1199342683
-0.1198549494
-0.1197735518
-0.1197307333
-0.1196769699
-0.1196750924
-0.1194762066
-0.1194673553
-0.1191077754
-0.1190975681
-0.1183191612
-0.1179875582
-0.1171738729
-0.1171452329
-0.1170489043
-0.1169503182
-0.1161148772
-0.1159554496
-0.1159124672
-0.1157588065
-0.115544267
-0.1152703762
-0.1148782447
-0.1148081943
-0.1142955869
-0.1141523793
-0.1139514223
-0.1131355986
-0.1126805022
-0.1123972684
-0.1122238785
-0.1120231003
-0.1118655726
-0.1113789007
-0.1112426445
-0.1110435203
-0.1107287407
-0.1102617383
-0.1102484539
-0.1100441441
-0.1098216698
-0.1094697639
-0.1093463823
-0.1090537012
-0.1087258756
-0.1086738184
-0.108574748
-0.1083077416
-0.1081969738
-0.1080726832
-0.1077178344
-0.1071198881
-0.1067952067
-0.1067787781
-0.1067154557
-0.1063499078
-0.1058207899
-0.1058145091
-0.1057471558
-0.1052612737
-0.1052190438
-0.1051943377
-0.1048613712
-0.1045920551
-0.1044839695
-0.104376182
-0.1043339595
-0.1038865373
-0.1038609967
-0.1034141853
-0.1033494845
-0.1032679081
-0.1031930372
-0.1030489802
-0.1030457243
-0.1028420702
-0.1022950709
-0.101984486
-0.1018868238
-0.1018329933
-0.101693213
-0.1011133045
-0.1010121256
-0.1008463204
-0.1007525176
-0.09980855882
-0.09963601828
-0.09946121275
-0.09907531738
-0.09905456007
-0.09899111837
-0.09874904901
-0.09865900129
-0.09818221629
-0.09773926437
-0.09665711224
-0.09648542851
-0.09611658752
-0.09590929002
-0.09571519494
-0.09546703845
-0.09528429061
-0.09516984224
-0.09503111243
-0.09423919022
-0.09420363605
-0.0940727964
-0.09353384376
-0.09336102754
-0.09302061796
-0.09289388359
-0.0926829353
-0.09226636589
-0.09173548222
-0.0916801542
-0.09096796066
-0.09095460922
-0.09089295566
-0.09072127193
-0.0906169489
-0.09060300887
-0.09051564336
-0.09038641304
-0.0902980715
-0.08956841379
-0.08935877681
-0.08918695897
-0.08910938352
-0.08855564147
-0.08820460737
-0.08753823489
-0.08743129671
-0.08741097152
-0.08708194643
-0.08679812402
-0.08641113341
-0.08616548777
-0.08604162186
-0.08594059944
-0.08583717048
-0.08571097255
-0.08566227555
-0.08533322811
-0.08527412266
-0.08517514169
-0.08462462574
-0.08453371376
-0.08414170146
-0.08411133289
-0.08392282575
-0.08350928873
-0.08346153051
-0.08341731876
-0.08302757889
-0.08283789456
-0.0823546499
-0.08230045438
-0.0811316222
-0.08066157997
-0.08034341782
-0.08021888882
-0.08009283245
-0.0799979344
-0.07993753999
-0.07976725698
-0.0797649473
-0.07962942123
-0.07954435796
-0.07948940247
-0.07894667983
-0.07892473787
-0.07854863256
-0.07851042598
-0.07807763666
-0.07787491381
-0.07780576497
-0.0777322799
-0.07748966664
-0.077401869
-0.07712877542
-0.07706955075
-0.07701902837
-0.07696013898
-0.07660414279
-0.07659433782
-0.07631522417
-0.07575114071
-0.07564165443
-0.07560887933
-0.07550305873
-0.07532282919
-0.07514029741
-0.0749392584
-0.07484802604
-0.07477670908
-0.07460255921
-0.07456692308
-0.07455471903
-0.07417172939
-0.0741129443
-0.07378712296
-0.07330434024
-0.07322757691
-0.07308112085
-0.07300469279
-0.0726178363
-0.07255218923
-0.07228173316
-0.07221958041
-0.07201699167
-0.07200585306
-0.07171968371
-0.07146013528
-0.07140158117
-0.07112628967
-0.07093955576
-0.07089544833
-0.0707103014
-0.07052693516
-0.07033991069
-0.07032187283
-0.07010558248
-0.07008484006
-0.07004263997
-0.06965012103
-0.06958812475
-0.06944207102
-0.06941900402
-0.06937333941
-0.06921923906
-0.06887129694
-0.0683433637
-0.06816039979
-0.0680340752
-0.06801450998
-0.06780536473
-0.06779096276
-0.06779090315
-0.06768950075
-0.06745502353
-0.06744940579
-0.06732201576
-0.06709682941
-0.06668536365
-0.06664206088
-0.06654454768
-0.06634386629
-0.0661842227
-0.06616869569
-0.06593570858
-0.06591664255
-0.06584001333
-0.06575215608
-0.06570134312
-0.06549751014
-0.06514754146
-0.06508730352
-0.06497897208
-0.06486023962
-0.06481267512
-0.06451913714
-0.06405063719
-0.0640264526
-0.06390648335
-0.06390227377
-0.06386075169
-0.0636517033
-0.06312935799
-0.0629639402
-0.06292210519
-0.06273801625
-0.06160861626
-0.06152103841
-0.06150530651
-0.0611984022
-0.0608211495
-0.06081210449
-0.0604589209
-0.06031722575
-0.06012410298
-0.05996492505
-0.05995395407
-0.05977044255
-0.05959681049
-0.05905767903
-0.05884088203
-0.05857380852
-0.05850602314
-0.05831019953
-0.05830908939
-0.05787810683
-0.05785870925
-0.05743232369
-0.05705181137
-0.05653098971
-0.05636668578
-0.05625763908
-0.05623720586
-0.05618138611
-0.05585994571
-0.055847276
-0.05583428219
-0.05526705086
-0.05524525791
-0.05496589094
-0.05489157513
-0.05484022573
-0.05478778854
-0.05475423858
-0.05463188887
-0.05447479337
-0.05378030613
-0.05374579132
-0.05359503627
-0.05355231836
-0.05338032171
-0.05333547667
-0.05329149216
-0.05325167626
-0.05308192223
-0.05304130167
-0.05301080272
-0.05291987956
-0.05288059637
-0.05277460068
-0.05276706815
-0.05263840035
-0.05232978612
-0.05226079747
-0.05220893025
-0.05193552747
-0.05185395479
-0.05173893273
-0.05151657388
-0.05146814138
-0.05113476515
-0.05096425861
-0.05084460974
-0.05070209876
-0.04975567013
-0.04963103682
-0.04945587367
-0.04935377464
-0.04934019595
-0.04920069128
-0.04919235036
-0.04880493507
-0.04868710414
-0.04855120555
-0.04849124327
-0.04809587449
-0.04806628823
-0.04806035012
-0.04798524827
-0.04790895805
-0.04748883471
-0.04711161554
-0.04708361626
-0.04682717472
-0.04662060738
-0.0463757962
-0.04600562528
-0.04590728134
-0.04557143152
-0.04551358894
-0.04545367882
-0.04539612308
-0.04506709427
-0.0449815914
-0.04496396333
-0.04435851052
-0.04417144135
-0.04397105798
-0.04366118088
-0.04365944862
-0.04351019859
-0.04333396256
-0.04176075384
-0.04143400118
-0.04095387459
-0.04016656056
-0.0401218757
-0.04005754739
-0.03988206759
-0.03938908875
-0.03922826797
-0.0391568169
-0.03900074586
-0.03894758597
-0.03884469718
-0.03884466738
-0.03873570636
-0.03861841187
-0.038537357
-0.03835018352
-0.03825163841
-0.03807862103
-0.03796870634
-0.03796574473
-0.03782734275
-0.0378132835
-0.03772859648
-0.03745973483
-0.03695270047
-0.03683821484
-0.03669008985
-0.03648579866
-0.03634217009
-0.03601097316
-0.03579416871
-0.03577506915
-0.03576311842
-0.03549424559
-0.03536538407
-0.03510750085
-0.03508254513
-0.03504959494
-0.03487450257
-0.03475994244
-0.03475791961
-0.03464101255
-0.03433172032
-0.03422952071
-0.03422185779
-0.0341742225
-0.0340641737
-0.03385228664
-0.03373032808
-0.03364497051
-0.03356213868
-0.03353043273
-0.03318869695
-0.03293950483
-0.03284939006
-0.03267747536
-0.0325888209
-0.0325596258
-0.03232066706
-0.03210626915
-0.03202755004
-0.03195976466
-0.03192233294
-0.03184954822
-0.03174976259
-0.03157263622
-0.03135594726
-0.03101742268
-0.0307571087
-0.03075570241
-0.03069061972
-0.03059720434
-0.03040312603
-0.03021134064
-0.03014833108
-0.02994146943
-0.02966288105
-0.02915699594
-0.02909703366
-0.02875266597
-0.02862475626
-0.02835166454
-0.02833350934
-0.02815925889
-0.02813275345
-0.02791173011
-0.02791090868
-0.02774985321
-0.0277230721
-0.02768241242
-0.02761098742
-0.02740626037
-0.02721455321
-0.02713989839
-0.02704837732
-0.02682121843
-0.02673853561
-0.0263636671
-0.02633404732
-0.02619430423
-0.02610013634
-0.02607724629
-0.02597307786
-0.02589469403
-0.02566773631
-0.02560260333
-0.0253914576
-0.02535541169
-0.02485920489
-0.02445565537
-0.02398183756
-0.0239470955
-0.02388055623
-0.02386838943
-0.02383926138
-0.02331689
-0.02320421487
-0.02318553813
-0.02298296988
-0.02280907519
-0.02244221233
-0.02240695059
-0.02234892733
-0.02200583555
-0.02182789706
-0.02162322961
-0.02150059491
-0.02137351036
-0.02135400847
-0.02111868002
-0.0210469719
-0.02099035867
-0.02044014074
-0.02037385851
-0.02031514794
-0.0202755481
-0.0201857239
-0.02013894543
-0.01973136701
-0.0194056686
-0.01927994378
-0.01917164959
-0.01897744276
-0.01888101175
-0.01881035045
-0.01873125508
-0.01851390116
-0.01841869019
-0.0182475131
-0.01816351898
-0.01780840568
-0.01779177785
-0.01751958579
-0.01744539663
-0.01730697043
-0.01666792668
-0.016631715
-0.01640572399
-0.01636733301
-0.01634775102
-0.01631718129
-0.01629088074
-0.0161737781
-0.01596032083
-0.0158681199
-0.01585423015
-0.01578389294
-0.01573541202
-0.01560759358
-0.01553507335
-0.01536800154
-0.01533062011
-0.01504775696
-0.01460483484
-0.01455098949
-0.01448170748
-0.01443002
-0.01385278255
-0.01344965305
-0.01344097499
-0.01324554253
-0.01307021454
-0.01302364934
-0.01264721248
-0.01253390219
-0.01247458532
-0.01237233635
-0.01200359128
-0.01171305496
-0.01158208493
-0.01157866232
-0.01127823908
-0.01124686003
-0.0111211231
-0.01060349494
-0.00993070472
-0.009885941632
-0.00946190767
-0.009323811159
-0.00922906585
-0.00903391093
-0.009013043717
-0.008992498741
-0.008656201884
-0.008332986385
-0.008299597539
-0.008291423321
-0.007966227829
-0.007892248221
-0.007833368145
-0.007743235212
-0.007668476552
-0.007649526931
-0.007598821539
-0.007353683934
-0.007234645542
-0.006756489631
-0.005901528057
-0.005762115121
-0.005725367926
-0.005654470529
-0.00532751577
-0.00531637948
-0.005239607301
-0.005149559118
-0.005146243609
-0.005065878388
-0.005014453549
-0.004945534281
-0.004611579236
-0.004134901799
-0.004113750998
-0.004101701546
-0.003635537811
-0.003561918158
-0.003107312135
-0.002913551871
-0.002901807427
-0.002699913457
-0.002469458152
-0.002424905775
-0.00236422033
-0.002335550031
-0.001930906903
-0.001926086261
-0.001552505186
-0.001514288597
-0.001514287083
-0.001281694393
-0.001117128646
-0.0009853125084
-0.0009193941369
-0.0008558051777
-0.0008307870012
-0.0007040920318
-2.601597225e-05
-9.234212484e-06
0.0001520182705
0.0001713334059
0.0009572362178
0.001081670052
0.001265245606
0.001654750784
0.001707045594
0.001708942931
0.001838518539
0.001874732086
0.002204445656
0.002377964556
0.002541858936
0.002633202588
0.002701742342
0.00294988649
0.003040271113
0.00311951898
0.003132884391
0.003144570859
0.003828083863
0.003933893051
0.004009891301
0.00445814617
0.004482020158
0.004594376776
0.005044607446
0.005212094635
0.005262163468
0.005359949078
0.005363031756
0.005516055506
0.005567654967
0.005642960779
0.005826706998
0.00623977324
0.006315403618
0.006353534292
0.006987749599
0.007053222042
0.007091088686
0.00749857584
0.007519194391
0.007717279252
0.007755202707
0.007866276428
0.008064708672
0.00829908438
0.009175302461
0.009455070831
0.009732189588
0.009963415563
0.01000695676
0.01003655698
0.01006447989
0.01010279544
0.01017505769
0.0106992377
0.0107147852
0.0107488893
0.01075830683
0.01115034055
0.01165381633
0.01171139348
0.01191439293
0.01216342673
0.01217888668
0.01242775097
0.01256033313
0.01260278374
0.01266538072
0.0127659617
0.01282622479
0.01284785289
0.01289094705
0.01292241458
0.01292629447
0.01310785767
0.0131599633
0.01334755309
0.0135035878
0.01355398074
0.01362405624
0.01375372149
0.01380012929
0.0138412267
0.01423588395
0.01471303683
0.01476431172
0.01482343022
0.01503975876
0.0150406966
0.01548300218
0.01554115023
0.01598642953
0.01605506241
0.01608949155
0.016225731
0.01623647474
0.01634438336
0.01648722216
0.01657673158
0.01667154767
0.01677172258
0.01740895212
0.0178239271
0.0178576149
0.01799857058
0.01804134063
0.01811340824
0.01836533099
0.01845449768
0.01846481115
0.01852459088
0.01860941947
0.01894532517
0.01897393912
0.01901735738
0.01925692894
0.01928629354
0.01944532618
0.01986722462
0.01990983263
0.01991421357
0.0201465413
0.02032168955
0.02069376223
0.02083988301
0.0210298989
0.02119587921
0.02132524364
0.021372132
0.02170961536
0.02172541618
0.0219018627
0.02198087238
0.02215837128
0.0223644767
0.02250217833
0.02255191095
0.02296007052
0.02300835401
0.02317048609
0.02371040732
0.02416335791
0.02437819541
0.02446570806
0.02461916208
0.02464834042
0.02481022477
0.0248188898
0.02490401268
0.02496676892
0.02503210679
0.0251209829
0.02515826747
0.02659028769
0.02664836496
0.02680656686
0.02685714327
0.02726930007
0.02732845023
0.0273367893
0.02760980651
0.02773589641
0.02777510695
0.02813460864
0.02817459963
0.02824717201
0.02832645737
0.02843114547
0.02856828831
0.028758917
0.02903018333
0.02921422198
0.02946054004
0.02946296148
0.02970674634
0.02995484509
0.03000138514
0.03010845929
0.0301188007
0.03045562096
0.03065632656
0.03077819198
0.03078554198
0.03087960556
0.03091093153
0.03098151833
0.03109561093
0.03121803701
0.03154591098
0.03167121857
0.03171148896
0.03176168352
0.03177698329
0.03196984902
0.03207748383
0.03221858293
0.03243214637
0.03247690946
0.03270919621
0.03278696164
0.03284071013
0.03309977427
0.03311540186
0.03314400092
0.03323751315
0.03335667774
0.033385057
0.03340741247
0.03341725096
0.03347749263
0.03355688229
0.03369115293
0.03386275098
0.0340266414
0.03405512497
0.03417382017
0.03434123099
0.03435171023
0.03459226713
0.03462909535
0.0347244218
0.03484987095
0.03515145555
0.0351918675
0.03527713567
0.03528068587
0.03548954055
0.03549034521
0.03557273373
0.03559370339
0.03566903621
0.03601745889
0.03617547452
0.03636774048
0.03665244207
0.03682684898
0.0368457213
0.03704683483
0.03719799221
0.03720564395
0.03776930645
0.03779413179
0.03812909126
0.0381574668
0.0385826081
0.03867170587
0.0388013348
0.03902154043
0.03933249786
0.03939923644
0.03940976039
0.03942576423
0.03987591341
0.03991392255
0.04002181068
0.04012144357
0.04018783569
0.04020595923
0.04038623348
0.04059773684
0.04061355069
0.04077523574
0.040783979
0.04085611925
0.04111372307
0.04125355929
0.04152378812
0.0416395627
0.04181218892
0.04188169912
0.04192816094
0.04212949052
0.04244014248
0.04244312271
0.04277481139
0.04279026017
0.04302801564
0.04303159192
0.04307145253
0.04310616851
0.04314584285
0.04365707934
0.04367638752
0.04368226975
0.04377432168
0.043827191
0.04394288734
0.04411231354
0.04418513179
0.04419019073
0.04432890192
0.04461606964
0.04498748109
0.04513586685
0.04522549361
0.0453841947
0.0456093289
0.04580671713
0.04584857449
0.04613526538
0.04636686668
0.04690287262
0.04692896456
0.04706924781
0.04767014086
0.04768805206
0.04775774479
0.04777278379
0.04802391306
0.04804784805
0.04815580323
0.04829999804
0.04835544154
0.04847546294
0.04850207642
0.04857905209
0.04859850928
0.04876902327
0.04878126457
0.04896109179
0.04897244275
0.04983521625
0.0500546582
0.05020508915
0.05022295937
0.05026143417
0.05027554929
0.05045088008
0.05069537088
0.05077464879
0.05081541464
0.05084426701
0.05099462345
0.05103602633
0.05147973076
0.05187742785
0.05193183944
0.05213382095
0.05235623196
0.05243554339
0.05256053805
0.05269589275
0.05292119458
0.05319564417
0.05378414318
0.05417815223
0.05467673019
0.05481150746
0.05484947562
0.05513843149
0.05531306937
0.05531521887
0.05566153675
0.05609460548
0.05621263757
0.05630783737
0.05639884621
0.05640760809
0.05648805201
0.05658081174
0.05707786232
0.05724480376
0.05725651234
0.05772250891
0.05775025487
0.05777794495
0.05803719163
0.05812029913
0.05818456784
0.05849560723
0.05860015005
0.05861862004
0.05868745968
0.05870645493
0.05882983282
0.05890604481
0.05891604722
0.05917583779
0.05921090767
0.05931752175
0.05932836607
0.05990520865
0.05994682759
0.06003797054
0.06018891186
0.06033427641
0.06033568457
0.06046835706
0.06052769721
0.06069145724
0.06089169905
0.06101498753
0.06104077399
0.06141842902
0.06168320775
0.06188094616
0.06216806918
0.06222609803
0.06229102612
0.06258313358
0.06260234118
0.06271155924
0.06278380007
0.0630999878
0.06313049793
0.0633938089
0.06342880428
0.06367940456
0.06368751079
0.06384794414
0.06415139884
0.06455030292
0.06596266478
0.06612659246
0.0661496371
0.06651253253
0.06673774123
0.0669567138
0.06699398905
0.06704615057
0.06722826511
0.06748664379
0.06773662567
0.06777085364
0.0677780062
0.06790258735
0.06792927533
0.06793069094
0.06802289188
0.06813114882
0.06934431195
0.06934441626
0.06941616535
0.06943247467
0.06955172867
0.06963853538
0.0696452409
0.06972356886
0.07003442943
0.07013798505
0.07022950053
0.07040768117
0.07055024803
0.07067207992
0.07084073871
0.07094837725
0.07111109793
0.07125034183
0.07143870741
0.07152096182
0.07168775052
0.07169093192
0.07185383886
0.07187138498
0.071987845
0.07199031115
0.07204814255
0.07223321497
0.0728848204
0.07294823229
0.07313261926
0.073337771
0.07391829044
0.07423684746
0.07426463068
0.0745530501
0.07485112548
0.07518349588
0.07543992251
0.07562528551
0.07582177967
0.07589840889
0.07602117211
0.07626632601
0.07631237805
0.07667127997
0.0768269375
0.07689257711
0.07692930847
0.07695578039
0.07697223127
0.07706754655
0.07747593522
0.07793784142
0.07819876075
0.07824715972
0.07826076448
0.07844641805
0.07875573635
0.07889059931
0.07914704829
0.07955852151
0.07957044989
0.07970356196
0.07976093888
0.07985346019
0.07986198366
0.08007251471
0.08022034913
0.08088243753
0.08092287183
0.08141734451
0.08142602444
0.08145330846
0.08148082346
0.08156328648
0.0817097649
0.08222337812
0.08252256364
0.08271151036
0.08273833245
0.08299443871
0.08310674131
0.08321291953
0.08334010839
0.08341350406
0.08347869664
0.08353637904
0.08361903578
0.08396496624
0.0848871246
0.08492136002
0.08506854624
0.08521696925
0.085494183
0.08560869843
0.08610961586
0.08611087501
0.08632487804
0.08633545041
0.08633797616
0.08648569882
0.08672323823
0.08700181544
0.08702920377
0.08704618365
0.08727510273
0.08742493391
0.08761519939
0.0878213048
0.08784285933
0.08788170666
0.08794799447
0.08847316355
0.08913815767
0.08937329799
0.08974312246
0.08996170759
0.0900298506
0.09005179256
0.09025472403
0.09049768746
0.09051638842
0.09085905552
0.09162112325
0.09176024795
0.09241777658
0.09266293049
0.09284614772
0.09286335856
0.09290760756
0.09306210279
0.09323176742
0.09335320443
0.09344866127
0.0935247466
0.09360352159
0.09367153049
0.0940400362
0.09408194572
0.09416323155
0.09420303255
0.09426303953
0.09454293549
0.09473493695
0.09473580122
0.09478071332
0.09504141659
0.09528838098
0.09563402832
0.09569980949
0.095983468
0.09609148651
0.09633153677
0.09638164192
0.09660051763
0.09683699906
0.09728680551
0.09755305946
0.09826397151
0.09905379266
0.09911379218
0.09929160029
0.09946773201
0.09964685887
0.09988674521
0.09991054237
0.09991244227
0.100271605
0.1003057882
0.100380905
0.1004319489
0.1010440737
0.1013741568
0.1016904935
0.1018156186
0.1019598991
0.1024492085
0.1028501913
0.1032933891
0.1034371778
0.1038979888
0.1040086374
0.1041977182
0.104681626
0.1047225967
0.1047955528
0.1048423573
0.1048733592
0.104896225
0.1049432978
0.1050775498
0.1052534953
0.1056720391
0.105677858
0.10600885
0.1064509973
0.1066248417
0.1073131114
0.1075572297
0.1075794175
0.1076064184
0.1080091968
0.1080963165
0.1081377491
0.1091032326
0.1091200709
0.1092423871
0.1098162159
0.1098798364
0.1100040674
0.1102058068
0.1102749184
0.1103107855
0.1103371829
0.1103894711
0.110707283
0.1107554063
0.1109844223
0.1111382917
0.1112873107
0.111930266
0.1122913733
0.112352185
0.1126165017
0.1126708686
0.1127832979
0.1128029302
0.1135255694
0.114073813
0.1142170653
0.1142393425
0.1142830625
0.1149557978
0.1149558276
0.1150125861
0.1150604337
0.1153393611
0.1153679043
0.1154341549
0.1155207083
0.1156102195
0.1157033294
0.1157171652
0.116016753
0.1160562709
0.1160762906
0.1161311865
0.1161812618
0.1162046269
0.1162187159
0.1163280681
0.1169298589
0.117684789
0.1177394688
0.1177400127
0.1183335483
0.1185047925
0.1185905263
0.1199846864
0.1200531423
0.1201362535
0.1202504039
0.1205445528
0.1206250116
0.1207071245
0.1208245531
0.1211818382
0.1212639138
0.1213699281
0.1220385656
0.1226020828
0.1227130517
0.1227355301
0.1232530475
0.1232624799
0.1234624833
0.123472102
0.1235334426
0.1236231402
0.12364427
0.1240955889
0.1241857037
0.1247080192
0.124721311
0.1248283833
0.1249498129
0.1251680255
0.1253643632
0.125538975
0.1255684048
0.1255757362
0.1258127093
0.1258211881
0.1259060949
0.1259954572
0.1262084544
0.1262497604
0.1265489608
0.1267021745
0.1271284819
0.1273499876
0.1278204173
0.1282416135
0.1285941899
0.1287501901
0.1291823089
0.1301029623
0.1302932352
0.1309002042
0.131326884
0.1313799024
0.1313837767
0.1317310929
0.1319273412
0.1319914162
0.1320828646
0.1322419494
0.1322939992
0.1324036419
0.1325585991
0.132622242
0.132696569
0.132780388
0.132901758
0.1331949979
0.1333751529
0.1336106658
0.1339726448
0.1340036839
0.1340221912
0.1340949237
0.1343049556
0.1343230456
0.1344919205
0.1347748786
0.1348774582
0.135385707
0.1354649365
0.1355390847
0.1356648505
0.1359125376
0.1363211423
0.1363985389
0.1364210546
0.1369368136
0.137093693
0.1371491849
0.1372924298
0.1374737918
0.137733683
0.1379540563
0.1379948109
0.1380957961
0.1386373192
0.1389877647
0.1390088052
0.1390437931
0.1394914538
0.1395894736
0.1397770941
0.1397902071
0.1398167908
0.1398237199
0.1399330199
0.1406453699
0.1406585425
0.140732497
0.1414728314
0.1418190598
0.1419242322
0.1419774592
0.1420428157
0.1420890987
0.1424772292
0.1426165104
0.1426405162
0.1429255158
0.1435881555
0.1437052488
0.1448344886
0.1453594565
0.1457087696
0.1458084732
0.1460402161
0.1462758034
0.1464231163
0.1468192786
0.1469785273
0.1469992697
0.1472592801
0.1478499025
0.1480578482
0.148247391
0.1483783573
0.1486489922
0.1487352997
0.1494475007
0.1498218328
0.1501254439
0.1507723182
0.150884524
0.1509733796
0.1512825936
0.151865989
0.1520979404
0.1526792347
0.1534903646
0.1536143124
0.1541737616
0.1542010158
0.1543489248
0.1551202238
0.1551439464
0.1558084637
0.1559367329
0.1567572951
0.1567829847
0.1568684578
0.1578094363
0.1578154117
0.1578954011
0.1580553502
0.1581827998
0.1589267552
0.1592356712
0.1593354344
0.1601770222
0.1605448276
0.1608696878
0.1610866189
0.1617655158
0.162026763
0.162599057
0.1645718813
0.1645950377
0.1646221727
0.1647077948
0.1648163944
0.165290758
0.1654354185
0.1655366868
0.1655641645
0.1656044871
0.1657917798
0.1659832746
0.1660491526
0.1661256552
0.1666908562
0.1667913049
0.1670014709
0.1672071964
0.1678773016
0.1681706756
0.1683347523
0.1683695316
0.1695164591
0.1697140634
0.1700279564
0.171041429
0.1711028665
0.1713202447
0.1714873612
0.1715376377
0.1716957092
0.1728007048
0.1728137285
0.1730061173
0.1739171147
0.1747235805
0.1750097573
0.1752064526
0.1753423214
0.175738126
0.1759780049
0.1760911047
0.1761519164
0.1762787551
0.1766253859
0.1776486486
0.177698195
0.1780500263
0.1782573313
0.1784975976
0.1787815392
0.1792709678
0.1796076298
0.1796824932
0.1797358394
0.179894343
0.1804078966
0.1806392521
0.180859372
0.1812982112
0.1820152551
0.1821034402
0.1821293831
0.1827869713
0.183159098
0.1835803539
0.1835810095
0.1845737547
0.1847515255
0.1852725446
0.1855783463
0.1859431416
0.1864331365
0.186488539
0.1865941584
0.1866037995
0.1867957562
0.1868238896
0.1872294396
0.187239185
0.1874681413
0.1875143945
0.1876210123
0.187691018
0.1883498281
0.1884317547
0.1886867434
0.1887815297
0.1890512258
0.1896731406
0.1903140098
0.1904089153
0.1907102168
0.1908903122
0.1912874579
0.1918378472
0.1919499636
0.1920983195
0.1936300397
0.1936534792
0.1937397122
0.1938415021
0.1938632131
0.1940747797
0.1940871179
0.1942114234
0.1946563423
0.1947429627
0.1950938106
0.1954104751
0.1956397891
0.1964440793
0.1966268271
0.1966339648
0.1969615221
0.1974159181
0.1974195242
0.1980708688
0.1982989609
0.1983943284
0.1988112032
0.1990207732
0.1990731806
0.1993009448
0.1997761279
0.2028755695
0.2029386759
0.2033671886
0.2038191408
0.2042638808
0.2043137252
0.2057871372
0.2058039159
0.2064066827
0.2068722248
0.2069594562
0.207535103
0.207686007
0.2080313116
0.2082728893
0.2083041519
0.2087889463
0.2090373337
0.2097191364
0.2100914121
0.2102230638
0.2111633867
0.2114974111
0.2121762335
0.2125645727
0.2129540741
0.2129692882
0.2144610435
0.2155646086
0.2157574296
0.2162977457
0.2166026831
0.2172771692
0.2173937708
0.2175726146
0.2194537818
0.2196071744
0.2198996246
0.2205022573
0.2205075622
0.2208412737
0.2209442258
0.220982641
0.2214401513
0.2229394466
0.2229896784
0.2240067571
0.2240654379
0.2241576314
0.2247709781
0.2250821292
0.2253266275
0.2256056964
0.2257055342
0.2273031324
0.2276380658
0.2284716368
0.229534328
0.2301623374
0.2307565808
0.2308016717
0.2308472395
0.2317120284
0.2335202992
0.2342583984
0.2343915701
0.2356490344
0.235725373
0.2359719872
0.2359932959
0.2370887846
0.2384020537
0.2391467392
0.2394726425
0.2397752851
0.2399991453
0.2401690036
0.2403398454
0.2405454963
0.2416538447
0.2418422401
0.242359072
0.24292171
0.2435487211
0.243645072
0.243926838
0.2439866215
0.2441339493
0.2442663759
0.2446195334
0.2457178384
0.2467534989
0.247158438
0.2476376146
0.2487407476
0.2495341152
0.250112772
0.250993073
0.2528807223
0.2534092665
0.2543762624
0.2545251548
0.2551673353
0.2554023564
0.2557609081
0.2565517724
0.2567551434
0.2570515871
0.2572402954
0.2577425539
0.2580492496
0.2583819628
0.2585541904
0.2619627714
0.2622562647
0.2628040612
0.2660813332
0.2663778067
0.2677923441
0.2679778636
0.2701081932
0.2707228959
0.2725442946
0.2727093101
0.2728533149
0.2740274072
0.2740713358
0.2755969763
0.2764525712
0.2766053975
0.2767706513
0.2773146331
0.2778509557
0.2789318562
0.2791128755
0.2802071571
0.2811075747
0.2819227874
0.2829011679
0.2829836011
0.2834655941
0.2850964367
0.2873489559
0.287756592
0.2891528904
0.2892211974
0.2896854579
0.292301923
0.2926617265
0.2936714888
0.2944726646
0.2947150469
0.296353966
0.2974800467
0.2989456952
0.2995503545
0.3019227386
0.3040600717
0.3043881059
0.3062130511
0.3064298332
0.307059437
0.3076997697
0.3077227473
0.3081065118
0.3083853722
0.3084858954
0.3085308671
0.3085322678
0.3088393807
0.3089179099
0.3096013963
0.3110901117
0.3129073083
0.3149091601
0.316191107
0.3178488612
0.3183009624
0.3210531771
0.3238084614
0.3238807619
0.3239627182
0.3249311745
0.3314063549
0.3344337344
0.3383788764
0.3384049833
0.3403655887
0.342820555
0.3434594572
0.3454492092
0.3454990983
0.345744133
0.3478755951
0.3484196961
0.350802809
0.3514538705
0.3516371548
0.3521435857
0.3569687307
0.3569737971
0.3581665456
0.3600994945
0.3614196777
0.3685506582
0.3696598411
0.369776696
0.3730808794
0.3738436699
0.3763819933
0.3776269257
0.3795796335
0.3829680383
0.3833541572
0.3990196586
0.4023962319
0.4067544043
0.4118219912
0.4118988812
0.4130595028
0.4143418968
0.4169353843
0.4211090207
0.4248375595
0.426319778
0.4282142818
0.4308286905
0.4309462011
0.4330000579
0.4337402582
0.4350240529
0.4359259307
0.4373891652
0.4383898377
0.4388904274
0.4410395026
0.4581925273
0.4618040323
0.4662230909
0.5228688717
