-0.5876264572
-0.5264220238
-0.4592065811
-0.4255963266
-0.4242045879
-0.4022207558
-0.3931088448
-0.3639735579
-0.3570913672
-0.3353969157
-0.3302157521
-0.3231946528
-0.3141366243
-0.3087654114
-0.3080370128
-0.2989233732
-0.2949715853
-0.2716686428
-0.2676079869
-0.2641787231
-0.2598172426
-0.2500873804
-0.2466588318
-0.2457774282
-0.2334087491
-0.22937195
-0.2178212255
-0.2129275501
-0.2126729637
-0.2101655453
-0.2093524039
-0.2072153986
-0.2057613879
-0.1961839646
-0.1880276203
-0.184373185
-0.1835279763
-0.1804406494
-0.1759572029
-0.1754532903
-0.1675485671
-0.1645380557
-0.1635064036
-0.1618511826
-0.1583651304
-0.1533707082
-0.1409108192
-0.138610974
-0.1344669908
-0.1321339309
-0.1271582842
-0.1184398085
-0.1161630824
-0.1107717827
-0.1094745919
-0.1087966859
-0.1080007106
-0.1000123397
-0.09955233335
-0.09210464358
-0.09168694168
-0.08476769924
-0.07813724875
-0.07501023263
-0.07110573351
-0.06923494488
-0.06513953954
-0.06223679334
-0.05031590536
-0.045569323
-0.04529292136
-0.04149659351
-0.0413749069
-0.03984902799
-0.03978823498
-0.03555133939
-0.03513091058
-0.03506041691
-0.03113726899
-0.02329625748
-0.009395147674
-0.009237048216
-0.008795235306
-0.008391418494
-0.006930103526
-0.006569409277
-0.006367681082
-0.006166970823
-0.005430785473
-0.002009087475
-0.001180126565
0.02355192602
0.02555605769
0.0308843758
0.03167214617
0.04548214376
0.04623488337
0.04935864732
0.05497850478
0.06890285015
0.07656495273
0.08198688924
0.08450911939
0.0868563056
0.09022590518
0.09044452757
0.09134729207
0.09135038406
0.09320480376
0.1006377712
0.1071588248
0.1088425443
0.1113795787
0.1146008819
0.1198769361
0.1273379028
0.1312677562
0.1356070787
0.1457726955
0.1515460908
0.1564070731
0.1653993428
0.1665193439
0.1770530492
0.1784818172
0.187030673
0.1878472716
0.1997432411
0.2134902626
0.2404282838
0.2446537316
0.2477578223
0.2520578206
0.2750200331
0.2793052793
0.2857117951
0.2992821932
0.2998886406
0.3038354218
0.3059614599
0.3118064106
0.330884099
0.3369318545
0.342862606
0.3620163798
0.3668424189
0.3831135929
0.4208574593
0.4756467938
0.4885135591
