-0.3544340134
-0.3244279921
-0.316801995
-0.3114190102
-0.2994990051
-0.2853479981
-0.2820949852
-0.2784099877
-0.2775369883
-0.2698990107
-0.2582589984
-0.2580940127
-0.252169013
-0.2516489923
-0.246190995
-0.2442629933
-0.2441550046
-0.2421019971
-0.2358770072
-0.2337210029
-0.2323690057
-0.2275619954
-0.2249680012
-0.2237309963
-0.2216130048
-0.2213159949
-0.2126480043
-0.2125360072
-0.2105839998
-0.2078099996
-0.2001640052
-0.199000001
-0.1956519932
-0.1935739964
-0.1935649961
-0.192185998
-0.1881009936
-0.1862320006
-0.184314996
-0.1823170036
-0.1754830033
-0.1741809994
-0.1722739935
-0.1689559966
-0.1688169986
-0.1664270014
-0.1641370058
-0.1591019928
-0.1588499993
-0.1566759944
-0.1561100036
-0.1558980048
-0.154598996
-0.1533419937
-0.1527439952
-0.1524150074
-0.1516119987
-0.1485610008
-0.148307994
-0.147416994
-0.1447760016
-0.1437789947
-0.1376699954
-0.1346729994
-0.1328680068
-0.1317770034
-0.1300230026
-0.1290879995
-0.1284630001
-0.1261530071
-0.1255279928
-0.1252460033
-0.1234939992
-0.1221679971
-0.1197889969
-0.1177550033
-0.1159019992
-0.1154889986
-0.1154659986
-0.1145720035
-0.1145209968
-0.1126530021
-0.1124209985
-0.1115769967
-0.111074999
-0.1106709987
-0.1098769978
-0.1089999974
-0.1086760014
-0.1086009964
-0.1085010022
-0.1083529964
-0.1050039977
-0.1044199988
-0.1012250036
-0.101102002
-0.09876850247
-0.09839239717
-0.09695740044
-0.0951398015
-0.09333880246
-0.09125210345
-0.08897870034
-0.08869270235
-0.08694410324
-0.08041729778
-0.08032529801
-0.07914590091
-0.07768200338
-0.07729960233
-0.07620850205
-0.07565879822
-0.07522869855
-0.0737869963
-0.07170540094
-0.06858500093
-0.0662285015
-0.06611750275
-0.06451500207
-0.06401920319
-0.06251569837
-0.0613549985
-0.05949480087
-0.05947409943
-0.05886730179
-0.0580140017
-0.05196230114
-0.05186549947
-0.04752790183
-0.04734630138
-0.04543710127
-0.04534260184
-0.04274019971
-0.04155170172
-0.04082280025
-0.04049380124
-0.03841949999
-0.03776099905
-0.03759299964
-0.0369595997
-0.0315903984
-0.0299475994
-0.02901050076
-0.02808210067
-0.02807199955
-0.02504049987
-0.02252490073
-0.01841099933
-0.01829569973
-0.01624559984
-0.0150523996
-0.01468080003
-0.01425930019
-0.01350060012
-0.01328060031
-0.01169839967
-0.01156750042
-0.01057569962
-0.00946309045
-0.008518859744
-0.007714579813
-0.002004690003
-0.001263689948
-0.001252310001
0.001017270028
0.007107879966
0.007531960029
0.00821897015
0.009594740346
0.01020629983
0.01120520011
0.01304330025
0.01443979982
0.0144411996
0.01735820062
0.01935119927
0.01976970024
0.02058500051
0.02155660093
0.02375230007
0.02591370046
0.03042289987
0.03095320053
0.03245190158
0.03338269889
0.03532769904
0.03665500134
0.03760720044
0.03994740173
0.04006509855
0.04109439999
0.04303250089
0.0435879007
0.04386299849
0.0500138998
0.05079900101
0.05303129926
0.05338200182
0.05355710164
0.05520290136
0.05600000173
0.05632890016
0.05643450096
0.05754480138
0.05787279829
0.05859090015
0.06030270085
0.06219160184
0.06569419801
0.06803269684
0.07305250317
0.07475090027
0.07725480199
0.07834450155
0.07879669964
0.08013240248
0.08037920296
0.08424349874
0.0843359977
0.09182929993
0.09318929911
0.09493120015
0.09533400089
0.09863200039
0.1042750031
0.104584001
0.1055559963
0.1061989963
0.1067570001
0.1083550006
0.1087369993
0.1090449989
0.1093719974
0.1135310009
0.1136009991
0.115437001
0.1199790016
0.1228950024
0.1249589995
0.1254599988
0.1279550046
0.1299680024
0.1311990023
0.1323409975
0.1347219944
0.1361619979
0.137887001
0.1386190057
0.1405770034
0.1407269984
0.1427139938
0.1436589956
0.1517699957
0.1548220068
0.1636629999
0.1642140001
0.1657129973
0.1719260067
0.172675997
0.1750620008
0.1762080044
0.1841550022
0.1842540056
0.1887129992
0.2006040066
0.2101770043
0.2164350003
0.2186859995
0.2195499986
0.2256820053
0.2276459932
0.2300920039
0.2305019945
0.2344519943
0.2459959984
0.2462860048
0.2578960061
0.2640349865
0.2653050125
0.2726089954
0.2782489955
0.2885240018
0.2913999856
0.2915639877
0.2919670045
0.2977389991
0.3010680079
0.3021210134
0.3025520146
0.31467399
0.3177480102
0.3185440004
0.3207829893
0.3307690024
0.3420580029
0.343355
0.3662469983
0.3705199957
0.4235300124
0.4260089993
