-0.7479979992
-0.7132359743
-0.7080450058
-0.6567869782
-0.640354991
-0.6193240285
-0.5832920074
-0.5811470151
-0.5372080207
-0.5368599892
-0.5308300257
-0.522349
-0.5207589865
-0.5103009939
-0.509370029
-0.5026090145
-0.4874129891
-0.484555006
-0.4760429859
-0.4714269936
-0.4712519944
-0.4709360003
-0.4666459858
-0.4599139988
-0.4596459866
-0.4588229954
-0.4533649981
-0.4480440021
-0.4443779886
-0.4389539957
-0.43750301
-0.4370979965
-0.435108006
-0.4303910136
-0.4286940098
-0.4257889986
-0.420314014
-0.4168379903
-0.4163419902
-0.4084559977
-0.4041000009
-0.4039869905
-0.4026809931
-0.4016630054
-0.3955250084
-0.3952530026
-0.3916960061
-0.390576005
-0.390042007
-0.3886960149
-0.3874639869
-0.3760789931
-0.376056999
-0.3703970015
-0.3681870103
-0.3674460053
-0.3638789952
-0.3618400097
-0.3605349958
-0.3604130149
-0.3602080047
-0.3595449924
-0.3586890101
-0.3559289873
-0.3555029929
-0.3544960022
-0.3505170047
-0.3460269868
-0.3448739946
-0.3426829875
-0.3420780003
-0.3365829885
-0.336492002
-0.3331159949
-0.3297420144
-0.3240770102
-0.3218519986
-0.3200989962
-0.3189780116
-0.3188019991
-0.3183749914
-0.317068994
-0.315914005
-0.3146289885
-0.3134180009
-0.3133530021
-0.3089030087
-0.3066059947
-0.3047409952
-0.3044329882
-0.2970570028
-0.2965799868
-0.295807004
-0.2953970134
-0.2917230129
-0.2911199927
-0.2908569872
-0.2907480001
-0.2892409861
-0.2836489975
-0.2810829878
-0.2808510065
-0.2800759971
-0.2778050005
-0.2758890092
-0.275752008
-0.2747260034
-0.2741819918
-0.2737810016
-0.273021996
-0.2719190121
-0.2718139887
-0.2713029981
-0.2699950039
-0.2657620013
-0.2653790116
-0.2640480101
-0.2628450096
-0.2624869943
-0.2538309991
-0.2493519932
-0.2485540062
-0.2474330068
-0.2464170009
-0.2460419983
-0.2432830036
-0.242170006
-0.2407680005
-0.2407539934
-0.2380069941
-0.2369209975
-0.2350569963
-0.2316990048
-0.2315810025
-0.2296389937
-0.2262399942
-0.2236260027
-0.2213229984
-0.219968006
-0.2190809995
-0.2189140022
-0.2176979929
-0.2167049944
-0.2115380019
-0.2080470026
-0.2075659931
-0.2070360035
-0.2065079957
-0.2023119926
-0.2022610009
-0.2019889951
-0.2009270042
-0.2000810057
-0.1967040002
-0.1954039931
-0.1937070042
-0.191534996
-0.1914940029
-0.1865819991
-0.1807020009
-0.1800249964
-0.1785559952
-0.1784600019
-0.1776109934
-0.1755619943
-0.1754070073
-0.1752540022
-0.1728059947
-0.1706970036
-0.1688199937
-0.1661790013
-0.1640859991
-0.1640779972
-0.162022993
-0.1618330032
-0.1617649943
-0.1614740044
-0.1610890031
-0.1590519994
-0.1590359956
-0.1577560008
-0.1570190042
-0.1563439965
-0.1536619961
-0.1529870033
-0.1523029953
-0.1516869962
-0.150721997
-0.1501789987
-0.1489409953
-0.1486890018
-0.1475770026
-0.1466519982
-0.1459510028
-0.1457110047
-0.1447149962
-0.1431789994
-0.1410119981
-0.1406829953
-0.1399250031
-0.139278993
-0.1390130073
-0.1366779953
-0.1349849999
-0.1346610039
-0.1338829994
-0.1306200027
-0.1304769963
-0.1290979981
-0.1289020032
-0.1286070049
-0.1249969974
-0.1240909994
-0.1239420027
-0.1236770004
-0.122676
-0.1220320016
-0.1217940003
-0.1213880032
-0.1200900003
-0.1196840033
-0.1188910007
-0.1182620004
-0.1169850007
-0.1167289987
-0.1160570011
-0.115071997
-0.113880001
-0.1131310016
-0.1109080017
-0.1099499986
-0.1098299995
-0.1092950031
-0.1091089994
-0.1090869978
-0.1082879975
-0.1072779968
-0.106637001
-0.1062339991
-0.1061569974
-0.1050160006
-0.1029250026
-0.1015769988
-0.1012109965
-0.1011739969
-0.09948050231
-0.09945619851
-0.09840539843
-0.09740020335
-0.0973464027
-0.09727659822
-0.09713540226
-0.09707289934
-0.09700410068
-0.09672340006
-0.09658490121
-0.0965820998
-0.0953875035
-0.09480670094
-0.09348879755
-0.09140960127
-0.091238603
-0.09113360196
-0.09076680243
-0.09021560103
-0.08988030255
-0.08977589756
-0.0897725001
-0.08886949718
-0.08754450083
-0.08588969707
-0.08568889648
-0.08377390355
-0.08306050301
-0.08210519701
-0.08121810108
-0.07999979705
-0.07950820029
-0.07941219956
-0.07863090187
-0.07839299738
-0.07838589698
-0.07826770097
-0.07804299891
-0.0772306025
-0.07515300065
-0.07418899983
-0.07416839898
-0.07386430353
-0.07346890122
-0.07314620167
-0.07164409757
-0.07156670094
-0.07120619714
-0.0705332011
-0.06949560344
-0.06899829954
-0.06887710094
-0.06810750067
-0.06730079651
-0.06631170213
-0.06626229733
-0.06604599953
-0.06588049978
-0.06580819935
-0.06387329847
-0.06329599768
-0.06286720186
-0.0627458021
-0.06238650158
-0.06179310009
-0.06171049923
-0.06161009893
-0.06135199964
-0.06036150083
-0.06012770161
-0.05978919938
-0.05874010175
-0.05838960037
-0.05834380165
-0.05832099915
-0.05794849992
-0.05769250169
-0.05747099966
-0.0573627986
-0.057310801
-0.05721670017
-0.05658129975
-0.05610509962
-0.05554369837
-0.05476209894
-0.05365220085
-0.05360480025
-0.05306079984
-0.05282849818
-0.05270880088
-0.05225779861
-0.05214869976
-0.05074900016
-0.05019329861
-0.04979670048
-0.04948810115
-0.04929890111
-0.04886740074
-0.04769060016
-0.04715690017
-0.04475279897
-0.04450729862
-0.04388359934
-0.04319329932
-0.04314849898
-0.04215399921
-0.04179690033
-0.0415568985
-0.04136120155
-0.04114830121
-0.04077190161
-0.04003470019
-0.0399232991
-0.03934679925
-0.03844889998
-0.03839839995
-0.03829360008
-0.03761750087
-0.0375880003
-0.03697729856
-0.03691469878
-0.03685709834
-0.03641379997
-0.03565429896
-0.03559429944
-0.0352749005
-0.03477929905
-0.03477510065
-0.03454370052
-0.03454139829
-0.03431240097
-0.03399920091
-0.03392950073
-0.03315839916
-0.03307430074
-0.03283660114
-0.03250370175
-0.03242700174
-0.03229770064
-0.03211019933
-0.03120500036
-0.03053789958
-0.03041229956
-0.02996649966
-0.02841500007
-0.02834860049
-0.02822650038
-0.02742090076
-0.02709100023
-0.02697259933
-0.02658260055
-0.02613659948
-0.02593700029
-0.02564509958
-0.02442679927
-0.0242759008
-0.02421309985
-0.02408060059
-0.02341010049
-0.02309449948
-0.02285229973
-0.02261229977
-0.02157489955
-0.02150209993
-0.01994490065
-0.01992000081
-0.0197796002
-0.01948489994
-0.01918219961
-0.01864619926
-0.01742720045
-0.01716650091
-0.01556930039
-0.01417130046
-0.01416479982
-0.01370809972
-0.01304319967
-0.01277809963
-0.01276359987
-0.01242830046
-0.01232459955
-0.01220970042
-0.01162480004
-0.01099279989
-0.01093360037
-0.01077110041
-0.01070739981
-0.009645029902
-0.008872220293
-0.008854829706
-0.00880366005
-0.008618529886
-0.007803029846
-0.007414690219
-0.007363759913
-0.006949699949
-0.006485910155
-0.006411669776
-0.00633163983
-0.006134550087
-0.005986370146
-0.005948840175
-0.004622740205
-0.004526140168
-0.004389979877
-0.004026670009
-0.003943549935
-0.003712010104
-0.003497659927
-0.003468600102
-0.003013029927
-0.001817120006
-0.001280950033
-0.00127375999
-0.000811128004
-0.0007142330287
-0.0007114909822
0.001172789955
0.001236060052
0.001623039949
0.00406832993
0.004320810083
0.004405700136
0.004731109831
0.005089099985
0.005160269793
0.005552900024
0.005730359815
0.005845920183
0.006129010115
0.006283539813
0.006307759788
0.006479079835
0.007241229992
0.007542829961
0.007592409849
0.007996450178
0.008141740225
0.008401080035
0.009346449748
0.01015170012
0.01045310032
0.0104900999
0.01068659965
0.01129150018
0.01168300025
0.01179959998
0.01232680026
0.01315909997
0.01421659999
0.01507390011
0.01562719978
0.01752300002
0.01887499914
0.01890650019
0.01896449924
0.01904309914
0.01911740005
0.01948679984
0.01956919953
0.0208010003
0.02140999958
0.02214360051
0.02302430011
0.02330750041
0.02348249964
0.02369059995
0.02422380075
0.0247456003
0.02484459989
0.02513049915
0.0257743001
0.02579540014
0.02579589933
0.02607290074
0.02657929994
0.02664179914
0.02756460011
0.02780110016
0.02818249911
0.02854030021
0.02857819945
0.02862120047
0.02888469957
0.02892070077
0.02981629968
0.03078299947
0.03081329912
0.03114400059
0.03181359917
0.03211219981
0.03319049999
0.03327719867
0.03346860036
0.03375580162
0.03419779986
0.03455819935
0.03606199846
0.03683299944
0.03690610081
0.03716760129
0.03774600103
0.03780670092
0.03906090185
0.03946420178
0.04020009935
0.04043170065
0.04088610038
0.04117919877
0.0415982008
0.04184539989
0.0418968983
0.04224940017
0.04245850071
0.04314139858
0.04427139834
0.04483060166
0.0472679995
0.04926760122
0.04953530058
0.0498334989
0.0500583984
0.05021300167
0.05024649948
0.05054889992
0.0507829003
0.05140030012
0.05140779912
0.05184619874
0.05228609964
0.0525845997
0.05270050094
0.05311699957
0.05330500007
0.05343899876
0.05353770033
0.05380810052
0.05462390184
0.0548138991
0.05513650179
0.0562184006
0.05702339858
0.05741529912
0.05806820095
0.05820599943
0.05900549889
0.06001599878
0.06003350019
0.06018070132
0.06130269915
0.06172800064
0.06208449975
0.06374929845
0.06386719644
0.06409549713
0.06498879939
0.06533999741
0.06534320116
0.06817439944
0.06906449795
0.06937470287
0.06949870288
0.07010609657
0.07113630325
0.07123950124
0.07219920307
0.07248999923
0.07360509783
0.07376919687
0.0738440007
0.07388909906
0.07424250245
0.07424650341
0.07648199797
0.0774383992
0.07918109745
0.07983980328
0.08035390079
0.0803989023
0.08086899668
0.0826260969
0.08356259763
0.08453019708
0.08685690165
0.08873970062
0.09115680307
0.09147150069
0.09259130061
0.09280660003
0.09297049791
0.0930057019
0.09309820086
0.09385730326
0.09388189763
0.09426049888
0.09433969855
0.09505160153
0.0955703035
0.09624979645
0.09822460264
0.09849770367
0.09861630201
0.09901870042
0.09935720265
0.1003800035
0.1011160016
0.1016860008
0.1025199965
0.1027019992
0.1032020003
0.1032869965
0.1033700034
0.1042049974
0.105622001
0.1071290001
0.1073300019
0.1093650013
0.1098250002
0.1103390008
0.110503003
0.112455003
0.1127860025
0.1128380001
0.1135540009
0.1139379963
0.1141780019
0.1160050035
0.1174990013
0.118704997
0.1191100031
0.1191790029
0.1196150035
0.1196419969
0.1219030023
0.1230790019
0.1230980009
0.1239390001
0.1242609993
0.1246989965
0.1253840029
0.1260460019
0.126651004
0.1272830069
0.1276250035
0.1291570067
0.1293870062
0.1296489984
0.1305530071
0.130686
0.1307429969
0.1315079927
0.1322059929
0.132633999
0.1328019947
0.1328849941
0.1337720007
0.1337909997
0.1341850013
0.1345710009
0.1357869953
0.1362960041
0.1386689991
0.1389909983
0.1390179992
0.139124006
0.1393209994
0.1394989938
0.1406050026
0.1412550062
0.1412779987
0.1420509964
0.1443040073
0.1443549991
0.1478089988
0.1479749978
0.1493069977
0.1509359926
0.1523080021
0.1535540074
0.1535640061
0.1546380073
0.1552149951
0.1562149972
0.1569979936
0.1597460061
0.1621509939
0.1641090065
0.1650860012
0.1652940065
0.166102007
0.1663140059
0.1667769998
0.1678979993
0.1685300022
0.1686560065
0.1691460013
0.1699360013
0.1717559993
0.1741939932
0.1742790043
0.1750160009
0.1759929955
0.1770880073
0.179143995
0.1795700043
0.1800329983
0.1802700013
0.1810760051
0.1835719943
0.1850309968
0.1859849989
0.1870039999
0.187518999
0.1882559955
0.1883839965
0.1893499941
0.1901630014
0.1905360073
0.1913080066
0.191425994
0.1929589957
0.1931879967
0.1935870051
0.1949660033
0.2006710023
0.2008540034
0.2009339929
0.2022890002
0.2023890018
0.2029059976
0.2032430023
0.2049970031
0.2055709958
0.2060219944
0.2060610056
0.206159994
0.2062059939
0.2122779936
0.215259999
0.2160210013
0.2178100049
0.2230570018
0.2234040052
0.2280350029
0.229708001
0.2331250012
0.234780997
0.2366289943
0.2382089943
0.2383130044
0.2395509928
0.2400940061
0.2439890057
0.2461539954
0.2472199947
0.2479549944
0.2483080029
0.2512190044
0.2513769865
0.2525419891
0.2526110113
0.2549600005
0.2564969957
0.2573580146
0.2589249909
0.2603929937
0.2607299984
0.2631779909
0.2635029852
0.2639600039
0.2646999955
0.2688170075
0.2746640146
0.2762649953
0.2861970067
0.2889899909
0.3245919943
0.3280639946
0.3305889964
0.3619259894
0.3626329899
0.3669750094
0.3749549985
0.3837479949
0.3852910101
0.3927550018
0.3933350146
0.4007380009
0.4021129906
0.4056609869
0.4172939956
0.4220260084
0.4426229894
0.4454169869
