-0.081406
-0.081406
-0.081406
-0.081406
-0.081406
-0.081406
-0.081406
-0.081406
-0.081406
-0.081406
-0.081406
-0.081406
-0.081406
-0.081406
-0.081406
-0.081406
-0.081406
-0.081406
-0.081406
-0.081406
-0.081406
-0.081406
-0.081406
-0.081406
-0.081406
-0.081406
-0.081406
-0.081406
-0.081406
-0.081406
-0.081406
-0.081406
-0.081406
-0.081406
-0.081406
-0.081406
-0.081406
-0.081406
-0.081406
-0.081406
-0.081406
-0.081406
-0.081406
-0.081406
-0.081406
-0.081406
-0.081406
-0.081406
-0.081406
-0.081406
-0.081406
-0.081406
-0.081406
-0.081406
-0.081406
-0.081406
-0.081406
-0.081406
-0.081406
-0.081406
-0.081406
-0.081406
-0.081406
-0.081406
-0.081406
-0.081406
-0.081406
-0.081406
-0.081406
-0.081406
-0.081406
-0.081406
-0.081406
0.081406
0.081406
0.081406
0.081406
0.081406
0.081406
0.081406
0.081406
0.081406
0.081406
0.081406
0.081406
0.081406
0.081406
0.081406
0.081406
0.081406
0.081406
0.081406
0.081406
0.081406
0.081406
0.081406
0.081406
0.081406
0.081406
0.081406
0.081406
0.081406
0.081406
0.081406
0.081406
0.081406
0.081406
0.081406
0.081406
0.081406
0.081406
0.081406
0.081406
0.081406
0.081406
0.081406
0.081406
0.081406
0.081406
0.081406
0.081406
0.081406
0.081406
0.081406
0.081406
0.081406
0.081406
0.081406
0.081406
0.081406
0.081406
0.081406
0.081406
0.081406
0.081406
0.081406
0.081406
0.081406
0.081406
0.081406
0.081406
0.081406
0.081406
0.081406
0.081406
0.081406
0.081406
0.081406
0.081406
0.081406
