-0.0500327
-0.0500327
-0.0500327
-0.0500327
-0.0500327
-0.0500327
-0.0500327
-0.0500327
-0.0500327
-0.0500327
-0.0500327
-0.0500327
-0.0500327
-0.0500327
-0.0500327
-0.0500327
-0.0500327
-0.0500327
-0.0500327
-0.0500327
-0.0500327
-0.0500327
-0.0500327
-0.0500327
-0.0500327
-0.0500327
-0.0500327
-0.0500327
-0.0500327
-0.0500327
-0.0500327
-0.0500327
-0.0500327
-0.0500327
-0.0500327
-0.0500327
-0.0500327
-0.0500327
-0.0500327
-0.0500327
-0.0500327
-0.0500327
-0.0500327
-0.0500327
-0.0500327
-0.0500327
-0.0500327
-0.0500327
-0.0500327
-0.0500327
-0.0500327
-0.0500327
-0.0500327
-0.0500327
-0.0500327
-0.0500327
-0.0500327
-0.0500327
-0.0500327
-0.0500327
-0.0500327
-0.0500327
-0.0500327
-0.0500327
-0.0500327
-0.0500327
-0.0500327
-0.0500327
-0.0500327
-0.0500327
-0.0500327
-0.0500327
-0.0500327
-0.0500327
-0.0500327
-0.0500327
-0.0500327
-0.0500327
-0.0500327
-0.0500327
-0.0500327
-0.0500327
-0.0500327
-0.0500327
-0.0500327
-0.0500327
-0.0500327
-0.0500327
-0.0500327
-0.0500327
-0.0500327
-0.0500327
-0.0500327
-0.0500327
-0.0500327
-0.0500327
-0.0500327
-0.0500327
-0.0500327
-0.0500327
-0.0500327
-0.0500327
-0.0500327
-0.0500327
-0.0500327
-0.0500327
-0.0500327
-0.0500327
-0.0500327
-0.0500327
-0.0500327
-0.0500327
-0.0500327
-0.0500327
-0.0500327
-0.0500327
-0.0500327
-0.0500327
-0.0500327
-0.0500327
-0.0500327
-0.0500327
-0.0500327
-0.0500327
-0.0500327
-0.0500327
-0.0500327
-0.0500327
-0.0500327
-0.0500327
-0.0500327
-0.0500327
-0.0500327
-0.0500327
-0.0500327
-0.0500327
-0.0500327
-0.0500327
-0.0500327
-0.0500327
-0.0500327
-0.0500327
-0.0500327
-0.0500327
-0.0500327
-0.0500327
-0.0500327
-0.0500327
-0.0500327
-0.0500327
-0.0500327
-0.0500327
-0.0500327
-0.0500327
-0.0500327
-0.0500327
-0.0500327
-0.0500327
-0.0500327
-0.0500327
-0.0500327
-0.0500327
-0.0500327
-0.0500327
-0.0500327
-0.0500327
-0.0500327
-0.0500327
-0.0500327
-0.0500327
-0.0500327
-0.0500327
-0.0500327
-0.0500327
-0.0500327
-0.0500327
-0.0500327
-0.0500327
-0.0500327
-0.0500327
-0.0500327
-0.0500327
-0.0500327
-0.0500327
-0.0500327
-0.0500327
-0.0500327
-0.0500327
-0.0500327
-0.0500327
-0.0500327
-0.0500327
-0.0500327
-0.0500327
-0.0500327
-0.0500327
-0.0500327
-0.0500327
-0.0500327
-0.0500327
-0.0500327
-0.0500327
-0.0500327
-0.0500327
-0.0500327
-0.0500327
-0.0500327
-0.0500327
-0.0500327
-0.0500327
-0.0500327
-0.0500327
-0.0500327
-0.0500327
-0.0500327
-0.0500327
-0.0500327
-0.0500327
-0.0500327
-0.0500327
-0.0500327
-0.0500327
-0.0500327
-0.0500327
-0.0500327
-0.0500327
-0.0500327
-0.0500327
-0.0500327
-0.0500327
-0.0500327
-0.0500327
-0.0500327
-0.0500327
-0.0500327
-0.0500327
-0.0500327
-0.0500327
-0.0500327
-0.0500327
-0.0500327
-0.0500327
-0.0500327
-0.0500327
-0.0500327
-0.0500327
-0.0500327
-0.0500327
-0.0500327
-0.0500327
-0.0500327
-0.0500327
-0.0500327
-0.0500327
-0.0500327
-0.0500327
-0.0500327
-0.0500327
-0.0500327
-0.0500327
-0.0500327
-0.0500327
-0.0500327
-0.0500327
-0.0500327
-0.0500327
-0.0500327
-0.0500327
-0.0500327
-0.0500327
-0.0500327
-0.0500327
-0.0500327
-0.0500327
-0.0500327
-0.0500327
-0.0500327
-0.0500327
-0.0500327
-0.0500327
-0.0500327
-0.0500327
-0.0500327
-0.0500327
-0.0500327
-0.0500327
-0.0500327
-0.0500327
-0.0500327
-0.0500327
-0.0500327
-0.0500327
-0.0500327
-0.0500327
-0.0500327
-0.0500327
-0.0500327
-0.0500327
-0.0500327
-0.0500327
-0.0500327
-0.0500327
-0.0500327
-0.0500327
-0.0500327
-0.0500327
-0.0500327
-0.0500327
-0.0500327
-0.0500327
-0.0500327
-0.0500327
-0.0500327
-0.0500327
-0.0500327
-0.0500327
-0.0500327
-0.0500327
-0.0500327
-0.0500327
-0.0500327
-0.0500327
-0.0500327
-0.0500327
-0.0500327
-0.0500327
-0.0500327
-0.0500327
-0.0500327
-0.0500327
-0.0500327
-0.0500327
-0.0500327
-0.0500327
-0.0500327
-0.0500327
-0.0500327
-0.0500327
-0.0500327
-0.0500327
-0.0500327
-0.0500327
-0.0500327
-0.0500327
-0.0500327
-0.0500327
-0.0500327
-0.0500327
-0.0500327
-0.0500327
-0.0500327
-0.0500327
-0.0500327
-0.0500327
-0.0500327
-0.0500327
-0.0500327
-0.0500327
-0.0500327
-0.0500327
-0.0500327
-0.0500327
-0.0500327
-0.0500327
-0.0500327
-0.0500327
-0.0500327
-0.0500327
-0.0500327
-0.0500327
-0.0500327
-0.0500327
-0.0500327
-0.0500327
-0.0500327
-0.0500327
-0.0500327
-0.0500327
-0.0500327
-0.0500327
-0.0500327
-0.0500327
-0.0500327
-0.0500327
-0.0500327
-0.0500327
-0.0500327
-0.0500327
-0.0500327
-0.0500327
-0.0500327
-0.0500327
-0.0500327
-0.0500327
-0.0500327
-0.0500327
-0.0500327
-0.0500327
-0.0500327
-0.0500327
-0.0500327
-0.0500327
-0.0500327
-0.0500327
-0.0500327
-0.0500327
-0.0500327
-0.0500327
-0.0500327
-0.0500327
-0.0500327
-0.0500327
-0.0500327
-0.0500327
-0.0500327
-0.0500327
-0.0500327
-0.0500327
-0.0500327
-0.0500327
-0.0500327
-0.0500327
-0.0500327
-0.0500327
-0.0500327
-0.0500327
-0.0500327
-0.0500327
-0.0500327
-0.0500327
-0.0500327
-0.0500327
-0.0500327
-0.0500327
-0.0500327
-0.0500327
-0.0500327
-0.0500327
-0.0500327
-0.0500327
-0.0500327
-0.0500327
-0.0500327
-0.0500327
-0.0500327
-0.0500327
-0.0500327
-0.0500327
-0.0500327
-0.0500327
-0.0500327
-0.0500327
-0.0500327
-0.0500327
-0.0500327
-0.0500327
-0.0500327
-0.0500327
-0.0500327
-0.0500327
-0.0500327
-0.0500327
-0.0500327
-0.0500327
-0.0500327
-0.0500327
-0.0500327
-0.0500327
-0.0500327
-0.0500327
-0.0500327
-0.0500327
-0.0500327
-0.0500327
-0.0500327
-0.0500327
-0.0500327
-0.0500327
-0.0500327
-0.0500327
-0.0500327
-0.0500327
-0.0500327
-0.0500327
-0.0500327
-0.0500327
-0.0500327
-0.0500327
-0.0500327
-0.0500327
-0.0500327
-0.0500327
-0.0500327
-0.0500327
-0.0500327
-0.0500327
-0.0500327
-0.0500327
-0.0500327
-0.0500327
-0.0500327
-0.0500327
-0.0500327
-0.0500327
-0.0500327
-0.0500327
-0.0500327
-0.0500327
-0.0500327
-0.0500327
-0.0500327
-0.0500327
-0.0500327
-0.0500327
-0.0500327
-0.0500327
-0.0500327
-0.0500327
-0.0500327
-0.0500327
-0.0500327
-0.0500327
-0.0500327
-0.0500327
-0.0500327
-0.0500327
-0.0500327
-0.0500327
-0.0500327
-0.0500327
-0.0500327
-0.0500327
-0.0500327
-0.0500327
-0.0500327
-0.0500327
-0.0500327
-0.0500327
-0.0500327
-0.0500327
-0.0500327
-0.0500327
-0.0500327
-0.0500327
-0.0500327
-0.0500327
-0.0500327
-0.0500327
-0.0500327
-0.0500327
-0.0500327
-0.0500327
-0.0500327
-0.0500327
-0.0500327
-0.0500327
-0.0500327
-0.0500327
-0.0500327
-0.0500327
-0.0500327
-0.0500327
-0.0500327
-0.0500327
-0.0500327
-0.0500327
-0.0500327
-0.0500327
-0.0500327
-0.0500327
-0.0500327
-0.0500327
-0.0500327
-0.0500327
-0.0500327
-0.0500327
-0.0500327
-0.0500327
-0.0500327
-0.0500327
-0.0500327
-0.0500327
-0.0500327
-0.0500327
-0.0500327
-0.0500327
-0.0500327
-0.0500327
-0.0500327
-0.0500327
-0.0500327
-0.0500327
-0.0500327
-0.0500327
-0.0500327
-0.0500327
-0.0500327
-0.0500327
-0.0500327
-0.0500327
-0.0500327
-0.0500327
-0.0500327
-0.0500327
-0.0500327
-0.0500327
-0.0500327
-0.0500327
-0.0500327
-0.0500327
-0.0500327
-0.0500327
-0.0500327
-0.0500327
-0.0500327
-0.0500327
-0.0500327
-0.0500327
-0.0500327
-0.0500327
-0.0500327
-0.0500327
-0.0500327
-0.0500327
-0.0500327
-0.0500327
-0.0500327
-0.0500327
-0.0500327
-0.0500327
-0.0500327
-0.0500327
-0.0500327
-0.0500327
-0.0500327
-0.0500327
-0.0500327
-0.0500327
-0.0500327
-0.0500327
-0.0500327
-0.0500327
-0.0500327
-0.0500327
-0.0500327
-0.0500327
-0.0500327
-0.0500327
-0.0500327
-0.0500327
-0.0500327
-0.0500327
-0.0500327
-0.0500327
-0.0500327
-0.0500327
-0.0500327
-0.0500327
-0.0500327
-0.0500327
-0.0500327
-0.0500327
-0.0500327
-0.0500327
-0.0500327
-0.0500327
-0.0500327
-0.0500327
-0.0500327
-0.0500327
-0.0500327
-0.0500327
-0.0500327
-0.0500327
-0.0500327
-0.0500327
-0.0500327
-0.0500327
-0.0500327
-0.0500327
-0.0500327
-0.0500327
-0.0500327
-0.0500327
-0.0500327
-0.0500327
-0.0500327
-0.0500327
-0.0500327
-0.0500327
-0.0500327
-0.0500327
-0.0500327
-0.0500327
-0.0500327
-0.0500327
-0.0500327
-0.0500327
-0.0500327
-0.0500327
-0.0500327
-0.0500327
-0.0500327
-0.0500327
-0.0500327
-0.0500327
-0.0500327
-0.0500327
-0.0500327
-0.0500327
-0.0500327
-0.0500327
-0.0500327
-0.0500327
-0.0500327
-0.0500327
-0.0500327
-0.0500327
-0.0500327
-0.0500327
-0.0500327
-0.0500327
-0.0500327
-0.0500327
-0.0500327
-0.0500327
-0.0500327
-0.0500327
-0.0500327
-0.0500327
-0.0500327
-0.0500327
-0.0500327
-0.0500327
-0.0500327
-0.0500327
-0.0500327
-0.0500327
-0.0500327
-0.0500327
-0.0500327
-0.0500327
-0.0500327
-0.0500327
-0.0500327
-0.0500327
-0.0500327
-0.0500327
-0.0500327
-0.0500327
-0.0500327
-0.0500327
-0.0500327
-0.0500327
-0.0500327
-0.0500327
-0.0500327
-0.0500327
-0.0500327
-0.0500327
-0.0500327
-0.0500327
-0.0500327
-0.0500327
-0.0500327
-0.0500327
-0.0500327
-0.0500327
-0.0500327
-0.0500327
-0.0500327
-0.0500327
-0.0500327
-0.0500327
-0.0500327
-0.0500327
-0.0500327
-0.0500327
-0.0500327
-0.0500327
-0.0500327
-0.0500327
-0.0500327
-0.0500327
-0.0500327
-0.0500327
-0.0500327
-0.0500327
-0.0500327
-0.0500327
-0.0500327
-0.0500327
-0.0500327
-0.0500327
-0.0500327
-0.0500327
-0.0500327
-0.0500327
-0.0500327
-0.0500327
-0.0500327
-0.0500327
-0.0500327
-0.0500327
-0.0500327
-0.0500327
-0.0500327
-0.0500327
-0.0500327
-0.0500327
-0.0500327
-0.0500327
-0.0500327
-0.0500327
-0.0500327
-0.0500327
-0.0500327
-0.0500327
-0.0500327
-0.0500327
-0.0500327
-0.0500327
-0.0500327
-0.0500327
-0.0500327
-0.0500327
-0.0500327
-0.0500327
-0.0500327
-0.0500327
-0.0500327
-0.0500327
-0.0500327
-0.0500327
-0.0500327
-0.0500327
-0.0500327
-0.0500327
-0.0500327
-0.0500327
-0.0500327
-0.0500327
-0.0500327
-0.0500327
-0.0500327
-0.0500327
-0.0500327
-0.0500327
-0.0500327
-0.0500327
-0.0500327
-0.0500327
-0.0500327
-0.0500327
-0.0500327
-0.0500327
-0.0500327
-0.0500327
-0.0500327
-0.0500327
-0.0500327
-0.0500327
-0.0500327
-0.0500327
-0.0500327
-0.0500327
-0.0500327
-0.0500327
-0.0500327
-0.0500327
-0.0500327
-0.0500327
-0.0500327
-0.0500327
-0.0500327
-0.0500327
-0.0500327
-0.0500327
-0.0500327
-0.0500327
-0.0500327
-0.0500327
-0.0500327
-0.0500327
-0.0500327
-0.0500327
-0.0500327
-0.0500327
-0.0500327
-0.0500327
-0.0500327
-0.0500327
-0.0500327
-0.0500327
-0.0500327
-0.0500327
-0.0500327
-0.0500327
-0.0500327
-0.0500327
-0.0500327
-0.0500327
-0.0500327
-0.0500327
-0.0500327
-0.0500327
-0.0500327
-0.0500327
-0.0500327
-0.0500327
-0.0500327
-0.0500327
-0.0500327
-0.0500327
-0.0500327
-0.0500327
-0.0500327
-0.0500327
-0.0500327
-0.0500327
-0.0500327
-0.0500327
-0.0500327
-0.0500327
-0.0500327
-0.0500327
-0.0500327
-0.0500327
-0.0500327
-0.0500327
-0.0500327
-0.0500327
-0.0500327
-0.0500327
-0.0500327
-0.0500327
-0.0500327
-0.0500327
-0.0500327
-0.0500327
-0.0500327
-0.0500327
-0.0500327
-0.0500327
-0.0500327
-0.0500327
-0.0500327
-0.0500327
-0.0500327
-0.0500327
-0.0500327
-0.0500327
-0.0500327
-0.0500327
-0.0500327
-0.0500327
-0.0500327
-0.0500327
-0.0500327
-0.0500327
-0.0500327
-0.0500327
-0.0500327
-0.0500327
-0.0500327
-0.0500327
-0.0500327
-0.0500327
-0.0500327
-0.0500327
-0.0500327
-0.0500327
-0.0500327
-0.0500327
-0.0500327
-0.0500327
-0.0500327
-0.0500327
-0.0500327
-0.0500327
-0.0500327
-0.0500327
-0.0500327
-0.0500327
-0.0500327
-0.0500327
-0.0500327
-0.0500327
-0.0500327
-0.0500327
-0.0500327
-0.0500327
-0.0500327
-0.0500327
-0.0500327
-0.0500327
-0.0500327
-0.0500327
-0.0500327
-0.0500327
-0.0500327
-0.0500327
-0.0500327
-0.0500327
-0.0500327
-0.0500327
-0.0500327
-0.0500327
-0.0500327
-0.0500327
-0.0500327
-0.0500327
-0.0500327
-0.0500327
-0.0500327
-0.0500327
-0.0500327
-0.0500327
-0.0500327
-0.0500327
-0.0500327
-0.0500327
-0.0500327
-0.0500327
-0.0500327
-0.0500327
-0.0500327
-0.0500327
-0.0500327
-0.0500327
-0.0500327
-0.0500327
-0.0500327
-0.0500327
-0.0500327
-0.0500327
-0.0500327
-0.0500327
-0.0500327
-0.0500327
-0.0500327
-0.0500327
-0.0500327
-0.0500327
-0.0500327
-0.0500327
-0.0500327
-0.0500327
-0.0500327
-0.0500327
-0.0500327
-0.0500327
-0.0500327
-0.0500327
-0.0500327
-0.0500327
-0.0500327
-0.0500327
-0.0500327
-0.0500327
-0.0500327
-0.0500327
-0.0500327
-0.0500327
-0.0500327
-0.0500327
-0.0500327
-0.0500327
-0.0500327
-0.0500327
-0.0500327
-0.0500327
-0.0500327
-0.0500327
-0.0500327
-0.0500327
-0.0500327
-0.0500327
-0.0500327
-0.0500327
-0.0500327
-0.0500327
-0.0500327
-0.0500327
-0.0500327
-0.0500327
-0.0500327
-0.0500327
-0.0500327
-0.0500327
-0.0500327
-0.0500327
-0.0500327
-0.0500327
-0.0500327
-0.0500327
-0.0500327
-0.0500327
-0.0500327
-0.0500327
-0.0500327
-0.0500327
-0.0500327
-0.0500327
-0.0500327
-0.0500327
-0.0500327
-0.0500327
-0.0500327
-0.0500327
-0.0500327
-0.0500327
-0.0500327
-0.0500327
-0.0500327
-0.0500327
-0.0500327
-0.0500327
-0.0500327
-0.0500327
-0.0500327
-0.0500327
-0.0500327
-0.0500327
-0.0500327
-0.0500327
-0.0500327
-0.0500327
-0.0500327
-0.0500327
-0.0500327
-0.0500327
-0.0500327
-0.0500327
-0.0500327
-0.0500327
-0.0500327
-0.0500327
-0.0500327
-0.0500327
-0.0500327
-0.0500327
-0.0500327
-0.0500327
-0.0500327
-0.0500327
-0.0500327
-0.0500327
-0.0500327
-0.0500327
0.0500327
0.0500327
0.0500327
0.0500327
0.0500327
0.0500327
0.0500327
0.0500327
0.0500327
0.0500327
0.0500327
0.0500327
0.0500327
0.0500327
0.0500327
0.0500327
0.0500327
0.0500327
0.0500327
0.0500327
0.0500327
0.0500327
0.0500327
0.0500327
0.0500327
0.0500327
0.0500327
0.0500327
0.0500327
0.0500327
0.0500327
0.0500327
0.0500327
0.0500327
0.0500327
0.0500327
0.0500327
0.0500327
0.0500327
0.0500327
0.0500327
0.0500327
0.0500327
0.0500327
0.0500327
0.0500327
0.0500327
0.0500327
0.0500327
0.0500327
0.0500327
0.0500327
0.0500327
0.0500327
0.0500327
0.0500327
0.0500327
0.0500327
0.0500327
0.0500327
0.0500327
0.0500327
0.0500327
0.0500327
0.0500327
0.0500327
0.0500327
0.0500327
0.0500327
0.0500327
0.0500327
0.0500327
0.0500327
0.0500327
0.0500327
0.0500327
0.0500327
0.0500327
0.0500327
0.0500327
0.0500327
0.0500327
0.0500327
0.0500327
0.0500327
0.0500327
0.0500327
0.0500327
0.0500327
0.0500327
0.0500327
0.0500327
0.0500327
0.0500327
0.0500327
0.0500327
0.0500327
0.0500327
0.0500327
0.0500327
0.0500327
0.0500327
0.0500327
0.0500327
0.0500327
0.0500327
0.0500327
0.0500327
0.0500327
0.0500327
0.0500327
0.0500327
0.0500327
0.0500327
0.0500327
0.0500327
0.0500327
0.0500327
0.0500327
0.0500327
0.0500327
0.0500327
0.0500327
0.0500327
0.0500327
0.0500327
0.0500327
0.0500327
0.0500327
0.0500327
0.0500327
0.0500327
0.0500327
0.0500327
0.0500327
0.0500327
0.0500327
0.0500327
0.0500327
0.0500327
0.0500327
0.0500327
0.0500327
0.0500327
0.0500327
0.0500327
0.0500327
0.0500327
0.0500327
0.0500327
0.0500327
0.0500327
0.0500327
0.0500327
0.0500327
0.0500327
0.0500327
0.0500327
0.0500327
0.0500327
0.0500327
0.0500327
0.0500327
0.0500327
0.0500327
0.0500327
0.0500327
0.0500327
0.0500327
0.0500327
0.0500327
0.0500327
0.0500327
0.0500327
0.0500327
0.0500327
0.0500327
0.0500327
0.0500327
0.0500327
0.0500327
0.0500327
0.0500327
0.0500327
0.0500327
0.0500327
0.0500327
0.0500327
0.0500327
0.0500327
0.0500327
0.0500327
0.0500327
0.0500327
0.0500327
0.0500327
0.0500327
0.0500327
0.0500327
0.0500327
0.0500327
0.0500327
0.0500327
0.0500327
0.0500327
0.0500327
0.0500327
0.0500327
0.0500327
0.0500327
0.0500327
0.0500327
0.0500327
0.0500327
0.0500327
0.0500327
0.0500327
0.0500327
0.0500327
0.0500327
0.0500327
0.0500327
0.0500327
0.0500327
0.0500327
0.0500327
0.0500327
0.0500327
0.0500327
0.0500327
0.0500327
0.0500327
0.0500327
0.0500327
0.0500327
0.0500327
0.0500327
0.0500327
0.0500327
0.0500327
0.0500327
0.0500327
0.0500327
0.0500327
0.0500327
0.0500327
0.0500327
0.0500327
0.0500327
0.0500327
0.0500327
0.0500327
0.0500327
0.0500327
0.0500327
0.0500327
0.0500327
0.0500327
0.0500327
0.0500327
0.0500327
0.0500327
0.0500327
0.0500327
0.0500327
0.0500327
0.0500327
0.0500327
0.0500327
0.0500327
0.0500327
0.0500327
0.0500327
0.0500327
0.0500327
0.0500327
0.0500327
0.0500327
0.0500327
0.0500327
0.0500327
0.0500327
0.0500327
0.0500327
0.0500327
0.0500327
0.0500327
0.0500327
0.0500327
0.0500327
0.0500327
0.0500327
0.0500327
0.0500327
0.0500327
0.0500327
0.0500327
0.0500327
0.0500327
0.0500327
0.0500327
0.0500327
0.0500327
0.0500327
0.0500327
0.0500327
0.0500327
0.0500327
0.0500327
0.0500327
0.0500327
0.0500327
0.0500327
0.0500327
0.0500327
0.0500327
0.0500327
0.0500327
0.0500327
0.0500327
0.0500327
0.0500327
0.0500327
0.0500327
0.0500327
0.0500327
0.0500327
0.0500327
0.0500327
0.0500327
0.0500327
0.0500327
0.0500327
0.0500327
0.0500327
0.0500327
0.0500327
0.0500327
0.0500327
0.0500327
0.0500327
0.0500327
0.0500327
0.0500327
0.0500327
0.0500327
0.0500327
0.0500327
0.0500327
0.0500327
0.0500327
0.0500327
0.0500327
0.0500327
0.0500327
0.0500327
0.0500327
0.0500327
0.0500327
0.0500327
0.0500327
0.0500327
0.0500327
0.0500327
0.0500327
0.0500327
0.0500327
0.0500327
0.0500327
0.0500327
0.0500327
0.0500327
0.0500327
0.0500327
0.0500327
0.0500327
0.0500327
0.0500327
0.0500327
0.0500327
0.0500327
0.0500327
0.0500327
0.0500327
0.0500327
0.0500327
0.0500327
0.0500327
0.0500327
0.0500327
0.0500327
0.0500327
0.0500327
0.0500327
0.0500327
0.0500327
0.0500327
0.0500327
0.0500327
0.0500327
0.0500327
0.0500327
0.0500327
0.0500327
0.0500327
0.0500327
0.0500327
0.0500327
0.0500327
0.0500327
0.0500327
0.0500327
0.0500327
0.0500327
0.0500327
0.0500327
0.0500327
0.0500327
0.0500327
0.0500327
0.0500327
0.0500327
0.0500327
0.0500327
0.0500327
0.0500327
0.0500327
0.0500327
0.0500327
0.0500327
0.0500327
0.0500327
0.0500327
0.0500327
0.0500327
0.0500327
0.0500327
0.0500327
0.0500327
0.0500327
0.0500327
0.0500327
0.0500327
0.0500327
0.0500327
0.0500327
0.0500327
0.0500327
0.0500327
0.0500327
0.0500327
0.0500327
0.0500327
0.0500327
0.0500327
0.0500327
0.0500327
0.0500327
0.0500327
0.0500327
0.0500327
0.0500327
0.0500327
0.0500327
0.0500327
0.0500327
0.0500327
0.0500327
0.0500327
0.0500327
0.0500327
0.0500327
0.0500327
0.0500327
0.0500327
0.0500327
0.0500327
0.0500327
0.0500327
0.0500327
0.0500327
0.0500327
0.0500327
0.0500327
0.0500327
0.0500327
0.0500327
0.0500327
0.0500327
0.0500327
0.0500327
0.0500327
0.0500327
0.0500327
0.0500327
0.0500327
0.0500327
0.0500327
0.0500327
0.0500327
0.0500327
0.0500327
0.0500327
0.0500327
0.0500327
0.0500327
0.0500327
0.0500327
0.0500327
0.0500327
0.0500327
0.0500327
0.0500327
0.0500327
0.0500327
0.0500327
0.0500327
0.0500327
0.0500327
0.0500327
0.0500327
0.0500327
0.0500327
0.0500327
0.0500327
0.0500327
0.0500327
0.0500327
0.0500327
0.0500327
0.0500327
0.0500327
0.0500327
0.0500327
0.0500327
0.0500327
0.0500327
0.0500327
0.0500327
0.0500327
0.0500327
0.0500327
0.0500327
0.0500327
0.0500327
0.0500327
0.0500327
0.0500327
0.0500327
0.0500327
0.0500327
0.0500327
0.0500327
0.0500327
0.0500327
0.0500327
0.0500327
0.0500327
0.0500327
0.0500327
0.0500327
0.0500327
0.0500327
0.0500327
0.0500327
0.0500327
0.0500327
0.0500327
0.0500327
0.0500327
0.0500327
0.0500327
0.0500327
0.0500327
0.0500327
0.0500327
0.0500327
0.0500327
0.0500327
0.0500327
0.0500327
0.0500327
0.0500327
0.0500327
0.0500327
0.0500327
0.0500327
0.0500327
0.0500327
0.0500327
0.0500327
0.0500327
0.0500327
0.0500327
0.0500327
0.0500327
0.0500327
0.0500327
0.0500327
0.0500327
0.0500327
0.0500327
0.0500327
0.0500327
0.0500327
0.0500327
0.0500327
0.0500327
0.0500327
0.0500327
0.0500327
0.0500327
0.0500327
0.0500327
0.0500327
0.0500327
0.0500327
0.0500327
0.0500327
0.0500327
0.0500327
0.0500327
0.0500327
0.0500327
0.0500327
0.0500327
0.0500327
0.0500327
0.0500327
0.0500327
0.0500327
0.0500327
0.0500327
0.0500327
0.0500327
0.0500327
0.0500327
0.0500327
0.0500327
0.0500327
0.0500327
0.0500327
0.0500327
0.0500327
0.0500327
0.0500327
0.0500327
0.0500327
0.0500327
0.0500327
0.0500327
0.0500327
0.0500327
0.0500327
0.0500327
0.0500327
0.0500327
0.0500327
0.0500327
0.0500327
0.0500327
0.0500327
0.0500327
0.0500327
0.0500327
0.0500327
0.0500327
0.0500327
0.0500327
0.0500327
0.0500327
0.0500327
0.0500327
0.0500327
0.0500327
0.0500327
0.0500327
0.0500327
0.0500327
0.0500327
0.0500327
0.0500327
0.0500327
0.0500327
0.0500327
0.0500327
0.0500327
0.0500327
0.0500327
0.0500327
0.0500327
0.0500327
0.0500327
0.0500327
0.0500327
0.0500327
0.0500327
0.0500327
0.0500327
0.0500327
0.0500327
0.0500327
0.0500327
0.0500327
0.0500327
0.0500327
0.0500327
0.0500327
0.0500327
0.0500327
0.0500327
0.0500327
0.0500327
0.0500327
0.0500327
0.0500327
0.0500327
0.0500327
0.0500327
0.0500327
0.0500327
0.0500327
0.0500327
0.0500327
0.0500327
0.0500327
0.0500327
0.0500327
0.0500327
0.0500327
0.0500327
0.0500327
0.0500327
0.0500327
0.0500327
0.0500327
0.0500327
0.0500327
0.0500327
0.0500327
0.0500327
0.0500327
0.0500327
0.0500327
0.0500327
0.0500327
0.0500327
0.0500327
0.0500327
0.0500327
0.0500327
0.0500327
0.0500327
0.0500327
0.0500327
0.0500327
0.0500327
0.0500327
0.0500327
0.0500327
0.0500327
0.0500327
0.0500327
0.0500327
0.0500327
0.0500327
0.0500327
0.0500327
0.0500327
0.0500327
0.0500327
0.0500327
0.0500327
0.0500327
0.0500327
0.0500327
0.0500327
0.0500327
0.0500327
0.0500327
0.0500327
0.0500327
0.0500327
0.0500327
0.0500327
0.0500327
0.0500327
0.0500327
0.0500327
0.0500327
0.0500327
0.0500327
0.0500327
0.0500327
0.0500327
0.0500327
0.0500327
0.0500327
0.0500327
0.0500327
0.0500327
0.0500327
0.0500327
0.0500327
0.0500327
0.0500327
0.0500327
0.0500327
0.0500327
0.0500327
0.0500327
0.0500327
0.0500327
0.0500327
0.0500327
0.0500327
0.0500327
0.0500327
0.0500327
0.0500327
0.0500327
0.0500327
0.0500327
0.0500327
0.0500327
0.0500327
0.0500327
0.0500327
0.0500327
0.0500327
0.0500327
0.0500327
0.0500327
0.0500327
0.0500327
0.0500327
0.0500327
0.0500327
0.0500327
0.0500327
0.0500327
0.0500327
0.0500327
0.0500327
0.0500327
0.0500327
0.0500327
0.0500327
0.0500327
0.0500327
0.0500327
0.0500327
0.0500327
0.0500327
0.0500327
0.0500327
0.0500327
0.0500327
0.0500327
0.0500327
0.0500327
0.0500327
0.0500327
0.0500327
0.0500327
0.0500327
0.0500327
0.0500327
0.0500327
0.0500327
0.0500327
0.0500327
0.0500327
0.0500327
0.0500327
0.0500327
0.0500327
0.0500327
0.0500327
0.0500327
0.0500327
0.0500327
0.0500327
0.0500327
0.0500327
0.0500327
0.0500327
0.0500327
0.0500327
0.0500327
0.0500327
0.0500327
0.0500327
0.0500327
0.0500327
0.0500327
0.0500327
0.0500327
0.0500327
0.0500327
0.0500327
0.0500327
0.0500327
0.0500327
0.0500327
0.0500327
0.0500327
0.0500327
0.0500327
0.0500327
0.0500327
0.0500327
0.0500327
0.0500327
0.0500327
0.0500327
0.0500327
0.0500327
0.0500327
0.0500327
0.0500327
0.0500327
0.0500327
0.0500327
0.0500327
0.0500327
0.0500327
0.0500327
0.0500327
0.0500327
0.0500327
0.0500327
0.0500327
0.0500327
0.0500327
0.0500327
0.0500327
0.0500327
0.0500327
0.0500327
0.0500327
0.0500327
0.0500327
0.0500327
0.0500327
0.0500327
0.0500327
0.0500327
0.0500327
0.0500327
0.0500327
0.0500327
0.0500327
0.0500327
0.0500327
0.0500327
0.0500327
0.0500327
0.0500327
0.0500327
0.0500327
0.0500327
0.0500327
0.0500327
0.0500327
0.0500327
0.0500327
0.0500327
0.0500327
0.0500327
0.0500327
0.0500327
0.0500327
0.0500327
0.0500327
0.0500327
0.0500327
0.0500327
0.0500327
0.0500327
0.0500327
0.0500327
0.0500327
0.0500327
0.0500327
0.0500327
0.0500327
0.0500327
0.0500327
0.0500327
0.0500327
0.0500327
0.0500327
0.0500327
0.0500327
0.0500327
0.0500327
0.0500327
0.0500327
0.0500327
0.0500327
0.0500327
0.0500327
0.0500327
0.0500327
0.0500327
0.0500327
0.0500327
0.0500327
0.0500327
0.0500327
0.0500327
0.0500327
0.0500327
0.0500327
0.0500327
0.0500327
0.0500327
0.0500327
0.0500327
0.0500327
0.0500327
0.0500327
0.0500327
0.0500327
0.0500327
0.0500327
0.0500327
0.0500327
0.0500327
0.0500327
0.0500327
0.0500327
0.0500327
0.0500327
0.0500327
0.0500327
0.0500327
0.0500327
0.0500327
0.0500327
0.0500327
0.0500327
0.0500327
0.0500327
0.0500327
0.0500327
0.0500327
0.0500327
0.0500327
0.0500327
0.0500327
0.0500327
0.0500327
0.0500327
0.0500327
0.0500327
0.0500327
0.0500327
0.0500327
0.0500327
0.0500327
0.0500327
0.0500327
0.0500327
0.0500327
0.0500327
0.0500327
0.0500327
0.0500327
0.0500327
0.0500327
0.0500327
0.0500327
0.0500327
0.0500327
0.0500327
0.0500327
0.0500327
0.0500327
0.0500327
0.0500327
0.0500327
0.0500327
0.0500327
0.0500327
0.0500327
0.0500327
0.0500327
0.0500327
0.0500327
0.0500327
0.0500327
0.0500327
0.0500327
0.0500327
0.0500327
0.0500327
0.0500327
0.0500327
0.0500327
0.0500327
0.0500327
0.0500327
0.0500327
0.0500327
0.0500327
0.0500327
0.0500327
0.0500327
0.0500327
0.0500327
0.0500327
0.0500327
0.0500327
0.0500327
0.0500327
0.0500327
0.0500327
0.0500327
0.0500327
0.0500327
0.0500327
0.0500327
0.0500327
0.0500327
0.0500327
0.0500327
0.0500327
0.0500327
0.0500327
0.0500327
0.0500327
0.0500327
0.0500327
0.0500327
0.0500327
0.0500327
0.0500327
0.0500327
0.0500327
0.0500327
0.0500327
0.0500327
0.0500327
0.0500327
0.0500327
0.0500327
0.0500327
0.0500327
0.0500327
0.0500327
0.0500327
0.0500327
0.0500327
0.0500327
0.0500327
0.0500327
0.0500327
0.0500327
0.0500327
0.0500327
0.0500327
0.0500327
0.0500327
0.0500327
0.0500327
0.0500327
0.0500327
0.0500327
0.0500327
0.0500327
0.0500327
0.0500327
0.0500327
0.0500327
0.0500327
0.0500327
0.0500327
0.0500327
0.0500327
0.0500327
0.0500327
0.0500327
0.0500327
0.0500327
0.0500327
0.0500327
0.0500327
0.0500327
0.0500327
0.0500327
0.0500327
0.0500327
0.0500327
0.0500327
0.0500327
0.0500327
0.0500327
0.0500327
0.0500327
0.0500327
0.0500327
0.0500327
0.0500327
0.0500327
0.0500327
0.0500327
0.0500327
0.0500327
0.0500327
0.0500327
0.0500327
0.0500327
0.0500327
0.0500327
0.0500327
0.0500327
0.0500327
0.0500327
0.0500327
0.0500327
0.0500327
0.0500327
0.0500327
0.0500327
0.0500327
0.0500327
0.0500327
0.0500327
0.0500327
0.0500327
0.0500327
0.0500327
0.0500327
0.0500327
0.0500327
0.0500327
0.0500327
0.0500327
0.0500327
0.0500327
0.0500327
0.0500327
0.0500327
0.0500327
0.0500327
0.0500327
0.0500327
0.0500327
