-0.322555
-0.322555
-0.322555
-0.322555
-0.322555
-0.322555
-0.322555
-0.322555
-0.322555
-0.322555
-0.322555
-0.322555
-0.322555
-0.322555
-0.322555
-0.322555
-0.322555
-0.322555
-0.322555
-0.322555
-0.322555
-0.322555
-0.322555
-0.322555
-0.322555
-0.322555
-0.322555
-0.322555
-0.322555
-0.322555
-0.322555
-0.322555
-0.322555
-0.322555
-0.322555
-0.322555
-0.322555
-0.322555
-0.322555
-0.322555
-0.322555
-0.322555
-0.322555
-0.322555
-0.322555
-0.322555
-0.322555
-0.322555
-0.322555
-0.322555
-0.322555
-0.322555
-0.322555
-0.322555
-0.322555
-0.322555
-0.322555
-0.322555
-0.322555
-0.322555
-0.322555
-0.322555
-0.322555
-0.322555
-0.322555
-0.322555
-0.322555
-0.322555
-0.322555
-0.322555
-0.322555
-0.322555
-0.322555
-0.322555
-0.322555
-0.322555
-0.322555
-0.322555
-0.322555
-0.322555
-0.322555
-0.322555
-0.322555
-0.322555
-0.322555
-0.322555
-0.322555
-0.322555
-0.322555
-0.322555
-0.322555
-0.322555
-0.322555
-0.322555
-0.322555
-0.322555
-0.322555
-0.322555
-0.322555
-0.322555
-0.322555
-0.322555
-0.322555
-0.322555
-0.322555
-0.322555
-0.322555
-0.322555
-0.322555
-0.322555
-0.322555
-0.322555
-0.322555
-0.322555
-0.322555
-0.322555
-0.322555
-0.322555
-0.322555
-0.322555
-0.322555
-0.322555
-0.322555
-0.322555
-0.322555
-0.322555
-0.322555
-0.322555
-0.322555
-0.322555
-0.322555
-0.322555
-0.322555
-0.322555
-0.322555
-0.322555
-0.322555
-0.322555
-0.322555
-0.322555
-0.322555
-0.322555
-0.322555
-0.322555
-0.322555
-0.322555
-0.322555
-0.322555
-0.322555
-0.322555
-0.322555
-0.322555
-0.322555
-0.322555
-0.322555
-0.322555
-0.322555
-0.322555
-0.322555
-0.322555
-0.322555
-0.322555
-0.322555
-0.322555
-0.322555
-0.322555
-0.322555
-0.322555
-0.322555
-0.322555
-0.322555
-0.322555
-0.322555
-0.322555
-0.322555
-0.322555
-0.322555
-0.322555
-0.322555
-0.322555
-0.322555
-0.322555
-0.322555
-0.322555
-0.322555
-0.322555
-0.322555
-0.322555
-0.322555
-0.322555
-0.322555
-0.322555
-0.322555
-0.322555
-0.322555
-0.322555
-0.322555
-0.322555
-0.322555
-0.322555
-0.322555
-0.322555
-0.322555
-0.322555
-0.322555
-0.322555
-0.322555
-0.322555
-0.322555
-0.322555
-0.322555
-0.322555
-0.322555
-0.322555
-0.322555
-0.322555
-0.322555
-0.322555
-0.322555
-0.322555
-0.322555
-0.322555
-0.322555
-0.322555
-0.322555
-0.322555
-0.322555
-0.322555
-0.322555
-0.322555
-0.322555
-0.322555
-0.322555
-0.322555
-0.322555
-0.322555
-0.322555
-0.322555
-0.322555
-0.322555
-0.322555
-0.322555
-0.322555
-0.322555
-0.322555
-0.322555
-0.322555
-0.322555
-0.322555
-0.322555
-0.322555
-0.322555
-0.322555
-0.322555
-0.322555
-0.322555
-0.322555
-0.322555
-0.322555
-0.322555
-0.322555
-0.322555
-0.322555
-0.322555
-0.322555
-0.322555
-0.322555
-0.322555
-0.322555
-0.322555
-0.322555
-0.322555
-0.322555
-0.322555
-0.322555
-0.322555
-0.322555
-0.322555
-0.322555
-0.322555
-0.322555
-0.322555
-0.322555
-0.322555
-0.322555
-0.322555
-0.322555
-0.322555
-0.322555
-0.322555
-0.322555
-0.322555
-0.322555
-0.322555
-0.322555
-0.322555
-0.322555
-0.322555
-0.322555
-0.322555
-0.322555
-0.322555
-0.322555
-0.322555
-0.322555
-0.322555
-0.322555
-0.322555
-0.322555
-0.322555
-0.322555
-0.322555
-0.322555
-0.322555
-0.322555
-0.322555
-0.322555
-0.322555
-0.322555
-0.322555
-0.322555
-0.322555
-0.322555
-0.322555
-0.322555
-0.322555
-0.322555
-0.322555
-0.322555
-0.322555
-0.322555
-0.322555
-0.322555
-0.322555
-0.322555
-0.322555
-0.322555
-0.322555
-0.322555
-0.322555
-0.322555
-0.322555
-0.322555
-0.322555
-0.322555
-0.322555
-0.322555
-0.322555
-0.322555
-0.322555
-0.322555
-0.322555
-0.322555
-0.322555
-0.322555
-0.322555
-0.322555
-0.322555
-0.322555
-0.322555
-0.322555
-0.322555
-0.322555
-0.322555
-0.322555
-0.322555
-0.322555
-0.322555
-0.322555
-0.322555
-0.322555
-0.322555
-0.322555
-0.322555
-0.322555
-0.322555
-0.322555
-0.322555
-0.322555
-0.322555
-0.322555
-0.322555
-0.322555
-0.322555
-0.322555
-0.322555
-0.322555
-0.322555
-0.322555
-0.322555
-0.322555
-0.322555
-0.322555
-0.322555
-0.322555
-0.322555
-0.322555
-0.322555
-0.322555
-0.322555
-0.322555
-0.322555
-0.322555
-0.322555
-0.322555
-0.322555
-0.322555
-0.322555
-0.322555
-0.322555
-0.322555
-0.322555
-0.322555
-0.322555
-0.322555
-0.322555
-0.322555
-0.322555
-0.322555
-0.322555
-0.322555
-0.322555
-0.322555
-0.322555
-0.322555
-0.322555
-0.322555
-0.322555
-0.322555
-0.322555
-0.322555
-0.322555
-0.322555
-0.322555
-0.322555
-0.322555
-0.322555
-0.322555
-0.322555
-0.322555
-0.322555
-0.322555
-0.322555
-0.322555
-0.322555
-0.322555
-0.322555
-0.322555
-0.322555
-0.322555
-0.322555
-0.322555
-0.322555
-0.322555
-0.322555
-0.322555
-0.322555
-0.322555
-0.322555
-0.322555
-0.322555
-0.322555
-0.322555
-0.322555
-0.322555
-0.322555
-0.322555
-0.322555
-0.322555
-0.322555
-0.322555
-0.322555
-0.322555
-0.322555
-0.322555
-0.322555
-0.322555
-0.322555
-0.322555
-0.322555
-0.322555
-0.322555
-0.322555
-0.322555
-0.322555
-0.322555
-0.322555
-0.322555
-0.322555
-0.322555
-0.322555
-0.322555
-0.322555
-0.322555
-0.322555
-0.322555
-0.322555
-0.322555
-0.322555
-0.322555
-0.322555
-0.322555
-0.322555
-0.322555
0.322555
0.322555
0.322555
0.322555
0.322555
0.322555
0.322555
0.322555
0.322555
0.322555
0.322555
0.322555
0.322555
0.322555
0.322555
0.322555
0.322555
0.322555
0.322555
0.322555
0.322555
0.322555
0.322555
0.322555
0.322555
0.322555
0.322555
0.322555
0.322555
0.322555
0.322555
0.322555
0.322555
0.322555
0.322555
0.322555
0.322555
0.322555
0.322555
0.322555
0.322555
0.322555
0.322555
0.322555
0.322555
0.322555
0.322555
0.322555
0.322555
0.322555
0.322555
0.322555
0.322555
0.322555
0.322555
0.322555
0.322555
0.322555
0.322555
0.322555
0.322555
0.322555
0.322555
0.322555
0.322555
0.322555
0.322555
0.322555
0.322555
0.322555
0.322555
0.322555
0.322555
0.322555
0.322555
0.322555
0.322555
0.322555
0.322555
0.322555
0.322555
0.322555
0.322555
0.322555
0.322555
0.322555
0.322555
0.322555
0.322555
0.322555
0.322555
0.322555
0.322555
0.322555
0.322555
0.322555
0.322555
0.322555
0.322555
0.322555
0.322555
0.322555
0.322555
0.322555
0.322555
0.322555
0.322555
0.322555
0.322555
0.322555
0.322555
0.322555
0.322555
0.322555
0.322555
0.322555
0.322555
0.322555
0.322555
0.322555
0.322555
0.322555
0.322555
0.322555
0.322555
0.322555
0.322555
0.322555
0.322555
0.322555
0.322555
0.322555
0.322555
0.322555
0.322555
0.322555
0.322555
0.322555
0.322555
0.322555
0.322555
0.322555
0.322555
0.322555
0.322555
0.322555
0.322555
0.322555
0.322555
0.322555
0.322555
0.322555
0.322555
0.322555
0.322555
0.322555
0.322555
0.322555
0.322555
0.322555
0.322555
0.322555
0.322555
0.322555
0.322555
0.322555
0.322555
0.322555
0.322555
0.322555
0.322555
0.322555
0.322555
0.322555
0.322555
0.322555
0.322555
0.322555
0.322555
0.322555
0.322555
0.322555
0.322555
0.322555
0.322555
0.322555
0.322555
0.322555
0.322555
0.322555
0.322555
0.322555
0.322555
0.322555
0.322555
0.322555
0.322555
0.322555
0.322555
0.322555
0.322555
0.322555
0.322555
0.322555
0.322555
0.322555
0.322555
0.322555
0.322555
0.322555
0.322555
0.322555
0.322555
0.322555
0.322555
0.322555
0.322555
0.322555
0.322555
0.322555
0.322555
0.322555
0.322555
0.322555
0.322555
0.322555
0.322555
0.322555
0.322555
0.322555
0.322555
0.322555
0.322555
0.322555
0.322555
0.322555
0.322555
0.322555
0.322555
0.322555
0.322555
0.322555
0.322555
0.322555
0.322555
0.322555
0.322555
0.322555
0.322555
0.322555
0.322555
0.322555
0.322555
0.322555
0.322555
0.322555
0.322555
0.322555
0.322555
0.322555
0.322555
0.322555
0.322555
0.322555
0.322555
0.322555
0.322555
0.322555
0.322555
0.322555
0.322555
0.322555
0.322555
0.322555
0.322555
0.322555
0.322555
0.322555
0.322555
0.322555
0.322555
0.322555
0.322555
0.322555
0.322555
0.322555
0.322555
0.322555
0.322555
0.322555
0.322555
0.322555
0.322555
0.322555
0.322555
0.322555
0.322555
0.322555
0.322555
0.322555
0.322555
0.322555
0.322555
0.322555
0.322555
0.322555
0.322555
0.322555
0.322555
0.322555
0.322555
0.322555
0.322555
0.322555
0.322555
0.322555
0.322555
0.322555
0.322555
0.322555
0.322555
0.322555
0.322555
0.322555
0.322555
0.322555
0.322555
0.322555
0.322555
0.322555
0.322555
0.322555
0.322555
0.322555
0.322555
0.322555
