-0.118499
-0.118499
-0.118499
-0.118499
-0.118499
-0.118499
-0.118499
-0.118499
-0.118499
-0.118499
-0.118499
-0.118499
-0.118499
-0.118499
-0.118499
-0.118499
-0.118499
-0.118499
-0.118499
-0.118499
-0.118499
-0.118499
-0.118499
-0.118499
-0.118499
-0.118499
-0.118499
-0.118499
-0.118499
-0.118499
-0.118499
-0.118499
-0.118499
-0.118499
-0.118499
-0.118499
-0.118499
-0.118499
-0.118499
-0.118499
-0.118499
-0.118499
-0.118499
-0.118499
-0.118499
-0.118499
-0.118499
-0.118499
-0.118499
-0.118499
-0.118499
-0.118499
-0.118499
-0.118499
-0.118499
-0.118499
-0.118499
-0.118499
-0.118499
-0.118499
-0.118499
-0.118499
-0.118499
-0.118499
-0.118499
-0.118499
-0.118499
-0.118499
-0.118499
-0.118499
-0.118499
-0.118499
-0.118499
-0.118499
-0.118499
-0.118499
-0.118499
-0.118499
-0.118499
-0.118499
-0.118499
-0.118499
-0.118499
-0.118499
-0.118499
-0.118499
-0.118499
-0.118499
-0.118499
-0.118499
-0.118499
-0.118499
-0.118499
-0.118499
-0.118499
-0.118499
-0.118499
-0.118499
-0.118499
-0.118499
-0.118499
-0.118499
-0.118499
-0.118499
-0.118499
-0.118499
-0.118499
-0.118499
-0.118499
-0.118499
-0.118499
-0.118499
-0.118499
-0.118499
-0.118499
-0.118499
-0.118499
-0.118499
-0.118499
-0.118499
-0.118499
-0.118499
-0.118499
-0.118499
-0.118499
-0.118499
-0.118499
-0.118499
-0.118499
-0.118499
-0.118499
-0.118499
-0.118499
-0.118499
-0.118499
-0.118499
-0.118499
-0.118499
-0.118499
-0.118499
-0.118499
-0.118499
-0.118499
-0.118499
-0.118499
-0.118499
-0.118499
-0.118499
-0.118499
-0.118499
-0.118499
-0.118499
-0.118499
-0.118499
-0.118499
-0.118499
-0.118499
-0.118499
-0.118499
-0.118499
-0.118499
-0.118499
-0.118499
-0.118499
-0.118499
-0.118499
-0.0394998
-0.0394998
-0.0394998
-0.0394998
-0.0394998
-0.0394998
-0.0394998
-0.0394998
-0.0394998
-0.0394998
-0.0394998
-0.0394998
-0.0394998
-0.0394998
-0.0394998
-0.0394998
-0.0394998
-0.0394998
-0.0394998
-0.0394998
-0.0394998
-0.0394998
-0.0394998
-0.0394998
-0.0394998
-0.0394998
-0.0394998
-0.0394998
-0.0394998
-0.0394998
-0.0394998
-0.0394998
-0.0394998
-0.0394998
-0.0394998
-0.0394998
-0.0394998
-0.0394998
-0.0394998
-0.0394998
-0.0394998
-0.0394998
-0.0394998
-0.0394998
-0.0394998
-0.0394998
-0.0394998
-0.0394998
-0.0394998
-0.0394998
-0.0394998
-0.0394998
-0.0394998
-0.0394998
-0.0394998
-0.0394998
0.0394998
0.0394998
0.0394998
0.0394998
0.0394998
0.0394998
0.0394998
0.0394998
0.0394998
0.0394998
0.0394998
0.0394998
0.0394998
0.0394998
0.0394998
0.0394998
0.0394998
0.0394998
0.0394998
0.0394998
0.0394998
0.0394998
0.0394998
0.0394998
0.0394998
0.0394998
0.0394998
0.0394998
0.0394998
0.0394998
0.0394998
0.0394998
0.0394998
0.0394998
0.0394998
0.0394998
0.0394998
0.0394998
0.0394998
0.0394998
0.0394998
0.0394998
0.0394998
0.0394998
0.0394998
0.0394998
0.0394998
0.0394998
0.0394998
0.118499
0.118499
0.118499
0.118499
0.118499
0.118499
0.118499
0.118499
0.118499
0.118499
0.118499
0.118499
0.118499
0.118499
0.118499
0.118499
0.118499
0.118499
0.118499
0.118499
0.118499
0.118499
0.118499
0.118499
0.118499
0.118499
0.118499
0.118499
0.118499
