-0.564065
-0.564065
-0.564065
-0.564065
-0.564065
-0.564065
-0.564065
-0.564065
-0.564065
-0.564065
-0.564065
-0.564065
-0.564065
-0.564065
-0.564065
-0.564065
-0.564065
-0.564065
-0.564065
-0.564065
-0.564065
-0.564065
-0.564065
-0.564065
-0.564065
-0.564065
-0.564065
-0.564065
-0.564065
-0.564065
-0.564065
-0.564065
-0.564065
-0.564065
-0.564065
-0.564065
-0.564065
-0.564065
-0.564065
-0.564065
-0.564065
-0.564065
-0.564065
-0.564065
-0.564065
-0.564065
-0.564065
-0.564065
-0.564065
-0.564065
-0.564065
-0.564065
-0.564065
-0.564065
-0.564065
-0.564065
-0.564065
-0.564065
-0.564065
-0.564065
-0.564065
-0.564065
-0.564065
-0.564065
-0.564065
-0.564065
-0.564065
-0.564065
-0.564065
-0.564065
-0.564065
-0.564065
-0.564065
-0.564065
-0.564065
-0.564065
-0.564065
-0.564065
-0.564065
-0.564065
-0.564065
-0.564065
-0.564065
-0.564065
-0.564065
-0.564065
-0.564065
-0.564065
-0.564065
-0.564065
-0.564065
-0.564065
-0.564065
-0.564065
-0.564065
-0.564065
-0.564065
-0.564065
-0.564065
-0.564065
-0.564065
-0.564065
-0.564065
-0.564065
-0.564065
-0.564065
-0.564065
-0.564065
-0.564065
-0.564065
-0.564065
-0.564065
-0.564065
-0.564065
-0.564065
-0.564065
-0.564065
-0.564065
-0.564065
-0.564065
-0.564065
-0.564065
-0.564065
-0.564065
-0.564065
-0.564065
-0.564065
-0.564065
-0.564065
-0.564065
-0.564065
-0.564065
-0.564065
-0.564065
-0.564065
-0.564065
-0.564065
-0.564065
-0.564065
-0.564065
-0.564065
-0.564065
-0.564065
-0.564065
-0.188022
-0.188022
-0.188022
-0.188022
-0.188022
-0.188022
-0.188022
-0.188022
-0.188022
-0.188022
-0.188022
-0.188022
-0.188022
-0.188022
-0.188022
-0.188022
-0.188022
-0.188022
-0.188022
-0.188022
-0.188022
-0.188022
-0.188022
-0.188022
-0.188022
-0.188022
-0.188022
-0.188022
-0.188022
-0.188022
-0.188022
-0.188022
-0.188022
-0.188022
-0.188022
-0.188022
-0.188022
-0.188022
-0.188022
-0.188022
-0.188022
-0.188022
-0.188022
-0.188022
-0.188022
-0.188022
-0.188022
-0.188022
-0.188022
-0.188022
-0.188022
-0.188022
-0.188022
-0.188022
-0.188022
-0.188022
-0.188022
-0.188022
-0.188022
-0.188022
-0.188022
-0.188022
-0.188022
-0.188022
-0.188022
-0.188022
-0.188022
-0.188022
-0.188022
-0.188022
-0.188022
-0.188022
-0.188022
-0.188022
-0.188022
-0.188022
-0.188022
-0.188022
-0.188022
-0.188022
-0.188022
-0.188022
-0.188022
-0.188022
-0.188022
-0.188022
-0.188022
-0.188022
-0.188022
-0.188022
-0.188022
-0.188022
-0.188022
-0.188022
-0.188022
-0.188022
-0.188022
-0.188022
-0.188022
-0.188022
-0.188022
-0.188022
-0.188022
-0.188022
-0.188022
-0.188022
-0.188022
-0.188022
-0.188022
-0.188022
-0.188022
-0.188022
-0.188022
-0.188022
-0.188022
-0.188022
-0.188022
-0.188022
-0.188022
-0.188022
-0.188022
-0.188022
-0.188022
-0.188022
-0.188022
-0.188022
-0.188022
-0.188022
-0.188022
-0.188022
-0.188022
-0.188022
-0.188022
-0.188022
-0.188022
-0.188022
-0.188022
-0.188022
-0.188022
-0.188022
-0.188022
-0.188022
-0.188022
-0.188022
-0.188022
-0.188022
-0.188022
-0.188022
-0.188022
-0.188022
-0.188022
-0.188022
-0.188022
-0.188022
-0.188022
-0.188022
-0.188022
-0.188022
-0.188022
-0.188022
-0.188022
-0.188022
-0.188022
-0.188022
-0.188022
-0.188022
-0.188022
-0.188022
-0.188022
-0.188022
-0.188022
-0.188022
-0.188022
-0.188022
-0.188022
-0.188022
-0.188022
-0.188022
-0.188022
-0.188022
-0.188022
-0.188022
-0.188022
-0.188022
-0.188022
-0.188022
-0.188022
-0.188022
-0.188022
-0.188022
-0.188022
-0.188022
-0.188022
-0.188022
-0.188022
-0.188022
-0.188022
-0.188022
-0.188022
-0.188022
-0.188022
-0.188022
-0.188022
-0.188022
-0.188022
-0.188022
-0.188022
-0.188022
-0.188022
-0.188022
-0.188022
-0.188022
-0.188022
-0.188022
-0.188022
-0.188022
-0.188022
-0.188022
-0.188022
-0.188022
-0.188022
-0.188022
-0.188022
-0.188022
-0.188022
-0.188022
-0.188022
-0.188022
-0.188022
-0.188022
-0.188022
-0.188022
-0.188022
-0.188022
-0.188022
-0.188022
-0.188022
-0.188022
-0.188022
-0.188022
-0.188022
-0.188022
-0.188022
-0.188022
-0.188022
-0.188022
-0.188022
-0.188022
-0.188022
-0.188022
-0.188022
-0.188022
-0.188022
-0.188022
-0.188022
-0.188022
-0.188022
-0.188022
-0.188022
-0.188022
-0.188022
-0.188022
-0.188022
-0.188022
-0.188022
-0.188022
-0.188022
-0.188022
-0.188022
-0.188022
-0.188022
-0.188022
-0.188022
-0.188022
-0.188022
-0.188022
-0.188022
-0.188022
-0.188022
-0.188022
-0.188022
-0.188022
-0.188022
-0.188022
-0.188022
-0.188022
-0.188022
-0.188022
-0.188022
-0.188022
-0.188022
-0.188022
-0.188022
-0.188022
-0.188022
-0.188022
-0.188022
-0.188022
-0.188022
-0.188022
-0.188022
-0.188022
-0.188022
-0.188022
-0.188022
-0.188022
-0.188022
-0.188022
-0.188022
-0.188022
-0.188022
-0.188022
-0.188022
-0.188022
-0.188022
-0.188022
-0.188022
-0.188022
-0.188022
-0.188022
-0.188022
-0.188022
-0.188022
-0.188022
-0.188022
-0.188022
-0.188022
-0.188022
-0.188022
-0.188022
-0.188022
-0.188022
-0.188022
-0.188022
-0.188022
-0.188022
0.188022
0.188022
0.188022
0.188022
0.188022
0.188022
0.188022
0.188022
0.188022
0.188022
0.188022
0.188022
0.188022
0.188022
0.188022
0.188022
0.188022
0.188022
0.188022
0.188022
0.188022
0.188022
0.188022
0.188022
0.188022
0.188022
0.188022
0.188022
0.188022
0.188022
0.188022
0.188022
0.188022
0.188022
0.188022
0.188022
0.188022
0.188022
0.188022
0.188022
0.188022
0.188022
0.188022
0.188022
0.188022
0.188022
0.188022
0.188022
0.188022
0.188022
0.188022
0.188022
0.188022
0.188022
0.188022
0.188022
0.188022
0.188022
0.188022
0.188022
0.188022
0.188022
0.188022
0.188022
0.188022
0.188022
0.188022
0.188022
0.188022
0.188022
0.188022
0.188022
0.188022
0.188022
0.188022
0.188022
0.188022
0.188022
0.188022
0.188022
0.188022
0.188022
0.188022
0.188022
0.188022
0.188022
0.188022
0.188022
0.188022
0.188022
0.188022
0.188022
0.188022
0.188022
0.188022
0.188022
0.188022
0.188022
0.188022
0.188022
0.188022
0.188022
0.188022
0.188022
0.188022
0.188022
0.188022
0.188022
0.188022
0.188022
0.188022
0.188022
0.188022
0.188022
0.188022
0.188022
0.188022
0.188022
0.188022
0.188022
0.188022
0.188022
0.188022
0.188022
0.188022
0.188022
0.188022
0.188022
0.188022
0.188022
0.188022
0.188022
0.188022
0.188022
0.188022
0.188022
0.188022
0.188022
0.188022
0.188022
0.188022
0.188022
0.188022
0.188022
0.188022
0.188022
0.188022
0.188022
0.188022
0.188022
0.188022
0.188022
0.188022
0.188022
0.188022
0.188022
0.188022
0.188022
0.188022
0.188022
0.188022
0.188022
0.188022
0.188022
0.188022
0.188022
0.188022
0.188022
0.188022
0.188022
0.188022
0.188022
0.188022
0.188022
0.188022
0.188022
0.188022
0.188022
0.188022
0.188022
0.188022
0.188022
0.188022
0.188022
0.188022
0.188022
0.188022
0.188022
0.188022
0.188022
0.188022
0.188022
0.188022
0.188022
0.188022
0.188022
0.188022
0.188022
0.188022
0.188022
0.188022
0.188022
0.188022
0.188022
0.188022
0.188022
0.188022
0.188022
0.188022
0.188022
0.188022
0.188022
0.188022
0.188022
0.188022
0.188022
0.188022
0.188022
0.188022
0.188022
0.188022
0.188022
0.188022
0.188022
0.188022
0.188022
0.188022
0.188022
0.188022
0.188022
0.188022
0.188022
0.188022
0.188022
0.188022
0.188022
0.188022
0.188022
0.188022
0.188022
0.188022
0.188022
0.188022
0.188022
0.188022
0.188022
0.188022
0.188022
0.188022
0.188022
0.188022
0.188022
0.188022
0.188022
0.188022
0.188022
0.188022
0.188022
0.188022
0.188022
0.188022
0.188022
0.188022
0.188022
0.188022
0.188022
0.188022
0.188022
0.188022
0.188022
0.188022
0.188022
0.188022
0.188022
0.188022
0.188022
0.188022
0.188022
0.188022
0.188022
0.188022
0.188022
0.188022
0.188022
0.188022
0.188022
0.188022
0.188022
0.188022
0.188022
0.188022
0.188022
0.188022
0.188022
0.188022
0.188022
0.188022
0.188022
0.188022
0.188022
0.564065
0.564065
0.564065
0.564065
0.564065
0.564065
0.564065
0.564065
0.564065
0.564065
0.564065
0.564065
0.564065
0.564065
0.564065
0.564065
0.564065
0.564065
0.564065
0.564065
0.564065
0.564065
0.564065
0.564065
0.564065
0.564065
0.564065
0.564065
0.564065
0.564065
0.564065
0.564065
0.564065
0.564065
0.564065
0.564065
0.564065
0.564065
0.564065
0.564065
0.564065
0.564065
0.564065
0.564065
0.564065
0.564065
0.564065
0.564065
0.564065
0.564065
0.564065
0.564065
0.564065
0.564065
0.564065
0.564065
0.564065
0.564065
0.564065
0.564065
