-0.137918
-0.137918
-0.137918
-0.137918
-0.137918
-0.137918
-0.137918
-0.137918
-0.137918
-0.137918
-0.137918
-0.137918
-0.137918
-0.137918
-0.137918
-0.137918
-0.0459726
-0.0459726
-0.0459726
-0.0459726
-0.0459726
-0.0459726
-0.0459726
-0.0459726
-0.0459726
-0.0459726
-0.0459726
-0.0459726
-0.0459726
-0.0459726
-0.0459726
-0.0459726
-0.0459726
-0.0459726
-0.0459726
-0.0459726
-0.0459726
-0.0459726
-0.0459726
-0.0459726
-0.0459726
-0.0459726
-0.0459726
-0.0459726
-0.0459726
-0.0459726
-0.0459726
-0.0459726
-0.0459726
-0.0459726
-0.0459726
-0.0459726
-0.0459726
-0.0459726
-0.0459726
-0.0459726
-0.0459726
-0.0459726
-0.0459726
-0.0459726
-0.0459726
-0.0459726
-0.0459726
-0.0459726
-0.0459726
-0.0459726
-0.0459726
-0.0459726
-0.0459726
-0.0459726
-0.0459726
-0.0459726
-0.0459726
-0.0459726
-0.0459726
-0.0459726
-0.0459726
-0.0459726
-0.0459726
-0.0459726
-0.0459726
-0.0459726
-0.0459726
0.0459726
0.0459726
0.0459726
0.0459726
0.0459726
0.0459726
0.0459726
0.0459726
0.0459726
0.0459726
0.0459726
0.0459726
0.0459726
0.0459726
0.0459726
0.0459726
0.0459726
0.0459726
0.0459726
0.0459726
0.0459726
0.0459726
0.0459726
0.0459726
0.0459726
0.0459726
0.0459726
0.0459726
0.0459726
0.0459726
0.0459726
0.0459726
0.0459726
0.0459726
0.0459726
0.0459726
0.0459726
0.0459726
0.0459726
0.0459726
0.0459726
0.0459726
0.0459726
0.137918
0.137918
0.137918
0.137918
0.137918
0.137918
0.137918
0.137918
0.137918
0.137918
0.137918
0.137918
0.137918
0.137918
0.137918
0.137918
0.137918
0.137918
0.137918
0.137918
0.137918
0.137918
0.137918
0.137918
