-0.824644
-0.824644
-0.824644
-0.824644
-0.824644
-0.824644
-0.824644
-0.824644
-0.824644
-0.824644
-0.824644
-0.824644
-0.824644
-0.824644
-0.824644
-0.824644
-0.824644
-0.824644
-0.824644
-0.824644
-0.824644
-0.824644
-0.824644
-0.824644
-0.824644
-0.824644
-0.824644
-0.824644
-0.824644
-0.824644
-0.824644
-0.824644
-0.824644
-0.824644
-0.824644
-0.824644
-0.824644
-0.274881
-0.274881
-0.274881
-0.274881
-0.274881
-0.274881
-0.274881
-0.274881
-0.274881
-0.274881
-0.274881
-0.274881
-0.274881
-0.274881
-0.274881
-0.274881
-0.274881
-0.274881
-0.274881
-0.274881
-0.274881
-0.274881
-0.274881
-0.274881
-0.274881
-0.274881
-0.274881
-0.274881
-0.274881
-0.274881
-0.274881
-0.274881
-0.274881
-0.274881
-0.274881
-0.274881
-0.274881
-0.274881
-0.274881
-0.274881
-0.274881
-0.274881
-0.274881
-0.274881
-0.274881
-0.274881
-0.274881
-0.274881
-0.274881
-0.274881
-0.274881
-0.274881
-0.274881
-0.274881
-0.274881
-0.274881
-0.274881
-0.274881
-0.274881
-0.274881
-0.274881
-0.274881
-0.274881
-0.274881
-0.274881
-0.274881
-0.274881
-0.274881
-0.274881
-0.274881
-0.274881
-0.274881
-0.274881
-0.274881
-0.274881
-0.274881
-0.274881
-0.274881
-0.274881
-0.274881
-0.274881
-0.274881
-0.274881
-0.274881
-0.274881
-0.274881
-0.274881
-0.274881
-0.274881
-0.274881
-0.274881
-0.274881
-0.274881
-0.274881
-0.274881
-0.274881
-0.274881
-0.274881
-0.274881
-0.274881
-0.274881
-0.274881
-0.274881
-0.274881
-0.274881
-0.274881
-0.274881
-0.274881
-0.274881
-0.274881
-0.274881
-0.274881
-0.274881
-0.274881
-0.274881
-0.274881
-0.274881
-0.274881
-0.274881
-0.274881
-0.274881
-0.274881
-0.274881
-0.274881
-0.274881
-0.274881
-0.274881
-0.274881
-0.274881
-0.274881
-0.274881
-0.274881
-0.274881
-0.274881
-0.274881
-0.274881
-0.274881
-0.274881
-0.274881
-0.274881
-0.274881
-0.274881
-0.274881
-0.274881
-0.274881
-0.274881
-0.274881
-0.274881
-0.274881
-0.274881
-0.274881
-0.274881
-0.274881
-0.274881
-0.274881
-0.274881
-0.274881
-0.274881
-0.274881
-0.274881
-0.274881
-0.274881
-0.274881
-0.274881
-0.274881
-0.274881
-0.274881
-0.274881
-0.274881
-0.274881
-0.274881
-0.274881
-0.274881
-0.274881
-0.274881
-0.274881
-0.274881
-0.274881
-0.274881
-0.274881
-0.274881
-0.274881
-0.274881
-0.274881
-0.274881
-0.274881
-0.274881
-0.274881
-0.274881
-0.274881
-0.274881
-0.274881
-0.274881
-0.274881
-0.274881
-0.274881
-0.274881
-0.274881
-0.274881
-0.274881
-0.274881
-0.274881
-0.274881
-0.274881
-0.274881
-0.274881
-0.274881
-0.274881
-0.274881
-0.274881
-0.274881
-0.274881
-0.274881
-0.274881
-0.274881
-0.274881
-0.274881
-0.274881
-0.274881
-0.274881
-0.274881
-0.274881
-0.274881
-0.274881
-0.274881
-0.274881
-0.274881
-0.274881
-0.274881
-0.274881
-0.274881
-0.274881
-0.274881
-0.274881
-0.274881
-0.274881
-0.274881
-0.274881
-0.274881
-0.274881
-0.274881
-0.274881
-0.274881
-0.274881
-0.274881
-0.274881
-0.274881
-0.274881
-0.274881
-0.274881
-0.274881
-0.274881
-0.274881
-0.274881
-0.274881
-0.274881
-0.274881
-0.274881
-0.274881
-0.274881
-0.274881
-0.274881
-0.274881
-0.274881
-0.274881
-0.274881
-0.274881
-0.274881
-0.274881
-0.274881
-0.274881
-0.274881
-0.274881
-0.274881
-0.274881
-0.274881
-0.274881
-0.274881
-0.274881
-0.274881
-0.274881
-0.274881
-0.274881
-0.274881
-0.274881
-0.274881
-0.274881
-0.274881
-0.274881
-0.274881
-0.274881
-0.274881
-0.274881
-0.274881
-0.274881
-0.274881
-0.274881
-0.274881
-0.274881
-0.274881
-0.274881
-0.274881
-0.274881
-0.274881
-0.274881
-0.274881
-0.274881
-0.274881
-0.274881
-0.274881
-0.274881
-0.274881
-0.274881
-0.274881
-0.274881
-0.274881
-0.274881
-0.274881
-0.274881
-0.274881
-0.274881
-0.274881
-0.274881
-0.274881
-0.274881
-0.274881
-0.274881
-0.274881
-0.274881
-0.274881
-0.274881
-0.274881
-0.274881
-0.274881
-0.274881
-0.274881
-0.274881
-0.274881
-0.274881
-0.274881
-0.274881
-0.274881
-0.274881
-0.274881
-0.274881
-0.274881
-0.274881
-0.274881
-0.274881
-0.274881
-0.274881
-0.274881
-0.274881
-0.274881
-0.274881
-0.274881
-0.274881
-0.274881
-0.274881
-0.274881
-0.274881
-0.274881
-0.274881
-0.274881
-0.274881
-0.274881
-0.274881
-0.274881
-0.274881
-0.274881
-0.274881
-0.274881
-0.274881
-0.274881
-0.274881
-0.274881
-0.274881
-0.274881
-0.274881
-0.274881
-0.274881
-0.274881
-0.274881
-0.274881
-0.274881
-0.274881
-0.274881
-0.274881
-0.274881
-0.274881
-0.274881
-0.274881
-0.274881
-0.274881
-0.274881
-0.274881
-0.274881
-0.274881
-0.274881
-0.274881
-0.274881
-0.274881
-0.274881
-0.274881
-0.274881
-0.274881
-0.274881
-0.274881
-0.274881
-0.274881
-0.274881
-0.274881
-0.274881
-0.274881
-0.274881
-0.274881
-0.274881
-0.274881
-0.274881
-0.274881
-0.274881
-0.274881
-0.274881
-0.274881
-0.274881
-0.274881
-0.274881
-0.274881
-0.274881
-0.274881
-0.274881
-0.274881
-0.274881
-0.274881
-0.274881
-0.274881
-0.274881
-0.274881
-0.274881
-0.274881
-0.274881
-0.274881
-0.274881
-0.274881
-0.274881
-0.274881
-0.274881
-0.274881
-0.274881
-0.274881
-0.274881
-0.274881
-0.274881
-0.274881
-0.274881
-0.274881
-0.274881
-0.274881
-0.274881
-0.274881
0.274881
0.274881
0.274881
0.274881
0.274881
0.274881
0.274881
0.274881
0.274881
0.274881
0.274881
0.274881
0.274881
0.274881
0.274881
0.274881
0.274881
0.274881
0.274881
0.274881
0.274881
0.274881
0.274881
0.274881
0.274881
0.274881
0.274881
0.274881
0.274881
0.274881
0.274881
0.274881
0.274881
0.274881
0.274881
0.274881
0.274881
0.274881
0.274881
0.274881
0.274881
0.274881
0.274881
0.274881
0.274881
0.274881
0.274881
0.274881
0.274881
0.274881
0.274881
0.274881
0.274881
0.274881
0.274881
0.274881
0.274881
0.274881
0.274881
0.274881
0.274881
0.274881
0.274881
0.274881
0.274881
0.274881
0.274881
0.274881
0.274881
0.274881
0.274881
0.274881
0.274881
0.274881
0.274881
0.274881
0.274881
0.274881
0.274881
0.274881
0.274881
0.274881
0.274881
0.274881
0.274881
0.274881
0.274881
0.274881
0.274881
0.274881
0.274881
0.274881
0.274881
0.274881
0.274881
0.274881
0.274881
0.274881
0.274881
0.274881
0.274881
0.274881
0.274881
0.274881
0.274881
0.274881
0.274881
0.274881
0.274881
0.274881
0.274881
0.274881
0.274881
0.274881
0.274881
0.274881
0.274881
0.274881
0.274881
0.274881
0.274881
0.274881
0.274881
0.274881
0.274881
0.274881
0.274881
0.274881
0.274881
0.274881
0.274881
0.274881
0.274881
0.274881
0.274881
0.274881
0.274881
0.274881
0.274881
0.274881
0.274881
0.274881
0.274881
0.274881
0.274881
0.274881
0.274881
0.274881
0.274881
0.274881
0.274881
0.274881
0.274881
0.274881
0.274881
0.274881
0.274881
0.274881
0.274881
0.274881
0.274881
0.274881
0.274881
0.274881
0.274881
0.274881
0.274881
0.274881
0.274881
0.274881
0.274881
0.274881
0.274881
0.274881
0.274881
0.274881
0.274881
0.274881
0.274881
0.274881
0.274881
0.274881
0.274881
0.274881
0.274881
0.274881
0.274881
0.274881
0.274881
0.274881
0.274881
0.274881
0.274881
0.274881
0.274881
0.274881
0.274881
0.274881
0.274881
0.274881
0.274881
0.274881
0.274881
0.274881
0.274881
0.274881
0.274881
0.274881
0.274881
0.274881
0.274881
0.274881
0.274881
0.274881
0.274881
0.274881
0.274881
0.274881
0.274881
0.274881
0.274881
0.274881
0.274881
0.274881
0.274881
0.274881
0.274881
0.274881
0.274881
0.274881
0.274881
0.274881
0.274881
0.274881
0.274881
0.274881
0.274881
0.274881
0.274881
0.274881
0.274881
0.274881
0.274881
0.274881
0.274881
0.274881
0.274881
0.274881
0.274881
0.274881
0.274881
0.274881
0.274881
0.274881
0.274881
0.274881
0.274881
0.274881
0.274881
0.274881
0.274881
0.274881
0.274881
0.274881
0.274881
0.274881
0.274881
0.274881
0.274881
0.274881
0.274881
0.274881
0.274881
0.274881
0.274881
0.274881
0.274881
0.274881
0.274881
0.274881
0.274881
0.274881
0.274881
0.274881
0.274881
0.274881
0.274881
0.274881
0.274881
0.274881
0.274881
0.274881
0.274881
0.274881
0.274881
0.274881
0.274881
0.274881
0.274881
0.274881
0.274881
0.274881
0.274881
0.274881
0.274881
0.274881
0.274881
0.274881
0.274881
0.274881
0.274881
0.274881
0.274881
0.274881
0.274881
0.274881
0.274881
0.274881
0.274881
0.274881
0.274881
0.274881
0.274881
0.274881
0.274881
0.274881
0.274881
0.274881
0.274881
0.274881
0.274881
0.274881
0.274881
0.274881
0.274881
0.274881
0.274881
0.274881
0.274881
0.824644
0.824644
0.824644
0.824644
