-0.114046
-0.114046
-0.114046
-0.114046
-0.114046
-0.114046
-0.114046
-0.114046
-0.114046
-0.114046
-0.114046
-0.114046
-0.114046
-0.114046
-0.114046
-0.114046
-0.114046
-0.114046
-0.114046
-0.114046
-0.114046
-0.114046
-0.114046
-0.114046
-0.114046
-0.114046
-0.114046
-0.114046
-0.114046
-0.114046
-0.114046
-0.114046
-0.114046
-0.114046
-0.114046
-0.114046
-0.114046
-0.114046
-0.114046
-0.114046
-0.114046
-0.114046
-0.114046
-0.114046
-0.114046
-0.114046
-0.114046
-0.114046
-0.114046
-0.114046
-0.114046
-0.114046
-0.114046
-0.114046
-0.114046
-0.114046
-0.114046
-0.114046
-0.114046
-0.114046
-0.114046
-0.114046
-0.114046
-0.114046
-0.114046
-0.114046
-0.114046
-0.114046
-0.114046
-0.114046
-0.114046
-0.114046
-0.114046
-0.114046
-0.114046
-0.114046
-0.114046
-0.114046
-0.114046
-0.114046
-0.114046
-0.114046
-0.114046
-0.114046
-0.114046
-0.114046
-0.114046
-0.114046
-0.114046
-0.114046
-0.114046
-0.114046
-0.114046
-0.114046
-0.114046
-0.114046
-0.114046
-0.114046
-0.114046
-0.114046
-0.114046
-0.114046
-0.114046
-0.114046
-0.114046
-0.114046
-0.114046
-0.114046
-0.114046
-0.114046
-0.114046
-0.114046
-0.114046
-0.114046
-0.114046
-0.114046
-0.114046
-0.114046
-0.114046
-0.114046
-0.114046
-0.114046
-0.114046
-0.114046
-0.114046
-0.114046
-0.114046
-0.114046
-0.114046
-0.114046
-0.114046
-0.114046
-0.114046
-0.114046
-0.114046
-0.114046
-0.114046
-0.114046
-0.114046
-0.114046
-0.114046
-0.114046
-0.114046
-0.114046
-0.114046
-0.114046
-0.114046
-0.114046
-0.114046
-0.114046
-0.114046
-0.114046
-0.114046
-0.114046
-0.114046
-0.114046
-0.114046
-0.114046
-0.114046
-0.114046
-0.0380155
-0.0380155
-0.0380155
-0.0380155
-0.0380155
-0.0380155
-0.0380155
-0.0380155
-0.0380155
-0.0380155
-0.0380155
-0.0380155
-0.0380155
-0.0380155
-0.0380155
-0.0380155
-0.0380155
-0.0380155
-0.0380155
-0.0380155
-0.0380155
-0.0380155
-0.0380155
-0.0380155
-0.0380155
-0.0380155
-0.0380155
-0.0380155
-0.0380155
-0.0380155
-0.0380155
-0.0380155
-0.0380155
-0.0380155
-0.0380155
-0.0380155
-0.0380155
-0.0380155
-0.0380155
-0.0380155
-0.0380155
-0.0380155
-0.0380155
-0.0380155
-0.0380155
-0.0380155
-0.0380155
-0.0380155
-0.0380155
-0.0380155
-0.0380155
-0.0380155
-0.0380155
-0.0380155
-0.0380155
-0.0380155
-0.0380155
-0.0380155
-0.0380155
-0.0380155
-0.0380155
-0.0380155
-0.0380155
-0.0380155
-0.0380155
-0.0380155
-0.0380155
-0.0380155
-0.0380155
-0.0380155
-0.0380155
-0.0380155
-0.0380155
-0.0380155
-0.0380155
-0.0380155
-0.0380155
-0.0380155
-0.0380155
-0.0380155
-0.0380155
-0.0380155
-0.0380155
-0.0380155
-0.0380155
-0.0380155
-0.0380155
-0.0380155
-0.0380155
-0.0380155
-0.0380155
-0.0380155
-0.0380155
-0.0380155
-0.0380155
-0.0380155
-0.0380155
-0.0380155
-0.0380155
-0.0380155
-0.0380155
-0.0380155
-0.0380155
-0.0380155
-0.0380155
-0.0380155
-0.0380155
-0.0380155
-0.0380155
-0.0380155
-0.0380155
-0.0380155
-0.0380155
-0.0380155
-0.0380155
-0.0380155
-0.0380155
-0.0380155
-0.0380155
-0.0380155
-0.0380155
-0.0380155
-0.0380155
-0.0380155
-0.0380155
-0.0380155
-0.0380155
-0.0380155
-0.0380155
-0.0380155
-0.0380155
-0.0380155
-0.0380155
-0.0380155
-0.0380155
-0.0380155
-0.0380155
-0.0380155
-0.0380155
-0.0380155
-0.0380155
-0.0380155
-0.0380155
-0.0380155
-0.0380155
-0.0380155
-0.0380155
-0.0380155
-0.0380155
-0.0380155
-0.0380155
-0.0380155
-0.0380155
-0.0380155
-0.0380155
-0.0380155
-0.0380155
-0.0380155
-0.0380155
-0.0380155
-0.0380155
-0.0380155
-0.0380155
-0.0380155
-0.0380155
-0.0380155
-0.0380155
-0.0380155
-0.0380155
-0.0380155
-0.0380155
-0.0380155
-0.0380155
-0.0380155
-0.0380155
-0.0380155
-0.0380155
-0.0380155
-0.0380155
-0.0380155
-0.0380155
-0.0380155
-0.0380155
-0.0380155
-0.0380155
-0.0380155
-0.0380155
-0.0380155
-0.0380155
-0.0380155
-0.0380155
-0.0380155
-0.0380155
-0.0380155
-0.0380155
-0.0380155
-0.0380155
-0.0380155
-0.0380155
-0.0380155
-0.0380155
-0.0380155
-0.0380155
-0.0380155
-0.0380155
-0.0380155
-0.0380155
-0.0380155
-0.0380155
-0.0380155
-0.0380155
-0.0380155
-0.0380155
-0.0380155
-0.0380155
-0.0380155
-0.0380155
-0.0380155
-0.0380155
-0.0380155
-0.0380155
-0.0380155
-0.0380155
-0.0380155
-0.0380155
-0.0380155
-0.0380155
-0.0380155
-0.0380155
-0.0380155
-0.0380155
-0.0380155
-0.0380155
-0.0380155
-0.0380155
-0.0380155
-0.0380155
-0.0380155
-0.0380155
-0.0380155
-0.0380155
-0.0380155
-0.0380155
-0.0380155
-0.0380155
-0.0380155
-0.0380155
-0.0380155
-0.0380155
-0.0380155
-0.0380155
-0.0380155
-0.0380155
-0.0380155
-0.0380155
-0.0380155
-0.0380155
-0.0380155
-0.0380155
-0.0380155
-0.0380155
-0.0380155
-0.0380155
-0.0380155
-0.0380155
-0.0380155
-0.0380155
-0.0380155
-0.0380155
-0.0380155
-0.0380155
-0.0380155
-0.0380155
-0.0380155
-0.0380155
-0.0380155
-0.0380155
-0.0380155
-0.0380155
-0.0380155
-0.0380155
-0.0380155
-0.0380155
-0.0380155
-0.0380155
-0.0380155
-0.0380155
-0.0380155
-0.0380155
-0.0380155
-0.0380155
-0.0380155
-0.0380155
-0.0380155
-0.0380155
-0.0380155
-0.0380155
-0.0380155
-0.0380155
-0.0380155
-0.0380155
-0.0380155
-0.0380155
-0.0380155
-0.0380155
-0.0380155
-0.0380155
-0.0380155
-0.0380155
-0.0380155
-0.0380155
-0.0380155
-0.0380155
-0.0380155
-0.0380155
-0.0380155
-0.0380155
-0.0380155
-0.0380155
-0.0380155
-0.0380155
-0.0380155
-0.0380155
-0.0380155
-0.0380155
-0.0380155
-0.0380155
-0.0380155
-0.0380155
-0.0380155
-0.0380155
-0.0380155
-0.0380155
-0.0380155
-0.0380155
-0.0380155
-0.0380155
-0.0380155
-0.0380155
-0.0380155
-0.0380155
-0.0380155
-0.0380155
-0.0380155
-0.0380155
-0.0380155
-0.0380155
-0.0380155
-0.0380155
-0.0380155
-0.0380155
-0.0380155
-0.0380155
-0.0380155
-0.0380155
-0.0380155
-0.0380155
-0.0380155
-0.0380155
-0.0380155
-0.0380155
-0.0380155
-0.0380155
-0.0380155
-0.0380155
-0.0380155
-0.0380155
-0.0380155
-0.0380155
-0.0380155
-0.0380155
-0.0380155
-0.0380155
-0.0380155
-0.0380155
-0.0380155
-0.0380155
-0.0380155
-0.0380155
-0.0380155
-0.0380155
-0.0380155
-0.0380155
-0.0380155
-0.0380155
-0.0380155
-0.0380155
-0.0380155
-0.0380155
-0.0380155
-0.0380155
-0.0380155
-0.0380155
-0.0380155
-0.0380155
-0.0380155
-0.0380155
-0.0380155
-0.0380155
-0.0380155
-0.0380155
-0.0380155
-0.0380155
-0.0380155
-0.0380155
-0.0380155
-0.0380155
-0.0380155
-0.0380155
-0.0380155
-0.0380155
-0.0380155
-0.0380155
-0.0380155
-0.0380155
-0.0380155
-0.0380155
-0.0380155
-0.0380155
-0.0380155
-0.0380155
-0.0380155
-0.0380155
-0.0380155
-0.0380155
-0.0380155
-0.0380155
-0.0380155
-0.0380155
-0.0380155
-0.0380155
-0.0380155
-0.0380155
-0.0380155
-0.0380155
-0.0380155
-0.0380155
-0.0380155
-0.0380155
-0.0380155
-0.0380155
-0.0380155
-0.0380155
-0.0380155
-0.0380155
-0.0380155
-0.0380155
-0.0380155
-0.0380155
-0.0380155
-0.0380155
-0.0380155
-0.0380155
-0.0380155
-0.0380155
-0.0380155
-0.0380155
-0.0380155
-0.0380155
-0.0380155
-0.0380155
-0.0380155
-0.0380155
-0.0380155
-0.0380155
-0.0380155
-0.0380155
-0.0380155
-0.0380155
-0.0380155
-0.0380155
-0.0380155
-0.0380155
-0.0380155
-0.0380155
-0.0380155
-0.0380155
-0.0380155
-0.0380155
-0.0380155
-0.0380155
-0.0380155
-0.0380155
-0.0380155
-0.0380155
-0.0380155
-0.0380155
-0.0380155
-0.0380155
-0.0380155
-0.0380155
-0.0380155
-0.0380155
-0.0380155
-0.0380155
-0.0380155
-0.0380155
-0.0380155
-0.0380155
-0.0380155
-0.0380155
-0.0380155
-0.0380155
-0.0380155
-0.0380155
-0.0380155
-0.0380155
-0.0380155
-0.0380155
-0.0380155
-0.0380155
-0.0380155
-0.0380155
-0.0380155
-0.0380155
-0.0380155
-0.0380155
-0.0380155
-0.0380155
-0.0380155
-0.0380155
-0.0380155
-0.0380155
-0.0380155
-0.0380155
-0.0380155
-0.0380155
-0.0380155
-0.0380155
-0.0380155
-0.0380155
-0.0380155
-0.0380155
-0.0380155
-0.0380155
-0.0380155
-0.0380155
-0.0380155
-0.0380155
-0.0380155
-0.0380155
-0.0380155
-0.0380155
-0.0380155
-0.0380155
-0.0380155
-0.0380155
-0.0380155
-0.0380155
-0.0380155
-0.0380155
-0.0380155
-0.0380155
-0.0380155
-0.0380155
-0.0380155
-0.0380155
-0.0380155
-0.0380155
-0.0380155
-0.0380155
-0.0380155
-0.0380155
-0.0380155
-0.0380155
-0.0380155
-0.0380155
-0.0380155
-0.0380155
-0.0380155
-0.0380155
-0.0380155
-0.0380155
-0.0380155
-0.0380155
-0.0380155
-0.0380155
-0.0380155
-0.0380155
-0.0380155
-0.0380155
-0.0380155
-0.0380155
-0.0380155
-0.0380155
-0.0380155
-0.0380155
-0.0380155
-0.0380155
-0.0380155
-0.0380155
-0.0380155
-0.0380155
-0.0380155
-0.0380155
-0.0380155
-0.0380155
-0.0380155
-0.0380155
-0.0380155
-0.0380155
-0.0380155
-0.0380155
-0.0380155
-0.0380155
-0.0380155
-0.0380155
-0.0380155
-0.0380155
-0.0380155
-0.0380155
-0.0380155
-0.0380155
-0.0380155
-0.0380155
-0.0380155
-0.0380155
-0.0380155
-0.0380155
-0.0380155
-0.0380155
-0.0380155
-0.0380155
-0.0380155
-0.0380155
-0.0380155
-0.0380155
-0.0380155
-0.0380155
-0.0380155
-0.0380155
-0.0380155
-0.0380155
-0.0380155
-0.0380155
-0.0380155
-0.0380155
-0.0380155
-0.0380155
-0.0380155
-0.0380155
-0.0380155
-0.0380155
-0.0380155
-0.0380155
-0.0380155
-0.0380155
-0.0380155
-0.0380155
-0.0380155
-0.0380155
-0.0380155
-0.0380155
-0.0380155
-0.0380155
-0.0380155
-0.0380155
-0.0380155
-0.0380155
-0.0380155
-0.0380155
-0.0380155
-0.0380155
-0.0380155
-0.0380155
-0.0380155
-0.0380155
-0.0380155
-0.0380155
-0.0380155
-0.0380155
-0.0380155
-0.0380155
-0.0380155
-0.0380155
-0.0380155
-0.0380155
-0.0380155
-0.0380155
-0.0380155
-0.0380155
-0.0380155
-0.0380155
-0.0380155
-0.0380155
-0.0380155
-0.0380155
-0.0380155
-0.0380155
-0.0380155
-0.0380155
-0.0380155
-0.0380155
-0.0380155
-0.0380155
-0.0380155
-0.0380155
-0.0380155
-0.0380155
-0.0380155
-0.0380155
-0.0380155
-0.0380155
-0.0380155
-0.0380155
-0.0380155
-0.0380155
-0.0380155
-0.0380155
-0.0380155
-0.0380155
-0.0380155
-0.0380155
-0.0380155
-0.0380155
-0.0380155
-0.0380155
-0.0380155
-0.0380155
-0.0380155
-0.0380155
-0.0380155
-0.0380155
-0.0380155
-0.0380155
-0.0380155
-0.0380155
-0.0380155
-0.0380155
-0.0380155
-0.0380155
-0.0380155
-0.0380155
-0.0380155
-0.0380155
-0.0380155
-0.0380155
-0.0380155
-0.0380155
-0.0380155
-0.0380155
-0.0380155
-0.0380155
-0.0380155
-0.0380155
-0.0380155
-0.0380155
-0.0380155
-0.0380155
-0.0380155
-0.0380155
-0.0380155
-0.0380155
-0.0380155
-0.0380155
-0.0380155
-0.0380155
-0.0380155
-0.0380155
-0.0380155
-0.0380155
-0.0380155
-0.0380155
-0.0380155
-0.0380155
-0.0380155
-0.0380155
-0.0380155
-0.0380155
-0.0380155
-0.0380155
-0.0380155
-0.0380155
-0.0380155
-0.0380155
-0.0380155
-0.0380155
-0.0380155
-0.0380155
-0.0380155
-0.0380155
-0.0380155
-0.0380155
-0.0380155
-0.0380155
-0.0380155
-0.0380155
-0.0380155
-0.0380155
-0.0380155
-0.0380155
-0.0380155
-0.0380155
-0.0380155
-0.0380155
-0.0380155
-0.0380155
-0.0380155
-0.0380155
-0.0380155
-0.0380155
-0.0380155
-0.0380155
-0.0380155
-0.0380155
-0.0380155
-0.0380155
-0.0380155
-0.0380155
-0.0380155
-0.0380155
-0.0380155
-0.0380155
-0.0380155
-0.0380155
-0.0380155
-0.0380155
-0.0380155
-0.0380155
-0.0380155
-0.0380155
-0.0380155
-0.0380155
-0.0380155
-0.0380155
-0.0380155
-0.0380155
-0.0380155
-0.0380155
-0.0380155
-0.0380155
-0.0380155
-0.0380155
-0.0380155
-0.0380155
-0.0380155
-0.0380155
-0.0380155
-0.0380155
-0.0380155
-0.0380155
-0.0380155
-0.0380155
-0.0380155
-0.0380155
-0.0380155
-0.0380155
-0.0380155
-0.0380155
-0.0380155
-0.0380155
-0.0380155
-0.0380155
-0.0380155
-0.0380155
-0.0380155
-0.0380155
-0.0380155
-0.0380155
-0.0380155
-0.0380155
-0.0380155
-0.0380155
-0.0380155
-0.0380155
-0.0380155
-0.0380155
-0.0380155
-0.0380155
-0.0380155
-0.0380155
-0.0380155
-0.0380155
-0.0380155
-0.0380155
-0.0380155
-0.0380155
-0.0380155
-0.0380155
-0.0380155
-0.0380155
-0.0380155
-0.0380155
-0.0380155
-0.0380155
-0.0380155
-0.0380155
-0.0380155
-0.0380155
-0.0380155
-0.0380155
-0.0380155
-0.0380155
-0.0380155
-0.0380155
-0.0380155
-0.0380155
-0.0380155
-0.0380155
-0.0380155
-0.0380155
-0.0380155
-0.0380155
-0.0380155
-0.0380155
-0.0380155
-0.0380155
-0.0380155
-0.0380155
-0.0380155
-0.0380155
-0.0380155
-0.0380155
-0.0380155
-0.0380155
-0.0380155
-0.0380155
-0.0380155
-0.0380155
-0.0380155
-0.0380155
-0.0380155
-0.0380155
-0.0380155
-0.0380155
-0.0380155
-0.0380155
-0.0380155
-0.0380155
-0.0380155
-0.0380155
-0.0380155
-0.0380155
-0.0380155
-0.0380155
-0.0380155
-0.0380155
-0.0380155
-0.0380155
-0.0380155
-0.0380155
-0.0380155
-0.0380155
-0.0380155
-0.0380155
-0.0380155
-0.0380155
-0.0380155
-0.0380155
-0.0380155
-0.0380155
-0.0380155
-0.0380155
-0.0380155
-0.0380155
-0.0380155
-0.0380155
-0.0380155
-0.0380155
-0.0380155
-0.0380155
-0.0380155
-0.0380155
-0.0380155
-0.0380155
-0.0380155
-0.0380155
-0.0380155
-0.0380155
-0.0380155
-0.0380155
-0.0380155
-0.0380155
-0.0380155
-0.0380155
-0.0380155
-0.0380155
-0.0380155
-0.0380155
-0.0380155
-0.0380155
-0.0380155
-0.0380155
-0.0380155
-0.0380155
-0.0380155
-0.0380155
-0.0380155
-0.0380155
-0.0380155
-0.0380155
-0.0380155
-0.0380155
-0.0380155
-0.0380155
-0.0380155
-0.0380155
-0.0380155
-0.0380155
-0.0380155
-0.0380155
-0.0380155
-0.0380155
-0.0380155
-0.0380155
-0.0380155
-0.0380155
-0.0380155
-0.0380155
-0.0380155
-0.0380155
-0.0380155
-0.0380155
-0.0380155
-0.0380155
-0.0380155
-0.0380155
-0.0380155
-0.0380155
-0.0380155
-0.0380155
-0.0380155
-0.0380155
-0.0380155
-0.0380155
-0.0380155
-0.0380155
-0.0380155
-0.0380155
-0.0380155
-0.0380155
-0.0380155
-0.0380155
-0.0380155
-0.0380155
-0.0380155
-0.0380155
-0.0380155
-0.0380155
-0.0380155
-0.0380155
-0.0380155
-0.0380155
-0.0380155
-0.0380155
-0.0380155
-0.0380155
-0.0380155
-0.0380155
-0.0380155
-0.0380155
-0.0380155
-0.0380155
-0.0380155
-0.0380155
-0.0380155
-0.0380155
-0.0380155
-0.0380155
-0.0380155
-0.0380155
-0.0380155
-0.0380155
-0.0380155
-0.0380155
-0.0380155
-0.0380155
0.0380155
0.0380155
0.0380155
0.0380155
0.0380155
0.0380155
0.0380155
0.0380155
0.0380155
0.0380155
0.0380155
0.0380155
0.0380155
0.0380155
0.0380155
0.0380155
0.0380155
0.0380155
0.0380155
0.0380155
0.0380155
0.0380155
0.0380155
0.0380155
0.0380155
0.0380155
0.0380155
0.0380155
0.0380155
0.0380155
0.0380155
0.0380155
0.0380155
0.0380155
0.0380155
0.0380155
0.0380155
0.0380155
0.0380155
0.0380155
0.0380155
0.0380155
0.0380155
0.0380155
0.0380155
0.0380155
0.0380155
0.0380155
0.0380155
0.0380155
0.0380155
0.0380155
0.0380155
0.0380155
0.0380155
0.0380155
0.0380155
0.0380155
0.0380155
0.0380155
0.0380155
0.0380155
0.0380155
0.0380155
0.0380155
0.0380155
0.0380155
0.0380155
0.0380155
0.0380155
0.0380155
0.0380155
0.0380155
0.0380155
0.0380155
0.0380155
0.0380155
0.0380155
0.0380155
0.0380155
0.0380155
0.0380155
0.0380155
0.0380155
0.0380155
0.0380155
0.0380155
0.0380155
0.0380155
0.0380155
0.0380155
0.0380155
0.0380155
0.0380155
0.0380155
0.0380155
0.0380155
0.0380155
0.0380155
0.0380155
0.0380155
0.0380155
0.0380155
0.0380155
0.0380155
0.0380155
0.0380155
0.0380155
0.0380155
0.0380155
0.0380155
0.0380155
0.0380155
0.0380155
0.0380155
0.0380155
0.0380155
0.0380155
0.0380155
0.0380155
0.0380155
0.0380155
0.0380155
0.0380155
0.0380155
0.0380155
0.0380155
0.0380155
0.0380155
0.0380155
0.0380155
0.0380155
0.0380155
0.0380155
0.0380155
0.0380155
0.0380155
0.0380155
0.0380155
0.0380155
0.0380155
0.0380155
0.0380155
0.0380155
0.0380155
0.0380155
0.0380155
0.0380155
0.0380155
0.0380155
0.0380155
0.0380155
0.0380155
0.0380155
0.0380155
0.0380155
0.0380155
0.0380155
0.0380155
0.0380155
0.0380155
0.0380155
0.0380155
0.0380155
0.0380155
0.0380155
0.0380155
0.0380155
0.0380155
0.0380155
0.0380155
0.0380155
0.0380155
0.0380155
0.0380155
0.0380155
0.0380155
0.0380155
0.0380155
0.0380155
0.0380155
0.0380155
0.0380155
0.0380155
0.0380155
0.0380155
0.0380155
0.0380155
0.0380155
0.0380155
0.0380155
0.0380155
0.0380155
0.0380155
0.0380155
0.0380155
0.0380155
0.0380155
0.0380155
0.0380155
0.0380155
0.0380155
0.0380155
0.0380155
0.0380155
0.0380155
0.0380155
0.0380155
0.0380155
0.0380155
0.0380155
0.0380155
0.0380155
0.0380155
0.0380155
0.0380155
0.0380155
0.0380155
0.0380155
0.0380155
0.0380155
0.0380155
0.0380155
0.0380155
0.0380155
0.0380155
0.0380155
0.0380155
0.0380155
0.0380155
0.0380155
0.0380155
0.0380155
0.0380155
0.0380155
0.0380155
0.0380155
0.0380155
0.0380155
0.0380155
0.0380155
0.0380155
0.0380155
0.0380155
0.0380155
0.0380155
0.0380155
0.0380155
0.0380155
0.0380155
0.0380155
0.0380155
0.0380155
0.0380155
0.0380155
0.0380155
0.0380155
0.0380155
0.0380155
0.0380155
0.0380155
0.0380155
0.0380155
0.0380155
0.0380155
0.0380155
0.0380155
0.0380155
0.0380155
0.0380155
0.0380155
0.0380155
0.0380155
0.0380155
0.0380155
0.0380155
0.0380155
0.0380155
0.0380155
0.0380155
0.0380155
0.0380155
0.0380155
0.0380155
0.0380155
0.0380155
0.0380155
0.0380155
0.0380155
0.0380155
0.0380155
0.0380155
0.0380155
0.0380155
0.0380155
0.0380155
0.0380155
0.0380155
0.0380155
0.0380155
0.0380155
0.0380155
0.0380155
0.0380155
0.0380155
0.0380155
0.0380155
0.0380155
0.0380155
0.0380155
0.0380155
0.0380155
0.0380155
0.0380155
0.0380155
0.0380155
0.0380155
0.0380155
0.0380155
0.0380155
0.0380155
0.0380155
0.0380155
0.0380155
0.0380155
0.0380155
0.0380155
0.0380155
0.0380155
0.0380155
0.0380155
0.0380155
0.0380155
0.0380155
0.0380155
0.0380155
0.0380155
0.0380155
0.0380155
0.0380155
0.0380155
0.0380155
0.0380155
0.0380155
0.0380155
0.0380155
0.0380155
0.0380155
0.0380155
0.0380155
0.0380155
0.0380155
0.0380155
0.0380155
0.0380155
0.0380155
0.0380155
0.0380155
0.0380155
0.0380155
0.0380155
0.0380155
0.0380155
0.0380155
0.0380155
0.0380155
0.0380155
0.0380155
0.0380155
0.0380155
0.0380155
0.0380155
0.0380155
0.0380155
0.0380155
0.0380155
0.0380155
0.0380155
0.0380155
0.0380155
0.0380155
0.0380155
0.0380155
0.0380155
0.0380155
0.0380155
0.0380155
0.0380155
0.0380155
0.0380155
0.0380155
0.0380155
0.0380155
0.0380155
0.0380155
0.0380155
0.0380155
0.0380155
0.0380155
0.0380155
0.0380155
0.0380155
0.0380155
0.0380155
0.0380155
0.0380155
0.0380155
0.0380155
0.0380155
0.0380155
0.0380155
0.0380155
0.0380155
0.0380155
0.0380155
0.0380155
0.0380155
0.0380155
0.0380155
0.0380155
0.0380155
0.0380155
0.0380155
0.0380155
0.0380155
0.0380155
0.0380155
0.0380155
0.0380155
0.0380155
0.0380155
0.0380155
0.0380155
0.0380155
0.0380155
0.0380155
0.0380155
0.0380155
0.0380155
0.0380155
0.0380155
0.0380155
0.0380155
0.0380155
0.0380155
0.0380155
0.0380155
0.0380155
0.0380155
0.0380155
0.0380155
0.0380155
0.0380155
0.0380155
0.0380155
0.0380155
0.0380155
0.0380155
0.0380155
0.0380155
0.0380155
0.0380155
0.0380155
0.0380155
0.0380155
0.0380155
0.0380155
0.0380155
0.0380155
0.0380155
0.0380155
0.0380155
0.0380155
0.0380155
0.0380155
0.0380155
0.0380155
0.0380155
0.0380155
0.0380155
0.0380155
0.0380155
0.0380155
0.0380155
0.0380155
0.0380155
0.0380155
0.0380155
0.0380155
0.0380155
0.0380155
0.0380155
0.0380155
0.0380155
0.0380155
0.0380155
0.0380155
0.0380155
0.0380155
0.0380155
0.0380155
0.0380155
0.0380155
0.0380155
0.0380155
0.0380155
0.0380155
0.0380155
0.0380155
0.0380155
0.0380155
0.0380155
0.0380155
0.0380155
0.0380155
0.0380155
0.0380155
0.0380155
0.0380155
0.0380155
0.0380155
0.0380155
0.0380155
0.0380155
0.0380155
0.0380155
0.0380155
0.0380155
0.0380155
0.0380155
0.0380155
0.0380155
0.0380155
0.0380155
0.0380155
0.0380155
0.0380155
0.0380155
0.0380155
0.0380155
0.0380155
0.0380155
0.0380155
0.0380155
0.0380155
0.0380155
0.0380155
0.0380155
0.0380155
0.0380155
0.0380155
0.0380155
0.0380155
0.0380155
0.0380155
0.0380155
0.0380155
0.0380155
0.0380155
0.0380155
0.0380155
0.0380155
0.0380155
0.0380155
0.0380155
0.0380155
0.0380155
0.0380155
0.0380155
0.0380155
0.0380155
0.0380155
0.0380155
0.0380155
0.0380155
0.0380155
0.0380155
0.0380155
0.0380155
0.0380155
0.0380155
0.0380155
0.0380155
0.0380155
0.0380155
0.0380155
0.0380155
0.0380155
0.0380155
0.0380155
0.0380155
0.0380155
0.0380155
0.0380155
0.0380155
0.0380155
0.0380155
0.0380155
0.0380155
0.0380155
0.0380155
0.0380155
0.0380155
0.0380155
0.0380155
0.0380155
0.0380155
0.0380155
0.0380155
0.0380155
0.0380155
0.0380155
0.0380155
0.0380155
0.0380155
0.0380155
0.0380155
0.0380155
0.0380155
0.0380155
0.0380155
0.0380155
0.0380155
0.0380155
0.0380155
0.0380155
0.0380155
0.0380155
0.0380155
0.0380155
0.0380155
0.0380155
0.0380155
0.0380155
0.0380155
0.0380155
0.0380155
0.0380155
0.0380155
0.0380155
0.0380155
0.0380155
0.0380155
0.0380155
0.0380155
0.0380155
0.0380155
0.0380155
0.0380155
0.0380155
0.0380155
0.0380155
0.0380155
0.0380155
0.0380155
0.0380155
0.0380155
0.0380155
0.0380155
0.0380155
0.0380155
0.0380155
0.0380155
0.0380155
0.0380155
0.0380155
0.0380155
0.0380155
0.0380155
0.0380155
0.0380155
0.0380155
0.0380155
0.0380155
0.0380155
0.0380155
0.0380155
0.0380155
0.0380155
0.0380155
0.0380155
0.0380155
0.0380155
0.0380155
0.0380155
0.0380155
0.0380155
0.0380155
0.0380155
0.0380155
0.0380155
0.0380155
0.0380155
0.0380155
0.0380155
0.0380155
0.0380155
0.0380155
0.0380155
0.0380155
0.0380155
0.0380155
0.0380155
0.0380155
0.0380155
0.0380155
0.0380155
0.0380155
0.0380155
0.0380155
0.0380155
0.0380155
0.0380155
0.0380155
0.0380155
0.0380155
0.0380155
0.0380155
0.0380155
0.0380155
0.0380155
0.0380155
0.0380155
0.0380155
0.0380155
0.0380155
0.0380155
0.0380155
0.0380155
0.0380155
0.0380155
0.0380155
0.0380155
0.0380155
0.0380155
0.0380155
0.0380155
0.0380155
0.0380155
0.0380155
0.0380155
0.0380155
0.0380155
0.0380155
0.0380155
0.0380155
0.0380155
0.0380155
0.0380155
0.0380155
0.0380155
0.0380155
0.0380155
0.0380155
0.0380155
0.0380155
0.0380155
0.0380155
0.0380155
0.0380155
0.0380155
0.0380155
0.0380155
0.0380155
0.0380155
0.0380155
0.0380155
0.0380155
0.0380155
0.0380155
0.0380155
0.0380155
0.0380155
0.0380155
0.0380155
0.0380155
0.0380155
0.0380155
0.0380155
0.0380155
0.0380155
0.0380155
0.0380155
0.0380155
0.0380155
0.0380155
0.0380155
0.0380155
0.0380155
0.0380155
0.0380155
0.0380155
0.0380155
0.0380155
0.0380155
0.0380155
0.0380155
0.0380155
0.0380155
0.0380155
0.0380155
0.0380155
0.0380155
0.0380155
0.0380155
0.0380155
0.0380155
0.0380155
0.0380155
0.0380155
0.0380155
0.0380155
0.0380155
0.0380155
0.0380155
0.0380155
0.0380155
0.0380155
0.0380155
0.0380155
0.0380155
0.0380155
0.0380155
0.0380155
0.0380155
0.0380155
0.0380155
0.0380155
0.0380155
0.0380155
0.0380155
0.0380155
0.0380155
0.0380155
0.0380155
0.0380155
0.0380155
0.0380155
0.0380155
0.0380155
0.0380155
0.0380155
0.0380155
0.0380155
0.0380155
0.0380155
0.0380155
0.0380155
0.0380155
0.0380155
0.0380155
0.0380155
0.0380155
0.0380155
0.0380155
0.0380155
0.0380155
0.0380155
0.0380155
0.0380155
0.0380155
0.0380155
0.0380155
0.0380155
0.0380155
0.0380155
0.0380155
0.0380155
0.0380155
0.0380155
0.0380155
0.0380155
0.0380155
0.0380155
0.0380155
0.0380155
0.0380155
0.0380155
0.0380155
0.0380155
0.0380155
0.0380155
0.0380155
0.0380155
0.0380155
0.0380155
0.0380155
0.0380155
0.0380155
0.0380155
0.0380155
0.0380155
0.0380155
0.0380155
0.0380155
0.0380155
0.0380155
0.0380155
0.0380155
0.0380155
0.0380155
0.0380155
0.0380155
0.0380155
0.0380155
0.0380155
0.0380155
0.0380155
0.0380155
0.0380155
0.0380155
0.0380155
0.0380155
0.0380155
0.0380155
0.0380155
0.0380155
0.0380155
0.0380155
0.0380155
0.0380155
0.0380155
0.0380155
0.0380155
0.0380155
0.0380155
0.0380155
0.0380155
0.0380155
0.0380155
0.0380155
0.0380155
0.0380155
0.0380155
0.0380155
0.0380155
0.0380155
0.0380155
0.0380155
0.0380155
0.0380155
0.0380155
0.0380155
0.0380155
0.0380155
0.0380155
0.0380155
0.0380155
0.0380155
0.0380155
0.0380155
0.0380155
0.0380155
0.0380155
0.0380155
0.0380155
0.0380155
0.0380155
0.0380155
0.0380155
0.0380155
0.0380155
0.0380155
0.0380155
0.0380155
0.0380155
0.0380155
0.0380155
0.0380155
0.0380155
0.0380155
0.0380155
0.0380155
0.0380155
0.0380155
0.0380155
0.0380155
0.0380155
0.0380155
0.0380155
0.0380155
0.0380155
0.0380155
0.0380155
0.0380155
0.0380155
0.0380155
0.0380155
0.0380155
0.0380155
0.0380155
0.0380155
0.0380155
0.0380155
0.0380155
0.0380155
0.0380155
0.0380155
0.0380155
0.0380155
0.0380155
0.0380155
0.0380155
0.0380155
0.0380155
0.0380155
0.0380155
0.0380155
0.0380155
0.0380155
0.0380155
0.0380155
0.0380155
0.0380155
0.0380155
0.0380155
0.0380155
0.0380155
0.0380155
0.0380155
0.0380155
0.0380155
0.0380155
0.0380155
0.0380155
0.0380155
0.0380155
0.0380155
0.0380155
0.0380155
0.0380155
0.0380155
0.0380155
0.0380155
0.0380155
0.0380155
0.0380155
0.0380155
0.0380155
0.0380155
0.0380155
0.0380155
0.0380155
0.0380155
0.0380155
0.0380155
0.0380155
0.0380155
0.0380155
0.0380155
0.0380155
0.0380155
0.0380155
0.0380155
0.0380155
0.0380155
0.0380155
0.0380155
0.0380155
0.0380155
0.0380155
0.0380155
0.0380155
0.0380155
0.0380155
0.0380155
0.0380155
0.0380155
0.0380155
0.0380155
0.0380155
0.0380155
0.0380155
0.0380155
0.0380155
0.0380155
0.0380155
0.0380155
0.0380155
0.0380155
0.0380155
0.0380155
0.0380155
0.0380155
0.0380155
0.0380155
0.0380155
0.0380155
0.0380155
0.0380155
0.0380155
0.0380155
0.0380155
0.0380155
0.0380155
0.0380155
0.0380155
0.0380155
0.0380155
0.0380155
0.0380155
0.0380155
0.0380155
0.0380155
0.0380155
0.0380155
0.0380155
0.0380155
0.0380155
0.0380155
0.0380155
0.114046
0.114046
0.114046
0.114046
0.114046
0.114046
0.114046
0.114046
0.114046
0.114046
0.114046
0.114046
0.114046
0.114046
0.114046
0.114046
0.114046
0.114046
0.114046
0.114046
0.114046
0.114046
0.114046
0.114046
0.114046
0.114046
0.114046
0.114046
0.114046
0.114046
0.114046
0.114046
0.114046
0.114046
0.114046
0.114046
0.114046
0.114046
0.114046
0.114046
0.114046
0.114046
0.114046
0.114046
0.114046
0.114046
0.114046
0.114046
0.114046
0.114046
0.114046
0.114046
0.114046
0.114046
0.114046
0.114046
0.114046
0.114046
0.114046
0.114046
0.114046
0.114046
