-0.164996
-0.164996
-0.164996
-0.164996
-0.164996
-0.164996
-0.164996
-0.164996
-0.164996
-0.164996
-0.164996
-0.164996
-0.164996
-0.164996
-0.164996
-0.164996
-0.164996
-0.164996
-0.164996
-0.164996
-0.164996
-0.164996
-0.164996
-0.164996
-0.164996
-0.164996
-0.164996
-0.164996
-0.164996
-0.164996
-0.164996
-0.164996
-0.0549986
-0.0549986
-0.0549986
-0.0549986
-0.0549986
-0.0549986
-0.0549986
-0.0549986
-0.0549986
-0.0549986
-0.0549986
-0.0549986
-0.0549986
-0.0549986
-0.0549986
-0.0549986
-0.0549986
-0.0549986
-0.0549986
-0.0549986
-0.0549986
-0.0549986
-0.0549986
-0.0549986
-0.0549986
-0.0549986
-0.0549986
-0.0549986
-0.0549986
-0.0549986
-0.0549986
-0.0549986
-0.0549986
-0.0549986
-0.0549986
-0.0549986
-0.0549986
-0.0549986
-0.0549986
-0.0549986
-0.0549986
-0.0549986
-0.0549986
-0.0549986
-0.0549986
-0.0549986
-0.0549986
-0.0549986
-0.0549986
-0.0549986
-0.0549986
-0.0549986
-0.0549986
-0.0549986
-0.0549986
-0.0549986
-0.0549986
-0.0549986
-0.0549986
-0.0549986
-0.0549986
-0.0549986
-0.0549986
-0.0549986
-0.0549986
-0.0549986
-0.0549986
-0.0549986
-0.0549986
-0.0549986
-0.0549986
-0.0549986
-0.0549986
-0.0549986
-0.0549986
-0.0549986
-0.0549986
-0.0549986
-0.0549986
-0.0549986
-0.0549986
-0.0549986
-0.0549986
-0.0549986
-0.0549986
-0.0549986
-0.0549986
-0.0549986
-0.0549986
-0.0549986
-0.0549986
-0.0549986
-0.0549986
-0.0549986
-0.0549986
-0.0549986
-0.0549986
-0.0549986
-0.0549986
-0.0549986
-0.0549986
-0.0549986
-0.0549986
-0.0549986
-0.0549986
-0.0549986
-0.0549986
-0.0549986
-0.0549986
-0.0549986
-0.0549986
-0.0549986
-0.0549986
-0.0549986
-0.0549986
-0.0549986
-0.0549986
-0.0549986
-0.0549986
-0.0549986
-0.0549986
-0.0549986
-0.0549986
-0.0549986
-0.0549986
-0.0549986
0.0549986
0.0549986
0.0549986
0.0549986
0.0549986
0.0549986
0.0549986
0.0549986
0.0549986
0.0549986
0.0549986
0.0549986
0.0549986
0.0549986
0.0549986
0.0549986
0.0549986
0.0549986
0.0549986
0.0549986
0.0549986
0.0549986
0.0549986
0.0549986
0.0549986
0.0549986
0.0549986
0.0549986
0.0549986
0.0549986
0.0549986
0.0549986
0.0549986
0.0549986
0.0549986
0.0549986
0.0549986
0.0549986
0.0549986
0.0549986
0.0549986
0.0549986
0.0549986
0.0549986
0.0549986
0.0549986
0.0549986
0.0549986
0.0549986
0.0549986
0.0549986
0.0549986
0.0549986
0.0549986
0.0549986
0.0549986
0.0549986
0.0549986
0.0549986
0.0549986
0.0549986
0.0549986
0.0549986
0.0549986
0.0549986
0.0549986
0.0549986
0.0549986
0.0549986
0.0549986
0.0549986
0.0549986
0.0549986
0.0549986
0.0549986
0.0549986
0.0549986
0.0549986
0.0549986
0.0549986
0.0549986
0.0549986
0.0549986
0.0549986
0.0549986
0.0549986
0.0549986
0.0549986
0.0549986
0.0549986
0.0549986
0.0549986
0.0549986
0.0549986
0.0549986
0.0549986
0.0549986
0.0549986
0.0549986
0.0549986
0.0549986
0.0549986
0.0549986
0.0549986
0.0549986
0.0549986
0.0549986
0.0549986
0.0549986
0.0549986
0.0549986
0.0549986
0.0549986
0.0549986
0.0549986
0.0549986
0.0549986
0.0549986
0.0549986
0.0549986
0.0549986
0.0549986
0.0549986
0.0549986
0.0549986
0.0549986
0.0549986
0.0549986
0.164996
0.164996
0.164996
0.164996
0.164996
0.164996
0.164996
0.164996
0.164996
0.164996
0.164996
0.164996
0.164996
0.164996
