-0.798791
-0.798791
-0.798791
-0.798791
-0.798791
-0.798791
-0.798791
-0.798791
-0.798791
-0.798791
-0.798791
-0.798791
-0.798791
-0.798791
-0.798791
-0.798791
-0.798791
-0.798791
-0.798791
-0.798791
-0.798791
-0.798791
-0.798791
-0.798791
-0.798791
-0.798791
-0.798791
-0.798791
-0.798791
-0.798791
-0.798791
-0.798791
-0.798791
-0.798791
-0.798791
-0.798791
-0.798791
-0.798791
-0.798791
-0.266264
-0.266264
-0.266264
-0.266264
-0.266264
-0.266264
-0.266264
-0.266264
-0.266264
-0.266264
-0.266264
-0.266264
-0.266264
-0.266264
-0.266264
-0.266264
-0.266264
-0.266264
-0.266264
-0.266264
-0.266264
-0.266264
-0.266264
-0.266264
-0.266264
-0.266264
-0.266264
-0.266264
-0.266264
-0.266264
-0.266264
-0.266264
-0.266264
-0.266264
-0.266264
-0.266264
-0.266264
-0.266264
-0.266264
-0.266264
-0.266264
-0.266264
-0.266264
-0.266264
-0.266264
-0.266264
-0.266264
-0.266264
-0.266264
-0.266264
-0.266264
-0.266264
-0.266264
-0.266264
-0.266264
-0.266264
-0.266264
-0.266264
-0.266264
-0.266264
-0.266264
-0.266264
-0.266264
-0.266264
-0.266264
-0.266264
-0.266264
-0.266264
-0.266264
-0.266264
-0.266264
-0.266264
-0.266264
-0.266264
-0.266264
-0.266264
-0.266264
-0.266264
-0.266264
-0.266264
-0.266264
-0.266264
-0.266264
-0.266264
-0.266264
-0.266264
-0.266264
-0.266264
-0.266264
-0.266264
-0.266264
-0.266264
-0.266264
-0.266264
-0.266264
-0.266264
-0.266264
-0.266264
-0.266264
-0.266264
-0.266264
-0.266264
-0.266264
-0.266264
-0.266264
-0.266264
-0.266264
-0.266264
-0.266264
-0.266264
-0.266264
-0.266264
-0.266264
-0.266264
-0.266264
-0.266264
-0.266264
-0.266264
-0.266264
-0.266264
-0.266264
-0.266264
-0.266264
-0.266264
-0.266264
-0.266264
-0.266264
-0.266264
-0.266264
-0.266264
-0.266264
-0.266264
-0.266264
-0.266264
-0.266264
-0.266264
-0.266264
-0.266264
-0.266264
-0.266264
-0.266264
-0.266264
-0.266264
-0.266264
-0.266264
-0.266264
-0.266264
-0.266264
-0.266264
-0.266264
-0.266264
-0.266264
-0.266264
-0.266264
-0.266264
-0.266264
-0.266264
-0.266264
-0.266264
-0.266264
-0.266264
-0.266264
-0.266264
-0.266264
-0.266264
-0.266264
-0.266264
-0.266264
-0.266264
-0.266264
-0.266264
-0.266264
-0.266264
-0.266264
-0.266264
-0.266264
-0.266264
-0.266264
-0.266264
-0.266264
-0.266264
-0.266264
-0.266264
-0.266264
-0.266264
-0.266264
-0.266264
-0.266264
-0.266264
-0.266264
-0.266264
-0.266264
-0.266264
-0.266264
-0.266264
-0.266264
-0.266264
-0.266264
-0.266264
-0.266264
-0.266264
-0.266264
-0.266264
-0.266264
-0.266264
-0.266264
-0.266264
-0.266264
-0.266264
-0.266264
-0.266264
-0.266264
-0.266264
-0.266264
-0.266264
-0.266264
-0.266264
-0.266264
-0.266264
-0.266264
-0.266264
-0.266264
-0.266264
-0.266264
-0.266264
-0.266264
-0.266264
-0.266264
-0.266264
-0.266264
-0.266264
-0.266264
-0.266264
-0.266264
-0.266264
-0.266264
-0.266264
-0.266264
-0.266264
-0.266264
-0.266264
-0.266264
-0.266264
-0.266264
-0.266264
-0.266264
-0.266264
-0.266264
-0.266264
-0.266264
-0.266264
-0.266264
-0.266264
-0.266264
-0.266264
-0.266264
-0.266264
-0.266264
-0.266264
-0.266264
-0.266264
-0.266264
-0.266264
-0.266264
-0.266264
-0.266264
-0.266264
-0.266264
-0.266264
-0.266264
-0.266264
-0.266264
-0.266264
-0.266264
-0.266264
-0.266264
-0.266264
-0.266264
-0.266264
-0.266264
-0.266264
-0.266264
-0.266264
-0.266264
-0.266264
-0.266264
-0.266264
-0.266264
-0.266264
-0.266264
-0.266264
-0.266264
-0.266264
-0.266264
-0.266264
-0.266264
-0.266264
-0.266264
-0.266264
-0.266264
-0.266264
-0.266264
-0.266264
-0.266264
-0.266264
-0.266264
-0.266264
-0.266264
-0.266264
-0.266264
-0.266264
-0.266264
-0.266264
-0.266264
-0.266264
-0.266264
-0.266264
-0.266264
-0.266264
-0.266264
-0.266264
-0.266264
-0.266264
-0.266264
-0.266264
-0.266264
-0.266264
-0.266264
-0.266264
-0.266264
-0.266264
-0.266264
-0.266264
-0.266264
-0.266264
-0.266264
-0.266264
-0.266264
-0.266264
-0.266264
-0.266264
-0.266264
-0.266264
-0.266264
-0.266264
-0.266264
-0.266264
-0.266264
-0.266264
-0.266264
-0.266264
-0.266264
-0.266264
-0.266264
-0.266264
-0.266264
-0.266264
-0.266264
-0.266264
-0.266264
-0.266264
-0.266264
-0.266264
-0.266264
-0.266264
-0.266264
-0.266264
-0.266264
-0.266264
-0.266264
-0.266264
-0.266264
-0.266264
-0.266264
-0.266264
-0.266264
-0.266264
-0.266264
-0.266264
-0.266264
-0.266264
-0.266264
-0.266264
-0.266264
-0.266264
-0.266264
-0.266264
-0.266264
-0.266264
-0.266264
-0.266264
-0.266264
-0.266264
-0.266264
-0.266264
-0.266264
-0.266264
-0.266264
-0.266264
-0.266264
-0.266264
-0.266264
-0.266264
-0.266264
-0.266264
-0.266264
-0.266264
-0.266264
-0.266264
-0.266264
-0.266264
-0.266264
-0.266264
-0.266264
-0.266264
-0.266264
-0.266264
-0.266264
-0.266264
-0.266264
-0.266264
-0.266264
-0.266264
-0.266264
-0.266264
-0.266264
-0.266264
-0.266264
-0.266264
-0.266264
-0.266264
-0.266264
-0.266264
-0.266264
-0.266264
-0.266264
-0.266264
-0.266264
-0.266264
-0.266264
-0.266264
-0.266264
-0.266264
-0.266264
-0.266264
-0.266264
-0.266264
-0.266264
-0.266264
-0.266264
-0.266264
-0.266264
-0.266264
0.266264
0.266264
0.266264
0.266264
0.266264
0.266264
0.266264
0.266264
0.266264
0.266264
0.266264
0.266264
0.266264
0.266264
0.266264
0.266264
0.266264
0.266264
0.266264
0.266264
0.266264
0.266264
0.266264
0.266264
0.266264
0.266264
0.266264
0.266264
0.266264
0.266264
0.266264
0.266264
0.266264
0.266264
0.266264
0.266264
0.266264
0.266264
0.266264
0.266264
0.266264
0.266264
0.266264
0.266264
0.266264
0.266264
0.266264
0.266264
0.266264
0.266264
0.266264
0.266264
0.266264
0.266264
0.266264
0.266264
0.266264
0.266264
0.266264
0.266264
0.266264
0.266264
0.266264
0.266264
0.266264
0.266264
0.266264
0.266264
0.266264
0.266264
0.266264
0.266264
0.266264
0.266264
0.266264
0.266264
0.266264
0.266264
0.266264
0.266264
0.266264
0.266264
0.266264
0.266264
0.266264
0.266264
0.266264
0.266264
0.266264
0.266264
0.266264
0.266264
0.266264
0.266264
0.266264
0.266264
0.266264
0.266264
0.266264
0.266264
0.266264
0.266264
0.266264
0.266264
0.266264
0.266264
0.266264
0.266264
0.266264
0.266264
0.266264
0.266264
0.266264
0.266264
0.266264
0.266264
0.266264
0.266264
0.266264
0.266264
0.266264
0.266264
0.266264
0.266264
0.266264
0.266264
0.266264
0.266264
0.266264
0.266264
0.266264
0.266264
0.266264
0.266264
0.266264
0.266264
0.266264
0.266264
0.266264
0.266264
0.266264
0.266264
0.266264
0.266264
0.266264
0.266264
0.266264
0.266264
0.266264
0.266264
0.266264
0.266264
0.266264
0.266264
0.266264
0.266264
0.266264
0.266264
0.266264
0.266264
0.266264
0.266264
0.266264
0.266264
0.266264
0.266264
0.266264
0.266264
0.266264
0.266264
0.266264
0.266264
0.266264
0.266264
0.266264
0.266264
0.266264
0.266264
0.266264
0.266264
0.266264
0.266264
0.266264
0.266264
0.266264
0.266264
0.266264
0.266264
0.266264
0.266264
0.266264
0.266264
0.266264
0.266264
0.266264
0.266264
0.266264
0.266264
0.266264
0.266264
0.266264
0.266264
0.266264
0.266264
0.266264
0.266264
0.266264
0.266264
0.266264
0.266264
0.266264
0.266264
0.266264
0.266264
0.266264
0.266264
0.266264
0.266264
0.266264
0.266264
0.266264
0.266264
0.266264
0.266264
0.266264
0.266264
0.266264
0.266264
0.266264
0.266264
0.266264
0.266264
0.266264
0.266264
0.266264
0.266264
0.266264
0.266264
0.266264
0.266264
0.266264
0.266264
0.266264
0.266264
0.266264
0.266264
0.266264
0.266264
0.266264
0.266264
0.266264
0.266264
0.266264
0.266264
0.266264
0.266264
0.266264
0.266264
0.266264
0.266264
0.266264
0.266264
0.266264
0.266264
0.266264
0.266264
0.266264
0.266264
0.266264
0.266264
0.266264
0.266264
0.266264
0.266264
0.266264
0.266264
0.266264
0.266264
0.266264
0.266264
0.266264
0.266264
0.266264
0.266264
0.266264
0.266264
0.266264
0.266264
0.266264
0.266264
0.266264
0.266264
0.266264
0.266264
0.266264
0.266264
0.266264
0.266264
0.266264
0.266264
0.266264
0.266264
0.266264
0.266264
0.266264
0.266264
0.266264
0.266264
0.266264
0.266264
0.266264
0.266264
0.266264
0.266264
0.266264
0.266264
0.266264
0.266264
0.266264
0.266264
0.266264
0.266264
0.266264
0.266264
0.266264
0.266264
0.266264
0.266264
0.266264
0.266264
0.266264
0.266264
0.266264
0.266264
0.266264
0.266264
0.266264
0.266264
0.798791
0.798791
0.798791
0.798791
0.798791
0.798791
0.798791
0.798791
0.798791
0.798791
