-0.123974
-0.123974
-0.123974
-0.123974
-0.123974
-0.123974
-0.123974
-0.123974
-0.123974
-0.123974
-0.123974
-0.123974
-0.123974
-0.123974
-0.123974
-0.123974
-0.123974
-0.123974
-0.123974
-0.123974
-0.123974
-0.123974
-0.123974
-0.123974
-0.123974
-0.123974
-0.123974
-0.123974
-0.123974
-0.123974
-0.123974
-0.123974
-0.123974
-0.123974
-0.123974
-0.123974
-0.123974
-0.123974
-0.123974
-0.123974
-0.123974
-0.123974
-0.123974
-0.123974
-0.123974
-0.123974
-0.123974
-0.123974
-0.123974
-0.123974
-0.123974
-0.123974
-0.123974
-0.123974
-0.123974
-0.123974
-0.123974
-0.123974
-0.123974
-0.123974
-0.123974
-0.123974
-0.123974
-0.123974
-0.123974
-0.123974
-0.123974
-0.123974
-0.123974
-0.123974
-0.123974
-0.123974
-0.123974
-0.123974
-0.123974
-0.123974
-0.123974
-0.123974
-0.123974
-0.123974
-0.123974
-0.123974
-0.123974
-0.123974
-0.0413248
-0.0413248
-0.0413248
-0.0413248
-0.0413248
-0.0413248
-0.0413248
-0.0413248
-0.0413248
-0.0413248
-0.0413248
-0.0413248
-0.0413248
-0.0413248
-0.0413248
-0.0413248
-0.0413248
-0.0413248
-0.0413248
-0.0413248
-0.0413248
-0.0413248
-0.0413248
-0.0413248
-0.0413248
-0.0413248
-0.0413248
-0.0413248
-0.0413248
-0.0413248
-0.0413248
-0.0413248
-0.0413248
-0.0413248
-0.0413248
-0.0413248
-0.0413248
-0.0413248
-0.0413248
-0.0413248
-0.0413248
-0.0413248
-0.0413248
-0.0413248
-0.0413248
-0.0413248
-0.0413248
-0.0413248
-0.0413248
-0.0413248
-0.0413248
-0.0413248
-0.0413248
-0.0413248
-0.0413248
-0.0413248
-0.0413248
-0.0413248
-0.0413248
-0.0413248
-0.0413248
-0.0413248
-0.0413248
-0.0413248
-0.0413248
-0.0413248
-0.0413248
-0.0413248
-0.0413248
-0.0413248
-0.0413248
-0.0413248
-0.0413248
-0.0413248
-0.0413248
-0.0413248
-0.0413248
-0.0413248
-0.0413248
-0.0413248
-0.0413248
-0.0413248
-0.0413248
-0.0413248
-0.0413248
-0.0413248
-0.0413248
-0.0413248
-0.0413248
-0.0413248
-0.0413248
-0.0413248
-0.0413248
-0.0413248
-0.0413248
-0.0413248
-0.0413248
-0.0413248
-0.0413248
-0.0413248
-0.0413248
-0.0413248
-0.0413248
-0.0413248
-0.0413248
-0.0413248
-0.0413248
-0.0413248
-0.0413248
-0.0413248
-0.0413248
-0.0413248
-0.0413248
-0.0413248
-0.0413248
-0.0413248
-0.0413248
-0.0413248
-0.0413248
-0.0413248
-0.0413248
-0.0413248
-0.0413248
-0.0413248
-0.0413248
-0.0413248
-0.0413248
-0.0413248
-0.0413248
-0.0413248
-0.0413248
-0.0413248
-0.0413248
-0.0413248
-0.0413248
-0.0413248
-0.0413248
-0.0413248
-0.0413248
-0.0413248
-0.0413248
-0.0413248
-0.0413248
-0.0413248
-0.0413248
-0.0413248
-0.0413248
-0.0413248
-0.0413248
-0.0413248
-0.0413248
-0.0413248
-0.0413248
-0.0413248
-0.0413248
-0.0413248
-0.0413248
-0.0413248
-0.0413248
-0.0413248
-0.0413248
-0.0413248
-0.0413248
-0.0413248
-0.0413248
-0.0413248
-0.0413248
-0.0413248
-0.0413248
-0.0413248
-0.0413248
-0.0413248
-0.0413248
-0.0413248
-0.0413248
-0.0413248
-0.0413248
-0.0413248
-0.0413248
-0.0413248
-0.0413248
-0.0413248
-0.0413248
-0.0413248
-0.0413248
-0.0413248
-0.0413248
-0.0413248
-0.0413248
-0.0413248
-0.0413248
-0.0413248
-0.0413248
-0.0413248
-0.0413248
-0.0413248
-0.0413248
-0.0413248
-0.0413248
-0.0413248
-0.0413248
-0.0413248
-0.0413248
-0.0413248
-0.0413248
-0.0413248
-0.0413248
-0.0413248
-0.0413248
-0.0413248
-0.0413248
-0.0413248
-0.0413248
-0.0413248
-0.0413248
-0.0413248
-0.0413248
-0.0413248
-0.0413248
-0.0413248
-0.0413248
-0.0413248
-0.0413248
-0.0413248
-0.0413248
-0.0413248
-0.0413248
-0.0413248
-0.0413248
-0.0413248
-0.0413248
-0.0413248
-0.0413248
-0.0413248
-0.0413248
-0.0413248
-0.0413248
-0.0413248
-0.0413248
-0.0413248
-0.0413248
-0.0413248
-0.0413248
-0.0413248
-0.0413248
-0.0413248
-0.0413248
-0.0413248
-0.0413248
-0.0413248
-0.0413248
-0.0413248
-0.0413248
-0.0413248
-0.0413248
-0.0413248
-0.0413248
-0.0413248
-0.0413248
-0.0413248
-0.0413248
-0.0413248
-0.0413248
-0.0413248
-0.0413248
-0.0413248
-0.0413248
-0.0413248
-0.0413248
-0.0413248
-0.0413248
-0.0413248
-0.0413248
-0.0413248
-0.0413248
-0.0413248
-0.0413248
-0.0413248
-0.0413248
-0.0413248
-0.0413248
-0.0413248
-0.0413248
-0.0413248
-0.0413248
-0.0413248
-0.0413248
-0.0413248
-0.0413248
-0.0413248
-0.0413248
-0.0413248
-0.0413248
-0.0413248
-0.0413248
-0.0413248
-0.0413248
-0.0413248
-0.0413248
-0.0413248
-0.0413248
-0.0413248
-0.0413248
-0.0413248
-0.0413248
-0.0413248
-0.0413248
-0.0413248
-0.0413248
-0.0413248
-0.0413248
-0.0413248
-0.0413248
-0.0413248
-0.0413248
-0.0413248
-0.0413248
-0.0413248
-0.0413248
-0.0413248
-0.0413248
-0.0413248
-0.0413248
-0.0413248
-0.0413248
-0.0413248
-0.0413248
-0.0413248
-0.0413248
-0.0413248
-0.0413248
-0.0413248
-0.0413248
-0.0413248
-0.0413248
-0.0413248
-0.0413248
-0.0413248
-0.0413248
-0.0413248
-0.0413248
-0.0413248
-0.0413248
-0.0413248
-0.0413248
-0.0413248
-0.0413248
-0.0413248
-0.0413248
-0.0413248
-0.0413248
-0.0413248
-0.0413248
-0.0413248
-0.0413248
-0.0413248
-0.0413248
-0.0413248
-0.0413248
-0.0413248
-0.0413248
-0.0413248
-0.0413248
-0.0413248
-0.0413248
-0.0413248
-0.0413248
-0.0413248
-0.0413248
-0.0413248
-0.0413248
-0.0413248
-0.0413248
-0.0413248
-0.0413248
-0.0413248
-0.0413248
-0.0413248
-0.0413248
-0.0413248
-0.0413248
-0.0413248
-0.0413248
-0.0413248
-0.0413248
-0.0413248
-0.0413248
-0.0413248
-0.0413248
-0.0413248
-0.0413248
-0.0413248
-0.0413248
-0.0413248
-0.0413248
-0.0413248
-0.0413248
-0.0413248
-0.0413248
-0.0413248
-0.0413248
-0.0413248
-0.0413248
-0.0413248
-0.0413248
-0.0413248
-0.0413248
-0.0413248
-0.0413248
-0.0413248
-0.0413248
-0.0413248
-0.0413248
-0.0413248
-0.0413248
-0.0413248
-0.0413248
-0.0413248
-0.0413248
-0.0413248
-0.0413248
-0.0413248
-0.0413248
-0.0413248
-0.0413248
-0.0413248
-0.0413248
-0.0413248
-0.0413248
-0.0413248
-0.0413248
-0.0413248
-0.0413248
-0.0413248
-0.0413248
-0.0413248
-0.0413248
-0.0413248
-0.0413248
-0.0413248
-0.0413248
-0.0413248
-0.0413248
-0.0413248
-0.0413248
-0.0413248
-0.0413248
-0.0413248
-0.0413248
-0.0413248
-0.0413248
-0.0413248
-0.0413248
-0.0413248
-0.0413248
-0.0413248
-0.0413248
-0.0413248
-0.0413248
-0.0413248
-0.0413248
-0.0413248
-0.0413248
-0.0413248
-0.0413248
-0.0413248
-0.0413248
-0.0413248
-0.0413248
-0.0413248
-0.0413248
-0.0413248
-0.0413248
-0.0413248
-0.0413248
-0.0413248
-0.0413248
-0.0413248
-0.0413248
-0.0413248
-0.0413248
-0.0413248
-0.0413248
-0.0413248
-0.0413248
-0.0413248
-0.0413248
-0.0413248
-0.0413248
-0.0413248
-0.0413248
-0.0413248
-0.0413248
-0.0413248
-0.0413248
-0.0413248
-0.0413248
-0.0413248
-0.0413248
-0.0413248
-0.0413248
-0.0413248
-0.0413248
-0.0413248
-0.0413248
-0.0413248
-0.0413248
-0.0413248
-0.0413248
-0.0413248
-0.0413248
-0.0413248
-0.0413248
-0.0413248
-0.0413248
-0.0413248
-0.0413248
-0.0413248
-0.0413248
-0.0413248
-0.0413248
-0.0413248
-0.0413248
-0.0413248
-0.0413248
-0.0413248
-0.0413248
-0.0413248
-0.0413248
-0.0413248
-0.0413248
-0.0413248
-0.0413248
-0.0413248
-0.0413248
-0.0413248
-0.0413248
-0.0413248
-0.0413248
-0.0413248
-0.0413248
-0.0413248
-0.0413248
-0.0413248
-0.0413248
-0.0413248
-0.0413248
-0.0413248
-0.0413248
-0.0413248
-0.0413248
-0.0413248
-0.0413248
-0.0413248
-0.0413248
-0.0413248
-0.0413248
-0.0413248
-0.0413248
-0.0413248
-0.0413248
-0.0413248
-0.0413248
-0.0413248
-0.0413248
-0.0413248
-0.0413248
-0.0413248
-0.0413248
-0.0413248
-0.0413248
-0.0413248
-0.0413248
-0.0413248
-0.0413248
-0.0413248
-0.0413248
-0.0413248
-0.0413248
-0.0413248
-0.0413248
-0.0413248
-0.0413248
-0.0413248
-0.0413248
-0.0413248
-0.0413248
-0.0413248
-0.0413248
-0.0413248
-0.0413248
-0.0413248
-0.0413248
-0.0413248
-0.0413248
-0.0413248
-0.0413248
-0.0413248
-0.0413248
-0.0413248
-0.0413248
-0.0413248
-0.0413248
-0.0413248
-0.0413248
-0.0413248
-0.0413248
-0.0413248
-0.0413248
-0.0413248
-0.0413248
-0.0413248
-0.0413248
-0.0413248
-0.0413248
-0.0413248
-0.0413248
-0.0413248
-0.0413248
-0.0413248
-0.0413248
-0.0413248
-0.0413248
-0.0413248
-0.0413248
-0.0413248
-0.0413248
-0.0413248
-0.0413248
-0.0413248
-0.0413248
-0.0413248
-0.0413248
-0.0413248
-0.0413248
-0.0413248
-0.0413248
-0.0413248
-0.0413248
-0.0413248
-0.0413248
-0.0413248
-0.0413248
-0.0413248
-0.0413248
-0.0413248
-0.0413248
-0.0413248
-0.0413248
-0.0413248
-0.0413248
-0.0413248
-0.0413248
-0.0413248
-0.0413248
-0.0413248
-0.0413248
-0.0413248
-0.0413248
-0.0413248
-0.0413248
-0.0413248
-0.0413248
-0.0413248
-0.0413248
-0.0413248
-0.0413248
-0.0413248
-0.0413248
-0.0413248
-0.0413248
-0.0413248
-0.0413248
-0.0413248
-0.0413248
-0.0413248
-0.0413248
-0.0413248
-0.0413248
-0.0413248
-0.0413248
-0.0413248
-0.0413248
-0.0413248
-0.0413248
-0.0413248
-0.0413248
-0.0413248
-0.0413248
-0.0413248
-0.0413248
-0.0413248
-0.0413248
-0.0413248
-0.0413248
-0.0413248
-0.0413248
-0.0413248
-0.0413248
-0.0413248
-0.0413248
-0.0413248
-0.0413248
-0.0413248
-0.0413248
-0.0413248
-0.0413248
-0.0413248
-0.0413248
-0.0413248
-0.0413248
-0.0413248
-0.0413248
-0.0413248
-0.0413248
-0.0413248
-0.0413248
-0.0413248
-0.0413248
-0.0413248
-0.0413248
-0.0413248
-0.0413248
-0.0413248
-0.0413248
-0.0413248
-0.0413248
-0.0413248
-0.0413248
-0.0413248
-0.0413248
-0.0413248
-0.0413248
-0.0413248
-0.0413248
-0.0413248
-0.0413248
-0.0413248
-0.0413248
-0.0413248
-0.0413248
-0.0413248
-0.0413248
-0.0413248
-0.0413248
-0.0413248
-0.0413248
-0.0413248
-0.0413248
-0.0413248
-0.0413248
-0.0413248
-0.0413248
-0.0413248
-0.0413248
-0.0413248
-0.0413248
-0.0413248
-0.0413248
-0.0413248
-0.0413248
-0.0413248
-0.0413248
-0.0413248
-0.0413248
-0.0413248
-0.0413248
-0.0413248
-0.0413248
-0.0413248
-0.0413248
-0.0413248
-0.0413248
-0.0413248
-0.0413248
-0.0413248
-0.0413248
-0.0413248
-0.0413248
-0.0413248
-0.0413248
-0.0413248
-0.0413248
-0.0413248
-0.0413248
-0.0413248
-0.0413248
-0.0413248
-0.0413248
-0.0413248
-0.0413248
-0.0413248
-0.0413248
-0.0413248
-0.0413248
-0.0413248
-0.0413248
-0.0413248
-0.0413248
-0.0413248
-0.0413248
-0.0413248
-0.0413248
-0.0413248
-0.0413248
-0.0413248
-0.0413248
-0.0413248
-0.0413248
-0.0413248
-0.0413248
-0.0413248
-0.0413248
-0.0413248
-0.0413248
-0.0413248
-0.0413248
-0.0413248
-0.0413248
-0.0413248
-0.0413248
-0.0413248
-0.0413248
-0.0413248
-0.0413248
-0.0413248
-0.0413248
-0.0413248
-0.0413248
-0.0413248
-0.0413248
-0.0413248
-0.0413248
-0.0413248
-0.0413248
-0.0413248
-0.0413248
-0.0413248
-0.0413248
-0.0413248
-0.0413248
-0.0413248
-0.0413248
-0.0413248
-0.0413248
-0.0413248
-0.0413248
-0.0413248
-0.0413248
-0.0413248
-0.0413248
-0.0413248
-0.0413248
-0.0413248
-0.0413248
-0.0413248
-0.0413248
-0.0413248
-0.0413248
-0.0413248
-0.0413248
-0.0413248
-0.0413248
-0.0413248
-0.0413248
-0.0413248
-0.0413248
-0.0413248
-0.0413248
-0.0413248
-0.0413248
-0.0413248
-0.0413248
-0.0413248
-0.0413248
-0.0413248
-0.0413248
-0.0413248
-0.0413248
-0.0413248
-0.0413248
-0.0413248
-0.0413248
-0.0413248
-0.0413248
-0.0413248
-0.0413248
-0.0413248
-0.0413248
-0.0413248
-0.0413248
-0.0413248
-0.0413248
-0.0413248
-0.0413248
-0.0413248
-0.0413248
-0.0413248
-0.0413248
-0.0413248
-0.0413248
-0.0413248
-0.0413248
-0.0413248
-0.0413248
-0.0413248
-0.0413248
-0.0413248
-0.0413248
-0.0413248
-0.0413248
-0.0413248
-0.0413248
-0.0413248
-0.0413248
-0.0413248
-0.0413248
-0.0413248
-0.0413248
-0.0413248
-0.0413248
-0.0413248
-0.0413248
-0.0413248
-0.0413248
-0.0413248
-0.0413248
-0.0413248
-0.0413248
-0.0413248
-0.0413248
-0.0413248
-0.0413248
-0.0413248
-0.0413248
-0.0413248
-0.0413248
-0.0413248
-0.0413248
-0.0413248
-0.0413248
-0.0413248
-0.0413248
-0.0413248
-0.0413248
-0.0413248
-0.0413248
-0.0413248
-0.0413248
-0.0413248
-0.0413248
-0.0413248
-0.0413248
-0.0413248
-0.0413248
-0.0413248
-0.0413248
-0.0413248
-0.0413248
-0.0413248
-0.0413248
-0.0413248
-0.0413248
-0.0413248
-0.0413248
-0.0413248
-0.0413248
-0.0413248
-0.0413248
-0.0413248
-0.0413248
-0.0413248
-0.0413248
-0.0413248
-0.0413248
-0.0413248
-0.0413248
-0.0413248
-0.0413248
-0.0413248
-0.0413248
-0.0413248
-0.0413248
-0.0413248
-0.0413248
-0.0413248
-0.0413248
-0.0413248
-0.0413248
-0.0413248
-0.0413248
-0.0413248
-0.0413248
-0.0413248
-0.0413248
-0.0413248
-0.0413248
-0.0413248
-0.0413248
-0.0413248
-0.0413248
-0.0413248
-0.0413248
-0.0413248
-0.0413248
-0.0413248
-0.0413248
-0.0413248
-0.0413248
-0.0413248
-0.0413248
-0.0413248
-0.0413248
-0.0413248
-0.0413248
-0.0413248
-0.0413248
-0.0413248
-0.0413248
-0.0413248
-0.0413248
-0.0413248
-0.0413248
-0.0413248
-0.0413248
-0.0413248
-0.0413248
-0.0413248
-0.0413248
-0.0413248
-0.0413248
-0.0413248
-0.0413248
-0.0413248
-0.0413248
-0.0413248
-0.0413248
-0.0413248
-0.0413248
-0.0413248
-0.0413248
-0.0413248
-0.0413248
-0.0413248
-0.0413248
-0.0413248
-0.0413248
-0.0413248
-0.0413248
-0.0413248
-0.0413248
-0.0413248
-0.0413248
-0.0413248
-0.0413248
-0.0413248
-0.0413248
-0.0413248
-0.0413248
-0.0413248
-0.0413248
-0.0413248
-0.0413248
-0.0413248
-0.0413248
-0.0413248
-0.0413248
-0.0413248
-0.0413248
-0.0413248
-0.0413248
-0.0413248
-0.0413248
-0.0413248
-0.0413248
-0.0413248
-0.0413248
-0.0413248
-0.0413248
-0.0413248
-0.0413248
0.0413248
0.0413248
0.0413248
0.0413248
0.0413248
0.0413248
0.0413248
0.0413248
0.0413248
0.0413248
0.0413248
0.0413248
0.0413248
0.0413248
0.0413248
0.0413248
0.0413248
0.0413248
0.0413248
0.0413248
0.0413248
0.0413248
0.0413248
0.0413248
0.0413248
0.0413248
0.0413248
0.0413248
0.0413248
0.0413248
0.0413248
0.0413248
0.0413248
0.0413248
0.0413248
0.0413248
0.0413248
0.0413248
0.0413248
0.0413248
0.0413248
0.0413248
0.0413248
0.0413248
0.0413248
0.0413248
0.0413248
0.0413248
0.0413248
0.0413248
0.0413248
0.0413248
0.0413248
0.0413248
0.0413248
0.0413248
0.0413248
0.0413248
0.0413248
0.0413248
0.0413248
0.0413248
0.0413248
0.0413248
0.0413248
0.0413248
0.0413248
0.0413248
0.0413248
0.0413248
0.0413248
0.0413248
0.0413248
0.0413248
0.0413248
0.0413248
0.0413248
0.0413248
0.0413248
0.0413248
0.0413248
0.0413248
0.0413248
0.0413248
0.0413248
0.0413248
0.0413248
0.0413248
0.0413248
0.0413248
0.0413248
0.0413248
0.0413248
0.0413248
0.0413248
0.0413248
0.0413248
0.0413248
0.0413248
0.0413248
0.0413248
0.0413248
0.0413248
0.0413248
0.0413248
0.0413248
0.0413248
0.0413248
0.0413248
0.0413248
0.0413248
0.0413248
0.0413248
0.0413248
0.0413248
0.0413248
0.0413248
0.0413248
0.0413248
0.0413248
0.0413248
0.0413248
0.0413248
0.0413248
0.0413248
0.0413248
0.0413248
0.0413248
0.0413248
0.0413248
0.0413248
0.0413248
0.0413248
0.0413248
0.0413248
0.0413248
0.0413248
0.0413248
0.0413248
0.0413248
0.0413248
0.0413248
0.0413248
0.0413248
0.0413248
0.0413248
0.0413248
0.0413248
0.0413248
0.0413248
0.0413248
0.0413248
0.0413248
0.0413248
0.0413248
0.0413248
0.0413248
0.0413248
0.0413248
0.0413248
0.0413248
0.0413248
0.0413248
0.0413248
0.0413248
0.0413248
0.0413248
0.0413248
0.0413248
0.0413248
0.0413248
0.0413248
0.0413248
0.0413248
0.0413248
0.0413248
0.0413248
0.0413248
0.0413248
0.0413248
0.0413248
0.0413248
0.0413248
0.0413248
0.0413248
0.0413248
0.0413248
0.0413248
0.0413248
0.0413248
0.0413248
0.0413248
0.0413248
0.0413248
0.0413248
0.0413248
0.0413248
0.0413248
0.0413248
0.0413248
0.0413248
0.0413248
0.0413248
0.0413248
0.0413248
0.0413248
0.0413248
0.0413248
0.0413248
0.0413248
0.0413248
0.0413248
0.0413248
0.0413248
0.0413248
0.0413248
0.0413248
0.0413248
0.0413248
0.0413248
0.0413248
0.0413248
0.0413248
0.0413248
0.0413248
0.0413248
0.0413248
0.0413248
0.0413248
0.0413248
0.0413248
0.0413248
0.0413248
0.0413248
0.0413248
0.0413248
0.0413248
0.0413248
0.0413248
0.0413248
0.0413248
0.0413248
0.0413248
0.0413248
0.0413248
0.0413248
0.0413248
0.0413248
0.0413248
0.0413248
0.0413248
0.0413248
0.0413248
0.0413248
0.0413248
0.0413248
0.0413248
0.0413248
0.0413248
0.0413248
0.0413248
0.0413248
0.0413248
0.0413248
0.0413248
0.0413248
0.0413248
0.0413248
0.0413248
0.0413248
0.0413248
0.0413248
0.0413248
0.0413248
0.0413248
0.0413248
0.0413248
0.0413248
0.0413248
0.0413248
0.0413248
0.0413248
0.0413248
0.0413248
0.0413248
0.0413248
0.0413248
0.0413248
0.0413248
0.0413248
0.0413248
0.0413248
0.0413248
0.0413248
0.0413248
0.0413248
0.0413248
0.0413248
0.0413248
0.0413248
0.0413248
0.0413248
0.0413248
0.0413248
0.0413248
0.0413248
0.0413248
0.0413248
0.0413248
0.0413248
0.0413248
0.0413248
0.0413248
0.0413248
0.0413248
0.0413248
0.0413248
0.0413248
0.0413248
0.0413248
0.0413248
0.0413248
0.0413248
0.0413248
0.0413248
0.0413248
0.0413248
0.0413248
0.0413248
0.0413248
0.0413248
0.0413248
0.0413248
0.0413248
0.0413248
0.0413248
0.0413248
0.0413248
0.0413248
0.0413248
0.0413248
0.0413248
0.0413248
0.0413248
0.0413248
0.0413248
0.0413248
0.0413248
0.0413248
0.0413248
0.0413248
0.0413248
0.0413248
0.0413248
0.0413248
0.0413248
0.0413248
0.0413248
0.0413248
0.0413248
0.0413248
0.0413248
0.0413248
0.0413248
0.0413248
0.0413248
0.0413248
0.0413248
0.0413248
0.0413248
0.0413248
0.0413248
0.0413248
0.0413248
0.0413248
0.0413248
0.0413248
0.0413248
0.0413248
0.0413248
0.0413248
0.0413248
0.0413248
0.0413248
0.0413248
0.0413248
0.0413248
0.0413248
0.0413248
0.0413248
0.0413248
0.0413248
0.0413248
0.0413248
0.0413248
0.0413248
0.0413248
0.0413248
0.0413248
0.0413248
0.0413248
0.0413248
0.0413248
0.0413248
0.0413248
0.0413248
0.0413248
0.0413248
0.0413248
0.0413248
0.0413248
0.0413248
0.0413248
0.0413248
0.0413248
0.0413248
0.0413248
0.0413248
0.0413248
0.0413248
0.0413248
0.0413248
0.0413248
0.0413248
0.0413248
0.0413248
0.0413248
0.0413248
0.0413248
0.0413248
0.0413248
0.0413248
0.0413248
0.0413248
0.0413248
0.0413248
0.0413248
0.0413248
0.0413248
0.0413248
0.0413248
0.0413248
0.0413248
0.0413248
0.0413248
0.0413248
0.0413248
0.0413248
0.0413248
0.0413248
0.0413248
0.0413248
0.0413248
0.0413248
0.0413248
0.0413248
0.0413248
0.0413248
0.0413248
0.0413248
0.0413248
0.0413248
0.0413248
0.0413248
0.0413248
0.0413248
0.0413248
0.0413248
0.0413248
0.0413248
0.0413248
0.0413248
0.0413248
0.0413248
0.0413248
0.0413248
0.0413248
0.0413248
0.0413248
0.0413248
0.0413248
0.0413248
0.0413248
0.0413248
0.0413248
0.0413248
0.0413248
0.0413248
0.0413248
0.0413248
0.0413248
0.0413248
0.0413248
0.0413248
0.0413248
0.0413248
0.0413248
0.0413248
0.0413248
0.0413248
0.0413248
0.0413248
0.0413248
0.0413248
0.0413248
0.0413248
0.0413248
0.0413248
0.0413248
0.0413248
0.0413248
0.0413248
0.0413248
0.0413248
0.0413248
0.0413248
0.0413248
0.0413248
0.0413248
0.0413248
0.0413248
0.0413248
0.0413248
0.0413248
0.0413248
0.0413248
0.0413248
0.0413248
0.0413248
0.0413248
0.0413248
0.0413248
0.0413248
0.0413248
0.0413248
0.0413248
0.0413248
0.0413248
0.0413248
0.0413248
0.0413248
0.0413248
0.0413248
0.0413248
0.0413248
0.0413248
0.0413248
0.0413248
0.0413248
0.0413248
0.0413248
0.0413248
0.0413248
0.0413248
0.0413248
0.0413248
0.0413248
0.0413248
0.0413248
0.0413248
0.0413248
0.0413248
0.0413248
0.0413248
0.0413248
0.0413248
0.0413248
0.0413248
0.0413248
0.0413248
0.0413248
0.0413248
0.0413248
0.0413248
0.0413248
0.0413248
0.0413248
0.0413248
0.0413248
0.0413248
0.0413248
0.0413248
0.0413248
0.0413248
0.0413248
0.0413248
0.0413248
0.0413248
0.0413248
0.0413248
0.0413248
0.0413248
0.0413248
0.0413248
0.0413248
0.0413248
0.0413248
0.0413248
0.0413248
0.0413248
0.0413248
0.0413248
0.0413248
0.0413248
0.0413248
0.0413248
0.0413248
0.0413248
0.0413248
0.0413248
0.0413248
0.0413248
0.0413248
0.0413248
0.0413248
0.0413248
0.0413248
0.0413248
0.0413248
0.0413248
0.0413248
0.0413248
0.0413248
0.0413248
0.0413248
0.0413248
0.0413248
0.0413248
0.0413248
0.0413248
0.0413248
0.0413248
0.0413248
0.0413248
0.0413248
0.0413248
0.0413248
0.0413248
0.0413248
0.0413248
0.0413248
0.0413248
0.0413248
0.0413248
0.0413248
0.0413248
0.0413248
0.0413248
0.0413248
0.0413248
0.0413248
0.0413248
0.0413248
0.0413248
0.0413248
0.0413248
0.0413248
0.0413248
0.0413248
0.0413248
0.0413248
0.0413248
0.0413248
0.0413248
0.0413248
0.0413248
0.0413248
0.0413248
0.0413248
0.0413248
0.0413248
0.0413248
0.0413248
0.0413248
0.0413248
0.0413248
0.0413248
0.0413248
0.0413248
0.0413248
0.0413248
0.0413248
0.0413248
0.0413248
0.0413248
0.0413248
0.0413248
0.0413248
0.0413248
0.0413248
0.0413248
0.0413248
0.0413248
0.0413248
0.0413248
0.0413248
0.0413248
0.0413248
0.0413248
0.0413248
0.0413248
0.0413248
0.0413248
0.0413248
0.0413248
0.0413248
0.0413248
0.0413248
0.0413248
0.0413248
0.0413248
0.0413248
0.0413248
0.0413248
0.0413248
0.0413248
0.0413248
0.0413248
0.0413248
0.0413248
0.0413248
0.0413248
0.0413248
0.0413248
0.0413248
0.0413248
0.0413248
0.0413248
0.0413248
0.0413248
0.0413248
0.0413248
0.0413248
0.0413248
0.0413248
0.0413248
0.0413248
0.0413248
0.0413248
0.0413248
0.0413248
0.0413248
0.0413248
0.0413248
0.0413248
0.0413248
0.0413248
0.0413248
0.0413248
0.0413248
0.0413248
0.0413248
0.0413248
0.0413248
0.0413248
0.0413248
0.0413248
0.0413248
0.0413248
0.0413248
0.0413248
0.0413248
0.0413248
0.0413248
0.0413248
0.0413248
0.0413248
0.0413248
0.0413248
0.0413248
0.0413248
0.0413248
0.0413248
0.0413248
0.0413248
0.0413248
0.0413248
0.0413248
0.0413248
0.0413248
0.0413248
0.0413248
0.0413248
0.0413248
0.0413248
0.0413248
0.0413248
0.0413248
0.0413248
0.0413248
0.0413248
0.0413248
0.0413248
0.0413248
0.0413248
0.0413248
0.0413248
0.0413248
0.0413248
0.0413248
0.0413248
0.0413248
0.0413248
0.0413248
0.0413248
0.0413248
0.0413248
0.0413248
0.0413248
0.0413248
0.0413248
0.0413248
0.0413248
0.0413248
0.0413248
0.0413248
0.0413248
0.0413248
0.0413248
0.0413248
0.0413248
0.0413248
0.0413248
0.0413248
0.0413248
0.0413248
0.0413248
0.0413248
0.0413248
0.0413248
0.0413248
0.0413248
0.0413248
0.0413248
0.0413248
0.0413248
0.0413248
0.0413248
0.0413248
0.0413248
0.0413248
0.0413248
0.0413248
0.0413248
0.0413248
0.0413248
0.0413248
0.0413248
0.0413248
0.0413248
0.0413248
0.0413248
0.0413248
0.0413248
0.0413248
0.0413248
0.0413248
0.0413248
0.0413248
0.0413248
0.0413248
0.0413248
0.0413248
0.0413248
0.0413248
0.0413248
0.0413248
0.0413248
0.0413248
0.0413248
0.0413248
0.0413248
0.0413248
0.0413248
0.0413248
0.0413248
0.0413248
0.0413248
0.0413248
0.0413248
0.0413248
0.0413248
0.0413248
0.0413248
0.0413248
0.0413248
0.0413248
0.0413248
0.0413248
0.0413248
0.0413248
0.0413248
0.0413248
0.0413248
0.0413248
0.0413248
0.0413248
0.0413248
0.0413248
0.0413248
0.0413248
0.0413248
0.0413248
0.0413248
0.0413248
0.0413248
0.0413248
0.0413248
0.0413248
0.0413248
0.0413248
0.0413248
0.0413248
0.0413248
0.0413248
0.0413248
0.0413248
0.0413248
0.0413248
0.0413248
0.0413248
0.0413248
0.0413248
0.0413248
0.0413248
0.0413248
0.0413248
0.0413248
0.0413248
0.0413248
0.0413248
0.0413248
0.0413248
0.0413248
0.0413248
0.0413248
0.0413248
0.0413248
0.0413248
0.0413248
0.0413248
0.0413248
0.0413248
0.0413248
0.0413248
0.0413248
0.0413248
0.0413248
0.0413248
0.0413248
0.0413248
0.0413248
0.0413248
0.0413248
0.0413248
0.0413248
0.0413248
0.0413248
0.0413248
0.0413248
0.0413248
0.0413248
0.0413248
0.0413248
0.0413248
0.0413248
0.0413248
0.0413248
0.0413248
0.0413248
0.0413248
0.0413248
0.0413248
0.0413248
0.0413248
0.0413248
0.0413248
0.0413248
0.0413248
0.0413248
0.0413248
0.0413248
0.0413248
0.0413248
0.0413248
0.0413248
0.0413248
0.0413248
0.0413248
0.0413248
0.0413248
0.0413248
0.0413248
0.0413248
0.0413248
0.0413248
0.0413248
0.0413248
0.0413248
0.0413248
0.0413248
0.0413248
0.0413248
0.0413248
0.0413248
0.0413248
0.0413248
0.0413248
0.0413248
0.0413248
0.0413248
0.0413248
0.0413248
0.0413248
0.0413248
0.0413248
0.0413248
0.0413248
0.0413248
0.0413248
0.0413248
0.0413248
0.0413248
0.0413248
0.0413248
0.0413248
0.0413248
0.0413248
0.0413248
0.0413248
0.0413248
0.0413248
0.0413248
0.0413248
0.0413248
0.0413248
0.0413248
0.0413248
0.0413248
0.0413248
0.0413248
0.0413248
0.0413248
0.0413248
0.0413248
0.0413248
0.0413248
0.0413248
0.0413248
0.0413248
0.0413248
0.0413248
0.0413248
0.0413248
0.0413248
0.0413248
0.0413248
0.0413248
0.0413248
0.0413248
0.0413248
0.0413248
0.0413248
0.0413248
0.0413248
0.0413248
0.0413248
0.0413248
0.0413248
0.0413248
0.0413248
0.0413248
0.0413248
0.0413248
0.0413248
0.0413248
0.0413248
0.0413248
0.0413248
0.0413248
0.0413248
0.0413248
0.0413248
0.0413248
0.0413248
0.0413248
0.0413248
0.0413248
0.0413248
0.0413248
0.0413248
0.0413248
0.0413248
0.0413248
0.0413248
0.0413248
0.0413248
0.0413248
0.0413248
0.0413248
0.0413248
0.0413248
0.0413248
0.0413248
0.0413248
0.0413248
0.0413248
0.0413248
0.0413248
0.0413248
0.0413248
0.0413248
0.0413248
0.0413248
0.0413248
0.0413248
0.0413248
0.0413248
0.0413248
0.0413248
0.0413248
0.0413248
0.0413248
0.0413248
0.0413248
0.0413248
0.0413248
0.0413248
0.0413248
0.0413248
0.0413248
0.0413248
0.0413248
0.0413248
0.0413248
0.0413248
0.0413248
0.0413248
0.0413248
0.0413248
0.0413248
0.0413248
0.0413248
0.0413248
0.0413248
0.0413248
0.0413248
0.0413248
0.0413248
0.0413248
0.0413248
0.0413248
0.0413248
0.0413248
0.0413248
0.0413248
0.0413248
0.0413248
0.0413248
0.0413248
0.0413248
0.0413248
0.0413248
0.0413248
0.0413248
0.0413248
0.0413248
0.0413248
0.0413248
0.0413248
0.0413248
0.0413248
0.0413248
0.0413248
0.0413248
0.0413248
0.0413248
0.0413248
0.0413248
0.0413248
0.123974
0.123974
0.123974
0.123974
0.123974
0.123974
0.123974
0.123974
0.123974
0.123974
0.123974
0.123974
0.123974
0.123974
0.123974
0.123974
0.123974
0.123974
0.123974
0.123974
0.123974
0.123974
0.123974
0.123974
0.123974
0.123974
0.123974
0.123974
0.123974
0.123974
0.123974
0.123974
0.123974
0.123974
0.123974
0.123974
0.123974
0.123974
0.123974
0.123974
0.123974
0.123974
0.123974
0.123974
0.123974
0.123974
0.123974
0.123974
0.123974
0.123974
0.123974
0.123974
0.123974
0.123974
0.123974
