-0.684197
-0.684197
-0.684197
-0.684197
-0.684197
-0.684197
-0.684197
-0.684197
-0.684197
-0.684197
-0.684197
-0.684197
-0.684197
-0.684197
-0.684197
-0.684197
-0.684197
-0.684197
-0.684197
-0.684197
-0.684197
-0.684197
-0.684197
-0.684197
-0.684197
-0.684197
-0.684197
-0.684197
-0.684197
-0.684197
-0.684197
-0.684197
-0.684197
-0.684197
-0.684197
-0.684197
-0.684197
-0.684197
-0.684197
-0.684197
-0.684197
-0.684197
-0.684197
-0.684197
-0.684197
-0.684197
-0.684197
-0.684197
-0.684197
-0.684197
-0.684197
-0.684197
-0.684197
-0.684197
-0.684197
-0.684197
-0.684197
-0.684197
-0.684197
-0.684197
-0.684197
-0.684197
-0.684197
-0.684197
-0.684197
-0.684197
-0.684197
-0.684197
-0.684197
-0.684197
-0.684197
-0.684197
-0.684197
-0.684197
-0.684197
-0.684197
-0.684197
-0.684197
-0.684197
-0.684197
-0.684197
-0.684197
-0.684197
-0.684197
-0.684197
-0.684197
-0.684197
-0.684197
-0.684197
-0.684197
-0.684197
-0.228066
-0.228066
-0.228066
-0.228066
-0.228066
-0.228066
-0.228066
-0.228066
-0.228066
-0.228066
-0.228066
-0.228066
-0.228066
-0.228066
-0.228066
-0.228066
-0.228066
-0.228066
-0.228066
-0.228066
-0.228066
-0.228066
-0.228066
-0.228066
-0.228066
-0.228066
-0.228066
-0.228066
-0.228066
-0.228066
-0.228066
-0.228066
-0.228066
-0.228066
-0.228066
-0.228066
-0.228066
-0.228066
-0.228066
-0.228066
-0.228066
-0.228066
-0.228066
-0.228066
-0.228066
-0.228066
-0.228066
-0.228066
-0.228066
-0.228066
-0.228066
-0.228066
-0.228066
-0.228066
-0.228066
-0.228066
-0.228066
-0.228066
-0.228066
-0.228066
-0.228066
-0.228066
-0.228066
-0.228066
-0.228066
-0.228066
-0.228066
-0.228066
-0.228066
-0.228066
-0.228066
-0.228066
-0.228066
-0.228066
-0.228066
-0.228066
-0.228066
-0.228066
-0.228066
-0.228066
-0.228066
-0.228066
-0.228066
-0.228066
-0.228066
-0.228066
-0.228066
-0.228066
-0.228066
-0.228066
-0.228066
-0.228066
-0.228066
-0.228066
-0.228066
-0.228066
-0.228066
-0.228066
-0.228066
-0.228066
-0.228066
-0.228066
-0.228066
-0.228066
-0.228066
-0.228066
-0.228066
-0.228066
-0.228066
-0.228066
-0.228066
-0.228066
-0.228066
-0.228066
-0.228066
-0.228066
-0.228066
-0.228066
-0.228066
-0.228066
-0.228066
-0.228066
-0.228066
-0.228066
-0.228066
-0.228066
-0.228066
-0.228066
-0.228066
-0.228066
-0.228066
-0.228066
-0.228066
-0.228066
-0.228066
-0.228066
-0.228066
-0.228066
-0.228066
-0.228066
-0.228066
-0.228066
-0.228066
-0.228066
-0.228066
-0.228066
-0.228066
-0.228066
-0.228066
-0.228066
-0.228066
-0.228066
-0.228066
-0.228066
-0.228066
-0.228066
-0.228066
-0.228066
-0.228066
-0.228066
-0.228066
-0.228066
-0.228066
-0.228066
-0.228066
-0.228066
-0.228066
-0.228066
-0.228066
-0.228066
-0.228066
-0.228066
-0.228066
-0.228066
-0.228066
-0.228066
-0.228066
-0.228066
-0.228066
-0.228066
-0.228066
-0.228066
-0.228066
-0.228066
-0.228066
-0.228066
-0.228066
-0.228066
-0.228066
-0.228066
-0.228066
-0.228066
-0.228066
-0.228066
-0.228066
-0.228066
-0.228066
-0.228066
-0.228066
-0.228066
-0.228066
-0.228066
-0.228066
-0.228066
-0.228066
-0.228066
-0.228066
-0.228066
-0.228066
-0.228066
-0.228066
-0.228066
-0.228066
-0.228066
-0.228066
-0.228066
-0.228066
-0.228066
-0.228066
-0.228066
-0.228066
-0.228066
-0.228066
-0.228066
-0.228066
-0.228066
-0.228066
-0.228066
-0.228066
-0.228066
-0.228066
-0.228066
-0.228066
-0.228066
-0.228066
-0.228066
-0.228066
-0.228066
-0.228066
-0.228066
-0.228066
-0.228066
-0.228066
-0.228066
-0.228066
-0.228066
-0.228066
-0.228066
-0.228066
-0.228066
-0.228066
-0.228066
-0.228066
-0.228066
-0.228066
-0.228066
-0.228066
-0.228066
-0.228066
-0.228066
-0.228066
-0.228066
-0.228066
-0.228066
-0.228066
-0.228066
-0.228066
-0.228066
-0.228066
-0.228066
-0.228066
-0.228066
-0.228066
-0.228066
-0.228066
-0.228066
-0.228066
-0.228066
-0.228066
-0.228066
-0.228066
-0.228066
-0.228066
-0.228066
-0.228066
-0.228066
-0.228066
-0.228066
-0.228066
-0.228066
-0.228066
-0.228066
-0.228066
-0.228066
-0.228066
-0.228066
-0.228066
-0.228066
-0.228066
-0.228066
-0.228066
-0.228066
-0.228066
-0.228066
-0.228066
-0.228066
-0.228066
-0.228066
-0.228066
-0.228066
-0.228066
-0.228066
-0.228066
-0.228066
-0.228066
-0.228066
-0.228066
-0.228066
-0.228066
-0.228066
-0.228066
-0.228066
-0.228066
-0.228066
-0.228066
-0.228066
-0.228066
-0.228066
-0.228066
-0.228066
-0.228066
-0.228066
-0.228066
-0.228066
-0.228066
-0.228066
-0.228066
-0.228066
-0.228066
-0.228066
-0.228066
-0.228066
-0.228066
-0.228066
-0.228066
-0.228066
-0.228066
-0.228066
-0.228066
-0.228066
-0.228066
-0.228066
-0.228066
-0.228066
-0.228066
-0.228066
-0.228066
-0.228066
-0.228066
-0.228066
-0.228066
-0.228066
-0.228066
-0.228066
-0.228066
-0.228066
-0.228066
-0.228066
-0.228066
-0.228066
-0.228066
-0.228066
-0.228066
-0.228066
-0.228066
-0.228066
-0.228066
-0.228066
-0.228066
-0.228066
-0.228066
-0.228066
-0.228066
-0.228066
-0.228066
-0.228066
0.228066
0.228066
0.228066
0.228066
0.228066
0.228066
0.228066
0.228066
0.228066
0.228066
0.228066
0.228066
0.228066
0.228066
0.228066
0.228066
0.228066
0.228066
0.228066
0.228066
0.228066
0.228066
0.228066
0.228066
0.228066
0.228066
0.228066
0.228066
0.228066
0.228066
0.228066
0.228066
0.228066
0.228066
0.228066
0.228066
0.228066
0.228066
0.228066
0.228066
0.228066
0.228066
0.228066
0.228066
0.228066
0.228066
0.228066
0.228066
0.228066
0.228066
0.228066
0.228066
0.228066
0.228066
0.228066
0.228066
0.228066
0.228066
0.228066
0.228066
0.228066
0.228066
0.228066
0.228066
0.228066
0.228066
0.228066
0.228066
0.228066
0.228066
0.228066
0.228066
0.228066
0.228066
0.228066
0.228066
0.228066
0.228066
0.228066
0.228066
0.228066
0.228066
0.228066
0.228066
0.228066
0.228066
0.228066
0.228066
0.228066
0.228066
0.228066
0.228066
0.228066
0.228066
0.228066
0.228066
0.228066
0.228066
0.228066
0.228066
0.228066
0.228066
0.228066
0.228066
0.228066
0.228066
0.228066
0.228066
0.228066
0.228066
0.228066
0.228066
0.228066
0.228066
0.228066
0.228066
0.228066
0.228066
0.228066
0.228066
0.228066
0.228066
0.228066
0.228066
0.228066
0.228066
0.228066
0.228066
0.228066
0.228066
0.228066
0.228066
0.228066
0.228066
0.228066
0.228066
0.228066
0.228066
0.228066
0.228066
0.228066
0.228066
0.228066
0.228066
0.228066
0.228066
0.228066
0.228066
0.228066
0.228066
0.228066
0.228066
0.228066
0.228066
0.228066
0.228066
0.228066
0.228066
0.228066
0.228066
0.228066
0.228066
0.228066
0.228066
0.228066
0.228066
0.228066
0.228066
0.228066
0.228066
0.228066
0.228066
0.228066
0.228066
0.228066
0.228066
0.228066
0.228066
0.228066
0.228066
0.228066
0.228066
0.228066
0.228066
0.228066
0.228066
0.228066
0.228066
0.228066
0.228066
0.228066
0.228066
0.228066
0.228066
0.228066
0.228066
0.228066
0.228066
0.228066
0.228066
0.228066
0.228066
0.228066
0.228066
0.228066
0.228066
0.228066
0.228066
0.228066
0.228066
0.228066
0.228066
0.228066
0.228066
0.228066
0.228066
0.228066
0.228066
0.228066
0.228066
0.228066
0.228066
0.228066
0.228066
0.228066
0.228066
0.228066
0.228066
0.228066
0.228066
0.228066
0.228066
0.228066
0.228066
0.228066
0.228066
0.228066
0.228066
0.228066
0.228066
0.228066
0.228066
0.228066
0.228066
0.228066
0.228066
0.228066
0.228066
0.228066
0.228066
0.228066
0.228066
0.228066
0.228066
0.228066
0.228066
0.228066
0.228066
0.228066
0.228066
0.228066
0.228066
0.228066
0.228066
0.228066
0.228066
0.228066
0.228066
0.228066
0.228066
0.228066
0.228066
0.228066
0.228066
0.228066
0.228066
0.228066
0.228066
0.228066
0.228066
0.228066
0.228066
0.228066
0.228066
0.228066
0.228066
0.228066
0.228066
0.228066
0.228066
0.228066
0.228066
0.228066
0.228066
0.228066
0.228066
0.228066
0.228066
0.228066
0.228066
0.228066
0.228066
0.228066
0.228066
0.228066
0.228066
0.228066
0.228066
0.228066
0.228066
0.228066
0.228066
0.228066
0.228066
0.228066
0.228066
0.228066
0.228066
0.228066
0.228066
0.228066
0.228066
0.228066
0.228066
0.228066
0.228066
0.228066
0.228066
0.228066
0.228066
0.228066
0.228066
0.228066
0.228066
0.228066
0.228066
0.228066
0.228066
0.228066
0.228066
0.228066
0.228066
0.228066
0.228066
0.228066
0.228066
0.228066
0.684197
0.684197
0.684197
0.684197
0.684197
0.684197
0.684197
0.684197
0.684197
0.684197
0.684197
0.684197
0.684197
0.684197
0.684197
0.684197
