-0.0832945
-0.0832945
-0.0832945
-0.0832945
-0.0832945
-0.0832945
-0.0832945
-0.0832945
-0.0832945
-0.0832945
-0.0832945
-0.0832945
-0.0832945
-0.0832945
-0.0832945
-0.0832945
-0.0832945
-0.0832945
-0.0832945
-0.0832945
-0.0832945
-0.0832945
-0.0832945
-0.0832945
-0.0832945
-0.0832945
-0.0832945
-0.0832945
-0.0832945
-0.0832945
-0.0832945
-0.0832945
-0.0832945
-0.0832945
-0.0832945
-0.0832945
-0.0832945
-0.0832945
-0.0832945
-0.0832945
-0.0832945
-0.0832945
-0.0832945
-0.0832945
-0.0832945
-0.0832945
-0.0832945
-0.0832945
-0.0832945
-0.0832945
-0.0832945
-0.0832945
-0.0832945
-0.0832945
-0.0832945
-0.0832945
-0.0832945
-0.0832945
-0.0832945
-0.0832945
-0.0832945
-0.0832945
-0.0832945
-0.0832945
-0.0832945
-0.0832945
-0.0832945
-0.0832945
-0.0832945
-0.0832945
-0.0832945
-0.0832945
-0.0832945
-0.0832945
-0.0832945
-0.0832945
-0.0832945
-0.0832945
-0.0832945
-0.0832945
-0.0832945
-0.0832945
-0.0832945
-0.0832945
-0.0832945
-0.0832945
-0.0832945
-0.0832945
-0.0832945
-0.0832945
-0.0832945
0.0832945
0.0832945
0.0832945
0.0832945
0.0832945
0.0832945
0.0832945
0.0832945
0.0832945
0.0832945
0.0832945
0.0832945
0.0832945
0.0832945
0.0832945
0.0832945
0.0832945
0.0832945
0.0832945
0.0832945
0.0832945
0.0832945
0.0832945
0.0832945
0.0832945
0.0832945
0.0832945
0.0832945
0.0832945
0.0832945
0.0832945
0.0832945
0.0832945
0.0832945
0.0832945
0.0832945
0.0832945
0.0832945
0.0832945
0.0832945
0.0832945
0.0832945
0.0832945
0.0832945
0.0832945
0.0832945
0.0832945
0.0832945
0.0832945
0.0832945
0.0832945
0.0832945
0.0832945
0.0832945
0.0832945
0.0832945
0.0832945
0.0832945
0.0832945
