-0.317483
-0.317483
-0.317483
-0.317483
-0.317483
-0.317483
-0.317483
-0.317483
-0.317483
-0.317483
-0.317483
-0.317483
-0.317483
-0.317483
-0.317483
-0.317483
-0.317483
-0.317483
-0.317483
-0.317483
-0.317483
-0.317483
-0.317483
-0.317483
-0.317483
-0.317483
-0.317483
-0.317483
-0.317483
-0.317483
-0.317483
-0.317483
-0.317483
-0.317483
-0.317483
-0.317483
-0.317483
-0.317483
-0.317483
-0.317483
-0.317483
-0.317483
-0.317483
-0.317483
-0.317483
-0.317483
-0.317483
-0.317483
-0.317483
-0.317483
-0.317483
-0.317483
-0.317483
-0.317483
-0.317483
-0.317483
-0.317483
-0.317483
-0.317483
-0.317483
-0.317483
-0.317483
-0.317483
-0.317483
-0.317483
-0.317483
-0.317483
-0.317483
-0.317483
-0.317483
-0.317483
-0.317483
-0.317483
-0.317483
-0.317483
-0.317483
-0.317483
-0.317483
-0.317483
-0.317483
-0.317483
-0.317483
-0.317483
-0.317483
-0.317483
-0.317483
-0.317483
-0.317483
-0.317483
-0.317483
-0.317483
-0.317483
-0.317483
-0.317483
-0.317483
-0.317483
-0.317483
-0.317483
-0.317483
-0.317483
-0.317483
-0.317483
-0.317483
-0.317483
-0.317483
-0.317483
-0.317483
-0.317483
-0.317483
-0.317483
-0.317483
-0.317483
-0.317483
-0.317483
-0.317483
-0.317483
-0.317483
-0.317483
-0.317483
-0.317483
-0.317483
-0.317483
-0.317483
-0.317483
-0.317483
-0.317483
-0.317483
-0.317483
-0.317483
-0.317483
-0.317483
-0.317483
-0.317483
-0.317483
-0.317483
-0.317483
-0.317483
-0.317483
-0.317483
-0.317483
-0.317483
-0.317483
-0.317483
-0.317483
-0.317483
-0.317483
-0.317483
-0.317483
-0.317483
-0.317483
-0.317483
-0.317483
-0.317483
-0.317483
-0.317483
-0.317483
-0.317483
-0.317483
-0.317483
-0.317483
-0.317483
-0.317483
-0.317483
-0.317483
-0.317483
-0.317483
-0.317483
-0.317483
-0.317483
-0.317483
-0.317483
-0.317483
-0.317483
-0.317483
-0.317483
-0.317483
-0.317483
-0.317483
-0.317483
-0.317483
-0.317483
-0.317483
-0.317483
-0.317483
-0.317483
-0.317483
-0.317483
-0.317483
-0.317483
-0.317483
-0.317483
-0.317483
-0.317483
-0.317483
-0.317483
-0.317483
-0.317483
-0.317483
-0.317483
-0.317483
-0.317483
-0.317483
-0.317483
-0.317483
-0.317483
-0.317483
-0.317483
-0.317483
-0.317483
-0.317483
-0.317483
-0.317483
-0.317483
-0.317483
-0.317483
-0.317483
-0.317483
-0.317483
-0.317483
-0.317483
-0.317483
-0.317483
-0.317483
-0.317483
-0.317483
-0.317483
-0.317483
-0.317483
-0.317483
-0.317483
-0.317483
-0.317483
-0.317483
-0.317483
-0.317483
-0.317483
-0.317483
-0.317483
-0.317483
-0.317483
-0.317483
-0.317483
-0.317483
-0.317483
-0.317483
-0.317483
-0.317483
-0.317483
-0.317483
-0.317483
-0.317483
-0.317483
-0.317483
-0.317483
-0.317483
-0.317483
-0.317483
-0.317483
-0.317483
-0.317483
-0.317483
-0.317483
-0.317483
-0.317483
-0.317483
-0.317483
-0.317483
-0.317483
-0.317483
-0.317483
-0.317483
-0.317483
-0.317483
-0.317483
-0.317483
-0.317483
-0.317483
-0.317483
-0.317483
-0.317483
-0.317483
-0.317483
-0.317483
-0.317483
-0.317483
-0.317483
-0.317483
-0.317483
-0.317483
-0.317483
-0.317483
-0.317483
-0.317483
-0.317483
-0.317483
-0.317483
-0.317483
-0.317483
-0.317483
-0.317483
-0.317483
-0.317483
-0.317483
-0.317483
-0.317483
-0.317483
-0.317483
-0.317483
-0.317483
-0.317483
-0.317483
-0.317483
-0.317483
-0.317483
-0.317483
-0.317483
-0.317483
-0.317483
-0.317483
-0.317483
-0.317483
-0.317483
-0.317483
-0.317483
-0.317483
-0.317483
-0.317483
-0.317483
-0.317483
-0.317483
-0.317483
-0.317483
-0.317483
-0.317483
-0.317483
-0.317483
-0.317483
-0.317483
-0.317483
-0.317483
-0.317483
-0.317483
-0.317483
-0.317483
-0.317483
-0.317483
-0.317483
-0.317483
-0.317483
-0.317483
-0.317483
-0.317483
-0.317483
-0.317483
-0.317483
-0.317483
-0.317483
-0.317483
-0.317483
-0.317483
-0.317483
-0.317483
-0.317483
-0.317483
-0.317483
-0.317483
-0.317483
-0.317483
-0.317483
-0.317483
-0.317483
-0.317483
-0.317483
-0.317483
-0.317483
-0.317483
-0.317483
-0.317483
-0.317483
-0.317483
-0.317483
-0.317483
-0.317483
-0.317483
-0.317483
-0.317483
-0.317483
-0.317483
-0.317483
-0.317483
-0.317483
-0.317483
-0.317483
-0.317483
-0.317483
-0.317483
-0.317483
-0.317483
-0.317483
-0.317483
-0.317483
-0.317483
-0.317483
-0.317483
-0.317483
-0.317483
-0.317483
-0.317483
-0.317483
-0.317483
-0.317483
-0.317483
-0.317483
-0.317483
-0.317483
-0.317483
-0.317483
-0.317483
-0.317483
-0.317483
-0.317483
-0.317483
-0.317483
-0.317483
-0.317483
-0.317483
-0.317483
-0.317483
-0.317483
-0.317483
-0.317483
-0.317483
-0.317483
-0.317483
-0.317483
-0.317483
-0.317483
-0.317483
-0.317483
-0.317483
-0.317483
-0.317483
-0.317483
-0.317483
-0.317483
-0.317483
-0.317483
-0.317483
-0.317483
-0.317483
-0.317483
-0.317483
-0.317483
-0.317483
-0.317483
-0.317483
-0.317483
-0.317483
-0.317483
-0.317483
0.317483
0.317483
0.317483
0.317483
0.317483
0.317483
0.317483
0.317483
0.317483
0.317483
0.317483
0.317483
0.317483
0.317483
0.317483
0.317483
0.317483
0.317483
0.317483
0.317483
0.317483
0.317483
0.317483
0.317483
0.317483
0.317483
0.317483
0.317483
0.317483
0.317483
0.317483
0.317483
0.317483
0.317483
0.317483
0.317483
0.317483
0.317483
0.317483
0.317483
0.317483
0.317483
0.317483
0.317483
0.317483
0.317483
0.317483
0.317483
0.317483
0.317483
0.317483
0.317483
0.317483
0.317483
0.317483
0.317483
0.317483
0.317483
0.317483
0.317483
0.317483
0.317483
0.317483
0.317483
0.317483
0.317483
0.317483
0.317483
0.317483
0.317483
0.317483
0.317483
0.317483
0.317483
0.317483
0.317483
0.317483
0.317483
0.317483
0.317483
0.317483
0.317483
0.317483
0.317483
0.317483
0.317483
0.317483
0.317483
0.317483
0.317483
0.317483
0.317483
0.317483
0.317483
0.317483
0.317483
0.317483
0.317483
0.317483
0.317483
0.317483
0.317483
0.317483
0.317483
0.317483
0.317483
0.317483
0.317483
0.317483
0.317483
0.317483
0.317483
0.317483
0.317483
0.317483
0.317483
0.317483
0.317483
0.317483
0.317483
0.317483
0.317483
0.317483
0.317483
0.317483
0.317483
0.317483
0.317483
0.317483
0.317483
0.317483
0.317483
0.317483
0.317483
0.317483
0.317483
0.317483
0.317483
0.317483
0.317483
0.317483
0.317483
0.317483
0.317483
0.317483
0.317483
0.317483
0.317483
0.317483
0.317483
0.317483
0.317483
0.317483
0.317483
0.317483
0.317483
0.317483
0.317483
0.317483
0.317483
0.317483
0.317483
0.317483
0.317483
0.317483
0.317483
0.317483
0.317483
0.317483
0.317483
0.317483
0.317483
0.317483
0.317483
0.317483
0.317483
0.317483
0.317483
0.317483
0.317483
0.317483
0.317483
0.317483
0.317483
0.317483
0.317483
0.317483
0.317483
0.317483
0.317483
0.317483
0.317483
0.317483
0.317483
0.317483
0.317483
0.317483
0.317483
0.317483
0.317483
0.317483
0.317483
0.317483
0.317483
0.317483
0.317483
0.317483
0.317483
0.317483
0.317483
0.317483
0.317483
0.317483
0.317483
0.317483
0.317483
0.317483
0.317483
0.317483
0.317483
0.317483
0.317483
0.317483
0.317483
0.317483
0.317483
0.317483
0.317483
0.317483
0.317483
0.317483
0.317483
0.317483
0.317483
0.317483
0.317483
0.317483
0.317483
0.317483
0.317483
0.317483
0.317483
0.317483
0.317483
0.317483
0.317483
0.317483
0.317483
0.317483
0.317483
0.317483
0.317483
0.317483
0.317483
0.317483
0.317483
0.317483
0.317483
0.317483
0.317483
0.317483
0.317483
0.317483
0.317483
0.317483
0.317483
0.317483
0.317483
0.317483
0.317483
0.317483
0.317483
0.317483
0.317483
0.317483
0.317483
0.317483
0.317483
0.317483
0.317483
0.317483
0.317483
0.317483
0.317483
0.317483
0.317483
0.317483
0.317483
0.317483
0.317483
0.317483
0.317483
0.317483
0.317483
0.317483
0.317483
0.317483
0.317483
0.317483
0.317483
0.317483
0.317483
0.317483
0.317483
0.317483
0.317483
0.317483
0.317483
0.317483
0.317483
0.317483
0.317483
0.317483
0.317483
0.317483
0.317483
0.317483
0.317483
0.317483
0.317483
0.317483
0.317483
0.317483
0.317483
0.317483
0.317483
0.317483
0.317483
0.317483
0.317483
0.317483
0.317483
0.317483
0.317483
0.317483
0.317483
0.317483
0.317483
0.317483
0.317483
0.317483
0.317483
0.317483
0.317483
0.317483
0.317483
0.317483
0.317483
0.317483
0.317483
0.317483
0.317483
0.317483
0.317483
0.317483
0.317483
0.317483
0.317483
0.317483
0.317483
0.317483
0.317483
0.317483
0.317483
0.317483
0.317483
0.317483
0.317483
0.317483
0.317483
0.317483
0.317483
0.317483
0.317483
0.317483
0.317483
0.317483
0.317483
0.317483
0.317483
