-0.2995404899
-0.2964367867
-0.2865459323
-0.2442308068
-0.2397083044
-0.2353695482
-0.2289308012
-0.2194471657
-0.2061486244
-0.2054712474
-0.2052826881
-0.2029678226
-0.2016081214
-0.2011976689
-0.1908516884
-0.1764099747
-0.166040495
-0.1657090485
-0.1576306075
-0.1559998989
-0.152661413
-0.1462419778
-0.1437043846
-0.1328365207
-0.1293307394
-0.1290295422
-0.1249886006
-0.1199426875
-0.1186820716
-0.1154199317
-0.1152548194
-0.1111209542
-0.1093236655
-0.1058008596
-0.1021772027
-0.09907787293
-0.09805715084
-0.09476517141
-0.09267354012
-0.09213425964
-0.08908520639
-0.08223796636
-0.08070906997
-0.08045758307
-0.08030498773
-0.07555425912
-0.0751343444
-0.06595510989
-0.0616071932
-0.06053972244
-0.05663760006
-0.05445129052
-0.0540808849
-0.05350224301
-0.05317576602
-0.04821614549
-0.04308172688
-0.04182295874
-0.04117896035
-0.03830650449
-0.03699839488
-0.03511741385
-0.03467714041
-0.03151543438
-0.02911562845
-0.02889322862
-0.02535854466
-0.0237611644
-0.0212545637
-0.01890320517
-0.01529359352
-0.01450118329
-0.01369973924
-0.01145447232
-0.007363366894
-0.003534394316
0.001911957632
0.002853921149
0.003884250298
0.003893785179
0.005357603077
0.00665989425
0.008088791743
0.01668610424
0.0211382024
0.02553748153
0.02641528845
0.02674013004
0.02690845355
0.02935693599
0.03336128592
0.03439963982
0.03540801629
0.03595944867
0.04189821333
0.04215279967
0.05166251212
0.0518614687
0.05274921283
0.05471209437
0.05943594128
0.06002689898
0.06317604333
0.06466149539
0.06497358531
0.06894607842
0.07319090515
0.07381886244
0.08862793446
0.09145571291
0.1065564454
0.1084392816
0.1086307019
0.1102903783
0.1149607226
0.1207851619
0.1249800771
0.1282308549
0.1369139552
0.1400835961
0.1451901048
0.146308735
0.1556772143
0.1572393924
0.1584271938
0.162712425
0.1629851609
0.167630583
0.169783026
0.1810081005
0.1964974701
0.2032655329
0.2042670548
0.2141033858
0.2274375856
0.2352886945
0.2371034622
0.2455121428
0.258148551
0.2583652139
0.2606933117
0.2718326747
0.2743916512
0.2760154605
0.2928068638
0.2974731922
0.2976630032
0.3134028316
0.3366539478
0.3971812427
