-0.6603885889
-0.5900041461
-0.5859981775
-0.5780206323
-0.5599115491
-0.5566222668
-0.5433008671
-0.5300729275
-0.528988421
-0.5285792351
-0.5060593486
-0.4895826876
-0.4803529084
-0.4726473987
-0.470541209
-0.4694354534
-0.4523552358
-0.4472390413
-0.4471690655
-0.4465433955
-0.4462555945
-0.4450480938
-0.444534868
-0.440351963
-0.4232998788
-0.4096706212
-0.4082423747
-0.4062415361
-0.4028046727
-0.4024387002
-0.4022687376
-0.4004134834
-0.4000023603
-0.3933665454
-0.3894596398
-0.3887443542
-0.3818730414
-0.3794881403
-0.3718601167
-0.3706331551
-0.3674145639
-0.3670399785
-0.3663727343
-0.3661044538
-0.3644089103
-0.363301754
-0.3631812334
-0.3631198108
-0.3617423773
-0.3596740067
-0.3553827405
-0.3544835448
-0.353852421
-0.3488198221
-0.3469022214
-0.3459384143
-0.3408597708
-0.3388222456
-0.3385060728
-0.3372769356
-0.3362585306
-0.3352741301
-0.3344461322
-0.3343084157
-0.333381623
-0.331569463
-0.3295120001
-0.3260743618
-0.3259858787
-0.3245958388
-0.3208533227
-0.3194482327
-0.3152579069
-0.3123559952
-0.3117285669
-0.3095641434
-0.3089161217
-0.3085964024
-0.3085510731
-0.307543844
-0.3067688048
-0.3061516583
-0.3040311337
-0.3011261821
-0.2993278503
-0.2973514199
-0.2928740978
-0.2887453139
-0.2887176871
-0.2859961987
-0.2837262154
-0.2828325927
-0.2814491689
-0.2798100412
-0.279089123
-0.2774790525
-0.2768989503
-0.2765852213
-0.275916487
-0.2758090794
-0.275265038
-0.2752453089
-0.2735568285
-0.272518754
-0.2723916173
-0.2719540894
-0.2670713067
-0.264695406
-0.2618426383
-0.2614631653
-0.2607753277
-0.2604229748
-0.2602439821
-0.2592366636
-0.2583869398
-0.2576946914
-0.2563853562
-0.2548698187
-0.2542614043
-0.2526900172
-0.2515807748
-0.2503488064
-0.2500597835
-0.2499763519
-0.2497442514
-0.2494197041
-0.2487581372
-0.2485438734
-0.2482088506
-0.2453888357
-0.2452167124
-0.2438805848
-0.2438237369
-0.2418406457
-0.2410373092
-0.2403047681
-0.2389522791
-0.2387204468
-0.2358528078
-0.233283177
-0.2326922417
-0.231819734
-0.2305133045
-0.2297911942
-0.2297405005
-0.2292324901
-0.2278617322
-0.2274775207
-0.2273728698
-0.2270296812
-0.2266122699
-0.22605066
-0.2257633954
-0.2250990123
-0.2248893231
-0.2233473957
-0.2232509404
-0.2229768187
-0.2222127765
-0.2209467143
-0.2203317881
-0.2190460414
-0.2189509869
-0.2187148035
-0.2178175896
-0.2177778482
-0.2171100527
-0.216808781
-0.2161150575
-0.2160389423
-0.2159221023
-0.2157388777
-0.2155877203
-0.2155190259
-0.2153726518
-0.2145308405
-0.2145275921
-0.2139554173
-0.2138572782
-0.2135751843
-0.2105980963
-0.2101497054
-0.2096604854
-0.2090431899
-0.2073880732
-0.2069839239
-0.2065635324
-0.2059611976
-0.2041472942
-0.2032328397
-0.2012826651
-0.201189369
-0.2010999024
-0.199961096
-0.1998073608
-0.1990799904
-0.1990178823
-0.1983354837
-0.1980139017
-0.1979852319
-0.1978475899
-0.1976507902
-0.1975517571
-0.1973706186
-0.1952527761
-0.1948231161
-0.1944132149
-0.1940177232
-0.1939977556
-0.1932689995
-0.193120271
-0.1919707954
-0.1916864067
-0.1891379952
-0.1885494739
-0.188193351
-0.1877735555
-0.1873605549
-0.1871513426
-0.1869167984
-0.1859463751
-0.1852892339
-0.1852819473
-0.1852001101
-0.1845181584
-0.1842164397
-0.1838695854
-0.1838340908
-0.1833224595
-0.1822363436
-0.1817505658
-0.1813061386
-0.1805626601
-0.1801911443
-0.1796760708
-0.1791177541
-0.1786951423
-0.1780053824
-0.177785024
-0.1773218066
-0.1771957874
-0.1764442027
-0.1762773097
-0.1760872304
-0.1758110225
-0.1755052954
-0.1754771769
-0.1753935963
-0.1750833541
-0.1737884581
-0.1731315702
-0.1730934829
-0.1729099154
-0.1727354527
-0.1723143905
-0.1723087877
-0.1717580557
-0.1715935767
-0.1710323542
-0.1709434688
-0.1705422401
-0.1690717191
-0.1689897478
-0.1688712686
-0.1685016006
-0.1675768644
-0.1673550904
-0.1668004692
-0.1661955118
-0.1661428511
-0.1658224463
-0.165619567
-0.1655510515
-0.1649671495
-0.1645776778
-0.1644252688
-0.164402172
-0.1643100381
-0.1638133377
-0.1634864807
-0.1633210629
-0.1631716043
-0.1631209999
-0.1629814208
-0.1626709104
-0.1626054496
-0.162560463
-0.1620942652
-0.1619347483
-0.1615857482
-0.161151275
-0.1610302478
-0.1610018611
-0.1602011472
-0.1600141227
-0.1597041786
-0.1593961418
-0.1588498205
-0.158784613
-0.1587618738
-0.1587412059
-0.1586024165
-0.1583360285
-0.1583006531
-0.1580039859
-0.1573633254
-0.1568918526
-0.156784609
-0.15673545
-0.1560699642
-0.1550371498
-0.1548890918
-0.1546029449
-0.1545040905
-0.1538283825
-0.1536144614
-0.1535034031
-0.1532833725
-0.1531402618
-0.1529739052
-0.1529312432
-0.1523867249
-0.152270481
-0.1514673382
-0.150830552
-0.1504023969
-0.1502699554
-0.1501278728
-0.1498176455
-0.1493350267
-0.1491093636
-0.1486249566
-0.1480289251
-0.1479524374
-0.147898525
-0.1471015513
-0.1468310058
-0.146705389
-0.145743534
-0.145574376
-0.1454963088
-0.1454059184
-0.1453408301
-0.1450882256
-0.1444945335
-0.1441415101
-0.1440571994
-0.1437299401
-0.1433820128
-0.1427176744
-0.1426685303
-0.1426345855
-0.1423824877
-0.1421466619
-0.142071411
-0.1407489926
-0.1397057921
-0.1395705491
-0.1395454854
-0.1395381689
-0.1392579228
-0.1390424371
-0.1382026225
-0.137093097
-0.1370181143
-0.1370086968
-0.1369886696
-0.1368739158
-0.1365574151
-0.1364539862
-0.1363432407
-0.1362570524
-0.1361124963
-0.1360074878
-0.1350295395
-0.1348014325
-0.1343122125
-0.1342626661
-0.1336124688
-0.1333326846
-0.1331943274
-0.1327604055
-0.132273227
-0.1322166771
-0.1320367604
-0.1319679618
-0.1319155246
-0.1318047643
-0.1312303692
-0.1307536364
-0.1304679513
-0.1304027736
-0.1302026063
-0.1301410496
-0.1300221831
-0.1297428459
-0.1297198236
-0.1295553148
-0.129507035
-0.1292076707
-0.1290762424
-0.1290736794
-0.1287757158
-0.1285458058
-0.1284224838
-0.1279883087
-0.1279230416
-0.1278859526
-0.1274543852
-0.1271415949
-0.1268545985
-0.1268111765
-0.1267480999
-0.1265464574
-0.1262840778
-0.1261449009
-0.1258958131
-0.1256593466
-0.1255090982
-0.125428021
-0.125192374
-0.1251681447
-0.1251657307
-0.1249705479
-0.1247710437
-0.1241214275
-0.1235581934
-0.123252593
-0.1226309761
-0.1222001612
-0.1217022315
-0.1212498099
-0.1209537536
-0.1209265441
-0.1208037511
-0.1207605079
-0.1201627925
-0.1198800355
-0.1196849719
-0.1195112616
-0.1193223894
-0.1192594916
-0.1191551015
-0.1190554947
-0.1188478172
-0.1181517318
-0.1178679466
-0.1178369969
-0.1172797605
-0.1171978787
-0.1169109717
-0.1168579459
-0.1167329475
-0.1166042909
-0.1162277535
-0.1158443615
-0.115784198
-0.1156676337
-0.1154750288
-0.1154655069
-0.1148460284
-0.1142467782
-0.114078328
-0.113934271
-0.1138343513
-0.1135388091
-0.1135235056
-0.1135081351
-0.11329142
-0.1131444275
-0.1129720286
-0.112672545
-0.1122204587
-0.1113614291
-0.1113488078
-0.1109936908
-0.1107189506
-0.1106844693
-0.1105073541
-0.110066615
-0.1100183874
-0.1099007726
-0.1092755124
-0.1092721894
-0.1089877784
-0.1087635383
-0.1083256826
-0.108174786
-0.1076150686
-0.1073683128
-0.1072926447
-0.1071406528
-0.1070751771
-0.1069278046
-0.1067356914
-0.1065931916
-0.1063791886
-0.1063636318
-0.1060339585
-0.1059848964
-0.1059593707
-0.1058775261
-0.1058735996
-0.1057550758
-0.1049438715
-0.1048377678
-0.104831852
-0.1046218947
-0.1045356393
-0.1044490337
-0.1043110862
-0.1042880937
-0.1040427238
-0.1038354188
-0.1037877724
-0.1037316397
-0.1037312299
-0.1035825089
-0.1033598185
-0.1033274755
-0.1028661877
-0.1028083935
-0.1026381552
-0.1022255421
-0.1021259725
-0.10207095
-0.101774849
-0.1010839194
-0.1008747146
-0.1004132181
-0.1002841219
-0.1001555249
-0.1000167653
-0.09985836595
-0.09979431331
-0.09979110956
-0.09964875132
-0.09929711372
-0.09917137027
-0.09914949536
-0.09866555035
-0.09820264578
-0.09815079719
-0.09808256477
-0.09777725488
-0.09772797674
-0.09744501859
-0.09743314981
-0.09706329554
-0.09698803723
-0.09684642404
-0.09667094797
-0.09648091346
-0.09617945552
-0.09590571374
-0.09517872334
-0.09513045847
-0.0950763002
-0.09476150572
-0.09445998073
-0.09445340186
-0.09444631636
-0.09438040853
-0.09419781715
-0.09416592866
-0.09410746396
-0.09398788214
-0.09388417751
-0.09359337389
-0.09347500652
-0.0934470892
-0.09330622107
-0.09300868958
-0.0929512158
-0.092940934
-0.09273014218
-0.09261147678
-0.09248191863
-0.09235931933
-0.09222491086
-0.09138587117
-0.09131795913
-0.09131042659
-0.09120942652
-0.09108708799
-0.09105733782
-0.09085592628
-0.0904872939
-0.09036330879
-0.09017133713
-0.09003338963
-0.08999414742
-0.08982586861
-0.08972720057
-0.0896018967
-0.08949940652
-0.08929657191
-0.08877063543
-0.08850949258
-0.08813906461
-0.08774323016
-0.0871924758
-0.08700891584
-0.08654113114
-0.08645626903
-0.0864501074
-0.0862910971
-0.08613812923
-0.08609163016
-0.08602080494
-0.08601487428
-0.08588174731
-0.08587136865
-0.08558908105
-0.0853600204
-0.0848955363
-0.08484141529
-0.08450233936
-0.08414947242
-0.08399029821
-0.08397871256
-0.08394622803
-0.08390720189
-0.08382470906
-0.08370172977
-0.08361063153
-0.08351653814
-0.08340877295
-0.08325389773
-0.08309839666
-0.08294589818
-0.08284773678
-0.08277677
-0.08276893198
-0.08268702775
-0.08247184753
-0.08240520954
-0.08235219121
-0.08230657876
-0.08230321109
-0.08214621246
-0.081634745
-0.08151800185
-0.08120454848
-0.0807812959
-0.08052163571
-0.08046176285
-0.08044632524
-0.08043932915
-0.08043302596
-0.08038862795
-0.08017701656
-0.07998427749
-0.07952336967
-0.07949560881
-0.07949060202
-0.07940916717
-0.07911328971
-0.07855202258
-0.07839439064
-0.07820603997
-0.07796416432
-0.07790423185
-0.07788219303
-0.07719801366
-0.07716242224
-0.07702644914
-0.07683760673
-0.07663692534
-0.076497145
-0.07647678256
-0.07632565498
-0.07624460757
-0.07597078383
-0.07589680701
-0.07575557381
-0.0756893605
-0.0755225122
-0.07503000647
-0.07475977391
-0.07471397519
-0.07429789007
-0.07429344207
-0.07417443395
-0.07411362976
-0.07388834655
-0.07347204536
-0.07330822945
-0.07325324416
-0.0726383999
-0.0725434646
-0.07237527519
-0.07229792327
-0.07179543376
-0.07173157483
-0.07134250551
-0.07125923783
-0.07121540606
-0.07106567919
-0.07093466818
-0.07077889144
-0.07037882507
-0.07036909461
-0.07023066282
-0.07003811002
-0.06982203573
-0.06977690011
-0.06909491867
-0.06908360124
-0.06896278262
-0.06875192374
-0.06851620227
-0.06851005554
-0.06847129762
-0.06813954562
-0.06802079082
-0.06790583581
-0.06778786331
-0.06722822785
-0.0670851022
-0.06704639643
-0.06687989831
-0.06645217538
-0.06635413319
-0.06627438962
-0.06590039283
-0.06564436853
-0.06563397497
-0.06556289643
-0.06549843401
-0.06473117322
-0.06447187811
-0.06439170241
-0.064054735
-0.0640425086
-0.0638903603
-0.0638659969
-0.06369622052
-0.06355810165
-0.06308671087
-0.06269045174
-0.06257086992
-0.06252860278
-0.06216373667
-0.06195496023
-0.0617945455
-0.06137269363
-0.0610868372
-0.06085502729
-0.06055205315
-0.06035462767
-0.06030414253
-0.05984736606
-0.05930091813
-0.05929195136
-0.0588378422
-0.05883494392
-0.05882304534
-0.05876852944
-0.05875940248
-0.05871594697
-0.05866927654
-0.05862549692
-0.05835562199
-0.05828003213
-0.05821616203
-0.05772246793
-0.05768382922
-0.05746326596
-0.05746252835
-0.05742855743
-0.05740311369
-0.05719629303
-0.05707219243
-0.05696317554
-0.05686636642
-0.05678001791
-0.05670135096
-0.05585474893
-0.05580805242
-0.05567666516
-0.0556377098
-0.05547657609
-0.05537938327
-0.05527365953
-0.05495958403
-0.05494794622
-0.05487493053
-0.05486770347
-0.05456554145
-0.05447950214
-0.05438963324
-0.05430036411
-0.05425817147
-0.05413192138
-0.05403799564
-0.05368022248
-0.05339922756
-0.05333995819
-0.05332186818
-0.05298679695
-0.05290012434
-0.0528042838
-0.05276594684
-0.05254611
-0.05249591917
-0.05226863921
-0.05225363374
-0.05187036842
-0.05147663131
-0.0513686128
-0.05131877214
-0.05120866373
-0.05120649189
-0.05101878941
-0.05096740276
-0.05081092566
-0.05080551282
-0.05079358071
-0.05078841746
-0.05078041553
-0.0505437851
-0.05051333085
-0.05047271028
-0.0501367338
-0.04989825934
-0.04986390471
-0.04986106604
-0.04943577945
-0.04927993938
-0.04911915213
-0.0482900776
-0.04800887778
-0.04796404392
-0.04777431861
-0.04755852744
-0.04741471261
-0.04723222926
-0.04715968296
-0.04650642723
-0.04650159925
-0.04643603042
-0.04583165422
-0.04582542554
-0.04575717822
-0.04558151215
-0.045093216
-0.04475911707
-0.04464271292
-0.04458207265
-0.04436376318
-0.04429881647
-0.04424256459
-0.04413254559
-0.04394775629
-0.04390213639
-0.04385865107
-0.04372009635
-0.04358082265
-0.04356072843
-0.04342129827
-0.04315558448
-0.04295742512
-0.04248048738
-0.0424714759
-0.04237351194
-0.04227837548
-0.04203829542
-0.04186319187
-0.04137687758
-0.04107864574
-0.0409075059
-0.04081335664
-0.04052822664
-0.04043612257
-0.04040363804
-0.0401077643
-0.04006206989
-0.04002557695
-0.039598234
-0.03947981447
-0.03924056515
-0.03910981864
-0.03899796307
-0.03898208588
-0.03880378976
-0.03873516992
-0.03845922276
-0.03816187009
-0.03810555115
-0.03794495761
-0.03792909533
-0.03776158392
-0.03775331751
-0.0376560241
-0.03765384108
-0.03758579865
-0.03679170832
-0.03669403121
-0.03646365181
-0.03632764891
-0.03627453744
-0.03625225648
-0.03615332767
-0.03607714549
-0.03604800254
-0.03603061289
-0.03593674302
-0.03585235775
-0.03563141823
-0.03549955413
-0.03549761698
-0.03547189757
-0.03539411351
-0.03537673503
-0.0353455767
-0.0350548923
-0.03491510823
-0.03469596431
-0.03463957459
-0.03459841385
-0.03450926393
-0.03430597857
-0.03428048268
-0.03418557346
-0.03414775804
-0.03409221396
-0.03394298255
-0.03377778083
-0.03374407813
-0.0337286368
-0.0336801298
-0.03346534818
-0.03342676908
-0.03332627192
-0.03328423575
-0.03322144598
-0.03317416459
-0.03307709098
-0.03290690482
-0.03287680447
-0.03274001181
-0.03273003921
-0.03269722313
-0.03263700753
-0.03253868222
-0.03236492723
-0.03231305629
-0.03225553781
-0.03225380555
-0.03220373392
-0.03215269372
-0.03208608553
-0.03198227659
-0.03191450611
-0.03188830987
-0.03161269054
-0.03159927949
-0.03139713779
-0.03120779991
-0.0312019363
-0.03099879064
-0.03074769676
-0.0305308383
-0.03048347123
-0.03044208512
-0.0301931221
-0.02983897738
-0.0298345536
-0.02975690179
-0.02964237146
-0.02950900048
-0.02919878066
-0.02912781201
-0.02900590934
-0.02861164883
-0.02852615714
-0.02842940576
-0.02821073681
-0.02821011841
-0.02814351954
-0.02806735039
-0.02803448588
-0.02786747739
-0.02775418758
-0.02770363912
-0.02768037841
-0.02752933651
-0.0273057241
-0.02727967314
-0.02700341865
-0.026987385
-0.02679698914
-0.02678384632
-0.02675423957
-0.02658301964
-0.02625221014
-0.02618653513
-0.02607285976
-0.02591082826
-0.0256166663
-0.0256106779
-0.02519481815
-0.02504082955
-0.02496126853
-0.02488707565
-0.02487585321
-0.02482701652
-0.0247637853
-0.02468260936
-0.02461133339
-0.02435187995
-0.02432746999
-0.02386150137
-0.02385912277
-0.02367028594
-0.02356185578
-0.02328511886
-0.02322782204
-0.02312656306
-0.02306544781
-0.02269197814
-0.02257302403
-0.02236970887
-0.0222002957
-0.02218809724
-0.02211048454
-0.02197831124
-0.02155523002
-0.02152582072
-0.02129523829
-0.02123719454
-0.02123493701
-0.02115385607
-0.02110638097
-0.02086593956
-0.02086223103
-0.02066205256
-0.02060993016
-0.02047046646
-0.0204586871
-0.02029022388
-0.0202122163
-0.02014442533
-0.01990794204
-0.01981581561
-0.01953883097
-0.01941228099
-0.01936127059
-0.01901368052
-0.01881022379
-0.01880567335
-0.01868910715
-0.01857191697
-0.01848294958
-0.01812156476
-0.01810304262
-0.01788740978
-0.01780510135
-0.01776903495
-0.01763829403
-0.01760369167
-0.01756157726
-0.01748778671
-0.01733879
-0.01728449203
-0.017223645
-0.01718930528
-0.01704215445
-0.01687495783
-0.01668533124
-0.01658672653
-0.01649760269
-0.01619100943
-0.01617271639
-0.01580189355
-0.01568288356
-0.0156686902
-0.01562538557
-0.01544405613
-0.01535962056
-0.01535033993
-0.0152166523
-0.01499335468
-0.01477592625
-0.01470938046
-0.01452200301
-0.01449157856
-0.01443994604
-0.0143747367
-0.01432325784
-0.01370508038
-0.01315830834
-0.01268978417
-0.01259702072
-0.01252093911
-0.01250805892
-0.01247856859
-0.0124572292
-0.01217658259
-0.01217592135
-0.01214149594
-0.01197946724
-0.01191198826
-0.01178804412
-0.0114017725
-0.01137863193
-0.01117824297
-0.01104715932
-0.01103370357
-0.01078968216
-0.01072486304
-0.01060462743
-0.01051767729
-0.01037618518
-0.01036825869
-0.01013047621
-0.009883237071
-0.009868619964
-0.009788277559
-0.009592753835
-0.009587590583
-0.009487518109
-0.009397310205
-0.009333685972
-0.009300606325
-0.009127753787
-0.008759438992
-0.008555718698
-0.008513489738
-0.008308982477
-0.008177434094
-0.008145554923
-0.008108298294
-0.008078349754
-0.007969193161
-0.007961465977
-0.00795427803
-0.007900849916
-0.007183206268
-0.00714493962
-0.007144316565
-0.007120599039
-0.006999785081
-0.006874722894
-0.006825761404
-0.006729644723
-0.006710456219
-0.00668970542
-0.006373188458
-0.006361003499
-0.006312516518
-0.005928002298
-0.005851993337
-0.005791720003
-0.005532335956
-0.005406383891
-0.005282387137
-0.005219315179
-0.005020123906
-0.004848281387
-0.004822264891
-0.004802556243
-0.004794114735
-0.00472911261
-0.0047258595
-0.004600040615
-0.004392137285
-0.004329007585
-0.004325421993
-0.004246103577
-0.004230136052
-0.004021918401
-0.003926704172
-0.003799911356
-0.003431722987
-0.003261927748
-0.003257964738
-0.003175589256
-0.003152666846
-0.002850826364
-0.00272604241
-0.002539869864
-0.002120081335
-0.002075825352
-0.002020300366
-0.001932546147
-0.001779180369
-0.00137649267
-0.001350863953
-0.00134808023
-0.00129485759
-0.001212992822
-0.001115047606
-0.001078464324
-0.00101956469
-0.001012281282
-0.001005015918
-0.0009857252007
-0.0007889370318
-0.0007056311588
-0.0006216664333
-0.0005479466054
-0.0002446303552
6.089450835e-05
8.507577149e-05
0.0003200735664
0.0006398728583
0.0006520522875
0.0008672887343
0.000998209347
0.001045090961
0.001782492967
0.00182534114
0.001874921843
0.002084068255
0.002118785167
0.002161126817
0.00221542595
0.002291610697
0.002360375831
0.002369339112
0.002404040191
0.002433378715
0.002460706746
0.002466308419
0.002527665114
0.002656816039
0.002734808251
0.002822433366
0.003112789942
0.003208548063
0.003535362659
0.004167508334
0.004169414286
0.004182588775
0.004212382715
0.004228265956
0.004251145758
0.004455455579
0.004497662652
0.004511585925
0.004524942487
0.004754484631
0.004756018985
0.005413748324
0.005480302498
0.005710315425
0.006050678901
0.006231151056
0.006340364926
0.00656684814
0.006688878872
0.006701576989
0.006962497253
0.007007326465
0.007133350708
0.007137564477
0.007380767725
0.007505814079
0.007533435244
0.007739433553
0.008031937294
0.008262647316
0.008325627074
0.008585835807
0.008608359843
0.008815675043
0.008825464174
0.008954501711
0.00900330767
0.009143970907
0.009335551411
0.009892996401
0.009922968224
0.01032764185
0.0103547303
0.01046322659
0.01080632117
0.01110495813
0.01115161367
0.01122445147
0.01127696969
0.01180027425
0.01193968486
0.01201945916
0.01204781421
0.01218995359
0.01220191456
0.01233169623
0.01259921677
0.0127612967
0.01288245339
0.01289470401
0.0132002309
0.01336711552
0.013369116
0.01340566576
0.01345582772
0.01346491836
0.01349825319
0.01370468456
0.0137465382
0.01381900907
0.01392116118
0.01437769365
0.01453800313
0.01481352374
0.01491883583
0.0149810845
0.01518748421
0.01526252087
0.01528876554
0.01530938316
0.01549812313
0.01561744884
0.01562021859
0.01582143456
0.01583909616
0.01585734263
0.01590714045
0.01595497504
0.01597727835
0.01600838825
0.01617304794
0.01629530638
0.0165345706
0.01677760854
0.01692786627
0.01695769653
0.01721159555
0.0173726771
0.01741569862
0.01747402176
0.01750813425
0.01759987883
0.01784413122
0.01797895133
0.01806008443
0.01811772585
0.0183678139
0.01841219887
0.01874678954
0.01878016442
0.01880326122
0.01886399649
0.01910422929
0.01910672709
0.01913739555
0.0191453509
0.01940852031
0.01962710544
0.01967911981
0.01971260272
0.01979416236
0.01986621134
0.02011292614
0.02024109662
0.02025980689
0.02051829547
0.02061880194
0.02064036205
0.02067261562
0.02071710676
0.02074504271
0.02087233402
0.02108134516
0.02127415873
0.02152249403
0.02159742452
0.02205013297
0.02216255479
0.02223658003
0.02229859494
0.0224225577
0.02242506668
0.02247223817
0.02259514108
0.02259590477
0.02266994119
0.02287941054
0.02290561609
0.02303053997
0.02309467271
0.02314847521
0.02336258441
0.02347518317
0.02364930883
0.02380742505
0.0238444563
0.02399209701
0.02404164337
0.02430107258
0.02458009124
0.02464553528
0.02465771884
0.02471205778
0.02486496232
0.02493769675
0.02496205643
0.02510420792
0.0251756385
0.02523742802
0.02533145994
0.02537895367
0.02560330182
0.02574364282
0.0258047767
0.02586866729
0.02590508014
0.02595483325
0.02619408444
0.02626940794
0.02631884627
0.02642018907
0.02646252885
0.02667776123
0.02686748467
0.026928287
0.02697537839
0.02731731534
0.02735762298
0.02756353654
0.02789116278
0.02789808996
0.02800093591
0.02810684964
0.0281281434
0.02846026793
0.02854084969
0.02856261469
0.02879648283
0.02887922712
0.02892150357
0.02896338142
0.02898011357
0.02919476293
0.02923674881
0.02927393466
0.02928946912
0.02930336632
0.02951778099
0.02967952564
0.02982823364
0.02984337136
0.02985995822
0.02993969433
0.0300899148
0.03038042597
0.03044883348
0.03082744591
0.03097615018
0.03108383901
0.03125237674
0.03132129461
0.0314180553
0.03183494136
0.03199640289
0.03205388412
0.03209726512
0.03243020177
0.03244536743
0.03259274364
0.0325951241
0.03276664391
0.03283626214
0.0330436267
0.03325156495
0.03362394124
0.03367598727
0.03385220841
0.03403329849
0.03406833485
0.03419621289
0.03436117247
0.03453255445
0.03476013243
0.03482608497
0.03484513611
0.034877114
0.03502341732
0.03528603911
0.03564998507
0.03571314365
0.035816513
0.03587852791
0.03590892628
0.03591262922
0.03598275781
0.03620068356
0.0362871103
0.03642166778
0.03679278865
0.03682349622
0.03684365004
0.03684982285
0.03712369874
0.0371597968
0.03721392155
0.03723716363
0.03724727407
0.03763104975
0.03772580996
0.03794410452
0.03826494887
0.03840878233
0.03840985894
0.03852482885
0.03859927505
0.03864247352
0.03877576441
0.03897546604
0.03935450315
0.03939972818
0.03965661675
0.03980119154
0.03996472433
0.04015971348
0.04043678194
0.04049608484
0.04057550058
0.04059351236
0.04060265049
0.04076503217
0.04077218845
0.04084047303
0.04090776294
0.04104338214
0.04110911861
0.04118949175
0.04136773199
0.0415131636
0.0415388234
0.04182142392
0.04217802733
0.0422257483
0.04241712764
0.04242096096
0.04247483239
0.04247655347
0.04255123436
0.04256100953
0.0427114889
0.04275041446
0.04285528138
0.04354666919
0.04357199371
0.04451431707
0.0447579734
0.04490005597
0.04532865807
0.04536657408
0.04550493136
0.04561097547
0.04561828822
0.04573789611
0.04630502313
0.04637764767
0.0465445593
0.04663619399
0.04668544978
0.04672060162
0.04674391821
0.04677926749
0.04697676003
0.04771248624
0.04778239876
0.04778324813
0.04786907136
0.04803318158
0.04832642525
0.0487495102
0.04891356081
0.04902012646
0.04915009812
0.04923297837
0.04946863651
0.04958265275
0.04965732247
0.04974383488
0.04990957305
0.04995338991
0.0499958545
0.05001607165
0.05004450306
0.05004452914
0.05052444339
0.05068616942
0.05104913935
0.05129345506
0.05131429061
0.05148943141
0.05235941708
0.05241711438
0.05249485001
0.05272067711
0.05282578617
0.0528722778
0.05291313305
0.05291356891
0.05314698815
0.05332680047
0.05334113166
0.05339682847
0.05359588936
0.05368791521
0.05377167463
0.05379090458
0.0538787432
0.05398692936
0.05414697155
0.05425836146
0.05428459495
0.0543598868
0.05470135808
0.05489332229
0.0549303256
0.05493094027
0.05506025255
0.05513210595
0.05531873927
0.0553307198
0.05535277724
0.05547910556
0.05558585376
0.055784069
0.05592554808
0.05601265281
0.05638701096
0.05642646179
0.0566906482
0.05677389726
0.05679628253
0.05682638288
0.05683222413
0.05700428784
0.0571173355
0.05711894482
0.05737614259
0.05742033944
0.05769408122
0.05785205588
0.05801361427
0.05803548172
0.05824931711
0.05826100335
0.05831601471
0.05833665282
0.05837350339
0.05839819834
0.05854158103
0.05864420906
0.05864553899
0.05870997161
0.05878055468
0.05880728364
0.0588260144
0.05882677808
0.05903989449
0.0590682663
0.05921995267
0.05926305428
0.05927524343
0.05933688954
0.05955924839
0.05974995717
0.05997588858
0.05998542532
0.06026580185
0.06032751128
0.06047340482
0.06060391292
0.06066853181
0.06071538851
0.06094902381
0.0613511242
0.06135429814
0.06136611477
0.06138812751
0.06149934605
0.06151291728
0.06163930893
0.0617727749
0.06191906333
0.06240937486
0.06244621053
0.06245767698
0.06252749264
0.06271755695
0.06276423484
0.06277731806
0.06280685216
0.06290300936
0.06303759664
0.06328219175
0.06341635436
0.06407959759
0.06437204033
0.06461712718
0.064710401
0.06473695487
0.06523308903
0.06532207876
0.06549058855
0.06550885737
0.06562536955
0.06563281268
0.06618853658
0.06656144559
0.06686816365
0.06708263606
0.06723371893
0.06736364216
0.06744996458
0.06745740026
0.06749083847
0.06752076
0.06779444218
0.06801600009
0.06803328544
0.06810679287
0.06848152727
0.06871619821
0.06894823909
0.06897164136
0.06952279061
0.069731839
0.07019270957
0.07022947073
0.0703188926
0.07047408819
0.07063709199
0.07075750828
0.07082492113
0.07083772123
0.07088076323
0.07094695419
0.07100031525
0.07128563523
0.07155394554
0.07169050723
0.07175897062
0.07176057994
0.07193153352
0.07253891975
0.07274521142
0.07288494706
0.07306975871
0.07315184176
0.07315603644
0.07321386039
0.07327859104
0.07336587459
0.07352466136
0.07380636036
0.0738767311
0.07410131395
0.07424332201
0.07426941395
0.07427072525
0.07437613606
0.07441009581
0.07446911186
0.07450061291
0.07455123216
0.07460481673
0.07472334057
0.0747930035
0.07487814873
0.07488226146
0.074934192
0.07533343136
0.07545506209
0.0756739229
0.07587503642
0.07636223733
0.07715483755
0.07716765255
0.0771907568
0.0773056969
0.07757903636
0.07762973756
0.07766228914
0.07776585221
0.07802212983
0.07814816386
0.07821301371
0.07825492322
0.07832346857
0.0785144642
0.07854215056
0.07868981361
0.07881400734
0.07884722948
0.07908186316
0.07949081063
0.07949968427
0.07958545536
0.07964152843
0.07970245183
0.08010772616
0.08022029698
0.08031146228
0.08035318553
0.08036307245
0.08043798059
0.08063869923
0.08068328351
0.08079340309
0.08082904667
0.08083247393
0.08087287098
0.08090175688
0.08105999976
0.08112306893
0.08121929318
0.08127173036
0.08132921904
0.08206517994
0.08236986399
0.08238247782
0.08255521208
0.08262446523
0.08268353343
0.08325145394
0.08344429731
0.08345845342
0.08349277079
0.08357629925
0.08368031681
0.08372668177
0.08378265053
0.08412322402
0.08431190997
0.08440840244
0.08506388217
0.08511058241
0.08521196246
0.08522242308
0.08524559438
0.08529041708
0.08550256491
0.08558478206
0.08559262007
0.08566999435
0.08578083664
0.08604007959
0.08637125045
0.08638015389
0.08654423058
0.08669453114
0.08676448464
0.08685597777
0.0869595781
0.08698907495
0.08701302856
0.08702553809
0.0871090889
0.08712637424
0.08756647259
0.08762133867
0.08775146306
0.08785316348
0.08788657188
0.08802545071
0.08809673786
0.08822497725
0.08835570514
0.08836245537
0.08838682622
0.08856121451
0.08900929987
0.08920763433
0.08934755623
0.08940829337
0.08956709504
0.08985099196
0.0899091512
0.09036628902
0.09043540806
0.09044498205
0.09072721004
0.09074603766
0.09085168689
0.09089075774
0.09090090543
0.09106574208
0.09125670791
0.09137781709
0.09209699929
0.09214284271
0.09225674719
0.09245819598
0.09261863679
0.09270876646
0.09285894036
0.09343314171
0.0934798643
0.09358401597
0.09369187057
0.09370148182
0.09408272803
0.09426165372
0.09431641549
0.09466631711
0.09469366819
0.09475601465
0.09481813759
0.09497831017
0.09504357725
0.09506388009
0.09515544027
0.09540736675
0.09549474716
0.09567293525
0.09578984976
0.09599772096
0.09673269838
0.09685251862
0.09690313041
0.09698680788
0.09725891054
0.09728333354
0.09750649333
0.0977287069
0.09783247858
0.09821578115
0.09825354815
0.09829762578
0.09846539795
0.09867566079
0.09884572029
0.09885557741
0.09911079705
0.09942194819
0.09966318309
0.09973489493
0.1001241058
0.1004095599
0.1009021252
0.1009230986
0.1011825576
0.1011849195
0.1017609313
0.1019973308
0.1022682711
0.1023829877
0.1023917273
0.1025432572
0.1028381214
0.1031810939
0.1031982601
0.1033442542
0.1034892052
0.1034966633
0.1035815477
0.1036083922
0.1036601439
0.103732571
0.1039349288
0.1040810347
0.1046042591
0.1046669856
0.1047761366
0.1048971191
0.1052907333
0.1052969322
0.1054989025
0.1055965051
0.105656296
0.1057075858
0.1057170182
0.1064660475
0.1064730659
0.1065341458
0.1070044413
0.1072319523
0.1072434261
0.1074810922
0.1081057265
0.1085091829
0.1091046482
0.1091277078
0.1091373861
0.1092664972
0.1092778146
0.1093407795
0.1093419194
0.1093519852
0.1095114425
0.109671101
0.1099459827
0.1099551842
0.1100549772
0.1101243049
0.1101295352
0.1103367656
0.1105902269
0.1105998978
0.1106784791
0.1109415889
0.1113247871
0.1120154485
0.1120241657
0.1120821089
0.1122708172
0.1123279706
0.1125122607
0.1126414463
0.1129071414
0.1130271405
0.1132698879
0.1132923961
0.1133892462
0.1135015711
0.1136730611
0.1142590269
0.1144266352
0.1145813614
0.1147146299
0.1148658693
0.1148674637
0.1149025485
0.1150444895
0.1157630235
0.1160039827
0.1160616651
0.1164324582
0.1165346429
0.1166327074
0.1168691069
0.1175018996
0.1178156435
0.1178995296
0.1183918789
0.1184997186
0.1185441315
0.1192326918
0.1195112094
0.1195930168
0.1198486611
0.1201051772
0.1201687381
0.1202499568
0.1206498966
0.1209720746
0.1214215308
0.1214814112
0.1216761246
0.1218654588
0.1221484095
0.1222919598
0.1222933084
0.1225302443
0.1225313321
0.1233375221
0.123338148
0.1235314459
0.1237296835
0.1238542646
0.1240158156
0.1240945756
0.1241713017
0.1242077351
0.1243836135
0.1246653944
0.1247651875
0.1248115227
0.1248752177
0.1251312494
0.1252440065
0.1252906919
0.1254282445
0.1256548762
0.1260121912
0.1260765046
0.126137346
0.1266892552
0.1271040291
0.1272004694
0.1272190213
0.1274113804
0.1277327389
0.1281656176
0.1285704225
0.1286709905
0.1287020892
0.1291933358
0.129205972
0.1294017285
0.1297324002
0.1297424138
0.1306062639
0.130644232
0.1309383661
0.1313901991
0.1315167844
0.1319212615
0.1319862157
0.1321041286
0.132181257
0.1324062049
0.1324229538
0.1325611174
0.1328170598
0.1328863353
0.1329664886
0.1330137998
0.1332289279
0.1335186809
0.1338367313
0.1340376586
0.1340580732
0.1340889186
0.1345494688
0.1347453296
0.1348413378
0.134872973
0.1350215375
0.1355509758
0.1364609003
0.136519134
0.1365412623
0.1367089301
0.1368400306
0.1369818598
0.1371873915
0.1372124702
0.1373331547
0.1375237256
0.1375698745
0.1384996623
0.1385512054
0.1386874765
0.1388686895
0.1393491179
0.1399633139
0.1404431164
0.1405427605
0.1411142647
0.1421816647
0.1427068561
0.1428075135
0.1429419369
0.1430834532
0.1431685388
0.1432278007
0.1436772197
0.1443136334
0.1444320828
0.1445123553
0.1446527988
0.1451509893
0.1458211541
0.1459577382
0.1461745352
0.1463864297
0.1464121789
0.1464338303
0.1465563923
0.1466233581
0.1473177224
0.1478188187
0.1478912681
0.1483437568
0.1483617723
0.1485563666
0.1486849338
0.1487163156
0.1488179862
0.1488479525
0.1489610076
0.1494057924
0.1497048587
0.1497277766
0.1498633176
0.1498677582
0.1499590278
0.1505228132
0.1505824476
0.1506234556
0.150631845
0.1506345868
0.1511262059
0.1516828686
0.1519477069
0.1519648433
0.152136296
0.1521808654
0.1526909024
0.1529333293
0.1531440318
0.1534375995
0.1553278267
0.1556823552
0.1563426852
0.1563452333
0.1570967287
0.1572308838
0.1572547257
0.1581661999
0.1582520902
0.1583783627
0.158730343
0.1590891182
0.1591048986
0.1593249142
0.1603179574
0.1607569903
0.1609080732
0.1613001972
0.1613488048
0.161558032
0.1623808891
0.1628374755
0.1628856957
0.1631446928
0.1636647433
0.1636842489
0.1638027728
0.1641803235
0.1651483476
0.1653112918
0.1656849831
0.1661485881
0.1666511744
0.1667310894
0.1670487523
0.1674339175
0.1676920801
0.1678808481
0.1679716259
0.1684859842
0.168510884
0.1685545892
0.1687803715
0.1689675152
0.1690117121
0.1690708697
0.1699800044
0.1702582836
0.1703920662
0.17050457
0.1707755625
0.1710696965
0.17115511
0.1717909276
0.1719539464
0.172034502
0.1721936464
0.1730669737
0.1731154472
0.1735751182
0.1739357561
0.1739459485
0.1745354235
0.1746508777
0.1747036129
0.1749344915
0.1751864552
0.1752651483
0.1752938926
0.1758441031
0.1760379225
0.1761373878
0.1761610508
0.1762467027
0.1767665595
0.1773222834
0.1776658297
0.1776658893
0.1776885986
0.1791633517
0.180371508
0.180921942
0.1812496334
0.1813475192
0.1813549101
0.1815434843
0.182732448
0.1835501492
0.1841934472
0.1853923649
0.1856133044
0.1858668923
0.1858986914
0.1860978603
0.1865888089
0.1868776232
0.1870138645
0.1870440096
0.1870701164
0.1873639673
0.1874821782
0.1877120882
0.1877561361
0.1881469637
0.1896043271
0.1900518835
0.190205723
0.1908098161
0.1921093166
0.195511952
0.1958219856
0.196052447
0.1966864765
0.1973051429
0.1974147707
0.1974456012
0.1985776722
0.2004655004
0.2010022402
0.201318264
0.2019011676
0.2022542208
0.2025365382
0.2027522624
0.2041007578
0.2043120265
0.2043674439
0.2048135698
0.2051931024
0.2055819184
0.2066850662
0.2068152875
0.2069581747
0.2070448995
0.2076790333
0.2098132819
0.2109615654
0.2116978019
0.2122312039
0.2128844857
0.2133314759
0.21400249
0.2144708037
0.2154803425
0.2166465819
0.2168611437
0.2177185416
0.2180630416
0.2192330807
0.2207170725
0.2214473039
0.2215470225
0.2232981324
0.2236895114
0.2247806042
0.2252536863
0.2268437296
0.2300301939
0.2315386832
0.2343984246
0.2361330986
0.2361983508
0.2368394285
0.238460809
0.238473013
0.2390965521
0.2393428832
0.2402085662
0.245994553
0.2466917485
0.2467206568
0.2515636086
0.251629889
0.2518702149
0.2531262934
0.2553622425
0.2578674853
0.2583394349
0.2590956092
0.2601504326
0.2615841627
0.2671589851
0.2674377263
0.2704358399
0.2715553343
0.2742477357
0.2766058445
0.2789635658
0.2797040939
0.2884724736
0.289906323
0.2912142873
0.2934711576
0.2974588573
0.297736764
0.300013274
0.3013855815
0.3084676564
0.3261235058
0.3302207887
0.3468140066
0.3470374942
0.3547228277
0.3685629368
0.3868496418
0.3971979916
0.5009057522
