-0.102298
-0.102298
-0.102298
-0.102298
-0.102298
-0.102298
-0.102298
-0.102298
-0.102298
-0.102298
-0.102298
-0.102298
-0.102298
-0.102298
-0.102298
-0.102298
-0.102298
-0.102298
-0.102298
-0.102298
-0.102298
-0.102298
-0.102298
-0.102298
-0.102298
-0.102298
-0.102298
-0.102298
-0.102298
-0.102298
-0.102298
-0.102298
-0.102298
-0.102298
-0.102298
-0.102298
-0.102298
-0.102298
-0.102298
-0.102298
-0.102298
-0.102298
-0.102298
-0.102298
-0.102298
-0.102298
-0.102298
-0.102298
-0.102298
-0.102298
-0.102298
-0.102298
-0.102298
-0.102298
-0.102298
-0.102298
-0.102298
-0.102298
-0.102298
-0.102298
-0.102298
-0.102298
-0.102298
-0.102298
-0.102298
-0.102298
-0.102298
-0.102298
-0.102298
-0.102298
-0.102298
-0.102298
-0.102298
-0.102298
-0.102298
-0.102298
-0.102298
-0.102298
-0.102298
-0.102298
-0.102298
-0.102298
-0.102298
-0.102298
-0.102298
-0.102298
-0.102298
-0.102298
-0.102298
-0.102298
-0.102298
-0.102298
-0.102298
-0.102298
-0.102298
-0.102298
-0.102298
-0.102298
-0.102298
-0.102298
-0.102298
-0.102298
-0.102298
-0.102298
-0.102298
-0.102298
-0.102298
-0.102298
-0.102298
-0.102298
-0.102298
-0.102298
-0.102298
-0.102298
-0.102298
-0.102298
-0.102298
-0.102298
-0.102298
-0.102298
-0.102298
-0.102298
-0.102298
-0.102298
-0.102298
-0.102298
-0.102298
-0.102298
-0.102298
-0.102298
-0.102298
-0.102298
-0.102298
-0.102298
-0.102298
-0.102298
-0.102298
-0.102298
-0.102298
-0.102298
-0.102298
-0.102298
-0.102298
-0.102298
-0.102298
-0.102298
-0.102298
-0.102298
-0.102298
-0.102298
-0.102298
-0.102298
-0.102298
-0.102298
-0.102298
-0.102298
-0.102298
-0.102298
-0.102298
-0.102298
-0.102298
-0.102298
-0.102298
-0.102298
-0.102298
-0.102298
-0.102298
-0.102298
-0.102298
-0.102298
-0.102298
-0.102298
-0.102298
-0.102298
-0.102298
-0.102298
-0.102298
-0.102298
-0.102298
-0.102298
-0.102298
-0.102298
-0.102298
-0.102298
-0.102298
-0.102298
-0.102298
-0.102298
-0.102298
-0.102298
-0.102298
-0.102298
-0.102298
-0.102298
-0.102298
-0.102298
-0.102298
-0.102298
-0.102298
-0.102298
-0.102298
-0.102298
-0.102298
-0.102298
-0.102298
-0.102298
-0.102298
-0.102298
-0.102298
-0.0340994
-0.0340994
-0.0340994
-0.0340994
-0.0340994
-0.0340994
-0.0340994
-0.0340994
-0.0340994
-0.0340994
-0.0340994
-0.0340994
-0.0340994
-0.0340994
-0.0340994
-0.0340994
-0.0340994
-0.0340994
-0.0340994
-0.0340994
-0.0340994
-0.0340994
-0.0340994
-0.0340994
-0.0340994
-0.0340994
-0.0340994
-0.0340994
-0.0340994
-0.0340994
-0.0340994
-0.0340994
-0.0340994
-0.0340994
-0.0340994
-0.0340994
-0.0340994
-0.0340994
-0.0340994
-0.0340994
-0.0340994
-0.0340994
-0.0340994
-0.0340994
-0.0340994
-0.0340994
-0.0340994
-0.0340994
-0.0340994
-0.0340994
-0.0340994
-0.0340994
-0.0340994
-0.0340994
-0.0340994
-0.0340994
-0.0340994
-0.0340994
-0.0340994
-0.0340994
-0.0340994
-0.0340994
-0.0340994
-0.0340994
-0.0340994
-0.0340994
-0.0340994
-0.0340994
-0.0340994
-0.0340994
-0.0340994
-0.0340994
-0.0340994
-0.0340994
-0.0340994
-0.0340994
-0.0340994
-0.0340994
-0.0340994
-0.0340994
-0.0340994
-0.0340994
-0.0340994
-0.0340994
-0.0340994
-0.0340994
-0.0340994
-0.0340994
-0.0340994
-0.0340994
-0.0340994
-0.0340994
-0.0340994
-0.0340994
-0.0340994
-0.0340994
-0.0340994
-0.0340994
-0.0340994
-0.0340994
-0.0340994
-0.0340994
-0.0340994
-0.0340994
-0.0340994
-0.0340994
-0.0340994
-0.0340994
-0.0340994
-0.0340994
-0.0340994
-0.0340994
-0.0340994
-0.0340994
-0.0340994
-0.0340994
-0.0340994
-0.0340994
-0.0340994
-0.0340994
-0.0340994
-0.0340994
-0.0340994
-0.0340994
-0.0340994
-0.0340994
-0.0340994
-0.0340994
-0.0340994
-0.0340994
-0.0340994
-0.0340994
-0.0340994
-0.0340994
-0.0340994
-0.0340994
-0.0340994
-0.0340994
-0.0340994
-0.0340994
-0.0340994
-0.0340994
-0.0340994
-0.0340994
-0.0340994
-0.0340994
-0.0340994
-0.0340994
-0.0340994
-0.0340994
-0.0340994
-0.0340994
-0.0340994
-0.0340994
-0.0340994
-0.0340994
-0.0340994
-0.0340994
-0.0340994
-0.0340994
-0.0340994
-0.0340994
-0.0340994
-0.0340994
-0.0340994
-0.0340994
-0.0340994
-0.0340994
-0.0340994
-0.0340994
-0.0340994
-0.0340994
-0.0340994
-0.0340994
-0.0340994
-0.0340994
-0.0340994
-0.0340994
-0.0340994
-0.0340994
-0.0340994
-0.0340994
-0.0340994
-0.0340994
-0.0340994
-0.0340994
-0.0340994
-0.0340994
-0.0340994
-0.0340994
-0.0340994
-0.0340994
-0.0340994
-0.0340994
-0.0340994
-0.0340994
-0.0340994
-0.0340994
-0.0340994
-0.0340994
-0.0340994
-0.0340994
-0.0340994
-0.0340994
-0.0340994
-0.0340994
-0.0340994
-0.0340994
-0.0340994
-0.0340994
-0.0340994
-0.0340994
-0.0340994
-0.0340994
-0.0340994
-0.0340994
-0.0340994
-0.0340994
-0.0340994
-0.0340994
-0.0340994
-0.0340994
-0.0340994
-0.0340994
-0.0340994
-0.0340994
-0.0340994
-0.0340994
-0.0340994
-0.0340994
-0.0340994
-0.0340994
-0.0340994
-0.0340994
-0.0340994
-0.0340994
-0.0340994
-0.0340994
-0.0340994
-0.0340994
-0.0340994
-0.0340994
-0.0340994
-0.0340994
-0.0340994
-0.0340994
-0.0340994
-0.0340994
-0.0340994
-0.0340994
-0.0340994
-0.0340994
-0.0340994
-0.0340994
-0.0340994
-0.0340994
-0.0340994
-0.0340994
-0.0340994
-0.0340994
-0.0340994
-0.0340994
-0.0340994
-0.0340994
-0.0340994
-0.0340994
-0.0340994
-0.0340994
-0.0340994
-0.0340994
-0.0340994
-0.0340994
-0.0340994
-0.0340994
-0.0340994
-0.0340994
-0.0340994
-0.0340994
-0.0340994
-0.0340994
-0.0340994
-0.0340994
-0.0340994
-0.0340994
-0.0340994
-0.0340994
-0.0340994
-0.0340994
-0.0340994
-0.0340994
-0.0340994
-0.0340994
-0.0340994
-0.0340994
-0.0340994
-0.0340994
-0.0340994
-0.0340994
-0.0340994
-0.0340994
-0.0340994
-0.0340994
-0.0340994
-0.0340994
-0.0340994
-0.0340994
-0.0340994
-0.0340994
-0.0340994
-0.0340994
-0.0340994
-0.0340994
-0.0340994
-0.0340994
-0.0340994
-0.0340994
-0.0340994
-0.0340994
-0.0340994
-0.0340994
-0.0340994
-0.0340994
-0.0340994
-0.0340994
-0.0340994
-0.0340994
-0.0340994
-0.0340994
-0.0340994
-0.0340994
-0.0340994
-0.0340994
-0.0340994
-0.0340994
-0.0340994
-0.0340994
-0.0340994
-0.0340994
-0.0340994
-0.0340994
-0.0340994
-0.0340994
-0.0340994
-0.0340994
-0.0340994
-0.0340994
-0.0340994
-0.0340994
-0.0340994
-0.0340994
-0.0340994
-0.0340994
-0.0340994
-0.0340994
-0.0340994
-0.0340994
-0.0340994
-0.0340994
-0.0340994
-0.0340994
-0.0340994
-0.0340994
-0.0340994
-0.0340994
-0.0340994
-0.0340994
-0.0340994
-0.0340994
-0.0340994
-0.0340994
-0.0340994
-0.0340994
-0.0340994
-0.0340994
-0.0340994
-0.0340994
-0.0340994
-0.0340994
-0.0340994
-0.0340994
-0.0340994
-0.0340994
-0.0340994
-0.0340994
-0.0340994
-0.0340994
-0.0340994
-0.0340994
-0.0340994
-0.0340994
-0.0340994
-0.0340994
-0.0340994
-0.0340994
-0.0340994
-0.0340994
-0.0340994
-0.0340994
-0.0340994
-0.0340994
-0.0340994
-0.0340994
-0.0340994
-0.0340994
-0.0340994
-0.0340994
-0.0340994
-0.0340994
-0.0340994
-0.0340994
-0.0340994
-0.0340994
-0.0340994
-0.0340994
-0.0340994
-0.0340994
-0.0340994
-0.0340994
-0.0340994
-0.0340994
-0.0340994
-0.0340994
-0.0340994
-0.0340994
-0.0340994
-0.0340994
-0.0340994
-0.0340994
-0.0340994
-0.0340994
-0.0340994
-0.0340994
-0.0340994
-0.0340994
-0.0340994
-0.0340994
-0.0340994
-0.0340994
-0.0340994
-0.0340994
-0.0340994
-0.0340994
-0.0340994
-0.0340994
-0.0340994
-0.0340994
-0.0340994
-0.0340994
-0.0340994
-0.0340994
-0.0340994
-0.0340994
-0.0340994
-0.0340994
-0.0340994
-0.0340994
-0.0340994
-0.0340994
-0.0340994
-0.0340994
-0.0340994
-0.0340994
-0.0340994
-0.0340994
-0.0340994
-0.0340994
-0.0340994
-0.0340994
-0.0340994
-0.0340994
-0.0340994
-0.0340994
-0.0340994
-0.0340994
-0.0340994
-0.0340994
-0.0340994
-0.0340994
-0.0340994
-0.0340994
-0.0340994
-0.0340994
-0.0340994
-0.0340994
-0.0340994
-0.0340994
-0.0340994
-0.0340994
-0.0340994
-0.0340994
-0.0340994
-0.0340994
-0.0340994
-0.0340994
-0.0340994
-0.0340994
-0.0340994
-0.0340994
-0.0340994
-0.0340994
-0.0340994
-0.0340994
-0.0340994
-0.0340994
-0.0340994
-0.0340994
-0.0340994
-0.0340994
-0.0340994
-0.0340994
-0.0340994
-0.0340994
-0.0340994
-0.0340994
-0.0340994
-0.0340994
-0.0340994
-0.0340994
-0.0340994
-0.0340994
-0.0340994
-0.0340994
-0.0340994
-0.0340994
-0.0340994
-0.0340994
-0.0340994
-0.0340994
-0.0340994
-0.0340994
-0.0340994
-0.0340994
-0.0340994
-0.0340994
-0.0340994
-0.0340994
-0.0340994
-0.0340994
-0.0340994
-0.0340994
-0.0340994
-0.0340994
-0.0340994
-0.0340994
-0.0340994
-0.0340994
-0.0340994
-0.0340994
-0.0340994
-0.0340994
-0.0340994
-0.0340994
-0.0340994
-0.0340994
-0.0340994
-0.0340994
-0.0340994
-0.0340994
-0.0340994
-0.0340994
-0.0340994
-0.0340994
-0.0340994
-0.0340994
-0.0340994
-0.0340994
-0.0340994
-0.0340994
-0.0340994
-0.0340994
-0.0340994
-0.0340994
-0.0340994
-0.0340994
-0.0340994
-0.0340994
-0.0340994
-0.0340994
-0.0340994
-0.0340994
-0.0340994
-0.0340994
-0.0340994
-0.0340994
-0.0340994
-0.0340994
-0.0340994
-0.0340994
-0.0340994
-0.0340994
-0.0340994
-0.0340994
-0.0340994
-0.0340994
-0.0340994
-0.0340994
-0.0340994
-0.0340994
-0.0340994
-0.0340994
-0.0340994
-0.0340994
-0.0340994
-0.0340994
-0.0340994
-0.0340994
-0.0340994
-0.0340994
-0.0340994
-0.0340994
-0.0340994
-0.0340994
-0.0340994
-0.0340994
-0.0340994
-0.0340994
-0.0340994
-0.0340994
-0.0340994
-0.0340994
-0.0340994
-0.0340994
-0.0340994
-0.0340994
-0.0340994
-0.0340994
-0.0340994
-0.0340994
-0.0340994
-0.0340994
-0.0340994
-0.0340994
-0.0340994
-0.0340994
-0.0340994
-0.0340994
-0.0340994
-0.0340994
-0.0340994
-0.0340994
-0.0340994
-0.0340994
-0.0340994
-0.0340994
-0.0340994
-0.0340994
-0.0340994
-0.0340994
-0.0340994
-0.0340994
-0.0340994
-0.0340994
-0.0340994
-0.0340994
-0.0340994
-0.0340994
-0.0340994
-0.0340994
-0.0340994
-0.0340994
-0.0340994
-0.0340994
-0.0340994
-0.0340994
-0.0340994
-0.0340994
-0.0340994
-0.0340994
-0.0340994
-0.0340994
-0.0340994
-0.0340994
-0.0340994
-0.0340994
-0.0340994
-0.0340994
-0.0340994
-0.0340994
-0.0340994
-0.0340994
-0.0340994
-0.0340994
-0.0340994
-0.0340994
-0.0340994
-0.0340994
-0.0340994
-0.0340994
-0.0340994
-0.0340994
-0.0340994
-0.0340994
-0.0340994
-0.0340994
-0.0340994
-0.0340994
-0.0340994
-0.0340994
-0.0340994
-0.0340994
-0.0340994
-0.0340994
-0.0340994
-0.0340994
-0.0340994
-0.0340994
-0.0340994
-0.0340994
-0.0340994
-0.0340994
-0.0340994
-0.0340994
-0.0340994
-0.0340994
-0.0340994
-0.0340994
-0.0340994
-0.0340994
-0.0340994
-0.0340994
-0.0340994
-0.0340994
-0.0340994
-0.0340994
-0.0340994
-0.0340994
-0.0340994
-0.0340994
-0.0340994
-0.0340994
-0.0340994
-0.0340994
-0.0340994
-0.0340994
-0.0340994
-0.0340994
-0.0340994
-0.0340994
-0.0340994
-0.0340994
-0.0340994
-0.0340994
-0.0340994
-0.0340994
-0.0340994
-0.0340994
-0.0340994
-0.0340994
-0.0340994
-0.0340994
-0.0340994
-0.0340994
-0.0340994
-0.0340994
-0.0340994
-0.0340994
-0.0340994
-0.0340994
-0.0340994
-0.0340994
-0.0340994
-0.0340994
-0.0340994
-0.0340994
-0.0340994
-0.0340994
-0.0340994
-0.0340994
-0.0340994
-0.0340994
-0.0340994
-0.0340994
-0.0340994
-0.0340994
-0.0340994
-0.0340994
-0.0340994
-0.0340994
-0.0340994
-0.0340994
-0.0340994
-0.0340994
-0.0340994
-0.0340994
-0.0340994
-0.0340994
-0.0340994
-0.0340994
-0.0340994
-0.0340994
-0.0340994
-0.0340994
-0.0340994
-0.0340994
-0.0340994
-0.0340994
-0.0340994
-0.0340994
-0.0340994
-0.0340994
-0.0340994
-0.0340994
-0.0340994
-0.0340994
-0.0340994
-0.0340994
-0.0340994
-0.0340994
-0.0340994
-0.0340994
-0.0340994
-0.0340994
-0.0340994
-0.0340994
-0.0340994
-0.0340994
-0.0340994
-0.0340994
-0.0340994
-0.0340994
-0.0340994
-0.0340994
-0.0340994
-0.0340994
-0.0340994
-0.0340994
-0.0340994
-0.0340994
-0.0340994
-0.0340994
-0.0340994
-0.0340994
-0.0340994
-0.0340994
-0.0340994
-0.0340994
-0.0340994
-0.0340994
-0.0340994
-0.0340994
-0.0340994
-0.0340994
-0.0340994
-0.0340994
-0.0340994
-0.0340994
-0.0340994
-0.0340994
-0.0340994
-0.0340994
-0.0340994
-0.0340994
-0.0340994
-0.0340994
-0.0340994
-0.0340994
-0.0340994
-0.0340994
-0.0340994
-0.0340994
-0.0340994
-0.0340994
-0.0340994
-0.0340994
-0.0340994
-0.0340994
-0.0340994
-0.0340994
-0.0340994
-0.0340994
-0.0340994
-0.0340994
-0.0340994
-0.0340994
-0.0340994
-0.0340994
-0.0340994
-0.0340994
-0.0340994
-0.0340994
-0.0340994
-0.0340994
-0.0340994
-0.0340994
-0.0340994
-0.0340994
-0.0340994
-0.0340994
-0.0340994
-0.0340994
-0.0340994
-0.0340994
-0.0340994
-0.0340994
-0.0340994
-0.0340994
-0.0340994
-0.0340994
-0.0340994
-0.0340994
-0.0340994
-0.0340994
-0.0340994
-0.0340994
-0.0340994
-0.0340994
-0.0340994
-0.0340994
-0.0340994
-0.0340994
-0.0340994
-0.0340994
-0.0340994
-0.0340994
-0.0340994
-0.0340994
-0.0340994
-0.0340994
-0.0340994
-0.0340994
-0.0340994
-0.0340994
-0.0340994
-0.0340994
-0.0340994
-0.0340994
-0.0340994
-0.0340994
-0.0340994
-0.0340994
-0.0340994
-0.0340994
-0.0340994
-0.0340994
-0.0340994
-0.0340994
-0.0340994
-0.0340994
-0.0340994
-0.0340994
-0.0340994
-0.0340994
-0.0340994
-0.0340994
-0.0340994
-0.0340994
-0.0340994
-0.0340994
-0.0340994
-0.0340994
-0.0340994
-0.0340994
-0.0340994
-0.0340994
-0.0340994
-0.0340994
-0.0340994
-0.0340994
-0.0340994
-0.0340994
-0.0340994
-0.0340994
-0.0340994
-0.0340994
-0.0340994
-0.0340994
-0.0340994
-0.0340994
-0.0340994
-0.0340994
-0.0340994
-0.0340994
-0.0340994
-0.0340994
-0.0340994
-0.0340994
-0.0340994
-0.0340994
-0.0340994
-0.0340994
-0.0340994
-0.0340994
-0.0340994
-0.0340994
-0.0340994
-0.0340994
-0.0340994
-0.0340994
-0.0340994
-0.0340994
-0.0340994
-0.0340994
-0.0340994
-0.0340994
-0.0340994
-0.0340994
-0.0340994
-0.0340994
-0.0340994
-0.0340994
-0.0340994
-0.0340994
-0.0340994
-0.0340994
-0.0340994
-0.0340994
-0.0340994
-0.0340994
-0.0340994
-0.0340994
-0.0340994
-0.0340994
-0.0340994
-0.0340994
-0.0340994
-0.0340994
-0.0340994
-0.0340994
-0.0340994
-0.0340994
-0.0340994
-0.0340994
-0.0340994
-0.0340994
0.0340994
0.0340994
0.0340994
0.0340994
0.0340994
0.0340994
0.0340994
0.0340994
0.0340994
0.0340994
0.0340994
0.0340994
0.0340994
0.0340994
0.0340994
0.0340994
0.0340994
0.0340994
0.0340994
0.0340994
0.0340994
0.0340994
0.0340994
0.0340994
0.0340994
0.0340994
0.0340994
0.0340994
0.0340994
0.0340994
0.0340994
0.0340994
0.0340994
0.0340994
0.0340994
0.0340994
0.0340994
0.0340994
0.0340994
0.0340994
0.0340994
0.0340994
0.0340994
0.0340994
0.0340994
0.0340994
0.0340994
0.0340994
0.0340994
0.0340994
0.0340994
0.0340994
0.0340994
0.0340994
0.0340994
0.0340994
0.0340994
0.0340994
0.0340994
0.0340994
0.0340994
0.0340994
0.0340994
0.0340994
0.0340994
0.0340994
0.0340994
0.0340994
0.0340994
0.0340994
0.0340994
0.0340994
0.0340994
0.0340994
0.0340994
0.0340994
0.0340994
0.0340994
0.0340994
0.0340994
0.0340994
0.0340994
0.0340994
0.0340994
0.0340994
0.0340994
0.0340994
0.0340994
0.0340994
0.0340994
0.0340994
0.0340994
0.0340994
0.0340994
0.0340994
0.0340994
0.0340994
0.0340994
0.0340994
0.0340994
0.0340994
0.0340994
0.0340994
0.0340994
0.0340994
0.0340994
0.0340994
0.0340994
0.0340994
0.0340994
0.0340994
0.0340994
0.0340994
0.0340994
0.0340994
0.0340994
0.0340994
0.0340994
0.0340994
0.0340994
0.0340994
0.0340994
0.0340994
0.0340994
0.0340994
0.0340994
0.0340994
0.0340994
0.0340994
0.0340994
0.0340994
0.0340994
0.0340994
0.0340994
0.0340994
0.0340994
0.0340994
0.0340994
0.0340994
0.0340994
0.0340994
0.0340994
0.0340994
0.0340994
0.0340994
0.0340994
0.0340994
0.0340994
0.0340994
0.0340994
0.0340994
0.0340994
0.0340994
0.0340994
0.0340994
0.0340994
0.0340994
0.0340994
0.0340994
0.0340994
0.0340994
0.0340994
0.0340994
0.0340994
0.0340994
0.0340994
0.0340994
0.0340994
0.0340994
0.0340994
0.0340994
0.0340994
0.0340994
0.0340994
0.0340994
0.0340994
0.0340994
0.0340994
0.0340994
0.0340994
0.0340994
0.0340994
0.0340994
0.0340994
0.0340994
0.0340994
0.0340994
0.0340994
0.0340994
0.0340994
0.0340994
0.0340994
0.0340994
0.0340994
0.0340994
0.0340994
0.0340994
0.0340994
0.0340994
0.0340994
0.0340994
0.0340994
0.0340994
0.0340994
0.0340994
0.0340994
0.0340994
0.0340994
0.0340994
0.0340994
0.0340994
0.0340994
0.0340994
0.0340994
0.0340994
0.0340994
0.0340994
0.0340994
0.0340994
0.0340994
0.0340994
0.0340994
0.0340994
0.0340994
0.0340994
0.0340994
0.0340994
0.0340994
0.0340994
0.0340994
0.0340994
0.0340994
0.0340994
0.0340994
0.0340994
0.0340994
0.0340994
0.0340994
0.0340994
0.0340994
0.0340994
0.0340994
0.0340994
0.0340994
0.0340994
0.0340994
0.0340994
0.0340994
0.0340994
0.0340994
0.0340994
0.0340994
0.0340994
0.0340994
0.0340994
0.0340994
0.0340994
0.0340994
0.0340994
0.0340994
0.0340994
0.0340994
0.0340994
0.0340994
0.0340994
0.0340994
0.0340994
0.0340994
0.0340994
0.0340994
0.0340994
0.0340994
0.0340994
0.0340994
0.0340994
0.0340994
0.0340994
0.0340994
0.0340994
0.0340994
0.0340994
0.0340994
0.0340994
0.0340994
0.0340994
0.0340994
0.0340994
0.0340994
0.0340994
0.0340994
0.0340994
0.0340994
0.0340994
0.0340994
0.0340994
0.0340994
0.0340994
0.0340994
0.0340994
0.0340994
0.0340994
0.0340994
0.0340994
0.0340994
0.0340994
0.0340994
0.0340994
0.0340994
0.0340994
0.0340994
0.0340994
0.0340994
0.0340994
0.0340994
0.0340994
0.0340994
0.0340994
0.0340994
0.0340994
0.0340994
0.0340994
0.0340994
0.0340994
0.0340994
0.0340994
0.0340994
0.0340994
0.0340994
0.0340994
0.0340994
0.0340994
0.0340994
0.0340994
0.0340994
0.0340994
0.0340994
0.0340994
0.0340994
0.0340994
0.0340994
0.0340994
0.0340994
0.0340994
0.0340994
0.0340994
0.0340994
0.0340994
0.0340994
0.0340994
0.0340994
0.0340994
0.0340994
0.0340994
0.0340994
0.0340994
0.0340994
0.0340994
0.0340994
0.0340994
0.0340994
0.0340994
0.0340994
0.0340994
0.0340994
0.0340994
0.0340994
0.0340994
0.0340994
0.0340994
0.0340994
0.0340994
0.0340994
0.0340994
0.0340994
0.0340994
0.0340994
0.0340994
0.0340994
0.0340994
0.0340994
0.0340994
0.0340994
0.0340994
0.0340994
0.0340994
0.0340994
0.0340994
0.0340994
0.0340994
0.0340994
0.0340994
0.0340994
0.0340994
0.0340994
0.0340994
0.0340994
0.0340994
0.0340994
0.0340994
0.0340994
0.0340994
0.0340994
0.0340994
0.0340994
0.0340994
0.0340994
0.0340994
0.0340994
0.0340994
0.0340994
0.0340994
0.0340994
0.0340994
0.0340994
0.0340994
0.0340994
0.0340994
0.0340994
0.0340994
0.0340994
0.0340994
0.0340994
0.0340994
0.0340994
0.0340994
0.0340994
0.0340994
0.0340994
0.0340994
0.0340994
0.0340994
0.0340994
0.0340994
0.0340994
0.0340994
0.0340994
0.0340994
0.0340994
0.0340994
0.0340994
0.0340994
0.0340994
0.0340994
0.0340994
0.0340994
0.0340994
0.0340994
0.0340994
0.0340994
0.0340994
0.0340994
0.0340994
0.0340994
0.0340994
0.0340994
0.0340994
0.0340994
0.0340994
0.0340994
0.0340994
0.0340994
0.0340994
0.0340994
0.0340994
0.0340994
0.0340994
0.0340994
0.0340994
0.0340994
0.0340994
0.0340994
0.0340994
0.0340994
0.0340994
0.0340994
0.0340994
0.0340994
0.0340994
0.0340994
0.0340994
0.0340994
0.0340994
0.0340994
0.0340994
0.0340994
0.0340994
0.0340994
0.0340994
0.0340994
0.0340994
0.0340994
0.0340994
0.0340994
0.0340994
0.0340994
0.0340994
0.0340994
0.0340994
0.0340994
0.0340994
0.0340994
0.0340994
0.0340994
0.0340994
0.0340994
0.0340994
0.0340994
0.0340994
0.0340994
0.0340994
0.0340994
0.0340994
0.0340994
0.0340994
0.0340994
0.0340994
0.0340994
0.0340994
0.0340994
0.0340994
0.0340994
0.0340994
0.0340994
0.0340994
0.0340994
0.0340994
0.0340994
0.0340994
0.0340994
0.0340994
0.0340994
0.0340994
0.0340994
0.0340994
0.0340994
0.0340994
0.0340994
0.0340994
0.0340994
0.0340994
0.0340994
0.0340994
0.0340994
0.0340994
0.0340994
0.0340994
0.0340994
0.0340994
0.0340994
0.0340994
0.0340994
0.0340994
0.0340994
0.0340994
0.0340994
0.0340994
0.0340994
0.0340994
0.0340994
0.0340994
0.0340994
0.0340994
0.0340994
0.0340994
0.0340994
0.0340994
0.0340994
0.0340994
0.0340994
0.0340994
0.0340994
0.0340994
0.0340994
0.0340994
0.0340994
0.0340994
0.0340994
0.0340994
0.0340994
0.0340994
0.0340994
0.0340994
0.0340994
0.0340994
0.0340994
0.0340994
0.0340994
0.0340994
0.0340994
0.0340994
0.0340994
0.0340994
0.0340994
0.0340994
0.0340994
0.0340994
0.0340994
0.0340994
0.0340994
0.0340994
0.0340994
0.0340994
0.0340994
0.0340994
0.0340994
0.0340994
0.0340994
0.0340994
0.0340994
0.0340994
0.0340994
0.0340994
0.0340994
0.0340994
0.0340994
0.0340994
0.0340994
0.0340994
0.0340994
0.0340994
0.0340994
0.0340994
0.0340994
0.0340994
0.0340994
0.0340994
0.0340994
0.0340994
0.0340994
0.0340994
0.0340994
0.0340994
0.0340994
0.0340994
0.0340994
0.0340994
0.0340994
0.0340994
0.0340994
0.0340994
0.0340994
0.0340994
0.0340994
0.0340994
0.0340994
0.0340994
0.0340994
0.0340994
0.0340994
0.0340994
0.0340994
0.0340994
0.0340994
0.0340994
0.0340994
0.0340994
0.0340994
0.0340994
0.0340994
0.0340994
0.0340994
0.0340994
0.0340994
0.0340994
0.0340994
0.0340994
0.0340994
0.0340994
0.0340994
0.0340994
0.0340994
0.0340994
0.0340994
0.0340994
0.0340994
0.0340994
0.0340994
0.0340994
0.0340994
0.0340994
0.0340994
0.0340994
0.0340994
0.0340994
0.0340994
0.0340994
0.0340994
0.0340994
0.0340994
0.0340994
0.0340994
0.0340994
0.0340994
0.0340994
0.0340994
0.0340994
0.0340994
0.0340994
0.0340994
0.0340994
0.0340994
0.0340994
0.0340994
0.0340994
0.0340994
0.0340994
0.0340994
0.0340994
0.0340994
0.0340994
0.0340994
0.0340994
0.0340994
0.0340994
0.0340994
0.0340994
0.0340994
0.0340994
0.0340994
0.0340994
0.0340994
0.0340994
0.0340994
0.0340994
0.0340994
0.0340994
0.0340994
0.0340994
0.0340994
0.0340994
0.0340994
0.0340994
0.0340994
0.0340994
0.0340994
0.0340994
0.0340994
0.0340994
0.0340994
0.0340994
0.0340994
0.0340994
0.0340994
0.0340994
0.0340994
0.0340994
0.0340994
0.0340994
0.0340994
0.0340994
0.0340994
0.0340994
0.0340994
0.0340994
0.0340994
0.0340994
0.0340994
0.0340994
0.0340994
0.0340994
0.0340994
0.0340994
0.0340994
0.0340994
0.0340994
0.0340994
0.0340994
0.0340994
0.0340994
0.0340994
0.0340994
0.0340994
0.0340994
0.0340994
0.0340994
0.0340994
0.0340994
0.0340994
0.0340994
0.0340994
0.0340994
0.0340994
0.0340994
0.0340994
0.0340994
0.0340994
0.0340994
0.0340994
0.0340994
0.0340994
0.0340994
0.0340994
0.0340994
0.0340994
0.0340994
0.0340994
0.0340994
0.0340994
0.0340994
0.0340994
0.0340994
0.0340994
0.0340994
0.0340994
0.0340994
0.0340994
0.0340994
0.0340994
0.0340994
0.0340994
0.0340994
0.0340994
0.0340994
0.0340994
0.0340994
0.0340994
0.0340994
0.0340994
0.0340994
0.0340994
0.0340994
0.0340994
0.0340994
0.0340994
0.0340994
0.0340994
0.0340994
0.0340994
0.0340994
0.0340994
0.0340994
0.0340994
0.0340994
0.0340994
0.0340994
0.0340994
0.0340994
0.0340994
0.0340994
0.0340994
0.0340994
0.0340994
0.0340994
0.0340994
0.0340994
0.0340994
0.0340994
0.0340994
0.0340994
0.0340994
0.0340994
0.0340994
0.0340994
0.0340994
0.0340994
0.0340994
0.0340994
0.0340994
0.0340994
0.0340994
0.0340994
0.0340994
0.0340994
0.0340994
0.0340994
0.0340994
0.0340994
0.0340994
0.0340994
0.0340994
0.0340994
0.0340994
0.0340994
0.0340994
0.0340994
0.0340994
0.0340994
0.0340994
0.0340994
0.0340994
0.0340994
0.0340994
0.0340994
0.0340994
0.0340994
0.0340994
0.0340994
0.0340994
0.0340994
0.0340994
0.0340994
0.0340994
0.0340994
0.0340994
0.0340994
0.0340994
0.0340994
0.0340994
0.0340994
0.0340994
0.0340994
0.0340994
0.0340994
0.0340994
0.0340994
0.0340994
0.0340994
0.0340994
0.0340994
0.0340994
0.0340994
0.0340994
0.0340994
0.0340994
0.0340994
0.0340994
0.0340994
0.0340994
0.0340994
0.0340994
0.0340994
0.0340994
0.0340994
0.0340994
0.0340994
0.0340994
0.0340994
0.0340994
0.0340994
0.0340994
0.0340994
0.0340994
0.0340994
0.0340994
0.0340994
0.0340994
0.0340994
0.0340994
0.0340994
0.0340994
0.0340994
0.0340994
0.0340994
0.0340994
0.0340994
0.0340994
0.0340994
0.0340994
0.0340994
0.0340994
0.0340994
0.0340994
0.0340994
0.0340994
0.0340994
0.0340994
0.0340994
0.0340994
0.0340994
0.0340994
0.0340994
0.0340994
0.0340994
0.0340994
0.0340994
0.0340994
0.0340994
0.0340994
0.0340994
0.0340994
0.0340994
0.0340994
0.0340994
0.0340994
0.0340994
0.0340994
0.0340994
0.0340994
0.0340994
0.0340994
0.0340994
0.0340994
0.0340994
0.0340994
0.0340994
0.0340994
0.0340994
0.0340994
0.0340994
0.0340994
0.0340994
0.0340994
0.0340994
0.0340994
0.0340994
0.0340994
0.0340994
0.0340994
0.0340994
0.0340994
0.0340994
0.0340994
0.0340994
0.0340994
0.0340994
0.0340994
0.0340994
0.0340994
0.0340994
0.0340994
0.0340994
0.0340994
0.0340994
0.0340994
0.0340994
0.0340994
0.0340994
0.0340994
0.0340994
0.0340994
0.0340994
0.0340994
0.0340994
0.0340994
0.0340994
0.0340994
0.0340994
0.0340994
0.0340994
0.102298
0.102298
0.102298
0.102298
0.102298
0.102298
0.102298
0.102298
0.102298
0.102298
0.102298
0.102298
0.102298
0.102298
0.102298
0.102298
0.102298
0.102298
0.102298
0.102298
0.102298
0.102298
0.102298
0.102298
0.102298
0.102298
0.102298
0.102298
0.102298
0.102298
0.102298
0.102298
0.102298
0.102298
0.102298
0.102298
0.102298
0.102298
0.102298
0.102298
0.102298
0.102298
0.102298
0.102298
0.102298
0.102298
0.102298
0.102298
0.102298
0.102298
0.102298
0.102298
0.102298
0.102298
0.102298
0.102298
0.102298
0.102298
0.102298
0.102298
0.102298
0.102298
0.102298
0.102298
0.102298
0.102298
0.102298
0.102298
0.102298
0.102298
0.102298
0.102298
0.102298
0.102298
0.102298
0.102298
0.102298
0.102298
0.102298
0.102298
0.102298
0.102298
0.102298
0.102298
0.102298
0.102298
0.102298
0.102298
0.102298
0.102298
0.102298
0.102298
0.102298
0.102298
0.102298
0.102298
0.102298
0.102298
0.102298
0.102298
0.102298
0.102298
0.102298
0.102298
0.102298
0.102298
0.102298
0.102298
0.102298
0.102298
0.102298
0.102298
0.102298
0.102298
0.102298
0.102298
0.102298
0.102298
0.102298
0.102298
0.102298
0.102298
0.102298
0.102298
0.102298
0.102298
0.102298
0.102298
0.102298
0.102298
0.102298
0.102298
0.102298
0.102298
0.102298
0.102298
0.102298
0.102298
