-0.141898
-0.141898
-0.141898
-0.141898
-0.141898
-0.141898
-0.141898
-0.141898
-0.141898
-0.141898
-0.141898
-0.141898
-0.141898
-0.141898
-0.141898
-0.141898
-0.141898
-0.141898
-0.141898
-0.141898
-0.141898
-0.141898
-0.141898
-0.141898
-0.141898
-0.141898
-0.141898
-0.141898
-0.141898
-0.141898
-0.141898
-0.141898
-0.141898
-0.141898
-0.141898
-0.141898
-0.141898
-0.141898
-0.141898
-0.141898
-0.141898
-0.141898
-0.141898
-0.0472993
-0.0472993
-0.0472993
-0.0472993
-0.0472993
-0.0472993
-0.0472993
-0.0472993
-0.0472993
-0.0472993
-0.0472993
-0.0472993
-0.0472993
-0.0472993
-0.0472993
-0.0472993
-0.0472993
-0.0472993
-0.0472993
-0.0472993
-0.0472993
-0.0472993
-0.0472993
-0.0472993
-0.0472993
-0.0472993
-0.0472993
-0.0472993
-0.0472993
-0.0472993
-0.0472993
-0.0472993
-0.0472993
-0.0472993
-0.0472993
-0.0472993
-0.0472993
-0.0472993
-0.0472993
-0.0472993
-0.0472993
-0.0472993
-0.0472993
-0.0472993
-0.0472993
-0.0472993
-0.0472993
-0.0472993
-0.0472993
-0.0472993
-0.0472993
-0.0472993
-0.0472993
-0.0472993
-0.0472993
-0.0472993
-0.0472993
-0.0472993
-0.0472993
-0.0472993
-0.0472993
-0.0472993
-0.0472993
-0.0472993
-0.0472993
-0.0472993
-0.0472993
-0.0472993
-0.0472993
-0.0472993
-0.0472993
-0.0472993
-0.0472993
-0.0472993
-0.0472993
-0.0472993
-0.0472993
-0.0472993
-0.0472993
-0.0472993
-0.0472993
-0.0472993
-0.0472993
-0.0472993
-0.0472993
-0.0472993
-0.0472993
-0.0472993
-0.0472993
-0.0472993
-0.0472993
-0.0472993
-0.0472993
-0.0472993
-0.0472993
-0.0472993
-0.0472993
-0.0472993
-0.0472993
-0.0472993
-0.0472993
-0.0472993
-0.0472993
-0.0472993
-0.0472993
-0.0472993
-0.0472993
-0.0472993
-0.0472993
-0.0472993
-0.0472993
-0.0472993
-0.0472993
-0.0472993
-0.0472993
-0.0472993
-0.0472993
-0.0472993
-0.0472993
-0.0472993
-0.0472993
-0.0472993
0.0472993
0.0472993
0.0472993
0.0472993
0.0472993
0.0472993
0.0472993
0.0472993
0.0472993
0.0472993
0.0472993
0.0472993
0.0472993
0.0472993
0.0472993
0.0472993
0.0472993
0.0472993
0.0472993
0.0472993
0.0472993
0.0472993
0.0472993
0.0472993
0.0472993
0.0472993
0.0472993
0.0472993
0.0472993
0.0472993
0.0472993
0.0472993
0.0472993
0.0472993
0.0472993
0.0472993
0.0472993
0.0472993
0.0472993
0.0472993
0.0472993
0.0472993
0.0472993
0.0472993
0.0472993
0.0472993
0.0472993
0.0472993
0.0472993
0.0472993
0.0472993
0.0472993
0.0472993
0.0472993
0.0472993
0.0472993
0.0472993
0.0472993
0.0472993
0.0472993
0.0472993
0.0472993
0.0472993
0.0472993
0.0472993
0.0472993
0.0472993
0.0472993
0.0472993
0.0472993
0.0472993
0.0472993
0.0472993
0.0472993
0.0472993
0.0472993
0.0472993
0.0472993
0.0472993
0.0472993
0.0472993
0.0472993
0.0472993
0.0472993
0.0472993
0.0472993
0.0472993
0.0472993
0.0472993
0.0472993
0.0472993
0.0472993
0.0472993
0.0472993
0.0472993
0.0472993
0.0472993
0.0472993
0.0472993
0.0472993
0.0472993
0.0472993
0.0472993
0.141898
0.141898
0.141898
0.141898
0.141898
0.141898
0.141898
0.141898
0.141898
0.141898
0.141898
0.141898
0.141898
0.141898
0.141898
0.141898
0.141898
0.141898
0.141898
0.141898
0.141898
0.141898
0.141898
0.141898
0.141898
0.141898
0.141898
0.141898
0.141898
0.141898
0.141898
0.141898
