-0.707531
-0.707531
-0.707531
-0.707531
-0.707531
-0.707531
-0.707531
-0.707531
-0.707531
-0.707531
-0.707531
-0.707531
-0.707531
-0.707531
-0.707531
-0.707531
-0.707531
-0.707531
-0.707531
-0.707531
-0.707531
-0.707531
-0.707531
-0.707531
-0.707531
-0.707531
-0.707531
-0.707531
-0.707531
-0.707531
-0.707531
-0.707531
-0.707531
-0.707531
-0.707531
-0.707531
-0.707531
-0.707531
-0.707531
-0.707531
-0.707531
-0.707531
-0.707531
-0.707531
-0.707531
-0.707531
-0.707531
-0.707531
-0.707531
-0.707531
-0.707531
-0.707531
-0.707531
-0.707531
-0.707531
-0.707531
-0.707531
-0.707531
-0.707531
-0.707531
-0.707531
-0.707531
-0.707531
-0.707531
-0.707531
-0.707531
-0.707531
-0.707531
-0.707531
-0.707531
-0.707531
-0.707531
-0.707531
-0.707531
-0.235844
-0.235844
-0.235844
-0.235844
-0.235844
-0.235844
-0.235844
-0.235844
-0.235844
-0.235844
-0.235844
-0.235844
-0.235844
-0.235844
-0.235844
-0.235844
-0.235844
-0.235844
-0.235844
-0.235844
-0.235844
-0.235844
-0.235844
-0.235844
-0.235844
-0.235844
-0.235844
-0.235844
-0.235844
-0.235844
-0.235844
-0.235844
-0.235844
-0.235844
-0.235844
-0.235844
-0.235844
-0.235844
-0.235844
-0.235844
-0.235844
-0.235844
-0.235844
-0.235844
-0.235844
-0.235844
-0.235844
-0.235844
-0.235844
-0.235844
-0.235844
-0.235844
-0.235844
-0.235844
-0.235844
-0.235844
-0.235844
-0.235844
-0.235844
-0.235844
-0.235844
-0.235844
-0.235844
-0.235844
-0.235844
-0.235844
-0.235844
-0.235844
-0.235844
-0.235844
-0.235844
-0.235844
-0.235844
-0.235844
-0.235844
-0.235844
-0.235844
-0.235844
-0.235844
-0.235844
-0.235844
-0.235844
-0.235844
-0.235844
-0.235844
-0.235844
-0.235844
-0.235844
-0.235844
-0.235844
-0.235844
-0.235844
-0.235844
-0.235844
-0.235844
-0.235844
-0.235844
-0.235844
-0.235844
-0.235844
-0.235844
-0.235844
-0.235844
-0.235844
-0.235844
-0.235844
-0.235844
-0.235844
-0.235844
-0.235844
-0.235844
-0.235844
-0.235844
-0.235844
-0.235844
-0.235844
-0.235844
-0.235844
-0.235844
-0.235844
-0.235844
-0.235844
-0.235844
-0.235844
-0.235844
-0.235844
-0.235844
-0.235844
-0.235844
-0.235844
-0.235844
-0.235844
-0.235844
-0.235844
-0.235844
-0.235844
-0.235844
-0.235844
-0.235844
-0.235844
-0.235844
-0.235844
-0.235844
-0.235844
-0.235844
-0.235844
-0.235844
-0.235844
-0.235844
-0.235844
-0.235844
-0.235844
-0.235844
-0.235844
-0.235844
-0.235844
-0.235844
-0.235844
-0.235844
-0.235844
-0.235844
-0.235844
-0.235844
-0.235844
-0.235844
-0.235844
-0.235844
-0.235844
-0.235844
-0.235844
-0.235844
-0.235844
-0.235844
-0.235844
-0.235844
-0.235844
-0.235844
-0.235844
-0.235844
-0.235844
-0.235844
-0.235844
-0.235844
-0.235844
-0.235844
-0.235844
-0.235844
-0.235844
-0.235844
-0.235844
-0.235844
-0.235844
-0.235844
-0.235844
-0.235844
-0.235844
-0.235844
-0.235844
-0.235844
-0.235844
-0.235844
-0.235844
-0.235844
-0.235844
-0.235844
-0.235844
-0.235844
-0.235844
-0.235844
-0.235844
-0.235844
-0.235844
-0.235844
-0.235844
-0.235844
-0.235844
-0.235844
-0.235844
-0.235844
-0.235844
-0.235844
-0.235844
-0.235844
-0.235844
-0.235844
-0.235844
-0.235844
-0.235844
-0.235844
-0.235844
-0.235844
-0.235844
-0.235844
-0.235844
-0.235844
-0.235844
-0.235844
-0.235844
-0.235844
-0.235844
-0.235844
-0.235844
-0.235844
-0.235844
-0.235844
-0.235844
-0.235844
-0.235844
-0.235844
-0.235844
-0.235844
-0.235844
-0.235844
-0.235844
-0.235844
-0.235844
-0.235844
-0.235844
-0.235844
-0.235844
-0.235844
-0.235844
-0.235844
-0.235844
-0.235844
-0.235844
-0.235844
-0.235844
-0.235844
-0.235844
-0.235844
-0.235844
-0.235844
-0.235844
-0.235844
-0.235844
-0.235844
-0.235844
-0.235844
-0.235844
-0.235844
-0.235844
-0.235844
-0.235844
-0.235844
-0.235844
-0.235844
-0.235844
-0.235844
-0.235844
-0.235844
-0.235844
-0.235844
-0.235844
-0.235844
-0.235844
-0.235844
-0.235844
-0.235844
-0.235844
-0.235844
-0.235844
-0.235844
-0.235844
-0.235844
-0.235844
-0.235844
-0.235844
-0.235844
-0.235844
-0.235844
-0.235844
-0.235844
-0.235844
-0.235844
-0.235844
-0.235844
-0.235844
-0.235844
-0.235844
-0.235844
-0.235844
-0.235844
-0.235844
-0.235844
-0.235844
-0.235844
-0.235844
-0.235844
-0.235844
-0.235844
-0.235844
-0.235844
-0.235844
-0.235844
-0.235844
-0.235844
-0.235844
-0.235844
-0.235844
-0.235844
-0.235844
-0.235844
-0.235844
-0.235844
-0.235844
-0.235844
-0.235844
-0.235844
-0.235844
-0.235844
-0.235844
-0.235844
-0.235844
-0.235844
-0.235844
-0.235844
-0.235844
-0.235844
-0.235844
-0.235844
-0.235844
-0.235844
-0.235844
-0.235844
-0.235844
-0.235844
-0.235844
-0.235844
-0.235844
-0.235844
-0.235844
-0.235844
-0.235844
-0.235844
-0.235844
-0.235844
-0.235844
-0.235844
-0.235844
-0.235844
-0.235844
-0.235844
-0.235844
-0.235844
-0.235844
-0.235844
-0.235844
-0.235844
-0.235844
-0.235844
-0.235844
-0.235844
-0.235844
-0.235844
-0.235844
-0.235844
-0.235844
-0.235844
-0.235844
-0.235844
-0.235844
-0.235844
-0.235844
-0.235844
-0.235844
-0.235844
-0.235844
-0.235844
-0.235844
-0.235844
-0.235844
-0.235844
-0.235844
-0.235844
-0.235844
-0.235844
0.235844
0.235844
0.235844
0.235844
0.235844
0.235844
0.235844
0.235844
0.235844
0.235844
0.235844
0.235844
0.235844
0.235844
0.235844
0.235844
0.235844
0.235844
0.235844
0.235844
0.235844
0.235844
0.235844
0.235844
0.235844
0.235844
0.235844
0.235844
0.235844
0.235844
0.235844
0.235844
0.235844
0.235844
0.235844
0.235844
0.235844
0.235844
0.235844
0.235844
0.235844
0.235844
0.235844
0.235844
0.235844
0.235844
0.235844
0.235844
0.235844
0.235844
0.235844
0.235844
0.235844
0.235844
0.235844
0.235844
0.235844
0.235844
0.235844
0.235844
0.235844
0.235844
0.235844
0.235844
0.235844
0.235844
0.235844
0.235844
0.235844
0.235844
0.235844
0.235844
0.235844
0.235844
0.235844
0.235844
0.235844
0.235844
0.235844
0.235844
0.235844
0.235844
0.235844
0.235844
0.235844
0.235844
0.235844
0.235844
0.235844
0.235844
0.235844
0.235844
0.235844
0.235844
0.235844
0.235844
0.235844
0.235844
0.235844
0.235844
0.235844
0.235844
0.235844
0.235844
0.235844
0.235844
0.235844
0.235844
0.235844
0.235844
0.235844
0.235844
0.235844
0.235844
0.235844
0.235844
0.235844
0.235844
0.235844
0.235844
0.235844
0.235844
0.235844
0.235844
0.235844
0.235844
0.235844
0.235844
0.235844
0.235844
0.235844
0.235844
0.235844
0.235844
0.235844
0.235844
0.235844
0.235844
0.235844
0.235844
0.235844
0.235844
0.235844
0.235844
0.235844
0.235844
0.235844
0.235844
0.235844
0.235844
0.235844
0.235844
0.235844
0.235844
0.235844
0.235844
0.235844
0.235844
0.235844
0.235844
0.235844
0.235844
0.235844
0.235844
0.235844
0.235844
0.235844
0.235844
0.235844
0.235844
0.235844
0.235844
0.235844
0.235844
0.235844
0.235844
0.235844
0.235844
0.235844
0.235844
0.235844
0.235844
0.235844
0.235844
0.235844
0.235844
0.235844
0.235844
0.235844
0.235844
0.235844
0.235844
0.235844
0.235844
0.235844
0.235844
0.235844
0.235844
0.235844
0.235844
0.235844
0.235844
0.235844
0.235844
0.235844
0.235844
0.235844
0.235844
0.235844
0.235844
0.235844
0.235844
0.235844
0.235844
0.235844
0.235844
0.235844
0.235844
0.235844
0.235844
0.235844
0.235844
0.235844
0.235844
0.235844
0.235844
0.235844
0.235844
0.235844
0.235844
0.235844
0.235844
0.235844
0.235844
0.235844
0.235844
0.235844
0.235844
0.235844
0.235844
0.235844
0.235844
0.235844
0.235844
0.235844
0.235844
0.235844
0.235844
0.235844
0.235844
0.235844
0.235844
0.235844
0.235844
0.235844
0.235844
0.235844
0.235844
0.235844
0.235844
0.235844
0.235844
0.235844
0.235844
0.235844
0.235844
0.235844
0.235844
0.235844
0.235844
0.235844
0.235844
0.235844
0.235844
0.235844
0.235844
0.235844
0.235844
0.235844
0.235844
0.235844
0.235844
0.235844
0.235844
0.235844
0.235844
0.235844
0.235844
0.235844
0.235844
0.235844
0.235844
0.235844
0.235844
0.235844
0.235844
0.235844
0.235844
0.235844
0.235844
0.235844
0.235844
0.235844
0.235844
0.235844
0.235844
0.235844
0.235844
0.235844
0.235844
0.235844
0.235844
0.235844
0.235844
0.235844
0.235844
0.235844
0.235844
0.235844
0.235844
0.235844
0.235844
0.235844
0.235844
0.235844
0.235844
0.235844
0.235844
0.235844
0.235844
0.707531
0.707531
0.707531
0.707531
0.707531
0.707531
0.707531
0.707531
0.707531
0.707531
0.707531
0.707531
0.707531
0.707531
0.707531
0.707531
0.707531
0.707531
0.707531
