-0.163275
-0.163275
-0.138155
-0.138155
-0.138155
-0.138155
-0.138155
-0.138155
-0.138155
-0.138155
-0.138155
-0.138155
-0.138155
-0.138155
-0.138155
-0.113036
-0.113036
-0.113036
-0.113036
-0.113036
-0.113036
-0.113036
-0.113036
-0.113036
-0.113036
-0.113036
-0.113036
-0.113036
-0.113036
-0.113036
-0.113036
-0.113036
-0.113036
-0.113036
-0.113036
-0.113036
-0.113036
-0.113036
-0.113036
-0.0879171
-0.0879171
-0.0879171
-0.0879171
-0.0879171
-0.0879171
-0.0879171
-0.0879171
-0.0879171
-0.0879171
-0.0879171
-0.0879171
-0.0879171
-0.0879171
-0.0879171
-0.0879171
-0.0879171
-0.0879171
-0.0879171
-0.0879171
-0.0879171
-0.0879171
-0.0879171
-0.0879171
-0.0879171
-0.0879171
-0.0879171
-0.0879171
-0.0879171
-0.0879171
-0.0627979
-0.0627979
-0.0627979
-0.0627979
-0.0627979
-0.0627979
-0.0627979
-0.0627979
-0.0627979
-0.0627979
-0.0627979
-0.0627979
-0.0627979
-0.0627979
-0.0627979
-0.0627979
-0.0627979
-0.0627979
-0.0627979
-0.0627979
-0.0627979
-0.0627979
-0.0627979
-0.0627979
-0.0627979
-0.0376787
-0.0376787
-0.0376787
-0.0376787
-0.0376787
-0.0376787
-0.0376787
-0.0376787
-0.0376787
-0.0376787
-0.0376787
-0.0376787
-0.0376787
-0.0376787
-0.0376787
-0.0376787
-0.0376787
-0.0376787
-0.0376787
-0.0376787
-0.0376787
-0.0376787
-0.0376787
-0.0376787
-0.0376787
-0.0376787
-0.0376787
-0.0376787
-0.0376787
-0.0125596
-0.0125596
-0.0125596
-0.0125596
-0.0125596
-0.0125596
-0.0125596
-0.0125596
-0.0125596
-0.0125596
-0.0125596
-0.0125596
-0.0125596
-0.0125596
-0.0125596
-0.0125596
-0.0125596
-0.0125596
-0.0125596
-0.0125596
-0.0125596
-0.0125596
-0.0125596
-0.0125596
-0.0125596
-0.0125596
-0.0125596
-0.0125596
-0.0125596
-0.0125596
-0.0125596
-0.0125596
-0.0125596
-0.0125596
0.0125596
0.0125596
0.0125596
0.0125596
0.0125596
0.0125596
0.0125596
0.0125596
0.0125596
0.0125596
0.0125596
0.0125596
0.0125596
0.0125596
0.0125596
0.0125596
0.0125596
0.0125596
0.0125596
0.0125596
0.0125596
0.0125596
0.0125596
0.0125596
0.0125596
0.0125596
0.0125596
0.0125596
0.0125596
0.0125596
0.0125596
0.0125596
0.0125596
0.0125596
0.0125596
0.0125596
0.0376788
0.0376788
0.0376788
0.0376788
0.0376788
0.0376788
0.0376788
0.0376788
0.0376788
0.0376788
0.0376788
0.0376788
0.0376788
0.0376788
0.0376788
0.0376788
0.0376788
0.0376788
0.0376788
0.0376788
0.0376788
0.0376788
0.0376788
0.0376788
0.0376788
0.0376788
0.0376788
0.0627979
0.0627979
0.0627979
0.0627979
0.0627979
0.0627979
0.0627979
0.0627979
0.0627979
0.0627979
0.0627979
0.0627979
0.0627979
0.0627979
0.0627979
0.0627979
0.0627979
0.0627979
0.0627979
0.0627979
0.0627979
0.0627979
0.0627979
0.0627979
0.0627979
0.0879171
0.0879171
0.0879171
0.0879171
0.0879171
0.0879171
0.0879171
0.0879171
0.0879171
0.0879171
0.0879171
0.0879171
0.0879171
0.0879171
0.0879171
0.0879171
0.0879171
0.0879171
0.0879171
0.113036
0.113036
0.113036
0.113036
0.113036
0.113036
0.113036
0.113036
0.113036
0.113036
0.113036
0.113036
0.113036
0.113036
0.113036
0.138155
0.138155
0.138155
0.138155
0.138155
0.138155
0.138155
0.138155
0.138155
0.138155
0.138155
0.163275
0.163275
0.163275
0.163275
0.188394
0.188394
0.188394
0.188394
0.188394
0.188394
