-0.811227
-0.811227
-0.811227
-0.811227
-0.811227
-0.811227
-0.703063
-0.703063
-0.703063
-0.703063
-0.703063
-0.703063
-0.703063
-0.703063
-0.703063
-0.703063
-0.703063
-0.703063
-0.703063
-0.703063
-0.703063
-0.703063
-0.703063
-0.703063
-0.703063
-0.703063
-0.703063
-0.703063
-0.703063
-0.703063
-0.703063
-0.703063
-0.703063
-0.703063
-0.594899
-0.594899
-0.594899
-0.594899
-0.594899
-0.594899
-0.594899
-0.594899
-0.594899
-0.594899
-0.594899
-0.594899
-0.594899
-0.594899
-0.594899
-0.594899
-0.594899
-0.594899
-0.594899
-0.594899
-0.594899
-0.594899
-0.594899
-0.594899
-0.594899
-0.594899
-0.594899
-0.594899
-0.594899
-0.594899
-0.594899
-0.594899
-0.594899
-0.594899
-0.594899
-0.594899
-0.594899
-0.594899
-0.594899
-0.594899
-0.594899
-0.594899
-0.594899
-0.594899
-0.594899
-0.594899
-0.594899
-0.594899
-0.594899
-0.594899
-0.594899
-0.594899
-0.594899
-0.486736
-0.486736
-0.486736
-0.486736
-0.486736
-0.486736
-0.486736
-0.486736
-0.486736
-0.486736
-0.486736
-0.486736
-0.486736
-0.486736
-0.486736
-0.486736
-0.486736
-0.486736
-0.486736
-0.486736
-0.486736
-0.486736
-0.486736
-0.486736
-0.486736
-0.486736
-0.486736
-0.486736
-0.486736
-0.486736
-0.486736
-0.486736
-0.486736
-0.486736
-0.486736
-0.486736
-0.486736
-0.486736
-0.486736
-0.486736
-0.486736
-0.486736
-0.486736
-0.486736
-0.486736
-0.486736
-0.486736
-0.486736
-0.486736
-0.486736
-0.486736
-0.486736
-0.486736
-0.486736
-0.378572
-0.378572
-0.378572
-0.378572
-0.378572
-0.378572
-0.378572
-0.378572
-0.378572
-0.378572
-0.378572
-0.378572
-0.378572
-0.378572
-0.378572
-0.378572
-0.378572
-0.378572
-0.378572
-0.378572
-0.378572
-0.378572
-0.378572
-0.378572
-0.378572
-0.378572
-0.378572
-0.378572
-0.378572
-0.378572
-0.378572
-0.378572
-0.378572
-0.378572
-0.378572
-0.378572
-0.378572
-0.378572
-0.378572
-0.378572
-0.378572
-0.378572
-0.378572
-0.378572
-0.378572
-0.378572
-0.378572
-0.378572
-0.378572
-0.378572
-0.378572
-0.378572
-0.378572
-0.378572
-0.378572
-0.378572
-0.378572
-0.378572
-0.378572
-0.378572
-0.378572
-0.378572
-0.270409
-0.270409
-0.270409
-0.270409
-0.270409
-0.270409
-0.270409
-0.270409
-0.270409
-0.270409
-0.270409
-0.270409
-0.270409
-0.270409
-0.270409
-0.270409
-0.270409
-0.270409
-0.270409
-0.270409
-0.270409
-0.270409
-0.270409
-0.270409
-0.270409
-0.270409
-0.270409
-0.270409
-0.270409
-0.270409
-0.270409
-0.270409
-0.270409
-0.270409
-0.270409
-0.270409
-0.270409
-0.270409
-0.270409
-0.270409
-0.270409
-0.162245
-0.162245
-0.162245
-0.162245
-0.162245
-0.162245
-0.162245
-0.162245
-0.162245
-0.162245
-0.162245
-0.162245
-0.162245
-0.162245
-0.162245
-0.162245
-0.162245
-0.162245
-0.162245
-0.162245
-0.162245
-0.162245
-0.162245
-0.162245
-0.162245
-0.162245
-0.162245
-0.162245
-0.162245
-0.162245
-0.162245
-0.162245
-0.162245
-0.162245
-0.162245
-0.162245
-0.162245
-0.162245
-0.162245
-0.162245
-0.162245
-0.162245
-0.162245
-0.162245
-0.162245
-0.162245
-0.162245
-0.162245
-0.162245
-0.162245
-0.162245
-0.162245
-0.162245
-0.162245
-0.162245
-0.162245
-0.162245
-0.162245
-0.162245
-0.162245
-0.162245
-0.162245
-0.162245
-0.162245
-0.0540817
-0.0540817
-0.0540817
-0.0540817
-0.0540817
-0.0540817
-0.0540817
-0.0540817
-0.0540817
-0.0540817
-0.0540817
-0.0540817
-0.0540817
-0.0540817
-0.0540817
-0.0540817
-0.0540817
-0.0540817
-0.0540817
-0.0540817
-0.0540817
-0.0540817
-0.0540817
-0.0540817
-0.0540817
-0.0540817
-0.0540817
-0.0540817
-0.0540817
-0.0540817
-0.0540817
-0.0540817
-0.0540817
-0.0540817
-0.0540817
-0.0540817
-0.0540817
-0.0540817
-0.0540817
-0.0540817
-0.0540817
-0.0540817
-0.0540817
-0.0540817
-0.0540817
-0.0540817
-0.0540817
-0.0540817
-0.0540817
-0.0540817
-0.0540817
-0.0540817
-0.0540817
-0.0540817
-0.0540817
-0.0540817
-0.0540817
-0.0540817
-0.0540817
-0.0540817
-0.0540817
-0.0540817
-0.0540817
-0.0540817
-0.0540817
-0.0540817
-0.0540817
-0.0540817
-0.0540817
-0.0540817
-0.0540817
-0.0540817
-0.0540817
-0.0540817
-0.0540817
-0.0540817
-0.0540817
-0.0540817
-0.0540817
-0.0540817
-0.0540817
-0.0540817
-0.0540817
-0.0540817
-0.0540817
-0.0540817
-0.0540817
-0.0540817
-0.0540817
-0.0540817
-0.0540817
-0.0540817
-0.0540817
-0.0540817
-0.0540817
-0.0540817
-0.0540817
-0.0540817
-0.0540817
-0.0540817
-0.0540817
-0.0540817
-0.0540817
-0.0540817
-0.0540817
-0.0540817
-0.0540817
-0.0540817
-0.0540817
-0.0540817
-0.0540817
-0.0540817
-0.0540817
-0.0540817
-0.0540817
-0.0540817
-0.0540817
-0.0540817
-0.0540817
-0.0540817
-0.0540817
-0.0540817
-0.0540817
-0.0540817
-0.0540817
-0.0540817
-0.0540817
-0.0540817
-0.0540817
-0.0540817
-0.0540817
-0.0540817
-0.0540817
-0.0540817
-0.0540817
-0.0540817
-0.0540817
-0.0540817
-0.0540817
-0.0540817
-0.0540817
-0.0540817
-0.0540817
-0.0540817
-0.0540817
-0.0540817
-0.0540817
-0.0540817
-0.0540817
-0.0540817
-0.0540817
-0.0540817
-0.0540817
-0.0540817
-0.0540817
-0.0540817
-0.0540817
-0.0540817
-0.0540817
-0.0540817
-0.0540817
-0.0540817
-0.0540817
-0.0540817
0.0540818
0.0540818
0.0540818
0.0540818
0.0540818
0.0540818
0.0540818
0.0540818
0.0540818
0.0540818
0.0540818
0.0540818
0.0540818
0.0540818
0.0540818
0.0540818
0.0540818
0.0540818
0.0540818
0.0540818
0.0540818
0.0540818
0.0540818
0.0540818
0.0540818
0.0540818
0.0540818
0.0540818
0.0540818
0.0540818
0.0540818
0.0540818
0.0540818
0.0540818
0.0540818
0.0540818
0.0540818
0.0540818
0.0540818
0.0540818
0.0540818
0.0540818
0.0540818
0.0540818
0.0540818
0.0540818
0.0540818
0.0540818
0.0540818
0.0540818
0.0540818
0.0540818
0.0540818
0.0540818
0.0540818
0.0540818
0.0540818
0.0540818
0.0540818
0.0540818
0.0540818
0.0540818
0.0540818
0.0540818
0.0540818
0.0540818
0.0540818
0.0540818
0.0540818
0.0540818
0.0540818
0.0540818
0.0540818
0.0540818
0.0540818
0.0540818
0.0540818
0.0540818
0.0540818
0.0540818
0.0540818
0.0540818
0.0540818
0.0540818
0.0540818
0.0540818
0.0540818
0.0540818
0.0540818
0.0540818
0.0540818
0.0540818
0.0540818
0.0540818
0.0540818
0.0540818
0.0540818
0.0540818
0.0540818
0.0540818
0.0540818
0.0540818
0.0540818
0.0540818
0.0540818
0.0540818
0.0540818
0.0540818
0.0540818
0.0540818
0.0540818
0.0540818
0.0540818
0.0540818
0.0540818
0.0540818
0.0540818
0.0540818
0.0540818
0.0540818
0.0540818
0.0540818
0.0540818
0.0540818
0.0540818
0.0540818
0.0540818
0.0540818
0.0540818
0.0540818
0.0540818
0.0540818
0.0540818
0.0540818
0.0540818
0.0540818
0.162245
0.162245
0.162245
0.162245
0.162245
0.162245
0.162245
0.162245
0.162245
0.162245
0.162245
0.162245
0.162245
0.162245
0.162245
0.162245
0.162245
0.162245
0.162245
0.162245
0.162245
0.162245
0.162245
0.162245
0.162245
0.162245
0.162245
0.162245
0.162245
0.162245
0.162245
0.162245
0.162245
0.162245
0.162245
0.162245
0.162245
0.162245
0.162245
0.162245
0.162245
0.162245
0.162245
0.162245
0.162245
0.162245
0.162245
0.162245
0.162245
0.162245
0.162245
0.162245
0.162245
0.162245
0.162245
0.162245
0.162245
0.162245
0.162245
0.162245
0.162245
0.162245
0.162245
0.162245
0.162245
0.162245
0.162245
0.162245
0.162245
0.162245
0.162245
0.162245
0.162245
0.162245
0.162245
0.162245
0.162245
0.162245
0.270409
0.270409
0.270409
0.270409
0.270409
0.270409
0.270409
0.270409
0.270409
0.270409
0.270409
0.270409
0.270409
0.270409
0.270409
0.270409
0.270409
0.270409
0.270409
0.270409
0.270409
0.270409
0.270409
0.270409
0.270409
0.270409
0.270409
0.270409
0.270409
0.270409
0.270409
0.270409
0.270409
0.270409
0.270409
0.270409
0.270409
0.270409
0.270409
0.270409
0.270409
0.270409
0.270409
0.270409
0.270409
0.270409
0.270409
0.270409
0.270409
0.270409
0.270409
0.270409
0.270409
0.270409
0.270409
0.270409
0.270409
0.270409
0.270409
0.270409
0.270409
0.270409
0.270409
0.270409
0.270409
0.270409
0.270409
0.270409
0.270409
0.270409
0.270409
0.270409
0.270409
0.270409
0.270409
0.270409
0.378572
0.378572
0.378572
0.378572
0.378572
0.378572
0.378572
0.378572
0.378572
0.378572
0.378572
0.378572
0.378572
0.378572
0.378572
0.378572
0.378572
0.378572
0.378572
0.378572
0.378572
0.378572
0.378572
0.378572
0.378572
0.378572
0.378572
0.378572
0.378572
0.378572
0.378572
0.378572
0.378572
0.378572
0.378572
0.378572
0.378572
0.378572
0.378572
0.378572
0.378572
0.378572
0.378572
0.378572
0.378572
0.378572
0.486736
0.486736
0.486736
0.486736
0.486736
0.486736
0.486736
0.486736
0.486736
0.486736
0.486736
0.486736
0.486736
0.486736
0.486736
0.486736
0.486736
0.486736
0.486736
0.5949
0.5949
0.5949
0.5949
0.5949
0.5949
0.703063
0.703063
0.703063
0.703063
0.703063
0.703063
0.811227
