-0.186924
-0.166399
-0.162001
-0.153204
-0.14734
-0.144408
-0.14001
-0.138544
-0.137078
-0.137078
-0.134145
-0.134145
-0.134145
-0.132679
-0.131213
-0.123883
-0.120951
-0.120951
-0.11362
-0.112154
-0.110688
-0.107756
-0.103358
-0.101892
-0.101892
-0.100426
-0.0974937
-0.0945616
-0.0886973
-0.0857651
-0.0857651
-0.0842991
-0.0799009
-0.0769687
-0.0769687
-0.0740366
-0.0711044
-0.0711044
-0.0711044
-0.0696384
-0.0696384
-0.0696384
-0.0681723
-0.0667062
-0.0652402
-0.0652402
-0.0637741
-0.0593759
-0.0593759
-0.0593759
-0.0593759
-0.0579098
-0.0579098
-0.0579098
-0.0549777
-0.0476473
-0.0461812
-0.0447151
-0.0432491
-0.041783
-0.041783
-0.0403169
-0.0403169
-0.0403169
-0.0388509
-0.0388509
-0.0373848
-0.0373848
-0.0359187
-0.0344527
-0.0344527
-0.0285884
-0.0285884
-0.0271223
-0.0271223
-0.0271223
-0.0256562
-0.0256562
-0.021258
-0.021258
-0.0197919
-0.0197919
-0.0168598
-0.0153937
-0.0139277
-0.0109955
-0.0109955
-0.0109955
-0.00659731
-0.00366517
-0.00219909
-0.00219909
0.000733047
0.00366519
0.00513126
0.0080634
0.0080634
0.00952947
0.0109955
0.0109955
0.0124616
0.0139277
0.0139277
0.0168598
0.0183259
0.019792
0.019792
0.0241902
0.0241902
0.0256562
0.0271223
0.0315205
0.0344527
0.0344527
0.0373848
0.0373848
0.0388509
0.041783
0.041783
0.0505795
0.0535116
0.0652402
0.0681723
0.0725705
0.0886973
0.0960277
0.100426
0.100426
0.100426
0.104824
0.104824
0.10629
0.107756
0.107756
0.110688
0.112154
0.113621
0.113621
0.115087
0.116553
0.118019
0.122417
0.122417
0.128281
0.131213
0.135612
0.14001
0.14001
0.141476
0.156137
