-0.229055
-0.223665
-0.207496
-0.202107
-0.20031
-0.189531
-0.185938
-0.182345
-0.176956
-0.176956
-0.175159
-0.175159
-0.171566
-0.16977
-0.166177
-0.166177
-0.16438
-0.16438
-0.162584
-0.160787
-0.160787
-0.158991
-0.157194
-0.153601
-0.153601
-0.153601
-0.150008
-0.148212
-0.144619
-0.141026
-0.139229
-0.135636
-0.135636
-0.135636
-0.13384
-0.13384
-0.13384
-0.132043
-0.130247
-0.130247
-0.130247
-0.130247
-0.12845
-0.12845
-0.126654
-0.126654
-0.126654
-0.123061
-0.121264
-0.121264
-0.121264
-0.121264
-0.121264
-0.119468
-0.119468
-0.119468
-0.119468
-0.119468
-0.117671
-0.117671
-0.117671
-0.117671
-0.117671
-0.117671
-0.115875
-0.115875
-0.112282
-0.112282
-0.112282
-0.112282
-0.110485
-0.110485
-0.110485
-0.110485
-0.110485
-0.108689
-0.108689
-0.108689
-0.108689
-0.108689
-0.108689
-0.106892
-0.106892
-0.106892
-0.106892
-0.105096
-0.105096
-0.105096
-0.105096
-0.105096
-0.105096
-0.105096
-0.103299
-0.103299
-0.103299
-0.103299
-0.103299
-0.101503
-0.101503
-0.101503
-0.101503
-0.0997061
-0.0997061
-0.0979096
-0.0979096
-0.0979096
-0.0979096
-0.0979096
-0.0979096
-0.0961131
-0.0943166
-0.0943166
-0.0943166
-0.0943166
-0.0943166
-0.0943166
-0.0925201
-0.0925201
-0.0925201
-0.0925201
-0.0925201
-0.0907236
-0.0907236
-0.0907236
-0.0907236
-0.0889271
-0.0889271
-0.0889271
-0.0889271
-0.0889271
-0.0889271
-0.0871305
-0.0871305
-0.0871305
-0.0871305
-0.0871305
-0.0871305
-0.085334
-0.085334
-0.085334
-0.085334
-0.085334
-0.085334
-0.085334
-0.0835375
-0.0835375
-0.0835375
-0.0835375
-0.0835375
-0.0835375
-0.081741
-0.081741
-0.081741
-0.081741
-0.081741
-0.081741
-0.081741
-0.081741
-0.081741
-0.081741
-0.081741
-0.081741
-0.0799445
-0.0799445
-0.0799445
-0.0799445
-0.0799445
-0.0799445
-0.0799445
-0.078148
-0.078148
-0.078148
-0.078148
-0.0763515
-0.0763515
-0.0763515
-0.0763515
-0.0763515
-0.0763515
-0.0763515
-0.0763515
-0.0763515
-0.0763515
-0.0763515
-0.074555
-0.074555
-0.074555
-0.074555
-0.074555
-0.074555
-0.074555
-0.074555
-0.0727585
-0.0727585
-0.0727585
-0.0727585
-0.0727585
-0.0727585
-0.0727585
-0.0727585
-0.0727585
-0.070962
-0.070962
-0.070962
-0.070962
-0.070962
-0.070962
-0.070962
-0.0691655
-0.0691655
-0.0691655
-0.0691655
-0.0691655
-0.0691655
-0.0691655
-0.0691655
-0.0691655
-0.067369
-0.067369
-0.067369
-0.067369
-0.067369
-0.067369
-0.067369
-0.067369
-0.067369
-0.067369
-0.067369
-0.0655725
-0.0655725
-0.0655725
-0.0655725
-0.0655725
-0.0655725
-0.0655725
-0.0655725
-0.0655725
-0.0655725
-0.0655725
-0.0655725
-0.0655725
-0.0655725
-0.0655725
-0.063776
-0.063776
-0.063776
-0.063776
-0.063776
-0.063776
-0.063776
-0.063776
-0.063776
-0.063776
-0.063776
-0.063776
-0.063776
-0.063776
-0.0619795
-0.0619795
-0.0619795
-0.0619795
-0.0619795
-0.0619795
-0.0619795
-0.0619795
-0.0619795
-0.0619795
-0.0619795
-0.0619795
-0.0619795
-0.0619795
-0.0619795
-0.0619795
-0.0619795
-0.0619795
-0.0619795
-0.0619795
-0.0619795
-0.060183
-0.060183
-0.060183
-0.060183
-0.060183
-0.060183
-0.060183
-0.060183
-0.060183
-0.060183
-0.060183
-0.060183
-0.060183
-0.0583864
-0.0583864
-0.0583864
-0.0583864
-0.0583864
-0.0583864
-0.0583864
-0.0583864
-0.0583864
-0.0583864
-0.0583864
-0.0583864
-0.0583864
-0.0583864
-0.0583864
-0.0583864
-0.0583864
-0.0583864
-0.0583864
-0.0565899
-0.0565899
-0.0565899
-0.0565899
-0.0565899
-0.0565899
-0.0565899
-0.0565899
-0.0565899
-0.0565899
-0.0565899
-0.0565899
-0.0565899
-0.0565899
-0.0565899
-0.0565899
-0.0547934
-0.0547934
-0.0547934
-0.0547934
-0.0547934
-0.0547934
-0.0547934
-0.0547934
-0.0529969
-0.0529969
-0.0529969
-0.0529969
-0.0529969
-0.0529969
-0.0529969
-0.0529969
-0.0529969
-0.0529969
-0.0529969
-0.0529969
-0.0529969
-0.0529969
-0.0529969
-0.0529969
-0.0529969
-0.0529969
-0.0512004
-0.0512004
-0.0512004
-0.0512004
-0.0512004
-0.0512004
-0.0512004
-0.0512004
-0.0512004
-0.0512004
-0.0512004
-0.0512004
-0.0512004
-0.0512004
-0.0512004
-0.0512004
-0.0512004
-0.0512004
-0.0512004
-0.0512004
-0.0494039
-0.0494039
-0.0494039
-0.0494039
-0.0494039
-0.0494039
-0.0494039
-0.0494039
-0.0494039
-0.0494039
-0.0494039
-0.0494039
-0.0494039
-0.0494039
-0.0494039
-0.0494039
-0.0476074
-0.0476074
-0.0476074
-0.0476074
-0.0476074
-0.0476074
-0.0476074
-0.0476074
-0.0476074
-0.0476074
-0.0476074
-0.0476074
-0.0476074
-0.0476074
-0.0476074
-0.0476074
-0.0458109
-0.0458109
-0.0458109
-0.0458109
-0.0458109
-0.0458109
-0.0458109
-0.0458109
-0.0458109
-0.0458109
-0.0458109
-0.0458109
-0.0458109
-0.0458109
-0.0440144
-0.0440144
-0.0440144
-0.0440144
-0.0440144
-0.0440144
-0.0440144
-0.0440144
-0.0440144
-0.0440144
-0.0440144
-0.0440144
-0.0440144
-0.0440144
-0.0440144
-0.0440144
-0.0440144
-0.0440144
-0.0422179
-0.0422179
-0.0422179
-0.0422179
-0.0422179
-0.0422179
-0.0422179
-0.0422179
-0.0422179
-0.0422179
-0.0422179
-0.0422179
-0.0422179
-0.0422179
-0.0422179
-0.0422179
-0.0422179
-0.0422179
-0.0422179
-0.0404214
-0.0404214
-0.0404214
-0.0404214
-0.0404214
-0.0404214
-0.0404214
-0.0404214
-0.0404214
-0.0404214
-0.0404214
-0.0404214
-0.0404214
-0.0404214
-0.0404214
-0.0404214
-0.0404214
-0.0404214
-0.0404214
-0.0404214
-0.0404214
-0.0404214
-0.0386249
-0.0386249
-0.0386249
-0.0386249
-0.0386249
-0.0386249
-0.0386249
-0.0386249
-0.0386249
-0.0386249
-0.0386249
-0.0386249
-0.0386249
-0.0386249
-0.0386249
-0.0386249
-0.0386249
-0.0386249
-0.0386249
-0.0386249
-0.0386249
-0.0386249
-0.0368284
-0.0368284
-0.0368284
-0.0368284
-0.0368284
-0.0368284
-0.0368284
-0.0368284
-0.0368284
-0.0368284
-0.0368284
-0.0368284
-0.0368284
-0.0368284
-0.0368284
-0.0368284
-0.0368284
-0.0368284
-0.0368284
-0.0368284
-0.0368284
-0.0368284
-0.0350319
-0.0350319
-0.0350319
-0.0350319
-0.0350319
-0.0350319
-0.0350319
-0.0350319
-0.0350319
-0.0350319
-0.0350319
-0.0350319
-0.0350319
-0.0350319
-0.0350319
-0.0350319
-0.0332353
-0.0332353
-0.0332353
-0.0332353
-0.0332353
-0.0332353
-0.0332353
-0.0332353
-0.0332353
-0.0332353
-0.0332353
-0.0332353
-0.0332353
-0.0332353
-0.0332353
-0.0332353
-0.0332353
-0.0332353
-0.0332353
-0.0332353
-0.0332353
-0.0332353
-0.0332353
-0.0332353
-0.0332353
-0.0332353
-0.0332353
-0.0332353
-0.0314388
-0.0314388
-0.0314388
-0.0314388
-0.0314388
-0.0314388
-0.0314388
-0.0314388
-0.0314388
-0.0314388
-0.0314388
-0.0314388
-0.0314388
-0.0314388
-0.0314388
-0.0314388
-0.0314388
-0.0314388
-0.0314388
-0.0314388
-0.0314388
-0.0314388
-0.0314388
-0.0314388
-0.0314388
-0.0314388
-0.0314388
-0.0314388
-0.0314388
-0.0296423
-0.0296423
-0.0296423
-0.0296423
-0.0296423
-0.0296423
-0.0296423
-0.0296423
-0.0296423
-0.0296423
-0.0296423
-0.0296423
-0.0296423
-0.0296423
-0.0296423
-0.0296423
-0.0296423
-0.0296423
-0.0296423
-0.0296423
-0.0296423
-0.0296423
-0.0296423
-0.0296423
-0.0296423
-0.0296423
-0.0296423
-0.0278458
-0.0278458
-0.0278458
-0.0278458
-0.0278458
-0.0278458
-0.0278458
-0.0278458
-0.0278458
-0.0278458
-0.0278458
-0.0278458
-0.0278458
-0.0278458
-0.0278458
-0.0278458
-0.0278458
-0.0278458
-0.0278458
-0.0278458
-0.0278458
-0.0260493
-0.0260493
-0.0260493
-0.0260493
-0.0260493
-0.0260493
-0.0260493
-0.0260493
-0.0260493
-0.0260493
-0.0260493
-0.0260493
-0.0260493
-0.0260493
-0.0260493
-0.0260493
-0.0260493
-0.0260493
-0.0260493
-0.0260493
-0.0260493
-0.0260493
-0.0260493
-0.0260493
-0.0260493
-0.0260493
-0.0260493
-0.0260493
-0.0260493
-0.0260493
-0.0260493
-0.0260493
-0.0260493
-0.0260493
-0.0260493
-0.0260493
-0.0260493
-0.0260493
-0.0260493
-0.0260493
-0.0260493
-0.0242528
-0.0242528
-0.0242528
-0.0242528
-0.0242528
-0.0242528
-0.0242528
-0.0242528
-0.0242528
-0.0242528
-0.0242528
-0.0242528
-0.0242528
-0.0242528
-0.0242528
-0.0242528
-0.0242528
-0.0242528
-0.0242528
-0.0242528
-0.0242528
-0.0242528
-0.0242528
-0.0242528
-0.0242528
-0.0242528
-0.0242528
-0.0242528
-0.0242528
-0.0242528
-0.0242528
-0.0242528
-0.0242528
-0.0242528
-0.0242528
-0.0224563
-0.0224563
-0.0224563
-0.0224563
-0.0224563
-0.0224563
-0.0224563
-0.0224563
-0.0224563
-0.0224563
-0.0224563
-0.0224563
-0.0224563
-0.0224563
-0.0224563
-0.0224563
-0.0224563
-0.0224563
-0.0224563
-0.0224563
-0.0224563
-0.0224563
-0.0224563
-0.0224563
-0.0224563
-0.0224563
-0.0224563
-0.0206598
-0.0206598
-0.0206598
-0.0206598
-0.0206598
-0.0206598
-0.0206598
-0.0206598
-0.0206598
-0.0206598
-0.0206598
-0.0206598
-0.0206598
-0.0206598
-0.0206598
-0.0206598
-0.0206598
-0.0206598
-0.0206598
-0.0206598
-0.0206598
-0.0206598
-0.0206598
-0.0206598
-0.0188633
-0.0188633
-0.0188633
-0.0188633
-0.0188633
-0.0188633
-0.0188633
-0.0188633
-0.0188633
-0.0188633
-0.0188633
-0.0188633
-0.0188633
-0.0188633
-0.0188633
-0.0188633
-0.0188633
-0.0188633
-0.0188633
-0.0188633
-0.0188633
-0.0188633
-0.0188633
-0.0188633
-0.0188633
-0.0188633
-0.0188633
-0.0188633
-0.0188633
-0.0188633
-0.0188633
-0.0188633
-0.0188633
-0.0188633
-0.0170668
-0.0170668
-0.0170668
-0.0170668
-0.0170668
-0.0170668
-0.0170668
-0.0170668
-0.0170668
-0.0170668
-0.0170668
-0.0170668
-0.0170668
-0.0170668
-0.0170668
-0.0170668
-0.0170668
-0.0170668
-0.0170668
-0.0170668
-0.0170668
-0.0170668
-0.0170668
-0.0170668
-0.0170668
-0.0170668
-0.0170668
-0.0170668
-0.0170668
-0.0170668
-0.0170668
-0.0170668
-0.0170668
-0.0152703
-0.0152703
-0.0152703
-0.0152703
-0.0152703
-0.0152703
-0.0152703
-0.0152703
-0.0152703
-0.0152703
-0.0152703
-0.0152703
-0.0152703
-0.0152703
-0.0152703
-0.0152703
-0.0152703
-0.0152703
-0.0152703
-0.0152703
-0.0152703
-0.0152703
-0.0152703
-0.0152703
-0.0152703
-0.0152703
-0.0152703
-0.0152703
-0.0152703
-0.0152703
-0.0152703
-0.0152703
-0.0152703
-0.0152703
-0.0152703
-0.0152703
-0.0152703
-0.0152703
-0.0152703
-0.0152703
-0.0134738
-0.0134738
-0.0134738
-0.0134738
-0.0134738
-0.0134738
-0.0134738
-0.0134738
-0.0134738
-0.0134738
-0.0134738
-0.0134738
-0.0134738
-0.0134738
-0.0134738
-0.0134738
-0.0134738
-0.0134738
-0.0134738
-0.0134738
-0.0134738
-0.0134738
-0.0134738
-0.0134738
-0.0134738
-0.0134738
-0.0134738
-0.0134738
-0.0134738
-0.0134738
-0.0134738
-0.0134738
-0.0134738
-0.0116773
-0.0116773
-0.0116773
-0.0116773
-0.0116773
-0.0116773
-0.0116773
-0.0116773
-0.0116773
-0.0116773
-0.0116773
-0.0116773
-0.0116773
-0.0116773
-0.0116773
-0.0116773
-0.0116773
-0.0116773
-0.0116773
-0.0116773
-0.0116773
-0.0116773
-0.0116773
-0.0116773
-0.0116773
-0.0116773
-0.0116773
-0.0116773
-0.0116773
-0.0116773
-0.0116773
-0.0116773
-0.0116773
-0.0116773
-0.0116773
-0.0116773
-0.0116773
-0.0116773
-0.0116773
-0.0116773
-0.0116773
-0.0116773
-0.0116773
-0.0116773
-0.0116773
-0.0116773
-0.0116773
-0.00988077
-0.00988077
-0.00988077
-0.00988077
-0.00988077
-0.00988077
-0.00988077
-0.00988077
-0.00988077
-0.00988077
-0.00988077
-0.00988077
-0.00988077
-0.00988077
-0.00988077
-0.00988077
-0.00988077
-0.00988077
-0.00988077
-0.00988077
-0.00988077
-0.00988077
-0.00988077
-0.00988077
-0.00988077
-0.00988077
-0.00988077
-0.00988077
-0.00988077
-0.00988077
-0.00988077
-0.00988077
-0.00808426
-0.00808426
-0.00808426
-0.00808426
-0.00808426
-0.00808426
-0.00808426
-0.00808426
-0.00808426
-0.00808426
-0.00808426
-0.00808426
-0.00808426
-0.00808426
-0.00808426
-0.00808426
-0.00808426
-0.00808426
-0.00808426
-0.00808426
-0.00808426
-0.00808426
-0.00808426
-0.00808426
-0.00808426
-0.00808426
-0.00808426
-0.00808426
-0.00808426
-0.00808426
-0.00808426
-0.00808426
-0.00808426
-0.00808426
-0.00808426
-0.00808426
-0.00808426
-0.00628776
-0.00628776
-0.00628776
-0.00628776
-0.00628776
-0.00628776
-0.00628776
-0.00628776
-0.00628776
-0.00628776
-0.00628776
-0.00628776
-0.00628776
-0.00628776
-0.00628776
-0.00628776
-0.00628776
-0.00628776
-0.00628776
-0.00628776
-0.00628776
-0.00628776
-0.00628776
-0.00628776
-0.00628776
-0.00628776
-0.00628776
-0.00628776
-0.00628776
-0.00628776
-0.00628776
-0.00628776
-0.00628776
-0.00628776
-0.00628776
-0.00628776
-0.00628776
-0.00628776
-0.00628776
-0.00628776
-0.00628776
-0.00628776
-0.00628776
-0.00628776
-0.00628776
-0.00628776
-0.00628776
-0.00628776
-0.00628776
-0.00449125
-0.00449125
-0.00449125
-0.00449125
-0.00449125
-0.00449125
-0.00449125
-0.00449125
-0.00449125
-0.00449125
-0.00449125
-0.00449125
-0.00449125
-0.00449125
-0.00449125
-0.00449125
-0.00449125
-0.00449125
-0.00449125
-0.00449125
-0.00449125
-0.00449125
-0.00449125
-0.00449125
-0.00449125
-0.00449125
-0.00449125
-0.00449125
-0.00449125
-0.00449125
-0.00449125
-0.00269475
-0.00269475
-0.00269475
-0.00269475
-0.00269475
-0.00269475
-0.00269475
-0.00269475
-0.00269475
-0.00269475
-0.00269475
-0.00269475
-0.00269475
-0.00269475
-0.00269475
-0.00269475
-0.00269475
-0.00269475
-0.00269475
-0.00269475
-0.00269475
-0.00269475
-0.00269475
-0.00269475
-0.00269475
-0.00269475
-0.00269475
-0.00269475
-0.00269475
-0.00269475
-0.00269475
-0.00269475
-0.00269475
-0.00269475
-0.00269475
-0.000898239
-0.000898239
-0.000898239
-0.000898239
-0.000898239
-0.000898239
-0.000898239
-0.000898239
-0.000898239
-0.000898239
-0.000898239
-0.000898239
-0.000898239
-0.000898239
-0.000898239
-0.000898239
-0.000898239
-0.000898239
-0.000898239
-0.000898239
-0.000898239
-0.000898239
-0.000898239
-0.000898239
-0.000898239
-0.000898239
-0.000898239
-0.000898239
-0.000898239
-0.000898239
-0.000898239
-0.000898239
-0.000898239
-0.000898239
-0.000898239
-0.000898239
-0.000898239
-0.000898239
-0.000898239
-0.000898239
-0.000898239
-0.000898239
-0.000898239
-0.000898239
-0.000898239
-0.000898239
-0.000898239
-0.000898239
-0.000898239
-0.000898239
0.000898267
0.000898267
0.000898267
0.000898267
0.000898267
0.000898267
0.000898267
0.000898267
0.000898267
0.000898267
0.000898267
0.000898267
0.000898267
0.000898267
0.000898267
0.000898267
0.000898267
0.000898267
0.000898267
0.000898267
0.000898267
0.000898267
0.000898267
0.000898267
0.000898267
0.000898267
0.000898267
0.000898267
0.000898267
0.000898267
0.000898267
0.000898267
0.000898267
0.00269477
0.00269477
0.00269477
0.00269477
0.00269477
0.00269477
0.00269477
0.00269477
0.00269477
0.00269477
0.00269477
0.00269477
0.00269477
0.00269477
0.00269477
0.00269477
0.00269477
0.00269477
0.00269477
0.00269477
0.00269477
0.00269477
0.00269477
0.00269477
0.00269477
0.00269477
0.00269477
0.00269477
0.00269477
0.00269477
0.00269477
0.00269477
0.00269477
0.00269477
0.00269477
0.00269477
0.00269477
0.00269477
0.00269477
0.00269477
0.00269477
0.00269477
0.00269477
0.00269477
0.00269477
0.00269477
0.00269477
0.00269477
0.00449128
0.00449128
0.00449128
0.00449128
0.00449128
0.00449128
0.00449128
0.00449128
0.00449128
0.00449128
0.00449128
0.00449128
0.00449128
0.00449128
0.00449128
0.00449128
0.00449128
0.00449128
0.00449128
0.00449128
0.00449128
0.00449128
0.00449128
0.00449128
0.00449128
0.00449128
0.00449128
0.00449128
0.00449128
0.00449128
0.00449128
0.00449128
0.00449128
0.00449128
0.00449128
0.00449128
0.00449128
0.00449128
0.00449128
0.00449128
0.00449128
0.00628779
0.00628779
0.00628779
0.00628779
0.00628779
0.00628779
0.00628779
0.00628779
0.00628779
0.00628779
0.00628779
0.00628779
0.00628779
0.00628779
0.00628779
0.00628779
0.00628779
0.00628779
0.00628779
0.00628779
0.00628779
0.00628779
0.00628779
0.00628779
0.00628779
0.00628779
0.00628779
0.00628779
0.00628779
0.00808429
0.00808429
0.00808429
0.00808429
0.00808429
0.00808429
0.00808429
0.00808429
0.00808429
0.00808429
0.00808429
0.00808429
0.00808429
0.00808429
0.00808429
0.00808429
0.00808429
0.00808429
0.00808429
0.00808429
0.00808429
0.00808429
0.00808429
0.00808429
0.00808429
0.00808429
0.00808429
0.00808429
0.00808429
0.00808429
0.00808429
0.00808429
0.00808429
0.00808429
0.00808429
0.00808429
0.00808429
0.00808429
0.00808429
0.00808429
0.0098808
0.0098808
0.0098808
0.0098808
0.0098808
0.0098808
0.0098808
0.0098808
0.0098808
0.0098808
0.0098808
0.0098808
0.0098808
0.0098808
0.0098808
0.0098808
0.0098808
0.0098808
0.0098808
0.0098808
0.0098808
0.0098808
0.0098808
0.0098808
0.0098808
0.0098808
0.0098808
0.0098808
0.0098808
0.0098808
0.0098808
0.0098808
0.0098808
0.0098808
0.0098808
0.0098808
0.0098808
0.0098808
0.0098808
0.0098808
0.0098808
0.0098808
0.0098808
0.0098808
0.0098808
0.0098808
0.0098808
0.0098808
0.0098808
0.0098808
0.0098808
0.0116773
0.0116773
0.0116773
0.0116773
0.0116773
0.0116773
0.0116773
0.0116773
0.0116773
0.0116773
0.0116773
0.0116773
0.0116773
0.0116773
0.0116773
0.0116773
0.0116773
0.0116773
0.0116773
0.0116773
0.0116773
0.0116773
0.0116773
0.0116773
0.0116773
0.0116773
0.0116773
0.0116773
0.0116773
0.0116773
0.0116773
0.0116773
0.0116773
0.0116773
0.0116773
0.0116773
0.0134738
0.0134738
0.0134738
0.0134738
0.0134738
0.0134738
0.0134738
0.0134738
0.0134738
0.0134738
0.0134738
0.0134738
0.0134738
0.0134738
0.0134738
0.0134738
0.0134738
0.0134738
0.0134738
0.0134738
0.0134738
0.0134738
0.0134738
0.0134738
0.0134738
0.0134738
0.0134738
0.0134738
0.0134738
0.0134738
0.0134738
0.0134738
0.0134738
0.0152703
0.0152703
0.0152703
0.0152703
0.0152703
0.0152703
0.0152703
0.0152703
0.0152703
0.0152703
0.0152703
0.0152703
0.0152703
0.0152703
0.0152703
0.0152703
0.0152703
0.0152703
0.0152703
0.0152703
0.0152703
0.0152703
0.0152703
0.0152703
0.0152703
0.0152703
0.0152703
0.0152703
0.0152703
0.0152703
0.0152703
0.0152703
0.0152703
0.0152703
0.0152703
0.0152703
0.0152703
0.0152703
0.0152703
0.0152703
0.0152703
0.0152703
0.0152703
0.0152703
0.0152703
0.0152703
0.0152703
0.0152703
0.0152703
0.0152703
0.0152703
0.0152703
0.0152703
0.0152703
0.0170668
0.0170668
0.0170668
0.0170668
0.0170668
0.0170668
0.0170668
0.0170668
0.0170668
0.0170668
0.0170668
0.0170668
0.0170668
0.0170668
0.0170668
0.0170668
0.0170668
0.0170668
0.0170668
0.0170668
0.0170668
0.0170668
0.0170668
0.0170668
0.0170668
0.0170668
0.0170668
0.0170668
0.0170668
0.0170668
0.0170668
0.0170668
0.0170668
0.0170668
0.0170668
0.0170668
0.0170668
0.0170668
0.0170668
0.0170668
0.0170668
0.0170668
0.0170668
0.0188633
0.0188633
0.0188633
0.0188633
0.0188633
0.0188633
0.0188633
0.0188633
0.0188633
0.0188633
0.0188633
0.0188633
0.0188633
0.0188633
0.0188633
0.0188633
0.0188633
0.0188633
0.0188633
0.0188633
0.0188633
0.0188633
0.0188633
0.0188633
0.0188633
0.0188633
0.0188633
0.0188633
0.0188633
0.0188633
0.0188633
0.0188633
0.0188633
0.0188633
0.0188633
0.0188633
0.0188633
0.0188633
0.0188633
0.0188633
0.0206598
0.0206598
0.0206598
0.0206598
0.0206598
0.0206598
0.0206598
0.0206598
0.0206598
0.0206598
0.0206598
0.0206598
0.0206598
0.0206598
0.0206598
0.0206598
0.0206598
0.0206598
0.0206598
0.0206598
0.0206598
0.0206598
0.0206598
0.0206598
0.0206598
0.0206598
0.0206598
0.0206598
0.0224563
0.0224563
0.0224563
0.0224563
0.0224563
0.0224563
0.0224563
0.0224563
0.0224563
0.0224563
0.0224563
0.0224563
0.0224563
0.0224563
0.0224563
0.0224563
0.0224563
0.0224563
0.0224563
0.0224563
0.0224563
0.0224563
0.0224563
0.0224563
0.0224563
0.0224563
0.0224563
0.0224563
0.0224563
0.0224563
0.0224563
0.0224563
0.0224563
0.0224563
0.0242528
0.0242528
0.0242528
0.0242528
0.0242528
0.0242528
0.0242528
0.0242528
0.0242528
0.0242528
0.0242528
0.0242528
0.0242528
0.0242528
0.0242528
0.0242528
0.0242528
0.0242528
0.0242528
0.0242528
0.0242528
0.0242528
0.0242528
0.0242528
0.0242528
0.0242528
0.0242528
0.0242528
0.0242528
0.0260494
0.0260494
0.0260494
0.0260494
0.0260494
0.0260494
0.0260494
0.0260494
0.0260494
0.0260494
0.0260494
0.0260494
0.0260494
0.0260494
0.0260494
0.0260494
0.0260494
0.0260494
0.0260494
0.0260494
0.0260494
0.0260494
0.0260494
0.0278459
0.0278459
0.0278459
0.0278459
0.0278459
0.0278459
0.0278459
0.0278459
0.0278459
0.0278459
0.0278459
0.0278459
0.0278459
0.0278459
0.0278459
0.0278459
0.0278459
0.0278459
0.0278459
0.0278459
0.0278459
0.0278459
0.0278459
0.0278459
0.0278459
0.0278459
0.0278459
0.0278459
0.0278459
0.0278459
0.0278459
0.0278459
0.0278459
0.0278459
0.0278459
0.0278459
0.0296424
0.0296424
0.0296424
0.0296424
0.0296424
0.0296424
0.0296424
0.0296424
0.0296424
0.0296424
0.0296424
0.0296424
0.0296424
0.0296424
0.0296424
0.0296424
0.0296424
0.0296424
0.0296424
0.0296424
0.0296424
0.0296424
0.0296424
0.0296424
0.0296424
0.0296424
0.0296424
0.0296424
0.0296424
0.0296424
0.0296424
0.0296424
0.0296424
0.0296424
0.0296424
0.0296424
0.0296424
0.0296424
0.0296424
0.0296424
0.0296424
0.0296424
0.0314389
0.0314389
0.0314389
0.0314389
0.0314389
0.0314389
0.0314389
0.0314389
0.0314389
0.0314389
0.0314389
0.0314389
0.0314389
0.0314389
0.0314389
0.0314389
0.0314389
0.0314389
0.0314389
0.0314389
0.0314389
0.0314389
0.0314389
0.0314389
0.0314389
0.0314389
0.0314389
0.0314389
0.0332354
0.0332354
0.0332354
0.0332354
0.0332354
0.0332354
0.0332354
0.0332354
0.0332354
0.0332354
0.0332354
0.0332354
0.0332354
0.0332354
0.0332354
0.0332354
0.0332354
0.0332354
0.0332354
0.0332354
0.0332354
0.0332354
0.0332354
0.0332354
0.0332354
0.0332354
0.0332354
0.0332354
0.0332354
0.0350319
0.0350319
0.0350319
0.0350319
0.0350319
0.0350319
0.0350319
0.0350319
0.0350319
0.0350319
0.0350319
0.0350319
0.0350319
0.0350319
0.0350319
0.0350319
0.0350319
0.0350319
0.0350319
0.0368284
0.0368284
0.0368284
0.0368284
0.0368284
0.0368284
0.0368284
0.0368284
0.0368284
0.0368284
0.0368284
0.0368284
0.0368284
0.0368284
0.0368284
0.0368284
0.0368284
0.0368284
0.0368284
0.0368284
0.0368284
0.0368284
0.0368284
0.0368284
0.0368284
0.0368284
0.0368284
0.0368284
0.0368284
0.0368284
0.0368284
0.0368284
0.0368284
0.0368284
0.0368284
0.0386249
0.0386249
0.0386249
0.0386249
0.0386249
0.0386249
0.0386249
0.0386249
0.0386249
0.0386249
0.0386249
0.0386249
0.0386249
0.0386249
0.0386249
0.0386249
0.0386249
0.0386249
0.0386249
0.0386249
0.0386249
0.0386249
0.0404214
0.0404214
0.0404214
0.0404214
0.0404214
0.0404214
0.0404214
0.0404214
0.0404214
0.0404214
0.0404214
0.0404214
0.0404214
0.0404214
0.0404214
0.0404214
0.0404214
0.0404214
0.0404214
0.0404214
0.0404214
0.0404214
0.0422179
0.0422179
0.0422179
0.0422179
0.0422179
0.0422179
0.0422179
0.0422179
0.0422179
0.0422179
0.0422179
0.0422179
0.0422179
0.0422179
0.0422179
0.0422179
0.0422179
0.0422179
0.0422179
0.0422179
0.0422179
0.0422179
0.0422179
0.0422179
0.0440144
0.0440144
0.0440144
0.0440144
0.0440144
0.0440144
0.0440144
0.0440144
0.0440144
0.0440144
0.0440144
0.0440144
0.0440144
0.0440144
0.0440144
0.0440144
0.0440144
0.0440144
0.0440144
0.0440144
0.0440144
0.0440144
0.0440144
0.0440144
0.0440144
0.0440144
0.0440144
0.0440144
0.0440144
0.0440144
0.0440144
0.0458109
0.0458109
0.0458109
0.0458109
0.0458109
0.0458109
0.0458109
0.0458109
0.0458109
0.0458109
0.0458109
0.0458109
0.0458109
0.0458109
0.0458109
0.0458109
0.0458109
0.0458109
0.0458109
0.0458109
0.0458109
0.0458109
0.0458109
0.0458109
0.0458109
0.0458109
0.0458109
0.0458109
0.0458109
0.0458109
0.0476074
0.0476074
0.0476074
0.0476074
0.0476074
0.0476074
0.0476074
0.0476074
0.0476074
0.0476074
0.0476074
0.0476074
0.0476074
0.0476074
0.0476074
0.0476074
0.0476074
0.0476074
0.0476074
0.0476074
0.0476074
0.0476074
0.0476074
0.0476074
0.0476074
0.0476074
0.0476074
0.0494039
0.0494039
0.0494039
0.0494039
0.0494039
0.0494039
0.0494039
0.0494039
0.0494039
0.0494039
0.0494039
0.0494039
0.0494039
0.0494039
0.0494039
0.0494039
0.0494039
0.0494039
0.0494039
0.0494039
0.0512004
0.0512004
0.0512004
0.0512004
0.0512004
0.0512004
0.0512004
0.0512004
0.0512004
0.0512004
0.0512004
0.0512004
0.0512004
0.0512004
0.0529969
0.0529969
0.0529969
0.0529969
0.0529969
0.0529969
0.0529969
0.0529969
0.0529969
0.0529969
0.0529969
0.0529969
0.0529969
0.0529969
0.0529969
0.0547935
0.0547935
0.0547935
0.0547935
0.0547935
0.0547935
0.0547935
0.0547935
0.0547935
0.0547935
0.0547935
0.0547935
0.0547935
0.0547935
0.0547935
0.0547935
0.0547935
0.0547935
0.05659
0.05659
0.05659
0.05659
0.05659
0.05659
0.05659
0.05659
0.0583865
0.0583865
0.0583865
0.0583865
0.0583865
0.0583865
0.0583865
0.0583865
0.0583865
0.0583865
0.0583865
0.0583865
0.060183
0.060183
0.060183
0.060183
0.060183
0.060183
0.060183
0.060183
0.060183
0.060183
0.060183
0.060183
0.060183
0.060183
0.060183
0.060183
0.060183
0.060183
0.060183
0.060183
0.0619795
0.0619795
0.0619795
0.0619795
0.0619795
0.0619795
0.0619795
0.0619795
0.0619795
0.0619795
0.0619795
0.0619795
0.0619795
0.0619795
0.0619795
0.0619795
0.0619795
0.0619795
0.063776
0.063776
0.063776
0.063776
0.063776
0.063776
0.063776
0.063776
0.063776
0.063776
0.063776
0.063776
0.063776
0.0655725
0.0655725
0.0655725
0.0655725
0.0655725
0.0655725
0.0655725
0.0655725
0.0655725
0.0655725
0.0655725
0.0655725
0.0655725
0.0655725
0.0655725
0.0655725
0.067369
0.067369
0.067369
0.067369
0.067369
0.067369
0.067369
0.067369
0.067369
0.067369
0.067369
0.067369
0.067369
0.0691655
0.0691655
0.0691655
0.0691655
0.0691655
0.0691655
0.0691655
0.0691655
0.070962
0.070962
0.070962
0.070962
0.070962
0.0727585
0.0727585
0.0727585
0.0727585
0.074555
0.074555
0.074555
0.074555
0.074555
0.074555
0.074555
0.074555
0.074555
0.074555
0.074555
0.074555
0.074555
0.074555
0.0763515
0.0763515
0.0763515
0.0763515
0.0763515
0.0763515
0.0763515
0.0763515
0.0763515
0.0763515
0.0763515
0.078148
0.078148
0.078148
0.078148
0.078148
0.078148
0.078148
0.078148
0.0799445
0.0799445
0.0799445
0.0799445
0.0799445
0.0799445
0.0799445
0.0799445
0.081741
0.081741
0.081741
0.081741
0.081741
0.081741
0.0835375
0.0835375
0.0835375
0.0835375
0.0835375
0.0835375
0.0835375
0.0835375
0.0853341
0.0853341
0.0871306
0.0871306
0.0871306
0.0871306
0.0871306
0.0871306
0.0889271
0.0889271
0.0889271
0.0907236
0.0907236
0.0907236
0.0907236
0.0925201
0.0925201
0.0925201
0.0943166
0.0961131
0.0961131
0.0961131
0.0979096
0.0979096
0.0997061
0.0997061
0.0997061
0.0997061
0.0997061
0.101503
0.101503
0.101503
0.101503
0.101503
0.101503
0.101503
0.103299
0.103299
0.105096
0.105096
0.105096
0.105096
0.105096
0.106892
0.106892
0.106892
0.108689
0.108689
0.108689
0.110485
0.110485
0.110485
0.114078
0.115875
0.117671
0.123061
0.124857
0.12845
0.12845
0.12845
0.12845
0.132043
0.137433
0.155398
