-1.70066
-1.24715
-1.23381
-1.0204
-0.993718
-0.98038
-0.88701
-0.873672
-0.846995
-0.846995
-0.820318
-0.793641
-0.793641
-0.780302
-0.740287
-0.740287
-0.726948
-0.726948
-0.726948
-0.726948
-0.71361
-0.700271
-0.700271
-0.700271
-0.700271
-0.686933
-0.686933
-0.673594
-0.673594
-0.673594
-0.673594
-0.673594
-0.673594
-0.660256
-0.660256
-0.660256
-0.660256
-0.646917
-0.646917
-0.646917
-0.646917
-0.646917
-0.633579
-0.633579
-0.633579
-0.633579
-0.633579
-0.62024
-0.62024
-0.62024
-0.62024
-0.606902
-0.606902
-0.606902
-0.606902
-0.606902
-0.606902
-0.593563
-0.593563
-0.593563
-0.593563
-0.580225
-0.580225
-0.580225
-0.580225
-0.580225
-0.580225
-0.566886
-0.566886
-0.566886
-0.566886
-0.566886
-0.566886
-0.553548
-0.553548
-0.553548
-0.553548
-0.553548
-0.553548
-0.540209
-0.540209
-0.540209
-0.540209
-0.540209
-0.540209
-0.540209
-0.540209
-0.540209
-0.526871
-0.526871
-0.526871
-0.526871
-0.526871
-0.526871
-0.513532
-0.513532
-0.513532
-0.513532
-0.513532
-0.513532
-0.513532
-0.513532
-0.513532
-0.513532
-0.513532
-0.513532
-0.513532
-0.513532
-0.500194
-0.500194
-0.500194
-0.500194
-0.500194
-0.500194
-0.500194
-0.486855
-0.486855
-0.486855
-0.486855
-0.486855
-0.486855
-0.486855
-0.486855
-0.473517
-0.473517
-0.473517
-0.460178
-0.460178
-0.460178
-0.460178
-0.460178
-0.460178
-0.460178
-0.460178
-0.44684
-0.44684
-0.44684
-0.44684
-0.44684
-0.433501
-0.433501
-0.433501
-0.433501
-0.433501
-0.433501
-0.433501
-0.433501
-0.433501
-0.420163
-0.420163
-0.420163
-0.420163
-0.420163
-0.420163
-0.420163
-0.420163
-0.420163
-0.420163
-0.420163
-0.420163
-0.420163
-0.406824
-0.406824
-0.406824
-0.406824
-0.406824
-0.406824
-0.406824
-0.393486
-0.393486
-0.393486
-0.393486
-0.393486
-0.393486
-0.393486
-0.380147
-0.380147
-0.380147
-0.380147
-0.380147
-0.380147
-0.380147
-0.380147
-0.380147
-0.366809
-0.366809
-0.366809
-0.366809
-0.366809
-0.366809
-0.366809
-0.366809
-0.366809
-0.366809
-0.366809
-0.366809
-0.366809
-0.35347
-0.35347
-0.35347
-0.35347
-0.35347
-0.35347
-0.35347
-0.35347
-0.340132
-0.340132
-0.340132
-0.340132
-0.340132
-0.340132
-0.326793
-0.326793
-0.326793
-0.313455
-0.313455
-0.313455
-0.313455
-0.313455
-0.313455
-0.313455
-0.313455
-0.300116
-0.300116
-0.300116
-0.300116
-0.300116
-0.300116
-0.300116
-0.300116
-0.286778
-0.286778
-0.286778
-0.286778
-0.286778
-0.286778
-0.286778
-0.286778
-0.286778
-0.286778
-0.286778
-0.286778
-0.286778
-0.273439
-0.273439
-0.273439
-0.273439
-0.273439
-0.273439
-0.273439
-0.260101
-0.260101
-0.260101
-0.260101
-0.260101
-0.260101
-0.260101
-0.246762
-0.246762
-0.246762
-0.246762
-0.246762
-0.246762
-0.246762
-0.246762
-0.246762
-0.246762
-0.233424
-0.233424
-0.233424
-0.233424
-0.233424
-0.233424
-0.233424
-0.233424
-0.233424
-0.233424
-0.233424
-0.220085
-0.220085
-0.220085
-0.220085
-0.220085
-0.220085
-0.220085
-0.220085
-0.220085
-0.220085
-0.206747
-0.206747
-0.206747
-0.206747
-0.206747
-0.206747
-0.206747
-0.206747
-0.206747
-0.206747
-0.206747
-0.206747
-0.206747
-0.206747
-0.193408
-0.193408
-0.193408
-0.193408
-0.193408
-0.193408
-0.193408
-0.193408
-0.18007
-0.18007
-0.18007
-0.18007
-0.18007
-0.18007
-0.18007
-0.18007
-0.18007
-0.18007
-0.18007
-0.18007
-0.18007
-0.18007
-0.166731
-0.166731
-0.166731
-0.166731
-0.166731
-0.166731
-0.166731
-0.166731
-0.166731
-0.166731
-0.166731
-0.166731
-0.166731
-0.166731
-0.166731
-0.166731
-0.166731
-0.166731
-0.153393
-0.153393
-0.153393
-0.153393
-0.153393
-0.140054
-0.140054
-0.140054
-0.140054
-0.140054
-0.140054
-0.140054
-0.140054
-0.140054
-0.140054
-0.140054
-0.126716
-0.126716
-0.126716
-0.126716
-0.126716
-0.126716
-0.126716
-0.126716
-0.126716
-0.126716
-0.126716
-0.126716
-0.126716
-0.113377
-0.113377
-0.113377
-0.113377
-0.113377
-0.113377
-0.113377
-0.113377
-0.113377
-0.100039
-0.100039
-0.100039
-0.100039
-0.100039
-0.100039
-0.100039
-0.100039
-0.100039
-0.0867001
-0.0867001
-0.0867001
-0.0867001
-0.0867001
-0.0867001
-0.0867001
-0.0867001
-0.0867001
-0.0867001
-0.0867001
-0.0867001
-0.0867001
-0.0867001
-0.0867001
-0.0867001
-0.0867001
-0.0867001
-0.0867001
-0.0867001
-0.0867001
-0.0867001
-0.0733616
-0.0733616
-0.0733616
-0.0733616
-0.0733616
-0.0733616
-0.0733616
-0.0733616
-0.0733616
-0.0733616
-0.0733616
-0.0733616
-0.0733616
-0.0733616
-0.0733616
-0.0733616
-0.0733616
-0.0733616
-0.0733616
-0.0600231
-0.0600231
-0.0600231
-0.0600231
-0.0600231
-0.0600231
-0.0600231
-0.0600231
-0.0600231
-0.0600231
-0.0600231
-0.0600231
-0.0600231
-0.0600231
-0.0600231
-0.0600231
-0.0600231
-0.0600231
-0.0600231
-0.0600231
-0.0600231
-0.0466846
-0.0466846
-0.0466846
-0.0466846
-0.0466846
-0.0466846
-0.0466846
-0.0466846
-0.0466846
-0.0466846
-0.0466846
-0.0466846
-0.0466846
-0.0466846
-0.0466846
-0.0466846
-0.0466846
-0.0466846
-0.0466846
-0.0466846
-0.0466846
-0.0333461
-0.0333461
-0.0333461
-0.0333461
-0.0333461
-0.0333461
-0.0333461
-0.0333461
-0.0333461
-0.0333461
-0.0333461
-0.0333461
-0.0333461
-0.0333461
-0.0333461
-0.0333461
-0.0333461
-0.0333461
-0.0200076
-0.0200076
-0.0200076
-0.0200076
-0.0200076
-0.0200076
-0.0200076
-0.0200076
-0.0200076
-0.0200076
-0.0200076
-0.0200076
-0.00666915
-0.00666915
-0.00666915
-0.00666915
-0.00666915
-0.00666915
-0.00666915
-0.00666915
-0.00666915
-0.00666915
-0.00666915
-0.00666915
-0.00666915
-0.00666915
0.00666935
0.00666935
0.00666935
0.00666935
0.00666935
0.00666935
0.00666935
0.00666935
0.00666935
0.00666935
0.00666935
0.00666935
0.00666935
0.00666935
0.00666935
0.00666935
0.0200078
0.0200078
0.0200078
0.0200078
0.0200078
0.0200078
0.0200078
0.0200078
0.0200078
0.0200078
0.0200078
0.0200078
0.0200078
0.0200078
0.0200078
0.0200078
0.0200078
0.0200078
0.0200078
0.0333463
0.0333463
0.0333463
0.0333463
0.0333463
0.0333463
0.0333463
0.0333463
0.0333463
0.0333463
0.0333463
0.0333463
0.0333463
0.0333463
0.0333463
0.0333463
0.0333463
0.0333463
0.0333463
0.0333463
0.0333463
0.0466848
0.0466848
0.0466848
0.0466848
0.0466848
0.0466848
0.0466848
0.0466848
0.0466848
0.0466848
0.0466848
0.0600233
0.0600233
0.0600233
0.0600233
0.0600233
0.0600233
0.0600233
0.0600233
0.0600233
0.0600233
0.0600233
0.0600233
0.0600233
0.0733618
0.0733618
0.0733618
0.0733618
0.0733618
0.0733618
0.0733618
0.0733618
0.0733618
0.0733618
0.0733618
0.0733618
0.0733618
0.0733618
0.0733618
0.0733618
0.0733618
0.0733618
0.0867003
0.0867003
0.0867003
0.0867003
0.0867003
0.0867003
0.0867003
0.0867003
0.100039
0.100039
0.100039
0.100039
0.100039
0.100039
0.100039
0.100039
0.100039
0.100039
0.113377
0.113377
0.113377
0.113377
0.113377
0.113377
0.113377
0.113377
0.113377
0.113377
0.113377
0.113377
0.126716
0.126716
0.126716
0.126716
0.126716
0.126716
0.126716
0.126716
0.126716
0.126716
0.126716
0.126716
0.126716
0.126716
0.126716
0.126716
0.126716
0.126716
0.126716
0.140054
0.140054
0.140054
0.140054
0.140054
0.140054
0.140054
0.140054
0.140054
0.140054
0.140054
0.153393
0.153393
0.153393
0.153393
0.153393
0.153393
0.166731
0.166731
0.166731
0.166731
0.166731
0.18007
0.18007
0.18007
0.18007
0.18007
0.18007
0.18007
0.18007
0.18007
0.18007
0.18007
0.18007
0.18007
0.193408
0.193408
0.193408
0.193408
0.193408
0.193408
0.193408
0.206747
0.206747
0.206747
0.206747
0.206747
0.206747
0.206747
0.206747
0.206747
0.220085
0.220085
0.220085
0.220085
0.220085
0.220085
0.220085
0.220085
0.220085
0.220085
0.220085
0.220085
0.233424
0.233424
0.246762
0.246762
0.246762
0.246762
0.246762
0.246762
0.246762
0.246762
0.246762
0.246762
0.260101
0.260101
0.273439
0.273439
0.273439
0.273439
0.273439
0.273439
0.273439
0.273439
0.286778
0.286778
0.286778
0.286778
0.286778
0.286778
0.286778
0.286778
0.286778
0.286778
0.286778
0.286778
0.300116
0.300116
0.300116
0.300116
0.300116
0.300116
0.300116
0.300116
0.300116
0.300116
0.300116
0.313455
0.313455
0.313455
0.313455
0.326793
0.326793
0.326793
0.326793
0.326793
0.340132
0.340132
0.340132
0.340132
0.340132
0.340132
0.35347
0.35347
0.366809
0.366809
0.366809
0.366809
0.366809
0.380147
0.380147
0.380147
0.393486
0.393486
0.393486
0.393486
0.393486
0.406824
0.406824
0.406824
0.406824
0.420163
0.420163
0.420163
0.420163
0.433501
0.433501
0.433501
0.44684
0.44684
0.44684
0.44684
0.44684
0.44684
0.44684
0.460178
0.460178
0.473517
0.473517
0.473517
0.473517
0.473517
0.500194
0.500194
0.500194
0.500194
0.513532
0.526871
0.526871
0.540209
0.540209
0.553548
0.553548
0.566886
0.606902
0.62024
