-0.2716982961
-0.2540928423
-0.2293972522
-0.2131217867
-0.2076105028
-0.1971878409
-0.1959414333
-0.1911611259
-0.185878098
-0.18113029
-0.1698631197
-0.1692162305
-0.1664980054
-0.1609893441
-0.160987556
-0.1573471427
-0.1561778784
-0.1528358907
-0.1521552205
-0.1492150277
-0.1484642178
-0.1473806202
-0.1472661346
-0.1408105642
-0.139347136
-0.1385347843
-0.1372622699
-0.1367822886
-0.1355015188
-0.1325777769
-0.1321073622
-0.1279447377
-0.1279185861
-0.1257388294
-0.1246292964
-0.1244163737
-0.1229488924
-0.1225791499
-0.1211662665
-0.1210145876
-0.1205408201
-0.1196209788
-0.1186773926
-0.1155277714
-0.1144082621
-0.1126125455
-0.1125636026
-0.1113790572
-0.1108071506
-0.1094286516
-0.1088116318
-0.1073474213
-0.1061467156
-0.1041947082
-0.1037591621
-0.1029769406
-0.1018732488
-0.1017491072
-0.09954264015
-0.09831539541
-0.09805542231
-0.09708967805
-0.09645945579
-0.09484100342
-0.09481907636
-0.09469121695
-0.09298669547
-0.09282384813
-0.09249462932
-0.0924801752
-0.0923762992
-0.09206865728
-0.09040965885
-0.08772390336
-0.08473071456
-0.08267705142
-0.08210124075
-0.08125562966
-0.08001246303
-0.07855100185
-0.07779832929
-0.07610115409
-0.07453930378
-0.07437410951
-0.07373288274
-0.0676163435
-0.06740968674
-0.06434781104
-0.06274437159
-0.06209859252
-0.05978860706
-0.05849973112
-0.05786751583
-0.05700420961
-0.0565886125
-0.05447243899
-0.05399087444
-0.05314159393
-0.05156243593
-0.04901207238
-0.04783801362
-0.04765614122
-0.04690237716
-0.04639057443
-0.04609098285
-0.04556167126
-0.04333272204
-0.04286370799
-0.04240765423
-0.0421580933
-0.04153487086
-0.04018547386
-0.04003103077
-0.03984076157
-0.03816410899
-0.03751635179
-0.03721901774
-0.03715758771
-0.03553497791
-0.03200699389
-0.03107566386
-0.0310506206
-0.03097459115
-0.02898486331
-0.02855606377
-0.0277269911
-0.02399074472
-0.01977593638
-0.01760675199
-0.01669828221
-0.01645262353
-0.01614915207
-0.01610469632
-0.01600357145
-0.01468965504
-0.01457152329
-0.01449536253
-0.01419095881
-0.01407392602
-0.01352970675
-0.0132890325
-0.01210989524
-0.01066853292
-0.01007397659
-0.008990105242
-0.007489454001
-0.005724245682
-0.004833768122
-0.003381097224
-0.003301415592
-0.002963238163
-0.002954072319
-0.001580356969
-0.001251953305
0.0008096700185
0.0009394768858
0.004487727769
0.004944795743
0.005783398636
0.00579322828
0.005915440619
0.006575908046
0.009599803947
0.01092452649
0.01381219178
0.01593440771
0.01660757139
0.01865992136
0.02094710246
0.02369507775
0.0245455727
0.02528482862
0.02542562038
0.02575636841
0.02576669492
0.02585582808
0.02589644492
0.02604652382
0.02802844718
0.02930914611
0.02951354347
0.03055439144
0.03057819419
0.03096263856
0.03224248067
0.03331340477
0.03405248746
0.03457513824
0.03585682437
0.0361065194
0.03725141659
0.03797383234
0.03957320377
0.04118930176
0.04157297313
0.04173643515
0.042176947
0.04230474681
0.04243215173
0.04278672114
0.04296347871
0.04310893267
0.0473411195
0.05016888306
0.05037026852
0.05107028037
0.05351947621
0.05486514419
0.05499624461
0.05528706685
0.05531971157
0.05547698587
0.05613241345
0.06006608158
0.06028522924
0.06242150068
0.06247743964
0.06287007779
0.06338536739
0.06454956532
0.06482308358
0.06543552876
0.06928057224
0.0708405748
0.07089713961
0.07117920369
0.07173254341
0.07184702903
0.07328543067
0.07339254767
0.07422957569
0.07533498853
0.07546357065
0.07564995438
0.07705105841
0.07746877521
0.08171971142
0.08528891951
0.08597531915
0.08626942337
0.08952644467
0.09118851274
0.09139084816
0.09219457954
0.09733611345
0.1021867245
0.1074954346
0.1077717617
0.1106338054
0.1110013127
0.1113659963
0.112349391
0.1128556579
0.1155307367
0.1177158207
0.118950136
0.1210667938
0.1212645918
0.1229913682
0.1251978129
0.1255081594
0.1271089762
0.1273983419
0.1285515279
0.1286100447
0.130559966
0.1329667866
0.1338497996
0.1339724213
0.1355978549
0.1359479427
0.1472203732
0.1476813108
0.1507035196
0.1521316916
0.1574063301
0.1593910903
0.1599064469
0.1682756543
0.1709821671
0.176808089
0.179235056
0.1874909997
0.1891553849
0.1914579868
0.1932523698
0.2056768835
0.2144513428
0.2174485028
0.2194231153
0.236409083
0.2370084226
0.2430050522
0.2454353273
0.2468969524
0.2503865957
0.2602144778
0.2605778277
0.2875094116
0.2974200845
