-0.7664994597
-0.4964263737
-0.4885409176
-0.4783477485
-0.4376197159
-0.4005462229
-0.3937692046
-0.3613358736
-0.355494529
-0.3512307703
-0.348020196
-0.3457511365
-0.3363091648
-0.3344961703
-0.3314753473
-0.3229594529
-0.3176055849
-0.3125335872
-0.3035319746
-0.3004542589
-0.2984452546
-0.2901754677
-0.2846097648
-0.2838764489
-0.2819112241
-0.2805845439
-0.2790575624
-0.2756681442
-0.2677671909
-0.2627537251
-0.2616557181
-0.2607040703
-0.257779032
-0.2567365766
-0.2554889321
-0.2537422478
-0.2535885274
-0.2489210367
-0.2474811822
-0.2455966324
-0.2435103208
-0.2391118407
-0.2371807098
-0.2319748551
-0.2317965031
-0.2308446616
-0.2305271327
-0.2300522327
-0.2282249779
-0.2246329188
-0.2246108353
-0.2245222181
-0.2233932018
-0.2217964232
-0.2216810882
-0.2214742154
-0.219029665
-0.2153846771
-0.2138227671
-0.213580519
-0.2129140794
-0.208027482
-0.2059610188
-0.2059014738
-0.2052944899
-0.2039079368
-0.2037599385
-0.2013109773
-0.2006300092
-0.1995985806
-0.19730708
-0.1968737841
-0.1951126158
-0.1943113059
-0.1919710785
-0.1914054304
-0.1910254061
-0.189913094
-0.1898731887
-0.1893091053
-0.1888514757
-0.1883520037
-0.1883219779
-0.18812038
-0.1867734194
-0.1865451485
-0.1862206608
-0.1858876646
-0.1849281043
-0.1841333508
-0.17951864
-0.1772895753
-0.1761365086
-0.1756067127
-0.1748196781
-0.1748176515
-0.1743781567
-0.1739923209
-0.1719760746
-0.1716359258
-0.1701134741
-0.1693438888
-0.1682015955
-0.1678994
-0.1670403332
-0.1663290411
-0.1659042984
-0.165686816
-0.1651020497
-0.164626047
-0.1639134884
-0.1628355831
-0.1614806354
-0.1597216427
-0.1594914198
-0.1589366943
-0.1575725526
-0.1575569361
-0.1570384055
-0.156435743
-0.1563961655
-0.1555801034
-0.1547495127
-0.1536013782
-0.1516915113
-0.1515330225
-0.1510939598
-0.1509766281
-0.1509454995
-0.1496629268
-0.1496299207
-0.1493216008
-0.1487674415
-0.1486338526
-0.1480410397
-0.1479683816
-0.1469636858
-0.144159317
-0.1429592967
-0.141991958
-0.136566475
-0.1363814771
-0.1363255084
-0.1357130259
-0.1355023086
-0.1349366903
-0.1341766268
-0.1335823238
-0.1335705072
-0.1330729872
-0.1317507625
-0.131469667
-0.129753679
-0.1288644224
-0.1285258383
-0.128311187
-0.1270355433
-0.1268460751
-0.1267712563
-0.1261961907
-0.1253681332
-0.1248222813
-0.1233695671
-0.122947216
-0.1228359491
-0.1223785579
-0.1221797466
-0.1221760213
-0.1216233075
-0.118254751
-0.1172279716
-0.1170924157
-0.1163023189
-0.1161469668
-0.115552932
-0.1154048964
-0.1153810099
-0.1148693636
-0.1139025167
-0.1136905253
-0.1130684391
-0.1128574461
-0.1118446216
-0.1113638654
-0.1110126153
-0.1100659668
-0.1092116907
-0.1088593677
-0.1087879688
-0.1076395214
-0.1070569977
-0.1065737829
-0.1064668521
-0.1064134613
-0.106276378
-0.1057770699
-0.1056814119
-0.1046396494
-0.1043565646
-0.1039649472
-0.1036642864
-0.1031752899
-0.1026768312
-0.1026051044
-0.1014176309
-0.1005243436
-0.1001275331
-0.09967726469
-0.098229222
-0.0980233103
-0.09785784036
-0.09778415412
-0.09671973437
-0.09629712999
-0.09603878856
-0.09513613582
-0.09513428062
-0.09442316741
-0.09391254932
-0.0934272632
-0.09328339994
-0.09247197956
-0.09219338
-0.09111420065
-0.09106846899
-0.09045735002
-0.09025949985
-0.08982553333
-0.08982487023
-0.08969420195
-0.08828417957
-0.08757572621
-0.08709462732
-0.08706067502
-0.08704306185
-0.08690275252
-0.08678378165
-0.0861974135
-0.08591877669
-0.08575688303
-0.08498939127
-0.08466136456
-0.08440323174
-0.08436882496
-0.0838271156
-0.08357683569
-0.08336504549
-0.08279645443
-0.08268584311
-0.08266437799
-0.08125822246
-0.08122317493
-0.07917926461
-0.07827990502
-0.07793042809
-0.07774973661
-0.0775725618
-0.07705291361
-0.07695220411
-0.07675165683
-0.07660368085
-0.07657711208
-0.07648444921
-0.075777933
-0.07211343944
-0.07145959884
-0.07141945511
-0.07131988555
-0.07130871713
-0.0706590414
-0.06977313757
-0.06941229105
-0.06834412366
-0.06800316274
-0.06746904552
-0.06742851436
-0.06668230146
-0.06664372981
-0.06644592434
-0.06591065228
-0.06504932791
-0.06503534317
-0.06495309621
-0.06483273953
-0.06423231959
-0.06293886155
-0.06282810867
-0.06267426908
-0.06255897135
-0.06254340708
-0.06249306351
-0.06214863434
-0.06171266362
-0.0614104718
-0.0613161847
-0.06080040336
-0.06025932357
-0.05993930995
-0.05993435532
-0.0587541014
-0.05823303759
-0.05773263052
-0.05724846572
-0.05720934272
-0.05717842281
-0.05708765611
-0.05610109866
-0.05553187802
-0.05500552058
-0.05413063988
-0.054008618
-0.05387677997
-0.05353600904
-0.05287639424
-0.05268737674
-0.05253832042
-0.05201663077
-0.05162990466
-0.05061578378
-0.05042690411
-0.04914383218
-0.04818015918
-0.0479347147
-0.04732882977
-0.04677897692
-0.04634401947
-0.04628878087
-0.04597676918
-0.04582201317
-0.04569132999
-0.04476958886
-0.04392064735
-0.04381578416
-0.04315216094
-0.04300263152
-0.04295094311
-0.04274540022
-0.04262469709
-0.0425067842
-0.04242083803
-0.04187906906
-0.04145393148
-0.04142011702
-0.04141285643
-0.04094314948
-0.04089980945
-0.04084894434
-0.04077326506
-0.04072120786
-0.04016921669
-0.03982496634
-0.03881503642
-0.03853338957
-0.0376749374
-0.0368999131
-0.03553771228
-0.03533766046
-0.03476898745
-0.03430561349
-0.03396544978
-0.03389196843
-0.0337245129
-0.03352997452
-0.03302841634
-0.03298468143
-0.03187514842
-0.03178137913
-0.031719096
-0.03154882416
-0.03141340986
-0.03140439093
-0.03121012636
-0.03060427867
-0.03048012219
-0.03015115485
-0.02995340526
-0.02908868343
-0.02828350291
-0.02809715085
-0.02788754739
-0.02784955129
-0.02759030275
-0.02668164484
-0.02629423141
-0.02621360309
-0.02566945553
-0.02557802759
-0.0250219088
-0.02473254129
-0.02434634231
-0.02423767373
-0.0241535306
-0.02394341677
-0.02358231135
-0.0234189406
-0.02298342437
-0.02274846286
-0.02254911885
-0.02200356685
-0.02192313597
-0.02106149495
-0.02057288215
-0.01975309849
-0.01969726197
-0.01967387088
-0.01948783547
-0.01916555129
-0.01883630082
-0.01843054965
-0.01775331423
-0.01763689891
-0.01747439429
-0.01738550328
-0.01716840453
-0.01651122048
-0.01633075066
-0.01583885401
-0.01581709087
-0.01562215108
-0.01560566388
-0.01537133288
-0.01487578638
-0.01411051489
-0.0140755577
-0.01394667663
-0.01342492364
-0.01309337094
-0.01299784705
-0.01261246763
-0.01208945271
-0.01165989228
-0.01093016285
-0.01072984282
-0.01057913527
-0.01055761147
-0.009962557815
-0.009820940904
-0.008677667938
-0.008614690043
-0.008435770869
-0.00840555504
-0.008034100756
-0.007593619172
-0.006374861114
-0.00633053761
-0.006032417063
-0.004438400734
-0.004292691592
-0.004285629839
-0.004282246344
-0.004076290876
-0.004047511611
-0.003819116624
-0.003289349377
-0.003031259403
-0.002577808453
-0.002534722677
-0.001987350406
-0.001820218749
-0.001703850809
-0.001352128456
-0.0008523095748
-0.0007413793355
-0.000378771947
-6.369633775e-05
1.172118664e-05
0.0007734177052
0.00095298409
0.001278283657
0.001484023756
0.001541014179
0.001634063316
0.001989469165
0.002357594436
0.002473152941
0.002762617311
0.002960489132
0.003762735054
0.004962468054
0.005093739368
0.005252037663
0.005353201181
0.005995621439
0.006304806098
0.006444648374
0.006936748512
0.007435231935
0.007878550328
0.008217310533
0.008524857461
0.009004182182
0.009380687959
0.009405981749
0.00945823919
0.009691981599
0.009743527509
0.009809060954
0.01018902287
0.0102443397
0.01036592294
0.01099149324
0.01111630443
0.01115772221
0.01134226844
0.01184255537
0.01211945154
0.01231465861
0.01237697806
0.01244169381
0.01272425521
0.01384775247
0.01403258927
0.01469925605
0.01489836071
0.01497283299
0.01523449179
0.01530314144
0.01570610143
0.01572844572
0.01587043889
0.01627879031
0.01628836244
0.01636725292
0.01656682603
0.01667359658
0.01675276645
0.01705561951
0.01732595637
0.01747702621
0.01778575778
0.01823870838
0.01834694296
0.01846635528
0.01877610385
0.01892983913
0.01898568124
0.01935302466
0.01936522126
0.01951203123
0.0195234511
0.01953455247
0.01975918934
0.02021539956
0.02080261894
0.02107548714
0.02122647688
0.02123646066
0.02128301561
0.0213808734
0.02161865495
0.02211523429
0.02217595465
0.02226067707
0.02282287739
0.02294821851
0.02312988415
0.02334200777
0.02364266291
0.02412961982
0.02431827225
0.02434712648
0.02456772886
0.02480332553
0.02514998242
0.02531311475
0.02554213442
0.02584302425
0.02593193389
0.02620440349
0.02646870539
0.0265715383
0.02664029971
0.02671785466
0.0270555988
0.02764565684
0.02784961462
0.02942753769
0.02960773185
0.0303429421
0.0306357462
0.03065397218
0.03096701019
0.03127880022
0.03131615371
0.03250567988
0.03254558146
0.03270714357
0.03294372559
0.03318882361
0.03393604234
0.03410623595
0.03550214693
0.03556446359
0.03677657247
0.03685276583
0.03726150841
0.0374577269
0.03780382499
0.03922473639
0.03937581554
0.03947109729
0.03958554938
0.04005184025
0.04013397172
0.04084926844
0.04095252603
0.04095567018
0.04098397866
0.04104567692
0.04105134681
0.04109048098
0.04115919769
0.04167415947
0.04210354015
0.04217152297
0.04238988087
0.04257105291
0.04265832901
0.04277095199
0.04292198643
0.04308414832
0.04309480265
0.0440027453
0.04407945275
0.04520737007
0.04540997371
0.04592525586
0.04660662636
0.0470139049
0.04791931063
0.04831494018
0.04841266572
0.0491974391
0.04943207651
0.04956722632
0.05057191476
0.05070750043
0.05181409046
0.05202222243
0.05212213844
0.05267375708
0.0527456142
0.05395097286
0.05450225621
0.05499717966
0.05500986055
0.05567593127
0.05682737753
0.05686278269
0.05714285374
0.05738450959
0.05745825917
0.05761494488
0.05931484327
0.06036685407
0.06166106835
0.06204385683
0.06275820732
0.06286140531
0.06351062655
0.06363424659
0.06405629963
0.06410478801
0.0641380474
0.0646808967
0.06509447843
0.06520697474
0.06594450027
0.06667363644
0.06682905555
0.06688600779
0.06706793606
0.06707219034
0.06716006994
0.06787040085
0.0686077401
0.06891299039
0.06919500232
0.07028030604
0.07119695842
0.0713185817
0.07171646506
0.07230972499
0.07294227183
0.07464335859
0.07479400188
0.07546351105
0.07555218041
0.07606162876
0.07682701945
0.07686048001
0.07782660425
0.07814858109
0.07865724713
0.07873705029
0.07911170274
0.07949860394
0.08064734936
0.0809262991
0.08197484165
0.08268238604
0.0832978934
0.08334539831
0.08373037726
0.08476403356
0.08479137719
0.08491259813
0.08609265834
0.08628630638
0.08657732606
0.08691157401
0.08721410483
0.08763664961
0.08854890615
0.09022502601
0.09040308744
0.09163514525
0.09186691791
0.09259815514
0.09261064976
0.09291501343
0.09299149364
0.09337093681
0.09345266968
0.09348542988
0.09407695383
0.09431324899
0.09455256909
0.09495453537
0.0951756686
0.09699179977
0.09704796225
0.0978885591
0.09833463281
0.09844909608
0.09915047884
0.1000749096
0.1001869962
0.1010405943
0.101134263
0.101198338
0.1037624478
0.1039522365
0.104103893
0.1048463061
0.1049880311
0.1055443957
0.1076635942
0.1080181971
0.1083560809
0.1101120561
0.1104951799
0.1106595322
0.1116811931
0.1116961315
0.1118991822
0.1126436591
0.1137568504
0.1147847101
0.115123786
0.1151533797
0.1158191562
0.1163021922
0.1166569367
0.1172513142
0.1178013235
0.1181115583
0.1182612553
0.1183112785
0.1189862788
0.1193808913
0.119571045
0.1202257946
0.1227428094
0.123259753
0.1240916029
0.1243314818
0.1256862283
0.1271987557
0.1278854609
0.1283925325
0.1287691146
0.1302526146
0.1304150075
0.1323371977
0.1325051039
0.1335353553
0.1346340775
0.1400998086
0.1422727406
0.1424524784
0.1440807134
0.144535929
0.1455278844
0.1455380619
0.1459145248
0.1467823982
0.1472925097
0.1496984512
0.1498886794
0.1506895423
0.1517403275
0.1518706083
0.152869001
0.1535051465
0.1543644071
0.1561416537
0.1561692953
0.1567815244
0.1589784622
0.1622532755
0.1628563255
0.1634774953
0.1636294574
0.1652844995
0.1700629145
0.1726352572
0.1728329509
0.1728970855
0.1733328849
0.173625648
0.1737381965
0.1757769138
0.1778637469
0.1791541278
0.1807474196
0.1906270236
0.1955558509
0.1964252591
0.196593985
0.1967624724
0.1977725178
0.2028051466
0.2201817632
0.2281734645
0.2282181531
0.2288600653
0.2320967764
0.2405824214
0.2701119781
