-0.0500384
-0.0500384
-0.0500384
-0.0500384
-0.0500384
-0.0500384
-0.0500384
-0.0500384
-0.0500384
-0.0500384
-0.0500384
-0.0500384
-0.0500384
-0.0500384
-0.0500384
-0.0500384
-0.0500384
-0.0500384
-0.0500384
-0.0500384
-0.0500384
-0.0500384
-0.0500384
-0.0500384
-0.0500384
-0.0500384
-0.0500384
-0.0500384
-0.0500384
-0.0500384
-0.0500384
-0.0500384
-0.0500384
-0.0500384
-0.0500384
-0.0500384
-0.0500384
-0.0500384
-0.0500384
-0.0500384
-0.0500384
-0.0500384
-0.0500384
-0.0500384
-0.0500384
-0.0500384
-0.0500384
-0.0500384
-0.0500384
-0.0500384
-0.0500384
-0.0500384
-0.0500384
-0.0500384
-0.0500384
-0.0500384
-0.0500384
-0.0500384
-0.0500384
-0.0500384
-0.0500384
-0.0500384
-0.0500384
-0.0500384
-0.0500384
-0.0500384
-0.0500384
-0.0500384
-0.0500384
-0.0500384
-0.0500384
-0.0500384
-0.0500384
-0.0500384
-0.0500384
-0.0500384
-0.0500384
-0.0500384
-0.0500384
-0.0500384
-0.0500384
-0.0500384
-0.0500384
-0.0500384
-0.0500384
-0.0500384
-0.0500384
-0.0500384
-0.0500384
-0.0500384
-0.0500384
-0.0500384
-0.0500384
-0.0500384
-0.0500384
-0.0500384
-0.0500384
-0.0500384
-0.0500384
-0.0500384
-0.0500384
-0.0500384
-0.0500384
-0.0500384
-0.0500384
-0.0500384
-0.0500384
-0.0500384
-0.0500384
-0.0500384
-0.0500384
-0.0500384
-0.0500384
-0.0500384
-0.0500384
-0.0500384
-0.0500384
-0.0500384
-0.0500384
-0.0500384
-0.0500384
-0.0500384
-0.0500384
-0.0500384
-0.0500384
-0.0500384
-0.0500384
-0.0500384
-0.0500384
-0.0500384
-0.0500384
-0.0500384
-0.0500384
-0.0500384
-0.0500384
-0.0500384
-0.0500384
-0.0500384
-0.0500384
-0.0500384
-0.0500384
-0.0500384
-0.0500384
-0.0500384
-0.0500384
-0.0500384
-0.0500384
-0.0500384
-0.0500384
-0.0500384
-0.0500384
-0.0500384
-0.0500384
-0.0500384
-0.0500384
-0.0500384
-0.0500384
-0.0500384
-0.0500384
-0.0500384
-0.0500384
-0.0500384
-0.0500384
-0.0500384
-0.0500384
-0.0500384
-0.0500384
-0.0500384
-0.0500384
-0.0500384
-0.0500384
-0.0500384
-0.0500384
-0.0500384
-0.0500384
-0.0500384
-0.0500384
-0.0500384
-0.0500384
-0.0500384
-0.0500384
-0.0500384
-0.0500384
-0.0500384
-0.0500384
-0.0500384
-0.0500384
-0.0500384
-0.0500384
-0.0500384
-0.0500384
-0.0500384
-0.0500384
-0.0500384
-0.0500384
-0.0500384
-0.0500384
-0.0500384
-0.0500384
-0.0500384
-0.0500384
-0.0500384
-0.0500384
-0.0500384
-0.0500384
-0.0500384
-0.0500384
-0.0500384
-0.0500384
-0.0500384
-0.0500384
-0.0500384
-0.0500384
-0.0500384
-0.0500384
-0.0500384
-0.0500384
-0.0500384
-0.0500384
-0.0500384
-0.0500384
-0.0500384
-0.0500384
-0.0500384
-0.0500384
-0.0500384
-0.0500384
-0.0500384
-0.0500384
-0.0500384
-0.0500384
-0.0500384
-0.0500384
-0.0500384
-0.0500384
-0.0500384
-0.0500384
-0.0500384
-0.0500384
-0.0500384
-0.0500384
-0.0500384
-0.0500384
-0.0500384
-0.0500384
-0.0500384
-0.0500384
-0.0500384
-0.0500384
-0.0500384
-0.0500384
-0.0500384
-0.0500384
-0.0500384
-0.0500384
-0.0500384
-0.0500384
-0.0500384
-0.0500384
-0.0500384
-0.0500384
-0.0500384
-0.0500384
-0.0500384
-0.0500384
-0.0500384
-0.0500384
-0.0500384
-0.0500384
-0.0500384
-0.0500384
-0.0500384
-0.0500384
-0.0500384
-0.0500384
-0.0500384
-0.0500384
-0.0500384
-0.0500384
-0.0500384
-0.0500384
-0.0500384
-0.0500384
-0.0500384
-0.0500384
-0.0500384
-0.0500384
-0.0500384
-0.0500384
-0.0500384
-0.0500384
-0.0500384
-0.0500384
-0.0500384
-0.0500384
-0.0500384
-0.0500384
-0.0500384
-0.0500384
-0.0500384
-0.0500384
-0.0500384
-0.0500384
-0.0500384
-0.0500384
-0.0500384
-0.0500384
-0.0500384
-0.0500384
-0.0500384
-0.0500384
-0.0500384
-0.0500384
-0.0500384
-0.0500384
-0.0500384
-0.0500384
-0.0500384
-0.0500384
-0.0500384
-0.0500384
-0.0500384
-0.0500384
-0.0500384
-0.0500384
-0.0500384
-0.0500384
-0.0500384
-0.0500384
-0.0500384
-0.0500384
-0.0500384
-0.0500384
-0.0500384
-0.0500384
-0.0500384
-0.0500384
-0.0500384
-0.0500384
-0.0500384
-0.0500384
-0.0500384
-0.0500384
-0.0500384
-0.0500384
-0.0500384
-0.0500384
-0.0500384
-0.0500384
-0.0500384
-0.0500384
-0.0500384
-0.0500384
-0.0500384
-0.0500384
-0.0500384
-0.0500384
-0.0500384
-0.0500384
-0.0500384
-0.0500384
-0.0500384
-0.0500384
-0.0500384
-0.0500384
-0.0500384
-0.0500384
-0.0500384
-0.0500384
-0.0500384
-0.0500384
-0.0500384
-0.0500384
-0.0500384
-0.0500384
-0.0500384
-0.0500384
-0.0500384
-0.0500384
-0.0500384
-0.0500384
-0.0500384
-0.0500384
-0.0500384
-0.0500384
-0.0500384
-0.0500384
-0.0500384
-0.0500384
-0.0500384
-0.0500384
-0.0500384
-0.0500384
-0.0500384
-0.0500384
-0.0500384
-0.0500384
-0.0500384
-0.0500384
-0.0500384
-0.0500384
-0.0500384
-0.0500384
-0.0500384
-0.0500384
-0.0500384
-0.0500384
-0.0500384
-0.0500384
-0.0500384
-0.0500384
-0.0500384
-0.0500384
-0.0500384
-0.0500384
-0.0500384
-0.0500384
-0.0500384
-0.0500384
-0.0500384
-0.0500384
-0.0500384
-0.0500384
-0.0500384
-0.0500384
-0.0500384
-0.0500384
-0.0500384
-0.0500384
-0.0500384
-0.0500384
-0.0500384
-0.0500384
-0.0500384
-0.0500384
-0.0500384
-0.0500384
-0.0500384
-0.0500384
-0.0500384
-0.0500384
-0.0500384
-0.0500384
-0.0500384
-0.0500384
-0.0500384
-0.0500384
-0.0500384
-0.0500384
-0.0500384
-0.0500384
-0.0500384
-0.0500384
-0.0500384
-0.0500384
-0.0500384
-0.0500384
-0.0500384
-0.0500384
-0.0500384
-0.0500384
-0.0500384
-0.0500384
-0.0500384
-0.0500384
-0.0500384
-0.0500384
-0.0500384
-0.0500384
-0.0500384
-0.0500384
-0.0500384
-0.0500384
-0.0500384
-0.0500384
-0.0500384
-0.0500384
-0.0500384
-0.0500384
-0.0500384
-0.0500384
-0.0500384
-0.0500384
-0.0500384
-0.0500384
-0.0500384
-0.0500384
-0.0500384
-0.0500384
-0.0500384
-0.0500384
-0.0500384
-0.0500384
-0.0500384
-0.0500384
-0.0500384
-0.0500384
-0.0500384
-0.0500384
-0.0500384
-0.0500384
-0.0500384
-0.0500384
-0.0500384
-0.0500384
-0.0500384
-0.0500384
-0.0500384
-0.0500384
-0.0500384
-0.0500384
-0.0500384
-0.0500384
-0.0500384
-0.0500384
-0.0500384
-0.0500384
-0.0500384
-0.0500384
-0.0500384
-0.0500384
-0.0500384
-0.0500384
-0.0500384
-0.0500384
-0.0500384
-0.0500384
-0.0500384
-0.0500384
-0.0500384
-0.0500384
-0.0500384
-0.0500384
-0.0500384
-0.0500384
-0.0500384
-0.0500384
-0.0500384
-0.0500384
-0.0500384
-0.0500384
-0.0500384
-0.0500384
-0.0500384
-0.0500384
-0.0500384
-0.0500384
-0.0500384
-0.0500384
-0.0500384
-0.0500384
-0.0500384
-0.0500384
-0.0500384
-0.0500384
-0.0500384
-0.0500384
-0.0500384
-0.0500384
-0.0500384
-0.0500384
-0.0500384
-0.0500384
-0.0500384
-0.0500384
-0.0500384
-0.0500384
-0.0500384
-0.0500384
-0.0500384
-0.0500384
-0.0500384
-0.0500384
-0.0500384
-0.0500384
-0.0500384
-0.0500384
-0.0500384
-0.0500384
-0.0500384
-0.0500384
-0.0500384
-0.0500384
-0.0500384
-0.0500384
-0.0500384
-0.0500384
-0.0500384
-0.0500384
-0.0500384
-0.0500384
-0.0500384
-0.0500384
-0.0500384
-0.0500384
-0.0500384
-0.0500384
-0.0500384
-0.0500384
-0.0500384
-0.0500384
-0.0500384
-0.0500384
-0.0500384
-0.0500384
-0.0500384
-0.0500384
-0.0500384
-0.0500384
-0.0500384
-0.0500384
-0.0500384
-0.0500384
-0.0500384
-0.0500384
-0.0500384
-0.0500384
-0.0500384
-0.0500384
-0.0500384
-0.0500384
-0.0500384
-0.0500384
-0.0500384
-0.0500384
-0.0500384
-0.0500384
-0.0500384
-0.0500384
-0.0500384
-0.0500384
-0.0500384
-0.0500384
-0.0500384
-0.0500384
-0.0500384
-0.0500384
-0.0500384
-0.0500384
-0.0500384
-0.0500384
-0.0500384
-0.0500384
-0.0500384
-0.0500384
-0.0500384
-0.0500384
-0.0500384
-0.0500384
-0.0500384
-0.0500384
-0.0500384
-0.0500384
-0.0500384
-0.0500384
-0.0500384
-0.0500384
-0.0500384
-0.0500384
-0.0500384
-0.0500384
-0.0500384
-0.0500384
-0.0500384
-0.0500384
-0.0500384
-0.0500384
-0.0500384
-0.0500384
-0.0500384
-0.0500384
-0.0500384
-0.0500384
-0.0500384
-0.0500384
-0.0500384
-0.0500384
-0.0500384
-0.0500384
-0.0500384
-0.0500384
-0.0500384
-0.0500384
-0.0500384
-0.0500384
-0.0500384
-0.0500384
-0.0500384
-0.0500384
-0.0500384
-0.0500384
-0.0500384
-0.0500384
-0.0500384
-0.0500384
-0.0500384
-0.0500384
-0.0500384
-0.0500384
-0.0500384
-0.0500384
-0.0500384
-0.0500384
-0.0500384
-0.0500384
-0.0500384
-0.0500384
-0.0500384
-0.0500384
-0.0500384
-0.0500384
-0.0500384
-0.0500384
-0.0500384
-0.0500384
-0.0500384
-0.0500384
-0.0500384
-0.0500384
-0.0500384
-0.0500384
-0.0500384
-0.0500384
-0.0500384
-0.0500384
-0.0500384
-0.0500384
-0.0500384
-0.0500384
-0.0500384
-0.0500384
-0.0500384
-0.0500384
-0.0500384
-0.0500384
-0.0500384
-0.0500384
-0.0500384
-0.0500384
-0.0500384
-0.0500384
-0.0500384
-0.0500384
-0.0500384
-0.0500384
-0.0500384
-0.0500384
-0.0500384
-0.0500384
-0.0500384
-0.0500384
-0.0500384
-0.0500384
-0.0500384
-0.0500384
-0.0500384
-0.0500384
-0.0500384
-0.0500384
-0.0500384
-0.0500384
-0.0500384
-0.0500384
-0.0500384
-0.0500384
-0.0500384
-0.0500384
-0.0500384
-0.0500384
-0.0500384
-0.0500384
-0.0500384
-0.0500384
-0.0500384
-0.0500384
-0.0500384
-0.0500384
-0.0500384
-0.0500384
-0.0500384
-0.0500384
-0.0500384
-0.0500384
-0.0500384
-0.0500384
-0.0500384
-0.0500384
-0.0500384
-0.0500384
-0.0500384
-0.0500384
-0.0500384
-0.0500384
-0.0500384
-0.0500384
-0.0500384
-0.0500384
-0.0500384
-0.0500384
-0.0500384
-0.0500384
-0.0500384
-0.0500384
-0.0500384
-0.0500384
-0.0500384
-0.0500384
-0.0500384
-0.0500384
-0.0500384
-0.0500384
-0.0500384
-0.0500384
-0.0500384
-0.0500384
-0.0500384
-0.0500384
-0.0500384
-0.0500384
-0.0500384
-0.0500384
-0.0500384
-0.0500384
-0.0500384
-0.0500384
-0.0500384
-0.0500384
-0.0500384
-0.0500384
-0.0500384
-0.0500384
-0.0500384
-0.0500384
-0.0500384
-0.0500384
-0.0500384
-0.0500384
-0.0500384
-0.0500384
-0.0500384
-0.0500384
-0.0500384
-0.0500384
-0.0500384
-0.0500384
-0.0500384
-0.0500384
-0.0500384
-0.0500384
-0.0500384
-0.0500384
-0.0500384
-0.0500384
-0.0500384
-0.0500384
-0.0500384
-0.0500384
-0.0500384
-0.0500384
-0.0500384
-0.0500384
-0.0500384
-0.0500384
-0.0500384
-0.0500384
-0.0500384
-0.0500384
-0.0500384
-0.0500384
-0.0500384
-0.0500384
-0.0500384
-0.0500384
-0.0500384
-0.0500384
-0.0500384
-0.0500384
-0.0500384
-0.0500384
-0.0500384
-0.0500384
-0.0500384
-0.0500384
-0.0500384
-0.0500384
-0.0500384
-0.0500384
-0.0500384
-0.0500384
-0.0500384
-0.0500384
-0.0500384
-0.0500384
-0.0500384
-0.0500384
-0.0500384
-0.0500384
-0.0500384
-0.0500384
-0.0500384
-0.0500384
-0.0500384
-0.0500384
-0.0500384
-0.0500384
-0.0500384
-0.0500384
-0.0500384
-0.0500384
-0.0500384
-0.0500384
-0.0500384
-0.0500384
-0.0500384
-0.0500384
-0.0500384
-0.0500384
-0.0500384
-0.0500384
-0.0500384
-0.0500384
-0.0500384
-0.0500384
-0.0500384
-0.0500384
-0.0500384
-0.0500384
-0.0500384
-0.0500384
-0.0500384
-0.0500384
-0.0500384
-0.0500384
-0.0500384
-0.0500384
-0.0500384
-0.0500384
-0.0500384
-0.0500384
-0.0500384
-0.0500384
-0.0500384
-0.0500384
-0.0500384
-0.0500384
-0.0500384
-0.0500384
-0.0500384
-0.0500384
-0.0500384
-0.0500384
-0.0500384
-0.0500384
-0.0500384
-0.0500384
-0.0500384
-0.0500384
-0.0500384
-0.0500384
-0.0500384
-0.0500384
-0.0500384
-0.0500384
-0.0500384
-0.0500384
-0.0500384
-0.0500384
-0.0500384
-0.0500384
-0.0500384
-0.0500384
-0.0500384
-0.0500384
-0.0500384
-0.0500384
-0.0500384
-0.0500384
-0.0500384
-0.0500384
-0.0500384
-0.0500384
-0.0500384
-0.0500384
-0.0500384
-0.0500384
-0.0500384
-0.0500384
-0.0500384
-0.0500384
-0.0500384
-0.0500384
-0.0500384
-0.0500384
-0.0500384
-0.0500384
-0.0500384
-0.0500384
-0.0500384
-0.0500384
-0.0500384
-0.0500384
-0.0500384
-0.0500384
-0.0500384
-0.0500384
-0.0500384
-0.0500384
-0.0500384
-0.0500384
-0.0500384
-0.0500384
-0.0500384
-0.0500384
-0.0500384
-0.0500384
-0.0500384
-0.0500384
-0.0500384
-0.0500384
-0.0500384
-0.0500384
-0.0500384
-0.0500384
-0.0500384
-0.0500384
-0.0500384
-0.0500384
-0.0500384
-0.0500384
-0.0500384
-0.0500384
-0.0500384
-0.0500384
-0.0500384
-0.0500384
-0.0500384
-0.0500384
-0.0500384
-0.0500384
-0.0500384
-0.0500384
-0.0500384
-0.0500384
-0.0500384
-0.0500384
-0.0500384
-0.0500384
-0.0500384
-0.0500384
-0.0500384
-0.0500384
-0.0500384
-0.0500384
-0.0500384
-0.0500384
-0.0500384
-0.0500384
-0.0500384
-0.0500384
-0.0500384
-0.0500384
-0.0500384
-0.0500384
-0.0500384
-0.0500384
-0.0500384
-0.0500384
-0.0500384
-0.0500384
-0.0500384
-0.0500384
-0.0500384
-0.0500384
-0.0500384
-0.0500384
-0.0500384
-0.0500384
-0.0500384
-0.0500384
-0.0500384
-0.0500384
-0.0500384
-0.0500384
-0.0500384
-0.0500384
-0.0500384
-0.0500384
-0.0500384
-0.0500384
-0.0500384
-0.0500384
-0.0500384
-0.0500384
-0.0500384
-0.0500384
-0.0500384
-0.0500384
-0.0500384
-0.0500384
-0.0500384
-0.0500384
-0.0500384
-0.0500384
-0.0500384
-0.0500384
-0.0500384
-0.0500384
-0.0500384
-0.0500384
-0.0500384
-0.0500384
-0.0500384
-0.0500384
-0.0500384
-0.0500384
-0.0500384
-0.0500384
-0.0500384
-0.0500384
-0.0500384
-0.0500384
-0.0500384
-0.0500384
-0.0500384
-0.0500384
-0.0500384
-0.0500384
-0.0500384
-0.0500384
-0.0500384
-0.0500384
-0.0500384
-0.0500384
-0.0500384
-0.0500384
-0.0500384
-0.0500384
-0.0500384
-0.0500384
-0.0500384
-0.0500384
-0.0500384
-0.0500384
-0.0500384
-0.0500384
-0.0500384
-0.0500384
-0.0500384
-0.0500384
-0.0500384
-0.0500384
-0.0500384
-0.0500384
-0.0500384
-0.0500384
-0.0500384
-0.0500384
-0.0500384
-0.0500384
-0.0500384
-0.0500384
-0.0500384
-0.0500384
-0.0500384
-0.0500384
-0.0500384
-0.0500384
-0.0500384
-0.0500384
-0.0500384
-0.0500384
-0.0500384
-0.0500384
-0.0500384
-0.0500384
-0.0500384
-0.0500384
-0.0500384
-0.0500384
-0.0500384
-0.0500384
-0.0500384
-0.0500384
-0.0500384
-0.0500384
-0.0500384
-0.0500384
-0.0500384
-0.0500384
-0.0500384
-0.0500384
-0.0500384
-0.0500384
-0.0500384
-0.0500384
-0.0500384
-0.0500384
-0.0500384
-0.0500384
-0.0500384
-0.0500384
-0.0500384
-0.0500384
-0.0500384
-0.0500384
-0.0500384
-0.0500384
-0.0500384
-0.0500384
-0.0500384
-0.0500384
-0.0500384
-0.0500384
-0.0500384
-0.0500384
-0.0500384
-0.0500384
-0.0500384
-0.0500384
-0.0500384
-0.0500384
-0.0500384
-0.0500384
-0.0500384
-0.0500384
-0.0500384
-0.0500384
-0.0500384
-0.0500384
-0.0500384
-0.0500384
-0.0500384
-0.0500384
-0.0500384
-0.0500384
-0.0500384
-0.0500384
-0.0500384
-0.0500384
-0.0500384
-0.0500384
-0.0500384
-0.0500384
-0.0500384
-0.0500384
-0.0500384
-0.0500384
-0.0500384
-0.0500384
-0.0500384
-0.0500384
-0.0500384
-0.0500384
0.0500384
0.0500384
0.0500384
0.0500384
0.0500384
0.0500384
0.0500384
0.0500384
0.0500384
0.0500384
0.0500384
0.0500384
0.0500384
0.0500384
0.0500384
0.0500384
0.0500384
0.0500384
0.0500384
0.0500384
0.0500384
0.0500384
0.0500384
0.0500384
0.0500384
0.0500384
0.0500384
0.0500384
0.0500384
0.0500384
0.0500384
0.0500384
0.0500384
0.0500384
0.0500384
0.0500384
0.0500384
0.0500384
0.0500384
0.0500384
0.0500384
0.0500384
0.0500384
0.0500384
0.0500384
0.0500384
0.0500384
0.0500384
0.0500384
0.0500384
0.0500384
0.0500384
0.0500384
0.0500384
0.0500384
0.0500384
0.0500384
0.0500384
0.0500384
0.0500384
0.0500384
0.0500384
0.0500384
0.0500384
0.0500384
0.0500384
0.0500384
0.0500384
0.0500384
0.0500384
0.0500384
0.0500384
0.0500384
0.0500384
0.0500384
0.0500384
0.0500384
0.0500384
0.0500384
0.0500384
0.0500384
0.0500384
0.0500384
0.0500384
0.0500384
0.0500384
0.0500384
0.0500384
0.0500384
0.0500384
0.0500384
0.0500384
0.0500384
0.0500384
0.0500384
0.0500384
0.0500384
0.0500384
0.0500384
0.0500384
0.0500384
0.0500384
0.0500384
0.0500384
0.0500384
0.0500384
0.0500384
0.0500384
0.0500384
0.0500384
0.0500384
0.0500384
0.0500384
0.0500384
0.0500384
0.0500384
0.0500384
0.0500384
0.0500384
0.0500384
0.0500384
0.0500384
0.0500384
0.0500384
0.0500384
0.0500384
0.0500384
0.0500384
0.0500384
0.0500384
0.0500384
0.0500384
0.0500384
0.0500384
0.0500384
0.0500384
0.0500384
0.0500384
0.0500384
0.0500384
0.0500384
0.0500384
0.0500384
0.0500384
0.0500384
0.0500384
0.0500384
0.0500384
0.0500384
0.0500384
0.0500384
0.0500384
0.0500384
0.0500384
0.0500384
0.0500384
0.0500384
0.0500384
0.0500384
0.0500384
0.0500384
0.0500384
0.0500384
0.0500384
0.0500384
0.0500384
0.0500384
0.0500384
0.0500384
0.0500384
0.0500384
0.0500384
0.0500384
0.0500384
0.0500384
0.0500384
0.0500384
0.0500384
0.0500384
0.0500384
0.0500384
0.0500384
0.0500384
0.0500384
0.0500384
0.0500384
0.0500384
0.0500384
0.0500384
0.0500384
0.0500384
0.0500384
0.0500384
0.0500384
0.0500384
0.0500384
0.0500384
0.0500384
0.0500384
0.0500384
0.0500384
0.0500384
0.0500384
0.0500384
0.0500384
0.0500384
0.0500384
0.0500384
0.0500384
0.0500384
0.0500384
0.0500384
0.0500384
0.0500384
0.0500384
0.0500384
0.0500384
0.0500384
0.0500384
0.0500384
0.0500384
0.0500384
0.0500384
0.0500384
0.0500384
0.0500384
0.0500384
0.0500384
0.0500384
0.0500384
0.0500384
0.0500384
0.0500384
0.0500384
0.0500384
0.0500384
0.0500384
0.0500384
0.0500384
0.0500384
0.0500384
0.0500384
0.0500384
0.0500384
0.0500384
0.0500384
0.0500384
0.0500384
0.0500384
0.0500384
0.0500384
0.0500384
0.0500384
0.0500384
0.0500384
0.0500384
0.0500384
0.0500384
0.0500384
0.0500384
0.0500384
0.0500384
0.0500384
0.0500384
0.0500384
0.0500384
0.0500384
0.0500384
0.0500384
0.0500384
0.0500384
0.0500384
0.0500384
0.0500384
0.0500384
0.0500384
0.0500384
0.0500384
0.0500384
0.0500384
0.0500384
0.0500384
0.0500384
0.0500384
0.0500384
0.0500384
0.0500384
0.0500384
0.0500384
0.0500384
0.0500384
0.0500384
0.0500384
0.0500384
0.0500384
0.0500384
0.0500384
0.0500384
0.0500384
0.0500384
0.0500384
0.0500384
0.0500384
0.0500384
0.0500384
0.0500384
0.0500384
0.0500384
0.0500384
0.0500384
0.0500384
0.0500384
0.0500384
0.0500384
0.0500384
0.0500384
0.0500384
0.0500384
0.0500384
0.0500384
0.0500384
0.0500384
0.0500384
0.0500384
0.0500384
0.0500384
0.0500384
0.0500384
0.0500384
0.0500384
0.0500384
0.0500384
0.0500384
0.0500384
0.0500384
0.0500384
0.0500384
0.0500384
0.0500384
0.0500384
0.0500384
0.0500384
0.0500384
0.0500384
0.0500384
0.0500384
0.0500384
0.0500384
0.0500384
0.0500384
0.0500384
0.0500384
0.0500384
0.0500384
0.0500384
0.0500384
0.0500384
0.0500384
0.0500384
0.0500384
0.0500384
0.0500384
0.0500384
0.0500384
0.0500384
0.0500384
0.0500384
0.0500384
0.0500384
0.0500384
0.0500384
0.0500384
0.0500384
0.0500384
0.0500384
0.0500384
0.0500384
0.0500384
0.0500384
0.0500384
0.0500384
0.0500384
0.0500384
0.0500384
0.0500384
0.0500384
0.0500384
0.0500384
0.0500384
0.0500384
0.0500384
0.0500384
0.0500384
0.0500384
0.0500384
0.0500384
0.0500384
0.0500384
0.0500384
0.0500384
0.0500384
0.0500384
0.0500384
0.0500384
0.0500384
0.0500384
0.0500384
0.0500384
0.0500384
0.0500384
0.0500384
0.0500384
0.0500384
0.0500384
0.0500384
0.0500384
0.0500384
0.0500384
0.0500384
0.0500384
0.0500384
0.0500384
0.0500384
0.0500384
0.0500384
0.0500384
0.0500384
0.0500384
0.0500384
0.0500384
0.0500384
0.0500384
0.0500384
0.0500384
0.0500384
0.0500384
0.0500384
0.0500384
0.0500384
0.0500384
0.0500384
0.0500384
0.0500384
0.0500384
0.0500384
0.0500384
0.0500384
0.0500384
0.0500384
0.0500384
0.0500384
0.0500384
0.0500384
0.0500384
0.0500384
0.0500384
0.0500384
0.0500384
0.0500384
0.0500384
0.0500384
0.0500384
0.0500384
0.0500384
0.0500384
0.0500384
0.0500384
0.0500384
0.0500384
0.0500384
0.0500384
0.0500384
0.0500384
0.0500384
0.0500384
0.0500384
0.0500384
0.0500384
0.0500384
0.0500384
0.0500384
0.0500384
0.0500384
0.0500384
0.0500384
0.0500384
0.0500384
0.0500384
0.0500384
0.0500384
0.0500384
0.0500384
0.0500384
0.0500384
0.0500384
0.0500384
0.0500384
0.0500384
0.0500384
0.0500384
0.0500384
0.0500384
0.0500384
0.0500384
0.0500384
0.0500384
0.0500384
0.0500384
0.0500384
0.0500384
0.0500384
0.0500384
0.0500384
0.0500384
0.0500384
0.0500384
0.0500384
0.0500384
0.0500384
0.0500384
0.0500384
0.0500384
0.0500384
0.0500384
0.0500384
0.0500384
0.0500384
0.0500384
0.0500384
0.0500384
0.0500384
0.0500384
0.0500384
0.0500384
0.0500384
0.0500384
0.0500384
0.0500384
0.0500384
0.0500384
0.0500384
0.0500384
0.0500384
0.0500384
0.0500384
0.0500384
0.0500384
0.0500384
0.0500384
0.0500384
0.0500384
0.0500384
0.0500384
0.0500384
0.0500384
0.0500384
0.0500384
0.0500384
0.0500384
0.0500384
0.0500384
0.0500384
0.0500384
0.0500384
0.0500384
0.0500384
0.0500384
0.0500384
0.0500384
0.0500384
0.0500384
0.0500384
0.0500384
0.0500384
0.0500384
0.0500384
0.0500384
0.0500384
0.0500384
0.0500384
0.0500384
0.0500384
0.0500384
0.0500384
0.0500384
0.0500384
0.0500384
0.0500384
0.0500384
0.0500384
0.0500384
0.0500384
0.0500384
0.0500384
0.0500384
0.0500384
0.0500384
0.0500384
0.0500384
0.0500384
0.0500384
0.0500384
0.0500384
0.0500384
0.0500384
0.0500384
0.0500384
0.0500384
0.0500384
0.0500384
0.0500384
0.0500384
0.0500384
0.0500384
0.0500384
0.0500384
0.0500384
0.0500384
0.0500384
0.0500384
0.0500384
0.0500384
0.0500384
0.0500384
0.0500384
0.0500384
0.0500384
0.0500384
0.0500384
0.0500384
0.0500384
0.0500384
0.0500384
0.0500384
0.0500384
0.0500384
0.0500384
0.0500384
0.0500384
0.0500384
0.0500384
0.0500384
0.0500384
0.0500384
0.0500384
0.0500384
0.0500384
0.0500384
0.0500384
0.0500384
0.0500384
0.0500384
0.0500384
0.0500384
0.0500384
0.0500384
0.0500384
0.0500384
0.0500384
0.0500384
0.0500384
0.0500384
0.0500384
0.0500384
0.0500384
0.0500384
0.0500384
0.0500384
0.0500384
0.0500384
0.0500384
0.0500384
0.0500384
0.0500384
0.0500384
0.0500384
0.0500384
0.0500384
0.0500384
0.0500384
0.0500384
0.0500384
0.0500384
0.0500384
0.0500384
0.0500384
0.0500384
0.0500384
0.0500384
0.0500384
0.0500384
0.0500384
0.0500384
0.0500384
0.0500384
0.0500384
0.0500384
0.0500384
0.0500384
0.0500384
0.0500384
0.0500384
0.0500384
0.0500384
0.0500384
0.0500384
0.0500384
0.0500384
0.0500384
0.0500384
0.0500384
0.0500384
0.0500384
0.0500384
0.0500384
0.0500384
0.0500384
0.0500384
0.0500384
0.0500384
0.0500384
0.0500384
0.0500384
0.0500384
0.0500384
0.0500384
0.0500384
0.0500384
0.0500384
0.0500384
0.0500384
0.0500384
0.0500384
0.0500384
0.0500384
0.0500384
0.0500384
0.0500384
0.0500384
0.0500384
0.0500384
0.0500384
0.0500384
0.0500384
0.0500384
0.0500384
0.0500384
0.0500384
0.0500384
0.0500384
0.0500384
0.0500384
0.0500384
0.0500384
0.0500384
0.0500384
0.0500384
0.0500384
0.0500384
0.0500384
0.0500384
0.0500384
0.0500384
0.0500384
0.0500384
0.0500384
0.0500384
0.0500384
0.0500384
0.0500384
0.0500384
0.0500384
0.0500384
0.0500384
0.0500384
0.0500384
0.0500384
0.0500384
0.0500384
0.0500384
0.0500384
0.0500384
0.0500384
0.0500384
0.0500384
0.0500384
0.0500384
0.0500384
0.0500384
0.0500384
0.0500384
0.0500384
0.0500384
0.0500384
0.0500384
0.0500384
0.0500384
0.0500384
0.0500384
0.0500384
0.0500384
0.0500384
0.0500384
0.0500384
0.0500384
0.0500384
0.0500384
0.0500384
0.0500384
0.0500384
0.0500384
0.0500384
0.0500384
0.0500384
0.0500384
0.0500384
0.0500384
0.0500384
0.0500384
0.0500384
0.0500384
0.0500384
0.0500384
0.0500384
0.0500384
0.0500384
0.0500384
0.0500384
0.0500384
0.0500384
0.0500384
0.0500384
0.0500384
0.0500384
0.0500384
0.0500384
0.0500384
0.0500384
0.0500384
0.0500384
0.0500384
0.0500384
0.0500384
0.0500384
0.0500384
0.0500384
0.0500384
0.0500384
0.0500384
0.0500384
0.0500384
0.0500384
0.0500384
0.0500384
0.0500384
0.0500384
0.0500384
0.0500384
0.0500384
0.0500384
0.0500384
0.0500384
0.0500384
0.0500384
0.0500384
0.0500384
0.0500384
0.0500384
0.0500384
0.0500384
0.0500384
0.0500384
0.0500384
0.0500384
0.0500384
0.0500384
0.0500384
0.0500384
0.0500384
0.0500384
0.0500384
0.0500384
0.0500384
0.0500384
0.0500384
0.0500384
0.0500384
0.0500384
0.0500384
0.0500384
0.0500384
0.0500384
0.0500384
0.0500384
0.0500384
0.0500384
0.0500384
0.0500384
0.0500384
0.0500384
0.0500384
0.0500384
0.0500384
0.0500384
0.0500384
0.0500384
0.0500384
0.0500384
0.0500384
0.0500384
0.0500384
0.0500384
0.0500384
0.0500384
0.0500384
0.0500384
0.0500384
0.0500384
0.0500384
0.0500384
0.0500384
0.0500384
0.0500384
0.0500384
0.0500384
0.0500384
0.0500384
0.0500384
0.0500384
0.0500384
0.0500384
0.0500384
0.0500384
0.0500384
0.0500384
0.0500384
0.0500384
0.0500384
0.0500384
0.0500384
0.0500384
0.0500384
0.0500384
0.0500384
0.0500384
0.0500384
0.0500384
0.0500384
0.0500384
0.0500384
0.0500384
0.0500384
0.0500384
0.0500384
0.0500384
0.0500384
0.0500384
0.0500384
0.0500384
0.0500384
0.0500384
0.0500384
0.0500384
0.0500384
0.0500384
0.0500384
0.0500384
0.0500384
0.0500384
0.0500384
0.0500384
0.0500384
0.0500384
0.0500384
0.0500384
0.0500384
0.0500384
0.0500384
0.0500384
0.0500384
0.0500384
0.0500384
0.0500384
0.0500384
0.0500384
0.0500384
0.0500384
0.0500384
0.0500384
0.0500384
0.0500384
0.0500384
0.0500384
0.0500384
0.0500384
0.0500384
0.0500384
0.0500384
0.0500384
0.0500384
0.0500384
0.0500384
0.0500384
0.0500384
0.0500384
0.0500384
0.0500384
0.0500384
0.0500384
0.0500384
0.0500384
0.0500384
0.0500384
0.0500384
0.0500384
0.0500384
0.0500384
0.0500384
0.0500384
0.0500384
0.0500384
0.0500384
0.0500384
0.0500384
0.0500384
0.0500384
0.0500384
0.0500384
0.0500384
0.0500384
0.0500384
0.0500384
0.0500384
0.0500384
0.0500384
0.0500384
0.0500384
0.0500384
0.0500384
0.0500384
0.0500384
0.0500384
0.0500384
0.0500384
0.0500384
0.0500384
0.0500384
0.0500384
0.0500384
0.0500384
0.0500384
0.0500384
0.0500384
0.0500384
0.0500384
0.0500384
0.0500384
0.0500384
0.0500384
0.0500384
0.0500384
0.0500384
0.0500384
0.0500384
0.0500384
0.0500384
0.0500384
0.0500384
0.0500384
0.0500384
0.0500384
0.0500384
0.0500384
0.0500384
0.0500384
0.0500384
0.0500384
0.0500384
0.0500384
0.0500384
0.0500384
0.0500384
0.0500384
0.0500384
0.0500384
0.0500384
0.0500384
0.0500384
0.0500384
0.0500384
0.0500384
0.0500384
0.0500384
0.0500384
0.0500384
0.0500384
0.0500384
0.0500384
0.0500384
0.0500384
0.0500384
0.0500384
0.0500384
0.0500384
0.0500384
0.0500384
0.0500384
0.0500384
0.0500384
0.0500384
0.0500384
0.0500384
0.0500384
0.0500384
0.0500384
0.0500384
0.0500384
0.0500384
0.0500384
0.0500384
0.0500384
0.0500384
0.0500384
0.0500384
0.0500384
0.0500384
0.0500384
0.0500384
0.0500384
0.0500384
0.0500384
0.0500384
0.0500384
0.0500384
0.0500384
0.0500384
0.0500384
0.0500384
0.0500384
0.0500384
0.0500384
0.0500384
0.0500384
0.0500384
0.0500384
0.0500384
0.0500384
