-0.317207
-0.317207
-0.317207
-0.317207
-0.317207
-0.317207
-0.317207
-0.317207
-0.317207
-0.317207
-0.317207
-0.317207
-0.317207
-0.317207
-0.317207
-0.317207
-0.317207
-0.317207
-0.317207
-0.317207
-0.317207
-0.317207
-0.317207
-0.317207
-0.317207
-0.317207
-0.317207
-0.317207
-0.317207
-0.317207
-0.317207
-0.317207
-0.317207
-0.317207
-0.317207
-0.317207
-0.317207
-0.317207
-0.317207
-0.317207
-0.317207
-0.317207
-0.317207
-0.317207
-0.317207
-0.317207
-0.317207
-0.317207
-0.317207
-0.317207
-0.317207
-0.317207
-0.317207
-0.317207
-0.317207
-0.317207
-0.317207
-0.317207
-0.317207
-0.317207
-0.317207
-0.317207
-0.317207
-0.317207
-0.317207
-0.317207
-0.317207
-0.317207
-0.317207
-0.317207
-0.317207
-0.317207
-0.317207
-0.317207
-0.317207
-0.317207
-0.317207
-0.317207
-0.317207
-0.317207
-0.317207
-0.317207
-0.317207
-0.317207
-0.317207
-0.317207
-0.317207
-0.317207
-0.317207
-0.317207
-0.317207
-0.317207
-0.317207
-0.317207
-0.317207
-0.317207
-0.317207
-0.317207
-0.317207
-0.317207
-0.317207
-0.317207
-0.317207
-0.317207
-0.317207
-0.317207
-0.317207
-0.317207
-0.317207
-0.317207
-0.317207
-0.317207
-0.317207
-0.317207
-0.317207
-0.317207
-0.317207
-0.317207
-0.317207
-0.317207
-0.317207
-0.317207
-0.317207
-0.317207
-0.317207
-0.317207
-0.317207
-0.317207
-0.317207
-0.317207
-0.317207
-0.317207
-0.317207
-0.317207
-0.317207
-0.317207
-0.317207
-0.317207
-0.317207
-0.317207
-0.317207
-0.317207
-0.317207
-0.317207
-0.317207
-0.317207
-0.317207
-0.317207
-0.317207
-0.317207
-0.317207
-0.317207
-0.317207
-0.317207
-0.317207
-0.317207
-0.317207
-0.317207
-0.317207
-0.317207
-0.317207
-0.317207
-0.317207
-0.317207
-0.317207
-0.317207
-0.317207
-0.317207
-0.317207
-0.317207
-0.317207
-0.317207
-0.317207
-0.317207
-0.317207
-0.317207
-0.317207
-0.317207
-0.317207
-0.317207
-0.317207
-0.317207
-0.317207
-0.317207
-0.317207
-0.317207
-0.317207
-0.317207
-0.317207
-0.317207
-0.317207
-0.317207
-0.317207
-0.317207
-0.317207
-0.317207
-0.317207
-0.317207
-0.317207
-0.317207
-0.317207
-0.317207
-0.317207
-0.317207
-0.317207
-0.317207
-0.317207
-0.317207
-0.317207
-0.317207
-0.317207
-0.317207
-0.317207
-0.317207
-0.317207
-0.317207
-0.317207
-0.317207
-0.317207
-0.317207
-0.317207
-0.317207
-0.317207
-0.317207
-0.317207
-0.317207
-0.317207
-0.317207
-0.317207
-0.317207
-0.317207
-0.317207
-0.317207
-0.317207
-0.317207
-0.317207
-0.317207
-0.317207
-0.317207
-0.317207
-0.317207
-0.317207
-0.317207
-0.317207
-0.317207
-0.317207
-0.317207
-0.317207
-0.317207
-0.317207
-0.317207
-0.317207
-0.317207
-0.317207
-0.317207
-0.317207
-0.317207
-0.317207
-0.317207
-0.317207
-0.317207
-0.317207
-0.317207
-0.317207
-0.317207
-0.317207
-0.317207
-0.317207
-0.317207
-0.317207
-0.317207
-0.317207
-0.317207
-0.317207
-0.317207
-0.317207
-0.317207
-0.317207
-0.317207
-0.317207
-0.317207
-0.317207
-0.317207
-0.317207
-0.317207
-0.317207
-0.317207
-0.317207
-0.317207
-0.317207
-0.317207
-0.317207
-0.317207
-0.317207
-0.317207
-0.317207
-0.317207
-0.317207
-0.317207
-0.317207
-0.317207
-0.317207
-0.317207
-0.317207
-0.317207
-0.317207
-0.317207
-0.317207
-0.317207
-0.317207
-0.317207
-0.317207
-0.317207
-0.317207
-0.317207
-0.317207
-0.317207
-0.317207
-0.317207
-0.317207
-0.317207
-0.317207
-0.317207
-0.317207
-0.317207
-0.317207
-0.317207
-0.317207
-0.317207
-0.317207
-0.317207
-0.317207
-0.317207
-0.317207
-0.317207
-0.317207
-0.317207
-0.317207
-0.317207
-0.317207
-0.317207
-0.317207
-0.317207
-0.317207
-0.317207
-0.317207
-0.317207
-0.317207
-0.317207
-0.317207
-0.317207
-0.317207
-0.317207
-0.317207
-0.317207
-0.317207
-0.317207
-0.317207
-0.317207
-0.317207
-0.317207
-0.317207
-0.317207
-0.317207
-0.317207
-0.317207
-0.317207
-0.317207
-0.317207
-0.317207
-0.317207
-0.317207
-0.317207
-0.317207
-0.317207
-0.317207
-0.317207
-0.317207
-0.317207
-0.317207
-0.317207
-0.317207
-0.317207
-0.317207
-0.317207
-0.317207
-0.317207
-0.317207
-0.317207
-0.317207
-0.317207
-0.317207
-0.317207
-0.317207
-0.317207
-0.317207
-0.317207
-0.317207
-0.317207
-0.317207
-0.317207
-0.317207
-0.317207
-0.317207
-0.317207
-0.317207
-0.317207
-0.317207
-0.317207
-0.317207
-0.317207
-0.317207
-0.317207
-0.317207
-0.317207
-0.317207
-0.317207
-0.317207
-0.317207
-0.317207
-0.317207
-0.317207
-0.317207
-0.317207
-0.317207
-0.317207
-0.317207
-0.317207
-0.317207
-0.317207
-0.317207
-0.317207
-0.317207
-0.317207
-0.317207
-0.317207
-0.317207
-0.317207
-0.317207
-0.317207
-0.317207
-0.317207
-0.317207
-0.317207
-0.317207
-0.317207
-0.317207
-0.317207
-0.317207
-0.317207
-0.317207
-0.317207
-0.317207
-0.317207
-0.317207
-0.317207
0.317207
0.317207
0.317207
0.317207
0.317207
0.317207
0.317207
0.317207
0.317207
0.317207
0.317207
0.317207
0.317207
0.317207
0.317207
0.317207
0.317207
0.317207
0.317207
0.317207
0.317207
0.317207
0.317207
0.317207
0.317207
0.317207
0.317207
0.317207
0.317207
0.317207
0.317207
0.317207
0.317207
0.317207
0.317207
0.317207
0.317207
0.317207
0.317207
0.317207
0.317207
0.317207
0.317207
0.317207
0.317207
0.317207
0.317207
0.317207
0.317207
0.317207
0.317207
0.317207
0.317207
0.317207
0.317207
0.317207
0.317207
0.317207
0.317207
0.317207
0.317207
0.317207
0.317207
0.317207
0.317207
0.317207
0.317207
0.317207
0.317207
0.317207
0.317207
0.317207
0.317207
0.317207
0.317207
0.317207
0.317207
0.317207
0.317207
0.317207
0.317207
0.317207
0.317207
0.317207
0.317207
0.317207
0.317207
0.317207
0.317207
0.317207
0.317207
0.317207
0.317207
0.317207
0.317207
0.317207
0.317207
0.317207
0.317207
0.317207
0.317207
0.317207
0.317207
0.317207
0.317207
0.317207
0.317207
0.317207
0.317207
0.317207
0.317207
0.317207
0.317207
0.317207
0.317207
0.317207
0.317207
0.317207
0.317207
0.317207
0.317207
0.317207
0.317207
0.317207
0.317207
0.317207
0.317207
0.317207
0.317207
0.317207
0.317207
0.317207
0.317207
0.317207
0.317207
0.317207
0.317207
0.317207
0.317207
0.317207
0.317207
0.317207
0.317207
0.317207
0.317207
0.317207
0.317207
0.317207
0.317207
0.317207
0.317207
0.317207
0.317207
0.317207
0.317207
0.317207
0.317207
0.317207
0.317207
0.317207
0.317207
0.317207
0.317207
0.317207
0.317207
0.317207
0.317207
0.317207
0.317207
0.317207
0.317207
0.317207
0.317207
0.317207
0.317207
0.317207
0.317207
0.317207
0.317207
0.317207
0.317207
0.317207
0.317207
0.317207
0.317207
0.317207
0.317207
0.317207
0.317207
0.317207
0.317207
0.317207
0.317207
0.317207
0.317207
0.317207
0.317207
0.317207
0.317207
0.317207
0.317207
0.317207
0.317207
0.317207
0.317207
0.317207
0.317207
0.317207
0.317207
0.317207
0.317207
0.317207
0.317207
0.317207
0.317207
0.317207
0.317207
0.317207
0.317207
0.317207
0.317207
0.317207
0.317207
0.317207
0.317207
0.317207
0.317207
0.317207
0.317207
0.317207
0.317207
0.317207
0.317207
0.317207
0.317207
0.317207
0.317207
0.317207
0.317207
0.317207
0.317207
0.317207
0.317207
0.317207
0.317207
0.317207
0.317207
0.317207
0.317207
0.317207
0.317207
0.317207
0.317207
0.317207
0.317207
0.317207
0.317207
0.317207
0.317207
0.317207
0.317207
0.317207
0.317207
0.317207
0.317207
0.317207
0.317207
0.317207
0.317207
0.317207
0.317207
0.317207
0.317207
0.317207
0.317207
0.317207
0.317207
0.317207
0.317207
0.317207
0.317207
0.317207
0.317207
0.317207
0.317207
0.317207
0.317207
0.317207
0.317207
0.317207
0.317207
0.317207
0.317207
0.317207
0.317207
0.317207
0.317207
0.317207
0.317207
0.317207
0.317207
0.317207
0.317207
0.317207
0.317207
0.317207
0.317207
0.317207
0.317207
0.317207
0.317207
0.317207
0.317207
0.317207
0.317207
0.317207
0.317207
0.317207
0.317207
0.317207
0.317207
0.317207
0.317207
0.317207
0.317207
0.317207
0.317207
0.317207
0.317207
0.317207
0.317207
0.317207
0.317207
0.317207
0.317207
0.317207
0.317207
0.317207
0.317207
0.317207
0.317207
0.317207
0.317207
0.317207
0.317207
0.317207
0.317207
0.317207
0.317207
0.317207
0.317207
0.317207
0.317207
0.317207
0.317207
0.317207
0.317207
0.317207
0.317207
0.317207
0.317207
0.317207
0.317207
0.317207
0.317207
0.317207
0.317207
0.317207
0.317207
0.317207
0.317207
0.317207
0.317207
0.317207
0.317207
0.317207
0.317207
0.317207
0.317207
0.317207
0.317207
0.317207
0.317207
0.317207
