-1.088736176
-1.086519122
-1.055962324
-1.024065614
-1.007045865
-0.9785667062
-0.963303268
-0.9258772731
-0.8761587143
-0.8670546412
-0.859305203
-0.8528162837
-0.8314793706
-0.8311071396
-0.8164620399
-0.8083083034
-0.8026694059
-0.8007276654
-0.7999904156
-0.7781953812
-0.7719263434
-0.7705325484
-0.7615831494
-0.7436612844
-0.7433301806
-0.738532424
-0.7362956405
-0.7093491554
-0.6999214292
-0.692376852
-0.683452785
-0.6786378026
-0.6781321764
-0.6730548143
-0.6679655313
-0.6659292579
-0.6629708409
-0.6623211503
-0.6585518718
-0.6491122842
-0.6194730401
-0.6150843501
-0.6074640155
-0.603181839
-0.598748982
-0.5916921496
-0.5872691274
-0.5794205666
-0.5784820914
-0.5779959559
-0.5768390298
-0.5730813146
-0.5711539388
-0.5687400699
-0.5660666823
-0.5637660623
-0.5636379123
-0.5577888489
-0.555100739
-0.5535432696
-0.5455610752
-0.5439792871
-0.5434987545
-0.5426709652
-0.5381656885
-0.5309699178
-0.5214955807
-0.5197871923
-0.5190112591
-0.5180292726
-0.515055716
-0.5136902928
-0.5115547776
-0.5109242797
-0.510599792
-0.5092425346
-0.5086991191
-0.5063642859
-0.5029184818
-0.4979279041
-0.4957413673
-0.4942707419
-0.4937903881
-0.4929891527
-0.4908007681
-0.4903781414
-0.4840633571
-0.4834130108
-0.4791642129
-0.4738982618
-0.4731395543
-0.4726629853
-0.4724712372
-0.4723130763
-0.464945823
-0.4562560618
-0.4550354779
-0.4548047483
-0.4487444162
-0.4472769499
-0.4467302263
-0.4440157712
-0.441682905
-0.4345012605
-0.4333160818
-0.4323807955
-0.4322138131
-0.4268236458
-0.4263147116
-0.4250213802
-0.4249093533
-0.4246399999
-0.4246231914
-0.4243129492
-0.4224256277
-0.4208598137
-0.4198002815
-0.4186677337
-0.4186500907
-0.4178053439
-0.4110223055
-0.4106672704
-0.4086855948
-0.4081139565
-0.4066687524
-0.406447947
-0.4052483439
-0.4049861133
-0.401327163
-0.4012162387
-0.3993810415
-0.3982926309
-0.398273468
-0.3975897133
-0.392757982
-0.3926527202
-0.3917576671
-0.3907045722
-0.3880963922
-0.3879888952
-0.3865157962
-0.385902226
-0.3846877813
-0.3843577802
-0.3842335045
-0.3828909099
-0.3826282322
-0.3825369179
-0.3801507652
-0.3799978793
-0.379858613
-0.3757820725
-0.3741616309
-0.3734254837
-0.3728685081
-0.3722580969
-0.3722293675
-0.3692519665
-0.3689669073
-0.3681940138
-0.3680393994
-0.3671047688
-0.3653126657
-0.3651924729
-0.3649804294
-0.3646089137
-0.3640916646
-0.3640624285
-0.3626533449
-0.3603206873
-0.3591608405
-0.3589666784
-0.358810395
-0.3574726284
-0.3558499217
-0.3551513255
-0.3533204496
-0.3519235551
-0.3509835005
-0.3509138525
-0.3503110111
-0.3496208787
-0.3490933478
-0.3462426364
-0.3458908796
-0.3438657224
-0.3430844545
-0.3396175504
-0.3355304003
-0.3313059211
-0.3313005269
-0.3306053579
-0.3301563263
-0.3285937905
-0.3281496167
-0.3277688324
-0.3268222809
-0.3267499208
-0.326651603
-0.3253732026
-0.3253393173
-0.3245714605
-0.3241604269
-0.3236441314
-0.3233848512
-0.323356837
-0.3228014708
-0.3225358427
-0.3213090003
-0.3211431205
-0.3206608891
-0.3206194937
-0.320025593
-0.319478333
-0.3193720579
-0.3190796971
-0.3180104196
-0.316678524
-0.3154497147
-0.3154187799
-0.3149277866
-0.3147130013
-0.313388288
-0.310269326
-0.3092961907
-0.308909297
-0.3079236746
-0.3073266745
-0.3073260486
-0.3043361902
-0.3042446971
-0.3010076582
-0.2999604642
-0.2994727492
-0.2992489636
-0.2990807593
-0.2960683107
-0.2955745459
-0.2944959104
-0.2941855192
-0.2932032049
-0.2930375934
-0.2929672897
-0.292232573
-0.2918248773
-0.2904989123
-0.2902342975
-0.2886635065
-0.288618058
-0.2884206176
-0.2882390022
-0.2870393395
-0.2856749296
-0.2853496969
-0.285142988
-0.283739984
-0.2833352983
-0.2826045454
-0.2822615802
-0.2809719145
-0.2807441056
-0.2802078724
-0.2800818086
-0.2799013853
-0.2788466811
-0.2783520222
-0.2781839371
-0.2755721807
-0.2753858268
-0.2745379806
-0.2743588388
-0.2739482224
-0.2732670903
-0.273252815
-0.2730127573
-0.2726617455
-0.2720409632
-0.2719139457
-0.2707842886
-0.2681573629
-0.2681178451
-0.2675794959
-0.2668671012
-0.2662165165
-0.2658738196
-0.2657884359
-0.2654705942
-0.2648124397
-0.2642797232
-0.2632341981
-0.2631432712
-0.2619240284
-0.2618490458
-0.2613637447
-0.2611721456
-0.2609349787
-0.260332197
-0.2599988282
-0.2596672177
-0.2584034204
-0.2572979331
-0.2564052045
-0.255841285
-0.2557079196
-0.2542919517
-0.2536557019
-0.2535563409
-0.2533600032
-0.2529566288
-0.2529496551
-0.2506050169
-0.2505481839
-0.2500346601
-0.2497023046
-0.2481546104
-0.2467066199
-0.2459779829
-0.2457150072
-0.2456310391
-0.2451777905
-0.2443162501
-0.2434139252
-0.2433526367
-0.242883876
-0.2420766056
-0.2415114939
-0.2413397878
-0.2409057021
-0.2402128279
-0.2401835024
-0.2384585291
-0.2384295017
-0.2383696288
-0.2376584858
-0.2374263853
-0.2361811996
-0.2361694723
-0.2358296514
-0.23550044
-0.2349234372
-0.2340198904
-0.2334348708
-0.2327366769
-0.2325575799
-0.2311749011
-0.2308670282
-0.2306443006
-0.2306322306
-0.2296632975
-0.2291026711
-0.2288171649
-0.2287559658
-0.2283279002
-0.2279063165
-0.2278950214
-0.2265328914
-0.2257222533
-0.2250229716
-0.223995626
-0.22395356
-0.223688364
-0.2231665403
-0.223093003
-0.2224930972
-0.2218387574
-0.221718803
-0.2216982991
-0.2209673375
-0.2206737399
-0.2204505056
-0.2200854719
-0.2191167176
-0.2188932896
-0.2172192484
-0.2163500488
-0.2154620141
-0.2149956077
-0.2148552537
-0.2147571743
-0.2140139192
-0.2137563229
-0.2135080397
-0.2131664455
-0.2130512744
-0.213001743
-0.212863788
-0.2117348909
-0.2102748752
-0.2102369666
-0.209845379
-0.2097689509
-0.2097065598
-0.2096479684
-0.208866477
-0.2083609551
-0.2082283199
-0.2079985887
-0.2078360617
-0.2076061368
-0.2074653655
-0.2073156536
-0.2064808309
-0.2057756335
-0.2054235339
-0.2051702589
-0.2050017118
-0.2047624886
-0.2047339231
-0.2034816146
-0.2015542537
-0.2013679296
-0.2008486241
-0.2005305886
-0.2004316598
-0.1999052018
-0.199320823
-0.1991351694
-0.1986731291
-0.1975214183
-0.1972967982
-0.1970244646
-0.1962446868
-0.1960478276
-0.195841372
-0.1952592432
-0.1949858069
-0.193436414
-0.1932009608
-0.1929150224
-0.1921658814
-0.19182989
-0.1912235916
-0.1908470392
-0.1894924641
-0.1894846857
-0.1893128306
-0.1888159662
-0.1887345165
-0.1882180274
-0.1879867911
-0.1878923178
-0.1875965297
-0.1873579472
-0.1871124655
-0.1866505891
-0.1862612665
-0.1848778278
-0.1844734102
-0.1839476079
-0.1838327795
-0.1834640503
-0.1832142621
-0.18310076
-0.1830799133
-0.1826580018
-0.1823500246
-0.1814930588
-0.1814360917
-0.1813414395
-0.1813052595
-0.1806586385
-0.1805931926
-0.1804672182
-0.1804042011
-0.1802943945
-0.1801435649
-0.1799696088
-0.1799259931
-0.1797273308
-0.1796021312
-0.1794676036
-0.1789116263
-0.1788813323
-0.1780290306
-0.1776912808
-0.1774888337
-0.1773521751
-0.1772528887
-0.1770755202
-0.176663354
-0.1765265912
-0.1764861047
-0.176311329
-0.1759877056
-0.175884217
-0.1755009294
-0.1752967685
-0.1748822927
-0.174783349
-0.1747231483
-0.1746180356
-0.1742101461
-0.1740731299
-0.1739807427
-0.1738866866
-0.1736213863
-0.1735573411
-0.1734341681
-0.1727864742
-0.1727042198
-0.1726190895
-0.172492072
-0.1722127646
-0.1722087264
-0.1717868298
-0.1716763228
-0.170685485
-0.1703511328
-0.1701684743
-0.1701112837
-0.1693391502
-0.1692338288
-0.1692093611
-0.1690370291
-0.1688830703
-0.1685171872
-0.1678563654
-0.1673296243
-0.1672962755
-0.1671310961
-0.1669390947
-0.166496858
-0.1661417484
-0.1660865098
-0.1659032404
-0.1656949371
-0.165388763
-0.1651880592
-0.1649214029
-0.1646260023
-0.1645173579
-0.1644091159
-0.1636001766
-0.1619421691
-0.1616268605
-0.1615181267
-0.1608133018
-0.1607711017
-0.1606421471
-0.1601304561
-0.1600914001
-0.1600626558
-0.1599033326
-0.1595503092
-0.1593184322
-0.156357944
-0.1557823718
-0.155400902
-0.155069679
-0.154305771
-0.1542504579
-0.1541907638
-0.1541612446
-0.1531166136
-0.1527432799
-0.1525693983
-0.1524650902
-0.152454555
-0.1524013579
-0.1515494436
-0.1510627568
-0.1508068144
-0.1491491497
-0.1490229964
-0.1487158537
-0.1485406756
-0.148005873
-0.1478937268
-0.1473070532
-0.1467632949
-0.1466055363
-0.1464798898
-0.1463816464
-0.1459030509
-0.145841226
-0.1455896497
-0.1447947174
-0.1445436478
-0.1436901093
-0.1433713138
-0.1428489536
-0.1425639838
-0.1416252702
-0.1416248828
-0.1412680894
-0.1411408633
-0.1409171522
-0.1405281574
-0.1405056417
-0.1403295398
-0.1394670457
-0.138762936
-0.1384192407
-0.1376609206
-0.1370476335
-0.1363986731
-0.136070624
-0.1359494179
-0.1349585205
-0.1348648518
-0.1348550767
-0.1348385066
-0.1348063648
-0.13426283
-0.1341661215
-0.1337946802
-0.1337219477
-0.1332848966
-0.133023262
-0.1322025508
-0.1314484924
-0.1311582923
-0.1310466528
-0.129844293
-0.1287154406
-0.128102228
-0.1278999746
-0.1278619021
-0.1278375834
-0.126971826
-0.126959607
-0.1263931543
-0.1259219497
-0.1257200986
-0.1255138367
-0.1252092719
-0.1248609573
-0.1237864494
-0.1232282221
-0.1227471083
-0.1225878671
-0.1225023344
-0.1219419017
-0.1215134189
-0.1215101257
-0.121210143
-0.1209469214
-0.1205086112
-0.1201665103
-0.1201237962
-0.1194002554
-0.1193991676
-0.1193315983
-0.1183530837
-0.1182620525
-0.1180013046
-0.1178906932
-0.1178387627
-0.1172144786
-0.1168328002
-0.1157172024
-0.1152317524
-0.114644438
-0.1146138608
-0.1145173684
-0.1133106574
-0.1129062995
-0.1129004285
-0.1127677783
-0.1123961136
-0.1123921201
-0.112374559
-0.1123632416
-0.1122043207
-0.1121695787
-0.1117742136
-0.1112796888
-0.1105242968
-0.1096343473
-0.1094924137
-0.1093627959
-0.1093057171
-0.1089443043
-0.1083067954
-0.108113654
-0.1080786064
-0.1079475433
-0.1079092547
-0.1076076627
-0.1075856015
-0.1075535715
-0.1075320095
-0.1072916463
-0.1071659476
-0.1071584076
-0.1071048528
-0.1067639589
-0.1067635119
-0.1063504815
-0.106044136
-0.1056858003
-0.1056242064
-0.1056179553
-0.1054762378
-0.1054022387
-0.1053113192
-0.104947947
-0.1048666462
-0.1042206809
-0.1038291156
-0.1036131382
-0.1035253108
-0.1030494794
-0.1028082296
-0.1026327908
-0.1026250198
-0.1024224088
-0.1020441428
-0.1019512638
-0.1016803533
-0.1015224606
-0.1012380943
-0.101124458
-0.1010164618
-0.1009710431
-0.1008428112
-0.100639917
-0.1004200727
-0.1003532335
-0.09994278848
-0.09975331277
-0.09935063124
-0.0993385464
-0.09857466817
-0.09804616123
-0.09803866595
-0.09761077166
-0.09691226482
-0.0967912674
-0.0967695713
-0.09659807384
-0.09612194449
-0.09554038197
-0.09548160434
-0.09545511752
-0.0953117609
-0.09516628832
-0.09501791745
-0.09425222874
-0.09410931915
-0.09403757006
-0.09396909922
-0.09394650906
-0.09356556833
-0.09353785962
-0.09338856488
-0.09300645441
-0.09271808714
-0.09241998941
-0.09239193052
-0.09217357635
-0.09203042835
-0.0917769596
-0.09142636508
-0.0912033841
-0.09109273553
-0.09081742913
-0.09080845863
-0.09055826813
-0.0903872177
-0.08974934369
-0.08950859308
-0.08940710872
-0.08921448141
-0.08856404573
-0.08820780367
-0.08785612136
-0.0876699388
-0.08759406954
-0.08755754679
-0.08723100275
-0.0870795995
-0.0868890807
-0.08641205728
-0.08631656319
-0.08612129837
-0.08548687398
-0.08526411653
-0.08512867242
-0.08426822722
-0.08410222083
-0.08409689367
-0.08376961201
-0.08357068151
-0.08340585977
-0.08339358866
-0.08237160742
-0.08227475733
-0.08221286535
-0.08218631148
-0.08213798702
-0.08182315528
-0.08180266619
-0.08164921403
-0.08158900589
-0.08077020943
-0.08057019114
-0.08047080785
-0.0804573223
-0.080030635
-0.07985217124
-0.07972665131
-0.07956027985
-0.07947758585
-0.07940279692
-0.07940196246
-0.07909737527
-0.07892844826
-0.07886790484
-0.07884880155
-0.07789319009
-0.07787500322
-0.07780204713
-0.07772195339
-0.07764108479
-0.07748579234
-0.077241458
-0.07721303403
-0.07720012218
-0.07716014236
-0.07702239603
-0.07702090591
-0.07692779601
-0.07664258778
-0.07659962773
-0.07622954994
-0.0755450651
-0.07536150515
-0.07532612979
-0.07524142414
-0.07523144037
-0.07494597137
-0.0745574832
-0.07452511787
-0.07403994352
-0.0739639625
-0.07393773645
-0.07390846312
-0.07328716666
-0.07327027619
-0.07319160551
-0.07221132517
-0.07179643214
-0.07171077281
-0.07136487216
-0.07120134681
-0.07101584226
-0.07098164409
-0.07091145962
-0.07085983455
-0.07055646181
-0.07052513957
-0.07040753961
-0.07024022192
-0.0694283098
-0.06938398629
-0.06903266907
-0.06853459775
-0.06825850159
-0.06816968322
-0.06783212721
-0.06750986725
-0.06746067107
-0.0670587644
-0.06703203917
-0.06692814827
-0.06651704758
-0.06621618569
-0.06609849632
-0.06602364033
-0.06601862609
-0.06545839459
-0.06539093703
-0.0653725639
-0.06533204764
-0.06515126675
-0.06459242851
-0.06430789083
-0.06423506141
-0.06417501718
-0.06351668388
-0.06308003515
-0.06266620755
-0.06247938052
-0.06239753962
-0.06209653616
-0.06173554808
-0.06157271937
-0.06140844151
-0.0614069365
-0.06118477881
-0.06108406931
-0.06098305434
-0.06062979624
-0.06060308963
-0.06056549028
-0.06041453406
-0.06027841568
-0.06013413146
-0.06011779979
-0.05989889801
-0.05980622023
-0.05954261124
-0.05949025974
-0.05935667828
-0.05900843814
-0.05893749371
-0.05867800862
-0.05865993723
-0.05861644447
-0.05849028379
-0.05832459778
-0.05831809714
-0.05821696669
-0.05732147396
-0.05671099201
-0.05638459325
-0.0563775897
-0.05614471808
-0.05568612739
-0.05536676571
-0.05527421832
-0.05463780835
-0.05410502478
-0.05388439074
-0.05360265821
-0.05357426405
-0.0533387959
-0.05329885334
-0.05319090188
-0.05286101624
-0.05265014619
-0.05240662023
-0.05193002149
-0.05185572058
-0.05176770687
-0.05137312412
-0.05103604123
-0.05088017508
-0.05050381273
-0.05039075017
-0.05025284737
-0.05020387098
-0.05014038086
-0.05005660653
-0.04985782132
-0.04972116649
-0.04968611524
-0.04928725958
-0.04928422347
-0.04927173629
-0.04920683056
-0.04917776212
-0.04890176654
-0.04809257761
-0.04770203307
-0.04735853523
-0.04575311393
-0.04569706321
-0.04551955685
-0.04532663152
-0.04522690922
-0.04478008673
-0.04475169256
-0.04471168295
-0.04463940859
-0.04449705034
-0.04439760745
-0.04402776808
-0.04342768341
-0.04342413694
-0.04329614341
-0.0431782119
-0.04314411804
-0.04266232997
-0.04251541197
-0.04234100133
-0.042188216
-0.0420309715
-0.04178316146
-0.04078628495
-0.04073716328
-0.04065245017
-0.04063178599
-0.04042314738
-0.04022375867
-0.04021340981
-0.03986117989
-0.03900432214
-0.03900052607
-0.03888400644
-0.03842166811
-0.03837744519
-0.03810757399
-0.03770801798
-0.03766198456
-0.03765775263
-0.03762439638
-0.03760051355
-0.03751395643
-0.03750086203
-0.03682243079
-0.03666329756
-0.03645813838
-0.03634591773
-0.03570624441
-0.03542705253
-0.03518962115
-0.03510741144
-0.03495750204
-0.03471125662
-0.03429741412
-0.03429222852
-0.03417048603
-0.03404823318
-0.03375095502
-0.03362108395
-0.03345882893
-0.0333092697
-0.03297479451
-0.03277795389
-0.03217713162
-0.03211076185
-0.0320057869
-0.0319679603
-0.03189271316
-0.03184711933
-0.03165087476
-0.03129992262
-0.0312338993
-0.0310427472
-0.03078883141
-0.03057043068
-0.03056325205
-0.03052443825
-0.02989270166
-0.02979313023
-0.02968432568
-0.02952399291
-0.02939994819
-0.02930477262
-0.02928546071
-0.02908286825
-0.0288790036
-0.02838008106
-0.02822246961
-0.02806664258
-0.02784531936
-0.02780201286
-0.02735024318
-0.0273471009
-0.02717611194
-0.02707887813
-0.02663144842
-0.02638219111
-0.02612647042
-0.02574252523
-0.02565193176
-0.02540571801
-0.02516151592
-0.02506217733
-0.02462144382
-0.02447535656
-0.02445075661
-0.02433314919
-0.02397109568
-0.0238578748
-0.02379910089
-0.02376014367
-0.02368627302
-0.02317704819
-0.02273456752
-0.02269727923
-0.02253887802
-0.0224699229
-0.02246573009
-0.02230051905
-0.02183172293
-0.02180517092
-0.02180309221
-0.02180136926
-0.02174589597
-0.02141161822
-0.02135577798
-0.02089756168
-0.02064082585
-0.02062083222
-0.02008196712
-0.01972266845
-0.01955768093
-0.01923344471
-0.01916536689
-0.01915683225
-0.01915421896
-0.01904534735
-0.01903833449
-0.01894647628
-0.01883432642
-0.01864883117
-0.01854848489
-0.01835172251
-0.01817416027
-0.01790631004
-0.01755204983
-0.01725632884
-0.01705832221
-0.01695086807
-0.01688884012
-0.01683866419
-0.01674293727
-0.01651623845
-0.01644973271
-0.01627908088
-0.01597309113
-0.01579666138
-0.01560752466
-0.01559457555
-0.01536707953
-0.01490280032
-0.0147733232
-0.01446120534
-0.01425856911
-0.01424826961
-0.01415765006
-0.01414636988
-0.01393026672
-0.01388089918
-0.0135556329
-0.01324823964
-0.01312669832
-0.01307645533
-0.01292380039
-0.01270835847
-0.01261772867
-0.01253978256
-0.01239828672
-0.01208438911
-0.01197230536
-0.01150445174
-0.01148787234
-0.0114241587
-0.01108686626
-0.01091091614
-0.0108944755
-0.01060987543
-0.01057435572
-0.01049670577
-0.01038193796
-0.01032304764
-0.009468192235
-0.009349766187
-0.009188395925
-0.00909822993
-0.009026662447
-0.008975350298
-0.008240399882
-0.008067625575
-0.007793834433
-0.007211922202
-0.007199232932
-0.007154812105
-0.006800163072
-0.006252683233
-0.006048077252
-0.005843695719
-0.005826774053
-0.005513710901
-0.004766489379
-0.004743725527
-0.00456026569
-0.004204543307
-0.003869207343
-0.003796305042
-0.003738260129
-0.003487690585
-0.003450225573
-0.002846751828
-0.002795768436
-0.002717828844
-0.002616872778
-0.001613849658
-0.001197048812
-0.0008654096164
-0.0006271087332
-0.0003264542029
0.0001639054244
0.0003538111632
0.0003753069614
0.0006609632401
0.0006869348581
0.001335757552
0.001361661009
0.001364841708
0.001401217072
0.001638718415
0.001706006587
0.001809636597
0.001930738916
0.002025209134
0.002246211749
0.00271932641
0.002781629562
0.003137514694
0.00339749502
0.00350886886
0.003702627961
0.004230896477
0.004346380476
0.004624650814
0.004976490047
0.005408274941
0.005519673694
0.005758125801
0.006140115671
0.006183493882
0.006876264699
0.006886797491
0.007138050627
0.007416231558
0.007476121653
0.008054998703
0.008482904173
0.008485200815
0.00854553096
0.008772999048
0.009190119803
0.009243998677
0.009254590608
0.009400494397
0.009569079615
0.009608265944
0.009663211182
0.009707916528
0.009741403162
0.009944777936
0.01016742736
0.01042014454
0.01050655544
0.01067249849
0.01070060395
0.01076521538
0.01088853925
0.01123733912
0.01216999441
0.01222353894
0.01224308554
0.0123560084
0.01239062473
0.01251174044
0.01272092853
0.01288784295
0.01293869503
0.01295344438
0.01313409768
0.01321622077
0.01336999796
0.01345669851
0.01383501198
0.01410439797
0.01451493055
0.01511258446
0.0152531499
0.01528945845
0.01535777282
0.0155402841
0.01570653543
0.01573554985
0.01596838236
0.01605656929
0.01642915048
0.01643113978
0.01674387977
0.01675856858
0.01677778177
0.01690463163
0.01698689908
0.01714205183
0.01729053445
0.01731240563
0.01746320166
0.01759305783
0.01770108193
0.01788865216
0.01789166965
0.01858560555
0.01872159727
0.01885847561
0.01891642064
0.01927583665
0.01944202371
0.01949270442
0.01960647665
0.01965972036
0.01968719997
0.0197686702
0.01986103319
0.02090617269
0.02100411057
0.02101370879
0.0215921998
0.02165370621
0.02169907466
0.02195555344
0.02217299677
0.02224449813
0.02247995883
0.02272014506
0.0227386523
0.02299906127
0.02325297706
0.0233768709
0.02359785512
0.02380463853
0.02404148132
0.02460814826
0.02478259616
0.02491724305
0.02498851344
0.02503252402
0.02512763813
0.02527689375
0.02544528246
0.02558384091
0.02563102357
0.02582182921
0.02627373487
0.02631760016
0.02645681985
0.02661427669
0.02663104236
0.02676154114
0.0268377047
0.02688582428
0.02701615728
0.02708123066
0.02728689462
0.02742284723
0.02761070617
0.02770685032
0.02771338262
0.02780821361
0.02783218212
0.02798833512
0.02811837941
0.0282232035
0.02829212137
0.02833916247
0.02846544236
0.02848129719
0.02849841863
0.02852470987
0.02877918072
0.02890207618
0.02891933732
0.02894370258
0.02911418118
0.0295817703
0.02981844358
0.02994547226
0.03005066514
0.03018836863
0.03035113402
0.03043123335
0.03061117418
0.03090403974
0.03121127374
0.03129562363
0.03148779273
0.03208539262
0.03230625391
0.03273752704
0.03284541145
0.033233881
0.03343335539
0.03343744949
0.03351666406
0.03357797489
0.03401802853
0.0341507569
0.03417564556
0.03430511802
0.03435655683
0.03436889127
0.03466898575
0.03468267992
0.03496760502
0.03507250175
0.03514034301
0.03537435457
0.03554683179
0.03564660251
0.03599397093
0.03636319935
0.03681672364
0.03687496111
0.03731683642
0.03736900911
0.03752408549
0.0375360623
0.03753664717
0.03754784912
0.0380945988
0.03826598451
0.03835712373
0.03867339715
0.03872377425
0.0387311019
0.03873670846
0.03876491636
0.03876864538
0.03886152431
0.03904907033
0.03909533098
0.03932576627
0.04001123458
0.04004558176
0.04028430954
0.0402985476
0.04094893858
0.04102632403
0.04105264321
0.04148747399
0.0415222384
0.04172796756
0.04187735543
0.04194283113
0.0420057103
0.04220249876
0.04241275415
0.0427014716
0.04279335216
0.04284382239
0.04295134917
0.04302161187
0.04313324764
0.04324876145
0.04325333238
0.04340075701
0.04344944656
0.04349283874
0.04355741665
0.04374658689
0.04378711805
0.04395098612
0.04435310513
0.04448637739
0.04493469372
0.04500273615
0.04530278593
0.04547774047
0.04583880678
0.04595606029
0.04605420679
0.04669295996
0.04726631194
0.0473258011
0.04748927429
0.04759249091
0.04828773811
0.04842336103
0.0484297201
0.04854084551
0.04860330001
0.04877334833
0.04895872623
0.04896430671
0.04901570827
0.04928134754
0.04932840541
0.04960491881
0.04971596971
0.04993175343
0.05011611432
0.05031613633
0.05037803203
0.05057663471
0.05066759512
0.05069583654
0.05111487955
0.05111646652
0.05118996277
0.05124048889
0.05125683546
0.05160465091
0.05200850591
0.05206942931
0.05240079388
0.05253043026
0.05280732363
0.05295073614
0.05324463546
0.05358299613
0.05391726643
0.05403312668
0.05453599989
0.05468063802
0.05474935099
0.05496379733
0.05505109951
0.0552669093
0.05544058233
0.05560684204
0.0556313917
0.05590950325
0.05616591871
0.05625746399
0.05631179735
0.05634465441
0.0563885197
0.05666241795
0.05701517314
0.05703711137
0.05765231699
0.05789265037
0.0579084307
0.05828040093
0.05832673982
0.05848244205
0.05852114782
0.05855668336
0.05877295882
0.05879018828
0.05952572078
0.05968434736
0.05991319939
0.06009260193
0.06070539355
0.06077467278
0.06095106155
0.06101481989
0.06105110049
0.06142080203
0.06164095923
0.06177096441
0.06183483824
0.06202252954
0.06221405044
0.06265371293
0.0626661703
0.06292880327
0.0632500425
0.06338278949
0.06367284805
0.06385492533
0.06402201951
0.06406480819
0.06523740292
0.06528519839
0.06530257314
0.06571248174
0.06586749107
0.06588909775
0.06624502689
0.06653004885
0.06671658158
0.06680344045
0.06707625836
0.06719949096
0.06720959395
0.06746771932
0.06757270545
0.0676125437
0.06762036681
0.06809512526
0.06851033121
0.0685203746
0.06860609353
0.06867444515
0.06868154556
0.0687456429
0.06916429847
0.06921254098
0.06926116347
0.06954088807
0.06962424517
0.0697138384
0.06988546997
0.06991836429
0.07016691566
0.0701758489
0.07048072666
0.07081279904
0.07104560733
0.0714655444
0.07176584005
0.0719922632
0.0721610412
0.07216198742
0.07283181697
0.07285041362
0.07297448069
0.07324108481
0.07333904505
0.07348966599
0.07350622863
0.07381871343
0.07417174429
0.0745080784
0.07474899292
0.07477774471
0.07485674322
0.0749444142
0.07505489886
0.07525133342
0.07527628541
0.07531061023
0.07540956885
0.07550956309
0.07594160736
0.07611265779
0.07724425197
0.07736736536
0.07737693936
0.07737779617
0.07791285217
0.07800944149
0.07870227844
0.07880403101
0.07941135764
0.0794147104
0.07949221879
0.07955573499
0.07960090786
0.07965654135
0.07998146117
0.08025724441
0.08041208982
0.08041325957
0.08052873611
0.08061489463
0.08069659024
0.08140957355
0.08184864372
0.08251876384
0.08279935271
0.0832021907
0.08346523345
0.08389346302
0.08389921486
0.08403458446
0.08441090584
0.08444241434
0.08451879025
0.08483662456
0.08490844071
0.08494927734
0.08558448404
0.08569362015
0.08577501774
0.08598747104
0.08611305058
0.08614081889
0.08633720875
0.08639354259
0.08640757203
0.08641369641
0.0864629522
0.08648212999
0.0867235139
0.08675771952
0.08686456829
0.08697217703
0.08729551733
0.08750700951
0.08766910434
0.08771546185
0.08780444413
0.08821243793
0.08866170049
0.08875804394
0.08876530081
0.08903107047
0.08905333281
0.08908285201
0.08911121637
0.08924329281
0.08934544772
0.0894312188
0.08961080015
0.08972961456
0.08975132555
0.09003399312
0.0901350826
0.09021598101
0.09051901847
0.09102833271
0.0910558328
0.09121502191
0.09127131104
0.09134633839
0.09159843624
0.09174716473
0.09189214557
0.09208943695
0.09213611484
0.09227956086
0.09247629344
0.09249398857
0.09259177744
0.09266290814
0.09267146885
0.09280411899
0.09311120212
0.09311567247
0.09369902313
0.09388511628
0.09403342754
0.0942351073
0.09429059923
0.09480904788
0.09495275468
0.09504515678
0.09554676712
0.09570245445
0.09590655565
0.09601505846
0.0960746333
0.09692175686
0.09696339071
0.09697565436
0.09699776024
0.09774047881
0.09778766334
0.09817864001
0.09831175953
0.09849147499
0.09857264906
0.09871125221
0.09887791425
0.09900147468
0.09919572622
0.0994669497
0.09952510148
0.09958204627
0.09962484986
0.09971265495
0.1006120965
0.1008512676
0.1011275798
0.1012108326
0.1014811024
0.101569593
0.1017235592
0.1021724716
0.1027859822
0.1028600633
0.1030387208
0.1031846777
0.1032553613
0.1034159958
0.1034721062
0.1035360917
0.103777267
0.1043320522
0.104942508
0.1051386669
0.1055372804
0.1063159108
0.1068330407
0.1069755405
0.1070105731
0.1071400493
0.1073523387
0.1075635701
0.1078217402
0.1082727686
0.1082796305
0.1084777713
0.1086494699
0.1086832657
0.1091223806
0.1094443873
0.1097292006
0.1097377613
0.1099918187
0.1100124642
0.1105175912
0.1106047407
0.1106893644
0.1107589453
0.1108380705
0.1109833047
0.1110702083
0.1110948324
0.1115756184
0.1118278205
0.111854434
0.1118685231
0.1120155752
0.112028867
0.1129236147
0.1130213737
0.1135233343
0.1135464013
0.1145366207
0.115197666
0.1153446287
0.1162411124
0.1164857298
0.1165831164
0.1167672053
0.1169267893
0.1169459
0.1170473695
0.1172670498
0.1172764748
0.1174694151
0.1174729019
0.1175187454
0.1177419722
0.1178078875
0.1186552271
0.1192026958
0.1196127459
0.1200038642
0.1200477853
0.1202598363
0.1208019033
0.1209379807
0.1213324964
0.1213403121
0.1215529293
0.1218623593
0.1221092641
0.1223541424
0.1223562434
0.1227431446
0.1229482889
0.1229676753
0.1231314912
0.1232898086
0.1233414412
0.123524949
0.1236579046
0.1237076223
0.1241980717
0.1242299825
0.1243715137
0.1245307922
0.1245347857
0.1246099398
0.1246621385
0.1246995702
0.1248850822
0.1251380593
0.1253353059
0.1256081462
0.1259084493
0.1269579083
0.1270067394
0.1275711358
0.1286929846
0.1290445626
0.1290972084
0.1292742938
0.1293101758
0.1296445131
0.1301831603
0.130428642
0.1309913546
0.1312147826
0.1314744949
0.1319624335
0.1323346198
0.1323426366
0.132373631
0.1324834377
0.1326161176
0.1326277256
0.1326718926
0.1327617168
0.1328680366
0.1333156526
0.1339014769
0.1340536922
0.1348110884
0.1348682046
0.1349546015
0.1362267882
0.1368316114
0.1369714886
0.1370076686
0.1373809576
0.1379233599
0.1380096674
0.1380787194
0.1382250786
0.1383049339
0.1384679824
0.13876459
0.1388926059
0.1397239566
0.1398800611
0.1400359869
0.1404545605
0.1408793628
0.1409455985
0.1409828961
0.1410951763
0.141582191
0.1416013986
0.1417453587
0.1422852576
0.1423053741
0.1426764131
0.1427363902
0.1431461275
0.1431659013
0.1433526874
0.1435889155
0.1436258256
0.1440448463
0.1441261321
0.1443062425
0.1443959028
0.1444449872
0.1449341923
0.1453820914
0.1456099153
0.1456571966
0.1459728926
0.1460224539
0.1467199475
0.1469787955
0.1471073776
0.1474421173
0.1474594027
0.1476350129
0.1479016691
0.1479313523
0.1479464322
0.1487253457
0.1493685246
0.1493756026
0.1503504515
0.1506319195
0.1508449912
0.1510710567
0.1511170715
0.1515185833
0.151520282
0.1516343653
0.1517233253
0.1519446373
0.1520549357
0.152228117
0.1524187773
0.1524384618
0.1524864286
0.1526467055
0.1528911591
0.1530054212
0.15307118
0.1534433514
0.1535237432
0.1538788378
0.1546880752
0.1548228711
0.1548896134
0.1549507827
0.1552452594
0.156209603
0.1570654064
0.1573773026
0.1574110538
0.1575202495
0.1576065868
0.1577580422
0.1577665359
0.1586306244
0.1594258696
0.1596186906
0.1597692817
0.1600010842
0.1601740271
0.1616777927
0.1619370282
0.1623113453
0.1629406214
0.1631607115
0.1637766957
0.1639970988
0.1642389148
0.164529562
0.1654806733
0.1654910594
0.1658476591
0.1660782099
0.1663554162
0.1666142792
0.1670282334
0.1672167778
0.1673824638
0.1674432158
0.1676871032
0.1676874906
0.1678186655
0.167915538
0.1682241708
0.168650955
0.1692363918
0.1695606112
0.1697659642
0.1702440977
0.1704930365
0.1705460846
0.1708391905
0.1708692461
0.171007514
0.1710724235
0.1710742116
0.1711849868
0.1712189466
0.1716419756
0.1718650758
0.171936661
0.1728317589
0.1733703166
0.17339091
0.1737169027
0.1739093214
0.1743736863
0.1744145751
0.1750245243
0.1753286868
0.1753884107
0.1755064726
0.1757817566
0.1764167696
0.1766699702
0.1767150313
0.176908493
0.1769925803
0.1770349294
0.1776239872
0.1782015264
0.1782462895
0.1785098016
0.1785435528
0.178798154
0.1789251119
0.1791154146
0.1792940199
0.1798819453
0.1801536977
0.1802537441
0.1810434014
0.1812534779
0.1817764193
0.1829918176
0.1832434386
0.1836089194
0.1837789416
0.1838977486
0.1840100288
0.1841892898
0.1843757182
0.1847073585
0.184816137
0.1850634515
0.1854643226
0.1854880303
0.1862850636
0.186733827
0.1873655617
0.1873892546
0.1875041872
0.1881397665
0.1896731257
0.1899156272
0.1899231076
0.1908992082
0.1910552084
0.1916170567
0.1917741448
0.1919297725
0.1922067851
0.1935295165
0.1939792037
0.1940412223
0.1943343729
0.1944202483
0.1945503354
0.1953109205
0.1953441054
0.1959478408
0.1965721846
0.1970147192
0.1970783323
0.1977496892
0.1984052509
0.1985227019
0.1987845898
0.1994735897
0.1995949596
0.1996068656
0.1997999549
0.2003773004
0.2009609938
0.2013896406
0.2014927864
0.2023861557
0.2024931163
0.2025318444
0.2025578916
0.2029526383
0.2030937374
0.2035646588
0.2043533772
0.2045864165
0.2047341913
0.2051836699
0.2052317858
0.2057279646
0.2058987617
0.2060634643
0.2063625604
0.20875144
0.2103443742
0.2111663371
0.2112631947
0.2123680115
0.2125189304
0.2129032463
0.2129636854
0.2131052017
0.2137369365
0.2140243948
0.2148126662
0.2151918858
0.2154472321
0.2159608454
0.2173312902
0.217773661
0.2184638083
0.2192633152
0.2197495103
0.2201439589
0.2216000408
0.2222799808
0.2225507796
0.2228068709
0.2233255804
0.2236278951
0.2238140851
0.2243573517
0.2247118503
0.2259022146
0.2262369394
0.226761952
0.2268223614
0.2274253964
0.22799173
0.2287055403
0.2300912738
0.2301484644
0.2303880602
0.2304151654
0.2308066338
0.2312458158
0.2312958688
0.2330851853
0.2334112376
0.2335262299
0.2335701287
0.2347284555
0.2352938354
0.2362600267
0.2365365475
0.2367657572
0.2369130552
0.2372205853
0.238223359
0.2401768267
0.2408738583
0.2412772626
0.2424215227
0.2431710362
0.2432725132
0.2436175942
0.2437400073
0.2463922054
0.2467089742
0.2474312037
0.2485769987
0.2489404231
0.250559181
0.2507556081
0.2508390248
0.25093624
0.2515849769
0.2518103123
0.2519280016
0.2521711886
0.2522543669
0.2523764372
0.2528831363
0.2531870306
0.2545767426
0.2555079162
0.2561153173
0.2565507591
0.2570227981
0.2571555674
0.2573306262
0.2575585246
0.2578448653
0.2592197955
0.260881871
0.263862282
0.2642798722
0.2645075321
0.2646978796
0.2660700679
0.266402185
0.2669313252
0.2670716941
0.2695809305
0.2702927887
0.2715012133
0.2715515792
0.2727348804
0.2728842199
0.2738893032
0.2771494091
0.2772096992
0.2772241831
0.2774040997
0.2809117138
0.2817256153
0.2827349901
0.2831870615
0.2832118869
0.2849215269
0.2851314843
0.2854997814
0.2855932117
0.2871602476
0.2874647379
0.2885371745
0.2889889777
0.2897292674
0.2903134823
0.2903411984
0.2904637754
0.2905176878
0.2909939587
0.2911162078
0.2922721207
0.2931921184
0.2948719263
0.2958721519
0.2971510291
0.2974773645
0.2978768647
0.2981874645
0.2997893691
0.3003650606
0.3005046248
0.300835073
0.3012775481
0.3021231294
0.3056463897
0.3076362014
0.3081284463
0.3083823621
0.3099825382
0.3107135296
0.3110496402
0.3135612905
0.314053148
0.3161931336
0.3182480633
0.319807142
0.3211804926
0.3226986527
0.3233175874
0.3242443204
0.3257995248
0.3262239993
0.3263070881
0.3264377117
0.3268482089
0.3276004493
0.32831496
0.3292683661
0.3298245072
0.3300178945
0.3305043876
0.33141765
0.331512183
0.3336535096
0.3340092301
0.3347784579
0.3360614479
0.3374730051
0.3381130695
0.3398325145
0.3472767472
0.3506248593
0.3516352475
0.3539554179
0.3543893099
0.3551261127
0.3592062294
0.3598653376
0.360912472
0.3617478907
0.3626762629
0.3627044261
0.364244163
0.3653460145
0.3670328259
0.367413342
0.369525522
0.3699654341
0.3703384399
0.3715410829
0.371606946
0.3719238639
0.371963948
0.3744840026
0.3766536117
0.3771955073
0.3786787689
0.3793007433
0.3825359046
0.3827973008
0.3838093579
0.3855260313
0.387835443
0.3880399466
0.3894149363
0.391387403
0.3917888999
0.3939031065
0.3945032656
0.3956491351
0.3969223499
0.401450783
0.4015586078
0.4040498734
0.4044829905
0.4079281092
0.4109660685
0.414542675
0.4151838422
0.4162939191
0.4190734923
0.4200351536
0.4224746525
0.4249871373
0.4262109101
0.4267068803
0.4274088144
0.4277677536
0.4288430214
0.4440602362
0.4446020722
0.444791019
0.44844684
0.4496895373
0.4497823119
0.4519619048
0.4520401657
0.4527625144
0.4537642598
0.454172641
0.4660342634
0.4693468213
0.4774256349
0.4791947603
0.4811895788
0.4829422832
0.4865296483
0.4898164272
0.4949585497
0.4996876121
0.5236596465
0.5262988806
0.52789855
0.5362995267
0.5392186046
0.5520809293
0.5528036356
0.5680280328
0.5716115832
0.5827688575
0.5862101912
0.5862482786
0.6175017357
0.6435131431
0.6498802304
0.6902395487
0.6994122863
0.699586153
0.7053735256
0.731362462
0.7423483729
0.7783472538
