-0.4919048548
-0.4691469073
-0.4612939656
-0.4091687202
-0.3671084642
-0.3211001754
-0.318754673
-0.2913426459
-0.2909988761
-0.2881051004
-0.278075099
-0.2753336132
-0.2603831291
-0.2423761934
-0.2416418046
-0.231612429
-0.2302981764
-0.2267766297
-0.2169886827
-0.1857249141
-0.1849665493
-0.1832513362
-0.1819372177
-0.1681943238
-0.1672416776
-0.1661566049
-0.1650221348
-0.1616782844
-0.1434219331
-0.1426830143
-0.1398505718
-0.1371977627
-0.1281422526
-0.1278489977
-0.1277307123
-0.1194284931
-0.1175042838
-0.1162649319
-0.1141275018
-0.1131229401
-0.1088328138
-0.1070130095
-0.1013389751
-0.09455717355
-0.0930743143
-0.09264876693
-0.08968235552
-0.08445253968
-0.08271342516
-0.07735215873
-0.07672473043
-0.07570403814
-0.07099938393
-0.07052543759
-0.0678313449
-0.0648515448
-0.06267847121
-0.06187236309
-0.05991239473
-0.05971551687
-0.0524992235
-0.05006111041
-0.04906186834
-0.04529020563
-0.04523682594
-0.04427246749
-0.04266510531
-0.03867750242
-0.03828310966
-0.0360060595
-0.03008989058
-0.02825190686
-0.02730037086
-0.02588230185
-0.02380398288
-0.02303624712
-0.02186328731
-0.01669131033
-0.01539797708
-0.01500457898
-0.01482465304
-0.006933957804
0.008481523022
0.01110870019
0.01321040466
0.02225043066
0.02374878153
0.02566531859
0.02908686548
0.03030205332
0.03355839476
0.03708558157
0.03734274954
0.03845311701
0.04230123386
0.04625621811
0.05458172783
0.05596026406
0.05608908087
0.05847617611
0.0605205819
0.06115416437
0.06144884229
0.06391563267
0.06538017094
0.06808348
0.06965538859
0.07639592141
0.07930181175
0.07941057533
0.08322477341
0.08510778099
0.08921310306
0.1003258154
0.1055615991
0.1219327673
0.1222127378
0.1265785694
0.1289109588
0.1293703169
0.1381852627
0.1436229199
0.1542593986
0.1574281603
0.1625358462
0.1658208072
0.1793182194
0.1794489473
0.183795765
0.1883584708
0.1928537488
0.1946860403
0.199909091
0.2004826665
0.2030411661
0.2086506337
0.2178464383
0.2227839828
0.22973755
0.2372023612
0.2426491082
0.2581561208
0.2597078979
0.296582967
0.3182262182
0.3321977556
0.3528115451
0.3873162568
0.4128308594
0.5172153711
