-0.6401299238
-0.628223002
-0.5688589811
-0.5636159182
-0.5558254123
-0.5488838553
-0.5482283235
-0.5472375751
-0.5378872156
-0.5311072469
-0.524471879
-0.515224278
-0.5115355253
-0.508349061
-0.5064499974
-0.4991633892
-0.4962109327
-0.4942364991
-0.486620903
-0.4863263667
-0.4847972691
-0.4796177447
-0.4794870913
-0.4707216918
-0.4703925848
-0.4697577059
-0.4617860913
-0.4609127641
-0.4601983726
-0.4601668715
-0.4553168714
-0.4529704154
-0.450904578
-0.4461835623
-0.4443655908
-0.4389559627
-0.4340210855
-0.4338508248
-0.4173181355
-0.4165208638
-0.4142163396
-0.4128912985
-0.4126977921
-0.412669152
-0.4124253392
-0.4078888297
-0.4069291949
-0.4004043937
-0.3985843956
-0.3975496292
-0.3945458531
-0.3930429816
-0.3918490708
-0.3910272121
-0.3840056956
-0.3822104633
-0.3820008039
-0.381667465
-0.3793733716
-0.379119873
-0.3789130449
-0.3785879612
-0.3785647154
-0.3782737553
-0.3744337261
-0.3702808619
-0.3669980466
-0.3651059866
-0.3642441034
-0.356900692
-0.3567396104
-0.3562629521
-0.3538550436
-0.3509827852
-0.3509281576
-0.3441233635
-0.3412430286
-0.338547647
-0.335537374
-0.3355092108
-0.3348647058
-0.3319472969
-0.3314160109
-0.3276118338
-0.3251031935
-0.3236492276
-0.3224750161
-0.3192094862
-0.3168233335
-0.316722095
-0.3144405484
-0.3129293323
-0.3127732575
-0.311231643
-0.3092024624
-0.3088751137
-0.3053338528
-0.3024968505
-0.3017433882
-0.2994851172
-0.2988439202
-0.2948752344
-0.2913962007
-0.2908290923
-0.2902032435
-0.2898478806
-0.2829321027
-0.281761378
-0.2807871401
-0.2805903554
-0.2763442993
-0.2748596966
-0.2743478417
-0.2738644779
-0.2718338966
-0.2706856132
-0.2700572908
-0.269752562
-0.2693509459
-0.2676326931
-0.2646721005
-0.2632469237
-0.2620414197
-0.2599933445
-0.2573073804
-0.2569704056
-0.2544969916
-0.2537331879
-0.2522561848
-0.2515212297
-0.250965476
-0.2505150437
-0.2497018427
-0.2468775809
-0.2467407435
-0.2461870313
-0.2424315661
-0.2416306883
-0.2404688448
-0.2395379543
-0.2363133729
-0.2349057496
-0.2327029109
-0.2324261069
-0.2319877744
-0.2299991697
-0.2298324555
-0.2295354009
-0.2287939489
-0.2285200357
-0.2266970277
-0.2266662866
-0.2255209982
-0.2249605358
-0.2244877815
-0.2239885628
-0.2235766649
-0.221281305
-0.2212225795
-0.2189072818
-0.218112573
-0.2179024518
-0.2170268148
-0.2163636088
-0.2155389339
-0.215427056
-0.2140550315
-0.2111794502
-0.2111428678
-0.2079584301
-0.2065410465
-0.2058497667
-0.2042783946
-0.2024758011
-0.200483948
-0.1983609349
-0.1974965334
-0.1965851337
-0.1958416551
-0.1957421601
-0.1953887641
-0.1927253455
-0.1924348623
-0.1912189871
-0.190174073
-0.1876983494
-0.185375914
-0.1846848428
-0.1823435277
-0.1821403652
-0.1808727533
-0.1804594994
-0.1801629215
-0.1764823645
-0.1753560156
-0.1750289053
-0.1710821092
-0.1709704846
-0.1698520333
-0.1686387807
-0.166946575
-0.164583385
-0.1640712321
-0.1619312316
-0.1617185026
-0.1616571397
-0.1612000018
-0.160998866
-0.1604834795
-0.1581666768
-0.15701662
-0.1566687077
-0.1539251208
-0.152446717
-0.151786834
-0.1514457017
-0.1509302855
-0.1501583606
-0.1497163177
-0.1473663598
-0.1470384449
-0.1445692927
-0.1439271867
-0.1431162357
-0.1422536522
-0.1418989003
-0.1403131187
-0.1393174827
-0.1391640007
-0.137770921
-0.1375264674
-0.1368406266
-0.1357617527
-0.1356054097
-0.1352015734
-0.1336526275
-0.1325813085
-0.1318022162
-0.1292267293
-0.1291979253
-0.1291876882
-0.1278118938
-0.1276761889
-0.1272848397
-0.1272673756
-0.1266807765
-0.1258948594
-0.1238776296
-0.1219965443
-0.121945776
-0.1197710633
-0.1173163429
-0.117036812
-0.1167458743
-0.1164244786
-0.1157346666
-0.1143832356
-0.1140470207
-0.1139904782
-0.1125673354
-0.1114366278
-0.1110097691
-0.1100522801
-0.1099014208
-0.1092724279
-0.1089015082
-0.108706899
-0.107041277
-0.1028285027
-0.1011666059
-0.1005234867
-0.09998294711
-0.09751253575
-0.09722494334
-0.09662582725
-0.09630241245
-0.09534476697
-0.09507881105
-0.09366509318
-0.09263306111
-0.09198413789
-0.09122090042
-0.09047466516
-0.09046309441
-0.0903647989
-0.08889934421
-0.08816779405
-0.08714868873
-0.08684096485
-0.08618673682
-0.08586792648
-0.08515354246
-0.08493040502
-0.08305420727
-0.0819947198
-0.08169899136
-0.08118870854
-0.08118215948
-0.0810571909
-0.08089233935
-0.07810274512
-0.07808764279
-0.07806523889
-0.07784228027
-0.07763586193
-0.07619185746
-0.07583230734
-0.07402490079
-0.07309619337
-0.07252313942
-0.07229162753
-0.07201904804
-0.07004538178
-0.06960152835
-0.06904249638
-0.06817456335
-0.06707264483
-0.06704241782
-0.0669843033
-0.06484238803
-0.06473576277
-0.06174074858
-0.06152324751
-0.0604467988
-0.06030837446
-0.06029721722
-0.06013854221
-0.05911377817
-0.0589925833
-0.05788103864
-0.05778800324
-0.05750619993
-0.05743614957
-0.05677542463
-0.05651125312
-0.05624381453
-0.05538446829
-0.05483949929
-0.05383112282
-0.05366677791
-0.05323918909
-0.05322364718
-0.05191447213
-0.05154571682
-0.0512816757
-0.05081963167
-0.05080732703
-0.05032792315
-0.05014810339
-0.04946955293
-0.04932745174
-0.04871533066
-0.04869730398
-0.04707830772
-0.04592238367
-0.0453254059
-0.04486101121
-0.04393592849
-0.04257006198
-0.04198361933
-0.04120507836
-0.04058341682
-0.0402161777
-0.04001220688
-0.03980190679
-0.03937384859
-0.03899198771
-0.03842601553
-0.0380509682
-0.03792963177
-0.03666533902
-0.03632067889
-0.03629475459
-0.03582812846
-0.03555829823
-0.03319597989
-0.03306914121
-0.03255808353
-0.03234616295
-0.03140106425
-0.03059779853
-0.03049747646
-0.028831793
-0.02692507394
-0.02683251724
-0.02636963129
-0.02587311342
-0.02578380518
-0.0252669584
-0.0246499069
-0.0246084556
-0.02428876236
-0.02412056178
-0.02374023944
-0.02371026203
-0.02363084257
-0.02230789326
-0.02205222845
-0.02195740864
-0.02174263075
-0.02068804018
-0.01859232038
-0.01797161996
-0.01715925895
-0.01683969051
-0.01670866087
-0.01627257466
-0.0160008911
-0.01595667563
-0.01581403054
-0.01430384442
-0.01372712757
-0.0137231797
-0.01358858682
-0.01345959865
-0.012976164
-0.0129629774
-0.01158044674
-0.01126741711
-0.01105814893
-0.01033548359
-0.009802267887
-0.00972601492
-0.008219896816
-0.008124708198
-0.008089195006
-0.007677645423
-0.007571722381
-0.007483435795
-0.006610097364
-0.006159344222
-0.005155141465
-0.005136491265
-0.004459845833
-0.003998394124
-0.003504718887
-0.003404607996
-0.003000087803
-0.002554903971
-0.002549152123
-0.002167687519
-0.002119624754
-0.001545021078
-0.001423607697
-0.001279088203
-0.001156611135
-0.001067293226
-0.0001553256589
7.68116297e-05
0.0004834842694
0.0005063526332
0.0005250806571
0.001483010477
0.001893815119
0.001944979304
0.002117114607
0.002382142469
0.00265755225
0.002693021903
0.002885343973
0.003648608224
0.004085426219
0.004386584274
0.004423595965
0.00528309308
0.005360715091
0.005367613398
0.006585559342
0.007173444144
0.007190359756
0.007219105493
0.00744360825
0.007474083453
0.008713323623
0.009317475371
0.00985459704
0.009997123852
0.01017468143
0.01069382951
0.01201022789
0.01216915995
0.01297315024
0.01315442007
0.01357187517
0.01398355234
0.0143153863
0.01590248384
0.01616338827
0.01675341837
0.01679203659
0.01718374901
0.01771778427
0.01813219301
0.01839067973
0.01885841601
0.02063955739
0.02133924514
0.02196773887
0.02206834778
0.02272683568
0.02310691401
0.02368354611
0.02378073893
0.02411534451
0.02430295385
0.02436162904
0.02514876239
0.02621408552
0.02724335529
0.02738283575
0.02753787488
0.02847677097
0.03036352806
0.0304764621
0.03143451363
0.03147029877
0.03165770322
0.03219999745
0.03275707737
0.03321831673
0.03363620862
0.03452915698
0.03476553783
0.03600845486
0.03734953329
0.03848115355
0.03939083219
0.04002747685
0.04046355933
0.04086527973
0.0414860025
0.04199501872
0.04218252748
0.04346591979
0.04375377297
0.04456039518
0.04553240165
0.04706745967
0.04735943303
0.04738954082
0.04840764031
0.04866255075
0.0488791801
0.04897163436
0.04928654805
0.05160046741
0.0525127165
0.05376881361
0.05395988747
0.05436339229
0.05450805649
0.05465437472
0.05470518395
0.05524095148
0.05625411496
0.05687135458
0.05746531114
0.05749035627
0.05800353736
0.05912549794
0.05995373055
0.06216732413
0.06221543625
0.0632308498
0.06402982026
0.06410497427
0.06413726509
0.06428838521
0.06468214095
0.06482902169
0.06565632671
0.06584858149
0.06594650447
0.06601496786
0.066868864
0.06760368496
0.06845678389
0.06960174441
0.07004579157
0.07012857497
0.07067830861
0.07103388011
0.07132807374
0.07133223861
0.07140455395
0.07275954634
0.0743201673
0.07437181473
0.07459884882
0.07481188327
0.07519832253
0.07581620663
0.07796200365
0.07914529741
0.07980846614
0.08073885739
0.08111684769
0.08225546032
0.08249484003
0.08260527998
0.08266955614
0.08340716362
0.08393512666
0.08394634724
0.08684955537
0.08752556145
0.08796133101
0.08850324899
0.0888351649
0.08963538706
0.09001238644
0.09028381854
0.09057852626
0.09115824848
0.09180858731
0.09216764569
0.09276586771
0.0933284983
0.09341531247
0.09437909722
0.09470584244
0.09563905746
0.09601859003
0.09833808243
0.09837252647
0.09845276177
0.09848111123
0.09939628094
0.09945953637
0.09971738607
0.09979325533
0.1014974564
0.1018366963
0.1020102352
0.1020925418
0.1051932201
0.1052786633
0.1060443297
0.1067369208
0.1067961007
0.1073951721
0.1088736132
0.1092161015
0.1096772179
0.1102480143
0.1109676659
0.1116584986
0.1120168865
0.1122261807
0.1161412075
0.1161772385
0.1174430549
0.1183438003
0.1189126372
0.1189181805
0.1192829981
0.1194272637
0.1196235269
0.1205632836
0.1207099706
0.1210927963
0.1223913953
0.1227764934
0.1237657368
0.1238291785
0.1240224093
0.1241741702
0.1243391633
0.1251063198
0.1254100502
0.1255115271
0.1255526543
0.1268143356
0.1271622926
0.1272851676
0.1275343895
0.1281255484
0.1283804327
0.1286385208
0.12934044
0.1294440031
0.129908666
0.1300918162
0.1303584576
0.1308991909
0.1336321831
0.133803308
0.1363034695
0.1363641173
0.13740547
0.1375472695
0.1384523064
0.1390474439
0.1405129284
0.1408375353
0.1410977095
0.1413343549
0.1414443552
0.1418588012
0.1427026838
0.1430814862
0.1432380527
0.1443192065
0.1457977146
0.1463284492
0.1465547532
0.1504586339
0.1506528407
0.1508253217
0.1520060748
0.1539269686
0.1540428102
0.1551222354
0.155386284
0.1556762159
0.1561563313
0.1565329283
0.1577874124
0.1596821845
0.16081433
0.1615725905
0.1622243226
0.1633474678
0.1634536684
0.1639862806
0.1654082686
0.1667547822
0.1668641269
0.1673664451
0.1680377871
0.1699757427
0.1707146317
0.171277836
0.1713532358
0.172889024
0.1734876931
0.1736822128
0.1739566177
0.1752590835
0.1756423563
0.1787863672
0.1788973957
0.1797029525
0.180106923
0.1824730635
0.1832271516
0.1848993301
0.1851821244
0.1853372902
0.1862908453
0.1892663091
0.1895830035
0.1900740266
0.1912674755
0.1927684695
0.1929531991
0.1934202164
0.1955926716
0.1961373389
0.1965786666
0.1984404624
0.1988993734
0.1992637366
0.1998298764
0.200219959
0.2009700239
0.2043543011
0.2044502646
0.2051273882
0.2051315159
0.2051950991
0.2075409144
0.2075863928
0.2078346461
0.2089608163
0.2093428373
0.2104774117
0.2123096734
0.2128154337
0.2131028175
0.2137147188
0.2143905163
0.2144279778
0.2145668417
0.2146584988
0.2180644125
0.2183172256
0.2191592604
0.2193326652
0.2224274278
0.2288101763
0.2300168574
0.2309506238
0.2319737524
0.2319923788
0.2360809892
0.2379132807
0.2380480915
0.2380845398
0.2404208928
0.2410158664
0.2410881519
0.2427857816
0.2444126904
0.2458426654
0.2488948256
0.2494349927
0.2503207028
0.2504507303
0.2507755756
0.2521394193
0.2584602833
0.2601545751
0.2702759504
0.2705518305
0.2733101547
0.2786177695
0.2796382606
0.2839064002
0.2839064598
0.2962111533
0.3120620251
0.3128564358
0.3170982003
0.3181428611
0.3217466176
0.329615742
0.3349773586
0.3356823027
0.3367062807
0.3517588079
0.3549568057
0.3566404879
0.3578861952
0.3650461137
0.3947896659
0.3976693451
0.4040300548
0.4451173842
0.4539491236
