-0.138631
-0.138631
-0.120147
-0.120147
-0.120147
-0.120147
-0.120147
-0.120147
-0.120147
-0.120147
-0.120147
-0.120147
-0.120147
-0.120147
-0.120147
-0.120147
-0.101663
-0.101663
-0.101663
-0.101663
-0.101663
-0.101663
-0.101663
-0.101663
-0.101663
-0.101663
-0.101663
-0.101663
-0.101663
-0.101663
-0.101663
-0.101663
-0.0831787
-0.0831787
-0.0831787
-0.0831787
-0.0831787
-0.0831787
-0.0831787
-0.0831787
-0.0831787
-0.0831787
-0.0831787
-0.0831787
-0.0831787
-0.0831787
-0.0831787
-0.0831787
-0.0831787
-0.0831787
-0.0831787
-0.0646945
-0.0646945
-0.0646945
-0.0646945
-0.0646945
-0.0646945
-0.0646945
-0.0646945
-0.0646945
-0.0646945
-0.0646945
-0.0646945
-0.0646945
-0.0646945
-0.0646945
-0.0646945
-0.0646945
-0.0646945
-0.0646945
-0.0462104
-0.0462104
-0.0462104
-0.0462104
-0.0462104
-0.0462104
-0.0462104
-0.0462104
-0.0462104
-0.0462104
-0.0462104
-0.0462104
-0.0462104
-0.0277262
-0.0277262
-0.0277262
-0.0277262
-0.0277262
-0.0277262
-0.00924207
-0.00924207
-0.00924207
-0.00924207
-0.00924207
-0.00924207
-0.00924207
-0.00924207
-0.00924207
0.00924208
0.00924208
0.00924208
0.00924208
0.00924208
0.0277262
0.0277262
0.0277262
0.0277262
0.0277262
0.0462104
0.0462104
0.0462104
0.0462104
0.0462104
0.0462104
0.0646945
0.0646945
0.0646945
0.0831787
0.0831787
0.0831787
0.0831787
0.0831787
0.0831787
0.0831787
0.0831787
0.0831787
0.0831787
0.101663
0.101663
0.101663
0.101663
0.101663
0.101663
0.101663
0.101663
0.120147
0.120147
0.120147
0.120147
0.120147
0.120147
0.120147
0.120147
0.120147
0.120147
0.120147
0.120147
0.120147
0.138631
0.138631
