-0.848795
-0.848795
-0.848795
-0.848795
-0.848795
-0.848795
-0.848795
-0.735622
-0.735622
-0.735622
-0.735622
-0.735622
-0.735622
-0.735622
-0.735622
-0.735622
-0.735622
-0.735622
-0.735622
-0.735622
-0.735622
-0.735622
-0.735622
-0.735622
-0.735622
-0.735622
-0.735622
-0.735622
-0.735622
-0.735622
-0.735622
-0.735622
-0.735622
-0.735622
-0.62245
-0.62245
-0.62245
-0.62245
-0.62245
-0.62245
-0.62245
-0.62245
-0.62245
-0.62245
-0.62245
-0.62245
-0.62245
-0.62245
-0.62245
-0.62245
-0.62245
-0.62245
-0.62245
-0.62245
-0.62245
-0.62245
-0.62245
-0.62245
-0.62245
-0.62245
-0.62245
-0.62245
-0.62245
-0.62245
-0.62245
-0.62245
-0.62245
-0.62245
-0.62245
-0.62245
-0.62245
-0.62245
-0.62245
-0.62245
-0.62245
-0.62245
-0.62245
-0.62245
-0.62245
-0.509277
-0.509277
-0.509277
-0.509277
-0.509277
-0.509277
-0.509277
-0.509277
-0.509277
-0.509277
-0.509277
-0.509277
-0.509277
-0.509277
-0.509277
-0.509277
-0.509277
-0.509277
-0.509277
-0.509277
-0.509277
-0.509277
-0.509277
-0.509277
-0.509277
-0.509277
-0.509277
-0.509277
-0.509277
-0.509277
-0.509277
-0.509277
-0.509277
-0.509277
-0.509277
-0.509277
-0.509277
-0.509277
-0.509277
-0.509277
-0.509277
-0.509277
-0.509277
-0.509277
-0.396104
-0.396104
-0.396104
-0.396104
-0.396104
-0.396104
-0.396104
-0.396104
-0.396104
-0.396104
-0.396104
-0.396104
-0.396104
-0.396104
-0.396104
-0.396104
-0.396104
-0.396104
-0.396104
-0.396104
-0.396104
-0.396104
-0.396104
-0.396104
-0.396104
-0.396104
-0.396104
-0.396104
-0.396104
-0.396104
-0.396104
-0.396104
-0.396104
-0.396104
-0.396104
-0.396104
-0.396104
-0.396104
-0.396104
-0.396104
-0.396104
-0.396104
-0.396104
-0.396104
-0.396104
-0.396104
-0.396104
-0.396104
-0.396104
-0.396104
-0.396104
-0.396104
-0.396104
-0.396104
-0.396104
-0.396104
-0.396104
-0.396104
-0.396104
-0.396104
-0.396104
-0.282932
-0.282932
-0.282932
-0.282932
-0.282932
-0.282932
-0.282932
-0.282932
-0.282932
-0.282932
-0.282932
-0.282932
-0.282932
-0.282932
-0.282932
-0.282932
-0.282932
-0.282932
-0.282932
-0.282932
-0.282932
-0.282932
-0.282932
-0.282932
-0.282932
-0.282932
-0.282932
-0.282932
-0.282932
-0.282932
-0.282932
-0.282932
-0.282932
-0.282932
-0.282932
-0.282932
-0.282932
-0.282932
-0.282932
-0.282932
-0.282932
-0.282932
-0.282932
-0.282932
-0.282932
-0.282932
-0.282932
-0.282932
-0.282932
-0.282932
-0.282932
-0.282932
-0.282932
-0.282932
-0.282932
-0.282932
-0.282932
-0.282932
-0.282932
-0.282932
-0.282932
-0.282932
-0.282932
-0.282932
-0.282932
-0.282932
-0.282932
-0.282932
-0.282932
-0.282932
-0.169759
-0.169759
-0.169759
-0.169759
-0.169759
-0.169759
-0.169759
-0.169759
-0.169759
-0.169759
-0.169759
-0.169759
-0.169759
-0.169759
-0.169759
-0.169759
-0.169759
-0.169759
-0.169759
-0.169759
-0.169759
-0.169759
-0.169759
-0.169759
-0.169759
-0.169759
-0.169759
-0.169759
-0.169759
-0.169759
-0.169759
-0.169759
-0.169759
-0.169759
-0.169759
-0.169759
-0.169759
-0.169759
-0.169759
-0.169759
-0.169759
-0.169759
-0.169759
-0.169759
-0.169759
-0.169759
-0.169759
-0.169759
-0.169759
-0.169759
-0.169759
-0.169759
-0.169759
-0.169759
-0.169759
-0.169759
-0.169759
-0.169759
-0.169759
-0.169759
-0.169759
-0.169759
-0.169759
-0.169759
-0.169759
-0.169759
-0.169759
-0.169759
-0.169759
-0.169759
-0.169759
-0.169759
-0.169759
-0.169759
-0.169759
-0.0565863
-0.0565863
-0.0565863
-0.0565863
-0.0565863
-0.0565863
-0.0565863
-0.0565863
-0.0565863
-0.0565863
-0.0565863
-0.0565863
-0.0565863
-0.0565863
-0.0565863
-0.0565863
-0.0565863
-0.0565863
-0.0565863
-0.0565863
-0.0565863
-0.0565863
-0.0565863
-0.0565863
-0.0565863
-0.0565863
-0.0565863
-0.0565863
-0.0565863
-0.0565863
-0.0565863
-0.0565863
-0.0565863
-0.0565863
-0.0565863
-0.0565863
-0.0565863
-0.0565863
-0.0565863
-0.0565863
-0.0565863
-0.0565863
-0.0565863
-0.0565863
-0.0565863
-0.0565863
-0.0565863
-0.0565863
-0.0565863
-0.0565863
-0.0565863
-0.0565863
-0.0565863
-0.0565863
-0.0565863
-0.0565863
-0.0565863
-0.0565863
-0.0565863
-0.0565863
-0.0565863
-0.0565863
-0.0565863
-0.0565863
-0.0565863
-0.0565863
-0.0565863
-0.0565863
-0.0565863
-0.0565863
-0.0565863
-0.0565863
-0.0565863
-0.0565863
-0.0565863
-0.0565863
-0.0565863
-0.0565863
-0.0565863
-0.0565863
-0.0565863
-0.0565863
-0.0565863
-0.0565863
-0.0565863
-0.0565863
-0.0565863
-0.0565863
-0.0565863
-0.0565863
-0.0565863
-0.0565863
-0.0565863
-0.0565863
-0.0565863
-0.0565863
-0.0565863
-0.0565863
-0.0565863
-0.0565863
-0.0565863
-0.0565863
-0.0565863
-0.0565863
-0.0565863
-0.0565863
-0.0565863
-0.0565863
-0.0565863
-0.0565863
-0.0565863
-0.0565863
-0.0565863
-0.0565863
-0.0565863
-0.0565863
-0.0565863
-0.0565863
-0.0565863
-0.0565863
-0.0565863
-0.0565863
-0.0565863
-0.0565863
-0.0565863
-0.0565863
-0.0565863
-0.0565863
-0.0565863
-0.0565863
-0.0565863
-0.0565863
-0.0565863
-0.0565863
-0.0565863
-0.0565863
-0.0565863
-0.0565863
-0.0565863
-0.0565863
-0.0565863
-0.0565863
-0.0565863
-0.0565863
-0.0565863
-0.0565863
-0.0565863
-0.0565863
0.0565864
0.0565864
0.0565864
0.0565864
0.0565864
0.0565864
0.0565864
0.0565864
0.0565864
0.0565864
0.0565864
0.0565864
0.0565864
0.0565864
0.0565864
0.0565864
0.0565864
0.0565864
0.0565864
0.0565864
0.0565864
0.0565864
0.0565864
0.0565864
0.0565864
0.0565864
0.0565864
0.0565864
0.0565864
0.0565864
0.0565864
0.0565864
0.0565864
0.0565864
0.0565864
0.0565864
0.0565864
0.0565864
0.0565864
0.0565864
0.0565864
0.0565864
0.0565864
0.0565864
0.0565864
0.0565864
0.0565864
0.0565864
0.0565864
0.0565864
0.0565864
0.0565864
0.0565864
0.0565864
0.0565864
0.0565864
0.0565864
0.0565864
0.0565864
0.0565864
0.0565864
0.0565864
0.0565864
0.0565864
0.0565864
0.0565864
0.0565864
0.0565864
0.0565864
0.0565864
0.0565864
0.0565864
0.0565864
0.0565864
0.0565864
0.0565864
0.0565864
0.0565864
0.0565864
0.0565864
0.0565864
0.0565864
0.0565864
0.0565864
0.0565864
0.0565864
0.0565864
0.0565864
0.0565864
0.0565864
0.0565864
0.0565864
0.0565864
0.0565864
0.0565864
0.0565864
0.0565864
0.0565864
0.0565864
0.0565864
0.0565864
0.0565864
0.0565864
0.0565864
0.0565864
0.0565864
0.0565864
0.0565864
0.0565864
0.0565864
0.0565864
0.0565864
0.0565864
0.0565864
0.0565864
0.0565864
0.0565864
0.0565864
0.0565864
0.0565864
0.0565864
0.0565864
0.0565864
0.0565864
0.0565864
0.0565864
0.0565864
0.0565864
0.0565864
0.0565864
0.0565864
0.0565864
0.0565864
0.0565864
0.0565864
0.0565864
0.0565864
0.0565864
0.0565864
0.0565864
0.0565864
0.169759
0.169759
0.169759
0.169759
0.169759
0.169759
0.169759
0.169759
0.169759
0.169759
0.169759
0.169759
0.169759
0.169759
0.169759
0.169759
0.169759
0.169759
0.169759
0.169759
0.169759
0.169759
0.169759
0.169759
0.169759
0.169759
0.169759
0.169759
0.169759
0.169759
0.169759
0.169759
0.169759
0.169759
0.169759
0.169759
0.169759
0.169759
0.169759
0.169759
0.169759
0.169759
0.169759
0.169759
0.169759
0.169759
0.169759
0.169759
0.169759
0.169759
0.169759
0.169759
0.169759
0.169759
0.169759
0.169759
0.169759
0.169759
0.169759
0.169759
0.169759
0.169759
0.169759
0.169759
0.169759
0.169759
0.169759
0.169759
0.169759
0.169759
0.169759
0.169759
0.169759
0.169759
0.169759
0.169759
0.169759
0.169759
0.169759
0.169759
0.169759
0.169759
0.169759
0.169759
0.169759
0.169759
0.169759
0.282932
0.282932
0.282932
0.282932
0.282932
0.282932
0.282932
0.282932
0.282932
0.282932
0.282932
0.282932
0.282932
0.282932
0.282932
0.282932
0.282932
0.282932
0.282932
0.282932
0.282932
0.282932
0.282932
0.282932
0.282932
0.282932
0.282932
0.282932
0.282932
0.282932
0.282932
0.282932
0.282932
0.282932
0.282932
0.282932
0.282932
0.282932
0.282932
0.282932
0.282932
0.282932
0.282932
0.282932
0.282932
0.282932
0.282932
0.282932
0.282932
0.282932
0.282932
0.282932
0.282932
0.282932
0.282932
0.282932
0.282932
0.282932
0.282932
0.282932
0.282932
0.282932
0.282932
0.282932
0.396104
0.396104
0.396104
0.396104
0.396104
0.396104
0.396104
0.396104
0.396104
0.396104
0.396104
0.396104
0.396104
0.396104
0.396104
0.396104
0.396104
0.396104
0.396104
0.396104
0.396104
0.396104
0.396104
0.396104
0.396104
0.396104
0.396104
0.396104
0.396104
0.396104
0.396104
0.396104
0.396104
0.396104
0.396104
0.396104
0.396104
0.396104
0.509277
0.509277
0.509277
0.509277
0.509277
0.509277
0.509277
0.509277
0.509277
0.509277
0.509277
0.509277
0.509277
0.509277
0.509277
0.509277
0.509277
0.509277
0.509277
0.509277
0.509277
0.509277
0.509277
0.509277
0.509277
0.509277
0.509277
0.509277
0.509277
0.62245
0.62245
0.62245
0.62245
