-0.2912611067
-0.2873314619
-0.2714683712
-0.2678952813
-0.2634277046
-0.256085366
-0.2459847033
-0.2301045805
-0.2265995145
-0.2240992039
-0.2213172019
-0.2109011412
-0.206741184
-0.1971667707
-0.1961448938
-0.1953074485
-0.192839548
-0.1895749271
-0.1820921004
-0.181113869
-0.1787383705
-0.1755258739
-0.1725576371
-0.1633182913
-0.163045451
-0.1630155146
-0.1613482237
-0.1606396437
-0.1589110494
-0.1548130363
-0.1528913528
-0.1524910033
-0.152437225
-0.1518187374
-0.1477973163
-0.1415365338
-0.1409854442
-0.1367051601
-0.135255307
-0.1321113408
-0.126742214
-0.1243656576
-0.1169463322
-0.1129035875
-0.1120830178
-0.1105574891
-0.1075260043
-0.1038207933
-0.1023192704
-0.1015838385
-0.101148352
-0.09978310019
-0.09053760022
-0.08702483773
-0.085443452
-0.08002366871
-0.07949729264
-0.07454308122
-0.07401813567
-0.07156461477
-0.07120794058
-0.06466466188
-0.0637460053
-0.05892155319
-0.05358356237
-0.05069678649
-0.04938190803
-0.04590814561
-0.04517474025
-0.04065756127
-0.0400269255
-0.03893706948
-0.03474197909
-0.03458039835
-0.03454096988
-0.03013029136
-0.02879164927
-0.02289088257
-0.01931962557
-0.01694846898
-0.01262918767
-0.002960273763
0.0004400676698
0.00146972097
0.004705359228
0.006766950712
0.007580463309
0.0143181812
0.0150965564
0.01731967553
0.01781030558
0.02090379782
0.02159514837
0.03274603561
0.03564016894
0.03889097273
0.04139079526
0.04214720428
0.04438395053
0.04523069784
0.04888825491
0.05472555384
0.06282977015
0.06324904412
0.06791645288
0.0711433664
0.07226380706
0.07435330749
0.07655097544
0.07911136746
0.0988760218
0.1086781919
0.1109709367
0.1308000386
0.1362110525
0.1375916898
0.1455111057
0.1596031487
0.1641470343
0.1745335758
0.1774392724
0.1794694066
0.1812130809
0.1892862171
0.1917007565
0.1923660785
0.193403393
0.1990822703
0.1997030377
0.2008488178
0.2163527161
0.2169962823
0.2222300023
0.2229587585
0.2236450762
0.2237490267
0.2271609008
0.2323251814
0.2345737964
0.2442335635
0.2502686679
0.2649208307
0.2695887387
0.2712142467
0.2737956941
0.2748740017
0.2806904912
0.3084759712
0.355655551
0.3911433816
