-0.7158303857
-0.6916664839
-0.6267318726
-0.6230648756
-0.6195016503
-0.6130990386
-0.588847816
-0.5764382482
-0.5751925707
-0.5534744859
-0.5430121422
-0.5372006893
-0.5339480042
-0.5273298025
-0.5208570361
-0.5097103119
-0.506919384
-0.4961278439
-0.4941760898
-0.4915271699
-0.4846629202
-0.480919987
-0.4800807536
-0.4783008695
-0.4742127359
-0.4700359404
-0.4663024545
-0.4641428292
-0.4633128345
-0.4610650837
-0.4428769946
-0.4420362115
-0.441401124
-0.4353985488
-0.4342816472
-0.4320269823
-0.4235086739
-0.4184779823
-0.4182046652
-0.4170858264
-0.4170204699
-0.4075038433
-0.4051077962
-0.4036930501
-0.4010473192
-0.3983269036
-0.397872746
-0.393248409
-0.3932107091
-0.3909888864
-0.3907297552
-0.3894566596
-0.3884017766
-0.3862682879
-0.3838695884
-0.3826116323
-0.3809277713
-0.3790248036
-0.3787840009
-0.3772720397
-0.37612167
-0.3724327981
-0.3708995283
-0.370495379
-0.3701940477
-0.3694544137
-0.3678001761
-0.3643612564
-0.3639864326
-0.3637990355
-0.363748908
-0.363188237
-0.3629331291
-0.362329036
-0.3578029275
-0.3576171994
-0.3526191711
-0.3502397835
-0.3493822813
-0.3467666507
-0.3449133337
-0.3444260657
-0.3437122107
-0.343236655
-0.341924876
-0.3386708796
-0.3383851051
-0.3351010978
-0.3334827423
-0.332190156
-0.3300333321
-0.3281294107
-0.3261454999
-0.3252375126
-0.3222592771
-0.3198096454
-0.3194049001
-0.3159874976
-0.3121236861
-0.3058625162
-0.3030441701
-0.3029876053
-0.3000699878
-0.2995537221
-0.2991863191
-0.2975567877
-0.297539562
-0.2974644601
-0.2962719798
-0.2958678603
-0.293527782
-0.2899650931
-0.2895444036
-0.28929919
-0.2854135633
-0.2844949663
-0.2830794752
-0.2797260582
-0.2784461677
-0.278300941
-0.2774814963
-0.2761899233
-0.2760632634
-0.2748168707
-0.2746429741
-0.2735638618
-0.2731722891
-0.273114413
-0.2712799609
-0.2703801095
-0.2702974677
-0.2684771419
-0.2639107704
-0.2630810142
-0.2604090571
-0.259098798
-0.2584984303
-0.2567007542
-0.2563377619
-0.2545304
-0.2543922365
-0.2506211996
-0.2497202456
-0.2493085265
-0.2479946166
-0.2466564775
-0.2460292727
-0.2459897995
-0.2450698316
-0.2429729402
-0.2424579114
-0.2408299595
-0.2401212454
-0.2399995476
-0.2398960888
-0.2347386628
-0.2347249538
-0.2346403003
-0.2326830626
-0.2324854583
-0.2322621197
-0.2304667085
-0.2299222797
-0.2249114513
-0.2241320014
-0.2229491323
-0.222596243
-0.219947651
-0.2160360068
-0.2152186036
-0.215036124
-0.2118681222
-0.2114370465
-0.211108163
-0.210287571
-0.2101508677
-0.2099790424
-0.2093803883
-0.2093665302
-0.2089306712
-0.2085511833
-0.2074034214
-0.2070193887
-0.2051906139
-0.2022461593
-0.1986973882
-0.1969131827
-0.1949040741
-0.1939205229
-0.1911204308
-0.1899733245
-0.1893591881
-0.1884392947
-0.1882115602
-0.1876596659
-0.1874948293
-0.1863821
-0.1849454343
-0.1835838556
-0.1830619723
-0.1826533973
-0.1804098338
-0.1783437133
-0.1774289012
-0.1770448387
-0.1764249504
-0.1761547327
-0.1760267019
-0.1738323718
-0.1725575626
-0.1724399626
-0.1717238277
-0.1710888594
-0.1667792052
-0.1659626663
-0.1620258987
-0.1607287377
-0.1586004645
-0.1585977077
-0.1585140526
-0.1572888047
-0.1564565748
-0.1559436917
-0.1556240767
-0.1542129219
-0.1533729583
-0.1527539641
-0.1524327844
-0.1517398804
-0.1475838125
-0.1475087106
-0.1466173977
-0.1456660181
-0.1448099166
-0.1436931193
-0.1429028362
-0.1410605162
-0.1386703253
-0.1377571225
-0.1375864148
-0.136631161
-0.1361449361
-0.133973226
-0.1309697032
-0.1304607093
-0.1289994717
-0.1281627566
-0.1275672913
-0.1270373315
-0.1264421493
-0.1258224398
-0.1251898408
-0.123661302
-0.1236027256
-0.1234009564
-0.1232586652
-0.1211766973
-0.1211255118
-0.1206700355
-0.1205824688
-0.1201089323
-0.1200695932
-0.118917115
-0.1181831956
-0.1136741489
-0.1117642298
-0.1086973026
-0.1084814221
-0.1083276421
-0.1075687408
-0.1070195138
-0.1063425168
-0.1060455292
-0.1056797653
-0.1055497527
-0.1046514809
-0.1039537415
-0.1028261483
-0.09797018021
-0.09716903418
-0.09513220936
-0.09486854821
-0.09193412215
-0.09171362221
-0.09128814936
-0.0898815766
-0.08973933011
-0.08919677138
-0.0890289247
-0.08851224929
-0.08793769777
-0.08769124746
-0.08746945858
-0.08700437099
-0.08645122498
-0.08380836993
-0.08380660415
-0.08299806714
-0.08289214969
-0.08119985461
-0.08018972725
-0.08012977242
-0.08012200147
-0.07961580157
-0.07849580795
-0.07769729197
-0.07721489668
-0.07615412027
-0.07612220943
-0.07582345605
-0.07561068237
-0.07469816506
-0.07314097881
-0.07279705256
-0.07223331928
-0.07133638114
-0.07088381052
-0.07065910101
-0.07018419355
-0.06957554072
-0.06848731637
-0.0663106665
-0.06582120061
-0.06524138153
-0.06480693817
-0.06358332932
-0.06334730983
-0.06315734237
-0.06295093894
-0.0617999956
-0.06117203832
-0.06113914773
-0.0602263622
-0.05916627124
-0.05871361494
-0.05865796283
-0.05828184634
-0.05799939856
-0.05748669803
-0.05745261535
-0.05629625544
-0.05503774807
-0.05468543619
-0.05454108864
-0.05313152075
-0.05232646316
-0.05209251493
-0.0520846881
-0.05178951845
-0.04963824898
-0.0492853038
-0.04798829928
-0.04778207466
-0.04715473577
-0.04664891958
-0.04594158381
-0.04582223296
-0.04564793035
-0.04557317495
-0.04516144842
-0.04485465959
-0.04402779415
-0.04390442744
-0.04385608062
-0.04195938632
-0.04059490934
-0.03999897093
-0.03828395158
-0.03759148344
-0.03711572289
-0.03694588318
-0.03692273051
-0.03670265526
-0.03553859144
-0.03223380446
-0.03215526789
-0.03129754961
-0.03090212494
-0.03074965626
-0.03058703989
-0.03007098287
-0.02884788997
-0.02788387239
-0.02776893042
-0.02655229717
-0.02638522349
-0.02592007257
-0.0258786846
-0.02539566904
-0.02521574683
-0.02477006055
-0.02472728677
-0.02411377057
-0.02295084856
-0.02278079279
-0.02218200453
-0.02150383219
-0.0214269422
-0.02129382268
-0.02081118338
-0.02055918612
-0.02042744495
-0.01965292729
-0.01806844026
-0.01793758571
-0.01692855544
-0.01602838561
-0.01593622938
-0.01538512576
-0.01468542684
-0.01368567813
-0.01293435413
-0.01242225338
-0.01241004094
-0.01227457076
-0.01217959076
-0.01215319522
-0.01174330991
-0.01067069545
-0.01056612656
-0.01030871458
-0.01030316856
-0.01007195096
-0.01004013605
-0.009369659238
-0.009012386203
-0.0089841187
-0.00822380092
-0.007795013022
-0.00705447793
-0.006949654315
-0.006286741234
-0.005931700114
-0.005822150037
-0.005409090314
-0.004919017665
-0.00443998538
-0.00207358296
-0.001706135343
-0.00165739865
-0.001338689355
-0.001213307143
-0.000817166816
-0.0007823405904
-0.0007217272068
0.0003661786905
0.0009969524108
0.001022140612
0.001268925495
0.001582139987
0.003430299228
0.0034326897
0.003778552869
0.00463472819
0.004751740489
0.005710943602
0.006632362492
0.00682624476
0.007632766385
0.007772351615
0.008147703484
0.00846619159
0.008503980003
0.01014553849
0.01055801008
0.01179869752
0.01245160587
0.0127818929
0.01285838336
0.01349538844
0.01455206797
0.01486570761
0.01525607519
0.01611581817
0.01691511646
0.01704178192
0.01802828908
0.01834711246
0.01870982908
0.01888203807
0.01974256895
0.02093438804
0.02111663111
0.02220543101
0.0222742334
0.02290312201
0.02409756929
0.02414647304
0.02495439351
0.02558189072
0.02633654512
0.02683984116
0.02694532461
0.02722753957
0.0272667855
0.0275049936
0.02871073037
0.02880703285
0.02900921367
0.02940867469
0.03014896996
0.03055953421
0.03103484958
0.03180875257
0.03185786307
0.0319933258
0.03391710669
0.03456943482
0.03546928987
0.03836787865
0.03861378506
0.03872918338
0.0387535207
0.03904619068
0.03990937024
0.04045163095
0.04072399437
0.04114215448
0.04116369784
0.04200797901
0.04232720286
0.04268486798
0.04277926311
0.04332674295
0.04383956641
0.04438158497
0.04452749342
0.04454002529
0.04465768859
0.04501610622
0.04551814124
0.04627202451
0.04643449932
0.04643486813
0.0470578596
0.04719742015
0.04763105139
0.04893992469
0.05006514117
0.05006725714
0.05006891862
0.05075216666
0.05120918527
0.05318089202
0.05323221907
0.0534049049
0.05399023369
0.05491913855
0.05497443303
0.05501104519
0.05542445555
0.05581732839
0.05668092892
0.05731980875
0.05744465441
0.0576797016
0.05808061734
0.05848872662
0.05859556422
0.05875682086
0.05903554335
0.0590691492
0.05957472324
0.06147161126
0.06174984947
0.06218077615
0.06283529103
0.06450835615
0.06518066674
0.06599269807
0.06658292562
0.06709880382
0.06724884361
0.06739538163
0.0678864643
0.06830248982
0.0687340647
0.06877027452
0.06901628524
0.0700276047
0.07011966407
0.07068483531
0.07169702649
0.07243650407
0.07297398895
0.07341771573
0.07343292981
0.07394324988
0.07439114898
0.07472079992
0.07496988028
0.0753267929
0.07546215504
0.07814831287
0.07949926704
0.07958647609
0.07961896062
0.08158224821
0.08219055831
0.08236332983
0.08329422772
0.08339013159
0.08490817994
0.0852810666
0.0853132382
0.08604136854
0.08714614064
0.08933706582
0.08964515477
0.08980163187
0.09111381322
0.09175611287
0.09304126352
0.09328965098
0.09342156351
0.09373576194
0.09493366629
0.09608001262
0.0968966186
0.09700363129
0.09782546759
0.0981804505
0.09871381521
0.09929754585
0.09950552136
0.09965682775
0.1011899486
0.1023581401
0.102664344
0.1026855037
0.1029902175
0.1032412425
0.1034868285
0.1065382659
0.1080719382
0.1090568528
0.1097154021
0.1105548814
0.1121275052
0.1121456549
0.1126654819
0.1131090522
0.1134386733
0.1161254793
0.118084766
0.1185132861
0.1191005483
0.1196410283
0.1203977689
0.1216657981
0.1226335615
0.1236352399
0.1245156899
0.1250358671
0.1255447268
0.1255577952
0.1265206635
0.1266898513
0.1274436563
0.1274589002
0.1276299953
0.1291306168
0.1299707741
0.1300446987
0.1302569658
0.1303085387
0.1316774189
0.1329938322
0.1334485114
0.1336747557
0.1364866495
0.1372196376
0.137817964
0.1383619159
0.1389447749
0.1391979605
0.1394587606
0.1396633387
0.1400003433
0.1409201622
0.1416142136
0.1416271329
0.141982466
0.1423062384
0.1429293901
0.1431459039
0.1433197558
0.1452192813
0.1456578374
0.1461799145
0.1464892477
0.1466129869
0.1478049457
0.1485487372
0.1493514478
0.1498238593
0.1499705911
0.1505796313
0.1509132236
0.1512063742
0.1521131694
0.1538465172
0.1543289274
0.1554267853
0.1559606791
0.1594977081
0.1603278667
0.1611607224
0.1615396142
0.1619926244
0.1624910682
0.1630888134
0.1644486487
0.1652760357
0.1653928161
0.1656499058
0.1658907831
0.1660375893
0.1670657396
0.1686855853
0.1687922776
0.1703761667
0.1723438948
0.1743264049
0.174711898
0.1750176698
0.1778614968
0.1780542582
0.1802485287
0.1807850897
0.183734864
0.1838987768
0.1845416874
0.1845470816
0.1848261058
0.1860859394
0.1864226609
0.1867865771
0.1873265952
0.1884785295
0.1889060289
0.1897406876
0.1898037195
0.1904227138
0.1962688416
0.1972126067
0.1972510964
0.1973775476
0.1980484575
0.1989326924
0.1998805255
0.2000175118
0.2020530254
0.2021791339
0.2031523287
0.2039906532
0.2053287625
0.2079303116
0.2086541802
0.2108701319
0.21249865
0.2131306827
0.2135768533
0.2137616426
0.2146119326
0.2154829949
0.215786472
0.2170887887
0.2184963524
0.2185549885
0.2202177644
0.2231277376
0.22447519
0.224672243
0.2279593349
0.2280311733
0.2295201868
0.2313505858
0.2343531698
0.2357537597
0.2361059636
0.2376733571
0.2384528965
0.2392218411
0.2430258095
0.2448952496
0.2449394912
0.2453745604
0.2456192374
0.245964244
0.2460365444
0.2468168586
0.2490864396
0.2492619008
0.2513855994
0.2518368363
0.2520163357
0.252252847
0.2547464669
0.2558564544
0.2576239705
0.2577370703
0.2579266429
0.2596867979
0.2604943514
0.264839977
0.2666437924
0.2733178139
0.2737551033
0.2760306001
0.2779046297
0.2787886262
0.2801073492
0.2820156813
0.286747843
0.2888146341
0.2912338078
0.2948330939
0.2971200943
0.3023748398
0.3099870682
0.3125002384
0.3209797144
0.3270862699
0.3351849914
0.3360980451
0.3406219482
0.3411218822
0.3428474665
0.3435229659
0.3472722769
0.3597017527
0.360509783
0.3648347855
0.3862449229
0.3982190192
0.4032567143
0.4466888905
0.5084401369
0.6296806335
