-0.0499939
-0.0499939
-0.0499939
-0.0499939
-0.0499939
-0.0499939
-0.0499939
-0.0499939
-0.0499939
-0.0499939
-0.0499939
-0.0499939
-0.0499939
-0.0499939
-0.0499939
-0.0499939
-0.0499939
-0.0499939
-0.0499939
-0.0499939
-0.0499939
-0.0499939
-0.0499939
-0.0499939
-0.0499939
-0.0499939
-0.0499939
-0.0499939
-0.0499939
-0.0499939
-0.0499939
-0.0499939
-0.0499939
-0.0499939
-0.0499939
-0.0499939
-0.0499939
-0.0499939
-0.0499939
-0.0499939
-0.0499939
-0.0499939
-0.0499939
-0.0499939
-0.0499939
-0.0499939
-0.0499939
-0.0499939
-0.0499939
-0.0499939
-0.0499939
-0.0499939
-0.0499939
-0.0499939
-0.0499939
-0.0499939
-0.0499939
-0.0499939
-0.0499939
-0.0499939
-0.0499939
-0.0499939
-0.0499939
-0.0499939
-0.0499939
-0.0499939
-0.0499939
-0.0499939
-0.0499939
-0.0499939
-0.0499939
-0.0499939
-0.0499939
-0.0499939
-0.0499939
-0.0499939
-0.0499939
-0.0499939
-0.0499939
-0.0499939
-0.0499939
-0.0499939
-0.0499939
-0.0499939
-0.0499939
-0.0499939
-0.0499939
-0.0499939
-0.0499939
-0.0499939
-0.0499939
-0.0499939
-0.0499939
-0.0499939
-0.0499939
-0.0499939
-0.0499939
-0.0499939
-0.0499939
-0.0499939
-0.0499939
-0.0499939
-0.0499939
-0.0499939
-0.0499939
-0.0499939
-0.0499939
-0.0499939
-0.0499939
-0.0499939
-0.0499939
-0.0499939
-0.0499939
-0.0499939
-0.0499939
-0.0499939
-0.0499939
-0.0499939
-0.0499939
-0.0499939
-0.0499939
-0.0499939
-0.0499939
-0.0499939
-0.0499939
-0.0499939
-0.0499939
-0.0499939
-0.0499939
-0.0499939
-0.0499939
-0.0499939
-0.0499939
-0.0499939
-0.0499939
-0.0499939
-0.0499939
-0.0499939
-0.0499939
-0.0499939
-0.0499939
-0.0499939
-0.0499939
-0.0499939
-0.0499939
-0.0499939
-0.0499939
-0.0499939
-0.0499939
-0.0499939
-0.0499939
-0.0499939
-0.0499939
-0.0499939
-0.0499939
-0.0499939
-0.0499939
-0.0499939
-0.0499939
-0.0499939
-0.0499939
-0.0499939
-0.0499939
-0.0499939
-0.0499939
-0.0499939
-0.0499939
-0.0499939
-0.0499939
-0.0499939
-0.0499939
-0.0499939
-0.0499939
-0.0499939
-0.0499939
-0.0499939
-0.0499939
-0.0499939
-0.0499939
-0.0499939
-0.0499939
-0.0499939
-0.0499939
-0.0499939
-0.0499939
-0.0499939
-0.0499939
-0.0499939
-0.0499939
-0.0499939
-0.0499939
-0.0499939
-0.0499939
-0.0499939
-0.0499939
-0.0499939
-0.0499939
-0.0499939
-0.0499939
-0.0499939
-0.0499939
-0.0499939
-0.0499939
-0.0499939
-0.0499939
-0.0499939
-0.0499939
-0.0499939
-0.0499939
-0.0499939
-0.0499939
-0.0499939
-0.0499939
-0.0499939
-0.0499939
-0.0499939
-0.0499939
-0.0499939
-0.0499939
-0.0499939
-0.0499939
-0.0499939
-0.0499939
-0.0499939
-0.0499939
-0.0499939
-0.0499939
-0.0499939
-0.0499939
-0.0499939
-0.0499939
-0.0499939
-0.0499939
-0.0499939
-0.0499939
-0.0499939
-0.0499939
-0.0499939
-0.0499939
-0.0499939
-0.0499939
-0.0499939
-0.0499939
-0.0499939
-0.0499939
-0.0499939
-0.0499939
-0.0499939
-0.0499939
-0.0499939
-0.0499939
-0.0499939
-0.0499939
-0.0499939
-0.0499939
-0.0499939
-0.0499939
-0.0499939
-0.0499939
-0.0499939
-0.0499939
-0.0499939
-0.0499939
-0.0499939
-0.0499939
-0.0499939
-0.0499939
-0.0499939
-0.0499939
-0.0499939
-0.0499939
-0.0499939
-0.0499939
-0.0499939
-0.0499939
-0.0499939
-0.0499939
-0.0499939
-0.0499939
-0.0499939
-0.0499939
-0.0499939
-0.0499939
-0.0499939
-0.0499939
-0.0499939
-0.0499939
-0.0499939
-0.0499939
-0.0499939
-0.0499939
-0.0499939
-0.0499939
-0.0499939
-0.0499939
-0.0499939
-0.0499939
-0.0499939
-0.0499939
-0.0499939
-0.0499939
-0.0499939
-0.0499939
-0.0499939
-0.0499939
-0.0499939
-0.0499939
-0.0499939
-0.0499939
-0.0499939
-0.0499939
-0.0499939
-0.0499939
-0.0499939
-0.0499939
-0.0499939
-0.0499939
-0.0499939
-0.0499939
-0.0499939
-0.0499939
-0.0499939
-0.0499939
-0.0499939
-0.0499939
-0.0499939
-0.0499939
-0.0499939
-0.0499939
-0.0499939
-0.0499939
-0.0499939
-0.0499939
-0.0499939
-0.0499939
-0.0499939
-0.0499939
-0.0499939
-0.0499939
-0.0499939
-0.0499939
-0.0499939
-0.0499939
-0.0499939
-0.0499939
-0.0499939
-0.0499939
-0.0499939
-0.0499939
-0.0499939
-0.0499939
-0.0499939
-0.0499939
-0.0499939
-0.0499939
-0.0499939
-0.0499939
-0.0499939
-0.0499939
-0.0499939
-0.0499939
-0.0499939
-0.0499939
-0.0499939
-0.0499939
-0.0499939
-0.0499939
-0.0499939
-0.0499939
-0.0499939
-0.0499939
-0.0499939
-0.0499939
-0.0499939
-0.0499939
-0.0499939
-0.0499939
-0.0499939
-0.0499939
-0.0499939
-0.0499939
-0.0499939
-0.0499939
-0.0499939
-0.0499939
-0.0499939
-0.0499939
-0.0499939
-0.0499939
-0.0499939
-0.0499939
-0.0499939
-0.0499939
-0.0499939
-0.0499939
-0.0499939
-0.0499939
-0.0499939
-0.0499939
-0.0499939
-0.0499939
-0.0499939
-0.0499939
-0.0499939
-0.0499939
-0.0499939
-0.0499939
-0.0499939
-0.0499939
-0.0499939
-0.0499939
-0.0499939
-0.0499939
-0.0499939
-0.0499939
-0.0499939
-0.0499939
-0.0499939
-0.0499939
-0.0499939
-0.0499939
-0.0499939
-0.0499939
-0.0499939
-0.0499939
-0.0499939
-0.0499939
-0.0499939
-0.0499939
-0.0499939
-0.0499939
-0.0499939
-0.0499939
-0.0499939
-0.0499939
-0.0499939
-0.0499939
-0.0499939
-0.0499939
-0.0499939
-0.0499939
-0.0499939
-0.0499939
-0.0499939
-0.0499939
-0.0499939
-0.0499939
-0.0499939
-0.0499939
-0.0499939
-0.0499939
-0.0499939
-0.0499939
-0.0499939
-0.0499939
-0.0499939
-0.0499939
-0.0499939
-0.0499939
-0.0499939
-0.0499939
-0.0499939
-0.0499939
-0.0499939
-0.0499939
-0.0499939
-0.0499939
-0.0499939
-0.0499939
-0.0499939
-0.0499939
-0.0499939
-0.0499939
-0.0499939
-0.0499939
-0.0499939
-0.0499939
-0.0499939
-0.0499939
-0.0499939
-0.0499939
-0.0499939
-0.0499939
-0.0499939
-0.0499939
-0.0499939
-0.0499939
-0.0499939
-0.0499939
-0.0499939
-0.0499939
-0.0499939
-0.0499939
-0.0499939
-0.0499939
-0.0499939
-0.0499939
-0.0499939
-0.0499939
-0.0499939
-0.0499939
-0.0499939
-0.0499939
-0.0499939
-0.0499939
-0.0499939
-0.0499939
-0.0499939
-0.0499939
-0.0499939
-0.0499939
-0.0499939
-0.0499939
-0.0499939
-0.0499939
-0.0499939
-0.0499939
-0.0499939
-0.0499939
-0.0499939
-0.0499939
-0.0499939
-0.0499939
-0.0499939
-0.0499939
-0.0499939
-0.0499939
-0.0499939
-0.0499939
-0.0499939
-0.0499939
-0.0499939
-0.0499939
-0.0499939
-0.0499939
-0.0499939
-0.0499939
-0.0499939
-0.0499939
-0.0499939
-0.0499939
-0.0499939
-0.0499939
-0.0499939
-0.0499939
-0.0499939
-0.0499939
-0.0499939
-0.0499939
-0.0499939
-0.0499939
-0.0499939
-0.0499939
-0.0499939
-0.0499939
-0.0499939
-0.0499939
-0.0499939
-0.0499939
-0.0499939
-0.0499939
-0.0499939
-0.0499939
-0.0499939
-0.0499939
-0.0499939
-0.0499939
-0.0499939
-0.0499939
-0.0499939
-0.0499939
-0.0499939
-0.0499939
-0.0499939
-0.0499939
-0.0499939
-0.0499939
-0.0499939
-0.0499939
-0.0499939
-0.0499939
-0.0499939
-0.0499939
-0.0499939
-0.0499939
-0.0499939
-0.0499939
-0.0499939
-0.0499939
-0.0499939
-0.0499939
-0.0499939
-0.0499939
-0.0499939
-0.0499939
-0.0499939
-0.0499939
-0.0499939
-0.0499939
-0.0499939
-0.0499939
-0.0499939
-0.0499939
-0.0499939
-0.0499939
-0.0499939
-0.0499939
-0.0499939
-0.0499939
-0.0499939
-0.0499939
-0.0499939
-0.0499939
-0.0499939
-0.0499939
-0.0499939
-0.0499939
-0.0499939
-0.0499939
-0.0499939
-0.0499939
-0.0499939
-0.0499939
-0.0499939
-0.0499939
-0.0499939
-0.0499939
-0.0499939
-0.0499939
-0.0499939
-0.0499939
-0.0499939
-0.0499939
-0.0499939
-0.0499939
-0.0499939
-0.0499939
-0.0499939
-0.0499939
-0.0499939
-0.0499939
-0.0499939
-0.0499939
-0.0499939
-0.0499939
-0.0499939
-0.0499939
-0.0499939
-0.0499939
-0.0499939
-0.0499939
-0.0499939
-0.0499939
-0.0499939
-0.0499939
-0.0499939
-0.0499939
-0.0499939
-0.0499939
-0.0499939
-0.0499939
-0.0499939
-0.0499939
-0.0499939
-0.0499939
-0.0499939
-0.0499939
-0.0499939
-0.0499939
-0.0499939
-0.0499939
-0.0499939
-0.0499939
-0.0499939
-0.0499939
-0.0499939
-0.0499939
-0.0499939
-0.0499939
-0.0499939
-0.0499939
-0.0499939
-0.0499939
-0.0499939
-0.0499939
-0.0499939
-0.0499939
-0.0499939
-0.0499939
-0.0499939
-0.0499939
-0.0499939
-0.0499939
-0.0499939
-0.0499939
-0.0499939
-0.0499939
-0.0499939
-0.0499939
-0.0499939
-0.0499939
-0.0499939
-0.0499939
-0.0499939
-0.0499939
-0.0499939
-0.0499939
-0.0499939
-0.0499939
-0.0499939
-0.0499939
-0.0499939
-0.0499939
-0.0499939
-0.0499939
-0.0499939
-0.0499939
-0.0499939
-0.0499939
-0.0499939
-0.0499939
-0.0499939
-0.0499939
-0.0499939
-0.0499939
-0.0499939
-0.0499939
-0.0499939
-0.0499939
-0.0499939
-0.0499939
-0.0499939
-0.0499939
-0.0499939
-0.0499939
-0.0499939
-0.0499939
-0.0499939
-0.0499939
-0.0499939
-0.0499939
-0.0499939
-0.0499939
-0.0499939
-0.0499939
-0.0499939
-0.0499939
-0.0499939
-0.0499939
-0.0499939
-0.0499939
-0.0499939
-0.0499939
-0.0499939
-0.0499939
-0.0499939
-0.0499939
-0.0499939
-0.0499939
-0.0499939
-0.0499939
-0.0499939
-0.0499939
-0.0499939
-0.0499939
-0.0499939
-0.0499939
-0.0499939
-0.0499939
-0.0499939
-0.0499939
-0.0499939
-0.0499939
-0.0499939
-0.0499939
-0.0499939
-0.0499939
-0.0499939
-0.0499939
-0.0499939
-0.0499939
-0.0499939
-0.0499939
-0.0499939
-0.0499939
-0.0499939
-0.0499939
-0.0499939
-0.0499939
-0.0499939
-0.0499939
-0.0499939
-0.0499939
-0.0499939
-0.0499939
-0.0499939
-0.0499939
-0.0499939
-0.0499939
-0.0499939
-0.0499939
-0.0499939
-0.0499939
-0.0499939
-0.0499939
-0.0499939
-0.0499939
-0.0499939
-0.0499939
-0.0499939
-0.0499939
-0.0499939
-0.0499939
-0.0499939
-0.0499939
-0.0499939
-0.0499939
-0.0499939
-0.0499939
-0.0499939
-0.0499939
-0.0499939
-0.0499939
-0.0499939
-0.0499939
-0.0499939
-0.0499939
-0.0499939
-0.0499939
-0.0499939
-0.0499939
-0.0499939
-0.0499939
-0.0499939
-0.0499939
-0.0499939
-0.0499939
-0.0499939
-0.0499939
-0.0499939
-0.0499939
-0.0499939
-0.0499939
-0.0499939
-0.0499939
-0.0499939
-0.0499939
-0.0499939
-0.0499939
-0.0499939
-0.0499939
-0.0499939
-0.0499939
-0.0499939
-0.0499939
-0.0499939
-0.0499939
-0.0499939
-0.0499939
-0.0499939
-0.0499939
-0.0499939
-0.0499939
-0.0499939
-0.0499939
-0.0499939
-0.0499939
-0.0499939
-0.0499939
-0.0499939
-0.0499939
-0.0499939
-0.0499939
-0.0499939
-0.0499939
-0.0499939
-0.0499939
-0.0499939
-0.0499939
-0.0499939
-0.0499939
-0.0499939
-0.0499939
-0.0499939
-0.0499939
-0.0499939
-0.0499939
-0.0499939
-0.0499939
-0.0499939
-0.0499939
-0.0499939
-0.0499939
-0.0499939
-0.0499939
-0.0499939
-0.0499939
-0.0499939
-0.0499939
-0.0499939
-0.0499939
-0.0499939
-0.0499939
-0.0499939
-0.0499939
-0.0499939
-0.0499939
-0.0499939
-0.0499939
-0.0499939
-0.0499939
-0.0499939
-0.0499939
-0.0499939
-0.0499939
-0.0499939
-0.0499939
-0.0499939
-0.0499939
-0.0499939
-0.0499939
-0.0499939
-0.0499939
-0.0499939
-0.0499939
-0.0499939
-0.0499939
-0.0499939
-0.0499939
-0.0499939
-0.0499939
-0.0499939
-0.0499939
-0.0499939
-0.0499939
-0.0499939
-0.0499939
-0.0499939
-0.0499939
-0.0499939
-0.0499939
-0.0499939
-0.0499939
-0.0499939
-0.0499939
-0.0499939
-0.0499939
-0.0499939
-0.0499939
-0.0499939
-0.0499939
-0.0499939
-0.0499939
-0.0499939
-0.0499939
-0.0499939
-0.0499939
-0.0499939
-0.0499939
-0.0499939
-0.0499939
-0.0499939
-0.0499939
-0.0499939
-0.0499939
-0.0499939
-0.0499939
-0.0499939
-0.0499939
-0.0499939
-0.0499939
-0.0499939
-0.0499939
-0.0499939
-0.0499939
-0.0499939
-0.0499939
-0.0499939
-0.0499939
-0.0499939
-0.0499939
-0.0499939
-0.0499939
-0.0499939
-0.0499939
-0.0499939
-0.0499939
-0.0499939
-0.0499939
-0.0499939
-0.0499939
-0.0499939
-0.0499939
-0.0499939
-0.0499939
-0.0499939
-0.0499939
-0.0499939
-0.0499939
-0.0499939
-0.0499939
-0.0499939
-0.0499939
-0.0499939
-0.0499939
-0.0499939
-0.0499939
-0.0499939
-0.0499939
-0.0499939
-0.0499939
-0.0499939
-0.0499939
-0.0499939
-0.0499939
-0.0499939
-0.0499939
-0.0499939
-0.0499939
-0.0499939
-0.0499939
-0.0499939
-0.0499939
-0.0499939
-0.0499939
-0.0499939
-0.0499939
-0.0499939
-0.0499939
-0.0499939
-0.0499939
-0.0499939
-0.0499939
-0.0499939
-0.0499939
-0.0499939
-0.0499939
-0.0499939
-0.0499939
-0.0499939
-0.0499939
-0.0499939
-0.0499939
-0.0499939
-0.0499939
-0.0499939
-0.0499939
-0.0499939
-0.0499939
-0.0499939
-0.0499939
-0.0499939
-0.0499939
-0.0499939
-0.0499939
-0.0499939
-0.0499939
-0.0499939
-0.0499939
-0.0499939
-0.0499939
-0.0499939
-0.0499939
-0.0499939
-0.0499939
-0.0499939
-0.0499939
-0.0499939
-0.0499939
-0.0499939
-0.0499939
-0.0499939
-0.0499939
-0.0499939
-0.0499939
-0.0499939
-0.0499939
-0.0499939
-0.0499939
-0.0499939
-0.0499939
-0.0499939
-0.0499939
-0.0499939
-0.0499939
-0.0499939
-0.0499939
-0.0499939
-0.0499939
-0.0499939
-0.0499939
-0.0499939
-0.0499939
-0.0499939
-0.0499939
-0.0499939
-0.0499939
-0.0499939
-0.0499939
-0.0499939
-0.0499939
-0.0499939
-0.0499939
-0.0499939
-0.0499939
-0.0499939
-0.0499939
-0.0499939
-0.0499939
-0.0499939
-0.0499939
-0.0499939
-0.0499939
-0.0499939
-0.0499939
-0.0499939
-0.0499939
-0.0499939
-0.0499939
-0.0499939
-0.0499939
-0.0499939
-0.0499939
-0.0499939
-0.0499939
-0.0499939
-0.0499939
-0.0499939
-0.0499939
-0.0499939
-0.0499939
-0.0499939
-0.0499939
-0.0499939
-0.0499939
-0.0499939
-0.0499939
-0.0499939
-0.0499939
-0.0499939
-0.0499939
-0.0499939
-0.0499939
-0.0499939
-0.0499939
-0.0499939
-0.0499939
-0.0499939
-0.0499939
-0.0499939
-0.0499939
-0.0499939
-0.0499939
-0.0499939
-0.0499939
-0.0499939
-0.0499939
-0.0499939
-0.0499939
-0.0499939
-0.0499939
-0.0499939
-0.0499939
-0.0499939
-0.0499939
-0.0499939
-0.0499939
-0.0499939
-0.0499939
-0.0499939
-0.0499939
-0.0499939
-0.0499939
-0.0499939
-0.0499939
-0.0499939
-0.0499939
-0.0499939
-0.0499939
-0.0499939
-0.0499939
-0.0499939
-0.0499939
0.0499939
0.0499939
0.0499939
0.0499939
0.0499939
0.0499939
0.0499939
0.0499939
0.0499939
0.0499939
0.0499939
0.0499939
0.0499939
0.0499939
0.0499939
0.0499939
0.0499939
0.0499939
0.0499939
0.0499939
0.0499939
0.0499939
0.0499939
0.0499939
0.0499939
0.0499939
0.0499939
0.0499939
0.0499939
0.0499939
0.0499939
0.0499939
0.0499939
0.0499939
0.0499939
0.0499939
0.0499939
0.0499939
0.0499939
0.0499939
0.0499939
0.0499939
0.0499939
0.0499939
0.0499939
0.0499939
0.0499939
0.0499939
0.0499939
0.0499939
0.0499939
0.0499939
0.0499939
0.0499939
0.0499939
0.0499939
0.0499939
0.0499939
0.0499939
0.0499939
0.0499939
0.0499939
0.0499939
0.0499939
0.0499939
0.0499939
0.0499939
0.0499939
0.0499939
0.0499939
0.0499939
0.0499939
0.0499939
0.0499939
0.0499939
0.0499939
0.0499939
0.0499939
0.0499939
0.0499939
0.0499939
0.0499939
0.0499939
0.0499939
0.0499939
0.0499939
0.0499939
0.0499939
0.0499939
0.0499939
0.0499939
0.0499939
0.0499939
0.0499939
0.0499939
0.0499939
0.0499939
0.0499939
0.0499939
0.0499939
0.0499939
0.0499939
0.0499939
0.0499939
0.0499939
0.0499939
0.0499939
0.0499939
0.0499939
0.0499939
0.0499939
0.0499939
0.0499939
0.0499939
0.0499939
0.0499939
0.0499939
0.0499939
0.0499939
0.0499939
0.0499939
0.0499939
0.0499939
0.0499939
0.0499939
0.0499939
0.0499939
0.0499939
0.0499939
0.0499939
0.0499939
0.0499939
0.0499939
0.0499939
0.0499939
0.0499939
0.0499939
0.0499939
0.0499939
0.0499939
0.0499939
0.0499939
0.0499939
0.0499939
0.0499939
0.0499939
0.0499939
0.0499939
0.0499939
0.0499939
0.0499939
0.0499939
0.0499939
0.0499939
0.0499939
0.0499939
0.0499939
0.0499939
0.0499939
0.0499939
0.0499939
0.0499939
0.0499939
0.0499939
0.0499939
0.0499939
0.0499939
0.0499939
0.0499939
0.0499939
0.0499939
0.0499939
0.0499939
0.0499939
0.0499939
0.0499939
0.0499939
0.0499939
0.0499939
0.0499939
0.0499939
0.0499939
0.0499939
0.0499939
0.0499939
0.0499939
0.0499939
0.0499939
0.0499939
0.0499939
0.0499939
0.0499939
0.0499939
0.0499939
0.0499939
0.0499939
0.0499939
0.0499939
0.0499939
0.0499939
0.0499939
0.0499939
0.0499939
0.0499939
0.0499939
0.0499939
0.0499939
0.0499939
0.0499939
0.0499939
0.0499939
0.0499939
0.0499939
0.0499939
0.0499939
0.0499939
0.0499939
0.0499939
0.0499939
0.0499939
0.0499939
0.0499939
0.0499939
0.0499939
0.0499939
0.0499939
0.0499939
0.0499939
0.0499939
0.0499939
0.0499939
0.0499939
0.0499939
0.0499939
0.0499939
0.0499939
0.0499939
0.0499939
0.0499939
0.0499939
0.0499939
0.0499939
0.0499939
0.0499939
0.0499939
0.0499939
0.0499939
0.0499939
0.0499939
0.0499939
0.0499939
0.0499939
0.0499939
0.0499939
0.0499939
0.0499939
0.0499939
0.0499939
0.0499939
0.0499939
0.0499939
0.0499939
0.0499939
0.0499939
0.0499939
0.0499939
0.0499939
0.0499939
0.0499939
0.0499939
0.0499939
0.0499939
0.0499939
0.0499939
0.0499939
0.0499939
0.0499939
0.0499939
0.0499939
0.0499939
0.0499939
0.0499939
0.0499939
0.0499939
0.0499939
0.0499939
0.0499939
0.0499939
0.0499939
0.0499939
0.0499939
0.0499939
0.0499939
0.0499939
0.0499939
0.0499939
0.0499939
0.0499939
0.0499939
0.0499939
0.0499939
0.0499939
0.0499939
0.0499939
0.0499939
0.0499939
0.0499939
0.0499939
0.0499939
0.0499939
0.0499939
0.0499939
0.0499939
0.0499939
0.0499939
0.0499939
0.0499939
0.0499939
0.0499939
0.0499939
0.0499939
0.0499939
0.0499939
0.0499939
0.0499939
0.0499939
0.0499939
0.0499939
0.0499939
0.0499939
0.0499939
0.0499939
0.0499939
0.0499939
0.0499939
0.0499939
0.0499939
0.0499939
0.0499939
0.0499939
0.0499939
0.0499939
0.0499939
0.0499939
0.0499939
0.0499939
0.0499939
0.0499939
0.0499939
0.0499939
0.0499939
0.0499939
0.0499939
0.0499939
0.0499939
0.0499939
0.0499939
0.0499939
0.0499939
0.0499939
0.0499939
0.0499939
0.0499939
0.0499939
0.0499939
0.0499939
0.0499939
0.0499939
0.0499939
0.0499939
0.0499939
0.0499939
0.0499939
0.0499939
0.0499939
0.0499939
0.0499939
0.0499939
0.0499939
0.0499939
0.0499939
0.0499939
0.0499939
0.0499939
0.0499939
0.0499939
0.0499939
0.0499939
0.0499939
0.0499939
0.0499939
0.0499939
0.0499939
0.0499939
0.0499939
0.0499939
0.0499939
0.0499939
0.0499939
0.0499939
0.0499939
0.0499939
0.0499939
0.0499939
0.0499939
0.0499939
0.0499939
0.0499939
0.0499939
0.0499939
0.0499939
0.0499939
0.0499939
0.0499939
0.0499939
0.0499939
0.0499939
0.0499939
0.0499939
0.0499939
0.0499939
0.0499939
0.0499939
0.0499939
0.0499939
0.0499939
0.0499939
0.0499939
0.0499939
0.0499939
0.0499939
0.0499939
0.0499939
0.0499939
0.0499939
0.0499939
0.0499939
0.0499939
0.0499939
0.0499939
0.0499939
0.0499939
0.0499939
0.0499939
0.0499939
0.0499939
0.0499939
0.0499939
0.0499939
0.0499939
0.0499939
0.0499939
0.0499939
0.0499939
0.0499939
0.0499939
0.0499939
0.0499939
0.0499939
0.0499939
0.0499939
0.0499939
0.0499939
0.0499939
0.0499939
0.0499939
0.0499939
0.0499939
0.0499939
0.0499939
0.0499939
0.0499939
0.0499939
0.0499939
0.0499939
0.0499939
0.0499939
0.0499939
0.0499939
0.0499939
0.0499939
0.0499939
0.0499939
0.0499939
0.0499939
0.0499939
0.0499939
0.0499939
0.0499939
0.0499939
0.0499939
0.0499939
0.0499939
0.0499939
0.0499939
0.0499939
0.0499939
0.0499939
0.0499939
0.0499939
0.0499939
0.0499939
0.0499939
0.0499939
0.0499939
0.0499939
0.0499939
0.0499939
0.0499939
0.0499939
0.0499939
0.0499939
0.0499939
0.0499939
0.0499939
0.0499939
0.0499939
0.0499939
0.0499939
0.0499939
0.0499939
0.0499939
0.0499939
0.0499939
0.0499939
0.0499939
0.0499939
0.0499939
0.0499939
0.0499939
0.0499939
0.0499939
0.0499939
0.0499939
0.0499939
0.0499939
0.0499939
0.0499939
0.0499939
0.0499939
0.0499939
0.0499939
0.0499939
0.0499939
0.0499939
0.0499939
0.0499939
0.0499939
0.0499939
0.0499939
0.0499939
0.0499939
0.0499939
0.0499939
0.0499939
0.0499939
0.0499939
0.0499939
0.0499939
0.0499939
0.0499939
0.0499939
0.0499939
0.0499939
0.0499939
0.0499939
0.0499939
0.0499939
0.0499939
0.0499939
0.0499939
0.0499939
0.0499939
0.0499939
0.0499939
0.0499939
0.0499939
0.0499939
0.0499939
0.0499939
0.0499939
0.0499939
0.0499939
0.0499939
0.0499939
0.0499939
0.0499939
0.0499939
0.0499939
0.0499939
0.0499939
0.0499939
0.0499939
0.0499939
0.0499939
0.0499939
0.0499939
0.0499939
0.0499939
0.0499939
0.0499939
0.0499939
0.0499939
0.0499939
0.0499939
0.0499939
0.0499939
0.0499939
0.0499939
0.0499939
0.0499939
0.0499939
0.0499939
0.0499939
0.0499939
0.0499939
0.0499939
0.0499939
0.0499939
0.0499939
0.0499939
0.0499939
0.0499939
0.0499939
0.0499939
0.0499939
0.0499939
0.0499939
0.0499939
0.0499939
0.0499939
0.0499939
0.0499939
0.0499939
0.0499939
0.0499939
0.0499939
0.0499939
0.0499939
0.0499939
0.0499939
0.0499939
0.0499939
0.0499939
0.0499939
0.0499939
0.0499939
0.0499939
0.0499939
0.0499939
0.0499939
0.0499939
0.0499939
0.0499939
0.0499939
0.0499939
0.0499939
0.0499939
0.0499939
0.0499939
0.0499939
0.0499939
0.0499939
0.0499939
0.0499939
0.0499939
0.0499939
0.0499939
0.0499939
0.0499939
0.0499939
0.0499939
0.0499939
0.0499939
0.0499939
0.0499939
0.0499939
0.0499939
0.0499939
0.0499939
0.0499939
0.0499939
0.0499939
0.0499939
0.0499939
0.0499939
0.0499939
0.0499939
0.0499939
0.0499939
0.0499939
0.0499939
0.0499939
0.0499939
0.0499939
0.0499939
0.0499939
0.0499939
0.0499939
0.0499939
0.0499939
0.0499939
0.0499939
0.0499939
0.0499939
0.0499939
0.0499939
0.0499939
0.0499939
0.0499939
0.0499939
0.0499939
0.0499939
0.0499939
0.0499939
0.0499939
0.0499939
0.0499939
0.0499939
0.0499939
0.0499939
0.0499939
0.0499939
0.0499939
0.0499939
0.0499939
0.0499939
0.0499939
0.0499939
0.0499939
0.0499939
0.0499939
0.0499939
0.0499939
0.0499939
0.0499939
0.0499939
0.0499939
0.0499939
0.0499939
0.0499939
0.0499939
0.0499939
0.0499939
0.0499939
0.0499939
0.0499939
0.0499939
0.0499939
0.0499939
0.0499939
0.0499939
0.0499939
0.0499939
0.0499939
0.0499939
0.0499939
0.0499939
0.0499939
0.0499939
0.0499939
0.0499939
0.0499939
0.0499939
0.0499939
0.0499939
0.0499939
0.0499939
0.0499939
0.0499939
0.0499939
0.0499939
0.0499939
0.0499939
0.0499939
0.0499939
0.0499939
0.0499939
0.0499939
0.0499939
0.0499939
0.0499939
0.0499939
0.0499939
0.0499939
0.0499939
0.0499939
0.0499939
0.0499939
0.0499939
0.0499939
0.0499939
0.0499939
0.0499939
0.0499939
0.0499939
0.0499939
0.0499939
0.0499939
0.0499939
0.0499939
0.0499939
0.0499939
0.0499939
0.0499939
0.0499939
0.0499939
0.0499939
0.0499939
0.0499939
0.0499939
0.0499939
0.0499939
0.0499939
0.0499939
0.0499939
0.0499939
0.0499939
0.0499939
0.0499939
0.0499939
0.0499939
0.0499939
0.0499939
0.0499939
0.0499939
0.0499939
0.0499939
0.0499939
0.0499939
0.0499939
0.0499939
0.0499939
0.0499939
0.0499939
0.0499939
0.0499939
0.0499939
0.0499939
0.0499939
0.0499939
0.0499939
0.0499939
0.0499939
0.0499939
0.0499939
0.0499939
0.0499939
0.0499939
0.0499939
0.0499939
0.0499939
0.0499939
0.0499939
0.0499939
0.0499939
0.0499939
0.0499939
0.0499939
0.0499939
0.0499939
0.0499939
0.0499939
0.0499939
0.0499939
0.0499939
0.0499939
0.0499939
0.0499939
0.0499939
0.0499939
0.0499939
0.0499939
0.0499939
0.0499939
0.0499939
0.0499939
0.0499939
0.0499939
0.0499939
0.0499939
0.0499939
0.0499939
0.0499939
0.0499939
0.0499939
0.0499939
0.0499939
0.0499939
0.0499939
0.0499939
0.0499939
0.0499939
0.0499939
0.0499939
0.0499939
0.0499939
0.0499939
0.0499939
0.0499939
0.0499939
0.0499939
0.0499939
0.0499939
0.0499939
0.0499939
0.0499939
0.0499939
0.0499939
0.0499939
0.0499939
0.0499939
0.0499939
0.0499939
0.0499939
0.0499939
0.0499939
0.0499939
0.0499939
0.0499939
0.0499939
0.0499939
0.0499939
0.0499939
0.0499939
0.0499939
0.0499939
0.0499939
0.0499939
0.0499939
0.0499939
0.0499939
0.0499939
0.0499939
0.0499939
0.0499939
0.0499939
0.0499939
0.0499939
0.0499939
0.0499939
0.0499939
0.0499939
0.0499939
0.0499939
0.0499939
0.0499939
0.0499939
0.0499939
0.0499939
0.0499939
0.0499939
0.0499939
0.0499939
0.0499939
0.0499939
0.0499939
0.0499939
0.0499939
0.0499939
0.0499939
0.0499939
0.0499939
0.0499939
0.0499939
0.0499939
0.0499939
0.0499939
0.0499939
0.0499939
0.0499939
0.0499939
0.0499939
0.0499939
0.0499939
0.0499939
0.0499939
0.0499939
0.0499939
0.0499939
0.0499939
0.0499939
0.0499939
0.0499939
0.0499939
0.0499939
0.0499939
0.0499939
0.0499939
0.0499939
0.0499939
0.0499939
0.0499939
0.0499939
0.0499939
0.0499939
0.0499939
0.0499939
0.0499939
0.0499939
0.0499939
0.0499939
0.0499939
0.0499939
0.0499939
0.0499939
0.0499939
0.0499939
0.0499939
0.0499939
0.0499939
0.0499939
0.0499939
0.0499939
0.0499939
0.0499939
0.0499939
0.0499939
0.0499939
0.0499939
0.0499939
0.0499939
0.0499939
0.0499939
0.0499939
0.0499939
0.0499939
0.0499939
0.0499939
0.0499939
0.0499939
0.0499939
0.0499939
0.0499939
0.0499939
0.0499939
0.0499939
0.0499939
0.0499939
0.0499939
0.0499939
0.0499939
0.0499939
0.0499939
0.0499939
0.0499939
0.0499939
0.0499939
0.0499939
0.0499939
0.0499939
0.0499939
0.0499939
0.0499939
0.0499939
0.0499939
0.0499939
0.0499939
0.0499939
0.0499939
0.0499939
0.0499939
0.0499939
0.0499939
0.0499939
0.0499939
0.0499939
0.0499939
0.0499939
0.0499939
0.0499939
0.0499939
0.0499939
0.0499939
0.0499939
0.0499939
0.0499939
0.0499939
0.0499939
0.0499939
0.0499939
0.0499939
0.0499939
0.0499939
0.0499939
0.0499939
0.0499939
0.0499939
0.0499939
0.0499939
0.0499939
0.0499939
0.0499939
0.0499939
0.0499939
0.0499939
0.0499939
0.0499939
0.0499939
0.0499939
0.0499939
0.0499939
0.0499939
0.0499939
0.0499939
0.0499939
0.0499939
0.0499939
0.0499939
0.0499939
0.0499939
0.0499939
0.0499939
0.0499939
0.0499939
0.0499939
0.0499939
0.0499939
0.0499939
0.0499939
0.0499939
0.0499939
0.0499939
0.0499939
0.0499939
0.0499939
0.0499939
0.0499939
0.0499939
0.0499939
0.0499939
0.0499939
0.0499939
0.0499939
0.0499939
0.0499939
0.0499939
0.0499939
0.0499939
0.0499939
0.0499939
0.0499939
0.0499939
0.0499939
0.0499939
0.0499939
0.0499939
0.0499939
0.0499939
0.0499939
0.0499939
0.0499939
0.0499939
0.0499939
0.0499939
0.0499939
0.0499939
0.0499939
0.0499939
0.0499939
0.0499939
0.0499939
0.0499939
0.0499939
0.0499939
0.0499939
0.0499939
0.0499939
0.0499939
0.0499939
0.0499939
0.0499939
0.0499939
0.0499939
0.0499939
0.0499939
0.0499939
0.0499939
0.0499939
0.0499939
0.0499939
0.0499939
0.0499939
0.0499939
0.0499939
0.0499939
0.0499939
0.0499939
0.0499939
0.0499939
0.0499939
0.0499939
0.0499939
0.0499939
0.0499939
0.0499939
0.0499939
0.0499939
0.0499939
0.0499939
0.0499939
0.0499939
0.0499939
0.0499939
0.0499939
0.0499939
0.0499939
0.0499939
0.0499939
0.0499939
0.0499939
0.0499939
0.0499939
0.0499939
0.0499939
0.0499939
0.0499939
