-0.0815207
-0.0815207
-0.0815207
-0.0815207
-0.0815207
-0.0815207
-0.0815207
-0.0815207
-0.0815207
-0.0815207
-0.0815207
-0.0815207
-0.0815207
-0.0815207
-0.0815207
-0.0815207
-0.0815207
-0.0815207
-0.0815207
-0.0815207
-0.0815207
-0.0815207
-0.0815207
-0.0815207
-0.0815207
-0.0815207
-0.0815207
-0.0815207
-0.0815207
-0.0815207
-0.0815207
-0.0815207
-0.0815207
-0.0815207
-0.0815207
-0.0815207
-0.0815207
-0.0815207
-0.0815207
-0.0815207
-0.0815207
-0.0815207
-0.0815207
-0.0815207
-0.0815207
-0.0815207
-0.0815207
-0.0815207
-0.0815207
-0.0815207
-0.0815207
-0.0815207
-0.0815207
-0.0815207
-0.0815207
-0.0815207
-0.0815207
-0.0815207
-0.0815207
-0.0815207
-0.0815207
-0.0815207
-0.0815207
-0.0815207
-0.0815207
-0.0815207
-0.0815207
-0.0815207
-0.0815207
-0.0815207
-0.0815207
-0.0815207
-0.0815207
-0.0815207
-0.0815207
-0.0815207
-0.0815207
-0.0815207
-0.0815207
-0.0815207
-0.0815207
-0.0815207
-0.0815207
-0.0815207
-0.0815207
-0.0815207
-0.0815207
-0.0815207
-0.0815207
-0.0815207
-0.0815207
-0.0815207
-0.0815207
-0.0815207
-0.0815207
-0.0815207
-0.0815207
-0.0815207
-0.0815207
-0.0815207
-0.0815207
-0.0815207
-0.0815207
-0.0815207
-0.0815207
-0.0815207
-0.0815207
-0.0815207
-0.0815207
-0.0815207
-0.0815207
-0.0815207
-0.0815207
-0.0815207
-0.0815207
-0.0815207
-0.0815207
-0.0815207
-0.0815207
-0.0815207
-0.0815207
-0.0815207
-0.0815207
-0.0815207
-0.0815207
-0.0815207
-0.0815207
-0.0815207
-0.0815207
-0.0815207
-0.0815207
-0.0815207
-0.0815207
-0.0815207
-0.0815207
-0.0815207
-0.0815207
-0.0815207
-0.0815207
-0.0815207
-0.0815207
-0.0815207
-0.0815207
-0.0815207
-0.0815207
-0.0815207
-0.0815207
-0.0815207
-0.0815207
-0.0815207
-0.0815207
-0.0815207
0.0815207
0.0815207
0.0815207
0.0815207
0.0815207
0.0815207
0.0815207
0.0815207
0.0815207
0.0815207
0.0815207
0.0815207
0.0815207
0.0815207
0.0815207
0.0815207
0.0815207
0.0815207
0.0815207
0.0815207
0.0815207
0.0815207
0.0815207
0.0815207
0.0815207
0.0815207
0.0815207
0.0815207
0.0815207
0.0815207
0.0815207
0.0815207
0.0815207
0.0815207
0.0815207
0.0815207
0.0815207
0.0815207
0.0815207
0.0815207
0.0815207
0.0815207
0.0815207
0.0815207
0.0815207
0.0815207
0.0815207
0.0815207
0.0815207
0.0815207
0.0815207
0.0815207
0.0815207
0.0815207
0.0815207
0.0815207
0.0815207
0.0815207
0.0815207
0.0815207
0.0815207
0.0815207
0.0815207
0.0815207
0.0815207
0.0815207
0.0815207
0.0815207
0.0815207
0.0815207
0.0815207
0.0815207
0.0815207
0.0815207
0.0815207
0.0815207
0.0815207
0.0815207
0.0815207
0.0815207
0.0815207
0.0815207
0.0815207
0.0815207
0.0815207
0.0815207
0.0815207
0.0815207
0.0815207
0.0815207
0.0815207
0.0815207
0.0815207
0.0815207
0.0815207
0.0815207
0.0815207
0.0815207
0.0815207
0.0815207
0.0815207
0.0815207
0.0815207
0.0815207
0.0815207
0.0815207
0.0815207
0.0815207
0.0815207
0.0815207
0.0815207
0.0815207
0.0815207
0.0815207
0.0815207
0.0815207
0.0815207
0.0815207
0.0815207
0.0815207
0.0815207
0.0815207
0.0815207
0.0815207
0.0815207
0.0815207
0.0815207
0.0815207
0.0815207
0.0815207
0.0815207
0.0815207
0.0815207
0.0815207
0.0815207
0.0815207
0.0815207
0.0815207
0.0815207
0.0815207
0.0815207
0.0815207
0.0815207
0.0815207
0.0815207
0.0815207
0.0815207
0.0815207
