-0.320391
-0.320391
-0.320391
-0.320391
-0.320391
-0.320391
-0.320391
-0.320391
-0.320391
-0.320391
-0.320391
-0.320391
-0.320391
-0.320391
-0.320391
-0.320391
-0.320391
-0.320391
-0.320391
-0.320391
-0.320391
-0.320391
-0.320391
-0.320391
-0.320391
-0.320391
-0.320391
-0.320391
-0.320391
-0.320391
-0.320391
-0.320391
-0.320391
-0.320391
-0.320391
-0.320391
-0.320391
-0.320391
-0.320391
-0.320391
-0.320391
-0.320391
-0.320391
-0.320391
-0.320391
-0.320391
-0.320391
-0.320391
-0.320391
-0.320391
-0.320391
-0.320391
-0.320391
-0.320391
-0.320391
-0.320391
-0.320391
-0.320391
-0.320391
-0.320391
-0.320391
-0.320391
-0.320391
-0.320391
-0.320391
-0.320391
-0.320391
-0.320391
-0.320391
-0.320391
-0.320391
-0.320391
-0.320391
-0.320391
-0.320391
-0.320391
-0.320391
-0.320391
-0.320391
-0.320391
-0.320391
-0.320391
-0.320391
-0.320391
-0.320391
-0.320391
-0.320391
-0.320391
-0.320391
-0.320391
-0.320391
-0.320391
-0.320391
-0.320391
-0.320391
-0.320391
-0.320391
-0.320391
-0.320391
-0.320391
-0.320391
-0.320391
-0.320391
-0.320391
-0.320391
-0.320391
-0.320391
-0.320391
-0.320391
-0.320391
-0.320391
-0.320391
-0.320391
-0.320391
-0.320391
-0.320391
-0.320391
-0.320391
-0.320391
-0.320391
-0.320391
-0.320391
-0.320391
-0.320391
-0.320391
-0.320391
-0.320391
-0.320391
-0.320391
-0.320391
-0.320391
-0.320391
-0.320391
-0.320391
-0.320391
-0.320391
-0.320391
-0.320391
-0.320391
-0.320391
-0.320391
-0.320391
-0.320391
-0.320391
-0.320391
-0.320391
-0.320391
-0.320391
-0.320391
-0.320391
-0.320391
-0.320391
-0.320391
-0.320391
-0.320391
-0.320391
-0.320391
-0.320391
-0.320391
-0.320391
-0.320391
-0.320391
-0.320391
-0.320391
-0.320391
-0.320391
-0.320391
-0.320391
-0.320391
-0.320391
-0.320391
-0.320391
-0.320391
-0.320391
-0.320391
-0.320391
-0.320391
-0.320391
-0.320391
-0.320391
-0.320391
-0.320391
-0.320391
-0.320391
-0.320391
-0.320391
-0.320391
-0.320391
-0.320391
-0.320391
-0.320391
-0.320391
-0.320391
-0.320391
-0.320391
-0.320391
-0.320391
-0.320391
-0.320391
-0.320391
-0.320391
-0.320391
-0.320391
-0.320391
-0.320391
-0.320391
-0.320391
-0.320391
-0.320391
-0.320391
-0.320391
-0.320391
-0.320391
-0.320391
-0.320391
-0.320391
-0.320391
-0.320391
-0.320391
-0.320391
-0.320391
-0.320391
-0.320391
-0.320391
-0.320391
-0.320391
-0.320391
-0.320391
-0.320391
-0.320391
-0.320391
-0.320391
-0.320391
-0.320391
-0.320391
-0.320391
-0.320391
-0.320391
-0.320391
-0.320391
-0.320391
-0.320391
-0.320391
-0.320391
-0.320391
-0.320391
-0.320391
-0.320391
-0.320391
-0.320391
-0.320391
-0.320391
-0.320391
-0.320391
-0.320391
-0.320391
-0.320391
-0.320391
-0.320391
-0.320391
-0.320391
-0.320391
-0.320391
-0.320391
-0.320391
-0.320391
-0.320391
-0.320391
-0.320391
-0.320391
-0.320391
-0.320391
-0.320391
-0.320391
-0.320391
-0.320391
-0.320391
-0.320391
-0.320391
-0.320391
-0.320391
-0.320391
-0.320391
-0.320391
-0.320391
-0.320391
-0.320391
-0.320391
-0.320391
-0.320391
-0.320391
-0.320391
-0.320391
-0.320391
-0.320391
-0.320391
-0.320391
-0.320391
-0.320391
-0.320391
-0.320391
-0.320391
-0.320391
-0.320391
-0.320391
-0.320391
-0.320391
-0.320391
-0.320391
-0.320391
-0.320391
-0.320391
-0.320391
-0.320391
-0.320391
-0.320391
-0.320391
-0.320391
-0.320391
-0.320391
-0.320391
-0.320391
-0.320391
-0.320391
-0.320391
-0.320391
-0.320391
-0.320391
-0.320391
-0.320391
-0.320391
-0.320391
-0.320391
-0.320391
-0.320391
-0.320391
-0.320391
-0.320391
-0.320391
-0.320391
-0.320391
-0.320391
-0.320391
-0.320391
-0.320391
-0.320391
-0.320391
-0.320391
-0.320391
-0.320391
-0.320391
-0.320391
-0.320391
-0.320391
-0.320391
-0.320391
-0.320391
-0.320391
-0.320391
-0.320391
-0.320391
-0.320391
-0.320391
-0.320391
-0.320391
-0.320391
-0.320391
-0.320391
-0.320391
-0.320391
-0.320391
-0.320391
-0.320391
-0.320391
-0.320391
-0.320391
-0.320391
-0.320391
-0.320391
-0.320391
-0.320391
-0.320391
-0.320391
-0.320391
-0.320391
-0.320391
-0.320391
-0.320391
-0.320391
-0.320391
-0.320391
-0.320391
-0.320391
-0.320391
-0.320391
-0.320391
-0.320391
-0.320391
-0.320391
-0.320391
-0.320391
-0.320391
-0.320391
-0.320391
-0.320391
-0.320391
-0.320391
-0.320391
-0.320391
-0.320391
-0.320391
-0.320391
-0.320391
-0.320391
-0.320391
-0.320391
-0.320391
-0.320391
-0.320391
-0.320391
-0.320391
-0.320391
-0.320391
-0.320391
-0.320391
-0.320391
-0.320391
-0.320391
-0.320391
-0.320391
-0.320391
-0.320391
-0.320391
-0.320391
-0.320391
-0.320391
-0.320391
-0.320391
-0.320391
-0.320391
-0.320391
-0.320391
-0.320391
-0.320391
-0.320391
-0.320391
-0.320391
-0.320391
-0.320391
-0.320391
-0.320391
-0.320391
-0.320391
-0.320391
-0.320391
-0.320391
-0.320391
-0.320391
-0.320391
-0.320391
-0.320391
-0.320391
-0.320391
-0.320391
-0.320391
-0.320391
-0.320391
-0.320391
-0.320391
-0.320391
-0.320391
-0.320391
-0.320391
-0.320391
-0.320391
-0.320391
-0.320391
-0.320391
-0.320391
-0.320391
-0.320391
-0.320391
-0.320391
-0.320391
-0.320391
-0.320391
-0.320391
-0.320391
-0.320391
0.320391
0.320391
0.320391
0.320391
0.320391
0.320391
0.320391
0.320391
0.320391
0.320391
0.320391
0.320391
0.320391
0.320391
0.320391
0.320391
0.320391
0.320391
0.320391
0.320391
0.320391
0.320391
0.320391
0.320391
0.320391
0.320391
0.320391
0.320391
0.320391
0.320391
0.320391
0.320391
0.320391
0.320391
0.320391
0.320391
0.320391
0.320391
0.320391
0.320391
0.320391
0.320391
0.320391
0.320391
0.320391
0.320391
0.320391
0.320391
0.320391
0.320391
0.320391
0.320391
0.320391
0.320391
0.320391
0.320391
0.320391
0.320391
0.320391
0.320391
0.320391
0.320391
0.320391
0.320391
0.320391
0.320391
0.320391
0.320391
0.320391
0.320391
0.320391
0.320391
0.320391
0.320391
0.320391
0.320391
0.320391
0.320391
0.320391
0.320391
0.320391
0.320391
0.320391
0.320391
0.320391
0.320391
0.320391
0.320391
0.320391
0.320391
0.320391
0.320391
0.320391
0.320391
0.320391
0.320391
0.320391
0.320391
0.320391
0.320391
0.320391
0.320391
0.320391
0.320391
0.320391
0.320391
0.320391
0.320391
0.320391
0.320391
0.320391
0.320391
0.320391
0.320391
0.320391
0.320391
0.320391
0.320391
0.320391
0.320391
0.320391
0.320391
0.320391
0.320391
0.320391
0.320391
0.320391
0.320391
0.320391
0.320391
0.320391
0.320391
0.320391
0.320391
0.320391
0.320391
0.320391
0.320391
0.320391
0.320391
0.320391
0.320391
0.320391
0.320391
0.320391
0.320391
0.320391
0.320391
0.320391
0.320391
0.320391
0.320391
0.320391
0.320391
0.320391
0.320391
0.320391
0.320391
0.320391
0.320391
0.320391
0.320391
0.320391
0.320391
0.320391
0.320391
0.320391
0.320391
0.320391
0.320391
0.320391
0.320391
0.320391
0.320391
0.320391
0.320391
0.320391
0.320391
0.320391
0.320391
0.320391
0.320391
0.320391
0.320391
0.320391
0.320391
0.320391
0.320391
0.320391
0.320391
0.320391
0.320391
0.320391
0.320391
0.320391
0.320391
0.320391
0.320391
0.320391
0.320391
0.320391
0.320391
0.320391
0.320391
0.320391
0.320391
0.320391
0.320391
0.320391
0.320391
0.320391
0.320391
0.320391
0.320391
0.320391
0.320391
0.320391
0.320391
0.320391
0.320391
0.320391
0.320391
0.320391
0.320391
0.320391
0.320391
0.320391
0.320391
0.320391
0.320391
0.320391
0.320391
0.320391
0.320391
0.320391
0.320391
0.320391
0.320391
0.320391
0.320391
0.320391
0.320391
0.320391
0.320391
0.320391
0.320391
0.320391
0.320391
0.320391
0.320391
0.320391
0.320391
0.320391
0.320391
0.320391
0.320391
0.320391
0.320391
0.320391
0.320391
0.320391
0.320391
0.320391
0.320391
0.320391
0.320391
0.320391
0.320391
0.320391
0.320391
0.320391
0.320391
0.320391
0.320391
0.320391
0.320391
0.320391
0.320391
0.320391
0.320391
0.320391
0.320391
0.320391
0.320391
0.320391
0.320391
0.320391
0.320391
0.320391
0.320391
0.320391
0.320391
0.320391
0.320391
0.320391
0.320391
0.320391
0.320391
0.320391
0.320391
0.320391
0.320391
0.320391
0.320391
0.320391
0.320391
0.320391
0.320391
0.320391
0.320391
0.320391
0.320391
0.320391
0.320391
0.320391
0.320391
0.320391
0.320391
0.320391
0.320391
0.320391
0.320391
0.320391
0.320391
0.320391
0.320391
0.320391
0.320391
0.320391
0.320391
0.320391
0.320391
0.320391
0.320391
0.320391
0.320391
0.320391
0.320391
0.320391
0.320391
0.320391
0.320391
0.320391
0.320391
0.320391
0.320391
0.320391
0.320391
0.320391
0.320391
0.320391
