-0.4022569954
-0.3596254289
-0.3240648508
-0.3211449683
-0.3209158778
-0.308264643
-0.301176399
-0.2833614647
-0.2794127762
-0.2749219537
-0.2729488611
-0.264441371
-0.2458474487
-0.245325923
-0.2438976765
-0.2322452366
-0.2300009876
-0.2286849171
-0.2243154496
-0.2224873602
-0.2221760154
-0.2173310071
-0.2155496478
-0.2135263085
-0.2107000649
-0.2096006125
-0.2019809633
-0.1989201903
-0.1949223429
-0.1943585575
-0.1941182613
-0.189697966
-0.1896283627
-0.189562276
-0.1891293079
-0.1879740506
-0.1875254363
-0.1846193224
-0.1844007373
-0.1814637333
-0.1799957007
-0.1791424155
-0.1781945974
-0.1781913489
-0.1755083501
-0.1732821167
-0.1725820303
-0.1725409776
-0.172319442
-0.1713859588
-0.1687389761
-0.1685568243
-0.16733253
-0.1672025323
-0.1658166796
-0.1653610468
-0.1634726822
-0.1598096341
-0.1592772752
-0.1589433253
-0.1584161371
-0.1560547203
-0.1552945375
-0.1547930092
-0.1547503769
-0.1513430029
-0.1507879794
-0.1504849494
-0.1478495151
-0.1465689838
-0.1456110924
-0.1445819438
-0.1421150118
-0.1420547664
-0.1382570565
-0.1363752186
-0.1347226501
-0.1339730024
-0.1277998239
-0.1255866885
-0.1252787411
-0.1251244545
-0.124874495
-0.1238730624
-0.1227919087
-0.1223712042
-0.1211108193
-0.1203342155
-0.1188224629
-0.117980428
-0.1166463122
-0.1148884594
-0.1143273637
-0.1141750887
-0.1140787974
-0.1100341156
-0.1088814288
-0.1066303328
-0.1061226577
-0.1058861688
-0.105338648
-0.1045334861
-0.1038517579
-0.1036121175
-0.1035572588
-0.1032782048
-0.1024502069
-0.1021513343
-0.1017658561
-0.09953274578
-0.09934210777
-0.09934186935
-0.09678468108
-0.09654914588
-0.09608935565
-0.09396580607
-0.09385356307
-0.09354232252
-0.09324672073
-0.08849389851
-0.08789977431
-0.08563488722
-0.08476163447
-0.08388699591
-0.08343289793
-0.08261308819
-0.08168955892
-0.07962497324
-0.07951804996
-0.07857120037
-0.07806964219
-0.07744646817
-0.07730971277
-0.07548449188
-0.07173490524
-0.0711498037
-0.07041281462
-0.07033707201
-0.06904271245
-0.06856548786
-0.06828311086
-0.06808803976
-0.06690849364
-0.06645428389
-0.06411465257
-0.06305912882
-0.06093699113
-0.05984896049
-0.05868764967
-0.05672175065
-0.05073750764
-0.04930070788
-0.04679707438
-0.04622261599
-0.0455108881
-0.04345501214
-0.04149192199
-0.03832088783
-0.03466540202
-0.02932604589
-0.0275482852
-0.02709477581
-0.02682320215
-0.02539978735
-0.02379825711
-0.02346486971
-0.02289094217
-0.02142213099
-0.0212801639
-0.0119274538
-0.00859811902
-0.008409947157
-0.004937846679
-0.001946827513
0.0002604137408
0.006380863488
0.01197344065
0.01524912752
0.01689477079
0.01739472523
0.01787993871
0.01984263584
0.02127836086
0.02181729674
0.0255401209
0.02693118155
0.02764068358
0.02819689177
0.02829165757
0.02970352024
0.02985876799
0.03594997525
0.03745777532
0.03806591406
0.03884770349
0.04364479706
0.04392562434
0.04544892162
0.04561992362
0.05004221573
0.05207689852
0.05590190738
0.06803337485
0.06968896091
0.07177793235
0.0724568814
0.07279893011
0.07527792454
0.0757195726
0.07739048451
0.07751047611
0.07928477973
0.07960035652
0.08023305237
0.08147035539
0.08211030811
0.08437250555
0.08765279502
0.08868329972
0.08946511894
0.09310500324
0.09744069725
0.1024486944
0.1057543159
0.1075947806
0.1112567037
0.1124031395
0.1151195839
0.117439881
0.1264578253
0.1292232871
0.1295067817
0.1316838861
0.1341097206
0.13722758
0.1382364631
0.1420104504
0.1420110911
0.1459517032
0.1481820494
0.1536189467
0.1550016999
0.1552631706
0.1560518444
0.156137988
0.1621843874
0.1697337329
0.180182308
0.1830477715
0.1837483346
0.1844285131
0.1860204488
0.1872102916
0.1873157173
0.1917408556
0.1947170347
0.1963696033
0.1964669675
0.201247856
0.2014728189
0.2070053071
0.2092021257
0.2126520425
0.2177361995
0.2258384824
0.2263353765
0.2276552767
0.2292492986
0.2336983681
0.2358723134
0.2403585315
0.24405092
0.2446530163
0.2450951785
0.2457775474
0.246531412
0.2483797967
0.2512164116
0.2526664138
0.2555624843
0.259768039
0.2689419985
0.2724028826
0.2736614048
0.2750937045
0.2753257453
0.2774899304
0.2782902122
0.2814826071
0.282250911
0.28476879
0.3064761162
0.3214980662
0.3247536719
0.3345915079
0.335709542
0.3411104083
0.3769358695
0.377287358
0.3923545182
