-0.6974717975
-0.6127148867
-0.5888587236
-0.5176730752
-0.5079014897
-0.4979038239
-0.4976043999
-0.4967149794
-0.4792998433
-0.4639966488
-0.4516163766
-0.4491584003
-0.4488890767
-0.4474511743
-0.4444717169
-0.4430492222
-0.4400250018
-0.4318241477
-0.4264402986
-0.423740536
-0.4226560593
-0.4159989655
-0.4156920314
-0.4087347388
-0.4049487412
-0.4014748633
-0.3961369693
-0.3912636042
-0.3864116967
-0.3826935291
-0.3824453652
-0.3808718622
-0.378664583
-0.3784022033
-0.3781648278
-0.3726324439
-0.370187372
-0.368929565
-0.3603074551
-0.3548052907
-0.3509781063
-0.3495589793
-0.3491736948
-0.3433180153
-0.3408339918
-0.3326310813
-0.331217587
-0.3287999928
-0.3266997039
-0.3251796365
-0.321932137
-0.3211758733
-0.3182904422
-0.3182867765
-0.3182221651
-0.3180978894
-0.3178762197
-0.3166406751
-0.3164191544
-0.3162029088
-0.3160018921
-0.3151227534
-0.3092252016
-0.3073554337
-0.3066795766
-0.2980518639
-0.2964906096
-0.2951046824
-0.2940482795
-0.2936680317
-0.2899948061
-0.2896255255
-0.2892267108
-0.2890471518
-0.2861148119
-0.2849494517
-0.284214139
-0.2839214206
-0.2838807702
-0.2784233987
-0.2781202495
-0.2772490382
-0.2765270472
-0.2759719789
-0.2757491469
-0.274620533
-0.269512862
-0.2676170766
-0.2668662667
-0.2667615712
-0.263497591
-0.2630017698
-0.2589325011
-0.2546843886
-0.2519103885
-0.2510142326
-0.2503199577
-0.2492636442
-0.2484292239
-0.2473400682
-0.2460803837
-0.2431113273
-0.2413065284
-0.2409820706
-0.2393762916
-0.2389206886
-0.2387548238
-0.2385706902
-0.2379750907
-0.2372686118
-0.2327429205
-0.2322384268
-0.2321700007
-0.2320557386
-0.2304131836
-0.2295844406
-0.2271873504
-0.2260284722
-0.2244558632
-0.2239935398
-0.2237862498
-0.2188979089
-0.2182767093
-0.2155199051
-0.2138024718
-0.2131024301
-0.2122531831
-0.2110559493
-0.2107518017
-0.2106117755
-0.2088768482
-0.2081544399
-0.2079609185
-0.2079166174
-0.2076393515
-0.2061198205
-0.2042481154
-0.2040764242
-0.2035309374
-0.2031926215
-0.2025068104
-0.2023815066
-0.2006252855
-0.2002526075
-0.1998399794
-0.198125869
-0.1958734691
-0.1948751658
-0.1944539994
-0.1929396242
-0.1915078759
-0.191176489
-0.1909006089
-0.1907172203
-0.1903631538
-0.190298453
-0.1900721192
-0.1900700927
-0.1887080222
-0.18762739
-0.1861822009
-0.185888201
-0.1852940917
-0.1839837134
-0.1834656745
-0.1807014048
-0.179880619
-0.1793769598
-0.1790448725
-0.1766739488
-0.1765620261
-0.1763131768
-0.1762357205
-0.1753786355
-0.1720123142
-0.1717875004
-0.1706976444
-0.1687541306
-0.1683341861
-0.1660200655
-0.1653503329
-0.1653095484
-0.1651707888
-0.1634196192
-0.1628596187
-0.1620687991
-0.1618417203
-0.1606092006
-0.1605719924
-0.1598170996
-0.1595227122
-0.1587819457
-0.1575156599
-0.1572930962
-0.1566669345
-0.1562819332
-0.1562167257
-0.1550496668
-0.154871881
-0.1532164663
-0.1517607719
-0.148730427
-0.1483438462
-0.1478727609
-0.1471394449
-0.1468593776
-0.1462958753
-0.1462423503
-0.1449751705
-0.141965732
-0.1413029432
-0.1409487277
-0.1398859471
-0.1398036927
-0.1388228834
-0.1387724131
-0.1380517185
-0.13698861
-0.1364121884
-0.1357836425
-0.1355884671
-0.1348201782
-0.1341766566
-0.1339705437
-0.1335874796
-0.1335139573
-0.1327560395
-0.1302506328
-0.1300949603
-0.1288115531
-0.1281669438
-0.1274579912
-0.1272002906
-0.1269931048
-0.1242583618
-0.1235945299
-0.1226552725
-0.1218896136
-0.1213316396
-0.120437555
-0.1203261241
-0.1194151044
-0.1193248555
-0.1190783009
-0.118343547
-0.116837807
-0.1167062446
-0.1163294464
-0.1157328412
-0.1143020093
-0.1133493409
-0.1133379415
-0.1127870306
-0.1123301461
-0.1122746468
-0.1108558252
-0.1097133234
-0.1089709029
-0.1075631157
-0.1066006497
-0.1038742363
-0.1034303233
-0.1024734229
-0.1022098213
-0.1019929424
-0.1018905714
-0.101875104
-0.1013746038
-0.1012323126
-0.1010398194
-0.1009080634
-0.1008593813
-0.1000785083
-0.09948714077
-0.09834995866
-0.09734962136
-0.09732349962
-0.09701422602
-0.0965166539
-0.09633693099
-0.09620929509
-0.09610786289
-0.09606806934
-0.09592031687
-0.09590904415
-0.09476393461
-0.09467212856
-0.09403278679
-0.09376207739
-0.09170006961
-0.09161172807
-0.09158340096
-0.09075123072
-0.09034053236
-0.09016404301
-0.08806778491
-0.08799178153
-0.08746702224
-0.08745392412
-0.08619324863
-0.08470226079
-0.08330459893
-0.08328022063
-0.08296119422
-0.08279366046
-0.08245863765
-0.08101174235
-0.08090797067
-0.07927969098
-0.07898212969
-0.07881299406
-0.07803839445
-0.07729860395
-0.0771356076
-0.07647416741
-0.07628412545
-0.07542880625
-0.0740095377
-0.07385682315
-0.07355587184
-0.07217488438
-0.07217351347
-0.07160817087
-0.07088213414
-0.07056212425
-0.07023123652
-0.06971938908
-0.06961786002
-0.06934182346
-0.06864159554
-0.06845761836
-0.06790741533
-0.06704816967
-0.06576741487
-0.06566104293
-0.06487710774
-0.06487566233
-0.0643016547
-0.06394534558
-0.06283062696
-0.06145265326
-0.06073744595
-0.05981364846
-0.05968166515
-0.05907768011
-0.05792816356
-0.0569348298
-0.05692124367
-0.05684214458
-0.05655429885
-0.05638889968
-0.05618754774
-0.05604986474
-0.05541926995
-0.05528569221
-0.05479457974
-0.05287673324
-0.05263565853
-0.05257663876
-0.0519130826
-0.05185545981
-0.05175966397
-0.05051891133
-0.049488388
-0.04923941568
-0.04828130454
-0.0474123992
-0.04726495221
-0.04722552374
-0.0467454493
-0.04654254392
-0.04563078657
-0.04557683319
-0.04468119144
-0.04314652458
-0.04308988526
-0.04288629442
-0.04284606501
-0.04155903682
-0.0413267985
-0.0409232229
-0.04085843638
-0.04042618722
-0.03960865736
-0.03825865313
-0.03806172684
-0.03793276101
-0.03773088381
-0.03736075759
-0.03695226088
-0.03392368555
-0.03366335481
-0.03349475935
-0.03336997703
-0.03320866823
-0.03285109252
-0.03238812089
-0.03231472522
-0.03178447112
-0.03076527826
-0.03018556535
-0.02856464498
-0.02815853804
-0.02775386162
-0.02770634554
-0.02720346861
-0.02682142518
-0.02667955123
-0.02591085434
-0.02529538237
-0.02484150603
-0.02445476688
-0.02305933461
-0.02300033532
-0.0225022696
-0.02191766538
-0.02156052552
-0.02153251134
-0.02144588903
-0.02114750259
-0.02103588358
-0.01970468648
-0.01895677485
-0.01848531514
-0.01825234294
-0.01818084903
-0.01788655482
-0.01648973674
-0.01642162167
-0.01619489305
-0.01557578892
-0.01540954318
-0.01481364109
-0.01444572769
-0.01425339375
-0.01396212541
-0.0134278452
-0.01306174602
-0.01302308403
-0.01271155756
-0.01236677263
-0.01205421425
-0.01199964248
-0.01165306289
-0.01136216801
-0.01072291285
-0.01035482064
-0.01030856464
-0.01004256681
-0.008951180615
-0.008697064593
-0.008318797685
-0.008020232432
-0.007808551658
-0.007664481178
-0.007301110309
-0.007031784859
-0.006957151461
-0.006942828652
-0.005856351927
-0.005792085081
-0.005791013129
-0.005161846988
-0.002842395334
-0.00262481859
-0.002143883845
-0.001989892218
-0.00129981176
-0.000810765021
-0.0006428307388
-0.000575573009
-0.0003356159432
-9.914554539e-05
0.0009783231653
0.001311553991
0.003460759064
0.00406861119
0.005101074465
0.005228180904
0.005252389703
0.005512531847
0.006663409527
0.006765730213
0.006903977599
0.00694908388
0.007735680323
0.008246132173
0.00834871456
0.009980318137
0.01035623532
0.01070552506
0.01115859672
0.01133253798
0.01145217754
0.01157598756
0.01188253518
0.01229836978
0.0128147779
0.01312828436
0.0132421758
0.01328377891
0.01350598782
0.0137664536
0.01483326964
0.01486240979
0.01538664382
0.01566874795
0.01573198102
0.01575877704
0.01643572748
0.01676035672
0.01688555256
0.0169196222
0.01707320288
0.01794988662
0.01797706634
0.0186203178
0.01864774525
0.01913176477
0.01930393651
0.01934325695
0.019796988
0.02079889737
0.02087273449
0.02126106992
0.02173513733
0.02193084545
0.02406505123
0.02420080081
0.02420534752
0.0248691868
0.02491248213
0.02580570988
0.02586293034
0.02642531879
0.02711568773
0.02986500598
0.03022223711
0.03024188802
0.03034935147
0.03150330484
0.03185208887
0.03235968575
0.032363493
0.03281261399
0.03421934694
0.03553980216
0.0359059386
0.03630071506
0.03632532805
0.03652979806
0.03673574328
0.03705940023
0.03711878881
0.03735275194
0.0379300043
0.03810817003
0.03871554136
0.03940220922
0.04003118351
0.04020282254
0.04024619237
0.04143282026
0.04147847742
0.04156399146
0.04174685478
0.04195003957
0.04281514138
0.04286345094
0.04361810163
0.04460455105
0.04479849711
0.04512169957
0.0454210788
0.04590332136
0.04702587053
0.04758538306
0.04870410636
0.04926773906
0.05000762269
0.0507161133
0.05129496753
0.0514225848
0.05175462365
0.05181511492
0.05239125714
0.05241457745
0.05258843675
0.05297712982
0.05307536945
0.05327207223
0.05365375057
0.05434329435
0.05576806888
0.05671780929
0.05746451765
0.05810651556
0.05943192914
0.05989821255
0.06041839719
0.06046073511
0.06065541506
0.06066432223
0.0607630685
0.06117249653
0.0634130165
0.06354894489
0.06398513168
0.06447927654
0.0645833686
0.06494354457
0.06514537334
0.06526876986
0.06592891365
0.06756151468
0.06762867421
0.06873580813
0.06979414821
0.07016996294
0.07118158042
0.07119525969
0.07131199539
0.07139834017
0.07223000377
0.07250919938
0.07338809222
0.07459402829
0.07478249073
0.07508068532
0.07604446262
0.0767114535
0.07885035127
0.07918071747
0.08019236475
0.08136823773
0.08229038864
0.08398832381
0.08620645851
0.08629064262
0.08632492274
0.08714993298
0.08779255301
0.0890038237
0.0894549489
0.08990020305
0.0899560973
0.09057881683
0.09158837795
0.09266602248
0.09327119589
0.09445871413
0.09626884013
0.09705909342
0.09731920809
0.09760030359
0.09825628251
0.09935159981
0.09978838265
0.09995827079
0.1004576832
0.1010186151
0.101399824
0.1014427617
0.1017728224
0.101886265
0.1019837186
0.1030563861
0.103211537
0.1057398245
0.1061969325
0.1062749848
0.1064760834
0.1069820896
0.1085040718
0.1087384671
0.1087528765
0.1094314158
0.1101874113
0.1108842492
0.1146984324
0.1150133014
0.1150686517
0.1154775396
0.115887031
0.1160859168
0.1170208901
0.1179921478
0.1180023178
0.1188569292
0.1193441302
0.1213222444
0.1216653958
0.1219647676
0.1224436387
0.1225909591
0.1238195002
0.1241426542
0.1244563535
0.1245635003
0.1246970743
0.12603347
0.1260473877
0.1271485388
0.1280732751
0.1285156161
0.1290545315
0.12951985
0.1295341998
0.1299057305
0.1319512576
0.1328113973
0.1331421286
0.1336803585
0.1346387863
0.1369565129
0.1386112869
0.1391886175
0.1398477256
0.140306741
0.140479967
0.1414460242
0.1418734044
0.1427734941
0.1451815367
0.1458020061
0.1458942741
0.1459777057
0.1478669643
0.148005411
0.1483853757
0.1486260444
0.1490637064
0.1506133676
0.1534425318
0.1535984576
0.1554721892
0.1560675651
0.1563782394
0.1569605768
0.1571649909
0.1576640457
0.1582132131
0.158550933
0.1590056419
0.1598582268
0.1600487977
0.1605494469
0.1614509672
0.1620176435
0.1621263027
0.1636384428
0.1637907773
0.1665756106
0.1668135673
0.1681223065
0.1697882116
0.1708764881
0.1716183722
0.1720240265
0.1727321893
0.1738865525
0.1743883789
0.1748616397
0.1759585738
0.1764104962
0.1788850725
0.1791449487
0.1792620122
0.1823965311
0.1828961819
0.1834169924
0.1861448288
0.1863008589
0.1872687787
0.1887369901
0.1893051714
0.1896621883
0.1903045326
0.1912280917
0.1914306581
0.1918321252
0.1921358705
0.1990844309
0.1996139884
0.2069972008
0.2090209872
0.2127836794
0.2156116962
0.2168980241
0.2205072939
0.2246035635
0.2313135266
0.2321282923
0.2348200083
0.2348403484
0.2376198918
0.2387708724
0.241043061
0.2428835034
0.2432991415
0.2437020242
0.2438216954
0.2449671179
0.2483413517
0.2507263422
0.2510960698
0.2514178753
0.2550215721
0.2552920282
0.255882293
0.2559753358
0.2574087083
0.258654058
0.2591925859
0.2595024407
0.2601424158
0.2601824999
0.2695142627
0.2699424922
0.2700512409
0.2755374312
0.2778761983
0.2829762399
0.2833883464
0.2874535322
0.2950994968
0.2987100184
0.3019592464
0.3059832454
0.3098868132
0.3126958609
0.3175882399
0.3179241419
0.3189128041
0.3196608424
0.3239054084
0.3311377466
0.3438057601
0.3847963512
0.4225942492
