-0.196503
-0.194962
-0.194962
-0.187256
-0.174927
-0.170303
-0.162597
-0.161056
-0.159514
-0.156432
-0.154891
-0.154891
-0.154891
-0.150267
-0.150267
-0.148726
-0.148726
-0.147185
-0.145644
-0.145644
-0.144102
-0.142561
-0.14102
-0.139479
-0.139479
-0.136396
-0.134855
-0.133314
-0.133314
-0.131773
-0.131773
-0.130232
-0.130232
-0.130232
-0.12869
-0.127149
-0.125608
-0.125608
-0.125608
-0.124067
-0.124067
-0.124067
-0.124067
-0.124067
-0.122526
-0.122526
-0.120984
-0.120984
-0.120984
-0.120984
-0.119443
-0.119443
-0.119443
-0.117902
-0.117902
-0.117902
-0.117902
-0.117902
-0.117902
-0.117902
-0.117902
-0.117902
-0.116361
-0.116361
-0.11482
-0.11482
-0.11482
-0.11482
-0.11482
-0.113278
-0.113278
-0.113278
-0.111737
-0.111737
-0.111737
-0.111737
-0.111737
-0.110196
-0.110196
-0.108655
-0.108655
-0.108655
-0.108655
-0.108655
-0.108655
-0.108655
-0.107114
-0.107114
-0.107114
-0.107114
-0.107114
-0.107114
-0.105572
-0.105572
-0.105572
-0.105572
-0.105572
-0.104031
-0.10249
-0.10249
-0.100949
-0.100949
-0.100949
-0.100949
-0.100949
-0.100949
-0.100949
-0.0994076
-0.0994076
-0.0994076
-0.0994076
-0.0994076
-0.0994076
-0.0978664
-0.0978664
-0.0978664
-0.0978664
-0.0978664
-0.0978664
-0.0963252
-0.0963252
-0.0963252
-0.0963252
-0.094784
-0.094784
-0.094784
-0.094784
-0.094784
-0.0932428
-0.0932428
-0.0932428
-0.0932428
-0.0932428
-0.0917016
-0.0917016
-0.0917016
-0.0917016
-0.0917016
-0.0901603
-0.0901603
-0.0901603
-0.0901603
-0.0901603
-0.0901603
-0.0886192
-0.0886192
-0.0886192
-0.0886192
-0.0886192
-0.0886192
-0.0886192
-0.0886192
-0.0886192
-0.0886192
-0.0870779
-0.0870779
-0.0870779
-0.0870779
-0.0870779
-0.0870779
-0.0870779
-0.0855367
-0.0855367
-0.0855367
-0.0855367
-0.0855367
-0.0855367
-0.0839955
-0.0839955
-0.0839955
-0.0839955
-0.0824543
-0.0824543
-0.0824543
-0.0824543
-0.0824543
-0.0824543
-0.0824543
-0.0824543
-0.0809131
-0.0809131
-0.0809131
-0.0809131
-0.0809131
-0.0793719
-0.0793719
-0.0793719
-0.0793719
-0.0793719
-0.0793719
-0.0778307
-0.0778307
-0.0778307
-0.0778307
-0.0778307
-0.0778307
-0.0762895
-0.0762895
-0.0762895
-0.0762895
-0.0762895
-0.0762895
-0.0762895
-0.0747483
-0.0747483
-0.0747483
-0.0747483
-0.0747483
-0.0747483
-0.0747483
-0.0747483
-0.0747483
-0.0732071
-0.0732071
-0.0732071
-0.0732071
-0.0732071
-0.0732071
-0.0732071
-0.0732071
-0.0732071
-0.0732071
-0.0732071
-0.0732071
-0.0732071
-0.0732071
-0.0716659
-0.0716659
-0.0716659
-0.0716659
-0.0716659
-0.0716659
-0.0716659
-0.0716659
-0.0716659
-0.0716659
-0.0716659
-0.0701247
-0.0701247
-0.0701247
-0.0701247
-0.0701247
-0.0701247
-0.0685835
-0.0685835
-0.0685835
-0.0685835
-0.0685835
-0.0685835
-0.0685835
-0.0685835
-0.0685835
-0.0685835
-0.0670423
-0.0670423
-0.0670423
-0.0670423
-0.0670423
-0.0670423
-0.0670423
-0.0655011
-0.0655011
-0.0655011
-0.0655011
-0.0655011
-0.0655011
-0.0639599
-0.0639599
-0.0639599
-0.0639599
-0.0639599
-0.0624187
-0.0624187
-0.0624187
-0.0624187
-0.0624187
-0.0624187
-0.0624187
-0.0624187
-0.0624187
-0.0624187
-0.0624187
-0.0608775
-0.0608775
-0.0608775
-0.0608775
-0.0608775
-0.0608775
-0.0608775
-0.0593363
-0.0593363
-0.0593363
-0.0593363
-0.0593363
-0.0593363
-0.0593363
-0.0593363
-0.0593363
-0.0593363
-0.0593363
-0.0593363
-0.0593363
-0.0593363
-0.0593363
-0.0593363
-0.0577951
-0.0577951
-0.0577951
-0.0577951
-0.0577951
-0.0577951
-0.0577951
-0.0577951
-0.0577951
-0.0577951
-0.0577951
-0.0577951
-0.0577951
-0.0577951
-0.0577951
-0.0577951
-0.0577951
-0.0577951
-0.0577951
-0.0577951
-0.0577951
-0.0562539
-0.0562539
-0.0562539
-0.0562539
-0.0562539
-0.0562539
-0.0562539
-0.0562539
-0.0562539
-0.0562539
-0.0562539
-0.0562539
-0.0562539
-0.0562539
-0.0562539
-0.0562539
-0.0547127
-0.0547127
-0.0547127
-0.0547127
-0.0547127
-0.0547127
-0.0531715
-0.0531715
-0.0531715
-0.0531715
-0.0531715
-0.0531715
-0.0531715
-0.0531715
-0.0531715
-0.0531715
-0.0531715
-0.0531715
-0.0531715
-0.0531715
-0.0531715
-0.0531715
-0.0531715
-0.0516303
-0.0516303
-0.0516303
-0.0516303
-0.0516303
-0.0516303
-0.0516303
-0.0516303
-0.0516303
-0.0516303
-0.0516303
-0.0516303
-0.0516303
-0.0516303
-0.0516303
-0.0516303
-0.0516303
-0.0516303
-0.0516303
-0.0516303
-0.0516303
-0.0500891
-0.0500891
-0.0500891
-0.0500891
-0.0500891
-0.0500891
-0.0500891
-0.0500891
-0.0500891
-0.0500891
-0.0500891
-0.0500891
-0.0485479
-0.0485479
-0.0485479
-0.0485479
-0.0485479
-0.0485479
-0.0485479
-0.0485479
-0.0485479
-0.0470067
-0.0470067
-0.0470067
-0.0470067
-0.0470067
-0.0470067
-0.0470067
-0.0470067
-0.0470067
-0.0470067
-0.0470067
-0.0470067
-0.0470067
-0.0470067
-0.0470067
-0.0470067
-0.0470067
-0.0470067
-0.0454655
-0.0454655
-0.0454655
-0.0454655
-0.0454655
-0.0454655
-0.0454655
-0.0454655
-0.0454655
-0.0454655
-0.0454655
-0.0454655
-0.0454655
-0.0454655
-0.0454655
-0.0454655
-0.0454655
-0.0454655
-0.0454655
-0.0439243
-0.0439243
-0.0439243
-0.0439243
-0.0439243
-0.0439243
-0.0439243
-0.0439243
-0.0439243
-0.0439243
-0.0439243
-0.0439243
-0.0439243
-0.0439243
-0.0439243
-0.0439243
-0.0439243
-0.0439243
-0.0439243
-0.0439243
-0.0439243
-0.0423831
-0.0423831
-0.0423831
-0.0423831
-0.0423831
-0.0423831
-0.0423831
-0.0423831
-0.0423831
-0.0423831
-0.0423831
-0.0423831
-0.0423831
-0.0423831
-0.0423831
-0.0423831
-0.0408419
-0.0408419
-0.0408419
-0.0408419
-0.0408419
-0.0408419
-0.0408419
-0.0408419
-0.0408419
-0.0408419
-0.0408419
-0.0408419
-0.0408419
-0.0408419
-0.0408419
-0.0408419
-0.0408419
-0.0408419
-0.0408419
-0.0408419
-0.0408419
-0.0408419
-0.0408419
-0.0408419
-0.0408419
-0.0408419
-0.0408419
-0.0393007
-0.0393007
-0.0393007
-0.0393007
-0.0393007
-0.0393007
-0.0393007
-0.0393007
-0.0393007
-0.0393007
-0.0393007
-0.0393007
-0.0393007
-0.0393007
-0.0393007
-0.0393007
-0.0393007
-0.0393007
-0.0393007
-0.0393007
-0.0393007
-0.0393007
-0.0393007
-0.0377594
-0.0377594
-0.0377594
-0.0377594
-0.0377594
-0.0377594
-0.0377594
-0.0377594
-0.0377594
-0.0377594
-0.0377594
-0.0377594
-0.0377594
-0.0377594
-0.0377594
-0.0362182
-0.0362182
-0.0362182
-0.0362182
-0.0362182
-0.0362182
-0.0362182
-0.0362182
-0.0362182
-0.0362182
-0.0362182
-0.0362182
-0.0362182
-0.0362182
-0.0362182
-0.0362182
-0.0362182
-0.0362182
-0.0362182
-0.034677
-0.034677
-0.034677
-0.034677
-0.034677
-0.034677
-0.034677
-0.034677
-0.034677
-0.034677
-0.034677
-0.034677
-0.034677
-0.034677
-0.034677
-0.034677
-0.034677
-0.034677
-0.034677
-0.034677
-0.034677
-0.0331358
-0.0331358
-0.0331358
-0.0331358
-0.0331358
-0.0331358
-0.0331358
-0.0331358
-0.0331358
-0.0331358
-0.0331358
-0.0331358
-0.0331358
-0.0331358
-0.0331358
-0.0331358
-0.0331358
-0.0331358
-0.0331358
-0.0331358
-0.0315946
-0.0315946
-0.0315946
-0.0315946
-0.0315946
-0.0315946
-0.0315946
-0.0315946
-0.0315946
-0.0315946
-0.0315946
-0.0315946
-0.0315946
-0.0315946
-0.0315946
-0.0315946
-0.0315946
-0.0315946
-0.0315946
-0.0315946
-0.0300534
-0.0300534
-0.0300534
-0.0300534
-0.0300534
-0.0300534
-0.0300534
-0.0300534
-0.0300534
-0.0300534
-0.0300534
-0.0300534
-0.0300534
-0.0300534
-0.0300534
-0.0300534
-0.0300534
-0.0300534
-0.0300534
-0.0300534
-0.0300534
-0.0285122
-0.0285122
-0.0285122
-0.0285122
-0.0285122
-0.0285122
-0.0285122
-0.0285122
-0.0285122
-0.0285122
-0.0285122
-0.0285122
-0.0285122
-0.0285122
-0.0285122
-0.0285122
-0.0285122
-0.0285122
-0.0285122
-0.0285122
-0.0285122
-0.0285122
-0.0285122
-0.0285122
-0.0285122
-0.0285122
-0.0285122
-0.0285122
-0.026971
-0.026971
-0.026971
-0.026971
-0.026971
-0.026971
-0.026971
-0.026971
-0.026971
-0.026971
-0.026971
-0.026971
-0.026971
-0.026971
-0.026971
-0.026971
-0.026971
-0.026971
-0.026971
-0.026971
-0.026971
-0.026971
-0.026971
-0.026971
-0.026971
-0.0254298
-0.0254298
-0.0254298
-0.0254298
-0.0254298
-0.0254298
-0.0254298
-0.0254298
-0.0254298
-0.0254298
-0.0254298
-0.0254298
-0.0254298
-0.0254298
-0.0254298
-0.0254298
-0.0254298
-0.0254298
-0.0254298
-0.0254298
-0.0254298
-0.0254298
-0.0254298
-0.0238886
-0.0238886
-0.0238886
-0.0238886
-0.0238886
-0.0238886
-0.0238886
-0.0238886
-0.0238886
-0.0238886
-0.0238886
-0.0238886
-0.0238886
-0.0238886
-0.0238886
-0.0238886
-0.0238886
-0.0238886
-0.0238886
-0.0238886
-0.0238886
-0.0238886
-0.0238886
-0.0238886
-0.0238886
-0.0238886
-0.0238886
-0.0238886
-0.0238886
-0.0238886
-0.0238886
-0.0223474
-0.0223474
-0.0223474
-0.0223474
-0.0223474
-0.0223474
-0.0223474
-0.0223474
-0.0223474
-0.0223474
-0.0223474
-0.0223474
-0.0223474
-0.0223474
-0.0223474
-0.0223474
-0.0223474
-0.0223474
-0.0223474
-0.0223474
-0.0223474
-0.0223474
-0.0208062
-0.0208062
-0.0208062
-0.0208062
-0.0208062
-0.0208062
-0.0208062
-0.0208062
-0.0208062
-0.0208062
-0.0208062
-0.0208062
-0.0208062
-0.0208062
-0.0208062
-0.0208062
-0.0208062
-0.0208062
-0.0208062
-0.0208062
-0.0208062
-0.0208062
-0.0208062
-0.0208062
-0.0208062
-0.0208062
-0.0208062
-0.0208062
-0.019265
-0.019265
-0.019265
-0.019265
-0.019265
-0.019265
-0.019265
-0.019265
-0.019265
-0.019265
-0.019265
-0.019265
-0.019265
-0.019265
-0.019265
-0.019265
-0.019265
-0.019265
-0.019265
-0.019265
-0.019265
-0.019265
-0.019265
-0.019265
-0.019265
-0.0177238
-0.0177238
-0.0177238
-0.0177238
-0.0177238
-0.0177238
-0.0177238
-0.0177238
-0.0177238
-0.0177238
-0.0177238
-0.0177238
-0.0177238
-0.0177238
-0.0177238
-0.0177238
-0.0177238
-0.0177238
-0.0177238
-0.0177238
-0.0177238
-0.0177238
-0.0177238
-0.0177238
-0.0177238
-0.0161826
-0.0161826
-0.0161826
-0.0161826
-0.0161826
-0.0161826
-0.0161826
-0.0161826
-0.0161826
-0.0161826
-0.0161826
-0.0161826
-0.0161826
-0.0161826
-0.0161826
-0.0161826
-0.0161826
-0.0161826
-0.0161826
-0.0161826
-0.0161826
-0.0161826
-0.0161826
-0.0161826
-0.0161826
-0.0161826
-0.0161826
-0.0161826
-0.0161826
-0.0161826
-0.0146414
-0.0146414
-0.0146414
-0.0146414
-0.0146414
-0.0146414
-0.0146414
-0.0146414
-0.0146414
-0.0146414
-0.0146414
-0.0146414
-0.0146414
-0.0146414
-0.0146414
-0.0146414
-0.0146414
-0.0146414
-0.0146414
-0.0146414
-0.0146414
-0.0146414
-0.0146414
-0.0146414
-0.0146414
-0.0146414
-0.0146414
-0.0146414
-0.0146414
-0.0146414
-0.0131002
-0.0131002
-0.0131002
-0.0131002
-0.0131002
-0.0131002
-0.0131002
-0.0131002
-0.0131002
-0.0131002
-0.0131002
-0.0131002
-0.0131002
-0.0131002
-0.0131002
-0.0131002
-0.0131002
-0.0131002
-0.0131002
-0.0131002
-0.0131002
-0.0131002
-0.0131002
-0.0131002
-0.0131002
-0.011559
-0.011559
-0.011559
-0.011559
-0.011559
-0.011559
-0.011559
-0.011559
-0.011559
-0.011559
-0.011559
-0.011559
-0.011559
-0.011559
-0.011559
-0.011559
-0.011559
-0.011559
-0.011559
-0.011559
-0.011559
-0.011559
-0.011559
-0.011559
-0.011559
-0.011559
-0.011559
-0.011559
-0.011559
-0.011559
-0.011559
-0.0100178
-0.0100178
-0.0100178
-0.0100178
-0.0100178
-0.0100178
-0.0100178
-0.0100178
-0.0100178
-0.0100178
-0.0100178
-0.0100178
-0.0100178
-0.0100178
-0.0100178
-0.0100178
-0.0100178
-0.0100178
-0.0100178
-0.0100178
-0.0100178
-0.0100178
-0.0084766
-0.0084766
-0.0084766
-0.0084766
-0.0084766
-0.0084766
-0.0084766
-0.0084766
-0.0084766
-0.0084766
-0.0084766
-0.0084766
-0.0084766
-0.0084766
-0.0084766
-0.0084766
-0.0084766
-0.0084766
-0.0084766
-0.0084766
-0.0084766
-0.0084766
-0.0084766
-0.0084766
-0.0084766
-0.0084766
-0.0069354
-0.0069354
-0.0069354
-0.0069354
-0.0069354
-0.0069354
-0.0069354
-0.0069354
-0.0069354
-0.0069354
-0.0069354
-0.0069354
-0.0069354
-0.0069354
-0.0069354
-0.0069354
-0.0069354
-0.0069354
-0.0069354
-0.0069354
-0.0069354
-0.0069354
-0.0069354
-0.0069354
-0.0069354
-0.0069354
-0.0069354
-0.0069354
-0.0069354
-0.0069354
-0.0069354
-0.0069354
-0.0069354
-0.0069354
-0.0053942
-0.0053942
-0.0053942
-0.0053942
-0.0053942
-0.0053942
-0.0053942
-0.0053942
-0.0053942
-0.0053942
-0.0053942
-0.0053942
-0.0053942
-0.0053942
-0.0053942
-0.0053942
-0.0053942
-0.0053942
-0.0053942
-0.0053942
-0.0053942
-0.0053942
-0.0053942
-0.0053942
-0.0053942
-0.0053942
-0.0053942
-0.0053942
-0.0053942
-0.0053942
-0.0053942
-0.0053942
-0.0053942
-0.0053942
-0.0053942
-0.0053942
-0.0053942
-0.0053942
-0.00385299
-0.00385299
-0.00385299
-0.00385299
-0.00385299
-0.00385299
-0.00385299
-0.00385299
-0.00385299
-0.00385299
-0.00385299
-0.00385299
-0.00385299
-0.00385299
-0.00385299
-0.00385299
-0.00385299
-0.00385299
-0.00385299
-0.00385299
-0.00385299
-0.00385299
-0.00385299
-0.00385299
-0.00385299
-0.00385299
-0.00385299
-0.00385299
-0.00385299
-0.00385299
-0.00385299
-0.00385299
-0.00231179
-0.00231179
-0.00231179
-0.00231179
-0.00231179
-0.00231179
-0.00231179
-0.00231179
-0.00231179
-0.00231179
-0.00231179
-0.00231179
-0.00231179
-0.00231179
-0.00231179
-0.00231179
-0.00231179
-0.00231179
-0.00231179
-0.00231179
-0.00231179
-0.00231179
-0.00231179
-0.00231179
-0.00231179
-0.00231179
-0.00231179
-0.00231179
-0.00231179
-0.00077059
-0.00077059
-0.00077059
-0.00077059
-0.00077059
-0.00077059
-0.00077059
-0.00077059
-0.00077059
-0.00077059
-0.00077059
-0.00077059
-0.00077059
-0.00077059
-0.00077059
-0.00077059
-0.00077059
-0.00077059
-0.00077059
-0.00077059
-0.00077059
-0.00077059
-0.00077059
-0.00077059
-0.00077059
-0.00077059
-0.00077059
-0.00077059
-0.00077059
-0.00077059
-0.00077059
0.000770613
0.000770613
0.000770613
0.000770613
0.000770613
0.000770613
0.000770613
0.000770613
0.000770613
0.000770613
0.000770613
0.000770613
0.000770613
0.000770613
0.000770613
0.000770613
0.000770613
0.000770613
0.000770613
0.000770613
0.000770613
0.000770613
0.000770613
0.000770613
0.000770613
0.000770613
0.000770613
0.000770613
0.000770613
0.000770613
0.000770613
0.000770613
0.000770613
0.000770613
0.000770613
0.000770613
0.000770613
0.000770613
0.000770613
0.000770613
0.000770613
0.00231182
0.00231182
0.00231182
0.00231182
0.00231182
0.00231182
0.00231182
0.00231182
0.00231182
0.00231182
0.00231182
0.00231182
0.00231182
0.00231182
0.00231182
0.00231182
0.00231182
0.00231182
0.00231182
0.00231182
0.00231182
0.00231182
0.00231182
0.00231182
0.00231182
0.00231182
0.00231182
0.00231182
0.00231182
0.00231182
0.00231182
0.00231182
0.00231182
0.00385302
0.00385302
0.00385302
0.00385302
0.00385302
0.00385302
0.00385302
0.00385302
0.00385302
0.00385302
0.00385302
0.00385302
0.00385302
0.00385302
0.00385302
0.00385302
0.00385302
0.00385302
0.00385302
0.00385302
0.00385302
0.00385302
0.00385302
0.00385302
0.00385302
0.00385302
0.00385302
0.00385302
0.00385302
0.00385302
0.00385302
0.00385302
0.00385302
0.00385302
0.00385302
0.00385302
0.00385302
0.00539422
0.00539422
0.00539422
0.00539422
0.00539422
0.00539422
0.00539422
0.00539422
0.00539422
0.00539422
0.00539422
0.00539422
0.00539422
0.00539422
0.00539422
0.00539422
0.00539422
0.00539422
0.00539422
0.00539422
0.00539422
0.00539422
0.00539422
0.00539422
0.00539422
0.00539422
0.00693542
0.00693542
0.00693542
0.00693542
0.00693542
0.00693542
0.00693542
0.00693542
0.00693542
0.00693542
0.00693542
0.00693542
0.00693542
0.00693542
0.00693542
0.00693542
0.00693542
0.00693542
0.00693542
0.00693542
0.00693542
0.00693542
0.00693542
0.00693542
0.00693542
0.00693542
0.00693542
0.00693542
0.00693542
0.00847663
0.00847663
0.00847663
0.00847663
0.00847663
0.00847663
0.00847663
0.00847663
0.00847663
0.00847663
0.00847663
0.00847663
0.00847663
0.00847663
0.00847663
0.00847663
0.00847663
0.00847663
0.00847663
0.00847663
0.00847663
0.00847663
0.00847663
0.00847663
0.00847663
0.00847663
0.00847663
0.00847663
0.00847663
0.00847663
0.00847663
0.0100178
0.0100178
0.0100178
0.0100178
0.0100178
0.0100178
0.0100178
0.0100178
0.0100178
0.0100178
0.0100178
0.0100178
0.0100178
0.0100178
0.0100178
0.0100178
0.0100178
0.0100178
0.0100178
0.0100178
0.0100178
0.0100178
0.0100178
0.0100178
0.0100178
0.0100178
0.0100178
0.0100178
0.0100178
0.0100178
0.0100178
0.0100178
0.0100178
0.0100178
0.0100178
0.0100178
0.0100178
0.0100178
0.0100178
0.011559
0.011559
0.011559
0.011559
0.011559
0.011559
0.011559
0.011559
0.011559
0.011559
0.011559
0.011559
0.011559
0.011559
0.011559
0.011559
0.011559
0.011559
0.011559
0.011559
0.011559
0.011559
0.011559
0.011559
0.011559
0.011559
0.011559
0.011559
0.011559
0.011559
0.011559
0.011559
0.011559
0.011559
0.011559
0.011559
0.0131002
0.0131002
0.0131002
0.0131002
0.0131002
0.0131002
0.0131002
0.0131002
0.0131002
0.0131002
0.0131002
0.0131002
0.0131002
0.0131002
0.0131002
0.0131002
0.0131002
0.0131002
0.0131002
0.0131002
0.0131002
0.0131002
0.0131002
0.0131002
0.0131002
0.0131002
0.0131002
0.0131002
0.0131002
0.0131002
0.0131002
0.0146414
0.0146414
0.0146414
0.0146414
0.0146414
0.0146414
0.0146414
0.0146414
0.0146414
0.0146414
0.0146414
0.0146414
0.0146414
0.0146414
0.0146414
0.0146414
0.0146414
0.0146414
0.0146414
0.0146414
0.0146414
0.0146414
0.0146414
0.0146414
0.0146414
0.0146414
0.0146414
0.0146414
0.0146414
0.0146414
0.0146414
0.0146414
0.0146414
0.0146414
0.0146414
0.0146414
0.0161826
0.0161826
0.0161826
0.0161826
0.0161826
0.0161826
0.0161826
0.0161826
0.0161826
0.0161826
0.0161826
0.0161826
0.0161826
0.0161826
0.0161826
0.0161826
0.0161826
0.0161826
0.0161826
0.0161826
0.0161826
0.0161826
0.0161826
0.0177238
0.0177238
0.0177238
0.0177238
0.0177238
0.0177238
0.0177238
0.0177238
0.0177238
0.0177238
0.0177238
0.0177238
0.0177238
0.0177238
0.0177238
0.0177238
0.0177238
0.0177238
0.0177238
0.0177238
0.0177238
0.0177238
0.0177238
0.0177238
0.0177238
0.0177238
0.0177238
0.0177238
0.0177238
0.0177238
0.0177238
0.0177238
0.0177238
0.0177238
0.0177238
0.0177238
0.0177238
0.0177238
0.0177238
0.019265
0.019265
0.019265
0.019265
0.019265
0.019265
0.019265
0.019265
0.019265
0.019265
0.019265
0.019265
0.019265
0.019265
0.019265
0.019265
0.019265
0.019265
0.019265
0.019265
0.019265
0.019265
0.0208062
0.0208062
0.0208062
0.0208062
0.0208062
0.0208062
0.0208062
0.0208062
0.0208062
0.0208062
0.0208062
0.0208062
0.0208062
0.0208062
0.0208062
0.0208062
0.0208062
0.0208062
0.0208062
0.0208062
0.0208062
0.0208062
0.0208062
0.0208062
0.0208062
0.0208062
0.0208062
0.0208062
0.0223474
0.0223474
0.0223474
0.0223474
0.0223474
0.0223474
0.0223474
0.0223474
0.0223474
0.0223474
0.0223474
0.0223474
0.0223474
0.0223474
0.0223474
0.0223474
0.0223474
0.0223474
0.0223474
0.0223474
0.0223474
0.0223474
0.0223474
0.0223474
0.0223474
0.0223474
0.0223474
0.0223474
0.0238887
0.0238887
0.0238887
0.0238887
0.0238887
0.0238887
0.0238887
0.0238887
0.0238887
0.0238887
0.0238887
0.0238887
0.0238887
0.0238887
0.0238887
0.0238887
0.0238887
0.0238887
0.0238887
0.0238887
0.0238887
0.0238887
0.0238887
0.0238887
0.0238887
0.0238887
0.0238887
0.0238887
0.0238887
0.0238887
0.0238887
0.0238887
0.0238887
0.0238887
0.0238887
0.0238887
0.0238887
0.0238887
0.0238887
0.0238887
0.0238887
0.0238887
0.0238887
0.0238887
0.0238887
0.0254299
0.0254299
0.0254299
0.0254299
0.0254299
0.0254299
0.0254299
0.0254299
0.0254299
0.0254299
0.0254299
0.0254299
0.0254299
0.0254299
0.0254299
0.0254299
0.0254299
0.0254299
0.0254299
0.0254299
0.0254299
0.0254299
0.0254299
0.0254299
0.0254299
0.0254299
0.0254299
0.0254299
0.0269711
0.0269711
0.0269711
0.0269711
0.0269711
0.0269711
0.0269711
0.0269711
0.0269711
0.0269711
0.0269711
0.0269711
0.0269711
0.0269711
0.0269711
0.0269711
0.0269711
0.0269711
0.0269711
0.0269711
0.0269711
0.0269711
0.0269711
0.0269711
0.0269711
0.0269711
0.0269711
0.0269711
0.0269711
0.0269711
0.0269711
0.0269711
0.0269711
0.0269711
0.0269711
0.0269711
0.0269711
0.0269711
0.0285123
0.0285123
0.0285123
0.0285123
0.0285123
0.0285123
0.0285123
0.0285123
0.0285123
0.0285123
0.0285123
0.0285123
0.0285123
0.0285123
0.0285123
0.0285123
0.0285123
0.0285123
0.0285123
0.0285123
0.0285123
0.0285123
0.0285123
0.0285123
0.0285123
0.0285123
0.0285123
0.0285123
0.0285123
0.0285123
0.0285123
0.0300535
0.0300535
0.0300535
0.0300535
0.0300535
0.0300535
0.0300535
0.0300535
0.0300535
0.0300535
0.0300535
0.0300535
0.0300535
0.0300535
0.0300535
0.0300535
0.0300535
0.0300535
0.0300535
0.0300535
0.0300535
0.0300535
0.0300535
0.0300535
0.0300535
0.0300535
0.0300535
0.0315947
0.0315947
0.0315947
0.0315947
0.0315947
0.0315947
0.0315947
0.0315947
0.0315947
0.0315947
0.0315947
0.0315947
0.0315947
0.0315947
0.0315947
0.0315947
0.0315947
0.0315947
0.0315947
0.0315947
0.0315947
0.0315947
0.0315947
0.0315947
0.0315947
0.0315947
0.0315947
0.0315947
0.0315947
0.0315947
0.0315947
0.0315947
0.0315947
0.0315947
0.0331359
0.0331359
0.0331359
0.0331359
0.0331359
0.0331359
0.0331359
0.0331359
0.0331359
0.0331359
0.0331359
0.0331359
0.0331359
0.0331359
0.0331359
0.0331359
0.0331359
0.0331359
0.0331359
0.0331359
0.0331359
0.0331359
0.0331359
0.0346771
0.0346771
0.0346771
0.0346771
0.0346771
0.0346771
0.0346771
0.0346771
0.0346771
0.0346771
0.0346771
0.0346771
0.0346771
0.0346771
0.0346771
0.0346771
0.0362183
0.0362183
0.0362183
0.0362183
0.0362183
0.0362183
0.0362183
0.0362183
0.0362183
0.0362183
0.0362183
0.0362183
0.0362183
0.0362183
0.0362183
0.0362183
0.0362183
0.0362183
0.0362183
0.0362183
0.0362183
0.0362183
0.0362183
0.0362183
0.0362183
0.0377595
0.0377595
0.0377595
0.0377595
0.0377595
0.0377595
0.0377595
0.0377595
0.0377595
0.0377595
0.0377595
0.0377595
0.0377595
0.0377595
0.0377595
0.0377595
0.0377595
0.0377595
0.0377595
0.0377595
0.0377595
0.0377595
0.0377595
0.0377595
0.0377595
0.0377595
0.0377595
0.0393007
0.0393007
0.0393007
0.0393007
0.0393007
0.0393007
0.0393007
0.0393007
0.0393007
0.0393007
0.0393007
0.0393007
0.0393007
0.0393007
0.0393007
0.0393007
0.0393007
0.0393007
0.0393007
0.0393007
0.0393007
0.0393007
0.0393007
0.0393007
0.0393007
0.0393007
0.0408419
0.0408419
0.0408419
0.0408419
0.0408419
0.0408419
0.0408419
0.0408419
0.0408419
0.0408419
0.0408419
0.0408419
0.0408419
0.0408419
0.0408419
0.0408419
0.0408419
0.0408419
0.0408419
0.0408419
0.0408419
0.0408419
0.0408419
0.0408419
0.0408419
0.0408419
0.0408419
0.0423831
0.0423831
0.0423831
0.0423831
0.0423831
0.0423831
0.0423831
0.0423831
0.0423831
0.0423831
0.0423831
0.0423831
0.0423831
0.0423831
0.0423831
0.0423831
0.0423831
0.0423831
0.0423831
0.0439243
0.0439243
0.0439243
0.0439243
0.0439243
0.0439243
0.0439243
0.0439243
0.0439243
0.0439243
0.0439243
0.0439243
0.0439243
0.0439243
0.0439243
0.0439243
0.0439243
0.0454655
0.0454655
0.0454655
0.0454655
0.0454655
0.0454655
0.0454655
0.0454655
0.0454655
0.0454655
0.0454655
0.0454655
0.0454655
0.0454655
0.0454655
0.0454655
0.0454655
0.0470067
0.0470067
0.0470067
0.0470067
0.0470067
0.0470067
0.0470067
0.0470067
0.0470067
0.0470067
0.0470067
0.0470067
0.0470067
0.0470067
0.0470067
0.0470067
0.0470067
0.0470067
0.0470067
0.0485479
0.0485479
0.0485479
0.0485479
0.0485479
0.0485479
0.0485479
0.0485479
0.0485479
0.0485479
0.0485479
0.0485479
0.0485479
0.0485479
0.0485479
0.0485479
0.0485479
0.0485479
0.0500891
0.0500891
0.0500891
0.0500891
0.0500891
0.0500891
0.0500891
0.0500891
0.0500891
0.0500891
0.0500891
0.0500891
0.0500891
0.0500891
0.0516303
0.0516303
0.0516303
0.0516303
0.0516303
0.0516303
0.0516303
0.0516303
0.0516303
0.0516303
0.0516303
0.0516303
0.0516303
0.0516303
0.0516303
0.0516303
0.0516303
0.0531715
0.0531715
0.0531715
0.0531715
0.0531715
0.0531715
0.0531715
0.0531715
0.0531715
0.0531715
0.0531715
0.0531715
0.0531715
0.0531715
0.0531715
0.0531715
0.0531715
0.0547127
0.0547127
0.0547127
0.0547127
0.0547127
0.0547127
0.0547127
0.0547127
0.0547127
0.0547127
0.0547127
0.0547127
0.0547127
0.0547127
0.0562539
0.0562539
0.0562539
0.0562539
0.0562539
0.0562539
0.0562539
0.0562539
0.0562539
0.0562539
0.0562539
0.0577951
0.0577951
0.0577951
0.0577951
0.0577951
0.0577951
0.0577951
0.0577951
0.0577951
0.0577951
0.0577951
0.0577951
0.0577951
0.0577951
0.0577951
0.0593363
0.0593363
0.0593363
0.0593363
0.0593363
0.0593363
0.0593363
0.0593363
0.0593363
0.0593363
0.0593363
0.0593363
0.0608775
0.0608775
0.0608775
0.0608775
0.0608775
0.0608775
0.0608775
0.0608775
0.0608775
0.0608775
0.0608775
0.0624187
0.0624187
0.0624187
0.0624187
0.0624187
0.0624187
0.0624187
0.0624187
0.0624187
0.0624187
0.0624187
0.0624187
0.0624187
0.0624187
0.0639599
0.0639599
0.0639599
0.0639599
0.0639599
0.0639599
0.0639599
0.0639599
0.0639599
0.0639599
0.0639599
0.0639599
0.0639599
0.0639599
0.0639599
0.0639599
0.0655011
0.0655011
0.0655011
0.0655011
0.0655011
0.0655011
0.0655011
0.0655011
0.0670423
0.0670423
0.0670423
0.0670423
0.0670423
0.0670423
0.0670423
0.0670423
0.0670423
0.0670423
0.0670423
0.0685835
0.0685835
0.0685835
0.0685835
0.0685835
0.0685835
0.0701247
0.0701247
0.0701247
0.0701247
0.0701247
0.0701247
0.0701247
0.0701247
0.0716659
0.0716659
0.0716659
0.0716659
0.0716659
0.0716659
0.0716659
0.0716659
0.0716659
0.0716659
0.0716659
0.0732071
0.0732071
0.0732071
0.0732071
0.0732071
0.0732071
0.0732071
0.0747483
0.0747483
0.0747483
0.0747483
0.0747483
0.0747483
0.0747483
0.0747483
0.0762895
0.0762895
0.0762895
0.0762895
0.0762895
0.0762895
0.0762895
0.0762895
0.0778307
0.0778307
0.0778307
0.0778307
0.0778307
0.0778307
0.0778307
0.0778307
0.0793719
0.0793719
0.0793719
0.0793719
0.0793719
0.0793719
0.0793719
0.0793719
0.0809131
0.0809131
0.0809131
0.0809131
0.0809131
0.0809131
0.0809131
0.0809131
0.0824543
0.0824543
0.0839956
0.0839956
0.0839956
0.0839956
0.0855368
0.0855368
0.0855368
0.0855368
0.0855368
0.0855368
0.0855368
0.087078
0.087078
0.087078
0.0886192
0.0886192
0.0886192
0.0886192
0.0886192
0.0886192
0.0886192
0.0886192
0.0886192
0.0886192
0.0917016
0.0917016
0.0917016
0.0917016
0.0917016
0.0917016
0.0932428
0.0932428
0.0932428
0.0932428
0.094784
0.0963252
0.0978664
0.0978664
0.0978664
0.0978664
0.0994076
0.0994076
0.0994076
0.100949
0.100949
0.100949
0.10249
0.10249
0.104031
0.104031
0.104031
0.105572
0.110196
0.110196
0.111737
0.113278
0.113278
0.113278
0.124067
0.124067
0.127149
0.12869
0.133314
0.133314
0.136396
0.137938
0.159515
0.165679
