-0.201617
-0.18789
-0.184458
-0.169015
-0.15872
-0.15872
-0.157004
-0.151856
-0.15014
-0.143277
-0.138129
-0.134697
-0.132981
-0.131266
-0.131266
-0.131266
-0.119254
-0.117538
-0.115823
-0.114107
-0.114107
-0.112391
-0.112391
-0.108959
-0.108959
-0.108959
-0.107243
-0.10038
-0.10038
-0.0969478
-0.0952319
-0.0952319
-0.093516
-0.0918001
-0.0900842
-0.0883683
-0.0866524
-0.0849366
-0.0849366
-0.0849366
-0.0832207
-0.0832207
-0.0832207
-0.0832207
-0.0815048
-0.0815048
-0.0815048
-0.0797889
-0.0797889
-0.0797889
-0.078073
-0.078073
-0.0746412
-0.0729253
-0.0712094
-0.0712094
-0.0712094
-0.0712094
-0.0712094
-0.0694935
-0.0694935
-0.0694935
-0.0677777
-0.0677777
-0.0677777
-0.0660618
-0.0660618
-0.0660618
-0.0660618
-0.0643459
-0.0643459
-0.06263
-0.0609141
-0.0591982
-0.0591982
-0.0574823
-0.0574823
-0.0574823
-0.0574823
-0.0557664
-0.0557664
-0.0540505
-0.0540505
-0.0540505
-0.0523346
-0.0523346
-0.0523346
-0.0523346
-0.0523346
-0.0523346
-0.0506187
-0.0489029
-0.0489029
-0.0489029
-0.047187
-0.0454711
-0.0454711
-0.0454711
-0.0454711
-0.0454711
-0.0437552
-0.0437552
-0.0437552
-0.0437552
-0.0437552
-0.0420393
-0.0403234
-0.0386075
-0.0386075
-0.0368916
-0.0351757
-0.0351757
-0.0351757
-0.0351757
-0.0334598
-0.0334598
-0.0334598
-0.0334598
-0.031744
-0.031744
-0.031744
-0.031744
-0.0300281
-0.0300281
-0.0300281
-0.0283122
-0.0283122
-0.0283122
-0.0265963
-0.0265963
-0.0248804
-0.0248804
-0.0248804
-0.0214486
-0.0214486
-0.0214486
-0.0214486
-0.0214486
-0.0197327
-0.0180168
-0.0163009
-0.0163009
-0.0145851
-0.0145851
-0.0145851
-0.0128692
-0.0111533
-0.0111533
-0.00943738
-0.00772149
-0.00772149
-0.00428971
-0.00428971
-0.00428971
-0.00428971
-0.00428971
-0.00428971
-0.00428971
-0.00257382
-0.000857932
-0.000857932
-0.000857932
0.000857958
0.000857958
0.000857958
0.00257385
0.00428974
0.00428974
0.00428974
0.00428974
0.00600563
0.00600563
0.00600563
0.00600563
0.00772152
0.00772152
0.00772152
0.00943741
0.0111533
0.0111533
0.0111533
0.0128692
0.0128692
0.0145851
0.0145851
0.016301
0.016301
0.016301
0.016301
0.0197327
0.0214486
0.0214486
0.0214486
0.0231645
0.0231645
0.0248804
0.0248804
0.0265963
0.0265963
0.0265963
0.0283122
0.0300281
0.0300281
0.031744
0.0334599
0.0334599
0.0334599
0.0334599
0.0351758
0.0351758
0.0368916
0.0368916
0.0386075
0.0386075
0.0403234
0.0420393
0.0420393
0.0437552
0.0454711
0.0454711
0.0454711
0.047187
0.047187
0.0489029
0.0506188
0.0523347
0.0523347
0.0523347
0.0557664
0.0557664
0.0557664
0.0591982
0.0609141
0.0609141
0.0609141
0.06263
0.06263
0.0643459
0.0643459
0.0660618
0.0660618
0.0677777
0.0677777
0.0694936
0.0712094
0.0729253
0.0729253
0.0746412
0.0763571
0.0815048
0.0832207
0.0832207
0.0849366
0.0849366
0.0866525
0.0866525
0.0866525
0.0883683
0.0900842
0.0900842
0.0918001
0.093516
0.093516
0.093516
0.0952319
0.0952319
0.0969478
0.10038
0.107243
0.107243
0.108959
0.112391
0.114107
0.119254
0.126118
0.127834
0.12955
0.131266
0.132982
0.134697
0.138129
0.139845
0.139845
0.146709
0.15014
0.151856
0.151856
0.157004
0.165583
0.165583
0.167299
0.175879
0.179311
0.181026
0.182742
0.18789
0.18789
0.203333
0.205049
0.218776
