-0.912992
-0.898671
-0.884349
-0.855707
-0.855707
-0.848546
-0.848546
-0.848546
-0.841385
-0.841385
-0.841385
-0.834224
-0.812742
-0.812742
-0.812742
-0.812742
-0.798421
-0.798421
-0.79126
-0.784099
-0.784099
-0.776939
-0.776939
-0.776939
-0.769778
-0.769778
-0.762617
-0.755456
-0.755456
-0.748296
-0.741135
-0.726813
-0.712492
-0.712492
-0.705331
-0.698171
-0.698171
-0.69101
-0.69101
-0.683849
-0.683849
-0.683849
-0.683849
-0.683849
-0.683849
-0.676688
-0.676688
-0.662367
-0.662367
-0.662367
-0.648046
-0.648046
-0.648046
-0.640885
-0.640885
-0.640885
-0.640885
-0.633724
-0.633724
-0.626563
-0.626563
-0.626563
-0.619403
-0.612242
-0.612242
-0.612242
-0.612242
-0.612242
-0.612242
-0.605081
-0.605081
-0.59792
-0.59792
-0.59076
-0.583599
-0.583599
-0.576438
-0.576438
-0.576438
-0.576438
-0.576438
-0.576438
-0.569278
-0.569278
-0.569278
-0.569278
-0.562117
-0.562117
-0.562117
-0.554956
-0.554956
-0.554956
-0.554956
-0.554956
-0.554956
-0.554956
-0.554956
-0.547795
-0.547795
-0.547795
-0.540635
-0.540635
-0.533474
-0.533474
-0.526313
-0.526313
-0.519152
-0.519152
-0.511992
-0.511992
-0.511992
-0.511992
-0.511992
-0.504831
-0.504831
-0.49767
-0.49767
-0.49051
-0.49051
-0.49051
-0.49051
-0.476188
-0.476188
-0.469027
-0.469027
-0.469027
-0.461867
-0.461867
-0.461867
-0.461867
-0.461867
-0.461867
-0.461867
-0.454706
-0.454706
-0.447545
-0.447545
-0.440385
-0.440385
-0.440385
-0.433224
-0.433224
-0.433224
-0.433224
-0.426063
-0.426063
-0.426063
-0.426063
-0.426063
-0.418902
-0.418902
-0.418902
-0.418902
-0.411742
-0.411742
-0.411742
-0.411742
-0.404581
-0.404581
-0.404581
-0.39742
-0.39742
-0.390259
-0.390259
-0.390259
-0.383099
-0.383099
-0.368777
-0.361617
-0.361617
-0.361617
-0.361617
-0.354456
-0.354456
-0.354456
-0.354456
-0.347295
-0.347295
-0.340134
-0.340134
-0.340134
-0.340134
-0.332974
-0.332974
-0.332974
-0.332974
-0.332974
-0.332974
-0.325813
-0.325813
-0.325813
-0.325813
-0.318652
-0.311491
-0.304331
-0.304331
-0.29717
-0.282849
-0.282849
-0.282849
-0.282849
-0.275688
-0.275688
-0.275688
-0.268527
-0.268527
-0.261366
-0.254206
-0.254206
-0.254206
-0.254206
-0.239884
-0.232724
-0.232724
-0.232724
-0.225563
-0.225563
-0.225563
-0.225563
-0.225563
-0.225563
-0.218402
-0.218402
-0.211241
-0.211241
-0.211241
-0.204081
-0.204081
-0.204081
-0.204081
-0.204081
-0.19692
-0.19692
-0.175438
-0.175438
-0.175438
-0.168277
-0.168277
-0.168277
-0.168277
-0.168277
-0.168277
-0.161116
-0.161116
-0.153956
-0.153956
-0.146795
-0.146795
-0.146795
-0.146795
-0.139634
-0.139634
-0.139634
-0.139634
-0.132473
-0.132473
-0.132473
-0.132473
-0.132473
-0.132473
-0.132473
-0.132473
-0.132473
-0.125313
-0.125313
-0.125313
-0.125313
-0.125313
-0.125313
-0.125313
-0.125313
-0.125313
-0.125313
-0.125313
-0.125313
-0.118152
-0.118152
-0.118152
-0.118152
-0.118152
-0.118152
-0.110991
-0.110991
-0.110991
-0.110991
-0.110991
-0.110991
-0.10383
-0.10383
-0.10383
-0.10383
-0.10383
-0.10383
-0.10383
-0.10383
-0.10383
-0.10383
-0.10383
-0.10383
-0.10383
-0.0966697
-0.0966697
-0.0966697
-0.0966697
-0.0966697
-0.0966697
-0.0966697
-0.0966697
-0.0966697
-0.089509
-0.089509
-0.089509
-0.089509
-0.089509
-0.089509
-0.089509
-0.0823483
-0.0823483
-0.0823483
-0.0823483
-0.0823483
-0.0823483
-0.0823483
-0.0823483
-0.0823483
-0.0823483
-0.0751875
-0.0751875
-0.0751875
-0.0751875
-0.0751875
-0.0751875
-0.0751875
-0.0751875
-0.0751875
-0.0751875
-0.0751875
-0.0751875
-0.0751875
-0.0680268
-0.0680268
-0.0680268
-0.0680268
-0.0680268
-0.0680268
-0.0680268
-0.0680268
-0.0680268
-0.0680268
-0.0680268
-0.0608661
-0.0608661
-0.0608661
-0.0608661
-0.0608661
-0.0608661
-0.0608661
-0.0608661
-0.0608661
-0.0608661
-0.0608661
-0.0537054
-0.0537054
-0.0537054
-0.0537054
-0.0537054
-0.0537054
-0.0537054
-0.0537054
-0.0465446
-0.0465446
-0.0465446
-0.0465446
-0.0465446
-0.0465446
-0.0465446
-0.0465446
-0.0465446
-0.0393839
-0.0393839
-0.0393839
-0.0393839
-0.0393839
-0.0393839
-0.0393839
-0.0393839
-0.0393839
-0.0393839
-0.0393839
-0.0393839
-0.0393839
-0.0393839
-0.0393839
-0.0393839
-0.0393839
-0.0322232
-0.0322232
-0.0322232
-0.0322232
-0.0322232
-0.0322232
-0.0322232
-0.0322232
-0.0322232
-0.0322232
-0.0322232
-0.0322232
-0.0250625
-0.0250625
-0.0250625
-0.0250625
-0.0250625
-0.0250625
-0.0250625
-0.0250625
-0.0250625
-0.0250625
-0.0250625
-0.0250625
-0.0250625
-0.0250625
-0.0250625
-0.0250625
-0.0250625
-0.0250625
-0.0179018
-0.0179018
-0.0179018
-0.0179018
-0.0179018
-0.0179018
-0.0179018
-0.0179018
-0.0179018
-0.0179018
-0.0179018
-0.0179018
-0.0179018
-0.0179018
-0.010741
-0.010741
-0.010741
-0.010741
-0.010741
-0.010741
-0.010741
-0.010741
-0.010741
-0.010741
-0.010741
-0.010741
-0.010741
-0.010741
-0.010741
-0.010741
-0.010741
-0.00358031
-0.00358031
-0.00358031
-0.00358031
-0.00358031
-0.00358031
-0.00358031
-0.00358031
-0.00358031
-0.00358031
-0.00358031
-0.00358031
-0.00358031
0.00358042
0.00358042
0.00358042
0.00358042
0.00358042
0.00358042
0.00358042
0.00358042
0.00358042
0.00358042
0.00358042
0.00358042
0.0107411
0.0107411
0.0107411
0.0107411
0.0107411
0.0107411
0.0107411
0.0107411
0.0107411
0.0107411
0.0107411
0.0107411
0.0107411
0.0107411
0.0107411
0.0107411
0.0107411
0.0179019
0.0179019
0.0179019
0.0179019
0.0179019
0.0179019
0.0179019
0.0179019
0.0179019
0.0179019
0.0179019
0.0179019
0.0179019
0.0179019
0.0179019
0.0250626
0.0250626
0.0250626
0.0250626
0.0250626
0.0250626
0.0250626
0.0250626
0.0250626
0.0250626
0.0322233
0.0322233
0.0322233
0.0322233
0.0322233
0.0322233
0.0322233
0.0322233
0.0322233
0.0322233
0.0322233
0.0322233
0.0322233
0.0322233
0.0322233
0.039384
0.039384
0.039384
0.039384
0.039384
0.039384
0.039384
0.039384
0.039384
0.039384
0.039384
0.039384
0.039384
0.039384
0.039384
0.0465448
0.0465448
0.0465448
0.0465448
0.0465448
0.0465448
0.0465448
0.0465448
0.0465448
0.0465448
0.0465448
0.0465448
0.0465448
0.0465448
0.0465448
0.0537055
0.0537055
0.0537055
0.0537055
0.0537055
0.0537055
0.0537055
0.0537055
0.0537055
0.0608662
0.0608662
0.0608662
0.0608662
0.0608662
0.0608662
0.0608662
0.0608662
0.0608662
0.0608662
0.0680269
0.0680269
0.0680269
0.0680269
0.0680269
0.0680269
0.0680269
0.0680269
0.0680269
0.0751877
0.0751877
0.0751877
0.0751877
0.0751877
0.0751877
0.0751877
0.0823484
0.0823484
0.0823484
0.0823484
0.0823484
0.0823484
0.0823484
0.0823484
0.0823484
0.0823484
0.0895091
0.0895091
0.0895091
0.0895091
0.0895091
0.0966698
0.0966698
0.0966698
0.0966698
0.0966698
0.0966698
0.0966698
0.103831
0.103831
0.103831
0.103831
0.103831
0.103831
0.103831
0.103831
0.103831
0.103831
0.103831
0.103831
0.110991
0.110991
0.110991
0.110991
0.110991
0.118152
0.118152
0.118152
0.118152
0.118152
0.118152
0.118152
0.118152
0.125313
0.125313
0.125313
0.132473
0.132473
0.139634
0.139634
0.139634
0.139634
0.139634
0.139634
0.139634
0.139634
0.146795
0.146795
0.146795
0.153956
0.153956
0.153956
0.153956
0.153956
0.161116
0.161116
0.161116
0.161116
0.168277
0.168277
0.168277
0.168277
0.168277
0.175438
0.182599
0.182599
0.182599
0.182599
0.182599
0.182599
0.182599
0.189759
0.189759
0.189759
0.189759
0.189759
0.19692
0.19692
0.19692
0.19692
0.19692
0.19692
0.19692
0.204081
0.204081
0.204081
0.204081
0.211241
0.211241
0.211241
0.211241
0.211241
0.211241
0.218402
0.218402
0.218402
0.225563
0.225563
0.225563
0.232724
0.232724
0.232724
0.232724
0.232724
0.232724
0.232724
0.232724
0.232724
0.232724
0.239884
0.239884
0.239884
0.239884
0.247045
0.247045
0.247045
0.247045
0.254206
0.254206
0.254206
0.261366
0.261366
0.261366
0.261366
0.261366
0.268527
0.268527
0.268527
0.268527
0.268527
0.275688
0.275688
0.275688
0.275688
0.275688
0.275688
0.282849
0.290009
0.290009
0.29717
0.29717
0.29717
0.29717
0.304331
0.304331
0.304331
0.304331
0.311492
0.311492
0.311492
0.311492
0.318652
0.318652
0.318652
0.318652
0.325813
0.325813
0.325813
0.332974
0.340134
0.340134
0.340134
0.347295
0.347295
0.347295
0.354456
0.354456
0.361617
0.361617
0.361617
0.361617
0.368777
0.368777
0.375938
0.375938
0.375938
0.383099
0.383099
0.390259
0.390259
0.390259
0.390259
0.390259
0.390259
0.39742
0.39742
0.39742
0.39742
0.404581
0.404581
0.404581
0.411742
0.411742
0.426063
0.426063
0.426063
0.426063
0.433224
0.433224
0.440385
0.440385
0.454706
0.469028
0.483349
0.49767
0.49767
0.504831
0.519153
0.526313
0.526313
0.526313
0.533474
0.533474
0.576438
0.576438
0.605081
0.612242
0.626563
0.655206
0.662367
0.669528
0.705331
0.726814
