-1.140841007
-0.9906099439
-0.8986755013
-0.8927044272
-0.838873744
-0.7852104902
-0.7586872578
-0.7176514268
-0.6883609295
-0.679923594
-0.6787243485
-0.6720204353
-0.6452937126
-0.6403842568
-0.6320638657
-0.6240383983
-0.6044353247
-0.6042845845
-0.5863837004
-0.578715682
-0.5735259652
-0.5548732281
-0.5481260419
-0.54396981
-0.5391613841
-0.5316972136
-0.5309728384
-0.5254554152
-0.5201839805
-0.5201761723
-0.5193765163
-0.5159441829
-0.5125317574
-0.5093570352
-0.5058945417
-0.5031492114
-0.501236856
-0.5009055138
-0.4906985462
-0.4796111286
-0.4708021283
-0.4697394967
-0.4670707583
-0.4633704126
-0.4626045227
-0.4587492943
-0.4555452466
-0.4554018378
-0.4512757957
-0.4483115673
-0.4475067854
-0.4459062219
-0.4444099069
-0.4406221211
-0.4369584918
-0.4315934777
-0.4308530092
-0.4294940531
-0.4290338159
-0.4223825336
-0.4142869115
-0.4088726938
-0.4005632699
-0.3986146152
-0.3982467949
-0.3974675238
-0.3952407241
-0.3941203952
-0.393201679
-0.3907290697
-0.390675813
-0.3890092373
-0.3878032565
-0.3872207105
-0.3851780891
-0.384226948
-0.3834173679
-0.3826605976
-0.3821837902
-0.3810199797
-0.375945121
-0.3741562665
-0.3730652928
-0.3724784851
-0.3720833063
-0.3713927269
-0.3682174087
-0.3667681515
-0.3655493557
-0.3653260171
-0.3652684391
-0.362829715
-0.3627161384
-0.3617828786
-0.3608722389
-0.3559300303
-0.3557064831
-0.3555904329
-0.3546404839
-0.3542604446
-0.3508603275
-0.3505755961
-0.3494633734
-0.3493206501
-0.3466545343
-0.3461864591
-0.34430632
-0.3429219127
-0.3426102996
-0.3400987983
-0.3389081061
-0.3388915062
-0.3379332423
-0.3365486562
-0.3352290392
-0.3328236043
-0.3326942623
-0.3294405043
-0.3273815215
-0.3250730038
-0.3248077929
-0.3246603012
-0.3245413899
-0.3224992454
-0.322111845
-0.3218465447
-0.3208194673
-0.320561707
-0.3203561604
-0.3198999166
-0.3197153509
-0.3194481134
-0.3171977103
-0.3159305453
-0.3159185052
-0.3158038855
-0.3156654537
-0.3129739165
-0.3116109967
-0.3086329401
-0.3071236312
-0.3038277328
-0.3032595217
-0.3009339869
-0.3001671433
-0.299189806
-0.295226872
-0.2945986688
-0.2939074337
-0.2905130684
-0.2903587818
-0.2902725041
-0.2877821922
-0.2872339785
-0.2839491963
-0.2827433646
-0.2818499207
-0.2810970545
-0.2810876966
-0.2802155614
-0.2797240317
-0.2796031237
-0.2794487774
-0.2792509794
-0.2788469195
-0.2775829434
-0.2771230936
-0.2768369019
-0.2761537433
-0.2749088705
-0.2740575075
-0.2730324268
-0.2729560733
-0.2723369896
-0.2720988989
-0.2720518112
-0.2715967596
-0.2710565329
-0.2709286213
-0.2670487761
-0.2656341791
-0.2645004988
-0.264084816
-0.2631407678
-0.2629400492
-0.2601083815
-0.2593400776
-0.2589713335
-0.2589441836
-0.2588170171
-0.2576135695
-0.2571748793
-0.2568325102
-0.2561942041
-0.2561186254
-0.2560982108
-0.2553899586
-0.2553719878
-0.2552701235
-0.2532753646
-0.253113389
-0.2518970668
-0.2513425648
-0.2510094047
-0.2506736219
-0.2505595088
-0.2504764199
-0.2485598773
-0.2478506118
-0.2469372749
-0.2462418079
-0.2459540516
-0.24574247
-0.2454768717
-0.244545266
-0.2444319427
-0.2441220582
-0.2432511151
-0.2426861674
-0.2426503301
-0.2423383892
-0.2422257513
-0.2422149628
-0.2415879965
-0.2408487797
-0.2406427711
-0.2405730039
-0.240173161
-0.239608109
-0.2382535487
-0.2381519228
-0.2376606166
-0.2376579344
-0.2370684147
-0.2362713814
-0.2360336035
-0.2359364629
-0.2356478423
-0.2355463654
-0.2354604006
-0.234416306
-0.2340818197
-0.233859852
-0.2336032689
-0.2333502918
-0.232538268
-0.2324133962
-0.2323586643
-0.2320784479
-0.2318458706
-0.231739819
-0.2311992943
-0.2305132896
-0.2303991467
-0.2300492227
-0.2294902056
-0.2290382683
-0.2290244699
-0.2289310694
-0.2268469632
-0.2260864079
-0.2256713808
-0.2243522108
-0.2243047208
-0.2234538049
-0.2233080715
-0.223047182
-0.2219667435
-0.2209032178
-0.2208805382
-0.2204286009
-0.2201679647
-0.2198348045
-0.2191334963
-0.2181170285
-0.2177942842
-0.2168261707
-0.2165469825
-0.2142220289
-0.2137203664
-0.2124530971
-0.2124273032
-0.2121692449
-0.2115630209
-0.2111465931
-0.2108319551
-0.2108183503
-0.2107086331
-0.2104316801
-0.2102238685
-0.2096565515
-0.2093519419
-0.2090179026
-0.2087720633
-0.2084736526
-0.2083988786
-0.2078005821
-0.2076317817
-0.2075735629
-0.2070438415
-0.2065777481
-0.205892697
-0.2057255208
-0.2049747407
-0.2044166178
-0.2036659569
-0.2021102607
-0.2020208985
-0.2018407285
-0.2013823688
-0.2013646811
-0.2013432235
-0.2001870871
-0.2001331747
-0.1998452395
-0.198073864
-0.1979759187
-0.1975328028
-0.19746539
-0.1974179894
-0.1973813623
-0.1968447715
-0.1959160268
-0.1957416832
-0.1956889182
-0.1954139918
-0.1953410059
-0.194721669
-0.1938678026
-0.1936216503
-0.1934373975
-0.1931517422
-0.1923572719
-0.1921628714
-0.1920306534
-0.1917946935
-0.1916497052
-0.1916278154
-0.1915207058
-0.1909472644
-0.1902783513
-0.1902498305
-0.1894405782
-0.1887939274
-0.1883601546
-0.1875742823
-0.1870640367
-0.1864668131
-0.1864526123
-0.1863028258
-0.1852242053
-0.1852195412
-0.1849719286
-0.1844601035
-0.1844378263
-0.1843604296
-0.1842172444
-0.1841542572
-0.1834500432
-0.1830321848
-0.1822997481
-0.1820239574
-0.1820047051
-0.1815438122
-0.1797016412
-0.1793330908
-0.1792402416
-0.1791174561
-0.1783043295
-0.1770472974
-0.1766706556
-0.1763777882
-0.1762833595
-0.1761901379
-0.1747971624
-0.1747343391
-0.1742773205
-0.1739773601
-0.1729780287
-0.1727281511
-0.1725961417
-0.1724966168
-0.1723511815
-0.1722458303
-0.1714145541
-0.1711934507
-0.1707682312
-0.1707052588
-0.1706062853
-0.1700096428
-0.1696818173
-0.1690853685
-0.1678134501
-0.167780906
-0.1676311046
-0.1666782498
-0.1666649133
-0.166508615
-0.1663969457
-0.1663555652
-0.1660800576
-0.1648806483
-0.1645977944
-0.1645678431
-0.1645205766
-0.164089188
-0.1639404744
-0.1637029052
-0.163473919
-0.1633688956
-0.1632198542
-0.1628881991
-0.162192449
-0.1618329138
-0.1612768471
-0.1610844433
-0.1608428061
-0.1607355475
-0.1607162207
-0.1602121294
-0.1591597199
-0.1590153128
-0.1585478634
-0.158453539
-0.1582672447
-0.1581673175
-0.1581330299
-0.1580217779
-0.1575363725
-0.1569636464
-0.1561171561
-0.1551419646
-0.1548276395
-0.1547894329
-0.154619813
-0.1542577893
-0.153888911
-0.1538106948
-0.1529949009
-0.1515809745
-0.1513835639
-0.1513260752
-0.1511494368
-0.150895372
-0.1506050527
-0.1500306427
-0.1495345533
-0.1492950767
-0.149286747
-0.1488517076
-0.1487983167
-0.1485738307
-0.1469616741
-0.146401763
-0.1463674754
-0.1462722719
-0.1455000788
-0.1453024745
-0.1450605839
-0.144540444
-0.1438426375
-0.1428103596
-0.1424941421
-0.1419755667
-0.1418550462
-0.14181602
-0.1415518969
-0.1414523721
-0.1407594681
-0.1399149001
-0.139425844
-0.1393132955
-0.1390734315
-0.1389440745
-0.1386881322
-0.1385993809
-0.1385082006
-0.1384391189
-0.1379853636
-0.1378914863
-0.1375781894
-0.137342453
-0.1370713115
-0.1365407109
-0.1363873333
-0.1363046318
-0.1361464262
-0.1360905617
-0.1358475089
-0.1353706717
-0.134861052
-0.1347712278
-0.1345702857
-0.1340336949
-0.1337701827
-0.1337580681
-0.1337238401
-0.1331432611
-0.1328376383
-0.1319550723
-0.1318038106
-0.1314990669
-0.1312024146
-0.1305310726
-0.1292844564
-0.1292435676
-0.1290126443
-0.1288056076
-0.1285827607
-0.1282197833
-0.1281856149
-0.1279620975
-0.1275895387
-0.1275179386
-0.127168566
-0.1271603554
-0.1271365285
-0.1270775944
-0.1268561333
-0.1264353096
-0.1259957105
-0.1258440614
-0.1254303902
-0.1253900826
-0.1247662306
-0.1247638837
-0.1245710477
-0.1242971271
-0.1241661459
-0.1241554767
-0.1239258572
-0.1236913949
-0.1233308017
-0.1232899576
-0.1228623167
-0.122819148
-0.1222964898
-0.1219507232
-0.1218806356
-0.1212297529
-0.1207211539
-0.120250985
-0.1198629066
-0.1196722984
-0.1196710691
-0.1185507253
-0.1182686165
-0.118249841
-0.1182234213
-0.1175873056
-0.1173363924
-0.1171799898
-0.1167087853
-0.116425328
-0.1164040193
-0.1162832454
-0.1157499254
-0.1157010272
-0.1153503209
-0.1153066978
-0.1151084229
-0.1151076853
-0.1150287017
-0.1147883758
-0.1146810204
-0.1145540848
-0.1143587604
-0.1141950563
-0.1137698516
-0.1137320399
-0.1136870831
-0.1134466901
-0.1130077094
-0.1129563451
-0.1128995866
-0.112003684
-0.1119262204
-0.1115647107
-0.1114616916
-0.1111671329
-0.1109843999
-0.1109252423
-0.1106098816
-0.11059995
-0.1105546653
-0.1103490815
-0.1102830693
-0.1102352366
-0.1102111116
-0.110144645
-0.1101107076
-0.1097995415
-0.1095112413
-0.1093841419
-0.1092575043
-0.1086999625
-0.1076690033
-0.1076432392
-0.1076081097
-0.1074325964
-0.1073269397
-0.1072587445
-0.1066504046
-0.1065409854
-0.1064640656
-0.1063244268
-0.1060017794
-0.1057351232
-0.105513975
-0.1053139791
-0.105174154
-0.1047087535
-0.1044943407
-0.1044339016
-0.1041910797
-0.1041318923
-0.1039789692
-0.1039649919
-0.1036051139
-0.1032868177
-0.1032271013
-0.1025269181
-0.1023360118
-0.1019650549
-0.1019497812
-0.1015542299
-0.1012424305
-0.1008066908
-0.1007743478
-0.1007307693
-0.1006693169
-0.1001499817
-0.09990980476
-0.09961069375
-0.09952297062
-0.09933064133
-0.09930974245
-0.09929227084
-0.0988586396
-0.09883469343
-0.09849151969
-0.09792646021
-0.0979199037
-0.09790407866
-0.09789817035
-0.09786790609
-0.09779629856
-0.09755902737
-0.09743177146
-0.09732466191
-0.09721681476
-0.09700418264
-0.09694605321
-0.09683540463
-0.09672617167
-0.09638302773
-0.095890522
-0.0958834812
-0.09573139995
-0.09545729309
-0.0947239697
-0.0945084095
-0.09424916655
-0.09417074919
-0.09393055737
-0.09377832711
-0.09335233271
-0.0933291167
-0.09280962497
-0.0927503109
-0.09250537306
-0.09176106751
-0.09171531349
-0.09164527059
-0.09128598124
-0.09122891724
-0.09094412625
-0.0908960402
-0.09078931808
-0.09065110236
-0.09020730108
-0.0901658535
-0.08944141865
-0.08934415877
-0.08869487792
-0.08818037063
-0.08790618181
-0.08790344
-0.08749246597
-0.08742465824
-0.08717899024
-0.08709909022
-0.08583081514
-0.08582676202
-0.08561114222
-0.08540938795
-0.08534401655
-0.08507161587
-0.08502421528
-0.08481362462
-0.08451188356
-0.08426518738
-0.08415997773
-0.08389056474
-0.08353367448
-0.08342970908
-0.08320362866
-0.08319129795
-0.08284270018
-0.08272306621
-0.08250038326
-0.08230156451
-0.08225207776
-0.08201251179
-0.08147046715
-0.08146955073
-0.08112868667
-0.08112702519
-0.08095370233
-0.08092926443
-0.0807884112
-0.08028496057
-0.08021295816
-0.08016381413
-0.08012909442
-0.07998861372
-0.07912354916
-0.07841990888
-0.07827667147
-0.0781628564
-0.07796029747
-0.07764331996
-0.07741846144
-0.07739190012
-0.07732124627
-0.07720438391
-0.07703398168
-0.07675305009
-0.07662069052
-0.07642565668
-0.07632744312
-0.07627859712
-0.07602493465
-0.07600198686
-0.07587160915
-0.07586035877
-0.07549514621
-0.07535918057
-0.07535534352
-0.07528795302
-0.07514426857
-0.075052917
-0.0748199001
-0.07477228343
-0.07450430095
-0.07445073128
-0.0743823573
-0.07435640693
-0.07429739833
-0.07429047674
-0.07428801805
-0.07397645712
-0.07392898947
-0.07390812784
-0.07380662113
-0.07366973907
-0.07316529006
-0.07203558832
-0.07178294659
-0.07156462222
-0.07154525816
-0.0707378462
-0.07004900277
-0.07003293931
-0.06975223869
-0.06962125748
-0.06959099323
-0.06939104944
-0.0693628937
-0.06934707612
-0.0692615211
-0.06907788664
-0.06848040968
-0.06824422628
-0.06799514592
-0.06799163669
-0.06793647259
-0.06778939068
-0.06746003032
-0.06737014651
-0.06724581867
-0.06717525423
-0.06715710461
-0.06713137776
-0.06705031544
-0.0670298934
-0.06702569127
-0.06670620292
-0.06661434472
-0.06619585305
-0.06613257527
-0.06559158862
-0.06536274403
-0.06516621262
-0.06499505043
-0.06494191289
-0.06487280875
-0.06462785602
-0.06454565376
-0.06428524852
-0.06389638782
-0.06379152089
-0.06349887699
-0.06348355114
-0.06347382069
-0.06309403479
-0.06306551397
-0.06301362067
-0.06279233843
-0.06277490407
-0.0627566576
-0.06254310906
-0.06252170354
-0.06246076897
-0.06240336597
-0.06224121153
-0.06189223751
-0.06156767905
-0.06060169265
-0.06015161052
-0.0600130111
-0.05977563933
-0.05964109674
-0.05893827975
-0.05805874988
-0.05783732235
-0.05778724328
-0.05770112202
-0.05727283657
-0.05726695061
-0.05722394213
-0.05710122362
-0.05680033937
-0.05620671064
-0.05614556372
-0.05611679703
-0.05578699708
-0.05565233901
-0.05549803749
-0.05504073575
-0.05482676998
-0.05482620373
-0.05480855703
-0.05468001589
-0.05435413122
-0.05414660275
-0.05409030244
-0.05399179831
-0.05373013765
-0.05353709683
-0.05285254121
-0.05248567834
-0.05244575813
-0.05230336636
-0.05225472525
-0.05214298144
-0.05211940035
-0.05211313441
-0.05208712444
-0.05192189664
-0.05190810934
-0.05177693814
-0.05152529851
-0.05145130679
-0.05088459328
-0.05082840845
-0.05077203736
-0.05017996207
-0.05007335171
-0.0498909466
-0.04983763397
-0.04971953109
-0.04963943362
-0.04942716286
-0.04931101203
-0.04919670895
-0.04911292717
-0.04909037799
-0.04907904938
-0.04882759973
-0.04863705859
-0.04851101339
-0.04832684621
-0.04828963801
-0.04816511646
-0.04804813862
-0.04792803526
-0.04759044573
-0.04754401371
-0.04750254005
-0.04706109688
-0.04670306295
-0.04591318592
-0.04554934055
-0.04530811682
-0.04524616897
-0.04517062381
-0.04511300847
-0.04448558763
-0.04444247857
-0.04444053769
-0.04443451017
-0.04442425445
-0.04402277619
-0.04398088902
-0.04381026328
-0.04345535859
-0.04295665771
-0.04224527627
-0.04211519659
-0.041823484
-0.04175031185
-0.04152327031
-0.04142300412
-0.04137015715
-0.04116374999
-0.04110669345
-0.04089897498
-0.04075377807
-0.04073322937
-0.04066086933
-0.04047420993
-0.04045531154
-0.04043472931
-0.04021995887
-0.04005355015
-0.04004848376
-0.03992845118
-0.03955714405
-0.03949442878
-0.03923417255
-0.039183449
-0.03916054964
-0.03913697973
-0.03904208913
-0.0390416421
-0.03888725117
-0.0386955142
-0.03863273561
-0.03860572726
-0.03845991194
-0.03830726445
-0.03824596107
-0.03814782947
-0.03807251155
-0.03739767522
-0.03736446053
-0.0373278074
-0.03705493733
-0.03679576889
-0.036731828
-0.03665240109
-0.03662573174
-0.03656231984
-0.0365366675
-0.0365324989
-0.03648720682
-0.03612866625
-0.03611673787
-0.03588166833
-0.03543581814
-0.03530608118
-0.03525439277
-0.03512783721
-0.03495831788
-0.03490527719
-0.03488464653
-0.03453330323
-0.03438505903
-0.03399016336
-0.03389581293
-0.03388266638
-0.03374587372
-0.03357389569
-0.03351177648
-0.03315785527
-0.03311215341
-0.03288558498
-0.03282690793
-0.03222710639
-0.0319781974
-0.03152338415
-0.03129434213
-0.03093783371
-0.03092572838
-0.03085703403
-0.0308288727
-0.03081366606
-0.0306835901
-0.03054205887
-0.03045745939
-0.03034945205
-0.03017538413
-0.03014566004
-0.02944386564
-0.02930048108
-0.02918801829
-0.02905334346
-0.02869317494
-0.02805063501
-0.02804051712
-0.02784132212
-0.02771688439
-0.02742921561
-0.02739007957
-0.0273739174
-0.02736761048
-0.02722831815
-0.02721636184
-0.027078541
-0.02702926472
-0.02701755241
-0.02691143192
-0.02689130418
-0.02679571882
-0.0267930273
-0.0265848022
-0.02649505809
-0.02648634277
-0.02635643817
-0.0262939129
-0.02622163668
-0.02616473846
-0.0260184817
-0.02595774643
-0.02593019418
-0.02566086687
-0.02533650771
-0.02529048547
-0.02528885752
-0.02521819621
-0.02511998266
-0.02491281182
-0.02488462068
-0.02485502511
-0.02455307357
-0.02453630604
-0.02444300428
-0.02416825294
-0.0240211226
-0.02401930466
-0.02378072217
-0.02377599105
-0.02331920154
-0.02320046723
-0.02292427607
-0.02291591279
-0.02284785733
-0.02250012942
-0.02248958126
-0.02229679935
-0.02219400741
-0.02191741392
-0.02191660553
-0.02185380459
-0.02154030651
-0.02150648832
-0.02140652947
-0.02131191827
-0.02124642208
-0.02113740891
-0.02094323374
-0.02081898227
-0.02081003226
-0.02068099566
-0.02059249207
-0.02045105211
-0.02038784698
-0.02031957731
-0.02016942017
-0.02014571615
-0.02009800822
-0.01976780407
-0.01953862421
-0.01944636181
-0.01942903735
-0.01892887056
-0.01868285984
-0.01847444847
-0.01832856983
-0.01820925437
-0.01820070297
-0.01818418503
-0.01802050881
-0.01797988079
-0.01787094772
-0.01769833453
-0.01760292985
-0.01751685329
-0.01725719497
-0.01721789129
-0.01720772311
-0.01718561724
-0.0165145956
-0.01629934832
-0.01584884338
-0.01582241058
-0.01574969292
-0.01565152965
-0.01556958724
-0.01555540878
-0.01549960114
-0.01539154537
-0.01499815192
-0.01484014466
-0.01453108899
-0.01437641587
-0.01408297103
-0.01354969759
-0.0133268619
-0.01328039262
-0.01313900575
-0.01258340664
-0.01239760406
-0.01238857582
-0.01219272986
-0.01206132118
-0.0119940117
-0.01163717546
-0.01163285132
-0.01156456769
-0.01146820188
-0.01130310912
-0.0111140823
-0.01089486293
-0.01066179574
-0.01049426757
-0.0104640713
-0.01043773908
-0.009942794219
-0.009634652175
-0.009402206168
-0.009037564509
-0.008938076906
-0.008937376551
-0.008909921162
-0.008843939751
-0.008460378274
-0.008366288617
-0.008169656619
-0.00807214994
-0.007928092033
-0.00791913271
-0.007869828492
-0.00786652416
-0.007829210721
-0.00756180007
-0.00749688549
-0.00744940713
-0.007274684962
-0.00705675967
-0.006626556627
-0.006549241021
-0.00648551248
-0.006359769497
-0.006294699851
-0.006249139085
-0.006227517035
-0.006138899364
-0.005601772573
-0.005570823792
-0.005476301536
-0.005220106337
-0.004912023898
-0.004754352383
-0.004716958385
-0.004479503725
-0.004422979429
-0.004350776318
-0.004179347772
-0.004159624688
-0.004050251562
-0.004021788947
-0.003903054632
-0.003872109111
-0.003604844678
-0.003422914306
-0.003346013604
-0.00334472605
-0.003145934548
-0.003095120657
-0.00282860687
-0.002797359135
-0.002701288788
-0.002597957617
-0.002537396271
-0.002364806132
-0.002324318746
-0.002301544184
-0.002191201551
-0.002120580757
-0.00207277271
-0.001765731024
-0.001522127073
-0.001117263339
-0.001053192653
-0.0009439890273
-0.000758338545
-0.0006297868094
-0.0004740687145
-0.0004224821751
-0.0001455597085
2.647658403e-05
0.0001882823126
0.0002501003037
0.0004691563663
0.0005436179927
0.000799804111
0.0009589731344
0.00113007403
0.001433349797
0.001546947053
0.001556304982
0.001586571336
0.001587020233
0.00159554265
0.001634184388
0.001635114895
0.001666828524
0.001737290761
0.001738545252
0.001798683079
0.001896857517
0.002097509103
0.002149306471
0.002233492909
0.002330004005
0.002423686441
0.00243913685
0.002727555344
0.003874674439
0.003918249626
0.004136805888
0.004165458027
0.004180436954
0.004333420657
0.004350965377
0.004364809487
0.004432574846
0.004459065385
0.004662613384
0.004709165543
0.004834233318
0.004853487946
0.005032552406
0.005051291548
0.005089028273
0.005093210377
0.005289109424
0.005340380128
0.005614601541
0.005736574065
0.005800091196
0.005959147587
0.006061715074
0.006067833863
0.006069985684
0.006142355502
0.006613621488
0.006629396696
0.006638738792
0.006723525934
0.00676325243
0.006765370723
0.007165680174
0.007183132693
0.007410261314
0.00772193633
0.00783555489
0.007988195866
0.008002993651
0.008210614324
0.008280873299
0.008384910412
0.00865695253
0.008701407351
0.00870230142
0.008838313632
0.008849423379
0.008990466595
0.009095429443
0.009213346988
0.009228862822
0.009247888811
0.009311680682
0.009437593631
0.00959785562
0.009780844674
0.009812254459
0.009995901026
0.01016711723
0.01027831901
0.01059721597
0.01070250105
0.01080466155
0.0109447185
0.01098552626
0.01107123122
0.01109565888
0.01114572305
0.01114965603
0.01130725257
0.01140624005
0.01147239655
0.01147734188
0.01154186763
0.01165837329
0.01173966471
0.01181278657
0.01185536291
0.01196163427
0.01205366384
0.01212620456
0.01219319459
0.01221049111
0.01230793353
0.0129578514
0.01308408845
0.01329096779
0.01352456398
0.01354439557
0.01368012093
0.01507453993
0.01518468931
0.01533085853
0.01555012167
0.01599852368
0.01613660716
0.01614502631
0.01639946923
0.01645397395
0.01687343791
0.01717668213
0.01732539199
0.01737527922
0.0174027849
0.01740368083
0.01758586057
0.01783112623
0.01792829484
0.01811413653
0.0181177035
0.01824879274
0.01860585436
0.01869786344
0.01879077032
0.01881979965
0.01905584335
0.01907453686
0.01922939345
0.01954179816
0.01978318766
0.01979851723
0.01982097887
0.02046045288
0.02049368992
0.0205394607
0.02083151788
0.0209368933
0.02105479874
0.02120012604
0.02163739875
0.02190335095
0.02250458486
0.0227591563
0.02300818823
0.02307941765
0.02316251956
0.0232017003
0.02327702567
0.02333608083
0.02334527485
0.02345446311
0.02360223234
0.02362998202
0.02374955639
0.02389357239
0.02390743792
0.02399667352
0.02402214892
0.02414631657
0.02416388504
0.02434591949
0.0243870914
0.02440210059
0.0246427618
0.02467795834
0.02483631298
0.02517458424
0.02522279508
0.02593817003
0.02613453194
0.02623144537
0.02651108243
0.02654106356
0.0265594665
0.0265626274
0.02659880929
0.02671195194
0.02681772038
0.02685382031
0.02687041461
0.02733913437
0.02739714459
0.02770860121
0.02788818814
0.02792802453
0.02811361291
0.0281935446
0.02834156156
0.02876645327
0.0289462842
0.02895840257
0.02908835746
0.02914148569
0.02922197618
0.02927416936
0.02931642905
0.02991487645
0.02997942455
0.03021674976
0.0302447062
0.03029260226
0.03032814711
0.03033712506
0.03035481274
0.03053991124
0.03083604202
0.03086454421
0.03090088442
0.03098634817
0.03099279851
0.03122856654
0.03125362843
0.03140804172
0.0316042304
0.03169230372
0.03169853613
0.03197585419
0.03220486641
0.03227606416
0.03243852779
0.03249884024
0.03258334473
0.03263872862
0.03269493207
0.03291750327
0.03330908343
0.03347413614
0.033606451
0.03366548941
0.03399190307
0.03418876231
0.0342043899
0.03440842777
0.03453505784
0.03454418108
0.03455871716
0.03570846841
0.03575735539
0.03583944589
0.03584580868
0.03588170186
0.03590479121
0.03606764227
0.03619500995
0.03652411327
0.03660836443
0.03666910157
0.03677778691
0.03700072318
0.03710851446
0.03716533631
0.03739915788
0.03749490529
0.03775423765
0.03826238215
0.03841625527
0.03847993538
0.03884761781
0.03897126764
0.03899461031
0.03915397078
0.03929945081
0.03935075179
0.03956831619
0.03970364481
0.04006567225
0.04012259841
0.0402642414
0.04029737413
0.0403851606
0.04056090117
0.04060795903
0.04064252228
0.04067623615
0.04097563028
0.04112856463
0.04128567129
0.04130298272
0.04138730466
0.04151095822
0.04195794836
0.04197542742
0.04274785519
0.04285026714
0.04310957342
0.04319507256
0.04320728034
0.04338109493
0.04381529614
0.04396105558
0.0439689979
0.04396921769
0.04400542006
0.04404069483
0.04411197826
0.04423398897
0.04467968643
0.04468885437
0.04476680979
0.04479302838
0.04482258484
0.04497049004
0.0449796766
0.04505014792
0.04563633353
0.04575488344
0.04584843665
0.04622371867
0.04626153409
0.04634007812
0.04671882093
0.04688787833
0.04725919664
0.04747475684
0.04757229239
0.04760008678
0.04783575237
0.04806954786
0.04830201715
0.04837937653
0.04838096723
0.04843964055
0.04902460426
0.04921971634
0.04931057245
0.04934825003
0.04939458519
0.04980745167
0.05006124824
0.05057399347
0.05125180259
0.05140211806
0.05172312632
0.05175219104
0.05176010355
0.05181394145
0.05183156952
0.05183723196
0.05196267366
0.05207682773
0.05220298842
0.05232357606
0.05237776786
0.05248366669
0.05255850032
0.05311795324
0.05315469578
0.05333755165
0.05335063487
0.05335486308
0.05360013619
0.05369528756
0.05374249071
0.05391841382
0.05414059758
0.05430952832
0.05437545106
0.05468333513
0.05468505248
0.05468913913
0.05470118299
0.05472179502
0.05473616347
0.05479033664
0.0548549667
0.05517075956
0.05517080799
0.05560230091
0.05560878292
0.05563665181
0.05570276082
0.05578670651
0.05586397275
0.05600326136
0.056117028
0.05619492009
0.0562836118
0.05645001307
0.05649196357
0.05651689321
0.05658132955
0.05658842251
0.05658904463
0.05669442937
0.05685495213
0.05728638172
0.05729615316
0.05738265067
0.05739653111
0.05739848688
0.05785078928
0.05799433216
0.05805219337
0.05822635442
0.05866288021
0.05897028372
0.059040647
0.05904790387
0.05915835872
0.05943848193
0.06000687927
0.06012991071
0.06018982083
0.06059623137
0.06073140353
0.06077799574
0.06087319553
0.06091977283
0.06107827276
0.06108638644
0.0610973835
0.06134172902
0.06148942187
0.06174751744
0.06175981462
0.06195152923
0.0619850494
0.06204024702
0.06223066524
0.06234317645
0.06274700165
0.0630857572
0.06358349323
0.06369139999
0.06381699443
0.06393794715
0.06414530426
0.06428522617
0.06439287215
0.06441426277
0.06447807699
0.06465826184
0.06469637156
0.06489132345
0.06492374092
0.06495478749
0.06518674642
0.06540714204
0.06542920321
0.06559684873
0.06570296735
0.06582266837
0.06593133509
0.06595485657
0.06612484157
0.06651812047
0.06731575727
0.06734070927
0.06741499901
0.06783877313
0.06825454533
0.0683831498
0.06872350723
0.06875133514
0.06916704774
0.06924082339
0.06924254447
0.06934544444
0.06935062259
0.07013828307
0.07102518529
0.07109615207
0.07118023187
0.07130602002
0.07154078037
0.07154921442
0.07193383574
0.07200324535
0.07206707448
0.07231511176
0.07234087586
0.07235431671
0.07245256752
0.07253137231
0.07265603542
0.07276859879
0.07300491631
0.07328510284
0.07336428761
0.07338748872
0.07366203517
0.07366726547
0.0737413317
0.07378717512
0.0738388747
0.07402421534
0.07413192093
0.07426225394
0.07438556105
0.07439353317
0.0746140331
0.07492054254
0.07497575134
0.07524543256
0.07549100369
0.07576102018
0.07664904743
0.07693998516
0.07700728625
0.07713186741
0.07731430978
0.0775705725
0.07757526636
0.07759987563
0.07795352489
0.07820706069
0.07827103883
0.07854908705
0.07874934375
0.07876719534
0.07891392708
0.07925337553
0.07926258445
0.07952061296
0.07963716984
0.08014129102
0.08058419079
0.08078951389
0.08085704595
0.08108370751
0.08121593297
0.08154161274
0.08177372813
0.0819567889
0.08241520822
0.08265206963
0.08280458301
0.08304499835
0.08327030391
0.08331242204
0.08338803798
0.08356302977
0.08386673778
0.08388873935
0.08453898877
0.0845759213
0.08462395519
0.08474925905
0.08492621779
0.08493106812
0.08494966477
0.0854357928
0.08547402918
0.08572864532
0.08583968133
0.08599847555
0.08602314442
0.08606398106
0.0865264535
0.08657296747
0.08669099212
0.0869403705
0.08769674599
0.08771108836
0.08780355006
0.08788485825
0.0880600065
0.0882480517
0.08838042617
0.08850013465
0.08874540031
0.08874770254
0.08885281533
0.08907370269
0.0890936479
0.0891244635
0.08913402259
0.08933465928
0.08939354867
0.08994178474
0.09058460593
0.09100297838
0.09110342711
0.09115856886
0.0911726281
0.0911764279
0.09121314436
0.0913810581
0.09148880094
0.0915113762
0.0918109566
0.09194048494
0.09196053445
0.09208296984
0.09306506813
0.09358341247
0.09361342341
0.09409591556
0.09424970299
0.09441999346
0.09503634274
0.09506708384
0.09511862695
0.09543707222
0.09568314999
0.09574799985
0.09587328881
0.09588142484
0.09610073268
0.09616672993
0.09654058516
0.09671270102
0.09698241204
0.09699782729
0.09711516649
0.0971307233
0.09751562774
0.09759262949
0.09761787951
0.09763528407
0.09768229723
0.09785569459
0.09786371142
0.09826417267
0.09842261672
0.09872006625
0.09905070812
0.09951553494
0.09951957315
0.09962164611
0.09967213869
0.1000324935
0.1000400111
0.1000979021
0.1002419293
0.1003401279
0.1010931358
0.1012770757
0.1013401151
0.1015311331
0.1016601548
0.1017383114
0.1017902941
0.1020663902
0.102161698
0.1025128514
0.1028185859
0.102832593
0.1031884104
0.1033910513
0.1035983637
0.1043403819
0.1044427156
0.1050969362
0.1051380113
0.1054476872
0.1054637879
0.105609864
0.1056753248
0.1059023291
0.1060649902
0.1062994748
0.1063518673
0.1063616425
0.1064075232
0.1064107418
0.1066543758
0.106669493
0.1068420038
0.1068892479
0.1071112305
0.1072652042
0.1075691506
0.1079415008
0.1079417989
0.1080554798
0.1082674116
0.108328484
0.1083856672
0.1089854091
0.1092109308
0.1092941016
0.1097068116
0.1101755127
0.110201247
0.1102305353
0.1103551984
0.1107944995
0.1108632907
0.1109251156
0.1113028303
0.1113033742
0.1113187894
0.1116913632
0.111789383
0.1119114906
0.1122136489
0.1124005988
0.1125392988
0.1130515561
0.1130852327
0.1131824404
0.1132887155
0.1133267358
0.1134385765
0.1134801283
0.1135722324
0.1136023104
0.1136720255
0.1139179841
0.11395403
0.1139643118
0.1140670851
0.1146165207
0.1148441061
0.1149267033
0.1153986827
0.1156467795
0.1160561964
0.1177225709
0.1178478748
0.1181005165
0.1181005463
0.1182306781
0.1182908714
0.1183847487
0.118469432
0.1184742525
0.1186170503
0.1187646538
0.1191012412
0.1195216253
0.1200564206
0.1205271333
0.1210914999
0.1212918833
0.1218218729
0.1218792573
0.1227649599
0.1231656298
0.1232125983
0.1233226508
0.1233434305
0.1233742535
0.1236090884
0.1238121018
0.1238309294
0.1238557622
0.123865582
0.1238720044
0.1239474416
0.1239874512
0.1246020123
0.1248694435
0.1257202625
0.1258591115
0.1259135753
0.1261023581
0.126198262
0.126239717
0.1265706718
0.1267909557
0.1271047145
0.1274314523
0.127523303
0.1275802553
0.1277557015
0.1279408485
0.1280166507
0.1284337491
0.1285543442
0.1288122386
0.1289362013
0.1292092502
0.1293043345
0.1296201497
0.1297537684
0.1298711449
0.1300825626
0.1304133683
0.130785197
0.1311267763
0.1311576068
0.131160289
0.1311623454
0.1313688159
0.1314182281
0.1314631552
0.1317148805
0.1317161173
0.1317522377
0.1320474297
0.1321035326
0.1321876943
0.1321913004
0.13240242
0.1329020411
0.1329160333
0.133280769
0.1334326118
0.1337694228
0.1340498179
0.1345931441
0.1350611001
0.1353871524
0.1356184483
0.1362092346
0.1363631487
0.1366389245
0.1367149502
0.136863023
0.1369369477
0.1371096671
0.1374518871
0.1375910342
0.137687996
0.1377244443
0.1377403736
0.1378280967
0.1379266232
0.1383517534
0.1383715719
0.1383793652
0.1384478509
0.1391020268
0.1392289996
0.1395512372
0.1395909488
0.139694348
0.1397751868
0.1402366757
0.1403212845
0.1403643638
0.1404822916
0.1408025026
0.141024068
0.1414573789
0.1414773762
0.1417005062
0.1417564899
0.1422245651
0.1422726214
0.1425512284
0.1426074803
0.1435094178
0.1437687129
0.1444304436
0.1445653588
0.1446658075
0.1448598653
0.1449998319
0.1451525986
0.1451554894
0.1453395784
0.1457480341
0.1458336264
0.1458344012
0.1458899379
0.1461448818
0.1464110613
0.1464603543
0.1465495825
0.146876961
0.1468889117
0.1470676512
0.1473867297
0.1474992633
0.1475317776
0.1476623863
0.1478521228
0.1484272182
0.148704648
0.1489159018
0.149140358
0.1494707167
0.1494884491
0.1495057046
0.1497385651
0.1498392969
0.1498484313
0.1503462642
0.1505482942
0.1505676508
0.1508089006
0.1509700119
0.151219517
0.1512987465
0.1523327976
0.1523609459
0.152392745
0.1530203074
0.1530738473
0.153113991
0.1531798542
0.1534712911
0.1541571319
0.1544133425
0.1544483155
0.1546697319
0.1550721973
0.1551033109
0.155183211
0.1552170664
0.157037124
0.1581733227
0.1585453153
0.1585456729
0.1589611173
0.1590057909
0.1592588723
0.1599244177
0.1610605717
0.1612870097
0.1613365412
0.1619947553
0.1620374024
0.1626221091
0.1629314423
0.1630588472
0.1633693427
0.1634540558
0.1638987809
0.1642896533
0.1643908918
0.1644064933
0.1646931767
0.1653267592
0.1654723436
0.1655987501
0.1658119112
0.1669464558
0.1679472923
0.1679548919
0.1680511236
0.1681786329
0.1683808565
0.1684068888
0.1685298234
0.1686597168
0.1688939631
0.1690379977
0.1695859134
0.1709425598
0.1713790447
0.1715931296
0.1721527725
0.1722857952
0.1725772023
0.1734465063
0.1743616462
0.17474778
0.1748173684
0.1749934554
0.1751641482
0.1752620935
0.1753916144
0.1757705361
0.1757710874
0.1764758229
0.1765910387
0.1766755879
0.1768374741
0.1775674224
0.1781497151
0.1788094342
0.1788813919
0.1798425019
0.1798972487
0.1800483167
0.1810057461
0.1810636073
0.181585595
0.1817437112
0.1821897179
0.1823343188
0.1825588644
0.1832530051
0.1838331074
0.1844266802
0.1850609183
0.1851529926
0.1852540821
0.1855269074
0.186643064
0.1866966635
0.1867904067
0.1872841865
0.1872935742
0.1880264282
0.188184008
0.188444525
0.1886807382
0.1886837184
0.1889188737
0.1894209087
0.1900629252
0.1904128641
0.1910904944
0.1912920177
0.1913805157
0.1918702126
0.1920001507
0.1927483827
0.1931325793
0.1945541054
0.1947510839
0.1959437579
0.19617109
0.1965862513
0.1966850907
0.196849063
0.1969498694
0.1970362961
0.1972181946
0.1972688586
0.1974091977
0.198349908
0.1983713061
0.1983807683
0.1984757185
0.1985647827
0.1986299902
0.1990181953
0.1990321428
0.1991028488
0.1993628442
0.2004963309
0.2014225125
0.2017579675
0.2018965334
0.2021739632
0.2023656219
0.2025948614
0.2037635297
0.2037987411
0.2039572448
0.204025209
0.2049562633
0.2051552385
0.205278486
0.2079119831
0.2085511684
0.2086522281
0.209188506
0.2092823088
0.2109666616
0.2117065638
0.2121076435
0.2124510258
0.2138412446
0.2146507055
0.2147684991
0.2149236351
0.2149818689
0.2150709182
0.2163647711
0.2165311277
0.2171698958
0.2172609717
0.2177885026
0.2186650783
0.2191428095
0.220183298
0.2204785496
0.2210146785
0.2211333513
0.2215875089
0.2222246379
0.2230088264
0.2230470181
0.2237215936
0.2240599096
0.2249952704
0.2256606668
0.2263012677
0.2271187603
0.2283100337
0.2289966643
0.2290561795
0.2294438779
0.229645133
0.229955256
0.2310445607
0.2314764857
0.2318797261
0.2320977449
0.2322276086
0.2337236702
0.2340809107
0.2348896861
0.2352317125
0.2359579057
0.2362284511
0.2362701744
0.2363906205
0.2367880046
0.2382815033
0.2385162711
0.2411805242
0.2434900403
0.2442836463
0.2444860041
0.2452626973
0.2458081245
0.2460511029
0.2469200194
0.24694103
0.2474134117
0.2494439781
0.2498706579
0.2516414225
0.2520957887
0.2522993088
0.2527666986
0.2531067133
0.2532462776
0.2537708282
0.253967911
0.254968226
0.2558998764
0.2561145425
0.2576721907
0.2579696476
0.2599892914
0.2613734305
0.262093842
0.263533175
0.2641835213
0.2660466731
0.2662454247
0.2662613988
0.2684462965
0.2688929737
0.2702829838
0.271253705
0.274217993
0.2760787606
0.2763719261
0.2779818773
0.2809155285
0.2811837494
0.2824095488
0.2840549648
0.2864723504
0.2872475982
0.2904037237
0.2910522223
0.2982130945
0.298658222
0.2993106246
0.3002440035
0.3012824059
0.3030594587
0.3040829599
0.3062074184
0.3068604469
0.307202667
0.3094352782
0.3149249554
0.3166419864
0.3196246326
0.3279215693
0.3296718001
0.3305691183
0.339721024
0.3479162157
0.3618502915
0.3622069955
0.3653623164
0.372096926
0.3836194873
0.3890756369
0.4042235017
0.4161022604
0.4328079224
0.4379412234
0.4383919239
0.4471481442
