-0.8128408194
-0.7088749409
-0.6377036572
-0.6207158566
-0.5703139305
-0.5215288997
-0.518391192
-0.5143059492
-0.4849366248
-0.4740453064
-0.4709283412
-0.4702345431
-0.4499844313
-0.4457322955
-0.4347019196
-0.4341483414
-0.4327647984
-0.4208461642
-0.4195096195
-0.4193270206
-0.403598696
-0.3858205974
-0.3654771447
-0.3581164479
-0.3430539668
-0.3399094939
-0.335079819
-0.329875052
-0.3168713152
-0.3120843172
-0.3112881482
-0.30913046
-0.3085075617
-0.2946692109
-0.2875823677
-0.2802299857
-0.2779923379
-0.2737666667
-0.2708589435
-0.2692019045
-0.2663782239
-0.2643851638
-0.2638906837
-0.2546957731
-0.2546486259
-0.2492436171
-0.247924
-0.2447522283
-0.2383647114
-0.235191986
-0.2351654619
-0.2343159765
-0.2336159796
-0.2331043035
-0.2286124825
-0.2275789827
-0.2242788225
-0.219633922
-0.2175825834
-0.217381224
-0.2168337554
-0.2126753181
-0.2107460648
-0.2045384198
-0.2041029036
-0.2000789046
-0.1991062462
-0.1982104033
-0.1968982369
-0.193068102
-0.1908480674
-0.1897534728
-0.1864059567
-0.1851493716
-0.1842772812
-0.1823649257
-0.1812754571
-0.1807802618
-0.1787299216
-0.1783744544
-0.1783307046
-0.171830669
-0.1714694202
-0.17077218
-0.1694834977
-0.1673015654
-0.1656521708
-0.1647865623
-0.1632921994
-0.1621043384
-0.1611356288
-0.1606136709
-0.1599926651
-0.1597670764
-0.1570413858
-0.1556013077
-0.1549599618
-0.1544515342
-0.1537630409
-0.1499589235
-0.1464041322
-0.1430841833
-0.1405967027
-0.1390758455
-0.1388255209
-0.1360171586
-0.1347143799
-0.1329661906
-0.1326748133
-0.1325872838
-0.1305834353
-0.1287152618
-0.1286922842
-0.128099069
-0.1265664846
-0.1263096035
-0.1235901266
-0.1235010028
-0.1221952885
-0.1214495897
-0.1191718504
-0.118914783
-0.118456021
-0.1165777147
-0.1111951768
-0.1109246686
-0.1106697544
-0.1093444973
-0.1048959345
-0.104009971
-0.1030669287
-0.1029594466
-0.1021997109
-0.09985861182
-0.09832649678
-0.09809557348
-0.0956120193
-0.09524999559
-0.09491245449
-0.09439057857
-0.09428492934
-0.09152367711
-0.09143301845
-0.09001175314
-0.08928450197
-0.08510008454
-0.08260788023
-0.08228451014
-0.07871337235
-0.0781795606
-0.07764819264
-0.07592851669
-0.07141903788
-0.07038381696
-0.06971532106
-0.06945820153
-0.06887606531
-0.06616817415
-0.06527100503
-0.06324813515
-0.06303794682
-0.0624079816
-0.06086180732
-0.06036052108
-0.06013998762
-0.0600284338
-0.05686806887
-0.05563379824
-0.05530780926
-0.05164285004
-0.05111048743
-0.0505165346
-0.05008518323
-0.04806154966
-0.0476622507
-0.04715387151
-0.04610073939
-0.04494613037
-0.04446958378
-0.04344343767
-0.04340038821
-0.04320494458
-0.04240757599
-0.04105013981
-0.04079519957
-0.0405349955
-0.03849296272
-0.03769373149
-0.03767403215
-0.03714352846
-0.03505833447
-0.03505192697
-0.03402490169
-0.03371983767
-0.03058639541
-0.03041424789
-0.03014932014
-0.02819362469
-0.02616313472
-0.02556329407
-0.02396923117
-0.02308171988
-0.02285996079
-0.02110563032
-0.01947236061
-0.01582793519
-0.01518565696
-0.01486680284
-0.01063211262
-0.01016804297
-0.01001436729
-0.009962573647
-0.009559734724
-0.008850170299
-0.007779615466
-0.007681550924
-0.006522493903
-0.005849518348
-0.004454673268
-0.003483257024
-0.003467957722
-0.0008198152063
7.711959188e-05
0.0009690510342
0.001341401483
0.002402013168
0.00357700116
0.005130170844
0.005179680418
0.007224343717
0.007662997581
0.009706201963
0.01243614033
0.01729234681
0.0174296964
0.01761880144
0.01770997047
0.01999978721
0.02024461329
0.02149732038
0.02210501023
0.02449915372
0.02478910983
0.02555534616
0.02888311632
0.02987589873
0.03194672242
0.03210450709
0.03233642131
0.03282175213
0.03295451403
0.03733408451
0.03738041595
0.0376868844
0.03979253396
0.04220315814
0.04229962826
0.04292128608
0.04393661395
0.04579904303
0.04720341042
0.04754463583
0.04820406064
0.05048234016
0.05073086917
0.05092221126
0.05189320445
0.05292539671
0.05308315158
0.05324666202
0.05351416767
0.05589193106
0.0579735674
0.05849492922
0.06136153266
0.0632371977
0.06666310877
0.06704754382
0.06792187691
0.06903100014
0.06926707923
0.06948597729
0.07024514675
0.07099518925
0.07105138898
0.07207606733
0.07210201025
0.07273998857
0.07347984612
0.07579872012
0.07612870634
0.07626786083
0.07788990438
0.07987720519
0.08001745492
0.0809771046
0.08132581413
0.08211003989
0.08226477355
0.08555331081
0.08670819551
0.08690819889
0.08692854643
0.08815766126
0.08822626621
0.08995302022
0.0908119157
0.09293984622
0.09367986023
0.09599307925
0.09694438428
0.09700826555
0.0971473828
0.09717531502
0.09810246527
0.0992051661
0.100015521
0.1012007669
0.1018344983
0.1021733135
0.1041952372
0.1059320346
0.1059517637
0.1114617437
0.1126453876
0.1129316166
0.1135124937
0.1149782464
0.115794003
0.1158366799
0.1158419326
0.1167924851
0.1169634089
0.117776081
0.1191132292
0.1193355769
0.1204173118
0.1207995042
0.1212088317
0.1215515584
0.1233705878
0.1252559274
0.1255303472
0.1255562305
0.1261144429
0.1285648495
0.1304832846
0.1309659928
0.1328583807
0.1344246268
0.1353573948
0.1358290166
0.1405408531
0.1412379295
0.1414187551
0.1440037787
0.145099327
0.1481286585
0.1488003284
0.1513949186
0.1527681351
0.1536882818
0.1538332999
0.1542824507
0.1550290585
0.1578412205
0.1611561179
0.1647799462
0.1649877429
0.1658116579
0.1662807763
0.1681971997
0.1696937829
0.170162499
0.1721110642
0.1750392169
0.1759397089
0.1789064407
0.1802616715
0.1811134517
0.1815552562
0.1834065616
0.1842426211
0.1857049167
0.1861100048
0.1901727617
0.1909658611
0.1918993443
0.1933682561
0.1937851906
0.1974057555
0.1988325864
0.2030024529
0.2090837806
0.2093515098
0.2181072831
0.2200848758
0.2204902917
0.2219051719
0.2252748609
0.2260340601
0.2269917727
0.2280661166
0.2376192212
0.2407580167
0.2429331839
0.2439487576
0.2446216494
0.2457725853
0.2458028346
0.2459535152
0.245984599
0.2506482899
0.2576115131
0.2592247725
0.2607596815
0.2802384794
0.2810220718
0.2890785038
0.2897185683
0.2954100668
0.3032447696
0.307074964
0.3119521439
0.3120383322
0.3137625456
0.3188803196
0.3212288022
0.3232281208
0.32679528
0.3323101103
0.3414735496
0.3460383415
0.362668395
0.363076061
0.364056021
0.3663707376
0.3665591776
0.3799073994
0.3894545436
0.3971084058
0.4019960165
0.4045802057
0.4422312379
0.4657404423
0.4686232209
0.4876213372
0.4894418418
0.4904283881
0.5596027374
