-0.6237288713
-0.5663775802
-0.5629605651
-0.5359079242
-0.5302063823
-0.5292797089
-0.5116740465
-0.5000087619
-0.4969629049
-0.490536809
-0.4733909965
-0.4634937346
-0.4617747962
-0.4555965066
-0.4514373839
-0.4490598142
-0.4455033839
-0.4427227974
-0.4287350476
-0.4273343384
-0.4234564602
-0.4085303843
-0.4071338177
-0.4068605602
-0.4012680054
-0.4000275135
-0.3988801241
-0.3941631317
-0.3923180103
-0.386384517
-0.3832492828
-0.3828967512
-0.3801680207
-0.3736008704
-0.368262589
-0.3677587807
-0.3657163382
-0.3649066687
-0.3552682102
-0.3549422622
-0.3507617116
-0.3463049531
-0.3442897499
-0.3355849087
-0.3332542479
-0.3319403827
-0.3316617012
-0.3305192292
-0.329624325
-0.3258846998
-0.3243886828
-0.3222180903
-0.320815295
-0.3199175894
-0.3197528124
-0.3181472421
-0.3160910606
-0.3160559535
-0.3151151836
-0.3151129484
-0.313762784
-0.3134692013
-0.3125819862
-0.3092716634
-0.3084197938
-0.3077211082
-0.3037480712
-0.3011011481
-0.3009097576
-0.2994437218
-0.298566103
-0.2975952625
-0.2961493731
-0.2949978113
-0.2928499281
-0.2911064923
-0.2884558737
-0.2882748544
-0.2876971066
-0.2850545645
-0.2833957672
-0.283041656
-0.2821652591
-0.281950891
-0.2812888324
-0.2800308466
-0.2799185514
-0.279512465
-0.2789793611
-0.2745245695
-0.2743349671
-0.2738819122
-0.2719249129
-0.2716912925
-0.2702118456
-0.2702064216
-0.2699425519
-0.2689970732
-0.266504705
-0.2641195953
-0.2639810145
-0.2626117468
-0.2623137534
-0.2620012164
-0.2616135478
-0.2613728642
-0.2593293786
-0.259144783
-0.2569669485
-0.2566850781
-0.2564320564
-0.2549470067
-0.2533499599
-0.2532466948
-0.2527909279
-0.2521386743
-0.252050668
-0.2513082922
-0.24987939
-0.2462606579
-0.2451450676
-0.2435321361
-0.2424781471
-0.2395043224
-0.2379445434
-0.237261638
-0.2371931672
-0.2317715436
-0.2302409858
-0.2301730961
-0.2299523205
-0.2292546332
-0.227341041
-0.2260711938
-0.2252491266
-0.2241672426
-0.2233241647
-0.2225953341
-0.2220122069
-0.2213108987
-0.2208451331
-0.2166572064
-0.2158549428
-0.2154548466
-0.2151040286
-0.2143227756
-0.2138049304
-0.2135918587
-0.2134251446
-0.2117571384
-0.2116531134
-0.2112783492
-0.2102525383
-0.2098723203
-0.2093004733
-0.2085690945
-0.2075895667
-0.2057743073
-0.2055310756
-0.2051085085
-0.1997075081
-0.1993532479
-0.1974687427
-0.1943385899
-0.1930927038
-0.1913445145
-0.1907944083
-0.1906729639
-0.1905653626
-0.1902177781
-0.1896974444
-0.1895910352
-0.18815431
-0.1860393137
-0.1846603155
-0.1817258894
-0.1815975308
-0.1767254621
-0.1754970849
-0.1746243834
-0.1737104654
-0.1733790189
-0.1723635346
-0.1711185426
-0.1704938263
-0.1702623963
-0.16995278
-0.1696624905
-0.1667619497
-0.1644010544
-0.1609217227
-0.1604186743
-0.1597943604
-0.1594333798
-0.1590453535
-0.1578504145
-0.15774481
-0.1572672725
-0.1563665271
-0.1563559771
-0.1557264924
-0.1552137583
-0.1548114121
-0.1534386426
-0.1533268094
-0.1520414352
-0.1518363059
-0.1501760483
-0.1499305218
-0.1497145742
-0.1494695097
-0.147260502
-0.1459615529
-0.1453900039
-0.1433533877
-0.1406353712
-0.138926208
-0.1384732574
-0.1383905113
-0.1374122798
-0.1356307566
-0.1355761141
-0.1354743987
-0.1339502037
-0.1338660121
-0.1336771399
-0.1333090365
-0.1332891285
-0.1330760419
-0.132503137
-0.1312721223
-0.1298472583
-0.1279784888
-0.126899913
-0.1252496392
-0.1249296218
-0.1240451336
-0.1223035306
-0.1212912649
-0.1206295043
-0.1202382967
-0.1198990494
-0.118315056
-0.1182999909
-0.1167855859
-0.116748929
-0.1167078987
-0.1166478395
-0.1140167266
-0.1139226779
-0.113666147
-0.1131620929
-0.1128155366
-0.1127465516
-0.1126582921
-0.1126301512
-0.1116567552
-0.1113451794
-0.1101056561
-0.1099854335
-0.1075946242
-0.1066173092
-0.1056539491
-0.1048365459
-0.1046088859
-0.1045129374
-0.1045007035
-0.101811491
-0.100453794
-0.1003616974
-0.0993135944
-0.09860153496
-0.09746521711
-0.09743881971
-0.09687249362
-0.09643115103
-0.09559226781
-0.09497315437
-0.09462915361
-0.0941138193
-0.09364056587
-0.09328278154
-0.09324914217
-0.0931686312
-0.09032981843
-0.09019095451
-0.09004936367
-0.08968742937
-0.08903576434
-0.08791796863
-0.08763542026
-0.08726055175
-0.08576857299
-0.08522862196
-0.08500706404
-0.08473049849
-0.08465279639
-0.08415302634
-0.08270774782
-0.08234171569
-0.08143590391
-0.08108729869
-0.08074942231
-0.08044634759
-0.07931432128
-0.07925222814
-0.07702042907
-0.07676558197
-0.07638797164
-0.07538111508
-0.07512430847
-0.07489815354
-0.07376968861
-0.07250462472
-0.07234618068
-0.07222697884
-0.07205368578
-0.07167065889
-0.07089526951
-0.07068145275
-0.07036675513
-0.06957937777
-0.06920800358
-0.06894499809
-0.06843787432
-0.0682489574
-0.0678813383
-0.06760654598
-0.0672396943
-0.06668670475
-0.0665852353
-0.06573957205
-0.06554364413
-0.06402412057
-0.06306452304
-0.06295992434
-0.06290146708
-0.06219736114
-0.06169262528
-0.06147456542
-0.06006217748
-0.05989044532
-0.05977323651
-0.05954416096
-0.05946651101
-0.05942444131
-0.05891352147
-0.05850384384
-0.05779786408
-0.05773835629
-0.05771830678
-0.05742514506
-0.05621331558
-0.05617789552
-0.05605353042
-0.054784365
-0.05477291718
-0.0541465804
-0.05281188712
-0.05278128758
-0.05256411061
-0.0524141714
-0.05042507872
-0.04962513223
-0.0479311198
-0.04792818055
-0.04791264981
-0.04773430154
-0.04742052034
-0.04733950645
-0.04721988365
-0.04620328546
-0.04533537477
-0.04469548538
-0.04463462904
-0.0439157337
-0.0424875617
-0.04240712523
-0.04230907932
-0.04073973
-0.04015868157
-0.04014942423
-0.0398969762
-0.03985157236
-0.03929722309
-0.03920781612
-0.03874376789
-0.03794641048
-0.03762445971
-0.03605537117
-0.03548163176
-0.03532937914
-0.03531543165
-0.03457232937
-0.03428366035
-0.03303590417
-0.03286943585
-0.03282176703
-0.03183015808
-0.03168281913
-0.03123589605
-0.03111427091
-0.03064945899
-0.03042905964
-0.03042840399
-0.0303377267
-0.03033589385
-0.03020172939
-0.02945126034
-0.0293509569
-0.02927760594
-0.02901485004
-0.02829420939
-0.0273653958
-0.02682603151
-0.02649528161
-0.02605895512
-0.02592980675
-0.02554425225
-0.02519226447
-0.02499567717
-0.024910843
-0.02473609522
-0.02464877628
-0.02450738847
-0.02330718376
-0.02313379943
-0.02292276733
-0.02282871678
-0.02163236216
-0.02020744048
-0.01982478425
-0.01955995709
-0.01950454898
-0.01869989932
-0.01856704801
-0.0181215331
-0.01611511782
-0.01556255203
-0.01467060018
-0.01408644021
-0.01391448919
-0.01368176099
-0.01342804171
-0.01329415198
-0.01320101414
-0.01301770005
-0.01275612134
-0.01082364749
-0.01060523093
-0.009662478231
-0.009647434577
-0.00910597574
-0.008387587965
-0.008252026513
-0.008101433516
-0.007839852013
-0.007252096198
-0.006753691006
-0.006515054964
-0.006451172289
-0.006364485715
-0.005222112872
-0.005219252314
-0.004755083472
-0.004605069291
-0.003935124725
-0.003782877699
-0.00368697918
-0.003521763254
-0.003463809378
-0.003153016325
-0.003058548085
-0.002748468192
-0.002584550763
-0.002475935733
-0.002004315611
-0.001733138924
-0.001020419761
-0.0009738797089
-0.0001230071211
0.0006446192856
0.00101789739
0.001156726154
0.001275107381
0.001334890258
0.001462380053
0.001660696929
0.002071456052
0.002382934093
0.003179464024
0.00567652192
0.006416048389
0.006941070314
0.007069626357
0.007244290318
0.007804502733
0.008285579272
0.008851270191
0.008872047998
0.009041086771
0.009116128087
0.009185614996
0.009191631339
0.009969171137
0.0100672571
0.01116516348
0.01206449978
0.01231042575
0.01292918995
0.01384884212
0.01420557965
0.01445880067
0.01501412038
0.01524603274
0.01545643061
0.0159909986
0.01617122442
0.01723958924
0.01747025736
0.01785057783
0.01849731617
0.01910857111
0.01981024258
0.02069413289
0.02104123309
0.02140310779
0.02144035138
0.0215655826
0.02186273783
0.02199178562
0.02271194384
0.02352544293
0.02435786463
0.02466520667
0.02584696002
0.02599710785
0.02653223462
0.02682509087
0.02738180384
0.02796767466
0.02890256047
0.02918550558
0.02983371541
0.02990213968
0.03117251955
0.03133897111
0.03401434422
0.03431145102
0.03483948484
0.03492994234
0.03508268297
0.03654456884
0.03748596087
0.03757182881
0.03769739345
0.03775069118
0.03807895258
0.03825391829
0.03849153966
0.03875330091
0.03924414143
0.03937198967
0.03954287618
0.0395863764
0.04007814825
0.04030593485
0.04067888856
0.04089947045
0.04132013395
0.04282879084
0.04298241064
0.04361542687
0.04382165521
0.04451712966
0.04500915483
0.04541746154
0.04545113072
0.04583758488
0.04666681588
0.04704071581
0.04815404117
0.04866315424
0.04914494976
0.04927950352
0.05111069232
0.05112663656
0.05148730054
0.05168014765
0.05233463272
0.05234142765
0.05245253816
0.05300362408
0.05300618708
0.05312363803
0.05334133282
0.05454838276
0.05476813763
0.05538111553
0.05539723858
0.05567267165
0.05613319203
0.05620202795
0.05823689699
0.05881600827
0.05934472755
0.05974316224
0.05977028236
0.05989203975
0.06066444516
0.06087598577
0.06128082052
0.06133195758
0.06268711388
0.06291721016
0.06303150952
0.06432941556
0.06490390003
0.06567793339
0.0660052821
0.06603573263
0.06622398645
0.06665246934
0.06694371998
0.06762252748
0.06864208728
0.06884165108
0.07092791796
0.07099299878
0.0722964704
0.07285387814
0.07293137908
0.07319879532
0.07410713285
0.07425042987
0.07426685095
0.07443449646
0.07555209845
0.07620733976
0.07647626847
0.07760293037
0.07814919204
0.07835829258
0.07860419899
0.07961283624
0.07986822724
0.07995539904
0.0804534331
0.08056201786
0.08122425526
0.08125392348
0.08154647052
0.08471873403
0.08526399732
0.08553431928
0.08589598536
0.08595244586
0.0863127932
0.08635038137
0.08708816767
0.08758676052
0.08767926693
0.08873083442
0.08996364474
0.09043947607
0.09051418304
0.09116108716
0.09154703468
0.09165838361
0.09169718623
0.09189079702
0.09217043221
0.09293864667
0.09297500551
0.09494634718
0.09512463957
0.09554932266
0.09568357468
0.0958352536
0.09613759816
0.09619195014
0.09650135785
0.09657503664
0.09867592156
0.09896057844
0.09911436588
0.09966459125
0.100216113
0.1006046683
0.1006930396
0.1008608267
0.1010983065
0.1017900556
0.1042655185
0.1047367081
0.1056988835
0.1056997702
0.1073312238
0.1075655222
0.1083526388
0.1097024828
0.109921433
0.1123977676
0.1150152832
0.1161870286
0.1162870601
0.1163054332
0.1174915954
0.1177112237
0.117939502
0.1180909052
0.1183902025
0.1193092763
0.1197107211
0.1208169758
0.123535648
0.1236439198
0.1238894537
0.1247967929
0.1253248155
0.1269502789
0.1269631386
0.1279860735
0.1293768287
0.1305413693
0.1309862137
0.1321079731
0.1323232502
0.132600233
0.1327849329
0.1334880739
0.1346836984
0.1357739866
0.1375393271
0.1385575831
0.1413952559
0.1422240734
0.1424544603
0.1425590366
0.1429594606
0.1476618052
0.148719281
0.149305582
0.1496977508
0.1498560905
0.1502843797
0.1511143446
0.1516628265
0.1517667919
0.1553208679
0.1554763168
0.1578888148
0.1604740918
0.1609172076
0.1616600454
0.1624893099
0.1636889577
0.1640078872
0.1652627885
0.1664629132
0.1666772813
0.1677488983
0.1682929993
0.1685792506
0.1685877442
0.1692332625
0.1693685204
0.1747000217
0.174716711
0.1765624583
0.1784011275
0.1796354055
0.1816545576
0.1830159426
0.1840163618
0.1848076135
0.1869239509
0.1900560111
0.1924146265
0.192603901
0.1932613999
0.1933243126
0.1944369376
0.1957459003
0.1958279759
0.1966961622
0.1972132176
0.1979595423
0.1983324736
0.1986153871
0.200355798
0.2016473413
0.2046659589
0.204810515
0.2049269229
0.2050112039
0.2054139078
0.205695495
0.2066677362
0.2083328962
0.2113345563
0.2170139104
0.218130514
0.2186893374
0.2200657874
0.221460104
0.2228902429
0.2270352244
0.2309101373
0.2356983125
0.2376945615
0.2377033383
0.2378735691
0.2383074313
0.2400868237
0.241129145
0.2420481145
0.2422618419
0.2471711636
0.2471974194
0.2515705526
0.2569248378
0.2603267729
0.2628901899
0.2657380998
0.271623075
0.2731954455
0.2745001614
0.2809089422
0.2834067643
0.2917115688
0.2921145856
0.2961634696
0.3121576607
0.3170759678
0.3189146519
0.3378818035
0.3514205217
0.3529812098
0.4351744354
