-0.143572
-0.142445
-0.141319
-0.141319
-0.139067
-0.139067
-0.136815
-0.135689
-0.134563
-0.133437
-0.132311
-0.132311
-0.131185
-0.131185
-0.131185
-0.130059
-0.128933
-0.127807
-0.126681
-0.122177
-0.121051
-0.119924
-0.118798
-0.118798
-0.118798
-0.117672
-0.117672
-0.116546
-0.11542
-0.114294
-0.113168
-0.112042
-0.112042
-0.110916
-0.10979
-0.108664
-0.108664
-0.108664
-0.107538
-0.105286
-0.10416
-0.10416
-0.103034
-0.101908
-0.100782
-0.0996555
-0.0985295
-0.0985295
-0.0974034
-0.0962774
-0.0951513
-0.0940253
-0.0940253
-0.0928992
-0.0928992
-0.0917732
-0.0906471
-0.0906471
-0.0895211
-0.087269
-0.087269
-0.0861429
-0.0838908
-0.0838908
-0.0827648
-0.0816387
-0.0816387
-0.0805127
-0.0793866
-0.0737564
-0.0737564
-0.0726303
-0.0703782
-0.0692521
-0.0681261
-0.067
-0.0647479
-0.0647479
-0.0647479
-0.0624958
-0.0624958
-0.0613698
-0.0546135
-0.0534874
-0.0534874
-0.0512353
-0.0501093
-0.0489832
-0.0489832
-0.0467311
-0.0399748
-0.0365967
-0.0332185
-0.0309664
-0.0298403
-0.0298403
-0.0275882
-0.023084
-0.021958
-0.0208319
-0.0185798
-0.0163277
-0.00844538
-0.00619327
-0.00506722
0.00394119
0.00619329
0.00844539
0.0118235
0.0152017
0.0185799
0.020832
0.0332185
0.0399748
0.044479
0.044479
0.0478572
0.0534874
0.0534874
0.0568656
0.0579916
0.0591177
0.0602437
0.0613698
0.0748824
0.0760085
0.0771345
0.0782606
0.0838908
0.0838908
0.0838908
0.0850169
0.0861429
0.087269
0.087269
0.088395
0.0906471
0.0906471
0.0951513
0.0962774
0.0962774
0.0996556
0.0996556
0.105286
0.107538
0.121051
0.124429
0.124429
0.128933
0.130059
