-0.170949
-0.162904
-0.160223
-0.157541
-0.154859
-0.152178
-0.150837
-0.149496
-0.145474
-0.142793
-0.141452
-0.141452
-0.140111
-0.13877
-0.137429
-0.136089
-0.136089
-0.136089
-0.136089
-0.134748
-0.134748
-0.133407
-0.133407
-0.133407
-0.132066
-0.132066
-0.130726
-0.129385
-0.126703
-0.126703
-0.126703
-0.126703
-0.125362
-0.125362
-0.122681
-0.122681
-0.12134
-0.12134
-0.119999
-0.115977
-0.114636
-0.113295
-0.111955
-0.111955
-0.111955
-0.110614
-0.110614
-0.110614
-0.110614
-0.109273
-0.109273
-0.109273
-0.107932
-0.107932
-0.106592
-0.106592
-0.106592
-0.106592
-0.106592
-0.105251
-0.105251
-0.105251
-0.105251
-0.105251
-0.10391
-0.10391
-0.102569
-0.102569
-0.101228
-0.101228
-0.101228
-0.0998877
-0.0998877
-0.0998877
-0.0998877
-0.0985469
-0.0985469
-0.0985469
-0.0985469
-0.0985469
-0.0972062
-0.0972062
-0.0972062
-0.0972062
-0.0972062
-0.0958654
-0.0958654
-0.0958654
-0.0958654
-0.0958654
-0.0958654
-0.0945246
-0.0945246
-0.0945246
-0.0945246
-0.0945246
-0.0931838
-0.0931838
-0.0931838
-0.0931838
-0.0931838
-0.0931838
-0.0931838
-0.0918431
-0.0918431
-0.0905023
-0.0905023
-0.0905023
-0.0905023
-0.0905023
-0.0905023
-0.0905023
-0.0905023
-0.0891615
-0.0891615
-0.0891615
-0.0891615
-0.0891615
-0.0891615
-0.0891615
-0.0878207
-0.0878207
-0.0878207
-0.0878207
-0.0878207
-0.0878207
-0.08648
-0.08648
-0.08648
-0.08648
-0.08648
-0.0851392
-0.0851392
-0.0851392
-0.0851392
-0.0851392
-0.0851392
-0.0837984
-0.0837984
-0.0837984
-0.0837984
-0.0837984
-0.0824576
-0.0824576
-0.0824576
-0.0824576
-0.0824576
-0.0824576
-0.0811169
-0.0811169
-0.0811169
-0.0797761
-0.0797761
-0.0797761
-0.0797761
-0.0797761
-0.0797761
-0.0797761
-0.0797761
-0.0784353
-0.0784353
-0.0784353
-0.0784353
-0.0770945
-0.0770945
-0.0770945
-0.0770945
-0.0757538
-0.0757538
-0.0757538
-0.0757538
-0.074413
-0.074413
-0.074413
-0.074413
-0.074413
-0.0730722
-0.0730722
-0.0730722
-0.0730722
-0.0730722
-0.0730722
-0.0730722
-0.0730722
-0.0717314
-0.0717314
-0.0717314
-0.0717314
-0.0717314
-0.0703907
-0.0703907
-0.0703907
-0.0690499
-0.0690499
-0.0690499
-0.0690499
-0.0690499
-0.0690499
-0.0690499
-0.0690499
-0.0690499
-0.0690499
-0.0677091
-0.0677091
-0.0677091
-0.0677091
-0.0677091
-0.0663683
-0.0663683
-0.0663683
-0.0663683
-0.0663683
-0.0663683
-0.0650276
-0.0650276
-0.0650276
-0.0650276
-0.0650276
-0.0636868
-0.0636868
-0.0636868
-0.0636868
-0.0636868
-0.0636868
-0.0636868
-0.0636868
-0.0636868
-0.0636868
-0.0636868
-0.0636868
-0.0636868
-0.062346
-0.062346
-0.062346
-0.062346
-0.062346
-0.062346
-0.062346
-0.062346
-0.062346
-0.062346
-0.062346
-0.062346
-0.0610052
-0.0610052
-0.0610052
-0.0610052
-0.0610052
-0.0610052
-0.0610052
-0.0596645
-0.0596645
-0.0596645
-0.0596645
-0.0596645
-0.0596645
-0.0596645
-0.0596645
-0.0596645
-0.0596645
-0.0596645
-0.0596645
-0.0596645
-0.0583237
-0.0583237
-0.0583237
-0.0583237
-0.0583237
-0.0569829
-0.0569829
-0.0569829
-0.0569829
-0.0569829
-0.0569829
-0.0569829
-0.0556421
-0.0556421
-0.0556421
-0.0556421
-0.0556421
-0.0556421
-0.0556421
-0.0543014
-0.0543014
-0.0543014
-0.0543014
-0.0543014
-0.0543014
-0.0543014
-0.0543014
-0.0543014
-0.0543014
-0.0543014
-0.0529606
-0.0529606
-0.0529606
-0.0529606
-0.0529606
-0.0529606
-0.0529606
-0.0529606
-0.0529606
-0.0516198
-0.0516198
-0.0516198
-0.0516198
-0.0516198
-0.0516198
-0.0516198
-0.0516198
-0.0516198
-0.0516198
-0.050279
-0.050279
-0.050279
-0.050279
-0.050279
-0.050279
-0.050279
-0.050279
-0.050279
-0.050279
-0.050279
-0.0489383
-0.0489383
-0.0489383
-0.0489383
-0.0489383
-0.0489383
-0.0489383
-0.0489383
-0.0489383
-0.0489383
-0.0489383
-0.0489383
-0.0489383
-0.0489383
-0.0489383
-0.0489383
-0.0489383
-0.0475975
-0.0475975
-0.0475975
-0.0475975
-0.0475975
-0.0475975
-0.0475975
-0.0475975
-0.0475975
-0.0475975
-0.0475975
-0.0475975
-0.0462567
-0.0462567
-0.0462567
-0.0462567
-0.0462567
-0.0462567
-0.0462567
-0.0462567
-0.0462567
-0.0462567
-0.0462567
-0.0462567
-0.0449159
-0.0449159
-0.0449159
-0.0449159
-0.0449159
-0.0449159
-0.0449159
-0.0449159
-0.0449159
-0.0449159
-0.0449159
-0.0449159
-0.0449159
-0.0449159
-0.0449159
-0.0449159
-0.0449159
-0.0449159
-0.0449159
-0.0449159
-0.0449159
-0.0449159
-0.0449159
-0.0449159
-0.0449159
-0.0435752
-0.0435752
-0.0435752
-0.0435752
-0.0435752
-0.0435752
-0.0435752
-0.0435752
-0.0435752
-0.0435752
-0.0435752
-0.0435752
-0.0435752
-0.0435752
-0.0435752
-0.0435752
-0.0422344
-0.0422344
-0.0422344
-0.0422344
-0.0422344
-0.0422344
-0.0422344
-0.0422344
-0.0422344
-0.0422344
-0.0422344
-0.0422344
-0.0422344
-0.0422344
-0.0408936
-0.0408936
-0.0408936
-0.0408936
-0.0408936
-0.0408936
-0.0408936
-0.0408936
-0.0408936
-0.0395528
-0.0395528
-0.0395528
-0.0395528
-0.0395528
-0.0395528
-0.0395528
-0.0395528
-0.0395528
-0.0395528
-0.0395528
-0.0395528
-0.0382121
-0.0382121
-0.0382121
-0.0382121
-0.0382121
-0.0382121
-0.0382121
-0.0382121
-0.0382121
-0.0382121
-0.0382121
-0.0382121
-0.0382121
-0.0382121
-0.0382121
-0.0382121
-0.0382121
-0.0382121
-0.0382121
-0.0382121
-0.0382121
-0.0368713
-0.0368713
-0.0368713
-0.0368713
-0.0368713
-0.0368713
-0.0368713
-0.0368713
-0.0368713
-0.0368713
-0.0368713
-0.0355305
-0.0355305
-0.0355305
-0.0355305
-0.0355305
-0.0355305
-0.0355305
-0.0355305
-0.0355305
-0.0355305
-0.0355305
-0.0355305
-0.0355305
-0.0355305
-0.0355305
-0.0355305
-0.0355305
-0.0355305
-0.0355305
-0.0355305
-0.0355305
-0.0355305
-0.0355305
-0.0355305
-0.0355305
-0.0341897
-0.0341897
-0.0341897
-0.0341897
-0.0341897
-0.0341897
-0.0341897
-0.0341897
-0.0341897
-0.0341897
-0.0341897
-0.0341897
-0.0341897
-0.0341897
-0.0341897
-0.0341897
-0.032849
-0.032849
-0.032849
-0.032849
-0.032849
-0.032849
-0.032849
-0.032849
-0.032849
-0.032849
-0.032849
-0.032849
-0.032849
-0.032849
-0.032849
-0.032849
-0.032849
-0.032849
-0.032849
-0.032849
-0.032849
-0.032849
-0.0315082
-0.0315082
-0.0315082
-0.0315082
-0.0315082
-0.0315082
-0.0315082
-0.0315082
-0.0315082
-0.0315082
-0.0315082
-0.0315082
-0.0315082
-0.0315082
-0.0315082
-0.0315082
-0.0315082
-0.0315082
-0.0315082
-0.0315082
-0.0315082
-0.0315082
-0.0315082
-0.0315082
-0.0315082
-0.0315082
-0.0301674
-0.0301674
-0.0301674
-0.0301674
-0.0301674
-0.0301674
-0.0301674
-0.0301674
-0.0301674
-0.0301674
-0.0301674
-0.0301674
-0.0301674
-0.0301674
-0.0301674
-0.0288266
-0.0288266
-0.0288266
-0.0288266
-0.0288266
-0.0288266
-0.0288266
-0.0288266
-0.0288266
-0.0288266
-0.0288266
-0.0288266
-0.0288266
-0.0288266
-0.0288266
-0.0288266
-0.0288266
-0.0288266
-0.0288266
-0.0288266
-0.0288266
-0.0288266
-0.0274859
-0.0274859
-0.0274859
-0.0274859
-0.0274859
-0.0274859
-0.0274859
-0.0274859
-0.0274859
-0.0274859
-0.0274859
-0.0274859
-0.0274859
-0.0261451
-0.0261451
-0.0261451
-0.0261451
-0.0261451
-0.0261451
-0.0261451
-0.0261451
-0.0261451
-0.0261451
-0.0261451
-0.0261451
-0.0261451
-0.0261451
-0.0261451
-0.0261451
-0.0261451
-0.0261451
-0.0261451
-0.0261451
-0.0261451
-0.0261451
-0.0248043
-0.0248043
-0.0248043
-0.0248043
-0.0248043
-0.0248043
-0.0248043
-0.0248043
-0.0248043
-0.0248043
-0.0248043
-0.0248043
-0.0248043
-0.0248043
-0.0248043
-0.0248043
-0.0248043
-0.0248043
-0.0248043
-0.0248043
-0.0248043
-0.0248043
-0.0248043
-0.0248043
-0.0248043
-0.0234635
-0.0234635
-0.0234635
-0.0234635
-0.0234635
-0.0234635
-0.0234635
-0.0234635
-0.0234635
-0.0234635
-0.0234635
-0.0234635
-0.0234635
-0.0234635
-0.0234635
-0.0234635
-0.0234635
-0.0234635
-0.0234635
-0.0234635
-0.0234635
-0.0234635
-0.0234635
-0.0234635
-0.0234635
-0.0234635
-0.0221228
-0.0221228
-0.0221228
-0.0221228
-0.0221228
-0.0221228
-0.0221228
-0.0221228
-0.0221228
-0.0221228
-0.0221228
-0.0221228
-0.0221228
-0.0221228
-0.0221228
-0.0221228
-0.0221228
-0.0221228
-0.0221228
-0.0221228
-0.0221228
-0.0221228
-0.0221228
-0.020782
-0.020782
-0.020782
-0.020782
-0.020782
-0.020782
-0.020782
-0.020782
-0.020782
-0.020782
-0.020782
-0.020782
-0.020782
-0.020782
-0.020782
-0.020782
-0.020782
-0.020782
-0.020782
-0.020782
-0.0194412
-0.0194412
-0.0194412
-0.0194412
-0.0194412
-0.0194412
-0.0194412
-0.0194412
-0.0194412
-0.0194412
-0.0194412
-0.0194412
-0.0194412
-0.0194412
-0.0194412
-0.0194412
-0.0194412
-0.0194412
-0.0194412
-0.0194412
-0.0194412
-0.0194412
-0.0194412
-0.0194412
-0.0194412
-0.0194412
-0.0194412
-0.0194412
-0.0194412
-0.0194412
-0.0181004
-0.0181004
-0.0181004
-0.0181004
-0.0181004
-0.0181004
-0.0181004
-0.0181004
-0.0181004
-0.0181004
-0.0181004
-0.0181004
-0.0181004
-0.0181004
-0.0181004
-0.0181004
-0.0181004
-0.0181004
-0.0181004
-0.0181004
-0.0181004
-0.0181004
-0.0181004
-0.0181004
-0.0181004
-0.0181004
-0.0181004
-0.0181004
-0.0181004
-0.0181004
-0.0181004
-0.0181004
-0.0181004
-0.0181004
-0.0181004
-0.0181004
-0.0167597
-0.0167597
-0.0167597
-0.0167597
-0.0167597
-0.0167597
-0.0167597
-0.0167597
-0.0167597
-0.0167597
-0.0167597
-0.0167597
-0.0167597
-0.0167597
-0.0167597
-0.0167597
-0.0167597
-0.0167597
-0.0167597
-0.0154189
-0.0154189
-0.0154189
-0.0154189
-0.0154189
-0.0154189
-0.0154189
-0.0154189
-0.0154189
-0.0154189
-0.0154189
-0.0154189
-0.0154189
-0.0154189
-0.0154189
-0.0154189
-0.0154189
-0.0154189
-0.0154189
-0.0154189
-0.0154189
-0.0140781
-0.0140781
-0.0140781
-0.0140781
-0.0140781
-0.0140781
-0.0140781
-0.0140781
-0.0140781
-0.0140781
-0.0140781
-0.0140781
-0.0140781
-0.0140781
-0.0140781
-0.0140781
-0.0140781
-0.0140781
-0.0140781
-0.0140781
-0.0140781
-0.0140781
-0.0140781
-0.0140781
-0.0127373
-0.0127373
-0.0127373
-0.0127373
-0.0127373
-0.0127373
-0.0127373
-0.0127373
-0.0127373
-0.0127373
-0.0127373
-0.0127373
-0.0127373
-0.0127373
-0.0127373
-0.0127373
-0.0127373
-0.0127373
-0.0127373
-0.0127373
-0.0127373
-0.0127373
-0.0127373
-0.0127373
-0.0127373
-0.0127373
-0.0127373
-0.0113966
-0.0113966
-0.0113966
-0.0113966
-0.0113966
-0.0113966
-0.0113966
-0.0113966
-0.0113966
-0.0113966
-0.0113966
-0.0113966
-0.0113966
-0.0113966
-0.0113966
-0.0113966
-0.0113966
-0.0113966
-0.0113966
-0.0113966
-0.0113966
-0.0113966
-0.0113966
-0.0113966
-0.0113966
-0.0113966
-0.0113966
-0.0113966
-0.0100558
-0.0100558
-0.0100558
-0.0100558
-0.0100558
-0.0100558
-0.0100558
-0.0100558
-0.0100558
-0.0100558
-0.0100558
-0.0100558
-0.0100558
-0.0100558
-0.0100558
-0.0100558
-0.0100558
-0.0100558
-0.0100558
-0.0100558
-0.0100558
-0.0100558
-0.0100558
-0.0100558
-0.0100558
-0.0100558
-0.0100558
-0.0100558
-0.0100558
-0.0100558
-0.0100558
-0.00871502
-0.00871502
-0.00871502
-0.00871502
-0.00871502
-0.00871502
-0.00871502
-0.00871502
-0.00871502
-0.00871502
-0.00871502
-0.00871502
-0.00871502
-0.00871502
-0.00871502
-0.00871502
-0.00871502
-0.00871502
-0.00871502
-0.00871502
-0.00871502
-0.00871502
-0.00871502
-0.00871502
-0.00737425
-0.00737425
-0.00737425
-0.00737425
-0.00737425
-0.00737425
-0.00737425
-0.00737425
-0.00737425
-0.00737425
-0.00737425
-0.00737425
-0.00737425
-0.00737425
-0.00737425
-0.00737425
-0.00737425
-0.00737425
-0.00737425
-0.00737425
-0.00737425
-0.00737425
-0.00737425
-0.00737425
-0.00737425
-0.00603348
-0.00603348
-0.00603348
-0.00603348
-0.00603348
-0.00603348
-0.00603348
-0.00603348
-0.00603348
-0.00603348
-0.00603348
-0.00603348
-0.00603348
-0.00603348
-0.00603348
-0.00603348
-0.00603348
-0.00603348
-0.00603348
-0.00603348
-0.00603348
-0.00603348
-0.00603348
-0.00603348
-0.00603348
-0.00603348
-0.00603348
-0.00603348
-0.00603348
-0.0046927
-0.0046927
-0.0046927
-0.0046927
-0.0046927
-0.0046927
-0.0046927
-0.0046927
-0.0046927
-0.0046927
-0.0046927
-0.0046927
-0.0046927
-0.0046927
-0.0046927
-0.0046927
-0.0046927
-0.0046927
-0.0046927
-0.0046927
-0.0046927
-0.0046927
-0.0046927
-0.0046927
-0.0046927
-0.0046927
-0.0046927
-0.0046927
-0.0046927
-0.0046927
-0.0046927
-0.0046927
-0.0046927
-0.00335193
-0.00335193
-0.00335193
-0.00335193
-0.00335193
-0.00335193
-0.00335193
-0.00335193
-0.00335193
-0.00335193
-0.00335193
-0.00335193
-0.00335193
-0.00335193
-0.00335193
-0.00335193
-0.00335193
-0.00335193
-0.00335193
-0.00335193
-0.00335193
-0.00335193
-0.00335193
-0.00335193
-0.00335193
-0.00335193
-0.00335193
-0.00335193
-0.00335193
-0.00335193
-0.00335193
-0.00335193
-0.00335193
-0.00335193
-0.00201115
-0.00201115
-0.00201115
-0.00201115
-0.00201115
-0.00201115
-0.00201115
-0.00201115
-0.00201115
-0.00201115
-0.00201115
-0.00201115
-0.00201115
-0.00201115
-0.00201115
-0.00201115
-0.00201115
-0.00201115
-0.00201115
-0.00201115
-0.00201115
-0.00201115
-0.00201115
-0.00201115
-0.00201115
-0.00201115
-0.00201115
-0.00201115
-0.00201115
-0.00201115
-0.00201115
-0.00201115
-0.000670377
-0.000670377
-0.000670377
-0.000670377
-0.000670377
-0.000670377
-0.000670377
-0.000670377
-0.000670377
-0.000670377
-0.000670377
-0.000670377
-0.000670377
-0.000670377
-0.000670377
-0.000670377
-0.000670377
-0.000670377
-0.000670377
-0.000670377
-0.000670377
-0.000670377
-0.000670377
-0.000670377
-0.000670377
-0.000670377
-0.000670377
0.000670397
0.000670397
0.000670397
0.000670397
0.000670397
0.000670397
0.000670397
0.000670397
0.000670397
0.000670397
0.000670397
0.000670397
0.000670397
0.000670397
0.000670397
0.000670397
0.000670397
0.000670397
0.000670397
0.000670397
0.000670397
0.000670397
0.000670397
0.000670397
0.000670397
0.000670397
0.000670397
0.000670397
0.000670397
0.000670397
0.00201117
0.00201117
0.00201117
0.00201117
0.00201117
0.00201117
0.00201117
0.00201117
0.00201117
0.00201117
0.00201117
0.00201117
0.00201117
0.00201117
0.00201117
0.00201117
0.00201117
0.00201117
0.00201117
0.00201117
0.00201117
0.00201117
0.00201117
0.00201117
0.00201117
0.00201117
0.00201117
0.00201117
0.00201117
0.00201117
0.00201117
0.00201117
0.00201117
0.00201117
0.00335195
0.00335195
0.00335195
0.00335195
0.00335195
0.00335195
0.00335195
0.00335195
0.00335195
0.00335195
0.00335195
0.00335195
0.00335195
0.00335195
0.00335195
0.00335195
0.00335195
0.00335195
0.00335195
0.00335195
0.00335195
0.00335195
0.00335195
0.00335195
0.00335195
0.00469272
0.00469272
0.00469272
0.00469272
0.00469272
0.00469272
0.00469272
0.00469272
0.00469272
0.00469272
0.00469272
0.00469272
0.00469272
0.00469272
0.00469272
0.00469272
0.00469272
0.00469272
0.00469272
0.00469272
0.00469272
0.00469272
0.00469272
0.00469272
0.00469272
0.00469272
0.0060335
0.0060335
0.0060335
0.0060335
0.0060335
0.0060335
0.0060335
0.0060335
0.0060335
0.0060335
0.0060335
0.0060335
0.0060335
0.0060335
0.0060335
0.0060335
0.0060335
0.0060335
0.0060335
0.0060335
0.00737427
0.00737427
0.00737427
0.00737427
0.00737427
0.00737427
0.00737427
0.00737427
0.00737427
0.00737427
0.00737427
0.00737427
0.00737427
0.00737427
0.00737427
0.00737427
0.00737427
0.00737427
0.00737427
0.00737427
0.00737427
0.00737427
0.00737427
0.00737427
0.00737427
0.00737427
0.00737427
0.00737427
0.00871504
0.00871504
0.00871504
0.00871504
0.00871504
0.00871504
0.00871504
0.00871504
0.00871504
0.00871504
0.00871504
0.00871504
0.00871504
0.00871504
0.00871504
0.00871504
0.00871504
0.00871504
0.00871504
0.00871504
0.00871504
0.00871504
0.00871504
0.00871504
0.00871504
0.00871504
0.00871504
0.00871504
0.0100558
0.0100558
0.0100558
0.0100558
0.0100558
0.0100558
0.0100558
0.0100558
0.0100558
0.0100558
0.0100558
0.0100558
0.0100558
0.0100558
0.0100558
0.0100558
0.0100558
0.0100558
0.0100558
0.0100558
0.0100558
0.0100558
0.0100558
0.0100558
0.0100558
0.0113966
0.0113966
0.0113966
0.0113966
0.0113966
0.0113966
0.0113966
0.0113966
0.0113966
0.0113966
0.0113966
0.0113966
0.0113966
0.0113966
0.0113966
0.0113966
0.0113966
0.0113966
0.0113966
0.0113966
0.0113966
0.0113966
0.0127374
0.0127374
0.0127374
0.0127374
0.0127374
0.0127374
0.0127374
0.0127374
0.0127374
0.0127374
0.0127374
0.0127374
0.0127374
0.0127374
0.0127374
0.0127374
0.0127374
0.0127374
0.0127374
0.0127374
0.0127374
0.0127374
0.0127374
0.0127374
0.0127374
0.0127374
0.0127374
0.0127374
0.0127374
0.0140781
0.0140781
0.0140781
0.0140781
0.0140781
0.0140781
0.0140781
0.0140781
0.0140781
0.0140781
0.0140781
0.0140781
0.0140781
0.0140781
0.0140781
0.0140781
0.0140781
0.0140781
0.0140781
0.0140781
0.0140781
0.0140781
0.0140781
0.0140781
0.0140781
0.0140781
0.0140781
0.0140781
0.0140781
0.0140781
0.0140781
0.0140781
0.0140781
0.0154189
0.0154189
0.0154189
0.0154189
0.0154189
0.0154189
0.0154189
0.0154189
0.0154189
0.0154189
0.0154189
0.0154189
0.0154189
0.0154189
0.0154189
0.0154189
0.0154189
0.0154189
0.0154189
0.0154189
0.0154189
0.0154189
0.0154189
0.0154189
0.0154189
0.0154189
0.0154189
0.0154189
0.0154189
0.0154189
0.0154189
0.0154189
0.0154189
0.0167597
0.0167597
0.0167597
0.0167597
0.0167597
0.0167597
0.0167597
0.0167597
0.0167597
0.0167597
0.0167597
0.0167597
0.0167597
0.0167597
0.0167597
0.0167597
0.0167597
0.0167597
0.0167597
0.0167597
0.0167597
0.0167597
0.0167597
0.0167597
0.0167597
0.0167597
0.0167597
0.0167597
0.0167597
0.0167597
0.0167597
0.0167597
0.0167597
0.0167597
0.0167597
0.0181005
0.0181005
0.0181005
0.0181005
0.0181005
0.0181005
0.0181005
0.0181005
0.0181005
0.0181005
0.0181005
0.0181005
0.0181005
0.0181005
0.0181005
0.0181005
0.0181005
0.0181005
0.0181005
0.0181005
0.0181005
0.0181005
0.0181005
0.0181005
0.0181005
0.0181005
0.0181005
0.0181005
0.0181005
0.0181005
0.0181005
0.0181005
0.0194412
0.0194412
0.0194412
0.0194412
0.0194412
0.0194412
0.0194412
0.0194412
0.0194412
0.0194412
0.0194412
0.0194412
0.0194412
0.0194412
0.0194412
0.0194412
0.0194412
0.0194412
0.0194412
0.0194412
0.0194412
0.0194412
0.0194412
0.0194412
0.0194412
0.020782
0.020782
0.020782
0.020782
0.020782
0.020782
0.020782
0.020782
0.020782
0.020782
0.020782
0.020782
0.020782
0.020782
0.020782
0.020782
0.020782
0.020782
0.020782
0.020782
0.020782
0.020782
0.0221228
0.0221228
0.0221228
0.0221228
0.0221228
0.0221228
0.0221228
0.0221228
0.0221228
0.0221228
0.0221228
0.0221228
0.0221228
0.0221228
0.0221228
0.0221228
0.0221228
0.0221228
0.0221228
0.0221228
0.0221228
0.0221228
0.0221228
0.0221228
0.0221228
0.0221228
0.0234636
0.0234636
0.0234636
0.0234636
0.0234636
0.0234636
0.0234636
0.0234636
0.0234636
0.0234636
0.0234636
0.0234636
0.0234636
0.0234636
0.0234636
0.0234636
0.0234636
0.0234636
0.0234636
0.0234636
0.0234636
0.0234636
0.0234636
0.0234636
0.0234636
0.0234636
0.0234636
0.0234636
0.0234636
0.0234636
0.0248043
0.0248043
0.0248043
0.0248043
0.0248043
0.0248043
0.0248043
0.0248043
0.0248043
0.0248043
0.0248043
0.0248043
0.0248043
0.0248043
0.0248043
0.0248043
0.0248043
0.0248043
0.0248043
0.0248043
0.0248043
0.0248043
0.0248043
0.0248043
0.0248043
0.0248043
0.0248043
0.0261451
0.0261451
0.0261451
0.0261451
0.0261451
0.0261451
0.0261451
0.0261451
0.0261451
0.0261451
0.0261451
0.0261451
0.0261451
0.0261451
0.0261451
0.0261451
0.0261451
0.0261451
0.0261451
0.0261451
0.0261451
0.0261451
0.0261451
0.0261451
0.0261451
0.0261451
0.0261451
0.0261451
0.0261451
0.0261451
0.0274859
0.0274859
0.0274859
0.0274859
0.0274859
0.0274859
0.0274859
0.0274859
0.0274859
0.0274859
0.0274859
0.0274859
0.0274859
0.0274859
0.0274859
0.0274859
0.0274859
0.0288267
0.0288267
0.0288267
0.0288267
0.0288267
0.0288267
0.0288267
0.0288267
0.0288267
0.0288267
0.0288267
0.0288267
0.0288267
0.0288267
0.0288267
0.0288267
0.0288267
0.0288267
0.0288267
0.0288267
0.0301674
0.0301674
0.0301674
0.0301674
0.0301674
0.0301674
0.0301674
0.0301674
0.0301674
0.0301674
0.0301674
0.0301674
0.0301674
0.0301674
0.0301674
0.0301674
0.0301674
0.0301674
0.0301674
0.0301674
0.0301674
0.0301674
0.0301674
0.0301674
0.0301674
0.0301674
0.0315082
0.0315082
0.0315082
0.0315082
0.0315082
0.0315082
0.0315082
0.0315082
0.0315082
0.0315082
0.0315082
0.0315082
0.0315082
0.0315082
0.0315082
0.0315082
0.0315082
0.0315082
0.032849
0.032849
0.032849
0.032849
0.032849
0.032849
0.032849
0.032849
0.032849
0.032849
0.032849
0.032849
0.032849
0.032849
0.032849
0.032849
0.032849
0.032849
0.032849
0.032849
0.032849
0.032849
0.032849
0.032849
0.032849
0.032849
0.0341898
0.0341898
0.0341898
0.0341898
0.0341898
0.0341898
0.0341898
0.0341898
0.0341898
0.0341898
0.0341898
0.0341898
0.0341898
0.0341898
0.0341898
0.0341898
0.0341898
0.0341898
0.0341898
0.0341898
0.0341898
0.0341898
0.0341898
0.0341898
0.0355305
0.0355305
0.0355305
0.0355305
0.0355305
0.0355305
0.0355305
0.0355305
0.0355305
0.0355305
0.0355305
0.0355305
0.0355305
0.0355305
0.0355305
0.0355305
0.0355305
0.0355305
0.0355305
0.0355305
0.0355305
0.0368713
0.0368713
0.0368713
0.0368713
0.0368713
0.0368713
0.0368713
0.0368713
0.0368713
0.0368713
0.0368713
0.0368713
0.0368713
0.0368713
0.0368713
0.0368713
0.0368713
0.0368713
0.0368713
0.0368713
0.0368713
0.0382121
0.0382121
0.0382121
0.0382121
0.0382121
0.0382121
0.0382121
0.0382121
0.0382121
0.0382121
0.0382121
0.0382121
0.0382121
0.0382121
0.0382121
0.0382121
0.0382121
0.0382121
0.0382121
0.0382121
0.0382121
0.0382121
0.0395529
0.0395529
0.0395529
0.0395529
0.0395529
0.0395529
0.0395529
0.0395529
0.0395529
0.0395529
0.0395529
0.0395529
0.0395529
0.0395529
0.0395529
0.0395529
0.0395529
0.0395529
0.0395529
0.0395529
0.0395529
0.0395529
0.0395529
0.0395529
0.0408936
0.0408936
0.0408936
0.0408936
0.0408936
0.0408936
0.0408936
0.0408936
0.0408936
0.0408936
0.0408936
0.0408936
0.0408936
0.0408936
0.0408936
0.0408936
0.0408936
0.0408936
0.0408936
0.0408936
0.0408936
0.0408936
0.0422344
0.0422344
0.0422344
0.0422344
0.0422344
0.0422344
0.0422344
0.0422344
0.0422344
0.0422344
0.0422344
0.0422344
0.0422344
0.0422344
0.0422344
0.0422344
0.0422344
0.0422344
0.0422344
0.0435752
0.0435752
0.0435752
0.0435752
0.0435752
0.0435752
0.0435752
0.0435752
0.0435752
0.0435752
0.0435752
0.0435752
0.0435752
0.0435752
0.0435752
0.0435752
0.0435752
0.0435752
0.044916
0.044916
0.044916
0.044916
0.044916
0.044916
0.044916
0.044916
0.044916
0.044916
0.044916
0.044916
0.044916
0.044916
0.044916
0.044916
0.044916
0.044916
0.0462567
0.0462567
0.0462567
0.0462567
0.0462567
0.0462567
0.0462567
0.0462567
0.0462567
0.0462567
0.0462567
0.0462567
0.0462567
0.0462567
0.0462567
0.0462567
0.0475975
0.0475975
0.0475975
0.0475975
0.0475975
0.0475975
0.0475975
0.0475975
0.0475975
0.0475975
0.0489383
0.0489383
0.0489383
0.0489383
0.0489383
0.0489383
0.0489383
0.0489383
0.0489383
0.0502791
0.0502791
0.0502791
0.0502791
0.0502791
0.0502791
0.0502791
0.0516198
0.0516198
0.0516198
0.0516198
0.0516198
0.0516198
0.0516198
0.0516198
0.0516198
0.0516198
0.0516198
0.0516198
0.0516198
0.0516198
0.0529606
0.0529606
0.0529606
0.0529606
0.0529606
0.0529606
0.0529606
0.0529606
0.0529606
0.0529606
0.0543014
0.0543014
0.0543014
0.0543014
0.0543014
0.0543014
0.0543014
0.0543014
0.0543014
0.0543014
0.0556422
0.0556422
0.0556422
0.0556422
0.0556422
0.0556422
0.0556422
0.0569829
0.0569829
0.0569829
0.0569829
0.0569829
0.0569829
0.0569829
0.0569829
0.0569829
0.0569829
0.0569829
0.0569829
0.0569829
0.0569829
0.0569829
0.0569829
0.0569829
0.0569829
0.0569829
0.0583237
0.0583237
0.0583237
0.0583237
0.0583237
0.0583237
0.0583237
0.0583237
0.0583237
0.0583237
0.0583237
0.0583237
0.0583237
0.0596645
0.0596645
0.0596645
0.0596645
0.0596645
0.0596645
0.0596645
0.0596645
0.0596645
0.0596645
0.0610053
0.0610053
0.0610053
0.0610053
0.0610053
0.0610053
0.0610053
0.0610053
0.0610053
0.0610053
0.0610053
0.0610053
0.0610053
0.0610053
0.062346
0.062346
0.062346
0.062346
0.062346
0.062346
0.062346
0.062346
0.062346
0.0636868
0.0636868
0.0636868
0.0636868
0.0636868
0.0636868
0.0636868
0.0636868
0.0650276
0.0650276
0.0650276
0.0650276
0.0650276
0.0650276
0.0663684
0.0663684
0.0663684
0.0663684
0.0663684
0.0663684
0.0663684
0.0663684
0.0663684
0.0677091
0.0677091
0.0677091
0.0677091
0.0677091
0.0677091
0.0690499
0.0690499
0.0690499
0.0690499
0.0690499
0.0690499
0.0690499
0.0703907
0.0703907
0.0703907
0.0703907
0.0703907
0.0703907
0.0703907
0.0703907
0.0703907
0.0703907
0.0703907
0.0703907
0.0703907
0.0703907
0.0703907
0.0703907
0.0717314
0.0717314
0.0717314
0.0717314
0.0717314
0.0717314
0.0717314
0.0717314
0.0730722
0.0730722
0.0730722
0.0730722
0.0730722
0.0730722
0.0730722
0.0730722
0.0730722
0.0730722
0.0730722
0.0730722
0.0730722
0.0730722
0.0730722
0.074413
0.074413
0.074413
0.074413
0.074413
0.074413
0.0757538
0.0757538
0.0757538
0.0757538
0.0757538
0.0770945
0.0770945
0.0770945
0.0784353
0.0784353
0.0784353
0.0784353
0.0784353
0.0784353
0.0784353
0.0784353
0.0797761
0.0797761
0.0797761
0.0797761
0.0797761
0.0797761
0.0797761
0.0797761
0.0797761
0.0797761
0.0811169
0.0811169
0.0811169
0.0811169
0.0811169
0.0811169
0.0811169
0.0811169
0.0811169
0.0811169
0.0811169
0.0811169
0.0824576
0.0824576
0.0824576
0.0824576
0.0824576
0.0824576
0.0837984
0.0837984
0.0837984
0.0837984
0.0851392
0.0851392
0.0851392
0.0851392
0.0851392
0.0851392
0.0851392
0.0851392
0.08648
0.08648
0.08648
0.08648
0.08648
0.08648
0.08648
0.08648
0.0878208
0.0878208
0.0878208
0.0878208
0.0878208
0.0878208
0.0891615
0.0905023
0.0905023
0.0905023
0.0905023
0.0918431
0.0918431
0.0918431
0.0918431
0.0918431
0.0931839
0.0931839
0.0931839
0.0945246
0.0945246
0.0945246
0.0945246
0.0945246
0.0945246
0.0945246
0.0958654
0.0958654
0.0958654
0.0958654
0.0972062
0.0972062
0.0972062
0.0972062
0.0972062
0.0972062
0.098547
0.098547
0.098547
0.098547
0.0998877
0.0998877
0.0998877
0.101229
0.101229
0.101229
0.101229
0.101229
0.101229
0.102569
0.10391
0.105251
0.105251
0.105251
0.105251
0.106592
0.106592
0.106592
0.109273
0.109273
0.109273
0.109273
0.109273
0.109273
0.109273
0.110614
0.110614
0.111955
0.113295
0.113295
0.113295
0.113295
0.113295
0.113295
0.114636
0.115977
0.115977
0.115977
0.115977
0.117318
0.117318
0.117318
0.117318
0.118659
0.118659
0.118659
0.119999
0.122681
0.124022
0.125362
0.125362
0.126703
0.128044
0.130726
0.130726
0.132066
0.132066
0.132066
0.132066
0.136089
0.137429
0.13877
0.13877
0.142793
