-0.931881
-0.87341
-0.87341
-0.858793
-0.814939
-0.807631
-0.793013
-0.793013
-0.785704
-0.778395
-0.778395
-0.771086
-0.771086
-0.763777
-0.756468
-0.741851
-0.741851
-0.734542
-0.734542
-0.734542
-0.734542
-0.727233
-0.719924
-0.712615
-0.712615
-0.712615
-0.712615
-0.705306
-0.705306
-0.697997
-0.697997
-0.690689
-0.690689
-0.690689
-0.68338
-0.676071
-0.668762
-0.668762
-0.661453
-0.654144
-0.654144
-0.654144
-0.646835
-0.646835
-0.646835
-0.646835
-0.646835
-0.646835
-0.639526
-0.639526
-0.639526
-0.639526
-0.639526
-0.632218
-0.632218
-0.624909
-0.6176
-0.6176
-0.610291
-0.610291
-0.602982
-0.602982
-0.595673
-0.595673
-0.595673
-0.595673
-0.595673
-0.581055
-0.573747
-0.573747
-0.573747
-0.573747
-0.573747
-0.566438
-0.566438
-0.566438
-0.559129
-0.559129
-0.559129
-0.55182
-0.55182
-0.55182
-0.544511
-0.544511
-0.544511
-0.544511
-0.544511
-0.537202
-0.537202
-0.537202
-0.522584
-0.522584
-0.515276
-0.507967
-0.507967
-0.507967
-0.507967
-0.500658
-0.500658
-0.500658
-0.500658
-0.500658
-0.500658
-0.493349
-0.493349
-0.493349
-0.493349
-0.493349
-0.493349
-0.493349
-0.493349
-0.48604
-0.48604
-0.478731
-0.478731
-0.478731
-0.478731
-0.471422
-0.471422
-0.471422
-0.464113
-0.464113
-0.464113
-0.456805
-0.456805
-0.456805
-0.456805
-0.456805
-0.449496
-0.449496
-0.449496
-0.449496
-0.449496
-0.442187
-0.442187
-0.434878
-0.434878
-0.434878
-0.434878
-0.434878
-0.434878
-0.427569
-0.427569
-0.427569
-0.427569
-0.427569
-0.427569
-0.42026
-0.42026
-0.42026
-0.42026
-0.42026
-0.42026
-0.412951
-0.412951
-0.412951
-0.405642
-0.405642
-0.405642
-0.405642
-0.405642
-0.405642
-0.405642
-0.405642
-0.405642
-0.398334
-0.398334
-0.398334
-0.398334
-0.391025
-0.391025
-0.391025
-0.391025
-0.391025
-0.383716
-0.383716
-0.383716
-0.376407
-0.376407
-0.376407
-0.369098
-0.369098
-0.369098
-0.369098
-0.361789
-0.361789
-0.361789
-0.361789
-0.361789
-0.35448
-0.35448
-0.35448
-0.35448
-0.347171
-0.347171
-0.347171
-0.347171
-0.339863
-0.339863
-0.339863
-0.339863
-0.339863
-0.339863
-0.339863
-0.332554
-0.325245
-0.325245
-0.325245
-0.325245
-0.325245
-0.317936
-0.317936
-0.310627
-0.310627
-0.310627
-0.310627
-0.303318
-0.303318
-0.303318
-0.303318
-0.303318
-0.296009
-0.2887
-0.2887
-0.2887
-0.2887
-0.2887
-0.2887
-0.281392
-0.266774
-0.266774
-0.266774
-0.266774
-0.266774
-0.266774
-0.266774
-0.252156
-0.252156
-0.252156
-0.252156
-0.244847
-0.244847
-0.244847
-0.237538
-0.237538
-0.237538
-0.237538
-0.237538
-0.237538
-0.230229
-0.230229
-0.230229
-0.230229
-0.222921
-0.222921
-0.222921
-0.222921
-0.222921
-0.215612
-0.215612
-0.215612
-0.215612
-0.208303
-0.208303
-0.208303
-0.208303
-0.208303
-0.208303
-0.200994
-0.200994
-0.200994
-0.200994
-0.193685
-0.193685
-0.193685
-0.193685
-0.186376
-0.186376
-0.186376
-0.186376
-0.186376
-0.186376
-0.179067
-0.179067
-0.179067
-0.179067
-0.179067
-0.179067
-0.171758
-0.171758
-0.171758
-0.16445
-0.157141
-0.157141
-0.157141
-0.157141
-0.157141
-0.157141
-0.149832
-0.149832
-0.149832
-0.149832
-0.149832
-0.142523
-0.142523
-0.142523
-0.135214
-0.135214
-0.135214
-0.135214
-0.135214
-0.135214
-0.135214
-0.135214
-0.135214
-0.127905
-0.127905
-0.127905
-0.127905
-0.127905
-0.127905
-0.127905
-0.120596
-0.120596
-0.120596
-0.120596
-0.120596
-0.120596
-0.120596
-0.120596
-0.120596
-0.120596
-0.120596
-0.113287
-0.113287
-0.113287
-0.105979
-0.105979
-0.105979
-0.105979
-0.105979
-0.0986697
-0.0986697
-0.0986697
-0.0986697
-0.0986697
-0.0913609
-0.0913609
-0.0913609
-0.0913609
-0.0913609
-0.0913609
-0.0913609
-0.084052
-0.084052
-0.084052
-0.084052
-0.084052
-0.084052
-0.084052
-0.084052
-0.084052
-0.084052
-0.084052
-0.084052
-0.084052
-0.084052
-0.0767431
-0.0767431
-0.0767431
-0.0767431
-0.0767431
-0.0767431
-0.0694342
-0.0694342
-0.0694342
-0.0694342
-0.0694342
-0.0694342
-0.0694342
-0.0694342
-0.0621254
-0.0621254
-0.0621254
-0.0621254
-0.0548165
-0.0548165
-0.0548165
-0.0548165
-0.0548165
-0.0548165
-0.0548165
-0.0548165
-0.0548165
-0.0548165
-0.0548165
-0.0475076
-0.0475076
-0.0475076
-0.0475076
-0.0475076
-0.0475076
-0.0475076
-0.0475076
-0.0401987
-0.0401987
-0.0401987
-0.0401987
-0.0401987
-0.0401987
-0.0401987
-0.0401987
-0.0401987
-0.0401987
-0.0401987
-0.0401987
-0.0401987
-0.0328899
-0.0328899
-0.0328899
-0.0328899
-0.0328899
-0.0328899
-0.0328899
-0.0328899
-0.0328899
-0.0328899
-0.0328899
-0.0328899
-0.0328899
-0.0328899
-0.0328899
-0.025581
-0.025581
-0.025581
-0.025581
-0.025581
-0.025581
-0.025581
-0.025581
-0.025581
-0.025581
-0.025581
-0.0182721
-0.0182721
-0.0182721
-0.0182721
-0.0182721
-0.0182721
-0.0182721
-0.0182721
-0.0182721
-0.0182721
-0.0182721
-0.0182721
-0.0182721
-0.0182721
-0.0109633
-0.0109633
-0.0109633
-0.0109633
-0.0109633
-0.0109633
-0.0109633
-0.0109633
-0.0109633
-0.00365438
-0.00365438
-0.00365438
-0.00365438
-0.00365438
-0.00365438
-0.00365438
-0.00365438
-0.00365438
-0.00365438
0.00365449
0.00365449
0.00365449
0.00365449
0.00365449
0.00365449
0.00365449
0.00365449
0.00365449
0.00365449
0.00365449
0.00365449
0.00365449
0.00365449
0.0109634
0.0109634
0.0109634
0.0109634
0.0109634
0.0109634
0.0109634
0.0109634
0.0109634
0.0109634
0.0109634
0.0109634
0.0109634
0.0182722
0.0182722
0.0182722
0.0182722
0.0182722
0.0182722
0.0182722
0.0182722
0.0182722
0.0255811
0.0255811
0.0255811
0.0255811
0.0255811
0.0255811
0.0255811
0.0255811
0.0255811
0.0255811
0.0255811
0.0255811
0.03289
0.03289
0.03289
0.03289
0.03289
0.03289
0.03289
0.03289
0.0401989
0.0401989
0.0401989
0.0401989
0.0401989
0.0401989
0.0401989
0.0401989
0.0475077
0.0475077
0.0475077
0.0475077
0.0475077
0.0475077
0.0475077
0.0475077
0.0475077
0.0475077
0.0475077
0.0475077
0.0475077
0.0548166
0.0548166
0.0548166
0.0548166
0.0548166
0.0548166
0.0621255
0.0621255
0.0621255
0.0621255
0.0621255
0.0694344
0.0694344
0.0694344
0.0694344
0.0694344
0.0694344
0.0694344
0.0767432
0.0767432
0.0767432
0.0767432
0.0767432
0.0767432
0.0767432
0.0840521
0.0840521
0.0840521
0.0840521
0.0840521
0.0840521
0.0840521
0.0840521
0.0840521
0.0840521
0.091361
0.091361
0.091361
0.091361
0.091361
0.091361
0.091361
0.091361
0.0986698
0.0986698
0.0986698
0.0986698
0.0986698
0.0986698
0.0986698
0.105979
0.105979
0.105979
0.105979
0.105979
0.105979
0.105979
0.105979
0.105979
0.105979
0.105979
0.105979
0.105979
0.113288
0.113288
0.113288
0.113288
0.113288
0.113288
0.113288
0.120596
0.120596
0.120596
0.120596
0.120596
0.127905
0.127905
0.127905
0.135214
0.135214
0.135214
0.135214
0.135214
0.142523
0.142523
0.142523
0.142523
0.142523
0.142523
0.142523
0.149832
0.149832
0.149832
0.149832
0.149832
0.149832
0.149832
0.149832
0.149832
0.157141
0.157141
0.157141
0.157141
0.157141
0.157141
0.16445
0.16445
0.16445
0.16445
0.16445
0.171759
0.179067
0.179067
0.179067
0.186376
0.186376
0.186376
0.186376
0.186376
0.186376
0.186376
0.186376
0.186376
0.193685
0.193685
0.193685
0.193685
0.193685
0.193685
0.193685
0.200994
0.200994
0.200994
0.208303
0.208303
0.208303
0.208303
0.215612
0.215612
0.215612
0.215612
0.222921
0.222921
0.222921
0.222921
0.222921
0.222921
0.222921
0.222921
0.23023
0.23023
0.23023
0.23023
0.23023
0.23023
0.237538
0.237538
0.244847
0.244847
0.244847
0.244847
0.244847
0.252156
0.252156
0.252156
0.252156
0.259465
0.259465
0.259465
0.259465
0.259465
0.266774
0.266774
0.266774
0.266774
0.266774
0.266774
0.266774
0.266774
0.274083
0.274083
0.281392
0.281392
0.281392
0.281392
0.281392
0.288701
0.288701
0.288701
0.288701
0.288701
0.296009
0.296009
0.296009
0.296009
0.296009
0.296009
0.303318
0.303318
0.303318
0.303318
0.303318
0.303318
0.303318
0.303318
0.303318
0.303318
0.303318
0.303318
0.303318
0.310627
0.310627
0.310627
0.310627
0.310627
0.310627
0.317936
0.317936
0.317936
0.317936
0.325245
0.325245
0.325245
0.332554
0.332554
0.332554
0.332554
0.339863
0.339863
0.347172
0.347172
0.35448
0.35448
0.35448
0.35448
0.361789
0.361789
0.361789
0.369098
0.376407
0.376407
0.376407
0.376407
0.376407
0.383716
0.391025
0.391025
0.398334
0.398334
0.405643
0.405643
0.412951
0.412951
0.427569
0.427569
0.427569
0.434878
0.434878
0.434878
0.442187
0.442187
0.449496
0.464114
0.478731
0.48604
0.48604
0.48604
0.493349
0.493349
0.493349
0.500658
0.515276
0.515276
0.522585
0.522585
0.55182
0.559129
0.566438
0.573747
0.573747
0.573747
0.573747
0.624909
0.624909
0.632218
0.668762
0.668762
