-0.170158
-0.170158
-0.170158
-0.170158
-0.170158
-0.170158
-0.14747
-0.14747
-0.14747
-0.14747
-0.14747
-0.14747
-0.14747
-0.14747
-0.14747
-0.14747
-0.14747
-0.14747
-0.124782
-0.124782
-0.124782
-0.124782
-0.124782
-0.124782
-0.124782
-0.124782
-0.124782
-0.124782
-0.124782
-0.124782
-0.124782
-0.124782
-0.124782
-0.124782
-0.124782
-0.124782
-0.124782
-0.124782
-0.124782
-0.124782
-0.124782
-0.124782
-0.124782
-0.124782
-0.124782
-0.124782
-0.124782
-0.124782
-0.124782
-0.124782
-0.124782
-0.124782
-0.124782
-0.124782
-0.124782
-0.124782
-0.124782
-0.124782
-0.124782
-0.124782
-0.124782
-0.102095
-0.102095
-0.102095
-0.102095
-0.102095
-0.102095
-0.102095
-0.102095
-0.102095
-0.102095
-0.102095
-0.102095
-0.102095
-0.102095
-0.102095
-0.102095
-0.102095
-0.102095
-0.102095
-0.102095
-0.102095
-0.102095
-0.102095
-0.102095
-0.102095
-0.102095
-0.102095
-0.102095
-0.102095
-0.102095
-0.102095
-0.102095
-0.102095
-0.102095
-0.102095
-0.102095
-0.102095
-0.102095
-0.102095
-0.102095
-0.102095
-0.102095
-0.102095
-0.102095
-0.102095
-0.102095
-0.102095
-0.102095
-0.102095
-0.102095
-0.102095
-0.102095
-0.102095
-0.102095
-0.102095
-0.102095
-0.102095
-0.102095
-0.102095
-0.102095
-0.102095
-0.102095
-0.102095
-0.102095
-0.102095
-0.102095
-0.0794069
-0.0794069
-0.0794069
-0.0794069
-0.0794069
-0.0794069
-0.0794069
-0.0794069
-0.0794069
-0.0794069
-0.0794069
-0.0794069
-0.0794069
-0.0794069
-0.0794069
-0.0794069
-0.0794069
-0.0794069
-0.0794069
-0.0794069
-0.0794069
-0.0794069
-0.0794069
-0.0794069
-0.0794069
-0.0794069
-0.0794069
-0.0794069
-0.0794069
-0.0794069
-0.0794069
-0.0794069
-0.0794069
-0.0794069
-0.0794069
-0.0794069
-0.0794069
-0.0794069
-0.0794069
-0.0794069
-0.0794069
-0.0794069
-0.0794069
-0.0794069
-0.0794069
-0.0794069
-0.0794069
-0.0794069
-0.0794069
-0.0794069
-0.0794069
-0.0794069
-0.0794069
-0.0794069
-0.0794069
-0.0794069
-0.0794069
-0.0794069
-0.0794069
-0.0794069
-0.0794069
-0.0794069
-0.0794069
-0.0794069
-0.0794069
-0.0794069
-0.0794069
-0.0794069
-0.0794069
-0.0794069
-0.0794069
-0.0794069
-0.0794069
-0.0794069
-0.0794069
-0.0794069
-0.0794069
-0.0794069
-0.0794069
-0.0794069
-0.0794069
-0.0794069
-0.0794069
-0.0794069
-0.0794069
-0.0794069
-0.0794069
-0.0794069
-0.0794069
-0.0794069
-0.0794069
-0.0794069
-0.0794069
-0.0794069
-0.0794069
-0.0794069
-0.0794069
-0.0794069
-0.0794069
-0.0794069
-0.0794069
-0.0794069
-0.0794069
-0.0794069
-0.0794069
-0.0567192
-0.0567192
-0.0567192
-0.0567192
-0.0567192
-0.0567192
-0.0567192
-0.0567192
-0.0567192
-0.0567192
-0.0567192
-0.0567192
-0.0567192
-0.0567192
-0.0567192
-0.0567192
-0.0567192
-0.0567192
-0.0567192
-0.0567192
-0.0567192
-0.0567192
-0.0567192
-0.0567192
-0.0567192
-0.0567192
-0.0567192
-0.0567192
-0.0567192
-0.0567192
-0.0567192
-0.0567192
-0.0567192
-0.0567192
-0.0567192
-0.0567192
-0.0567192
-0.0567192
-0.0567192
-0.0567192
-0.0567192
-0.0567192
-0.0567192
-0.0567192
-0.0567192
-0.0567192
-0.0567192
-0.0567192
-0.0567192
-0.0567192
-0.0567192
-0.0567192
-0.0567192
-0.0567192
-0.0567192
-0.0567192
-0.0567192
-0.0567192
-0.0567192
-0.0567192
-0.0567192
-0.0567192
-0.0567192
-0.0567192
-0.0567192
-0.0567192
-0.0567192
-0.0567192
-0.0567192
-0.0567192
-0.0567192
-0.0567192
-0.0567192
-0.0567192
-0.0567192
-0.0567192
-0.0567192
-0.0567192
-0.0567192
-0.0567192
-0.0567192
-0.0567192
-0.0567192
-0.0567192
-0.0567192
-0.0567192
-0.0567192
-0.0567192
-0.0567192
-0.0567192
-0.0567192
-0.0567192
-0.0567192
-0.0567192
-0.0567192
-0.0567192
-0.0567192
-0.0567192
-0.0567192
-0.0567192
-0.0567192
-0.0567192
-0.0567192
-0.0567192
-0.0567192
-0.0567192
-0.0567192
-0.0567192
-0.0567192
-0.0567192
-0.0567192
-0.0567192
-0.0567192
-0.0567192
-0.0567192
-0.0567192
-0.0567192
-0.0567192
-0.0567192
-0.0567192
-0.0567192
-0.0567192
-0.0567192
-0.0567192
-0.0567192
-0.0567192
-0.0567192
-0.0567192
-0.0567192
-0.0567192
-0.0567192
-0.0567192
-0.0567192
-0.0567192
-0.0567192
-0.0567192
-0.0567192
-0.0567192
-0.0567192
-0.0567192
-0.0567192
-0.0567192
-0.0567192
-0.0567192
-0.0567192
-0.0567192
-0.0567192
-0.0567192
-0.0567192
-0.0567192
-0.0567192
-0.0567192
-0.0567192
-0.0567192
-0.0567192
-0.0567192
-0.0567192
-0.0567192
-0.0567192
-0.0567192
-0.0567192
-0.0567192
-0.0567192
-0.0567192
-0.0567192
-0.0567192
-0.0567192
-0.0567192
-0.0567192
-0.0567192
-0.0567192
-0.0567192
-0.0567192
-0.0567192
-0.0567192
-0.0567192
-0.0567192
-0.0567192
-0.0567192
-0.0567192
-0.0567192
-0.0567192
-0.0567192
-0.0567192
-0.0567192
-0.0567192
-0.0567192
-0.0567192
-0.0567192
-0.0567192
-0.0340315
-0.0340315
-0.0340315
-0.0340315
-0.0340315
-0.0340315
-0.0340315
-0.0340315
-0.0340315
-0.0340315
-0.0340315
-0.0340315
-0.0340315
-0.0340315
-0.0340315
-0.0340315
-0.0340315
-0.0340315
-0.0340315
-0.0340315
-0.0340315
-0.0340315
-0.0340315
-0.0340315
-0.0340315
-0.0340315
-0.0340315
-0.0340315
-0.0340315
-0.0340315
-0.0340315
-0.0340315
-0.0340315
-0.0340315
-0.0340315
-0.0340315
-0.0340315
-0.0340315
-0.0340315
-0.0340315
-0.0340315
-0.0340315
-0.0340315
-0.0340315
-0.0340315
-0.0340315
-0.0340315
-0.0340315
-0.0340315
-0.0340315
-0.0340315
-0.0340315
-0.0340315
-0.0340315
-0.0340315
-0.0340315
-0.0340315
-0.0340315
-0.0340315
-0.0340315
-0.0340315
-0.0340315
-0.0340315
-0.0340315
-0.0340315
-0.0340315
-0.0340315
-0.0340315
-0.0340315
-0.0340315
-0.0340315
-0.0340315
-0.0340315
-0.0340315
-0.0340315
-0.0340315
-0.0340315
-0.0340315
-0.0340315
-0.0340315
-0.0340315
-0.0340315
-0.0340315
-0.0340315
-0.0340315
-0.0340315
-0.0340315
-0.0340315
-0.0340315
-0.0340315
-0.0340315
-0.0340315
-0.0340315
-0.0340315
-0.0340315
-0.0340315
-0.0340315
-0.0340315
-0.0340315
-0.0340315
-0.0340315
-0.0340315
-0.0340315
-0.0340315
-0.0340315
-0.0340315
-0.0340315
-0.0340315
-0.0340315
-0.0340315
-0.0340315
-0.0340315
-0.0340315
-0.0340315
-0.0340315
-0.0340315
-0.0340315
-0.0340315
-0.0340315
-0.0340315
-0.0340315
-0.0340315
-0.0340315
-0.0340315
-0.0340315
-0.0340315
-0.0340315
-0.0340315
-0.0340315
-0.0340315
-0.0340315
-0.0340315
-0.0340315
-0.0340315
-0.0340315
-0.0340315
-0.0340315
-0.0340315
-0.0340315
-0.0340315
-0.0340315
-0.0340315
-0.0340315
-0.0340315
-0.0340315
-0.0340315
-0.0340315
-0.0340315
-0.0340315
-0.0340315
-0.0340315
-0.0340315
-0.0340315
-0.0340315
-0.0340315
-0.0340315
-0.0340315
-0.0340315
-0.0340315
-0.0340315
-0.0340315
-0.0340315
-0.0340315
-0.0340315
-0.0340315
-0.0340315
-0.0340315
-0.0340315
-0.0340315
-0.0340315
-0.0340315
-0.0340315
-0.0340315
-0.0340315
-0.0340315
-0.0340315
-0.0340315
-0.0340315
-0.0340315
-0.0340315
-0.0340315
-0.0340315
-0.0340315
-0.0340315
-0.0340315
-0.0340315
-0.0340315
-0.0340315
-0.0340315
-0.0340315
-0.0340315
-0.0340315
-0.0340315
-0.0340315
-0.0340315
-0.0340315
-0.0340315
-0.0340315
-0.0340315
-0.0340315
-0.0340315
-0.0340315
-0.0340315
-0.0340315
-0.0340315
-0.0340315
-0.0340315
-0.0340315
-0.0340315
-0.0340315
-0.0340315
-0.0340315
-0.0340315
-0.0340315
-0.0340315
-0.0340315
-0.0340315
-0.0340315
-0.0340315
-0.0340315
-0.0340315
-0.0340315
-0.0340315
-0.0340315
-0.0340315
-0.0340315
-0.0340315
-0.0340315
-0.0340315
-0.0340315
-0.0340315
-0.0340315
-0.0340315
-0.0340315
-0.0340315
-0.0340315
-0.0340315
-0.0340315
-0.0340315
-0.0340315
-0.0340315
-0.0340315
-0.0340315
-0.0340315
-0.0340315
-0.0340315
-0.0340315
-0.0340315
-0.0340315
-0.0340315
-0.0340315
-0.0340315
-0.0340315
-0.0340315
-0.0340315
-0.0340315
-0.0340315
-0.0340315
-0.0340315
-0.0340315
-0.0340315
-0.0340315
-0.0340315
-0.0340315
-0.0340315
-0.0340315
-0.0340315
-0.0340315
-0.0340315
-0.0340315
-0.0340315
-0.0340315
-0.0340315
-0.0340315
-0.0340315
-0.0340315
-0.0340315
-0.0340315
-0.0340315
-0.0340315
-0.0340315
-0.0340315
-0.0340315
-0.0340315
-0.0340315
-0.0340315
-0.0340315
-0.0340315
-0.0340315
-0.0340315
-0.0340315
-0.0340315
-0.0340315
-0.0340315
-0.0340315
-0.0340315
-0.0340315
-0.0340315
-0.0340315
-0.0340315
-0.0340315
-0.0340315
-0.0340315
-0.0340315
-0.0340315
-0.0340315
-0.0340315
-0.0340315
-0.0340315
-0.0340315
-0.0340315
-0.0340315
-0.0340315
-0.0340315
-0.0340315
-0.0340315
-0.0340315
-0.0340315
-0.0340315
-0.0340315
-0.0340315
-0.0340315
-0.0340315
-0.0340315
-0.0340315
-0.0340315
-0.0340315
-0.0340315
-0.0340315
-0.0340315
-0.0340315
-0.0340315
-0.0340315
-0.0340315
-0.0340315
-0.0340315
-0.0340315
-0.0340315
-0.0340315
-0.0340315
-0.0113438
-0.0113438
-0.0113438
-0.0113438
-0.0113438
-0.0113438
-0.0113438
-0.0113438
-0.0113438
-0.0113438
-0.0113438
-0.0113438
-0.0113438
-0.0113438
-0.0113438
-0.0113438
-0.0113438
-0.0113438
-0.0113438
-0.0113438
-0.0113438
-0.0113438
-0.0113438
-0.0113438
-0.0113438
-0.0113438
-0.0113438
-0.0113438
-0.0113438
-0.0113438
-0.0113438
-0.0113438
-0.0113438
-0.0113438
-0.0113438
-0.0113438
-0.0113438
-0.0113438
-0.0113438
-0.0113438
-0.0113438
-0.0113438
-0.0113438
-0.0113438
-0.0113438
-0.0113438
-0.0113438
-0.0113438
-0.0113438
-0.0113438
-0.0113438
-0.0113438
-0.0113438
-0.0113438
-0.0113438
-0.0113438
-0.0113438
-0.0113438
-0.0113438
-0.0113438
-0.0113438
-0.0113438
-0.0113438
-0.0113438
-0.0113438
-0.0113438
-0.0113438
-0.0113438
-0.0113438
-0.0113438
-0.0113438
-0.0113438
-0.0113438
-0.0113438
-0.0113438
-0.0113438
-0.0113438
-0.0113438
-0.0113438
-0.0113438
-0.0113438
-0.0113438
-0.0113438
-0.0113438
-0.0113438
-0.0113438
-0.0113438
-0.0113438
-0.0113438
-0.0113438
-0.0113438
-0.0113438
-0.0113438
-0.0113438
-0.0113438
-0.0113438
-0.0113438
-0.0113438
-0.0113438
-0.0113438
-0.0113438
-0.0113438
-0.0113438
-0.0113438
-0.0113438
-0.0113438
-0.0113438
-0.0113438
-0.0113438
-0.0113438
-0.0113438
-0.0113438
-0.0113438
-0.0113438
-0.0113438
-0.0113438
-0.0113438
-0.0113438
-0.0113438
-0.0113438
-0.0113438
-0.0113438
-0.0113438
-0.0113438
-0.0113438
-0.0113438
-0.0113438
-0.0113438
-0.0113438
-0.0113438
-0.0113438
-0.0113438
-0.0113438
-0.0113438
-0.0113438
-0.0113438
-0.0113438
-0.0113438
-0.0113438
-0.0113438
-0.0113438
-0.0113438
-0.0113438
-0.0113438
-0.0113438
-0.0113438
-0.0113438
-0.0113438
-0.0113438
-0.0113438
-0.0113438
-0.0113438
-0.0113438
-0.0113438
-0.0113438
-0.0113438
-0.0113438
-0.0113438
-0.0113438
-0.0113438
-0.0113438
-0.0113438
-0.0113438
-0.0113438
-0.0113438
-0.0113438
-0.0113438
-0.0113438
-0.0113438
-0.0113438
-0.0113438
-0.0113438
-0.0113438
-0.0113438
-0.0113438
-0.0113438
-0.0113438
-0.0113438
-0.0113438
-0.0113438
-0.0113438
-0.0113438
-0.0113438
-0.0113438
-0.0113438
-0.0113438
-0.0113438
-0.0113438
-0.0113438
-0.0113438
-0.0113438
-0.0113438
-0.0113438
-0.0113438
-0.0113438
-0.0113438
-0.0113438
-0.0113438
-0.0113438
-0.0113438
-0.0113438
-0.0113438
-0.0113438
-0.0113438
-0.0113438
-0.0113438
-0.0113438
-0.0113438
-0.0113438
-0.0113438
-0.0113438
-0.0113438
-0.0113438
-0.0113438
-0.0113438
-0.0113438
-0.0113438
-0.0113438
-0.0113438
-0.0113438
-0.0113438
-0.0113438
-0.0113438
-0.0113438
-0.0113438
-0.0113438
-0.0113438
-0.0113438
-0.0113438
-0.0113438
-0.0113438
-0.0113438
-0.0113438
-0.0113438
-0.0113438
-0.0113438
-0.0113438
-0.0113438
-0.0113438
-0.0113438
-0.0113438
-0.0113438
-0.0113438
-0.0113438
-0.0113438
-0.0113438
-0.0113438
-0.0113438
-0.0113438
-0.0113438
-0.0113438
-0.0113438
-0.0113438
-0.0113438
-0.0113438
-0.0113438
-0.0113438
-0.0113438
-0.0113438
-0.0113438
-0.0113438
-0.0113438
-0.0113438
-0.0113438
-0.0113438
-0.0113438
-0.0113438
-0.0113438
-0.0113438
-0.0113438
-0.0113438
-0.0113438
-0.0113438
-0.0113438
-0.0113438
-0.0113438
-0.0113438
-0.0113438
-0.0113438
-0.0113438
-0.0113438
-0.0113438
-0.0113438
-0.0113438
-0.0113438
-0.0113438
-0.0113438
-0.0113438
-0.0113438
-0.0113438
-0.0113438
-0.0113438
-0.0113438
-0.0113438
-0.0113438
-0.0113438
-0.0113438
-0.0113438
-0.0113438
-0.0113438
-0.0113438
-0.0113438
-0.0113438
-0.0113438
-0.0113438
-0.0113438
-0.0113438
-0.0113438
-0.0113438
-0.0113438
-0.0113438
-0.0113438
-0.0113438
-0.0113438
-0.0113438
-0.0113438
-0.0113438
-0.0113438
-0.0113438
-0.0113438
-0.0113438
-0.0113438
-0.0113438
-0.0113438
-0.0113438
-0.0113438
-0.0113438
-0.0113438
-0.0113438
-0.0113438
-0.0113438
-0.0113438
-0.0113438
-0.0113438
-0.0113438
-0.0113438
-0.0113438
-0.0113438
-0.0113438
-0.0113438
-0.0113438
-0.0113438
-0.0113438
-0.0113438
-0.0113438
-0.0113438
-0.0113438
-0.0113438
-0.0113438
-0.0113438
-0.0113438
-0.0113438
-0.0113438
-0.0113438
-0.0113438
-0.0113438
-0.0113438
-0.0113438
-0.0113438
-0.0113438
-0.0113438
-0.0113438
-0.0113438
-0.0113438
-0.0113438
-0.0113438
-0.0113438
-0.0113438
-0.0113438
-0.0113438
-0.0113438
-0.0113438
-0.0113438
-0.0113438
-0.0113438
-0.0113438
-0.0113438
-0.0113438
-0.0113438
-0.0113438
-0.0113438
-0.0113438
-0.0113438
-0.0113438
-0.0113438
-0.0113438
-0.0113438
-0.0113438
-0.0113438
-0.0113438
-0.0113438
-0.0113438
-0.0113438
-0.0113438
-0.0113438
-0.0113438
-0.0113438
-0.0113438
-0.0113438
-0.0113438
-0.0113438
-0.0113438
-0.0113438
-0.0113438
-0.0113438
-0.0113438
-0.0113438
-0.0113438
-0.0113438
-0.0113438
-0.0113438
-0.0113438
-0.0113438
-0.0113438
-0.0113438
-0.0113438
-0.0113438
-0.0113438
-0.0113438
-0.0113438
-0.0113438
-0.0113438
-0.0113438
-0.0113438
-0.0113438
0.0113439
0.0113439
0.0113439
0.0113439
0.0113439
0.0113439
0.0113439
0.0113439
0.0113439
0.0113439
0.0113439
0.0113439
0.0113439
0.0113439
0.0113439
0.0113439
0.0113439
0.0113439
0.0113439
0.0113439
0.0113439
0.0113439
0.0113439
0.0113439
0.0113439
0.0113439
0.0113439
0.0113439
0.0113439
0.0113439
0.0113439
0.0113439
0.0113439
0.0113439
0.0113439
0.0113439
0.0113439
0.0113439
0.0113439
0.0113439
0.0113439
0.0113439
0.0113439
0.0113439
0.0113439
0.0113439
0.0113439
0.0113439
0.0113439
0.0113439
0.0113439
0.0113439
0.0113439
0.0113439
0.0113439
0.0113439
0.0113439
0.0113439
0.0113439
0.0113439
0.0113439
0.0113439
0.0113439
0.0113439
0.0113439
0.0113439
0.0113439
0.0113439
0.0113439
0.0113439
0.0113439
0.0113439
0.0113439
0.0113439
0.0113439
0.0113439
0.0113439
0.0113439
0.0113439
0.0113439
0.0113439
0.0113439
0.0113439
0.0113439
0.0113439
0.0113439
0.0113439
0.0113439
0.0113439
0.0113439
0.0113439
0.0113439
0.0113439
0.0113439
0.0113439
0.0113439
0.0113439
0.0113439
0.0113439
0.0113439
0.0113439
0.0113439
0.0113439
0.0113439
0.0113439
0.0113439
0.0113439
0.0113439
0.0113439
0.0113439
0.0113439
0.0113439
0.0113439
0.0113439
0.0113439
0.0113439
0.0113439
0.0113439
0.0113439
0.0113439
0.0113439
0.0113439
0.0113439
0.0113439
0.0113439
0.0113439
0.0113439
0.0113439
0.0113439
0.0113439
0.0113439
0.0113439
0.0113439
0.0113439
0.0113439
0.0113439
0.0113439
0.0113439
0.0113439
0.0113439
0.0113439
0.0113439
0.0113439
0.0113439
0.0113439
0.0113439
0.0113439
0.0113439
0.0113439
0.0113439
0.0113439
0.0113439
0.0113439
0.0113439
0.0113439
0.0113439
0.0113439
0.0113439
0.0113439
0.0113439
0.0113439
0.0113439
0.0113439
0.0113439
0.0113439
0.0113439
0.0113439
0.0113439
0.0113439
0.0113439
0.0113439
0.0113439
0.0113439
0.0113439
0.0113439
0.0113439
0.0113439
0.0113439
0.0113439
0.0113439
0.0113439
0.0113439
0.0113439
0.0113439
0.0113439
0.0113439
0.0113439
0.0113439
0.0113439
0.0113439
0.0113439
0.0113439
0.0113439
0.0113439
0.0113439
0.0113439
0.0113439
0.0113439
0.0113439
0.0113439
0.0113439
0.0113439
0.0113439
0.0113439
0.0113439
0.0113439
0.0113439
0.0113439
0.0113439
0.0113439
0.0113439
0.0113439
0.0113439
0.0113439
0.0113439
0.0113439
0.0113439
0.0113439
0.0113439
0.0113439
0.0113439
0.0113439
0.0113439
0.0113439
0.0113439
0.0113439
0.0113439
0.0113439
0.0113439
0.0113439
0.0113439
0.0113439
0.0113439
0.0113439
0.0113439
0.0113439
0.0113439
0.0113439
0.0113439
0.0113439
0.0113439
0.0113439
0.0113439
0.0113439
0.0113439
0.0113439
0.0113439
0.0113439
0.0113439
0.0113439
0.0113439
0.0113439
0.0113439
0.0113439
0.0113439
0.0113439
0.0113439
0.0113439
0.0113439
0.0113439
0.0113439
0.0113439
0.0113439
0.0113439
0.0113439
0.0113439
0.0113439
0.0113439
0.0113439
0.0113439
0.0113439
0.0113439
0.0113439
0.0113439
0.0113439
0.0113439
0.0113439
0.0113439
0.0113439
0.0113439
0.0113439
0.0113439
0.0113439
0.0113439
0.0113439
0.0113439
0.0113439
0.0113439
0.0113439
0.0113439
0.0113439
0.0113439
0.0113439
0.0113439
0.0113439
0.0113439
0.0113439
0.0113439
0.0113439
0.0113439
0.0113439
0.0113439
0.0113439
0.0113439
0.0113439
0.0113439
0.0113439
0.0113439
0.0113439
0.0113439
0.0113439
0.0113439
0.0113439
0.0113439
0.0113439
0.0113439
0.0113439
0.0113439
0.0113439
0.0113439
0.0113439
0.0113439
0.0113439
0.0113439
0.0113439
0.0113439
0.0113439
0.0113439
0.0113439
0.0113439
0.0113439
0.0113439
0.0113439
0.0113439
0.0113439
0.0113439
0.0113439
0.0113439
0.0113439
0.0113439
0.0113439
0.0113439
0.0113439
0.0113439
0.0113439
0.0113439
0.0113439
0.0113439
0.0113439
0.0113439
0.0113439
0.0113439
0.0113439
0.0113439
0.0113439
0.0113439
0.0113439
0.0113439
0.0113439
0.0113439
0.0113439
0.0113439
0.0113439
0.0113439
0.0113439
0.0113439
0.0113439
0.0113439
0.0113439
0.0113439
0.0113439
0.0113439
0.0113439
0.0113439
0.0113439
0.0113439
0.0113439
0.0113439
0.0113439
0.0113439
0.0113439
0.0113439
0.0113439
0.0113439
0.0113439
0.0113439
0.0113439
0.0113439
0.0113439
0.0113439
0.0113439
0.0113439
0.0113439
0.0113439
0.0113439
0.0113439
0.0113439
0.0113439
0.0113439
0.0113439
0.0113439
0.0113439
0.0113439
0.0113439
0.0113439
0.0113439
0.0113439
0.0113439
0.0113439
0.0113439
0.0113439
0.0113439
0.0113439
0.0113439
0.0113439
0.0113439
0.0113439
0.0113439
0.0113439
0.0113439
0.0113439
0.0113439
0.0113439
0.0113439
0.0113439
0.0113439
0.0113439
0.0113439
0.0113439
0.0113439
0.0113439
0.0113439
0.0113439
0.0113439
0.0113439
0.0113439
0.0113439
0.0113439
0.0113439
0.0113439
0.0113439
0.0113439
0.0340315
0.0340315
0.0340315
0.0340315
0.0340315
0.0340315
0.0340315
0.0340315
0.0340315
0.0340315
0.0340315
0.0340315
0.0340315
0.0340315
0.0340315
0.0340315
0.0340315
0.0340315
0.0340315
0.0340315
0.0340315
0.0340315
0.0340315
0.0340315
0.0340315
0.0340315
0.0340315
0.0340315
0.0340315
0.0340315
0.0340315
0.0340315
0.0340315
0.0340315
0.0340315
0.0340315
0.0340315
0.0340315
0.0340315
0.0340315
0.0340315
0.0340315
0.0340315
0.0340315
0.0340315
0.0340315
0.0340315
0.0340315
0.0340315
0.0340315
0.0340315
0.0340315
0.0340315
0.0340315
0.0340315
0.0340315
0.0340315
0.0340315
0.0340315
0.0340315
0.0340315
0.0340315
0.0340315
0.0340315
0.0340315
0.0340315
0.0340315
0.0340315
0.0340315
0.0340315
0.0340315
0.0340315
0.0340315
0.0340315
0.0340315
0.0340315
0.0340315
0.0340315
0.0340315
0.0340315
0.0340315
0.0340315
0.0340315
0.0340315
0.0340315
0.0340315
0.0340315
0.0340315
0.0340315
0.0340315
0.0340315
0.0340315
0.0340315
0.0340315
0.0340315
0.0340315
0.0340315
0.0340315
0.0340315
0.0340315
0.0340315
0.0340315
0.0340315
0.0340315
0.0340315
0.0340315
0.0340315
0.0340315
0.0340315
0.0340315
0.0340315
0.0340315
0.0340315
0.0340315
0.0340315
0.0340315
0.0340315
0.0340315
0.0340315
0.0340315
0.0340315
0.0340315
0.0340315
0.0340315
0.0340315
0.0340315
0.0340315
0.0340315
0.0340315
0.0340315
0.0340315
0.0340315
0.0340315
0.0340315
0.0340315
0.0340315
0.0340315
0.0340315
0.0340315
0.0340315
0.0340315
0.0340315
0.0340315
0.0340315
0.0340315
0.0340315
0.0340315
0.0340315
0.0340315
0.0340315
0.0340315
0.0340315
0.0340315
0.0340315
0.0340315
0.0340315
0.0340315
0.0340315
0.0340315
0.0340315
0.0340315
0.0340315
0.0340315
0.0340315
0.0340315
0.0340315
0.0340315
0.0340315
0.0340315
0.0340315
0.0340315
0.0340315
0.0340315
0.0340315
0.0340315
0.0340315
0.0340315
0.0340315
0.0340315
0.0340315
0.0340315
0.0340315
0.0340315
0.0340315
0.0340315
0.0340315
0.0340315
0.0340315
0.0340315
0.0340315
0.0340315
0.0340315
0.0340315
0.0340315
0.0340315
0.0340315
0.0340315
0.0340315
0.0340315
0.0340315
0.0340315
0.0340315
0.0340315
0.0340315
0.0340315
0.0340315
0.0340315
0.0340315
0.0340315
0.0340315
0.0340315
0.0340315
0.0340315
0.0340315
0.0340315
0.0340315
0.0340315
0.0340315
0.0340315
0.0340315
0.0340315
0.0340315
0.0340315
0.0340315
0.0340315
0.0340315
0.0340315
0.0340315
0.0340315
0.0340315
0.0340315
0.0340315
0.0340315
0.0340315
0.0340315
0.0340315
0.0340315
0.0340315
0.0340315
0.0340315
0.0340315
0.0340315
0.0340315
0.0340315
0.0340315
0.0340315
0.0340315
0.0340315
0.0340315
0.0340315
0.0340315
0.0340315
0.0340315
0.0340315
0.0340315
0.0340315
0.0340315
0.0340315
0.0340315
0.0340315
0.0340315
0.0340315
0.0340315
0.0340315
0.0340315
0.0340315
0.0340315
0.0340315
0.0340315
0.0340315
0.0340315
0.0340315
0.0340315
0.0340315
0.0340315
0.0340315
0.0340315
0.0340315
0.0340315
0.0340315
0.0340315
0.0340315
0.0340315
0.0340315
0.0340315
0.0340315
0.0340315
0.0340315
0.0340315
0.0340315
0.0340315
0.0340315
0.0340315
0.0340315
0.0340315
0.0340315
0.0340315
0.0340315
0.0340315
0.0340315
0.0340315
0.0340315
0.0340315
0.0340315
0.0340315
0.0340315
0.0340315
0.0340315
0.0340315
0.0340315
0.0340315
0.0340315
0.0340315
0.0340315
0.0340315
0.0340315
0.0340315
0.0340315
0.0340315
0.0340315
0.0340315
0.0340315
0.0340315
0.0340315
0.0340315
0.0340315
0.0340315
0.0340315
0.0340315
0.0340315
0.0340315
0.0340315
0.0340315
0.0340315
0.0340315
0.0340315
0.0340315
0.0340315
0.0340315
0.0340315
0.0340315
0.0340315
0.0340315
0.0340315
0.0340315
0.0340315
0.0340315
0.0340315
0.0340315
0.0340315
0.0340315
0.0340315
0.0340315
0.0340315
0.0340315
0.0340315
0.0340315
0.0340315
0.0340315
0.0340315
0.0340315
0.0340315
0.0340315
0.0340315
0.0340315
0.0340315
0.0340315
0.0340315
0.0340315
0.0340315
0.0340315
0.0340315
0.0340315
0.0340315
0.0340315
0.0340315
0.0567192
0.0567192
0.0567192
0.0567192
0.0567192
0.0567192
0.0567192
0.0567192
0.0567192
0.0567192
0.0567192
0.0567192
0.0567192
0.0567192
0.0567192
0.0567192
0.0567192
0.0567192
0.0567192
0.0567192
0.0567192
0.0567192
0.0567192
0.0567192
0.0567192
0.0567192
0.0567192
0.0567192
0.0567192
0.0567192
0.0567192
0.0567192
0.0567192
0.0567192
0.0567192
0.0567192
0.0567192
0.0567192
0.0567192
0.0567192
0.0567192
0.0567192
0.0567192
0.0567192
0.0567192
0.0567192
0.0567192
0.0567192
0.0567192
0.0567192
0.0567192
0.0567192
0.0567192
0.0567192
0.0567192
0.0567192
0.0567192
0.0567192
0.0567192
0.0567192
0.0567192
0.0567192
0.0567192
0.0567192
0.0567192
0.0567192
0.0567192
0.0567192
0.0567192
0.0567192
0.0567192
0.0567192
0.0567192
0.0567192
0.0567192
0.0567192
0.0567192
0.0567192
0.0567192
0.0567192
0.0567192
0.0567192
0.0567192
0.0567192
0.0567192
0.0567192
0.0567192
0.0567192
0.0567192
0.0567192
0.0567192
0.0567192
0.0567192
0.0567192
0.0567192
0.0567192
0.0567192
0.0567192
0.0567192
0.0567192
0.0567192
0.0567192
0.0567192
0.0567192
0.0567192
0.0567192
0.0567192
0.0567192
0.0567192
0.0567192
0.0567192
0.0567192
0.0567192
0.0567192
0.0567192
0.0567192
0.0567192
0.0567192
0.0567192
0.0567192
0.0567192
0.0567192
0.0567192
0.0567192
0.0567192
0.0567192
0.0567192
0.0567192
0.0567192
0.0567192
0.0567192
0.0567192
0.0567192
0.0567192
0.0567192
0.0567192
0.0567192
0.0567192
0.0567192
0.0567192
0.0567192
0.0567192
0.0567192
0.0567192
0.0567192
0.0567192
0.0567192
0.0567192
0.0567192
0.0567192
0.0567192
0.0567192
0.0567192
0.0567192
0.0567192
0.0567192
0.0567192
0.0567192
0.0567192
0.0567192
0.0567192
0.0567192
0.0567192
0.0567192
0.0567192
0.0567192
0.0567192
0.0567192
0.0567192
0.0567192
0.0567192
0.0567192
0.0567192
0.0567192
0.0567192
0.0567192
0.0567192
0.0567192
0.0567192
0.0567192
0.0567192
0.0567192
0.0567192
0.0567192
0.0567192
0.0567192
0.0567192
0.0567192
0.0567192
0.0567192
0.0567192
0.0567192
0.0567192
0.0567192
0.0567192
0.0567192
0.0567192
0.0567192
0.0567192
0.0567192
0.0567192
0.0567192
0.0567192
0.0567192
0.0567192
0.0567192
0.0567192
0.0567192
0.0567192
0.0567192
0.0567192
0.0567192
0.0567192
0.0567192
0.0567192
0.0567192
0.0567192
0.0567192
0.0567192
0.0567192
0.0567192
0.0567192
0.0567192
0.0567192
0.0567192
0.0567192
0.0567192
0.0567192
0.0567192
0.0567192
0.0567192
0.0567192
0.0567192
0.0567192
0.0567192
0.0567192
0.0567192
0.0567192
0.0567192
0.0567192
0.0567192
0.0567192
0.0567192
0.0567192
0.0567192
0.0567192
0.0567192
0.0567192
0.0567192
0.0567192
0.0794069
0.0794069
0.0794069
0.0794069
0.0794069
0.0794069
0.0794069
0.0794069
0.0794069
0.0794069
0.0794069
0.0794069
0.0794069
0.0794069
0.0794069
0.0794069
0.0794069
0.0794069
0.0794069
0.0794069
0.0794069
0.0794069
0.0794069
0.0794069
0.0794069
0.0794069
0.0794069
0.0794069
0.0794069
0.0794069
0.0794069
0.0794069
0.0794069
0.0794069
0.0794069
0.0794069
0.0794069
0.0794069
0.0794069
0.0794069
0.0794069
0.0794069
0.0794069
0.0794069
0.0794069
0.0794069
0.0794069
0.0794069
0.0794069
0.0794069
0.0794069
0.0794069
0.0794069
0.0794069
0.0794069
0.0794069
0.0794069
0.0794069
0.0794069
0.0794069
0.0794069
0.0794069
0.0794069
0.0794069
0.0794069
0.0794069
0.0794069
0.0794069
0.0794069
0.0794069
0.0794069
0.0794069
0.0794069
0.0794069
0.0794069
0.0794069
0.0794069
0.0794069
0.0794069
0.0794069
0.0794069
0.0794069
0.0794069
0.0794069
0.0794069
0.0794069
0.0794069
0.0794069
0.0794069
0.0794069
0.0794069
0.0794069
0.0794069
0.0794069
0.0794069
0.0794069
0.0794069
0.0794069
0.0794069
0.102095
0.102095
0.102095
0.102095
0.102095
0.102095
0.102095
0.102095
0.102095
0.102095
0.102095
0.102095
0.102095
0.102095
0.102095
0.102095
0.102095
0.102095
0.102095
0.102095
0.102095
0.102095
0.102095
0.102095
0.102095
0.102095
0.102095
0.102095
0.102095
0.102095
0.102095
0.102095
0.102095
0.102095
0.102095
0.124782
0.124782
0.124782
0.124782
0.124782
0.124782
0.124782
0.14747
0.14747
0.170158
0.170158
