-1.59036
-0.954215
-0.954215
-0.954215
-0.742168
-0.742168
-0.742168
-0.742168
-0.742168
-0.742168
-0.742168
-0.742168
-0.742168
-0.742168
-0.742168
-0.742168
-0.742168
-0.742168
-0.742168
-0.742168
-0.742168
-0.742168
-0.742168
-0.742168
-0.742168
-0.742168
-0.742168
-0.742168
-0.742168
-0.742168
-0.742168
-0.742168
-0.742168
-0.742168
-0.742168
-0.742168
-0.742168
-0.742168
-0.742168
-0.742168
-0.53012
-0.53012
-0.53012
-0.53012
-0.53012
-0.53012
-0.53012
-0.53012
-0.53012
-0.53012
-0.53012
-0.53012
-0.53012
-0.53012
-0.53012
-0.53012
-0.53012
-0.53012
-0.53012
-0.53012
-0.53012
-0.53012
-0.53012
-0.53012
-0.53012
-0.53012
-0.53012
-0.53012
-0.53012
-0.53012
-0.53012
-0.53012
-0.53012
-0.53012
-0.53012
-0.53012
-0.53012
-0.53012
-0.53012
-0.53012
-0.53012
-0.53012
-0.53012
-0.53012
-0.53012
-0.53012
-0.53012
-0.53012
-0.53012
-0.53012
-0.53012
-0.53012
-0.53012
-0.53012
-0.53012
-0.53012
-0.53012
-0.53012
-0.53012
-0.53012
-0.53012
-0.53012
-0.53012
-0.53012
-0.53012
-0.53012
-0.53012
-0.53012
-0.53012
-0.53012
-0.53012
-0.53012
-0.53012
-0.53012
-0.53012
-0.53012
-0.53012
-0.53012
-0.53012
-0.53012
-0.53012
-0.53012
-0.53012
-0.53012
-0.53012
-0.53012
-0.53012
-0.53012
-0.53012
-0.53012
-0.53012
-0.53012
-0.53012
-0.53012
-0.53012
-0.53012
-0.53012
-0.53012
-0.53012
-0.53012
-0.53012
-0.53012
-0.318072
-0.318072
-0.318072
-0.318072
-0.318072
-0.318072
-0.318072
-0.318072
-0.318072
-0.318072
-0.318072
-0.318072
-0.318072
-0.318072
-0.318072
-0.318072
-0.318072
-0.318072
-0.318072
-0.318072
-0.318072
-0.318072
-0.318072
-0.318072
-0.318072
-0.318072
-0.318072
-0.318072
-0.318072
-0.318072
-0.318072
-0.318072
-0.318072
-0.318072
-0.318072
-0.318072
-0.318072
-0.318072
-0.318072
-0.318072
-0.318072
-0.318072
-0.318072
-0.318072
-0.318072
-0.318072
-0.318072
-0.318072
-0.318072
-0.318072
-0.318072
-0.318072
-0.318072
-0.318072
-0.318072
-0.318072
-0.318072
-0.318072
-0.318072
-0.318072
-0.318072
-0.318072
-0.318072
-0.318072
-0.318072
-0.318072
-0.318072
-0.318072
-0.318072
-0.318072
-0.318072
-0.318072
-0.318072
-0.318072
-0.318072
-0.318072
-0.318072
-0.318072
-0.318072
-0.318072
-0.318072
-0.318072
-0.318072
-0.318072
-0.318072
-0.318072
-0.318072
-0.318072
-0.318072
-0.318072
-0.318072
-0.318072
-0.318072
-0.318072
-0.318072
-0.318072
-0.318072
-0.318072
-0.318072
-0.318072
-0.318072
-0.318072
-0.318072
-0.318072
-0.318072
-0.318072
-0.318072
-0.318072
-0.318072
-0.318072
-0.318072
-0.318072
-0.318072
-0.318072
-0.318072
-0.318072
-0.318072
-0.318072
-0.318072
-0.318072
-0.318072
-0.318072
-0.318072
-0.318072
-0.318072
-0.318072
-0.318072
-0.318072
-0.318072
-0.318072
-0.318072
-0.318072
-0.318072
-0.318072
-0.318072
-0.318072
-0.318072
-0.318072
-0.318072
-0.318072
-0.318072
-0.318072
-0.318072
-0.318072
-0.318072
-0.318072
-0.318072
-0.318072
-0.318072
-0.318072
-0.318072
-0.318072
-0.318072
-0.318072
-0.318072
-0.318072
-0.318072
-0.318072
-0.106024
-0.106024
-0.106024
-0.106024
-0.106024
-0.106024
-0.106024
-0.106024
-0.106024
-0.106024
-0.106024
-0.106024
-0.106024
-0.106024
-0.106024
-0.106024
-0.106024
-0.106024
-0.106024
-0.106024
-0.106024
-0.106024
-0.106024
-0.106024
-0.106024
-0.106024
-0.106024
-0.106024
-0.106024
-0.106024
-0.106024
-0.106024
-0.106024
-0.106024
-0.106024
-0.106024
-0.106024
-0.106024
-0.106024
-0.106024
-0.106024
-0.106024
-0.106024
-0.106024
-0.106024
-0.106024
-0.106024
-0.106024
-0.106024
-0.106024
-0.106024
-0.106024
-0.106024
-0.106024
-0.106024
-0.106024
-0.106024
-0.106024
-0.106024
-0.106024
-0.106024
-0.106024
-0.106024
-0.106024
-0.106024
-0.106024
-0.106024
-0.106024
-0.106024
-0.106024
-0.106024
-0.106024
-0.106024
-0.106024
-0.106024
-0.106024
-0.106024
-0.106024
-0.106024
-0.106024
-0.106024
-0.106024
-0.106024
-0.106024
-0.106024
-0.106024
-0.106024
-0.106024
-0.106024
-0.106024
-0.106024
-0.106024
-0.106024
-0.106024
-0.106024
-0.106024
-0.106024
-0.106024
-0.106024
-0.106024
-0.106024
-0.106024
-0.106024
-0.106024
-0.106024
-0.106024
-0.106024
-0.106024
-0.106024
-0.106024
-0.106024
-0.106024
-0.106024
-0.106024
-0.106024
-0.106024
-0.106024
-0.106024
-0.106024
-0.106024
-0.106024
-0.106024
-0.106024
-0.106024
-0.106024
-0.106024
-0.106024
-0.106024
-0.106024
-0.106024
-0.106024
-0.106024
-0.106024
-0.106024
-0.106024
-0.106024
-0.106024
-0.106024
-0.106024
-0.106024
-0.106024
-0.106024
-0.106024
-0.106024
-0.106024
-0.106024
-0.106024
-0.106024
-0.106024
-0.106024
-0.106024
-0.106024
-0.106024
-0.106024
-0.106024
-0.106024
-0.106024
-0.106024
-0.106024
-0.106024
-0.106024
-0.106024
-0.106024
-0.106024
-0.106024
-0.106024
-0.106024
-0.106024
-0.106024
-0.106024
-0.106024
-0.106024
-0.106024
-0.106024
-0.106024
-0.106024
-0.106024
-0.106024
-0.106024
-0.106024
-0.106024
-0.106024
-0.106024
-0.106024
-0.106024
-0.106024
-0.106024
-0.106024
-0.106024
-0.106024
-0.106024
-0.106024
-0.106024
-0.106024
-0.106024
-0.106024
-0.106024
-0.106024
-0.106024
-0.106024
0.106024
0.106024
0.106024
0.106024
0.106024
0.106024
0.106024
0.106024
0.106024
0.106024
0.106024
0.106024
0.106024
0.106024
0.106024
0.106024
0.106024
0.106024
0.106024
0.106024
0.106024
0.106024
0.106024
0.106024
0.106024
0.106024
0.106024
0.106024
0.106024
0.106024
0.106024
0.106024
0.106024
0.106024
0.106024
0.106024
0.106024
0.106024
0.106024
0.106024
0.106024
0.106024
0.106024
0.106024
0.106024
0.106024
0.106024
0.106024
0.106024
0.106024
0.106024
0.106024
0.106024
0.106024
0.106024
0.106024
0.106024
0.106024
0.106024
0.106024
0.106024
0.106024
0.106024
0.106024
0.106024
0.106024
0.106024
0.106024
0.106024
0.106024
0.106024
0.106024
0.106024
0.106024
0.106024
0.106024
0.106024
0.106024
0.106024
0.106024
0.106024
0.106024
0.106024
0.106024
0.106024
0.106024
0.106024
0.106024
0.106024
0.106024
0.106024
0.106024
0.106024
0.106024
0.106024
0.106024
0.106024
0.106024
0.106024
0.106024
0.106024
0.106024
0.106024
0.106024
0.106024
0.106024
0.106024
0.106024
0.106024
0.106024
0.106024
0.106024
0.106024
0.106024
0.106024
0.106024
0.106024
0.106024
0.106024
0.106024
0.106024
0.106024
0.106024
0.106024
0.106024
0.106024
0.106024
0.106024
0.106024
0.106024
0.106024
0.106024
0.106024
0.106024
0.106024
0.106024
0.106024
0.106024
0.106024
0.106024
0.106024
0.106024
0.106024
0.106024
0.106024
0.106024
0.106024
0.106024
0.106024
0.106024
0.106024
0.106024
0.106024
0.106024
0.106024
0.106024
0.106024
0.106024
0.106024
0.106024
0.106024
0.106024
0.106024
0.106024
0.106024
0.106024
0.106024
0.106024
0.106024
0.106024
0.106024
0.106024
0.106024
0.106024
0.106024
0.106024
0.106024
0.106024
0.106024
0.106024
0.106024
0.106024
0.106024
0.106024
0.106024
0.106024
0.106024
0.106024
0.106024
0.106024
0.106024
0.106024
0.106024
0.106024
0.106024
0.106024
0.106024
0.106024
0.106024
0.106024
0.106024
0.106024
0.106024
0.106024
0.106024
0.106024
0.106024
0.106024
0.106024
0.106024
0.106024
0.106024
0.106024
0.106024
0.106024
0.318072
0.318072
0.318072
0.318072
0.318072
0.318072
0.318072
0.318072
0.318072
0.318072
0.318072
0.318072
0.318072
0.318072
0.318072
0.318072
0.318072
0.318072
0.318072
0.318072
0.318072
0.318072
0.318072
0.318072
0.318072
0.318072
0.318072
0.318072
0.318072
0.318072
0.318072
0.318072
0.318072
0.318072
0.318072
0.318072
0.318072
0.318072
0.318072
0.318072
0.318072
0.318072
0.318072
0.318072
0.318072
0.318072
0.318072
0.318072
0.318072
0.318072
0.318072
0.318072
0.318072
0.318072
0.318072
0.318072
0.318072
0.318072
0.318072
0.318072
0.318072
0.318072
0.318072
0.318072
0.318072
0.318072
0.318072
0.318072
0.318072
0.318072
0.318072
0.318072
0.318072
0.318072
0.318072
0.318072
0.318072
0.318072
0.318072
0.318072
0.318072
0.318072
0.318072
0.318072
0.318072
0.318072
0.318072
0.318072
0.318072
0.318072
0.318072
0.318072
0.318072
0.318072
0.318072
0.53012
0.53012
0.53012
0.53012
0.53012
0.53012
0.53012
0.53012
0.53012
0.53012
0.53012
0.53012
0.53012
0.53012
0.53012
0.53012
0.53012
0.53012
0.53012
0.53012
0.53012
0.53012
0.53012
0.53012
0.53012
0.53012
0.53012
0.53012
0.742168
0.742168
