-0.6970908046
-0.5320799947
-0.5093792081
-0.5079362392
-0.4608442187
-0.4366031885
-0.4231667519
-0.4119969606
-0.4081534445
-0.3976518214
-0.3963984847
-0.3934558332
-0.3881525695
-0.3793706596
-0.3748219311
-0.3714451194
-0.3706254661
-0.3656502664
-0.3603183031
-0.341465205
-0.3395856321
-0.3393681049
-0.331225276
-0.3286233246
-0.3249732852
-0.3246050477
-0.3210292459
-0.3197381794
-0.318654567
-0.317438215
-0.3092382848
-0.3086297512
-0.3084818423
-0.306427598
-0.3061644435
-0.3046323955
-0.3045185208
-0.304413408
-0.3021902144
-0.3021499515
-0.2953434885
-0.2949384451
-0.2925532162
-0.2901841402
-0.2859859169
-0.2857421637
-0.2831452489
-0.2820653617
-0.2816140652
-0.2812980711
-0.2762866616
-0.2751311958
-0.2751244307
-0.2731481493
-0.2727953792
-0.2701747715
-0.2697510123
-0.2696808279
-0.2695643902
-0.2691505253
-0.26876387
-0.2652291954
-0.2642501891
-0.2633118629
-0.261154741
-0.2599871457
-0.2598891258
-0.259486109
-0.2553822398
-0.2551476061
-0.2525902092
-0.2512703538
-0.2509478331
-0.2496153712
-0.2483424395
-0.2476823777
-0.2474188358
-0.246350497
-0.2458479851
-0.2430000603
-0.2427305281
-0.2394750416
-0.2394237369
-0.2377056777
-0.2366347909
-0.2358373851
-0.2346753031
-0.2326400727
-0.2325047255
-0.2311283499
-0.2300464213
-0.229392767
-0.2260057032
-0.2248865068
-0.2199132144
-0.2194609791
-0.2189364284
-0.2188220024
-0.218701601
-0.217989549
-0.2173443139
-0.2168471217
-0.2168224156
-0.2165143192
-0.2158386707
-0.2153077424
-0.2133830041
-0.2124051154
-0.2108637094
-0.210343942
-0.2097953707
-0.2087054104
-0.207369253
-0.2069671005
-0.2067864239
-0.2060533315
-0.2035518587
-0.2031617314
-0.2022135705
-0.2019802183
-0.2011190206
-0.2005307227
-0.1997576505
-0.1996179521
-0.1983612925
-0.1970264167
-0.1969667822
-0.1943011135
-0.1931533515
-0.1927581131
-0.1919895262
-0.189449966
-0.1883944571
-0.1883757263
-0.1848630011
-0.1837549806
-0.1826819777
-0.182024762
-0.1818364859
-0.1801530719
-0.1793117374
-0.1790719628
-0.1783892065
-0.1777778417
-0.1773201972
-0.1769494712
-0.1762245148
-0.1756670922
-0.175461486
-0.1742248684
-0.1735012829
-0.1730872095
-0.1713838875
-0.1712451577
-0.1710844934
-0.1706695557
-0.1685202122
-0.1667840034
-0.1664569676
-0.165789783
-0.165249601
-0.1650112867
-0.1642470956
-0.1641364843
-0.1622537822
-0.1615954936
-0.1596825272
-0.1593845934
-0.1568496674
-0.1549427956
-0.154684633
-0.154455021
-0.153290242
-0.1524991393
-0.152109459
-0.151756525
-0.1498638988
-0.1487815976
-0.1476303339
-0.1470413357
-0.1454067975
-0.1450973004
-0.1441255659
-0.1425515264
-0.1425160319
-0.1414121091
-0.1406507343
-0.1405700743
-0.1399239153
-0.1398964524
-0.1396256834
-0.1395347863
-0.1388881058
-0.1385318637
-0.1360004693
-0.1347492188
-0.1339587271
-0.1327657551
-0.1318015009
-0.1313687861
-0.1300361603
-0.1286412328
-0.1282873452
-0.1282102764
-0.1267662197
-0.1249853149
-0.1237578616
-0.1233209595
-0.1225243434
-0.1219094247
-0.1217906997
-0.1187777296
-0.1184945032
-0.1178658232
-0.1174030751
-0.1173274592
-0.1170116886
-0.1162043065
-0.1159573123
-0.1152022108
-0.1151634455
-0.1147994474
-0.1146141738
-0.1145962924
-0.1140708998
-0.1135357246
-0.1133495122
-0.1120649725
-0.1118585095
-0.1101160273
-0.1096831858
-0.1088516861
-0.1085258126
-0.1081465557
-0.1080570891
-0.1070412397
-0.1065968871
-0.1049167961
-0.1048980281
-0.1045638546
-0.1037608832
-0.1037401706
-0.1033436656
-0.1033202857
-0.102654092
-0.09972520173
-0.09863271564
-0.09820085764
-0.0967528671
-0.09650696814
-0.09618128836
-0.09415772557
-0.09270223975
-0.0926200822
-0.08967096359
-0.08868400007
-0.0885130465
-0.0876288712
-0.0875819698
-0.08672370762
-0.08633825183
-0.08629460633
-0.08593908697
-0.08555380255
-0.08536165208
-0.0838707462
-0.08366004378
-0.08120065928
-0.08098775148
-0.08057383448
-0.08028425276
-0.07989997417
-0.07984871417
-0.0798259601
-0.07947277278
-0.07889359444
-0.07826028764
-0.0781808719
-0.07746314257
-0.07634737343
-0.07589425147
-0.07531990856
-0.07503963262
-0.07488577068
-0.07471881062
-0.07469534129
-0.07460556179
-0.07450777292
-0.07439720631
-0.07413285226
-0.07295500487
-0.07261252403
-0.07221814245
-0.07179043442
-0.07170342654
-0.07160056382
-0.07143443078
-0.07079319656
-0.07045736164
-0.06985832751
-0.0698029995
-0.0696824193
-0.06957357377
-0.06900210679
-0.06885355711
-0.06838844717
-0.06813024729
-0.06787259877
-0.06750877947
-0.06702560931
-0.0670119226
-0.0667629391
-0.06663929671
-0.06503990293
-0.06491298229
-0.06470731646
-0.064326033
-0.0632224679
-0.06169257313
-0.06082805619
-0.06062335148
-0.06045047194
-0.06009781733
-0.05964135006
-0.05895865336
-0.05831600353
-0.05826864019
-0.05811167881
-0.05797971785
-0.05761970952
-0.0570929423
-0.05703676119
-0.05684628338
-0.0567730777
-0.05577132106
-0.05569375679
-0.05568842962
-0.05539269373
-0.05527472496
-0.05488310754
-0.05345979705
-0.05316778645
-0.05242288113
-0.05199760571
-0.05189040676
-0.05155538023
-0.05113223568
-0.05097549036
-0.05060448498
-0.05050868914
-0.05035250261
-0.05003938824
-0.04996997863
-0.04966196045
-0.04833092541
-0.0479256995
-0.04780327156
-0.04700240865
-0.04572050646
-0.04546589032
-0.04473143071
-0.04418927059
-0.04366973415
-0.04361202568
-0.04358877614
-0.04351323843
-0.04350661486
-0.04343575612
-0.04238543659
-0.04151830077
-0.0409774743
-0.04093047231
-0.04087870941
-0.0407875143
-0.04017172754
-0.04014454782
-0.0399549827
-0.03977623582
-0.03959711641
-0.03915340081
-0.03902673721
-0.03881451488
-0.0382704176
-0.03797901422
-0.03772484511
-0.03763159737
-0.0373477526
-0.03702912852
-0.0368053019
-0.03633705527
-0.03626877815
-0.03527852148
-0.03490506113
-0.03474477306
-0.03444268927
-0.03441469744
-0.03394971415
-0.0336452201
-0.03357817978
-0.03336277977
-0.03322312236
-0.03318999335
-0.03272171319
-0.03215130046
-0.032136105
-0.03212995827
-0.03143373504
-0.03101804852
-0.03026267886
-0.03011999279
-0.02994440496
-0.02985374629
-0.02924055979
-0.02921820804
-0.02876968123
-0.02858218178
-0.02813894488
-0.02779304981
-0.02727239206
-0.02662167512
-0.02647040226
-0.02642527595
-0.02626891434
-0.02619033121
-0.02610012144
-0.02604366653
-0.02528314292
-0.02515564673
-0.02515547723
-0.02493553236
-0.02461900935
-0.02312973514
-0.02295698412
-0.02238905989
-0.02231965959
-0.02217517979
-0.02194735408
-0.02174261771
-0.02153768577
-0.02146249823
-0.02098724619
-0.02068866789
-0.02010544389
-0.01946393773
-0.01911445893
-0.0188701544
-0.01872377843
-0.01871620119
-0.01844584756
-0.01811402291
-0.01769349724
-0.01759148948
-0.01740789786
-0.01666440442
-0.01606196165
-0.0148508735
-0.01430542674
-0.01412882004
-0.01409043372
-0.01370781101
-0.01330500748
-0.0126970103
-0.01229509804
-0.01221689861
-0.011985166
-0.0119462898
-0.01158509683
-0.01003681123
-0.01002435666
-0.009982222691
-0.009578998201
-0.00924975425
-0.008376486599
-0.00832477957
-0.007938020863
-0.007864647545
-0.005966484081
-0.005562935024
-0.005027686246
-0.00496787345
-0.004753599875
-0.004424878396
-0.00440354459
-0.003588065505
-0.002290408593
-0.001982734771
-0.00187807146
-0.001841028221
-0.001718969899
-0.001442696434
-0.001429068274
-0.0007369198138
-0.0005209905212
-0.0001557943033
0.0002613377001
0.0002790803555
0.00090674893
0.001033586217
0.002328725532
0.002458469942
0.003226784524
0.00325883599
0.003424592316
0.005609364249
0.005808030721
0.00696717808
0.00698817661
0.007974211127
0.008434500545
0.01030909736
0.01034829114
0.0106482571
0.01075001527
0.01202736981
0.01243293285
0.0126051195
0.01285083685
0.01298307814
0.01393462159
0.01495755371
0.01497769449
0.01553229615
0.0157138966
0.01677105576
0.01713472232
0.01731087454
0.01770375296
0.01813196018
0.0181334652
0.0185100846
0.01883151755
0.01917086914
0.01924226247
0.01953697018
0.01958558708
0.01980695315
0.02069582045
0.02076471224
0.02103987709
0.02119918726
0.02243255451
0.02262192778
0.02281051315
0.02311877161
0.02335498482
0.02342171222
0.02414241061
0.02424217574
0.02549726889
0.02563086152
0.02637741156
0.0264962092
0.02665859647
0.02701776847
0.02781602554
0.02809948847
0.02836251631
0.02851205133
0.02912020124
0.0303143207
0.03128603846
0.03134847432
0.03188982978
0.03310013562
0.03361262009
0.03372250497
0.03405116126
0.03412792087
0.03521132097
0.03540519997
0.03558900952
0.03569325805
0.03579957783
0.03594368324
0.03639857844
0.03690817207
0.03722516075
0.03722659126
0.03726096824
0.03752643242
0.03780677542
0.03819192573
0.03839518875
0.03977189586
0.0403794609
0.04057099298
0.04108889401
0.04140991345
0.04161582142
0.04198320583
0.04205611348
0.04215877876
0.04222734645
0.04266907275
0.04287958518
0.04301370308
0.04304017127
0.04399224371
0.04474042356
0.04491558298
0.04573028535
0.04595238343
0.04603483155
0.04625051469
0.04633290321
0.04654088244
0.04714996368
0.04851032048
0.04934905842
0.0496212244
0.0500237979
0.05018914491
0.05019805208
0.0508120209
0.05139124766
0.05169571564
0.05190457404
0.05197484419
0.0521110259
0.05215741694
0.05317170545
0.05331251025
0.05354555696
0.05396972969
0.05528036878
0.05549729615
0.05618418381
0.05810302123
0.05954224244
0.05988737568
0.06064136699
0.06069552153
0.06112274528
0.06118739769
0.0616068989
0.06167820841
0.06236335635
0.06264760345
0.06359428912
0.06464018673
0.06500672549
0.0659801513
0.06624943763
0.06650742143
0.06727321446
0.06748910248
0.0683324337
0.06847810745
0.06854637712
0.06966390461
0.07205499709
0.07257128507
0.07319258898
0.07331870496
0.07375001907
0.07390015572
0.07418297231
0.07426143438
0.07458318025
0.074700661
0.07492347062
0.07740044594
0.07811284065
0.07812328637
0.07912172377
0.07961273938
0.07985019684
0.08005603403
0.08136884123
0.08157046884
0.081741862
0.08225491643
0.08301033825
0.08301442862
0.08302009851
0.08341833949
0.08537603915
0.08595590293
0.08609064668
0.08705879003
0.08736424893
0.0880554989
0.08848468214
0.08868283778
0.08873078972
0.08915607631
0.08946035802
0.08994413912
0.09193455428
0.09217141569
0.09220381826
0.09297125041
0.09433872998
0.09486805648
0.09580669552
0.09581909329
0.09613163769
0.09714026749
0.09814468771
0.09848436713
0.09865991026
0.1012791246
0.1020779759
0.1025938913
0.1031379178
0.1039390415
0.1052690074
0.1064645424
0.1074854061
0.1077332497
0.107822448
0.1093441844
0.1103138477
0.1117908955
0.1120929047
0.1121075898
0.1122558564
0.112873964
0.1129524633
0.1131865978
0.1135850251
0.1158024967
0.1160213277
0.1161383837
0.1178533584
0.118755728
0.120885618
0.1209755167
0.1217634678
0.1229251474
0.1229295954
0.1230705902
0.1235970929
0.1240477413
0.1245661005
0.1248089299
0.1248650923
0.1250740141
0.1256362796
0.126094386
0.126795128
0.1281528622
0.1289049238
0.1295071095
0.1295507252
0.1302752942
0.1305712163
0.1306861639
0.1310035139
0.1325842291
0.1338946074
0.1340917349
0.1350977421
0.1366478354
0.137327686
0.1384032518
0.1386781782
0.1396044046
0.1409499198
0.1416544765
0.1417577267
0.1425634176
0.1428089142
0.1429496109
0.144430697
0.1457038075
0.1479196697
0.1480044723
0.1483849883
0.1496676058
0.1504122019
0.1519898027
0.1529018879
0.1543934196
0.1544893831
0.1557392478
0.1580262035
0.1580540687
0.1588025689
0.1606711447
0.1616852432
0.1616998315
0.1629806608
0.1637917608
0.164747104
0.1656365991
0.166941151
0.1698045135
0.1702212244
0.1708791554
0.171692431
0.1721223146
0.1724977493
0.1729835719
0.1747780442
0.1749961078
0.1754094362
0.1757810414
0.1766764522
0.1779688746
0.1808117777
0.183128044
0.1853009015
0.1869928986
0.1897968948
0.1906780005
0.1935678869
0.1936463118
0.1939348429
0.1945581883
0.1953840405
0.1993834376
0.2004311085
0.2078270465
0.2134916484
0.2179681063
0.2190761268
0.2200959772
0.2219958901
0.2265463918
0.2278297096
0.2288413793
0.2314053178
0.2319794297
0.2402154505
0.2546707392
0.2632001042
0.2653811276
0.2662195563
0.2733151317
0.2794932425
0.2873957157
0.2882041931
0.2902169526
0.2961408496
0.2985492647
0.3035369515
0.3090257645
0.3237670064
0.3272273242
