-0.0838271
-0.0838271
-0.0838271
-0.0838271
-0.0838271
-0.0838271
-0.0838271
-0.0838271
-0.0838271
-0.0838271
-0.0838271
-0.0838271
-0.0838271
-0.0838271
-0.0838271
-0.0838271
-0.0838271
-0.0838271
-0.0838271
-0.0838271
-0.0838271
-0.0838271
-0.0838271
-0.0838271
-0.0838271
-0.0838271
-0.0838271
-0.0838271
-0.0838271
-0.0838271
-0.0838271
-0.0838271
-0.0838271
-0.0838271
-0.0838271
-0.0838271
-0.0838271
-0.0838271
-0.0838271
-0.0838271
-0.0838271
-0.0838271
-0.0838271
-0.0838271
-0.0838271
-0.0838271
-0.0838271
-0.0838271
-0.0838271
-0.0838271
-0.0838271
-0.0838271
-0.0838271
-0.0838271
-0.0838271
-0.0838271
-0.0838271
-0.0838271
-0.0838271
-0.0838271
-0.0838271
-0.0838271
-0.0838271
-0.0838271
-0.0838271
-0.0838271
-0.0838271
-0.0838271
-0.0838271
-0.0838271
-0.0838271
-0.0838271
-0.0838271
-0.0838271
-0.0838271
-0.0838271
-0.0838271
-0.0838271
-0.0838271
-0.0838271
-0.0838271
-0.0838271
-0.0838271
-0.0838271
-0.0838271
-0.0838271
-0.0838271
-0.0838271
-0.0838271
-0.0838271
-0.0838271
-0.0838271
-0.0838271
0.0838271
0.0838271
0.0838271
0.0838271
0.0838271
0.0838271
0.0838271
0.0838271
0.0838271
0.0838271
0.0838271
0.0838271
0.0838271
0.0838271
0.0838271
0.0838271
0.0838271
0.0838271
0.0838271
0.0838271
0.0838271
0.0838271
0.0838271
0.0838271
0.0838271
0.0838271
0.0838271
0.0838271
0.0838271
0.0838271
0.0838271
0.0838271
0.0838271
0.0838271
0.0838271
0.0838271
0.0838271
0.0838271
0.0838271
0.0838271
0.0838271
0.0838271
0.0838271
0.0838271
0.0838271
0.0838271
0.0838271
0.0838271
0.0838271
0.0838271
0.0838271
0.0838271
0.0838271
0.0838271
0.0838271
0.0838271
0.0838271
