-0.050012
-0.050012
-0.050012
-0.050012
-0.050012
-0.050012
-0.050012
-0.050012
-0.050012
-0.050012
-0.050012
-0.050012
-0.050012
-0.050012
-0.050012
-0.050012
-0.050012
-0.050012
-0.050012
-0.050012
-0.050012
-0.050012
-0.050012
-0.050012
-0.050012
-0.050012
-0.050012
-0.050012
-0.050012
-0.050012
-0.050012
-0.050012
-0.050012
-0.050012
-0.050012
-0.050012
-0.050012
-0.050012
-0.050012
-0.050012
-0.050012
-0.050012
-0.050012
-0.050012
-0.050012
-0.050012
-0.050012
-0.050012
-0.050012
-0.050012
-0.050012
-0.050012
-0.050012
-0.050012
-0.050012
-0.050012
-0.050012
-0.050012
-0.050012
-0.050012
-0.050012
-0.050012
-0.050012
-0.050012
-0.050012
-0.050012
-0.050012
-0.050012
-0.050012
-0.050012
-0.050012
-0.050012
-0.050012
-0.050012
-0.050012
-0.050012
-0.050012
-0.050012
-0.050012
-0.050012
-0.050012
-0.050012
-0.050012
-0.050012
-0.050012
-0.050012
-0.050012
-0.050012
-0.050012
-0.050012
-0.050012
-0.050012
-0.050012
-0.050012
-0.050012
-0.050012
-0.050012
-0.050012
-0.050012
-0.050012
-0.050012
-0.050012
-0.050012
-0.050012
-0.050012
-0.050012
-0.050012
-0.050012
-0.050012
-0.050012
-0.050012
-0.050012
-0.050012
-0.050012
-0.050012
-0.050012
-0.050012
-0.050012
-0.050012
-0.050012
-0.050012
-0.050012
-0.050012
-0.050012
-0.050012
-0.050012
-0.050012
-0.050012
-0.050012
-0.050012
-0.050012
-0.050012
-0.050012
-0.050012
-0.050012
-0.050012
-0.050012
-0.050012
-0.050012
-0.050012
-0.050012
-0.050012
-0.050012
-0.050012
-0.050012
-0.050012
-0.050012
-0.050012
-0.050012
-0.050012
-0.050012
-0.050012
-0.050012
-0.050012
-0.050012
-0.050012
-0.050012
-0.050012
-0.050012
-0.050012
-0.050012
-0.050012
-0.050012
-0.050012
-0.050012
-0.050012
-0.050012
-0.050012
-0.050012
-0.050012
-0.050012
-0.050012
-0.050012
-0.050012
-0.050012
-0.050012
-0.050012
-0.050012
-0.050012
-0.050012
-0.050012
-0.050012
-0.050012
-0.050012
-0.050012
-0.050012
-0.050012
-0.050012
-0.050012
-0.050012
-0.050012
-0.050012
-0.050012
-0.050012
-0.050012
-0.050012
-0.050012
-0.050012
-0.050012
-0.050012
-0.050012
-0.050012
-0.050012
-0.050012
-0.050012
-0.050012
-0.050012
-0.050012
-0.050012
-0.050012
-0.050012
-0.050012
-0.050012
-0.050012
-0.050012
-0.050012
-0.050012
-0.050012
-0.050012
-0.050012
-0.050012
-0.050012
-0.050012
-0.050012
-0.050012
-0.050012
-0.050012
-0.050012
-0.050012
-0.050012
-0.050012
-0.050012
-0.050012
-0.050012
-0.050012
-0.050012
-0.050012
-0.050012
-0.050012
-0.050012
-0.050012
-0.050012
-0.050012
-0.050012
-0.050012
-0.050012
-0.050012
-0.050012
-0.050012
-0.050012
-0.050012
-0.050012
-0.050012
-0.050012
-0.050012
-0.050012
-0.050012
-0.050012
-0.050012
-0.050012
-0.050012
-0.050012
-0.050012
-0.050012
-0.050012
-0.050012
-0.050012
-0.050012
-0.050012
-0.050012
-0.050012
-0.050012
-0.050012
-0.050012
-0.050012
-0.050012
-0.050012
-0.050012
-0.050012
-0.050012
-0.050012
-0.050012
-0.050012
-0.050012
-0.050012
-0.050012
-0.050012
-0.050012
-0.050012
-0.050012
-0.050012
-0.050012
-0.050012
-0.050012
-0.050012
-0.050012
-0.050012
-0.050012
-0.050012
-0.050012
-0.050012
-0.050012
-0.050012
-0.050012
-0.050012
-0.050012
-0.050012
-0.050012
-0.050012
-0.050012
-0.050012
-0.050012
-0.050012
-0.050012
-0.050012
-0.050012
-0.050012
-0.050012
-0.050012
-0.050012
-0.050012
-0.050012
-0.050012
-0.050012
-0.050012
-0.050012
-0.050012
-0.050012
-0.050012
-0.050012
-0.050012
-0.050012
-0.050012
-0.050012
-0.050012
-0.050012
-0.050012
-0.050012
-0.050012
-0.050012
-0.050012
-0.050012
-0.050012
-0.050012
-0.050012
-0.050012
-0.050012
-0.050012
-0.050012
-0.050012
-0.050012
-0.050012
-0.050012
-0.050012
-0.050012
-0.050012
-0.050012
-0.050012
-0.050012
-0.050012
-0.050012
-0.050012
-0.050012
-0.050012
-0.050012
-0.050012
-0.050012
-0.050012
-0.050012
-0.050012
-0.050012
-0.050012
-0.050012
-0.050012
-0.050012
-0.050012
-0.050012
-0.050012
-0.050012
-0.050012
-0.050012
-0.050012
-0.050012
-0.050012
-0.050012
-0.050012
-0.050012
-0.050012
-0.050012
-0.050012
-0.050012
-0.050012
-0.050012
-0.050012
-0.050012
-0.050012
-0.050012
-0.050012
-0.050012
-0.050012
-0.050012
-0.050012
-0.050012
-0.050012
-0.050012
-0.050012
-0.050012
-0.050012
-0.050012
-0.050012
-0.050012
-0.050012
-0.050012
-0.050012
-0.050012
-0.050012
-0.050012
-0.050012
-0.050012
-0.050012
-0.050012
-0.050012
-0.050012
-0.050012
-0.050012
-0.050012
-0.050012
-0.050012
-0.050012
-0.050012
-0.050012
-0.050012
-0.050012
-0.050012
-0.050012
-0.050012
-0.050012
-0.050012
-0.050012
-0.050012
-0.050012
-0.050012
-0.050012
-0.050012
-0.050012
-0.050012
-0.050012
-0.050012
-0.050012
-0.050012
-0.050012
-0.050012
-0.050012
-0.050012
-0.050012
-0.050012
-0.050012
-0.050012
-0.050012
-0.050012
-0.050012
-0.050012
-0.050012
-0.050012
-0.050012
-0.050012
-0.050012
-0.050012
-0.050012
-0.050012
-0.050012
-0.050012
-0.050012
-0.050012
-0.050012
-0.050012
-0.050012
-0.050012
-0.050012
-0.050012
-0.050012
-0.050012
-0.050012
-0.050012
-0.050012
-0.050012
-0.050012
-0.050012
-0.050012
-0.050012
-0.050012
-0.050012
-0.050012
-0.050012
-0.050012
-0.050012
-0.050012
-0.050012
-0.050012
-0.050012
-0.050012
-0.050012
-0.050012
-0.050012
-0.050012
-0.050012
-0.050012
-0.050012
-0.050012
-0.050012
-0.050012
-0.050012
-0.050012
-0.050012
-0.050012
-0.050012
-0.050012
-0.050012
-0.050012
-0.050012
-0.050012
-0.050012
-0.050012
-0.050012
-0.050012
-0.050012
-0.050012
-0.050012
-0.050012
-0.050012
-0.050012
-0.050012
-0.050012
-0.050012
-0.050012
-0.050012
-0.050012
-0.050012
-0.050012
-0.050012
-0.050012
-0.050012
-0.050012
-0.050012
-0.050012
-0.050012
-0.050012
-0.050012
-0.050012
-0.050012
-0.050012
-0.050012
-0.050012
-0.050012
-0.050012
-0.050012
-0.050012
-0.050012
-0.050012
-0.050012
-0.050012
-0.050012
-0.050012
-0.050012
-0.050012
-0.050012
-0.050012
-0.050012
-0.050012
-0.050012
-0.050012
-0.050012
-0.050012
-0.050012
-0.050012
-0.050012
-0.050012
-0.050012
-0.050012
-0.050012
-0.050012
-0.050012
-0.050012
-0.050012
-0.050012
-0.050012
-0.050012
-0.050012
-0.050012
-0.050012
-0.050012
-0.050012
-0.050012
-0.050012
-0.050012
-0.050012
-0.050012
-0.050012
-0.050012
-0.050012
-0.050012
-0.050012
-0.050012
-0.050012
-0.050012
-0.050012
-0.050012
-0.050012
-0.050012
-0.050012
-0.050012
-0.050012
-0.050012
-0.050012
-0.050012
-0.050012
-0.050012
-0.050012
-0.050012
-0.050012
-0.050012
-0.050012
-0.050012
-0.050012
-0.050012
-0.050012
-0.050012
-0.050012
-0.050012
-0.050012
-0.050012
-0.050012
-0.050012
-0.050012
-0.050012
-0.050012
-0.050012
-0.050012
-0.050012
-0.050012
-0.050012
-0.050012
-0.050012
-0.050012
-0.050012
-0.050012
-0.050012
-0.050012
-0.050012
-0.050012
-0.050012
-0.050012
-0.050012
-0.050012
-0.050012
-0.050012
-0.050012
-0.050012
-0.050012
-0.050012
-0.050012
-0.050012
-0.050012
-0.050012
-0.050012
-0.050012
-0.050012
-0.050012
-0.050012
-0.050012
-0.050012
-0.050012
-0.050012
-0.050012
-0.050012
-0.050012
-0.050012
-0.050012
-0.050012
-0.050012
-0.050012
-0.050012
-0.050012
-0.050012
-0.050012
-0.050012
-0.050012
-0.050012
-0.050012
-0.050012
-0.050012
-0.050012
-0.050012
-0.050012
-0.050012
-0.050012
-0.050012
-0.050012
-0.050012
-0.050012
-0.050012
-0.050012
-0.050012
-0.050012
-0.050012
-0.050012
-0.050012
-0.050012
-0.050012
-0.050012
-0.050012
-0.050012
-0.050012
-0.050012
-0.050012
-0.050012
-0.050012
-0.050012
-0.050012
-0.050012
-0.050012
-0.050012
-0.050012
-0.050012
-0.050012
-0.050012
-0.050012
-0.050012
-0.050012
-0.050012
-0.050012
-0.050012
-0.050012
-0.050012
-0.050012
-0.050012
-0.050012
-0.050012
-0.050012
-0.050012
-0.050012
-0.050012
-0.050012
-0.050012
-0.050012
-0.050012
-0.050012
-0.050012
-0.050012
-0.050012
-0.050012
-0.050012
-0.050012
-0.050012
-0.050012
-0.050012
-0.050012
-0.050012
-0.050012
-0.050012
-0.050012
-0.050012
-0.050012
-0.050012
-0.050012
-0.050012
-0.050012
-0.050012
-0.050012
-0.050012
-0.050012
-0.050012
-0.050012
-0.050012
-0.050012
-0.050012
-0.050012
-0.050012
-0.050012
-0.050012
-0.050012
-0.050012
-0.050012
-0.050012
-0.050012
-0.050012
-0.050012
-0.050012
-0.050012
-0.050012
-0.050012
-0.050012
-0.050012
-0.050012
-0.050012
-0.050012
-0.050012
-0.050012
-0.050012
-0.050012
-0.050012
-0.050012
-0.050012
-0.050012
-0.050012
-0.050012
-0.050012
-0.050012
-0.050012
-0.050012
-0.050012
-0.050012
-0.050012
-0.050012
-0.050012
-0.050012
-0.050012
-0.050012
-0.050012
-0.050012
-0.050012
-0.050012
-0.050012
-0.050012
-0.050012
-0.050012
-0.050012
-0.050012
-0.050012
-0.050012
-0.050012
-0.050012
-0.050012
-0.050012
-0.050012
-0.050012
-0.050012
-0.050012
-0.050012
-0.050012
-0.050012
-0.050012
-0.050012
-0.050012
-0.050012
-0.050012
-0.050012
-0.050012
-0.050012
-0.050012
-0.050012
-0.050012
-0.050012
-0.050012
-0.050012
-0.050012
-0.050012
-0.050012
-0.050012
-0.050012
-0.050012
-0.050012
-0.050012
-0.050012
-0.050012
-0.050012
-0.050012
-0.050012
-0.050012
-0.050012
-0.050012
-0.050012
-0.050012
-0.050012
-0.050012
-0.050012
-0.050012
-0.050012
-0.050012
-0.050012
-0.050012
-0.050012
-0.050012
-0.050012
-0.050012
-0.050012
-0.050012
-0.050012
-0.050012
-0.050012
-0.050012
-0.050012
-0.050012
-0.050012
-0.050012
-0.050012
-0.050012
-0.050012
-0.050012
-0.050012
-0.050012
-0.050012
-0.050012
-0.050012
-0.050012
-0.050012
-0.050012
-0.050012
-0.050012
-0.050012
-0.050012
-0.050012
-0.050012
-0.050012
-0.050012
-0.050012
-0.050012
-0.050012
-0.050012
-0.050012
-0.050012
-0.050012
-0.050012
-0.050012
-0.050012
-0.050012
-0.050012
-0.050012
-0.050012
-0.050012
-0.050012
-0.050012
-0.050012
-0.050012
-0.050012
-0.050012
-0.050012
-0.050012
-0.050012
-0.050012
-0.050012
-0.050012
-0.050012
-0.050012
-0.050012
-0.050012
-0.050012
-0.050012
-0.050012
-0.050012
-0.050012
-0.050012
-0.050012
-0.050012
-0.050012
-0.050012
-0.050012
-0.050012
-0.050012
-0.050012
-0.050012
-0.050012
-0.050012
-0.050012
-0.050012
-0.050012
-0.050012
-0.050012
-0.050012
-0.050012
-0.050012
-0.050012
-0.050012
-0.050012
-0.050012
-0.050012
-0.050012
-0.050012
-0.050012
-0.050012
-0.050012
-0.050012
-0.050012
-0.050012
-0.050012
-0.050012
-0.050012
-0.050012
-0.050012
-0.050012
-0.050012
-0.050012
-0.050012
-0.050012
-0.050012
-0.050012
-0.050012
-0.050012
-0.050012
-0.050012
-0.050012
-0.050012
-0.050012
-0.050012
-0.050012
-0.050012
-0.050012
-0.050012
-0.050012
-0.050012
-0.050012
-0.050012
-0.050012
-0.050012
-0.050012
-0.050012
-0.050012
-0.050012
-0.050012
-0.050012
-0.050012
-0.050012
-0.050012
-0.050012
-0.050012
-0.050012
-0.050012
-0.050012
-0.050012
-0.050012
-0.050012
-0.050012
-0.050012
-0.050012
-0.050012
-0.050012
-0.050012
-0.050012
-0.050012
-0.050012
-0.050012
-0.050012
-0.050012
-0.050012
-0.050012
-0.050012
-0.050012
-0.050012
-0.050012
-0.050012
-0.050012
-0.050012
-0.050012
-0.050012
-0.050012
-0.050012
-0.050012
-0.050012
-0.050012
-0.050012
-0.050012
-0.050012
-0.050012
-0.050012
-0.050012
-0.050012
-0.050012
-0.050012
-0.050012
-0.050012
-0.050012
-0.050012
-0.050012
-0.050012
-0.050012
-0.050012
-0.050012
-0.050012
-0.050012
-0.050012
-0.050012
-0.050012
-0.050012
-0.050012
-0.050012
-0.050012
-0.050012
-0.050012
-0.050012
-0.050012
-0.050012
-0.050012
-0.050012
-0.050012
-0.050012
-0.050012
-0.050012
-0.050012
-0.050012
-0.050012
-0.050012
-0.050012
-0.050012
-0.050012
-0.050012
-0.050012
-0.050012
-0.050012
-0.050012
-0.050012
-0.050012
-0.050012
-0.050012
-0.050012
-0.050012
-0.050012
-0.050012
-0.050012
-0.050012
-0.050012
-0.050012
-0.050012
-0.050012
-0.050012
-0.050012
-0.050012
-0.050012
-0.050012
-0.050012
-0.050012
-0.050012
-0.050012
-0.050012
-0.050012
-0.050012
-0.050012
-0.050012
-0.050012
-0.050012
-0.050012
-0.050012
-0.050012
-0.050012
-0.050012
-0.050012
-0.050012
-0.050012
-0.050012
-0.050012
-0.050012
-0.050012
-0.050012
-0.050012
-0.050012
-0.050012
-0.050012
-0.050012
-0.050012
-0.050012
-0.050012
-0.050012
-0.050012
-0.050012
-0.050012
-0.050012
-0.050012
-0.050012
-0.050012
-0.050012
-0.050012
-0.050012
-0.050012
-0.050012
-0.050012
-0.050012
-0.050012
-0.050012
-0.050012
-0.050012
-0.050012
-0.050012
-0.050012
-0.050012
-0.050012
-0.050012
-0.050012
-0.050012
-0.050012
-0.050012
-0.050012
-0.050012
-0.050012
-0.050012
-0.050012
-0.050012
-0.050012
-0.050012
-0.050012
-0.050012
-0.050012
-0.050012
-0.050012
-0.050012
-0.050012
-0.050012
-0.050012
-0.050012
-0.050012
-0.050012
-0.050012
-0.050012
-0.050012
-0.050012
-0.050012
-0.050012
-0.050012
-0.050012
-0.050012
-0.050012
-0.050012
-0.050012
-0.050012
-0.050012
-0.050012
-0.050012
-0.050012
-0.050012
-0.050012
-0.050012
-0.050012
-0.050012
-0.050012
-0.050012
-0.050012
-0.050012
-0.050012
0.050012
0.050012
0.050012
0.050012
0.050012
0.050012
0.050012
0.050012
0.050012
0.050012
0.050012
0.050012
0.050012
0.050012
0.050012
0.050012
0.050012
0.050012
0.050012
0.050012
0.050012
0.050012
0.050012
0.050012
0.050012
0.050012
0.050012
0.050012
0.050012
0.050012
0.050012
0.050012
0.050012
0.050012
0.050012
0.050012
0.050012
0.050012
0.050012
0.050012
0.050012
0.050012
0.050012
0.050012
0.050012
0.050012
0.050012
0.050012
0.050012
0.050012
0.050012
0.050012
0.050012
0.050012
0.050012
0.050012
0.050012
0.050012
0.050012
0.050012
0.050012
0.050012
0.050012
0.050012
0.050012
0.050012
0.050012
0.050012
0.050012
0.050012
0.050012
0.050012
0.050012
0.050012
0.050012
0.050012
0.050012
0.050012
0.050012
0.050012
0.050012
0.050012
0.050012
0.050012
0.050012
0.050012
0.050012
0.050012
0.050012
0.050012
0.050012
0.050012
0.050012
0.050012
0.050012
0.050012
0.050012
0.050012
0.050012
0.050012
0.050012
0.050012
0.050012
0.050012
0.050012
0.050012
0.050012
0.050012
0.050012
0.050012
0.050012
0.050012
0.050012
0.050012
0.050012
0.050012
0.050012
0.050012
0.050012
0.050012
0.050012
0.050012
0.050012
0.050012
0.050012
0.050012
0.050012
0.050012
0.050012
0.050012
0.050012
0.050012
0.050012
0.050012
0.050012
0.050012
0.050012
0.050012
0.050012
0.050012
0.050012
0.050012
0.050012
0.050012
0.050012
0.050012
0.050012
0.050012
0.050012
0.050012
0.050012
0.050012
0.050012
0.050012
0.050012
0.050012
0.050012
0.050012
0.050012
0.050012
0.050012
0.050012
0.050012
0.050012
0.050012
0.050012
0.050012
0.050012
0.050012
0.050012
0.050012
0.050012
0.050012
0.050012
0.050012
0.050012
0.050012
0.050012
0.050012
0.050012
0.050012
0.050012
0.050012
0.050012
0.050012
0.050012
0.050012
0.050012
0.050012
0.050012
0.050012
0.050012
0.050012
0.050012
0.050012
0.050012
0.050012
0.050012
0.050012
0.050012
0.050012
0.050012
0.050012
0.050012
0.050012
0.050012
0.050012
0.050012
0.050012
0.050012
0.050012
0.050012
0.050012
0.050012
0.050012
0.050012
0.050012
0.050012
0.050012
0.050012
0.050012
0.050012
0.050012
0.050012
0.050012
0.050012
0.050012
0.050012
0.050012
0.050012
0.050012
0.050012
0.050012
0.050012
0.050012
0.050012
0.050012
0.050012
0.050012
0.050012
0.050012
0.050012
0.050012
0.050012
0.050012
0.050012
0.050012
0.050012
0.050012
0.050012
0.050012
0.050012
0.050012
0.050012
0.050012
0.050012
0.050012
0.050012
0.050012
0.050012
0.050012
0.050012
0.050012
0.050012
0.050012
0.050012
0.050012
0.050012
0.050012
0.050012
0.050012
0.050012
0.050012
0.050012
0.050012
0.050012
0.050012
0.050012
0.050012
0.050012
0.050012
0.050012
0.050012
0.050012
0.050012
0.050012
0.050012
0.050012
0.050012
0.050012
0.050012
0.050012
0.050012
0.050012
0.050012
0.050012
0.050012
0.050012
0.050012
0.050012
0.050012
0.050012
0.050012
0.050012
0.050012
0.050012
0.050012
0.050012
0.050012
0.050012
0.050012
0.050012
0.050012
0.050012
0.050012
0.050012
0.050012
0.050012
0.050012
0.050012
0.050012
0.050012
0.050012
0.050012
0.050012
0.050012
0.050012
0.050012
0.050012
0.050012
0.050012
0.050012
0.050012
0.050012
0.050012
0.050012
0.050012
0.050012
0.050012
0.050012
0.050012
0.050012
0.050012
0.050012
0.050012
0.050012
0.050012
0.050012
0.050012
0.050012
0.050012
0.050012
0.050012
0.050012
0.050012
0.050012
0.050012
0.050012
0.050012
0.050012
0.050012
0.050012
0.050012
0.050012
0.050012
0.050012
0.050012
0.050012
0.050012
0.050012
0.050012
0.050012
0.050012
0.050012
0.050012
0.050012
0.050012
0.050012
0.050012
0.050012
0.050012
0.050012
0.050012
0.050012
0.050012
0.050012
0.050012
0.050012
0.050012
0.050012
0.050012
0.050012
0.050012
0.050012
0.050012
0.050012
0.050012
0.050012
0.050012
0.050012
0.050012
0.050012
0.050012
0.050012
0.050012
0.050012
0.050012
0.050012
0.050012
0.050012
0.050012
0.050012
0.050012
0.050012
0.050012
0.050012
0.050012
0.050012
0.050012
0.050012
0.050012
0.050012
0.050012
0.050012
0.050012
0.050012
0.050012
0.050012
0.050012
0.050012
0.050012
0.050012
0.050012
0.050012
0.050012
0.050012
0.050012
0.050012
0.050012
0.050012
0.050012
0.050012
0.050012
0.050012
0.050012
0.050012
0.050012
0.050012
0.050012
0.050012
0.050012
0.050012
0.050012
0.050012
0.050012
0.050012
0.050012
0.050012
0.050012
0.050012
0.050012
0.050012
0.050012
0.050012
0.050012
0.050012
0.050012
0.050012
0.050012
0.050012
0.050012
0.050012
0.050012
0.050012
0.050012
0.050012
0.050012
0.050012
0.050012
0.050012
0.050012
0.050012
0.050012
0.050012
0.050012
0.050012
0.050012
0.050012
0.050012
0.050012
0.050012
0.050012
0.050012
0.050012
0.050012
0.050012
0.050012
0.050012
0.050012
0.050012
0.050012
0.050012
0.050012
0.050012
0.050012
0.050012
0.050012
0.050012
0.050012
0.050012
0.050012
0.050012
0.050012
0.050012
0.050012
0.050012
0.050012
0.050012
0.050012
0.050012
0.050012
0.050012
0.050012
0.050012
0.050012
0.050012
0.050012
0.050012
0.050012
0.050012
0.050012
0.050012
0.050012
0.050012
0.050012
0.050012
0.050012
0.050012
0.050012
0.050012
0.050012
0.050012
0.050012
0.050012
0.050012
0.050012
0.050012
0.050012
0.050012
0.050012
0.050012
0.050012
0.050012
0.050012
0.050012
0.050012
0.050012
0.050012
0.050012
0.050012
0.050012
0.050012
0.050012
0.050012
0.050012
0.050012
0.050012
0.050012
0.050012
0.050012
0.050012
0.050012
0.050012
0.050012
0.050012
0.050012
0.050012
0.050012
0.050012
0.050012
0.050012
0.050012
0.050012
0.050012
0.050012
0.050012
0.050012
0.050012
0.050012
0.050012
0.050012
0.050012
0.050012
0.050012
0.050012
0.050012
0.050012
0.050012
0.050012
0.050012
0.050012
0.050012
0.050012
0.050012
0.050012
0.050012
0.050012
0.050012
0.050012
0.050012
0.050012
0.050012
0.050012
0.050012
0.050012
0.050012
0.050012
0.050012
0.050012
0.050012
0.050012
0.050012
0.050012
0.050012
0.050012
0.050012
0.050012
0.050012
0.050012
0.050012
0.050012
0.050012
0.050012
0.050012
0.050012
0.050012
0.050012
0.050012
0.050012
0.050012
0.050012
0.050012
0.050012
0.050012
0.050012
0.050012
0.050012
0.050012
0.050012
0.050012
0.050012
0.050012
0.050012
0.050012
0.050012
0.050012
0.050012
0.050012
0.050012
0.050012
0.050012
0.050012
0.050012
0.050012
0.050012
0.050012
0.050012
0.050012
0.050012
0.050012
0.050012
0.050012
0.050012
0.050012
0.050012
0.050012
0.050012
0.050012
0.050012
0.050012
0.050012
0.050012
0.050012
0.050012
0.050012
0.050012
0.050012
0.050012
0.050012
0.050012
0.050012
0.050012
0.050012
0.050012
0.050012
0.050012
0.050012
0.050012
0.050012
0.050012
0.050012
0.050012
0.050012
0.050012
0.050012
0.050012
0.050012
0.050012
0.050012
0.050012
0.050012
0.050012
0.050012
0.050012
0.050012
0.050012
0.050012
0.050012
0.050012
0.050012
0.050012
0.050012
0.050012
0.050012
0.050012
0.050012
0.050012
0.050012
0.050012
0.050012
0.050012
0.050012
0.050012
0.050012
0.050012
0.050012
0.050012
0.050012
0.050012
0.050012
0.050012
0.050012
0.050012
0.050012
0.050012
0.050012
0.050012
0.050012
0.050012
0.050012
0.050012
0.050012
0.050012
0.050012
0.050012
0.050012
0.050012
0.050012
0.050012
0.050012
0.050012
0.050012
0.050012
0.050012
0.050012
0.050012
0.050012
0.050012
0.050012
0.050012
0.050012
0.050012
0.050012
0.050012
0.050012
0.050012
0.050012
0.050012
0.050012
0.050012
0.050012
0.050012
0.050012
0.050012
0.050012
0.050012
0.050012
0.050012
0.050012
0.050012
0.050012
0.050012
0.050012
0.050012
0.050012
0.050012
0.050012
0.050012
0.050012
0.050012
0.050012
0.050012
0.050012
0.050012
0.050012
0.050012
0.050012
0.050012
0.050012
0.050012
0.050012
0.050012
0.050012
0.050012
0.050012
0.050012
0.050012
0.050012
0.050012
0.050012
0.050012
0.050012
0.050012
0.050012
0.050012
0.050012
0.050012
0.050012
0.050012
0.050012
0.050012
0.050012
0.050012
0.050012
0.050012
0.050012
0.050012
0.050012
0.050012
0.050012
0.050012
0.050012
0.050012
0.050012
0.050012
0.050012
0.050012
0.050012
0.050012
0.050012
0.050012
0.050012
0.050012
0.050012
0.050012
0.050012
0.050012
0.050012
0.050012
0.050012
0.050012
0.050012
0.050012
0.050012
0.050012
0.050012
0.050012
0.050012
0.050012
0.050012
0.050012
0.050012
0.050012
0.050012
0.050012
0.050012
0.050012
0.050012
0.050012
0.050012
0.050012
0.050012
0.050012
0.050012
0.050012
0.050012
0.050012
0.050012
0.050012
0.050012
0.050012
0.050012
0.050012
0.050012
0.050012
0.050012
0.050012
0.050012
0.050012
0.050012
0.050012
0.050012
0.050012
0.050012
0.050012
0.050012
0.050012
0.050012
0.050012
0.050012
0.050012
0.050012
0.050012
0.050012
0.050012
0.050012
0.050012
0.050012
0.050012
0.050012
0.050012
0.050012
0.050012
0.050012
0.050012
0.050012
0.050012
0.050012
0.050012
0.050012
0.050012
0.050012
0.050012
0.050012
0.050012
0.050012
0.050012
0.050012
0.050012
0.050012
0.050012
0.050012
0.050012
0.050012
0.050012
0.050012
0.050012
0.050012
0.050012
0.050012
0.050012
0.050012
0.050012
0.050012
0.050012
0.050012
0.050012
0.050012
0.050012
0.050012
0.050012
0.050012
0.050012
0.050012
0.050012
0.050012
0.050012
0.050012
0.050012
0.050012
0.050012
0.050012
0.050012
0.050012
0.050012
0.050012
0.050012
0.050012
0.050012
0.050012
0.050012
0.050012
0.050012
0.050012
0.050012
0.050012
0.050012
0.050012
0.050012
0.050012
0.050012
0.050012
0.050012
0.050012
0.050012
0.050012
0.050012
0.050012
0.050012
0.050012
0.050012
0.050012
0.050012
0.050012
0.050012
0.050012
0.050012
0.050012
0.050012
0.050012
0.050012
0.050012
0.050012
0.050012
0.050012
0.050012
0.050012
0.050012
0.050012
0.050012
0.050012
0.050012
0.050012
0.050012
0.050012
0.050012
0.050012
0.050012
0.050012
0.050012
0.050012
0.050012
0.050012
0.050012
0.050012
0.050012
0.050012
0.050012
0.050012
0.050012
0.050012
0.050012
0.050012
0.050012
0.050012
0.050012
0.050012
0.050012
0.050012
0.050012
0.050012
0.050012
0.050012
0.050012
0.050012
0.050012
0.050012
0.050012
0.050012
0.050012
0.050012
0.050012
0.050012
0.050012
0.050012
0.050012
0.050012
0.050012
0.050012
0.050012
0.050012
0.050012
0.050012
0.050012
0.050012
0.050012
0.050012
0.050012
0.050012
0.050012
0.050012
0.050012
0.050012
0.050012
0.050012
0.050012
0.050012
0.050012
0.050012
0.050012
0.050012
0.050012
0.050012
0.050012
0.050012
0.050012
0.050012
0.050012
0.050012
0.050012
0.050012
0.050012
0.050012
0.050012
0.050012
0.050012
0.050012
0.050012
0.050012
0.050012
0.050012
0.050012
0.050012
0.050012
0.050012
0.050012
0.050012
0.050012
0.050012
0.050012
0.050012
0.050012
0.050012
0.050012
0.050012
0.050012
0.050012
0.050012
0.050012
0.050012
0.050012
0.050012
0.050012
0.050012
0.050012
0.050012
0.050012
0.050012
0.050012
0.050012
0.050012
0.050012
0.050012
0.050012
0.050012
0.050012
0.050012
0.050012
0.050012
0.050012
0.050012
0.050012
0.050012
0.050012
0.050012
0.050012
0.050012
0.050012
0.050012
0.050012
0.050012
0.050012
0.050012
0.050012
