-0.320788
-0.320788
-0.320788
-0.320788
-0.320788
-0.320788
-0.320788
-0.320788
-0.320788
-0.320788
-0.320788
-0.320788
-0.320788
-0.320788
-0.320788
-0.320788
-0.320788
-0.320788
-0.320788
-0.320788
-0.320788
-0.320788
-0.320788
-0.320788
-0.320788
-0.320788
-0.320788
-0.320788
-0.320788
-0.320788
-0.320788
-0.320788
-0.320788
-0.320788
-0.320788
-0.320788
-0.320788
-0.320788
-0.320788
-0.320788
-0.320788
-0.320788
-0.320788
-0.320788
-0.320788
-0.320788
-0.320788
-0.320788
-0.320788
-0.320788
-0.320788
-0.320788
-0.320788
-0.320788
-0.320788
-0.320788
-0.320788
-0.320788
-0.320788
-0.320788
-0.320788
-0.320788
-0.320788
-0.320788
-0.320788
-0.320788
-0.320788
-0.320788
-0.320788
-0.320788
-0.320788
-0.320788
-0.320788
-0.320788
-0.320788
-0.320788
-0.320788
-0.320788
-0.320788
-0.320788
-0.320788
-0.320788
-0.320788
-0.320788
-0.320788
-0.320788
-0.320788
-0.320788
-0.320788
-0.320788
-0.320788
-0.320788
-0.320788
-0.320788
-0.320788
-0.320788
-0.320788
-0.320788
-0.320788
-0.320788
-0.320788
-0.320788
-0.320788
-0.320788
-0.320788
-0.320788
-0.320788
-0.320788
-0.320788
-0.320788
-0.320788
-0.320788
-0.320788
-0.320788
-0.320788
-0.320788
-0.320788
-0.320788
-0.320788
-0.320788
-0.320788
-0.320788
-0.320788
-0.320788
-0.320788
-0.320788
-0.320788
-0.320788
-0.320788
-0.320788
-0.320788
-0.320788
-0.320788
-0.320788
-0.320788
-0.320788
-0.320788
-0.320788
-0.320788
-0.320788
-0.320788
-0.320788
-0.320788
-0.320788
-0.320788
-0.320788
-0.320788
-0.320788
-0.320788
-0.320788
-0.320788
-0.320788
-0.320788
-0.320788
-0.320788
-0.320788
-0.320788
-0.320788
-0.320788
-0.320788
-0.320788
-0.320788
-0.320788
-0.320788
-0.320788
-0.320788
-0.320788
-0.320788
-0.320788
-0.320788
-0.320788
-0.320788
-0.320788
-0.320788
-0.320788
-0.320788
-0.320788
-0.320788
-0.320788
-0.320788
-0.320788
-0.320788
-0.320788
-0.320788
-0.320788
-0.320788
-0.320788
-0.320788
-0.320788
-0.320788
-0.320788
-0.320788
-0.320788
-0.320788
-0.320788
-0.320788
-0.320788
-0.320788
-0.320788
-0.320788
-0.320788
-0.320788
-0.320788
-0.320788
-0.320788
-0.320788
-0.320788
-0.320788
-0.320788
-0.320788
-0.320788
-0.320788
-0.320788
-0.320788
-0.320788
-0.320788
-0.320788
-0.320788
-0.320788
-0.320788
-0.320788
-0.320788
-0.320788
-0.320788
-0.320788
-0.320788
-0.320788
-0.320788
-0.320788
-0.320788
-0.320788
-0.320788
-0.320788
-0.320788
-0.320788
-0.320788
-0.320788
-0.320788
-0.320788
-0.320788
-0.320788
-0.320788
-0.320788
-0.320788
-0.320788
-0.320788
-0.320788
-0.320788
-0.320788
-0.320788
-0.320788
-0.320788
-0.320788
-0.320788
-0.320788
-0.320788
-0.320788
-0.320788
-0.320788
-0.320788
-0.320788
-0.320788
-0.320788
-0.320788
-0.320788
-0.320788
-0.320788
-0.320788
-0.320788
-0.320788
-0.320788
-0.320788
-0.320788
-0.320788
-0.320788
-0.320788
-0.320788
-0.320788
-0.320788
-0.320788
-0.320788
-0.320788
-0.320788
-0.320788
-0.320788
-0.320788
-0.320788
-0.320788
-0.320788
-0.320788
-0.320788
-0.320788
-0.320788
-0.320788
-0.320788
-0.320788
-0.320788
-0.320788
-0.320788
-0.320788
-0.320788
-0.320788
-0.320788
-0.320788
-0.320788
-0.320788
-0.320788
-0.320788
-0.320788
-0.320788
-0.320788
-0.320788
-0.320788
-0.320788
-0.320788
-0.320788
-0.320788
-0.320788
-0.320788
-0.320788
-0.320788
-0.320788
-0.320788
-0.320788
-0.320788
-0.320788
-0.320788
-0.320788
-0.320788
-0.320788
-0.320788
-0.320788
-0.320788
-0.320788
-0.320788
-0.320788
-0.320788
-0.320788
-0.320788
-0.320788
-0.320788
-0.320788
-0.320788
-0.320788
-0.320788
-0.320788
-0.320788
-0.320788
-0.320788
-0.320788
-0.320788
-0.320788
-0.320788
-0.320788
-0.320788
-0.320788
-0.320788
-0.320788
-0.320788
-0.320788
-0.320788
-0.320788
-0.320788
-0.320788
-0.320788
-0.320788
-0.320788
-0.320788
-0.320788
-0.320788
-0.320788
-0.320788
-0.320788
-0.320788
-0.320788
-0.320788
-0.320788
-0.320788
-0.320788
-0.320788
-0.320788
-0.320788
-0.320788
-0.320788
-0.320788
-0.320788
-0.320788
-0.320788
-0.320788
-0.320788
-0.320788
-0.320788
-0.320788
-0.320788
-0.320788
-0.320788
-0.320788
-0.320788
-0.320788
-0.320788
-0.320788
-0.320788
-0.320788
-0.320788
-0.320788
-0.320788
-0.320788
-0.320788
-0.320788
-0.320788
-0.320788
-0.320788
-0.320788
-0.320788
-0.320788
-0.320788
-0.320788
-0.320788
-0.320788
-0.320788
-0.320788
-0.320788
-0.320788
-0.320788
-0.320788
-0.320788
-0.320788
-0.320788
-0.320788
-0.320788
-0.320788
-0.320788
-0.320788
-0.320788
-0.320788
-0.320788
-0.320788
-0.320788
-0.320788
-0.320788
-0.320788
-0.320788
-0.320788
-0.320788
-0.320788
-0.320788
-0.320788
-0.320788
-0.320788
-0.320788
-0.320788
-0.320788
-0.320788
-0.320788
-0.320788
-0.320788
-0.320788
-0.320788
-0.320788
-0.320788
-0.320788
-0.320788
-0.320788
-0.320788
-0.320788
-0.320788
-0.320788
-0.320788
-0.320788
-0.320788
-0.320788
-0.320788
-0.320788
-0.320788
-0.320788
-0.320788
-0.320788
-0.320788
-0.320788
-0.320788
-0.320788
-0.320788
-0.320788
-0.320788
-0.320788
-0.320788
-0.320788
-0.320788
-0.320788
-0.320788
-0.320788
-0.320788
0.320788
0.320788
0.320788
0.320788
0.320788
0.320788
0.320788
0.320788
0.320788
0.320788
0.320788
0.320788
0.320788
0.320788
0.320788
0.320788
0.320788
0.320788
0.320788
0.320788
0.320788
0.320788
0.320788
0.320788
0.320788
0.320788
0.320788
0.320788
0.320788
0.320788
0.320788
0.320788
0.320788
0.320788
0.320788
0.320788
0.320788
0.320788
0.320788
0.320788
0.320788
0.320788
0.320788
0.320788
0.320788
0.320788
0.320788
0.320788
0.320788
0.320788
0.320788
0.320788
0.320788
0.320788
0.320788
0.320788
0.320788
0.320788
0.320788
0.320788
0.320788
0.320788
0.320788
0.320788
0.320788
0.320788
0.320788
0.320788
0.320788
0.320788
0.320788
0.320788
0.320788
0.320788
0.320788
0.320788
0.320788
0.320788
0.320788
0.320788
0.320788
0.320788
0.320788
0.320788
0.320788
0.320788
0.320788
0.320788
0.320788
0.320788
0.320788
0.320788
0.320788
0.320788
0.320788
0.320788
0.320788
0.320788
0.320788
0.320788
0.320788
0.320788
0.320788
0.320788
0.320788
0.320788
0.320788
0.320788
0.320788
0.320788
0.320788
0.320788
0.320788
0.320788
0.320788
0.320788
0.320788
0.320788
0.320788
0.320788
0.320788
0.320788
0.320788
0.320788
0.320788
0.320788
0.320788
0.320788
0.320788
0.320788
0.320788
0.320788
0.320788
0.320788
0.320788
0.320788
0.320788
0.320788
0.320788
0.320788
0.320788
0.320788
0.320788
0.320788
0.320788
0.320788
0.320788
0.320788
0.320788
0.320788
0.320788
0.320788
0.320788
0.320788
0.320788
0.320788
0.320788
0.320788
0.320788
0.320788
0.320788
0.320788
0.320788
0.320788
0.320788
0.320788
0.320788
0.320788
0.320788
0.320788
0.320788
0.320788
0.320788
0.320788
0.320788
0.320788
0.320788
0.320788
0.320788
0.320788
0.320788
0.320788
0.320788
0.320788
0.320788
0.320788
0.320788
0.320788
0.320788
0.320788
0.320788
0.320788
0.320788
0.320788
0.320788
0.320788
0.320788
0.320788
0.320788
0.320788
0.320788
0.320788
0.320788
0.320788
0.320788
0.320788
0.320788
0.320788
0.320788
0.320788
0.320788
0.320788
0.320788
0.320788
0.320788
0.320788
0.320788
0.320788
0.320788
0.320788
0.320788
0.320788
0.320788
0.320788
0.320788
0.320788
0.320788
0.320788
0.320788
0.320788
0.320788
0.320788
0.320788
0.320788
0.320788
0.320788
0.320788
0.320788
0.320788
0.320788
0.320788
0.320788
0.320788
0.320788
0.320788
0.320788
0.320788
0.320788
0.320788
0.320788
0.320788
0.320788
0.320788
0.320788
0.320788
0.320788
0.320788
0.320788
0.320788
0.320788
0.320788
0.320788
0.320788
0.320788
0.320788
0.320788
0.320788
0.320788
0.320788
0.320788
0.320788
0.320788
0.320788
0.320788
0.320788
0.320788
0.320788
0.320788
0.320788
0.320788
0.320788
0.320788
0.320788
0.320788
0.320788
0.320788
0.320788
0.320788
0.320788
0.320788
0.320788
0.320788
0.320788
0.320788
0.320788
0.320788
0.320788
0.320788
0.320788
0.320788
0.320788
0.320788
0.320788
0.320788
0.320788
0.320788
0.320788
0.320788
0.320788
0.320788
0.320788
0.320788
0.320788
0.320788
0.320788
0.320788
0.320788
0.320788
0.320788
0.320788
0.320788
0.320788
0.320788
0.320788
0.320788
0.320788
0.320788
0.320788
0.320788
0.320788
0.320788
0.320788
0.320788
0.320788
0.320788
0.320788
0.320788
0.320788
0.320788
0.320788
0.320788
0.320788
0.320788
0.320788
0.320788
0.320788
0.320788
0.320788
