-0.5378400087
-0.4656890035
-0.4412919879
-0.3450939953
-0.2924619913
-0.2882559896
-0.2800579965
-0.2685709894
-0.2669700086
-0.2651869953
-0.2577489913
-0.2576670051
-0.2455659956
-0.2410250008
-0.2334930003
-0.2202859968
-0.2046789974
-0.2035979927
-0.2017669976
-0.2010830045
-0.195430994
-0.1774370074
-0.1758749932
-0.1725160033
-0.1718789935
-0.1614560038
-0.1600610018
-0.1593479961
-0.1552200019
-0.1523250043
-0.1513549984
-0.1490350068
-0.1473889947
-0.1465580016
-0.1451600045
-0.1437959969
-0.1428720057
-0.1386269927
-0.1372320056
-0.1337179989
-0.1287589967
-0.1204039976
-0.1160430014
-0.1030820012
-0.1025450006
-0.1014309973
-0.0978635028
-0.08871659636
-0.08161280304
-0.08094760031
-0.07993829995
-0.07781460136
-0.07770290226
-0.07652310282
-0.07517319918
-0.07306019962
-0.07203059644
-0.06855600327
-0.06710139662
-0.06554219872
-0.0567538999
-0.05109269917
-0.0478410013
-0.04600819945
-0.04200910032
-0.04144020006
-0.04052159935
-0.0379042998
-0.03688279912
-0.03634859994
-0.03421999887
-0.02377630025
-0.02323500067
-0.01944109984
-0.01864480041
-0.01858950034
-0.01601769961
-0.0130407
-0.006174209993
-0.0002865850111
0.001455210033
0.01570370048
0.01644410007
0.02267380059
0.02368110046
0.02719159983
0.02773600072
0.03002070077
0.03058370017
0.03568080068
0.0358799994
0.03830010071
0.04647839814
0.052232299
0.05896709859
0.06123999879
0.06213559955
0.06753040105
0.06840779632
0.07532060146
0.07924260199
0.08055719733
0.08664210141
0.09058629721
0.09391839802
0.1098159999
0.1152679995
0.1190920025
0.1195650026
0.120889999
0.1314640045
0.1359360069
0.1401830018
0.1437370032
0.1521839947
0.1528780013
0.1559219956
0.1710229963
0.1786900014
0.1816650033
0.1956779957
0.2005690038
0.201128006
0.2063580006
0.207949996
0.2132699937
0.2184759974
0.225226
0.2279170007
0.2356760055
0.2493789941
0.2526940107
0.2670510113
0.2710169852
0.2759740055
0.2938809991
0.3028070033
0.3044809997
0.3184849918
0.3188819885
0.3189769983
0.3232469857
0.3268170059
0.3443970084
0.3626999855
0.3725230098
0.4242050052
0.4257110059
0.4327690005
0.5444729924
