-0.5048109889
-0.5005559921
-0.4846299887
-0.4586620033
-0.4448899925
-0.403546989
-0.3989839852
-0.3977290094
-0.3966340125
-0.3913649917
-0.3876320124
-0.377700001
-0.3776279986
-0.3769119978
-0.3763830066
-0.3696680069
-0.3624509871
-0.3572430015
-0.3567990065
-0.3460789919
-0.3383640051
-0.337507993
-0.3347769976
-0.3338469863
-0.3302809894
-0.3298400044
-0.3181169927
-0.3059810102
-0.3055729866
-0.3040480018
-0.3013820052
-0.3011530042
-0.2989929914
-0.2979620099
-0.2977289855
-0.2962880135
-0.2962290049
-0.2953130007
-0.2948639989
-0.2930980027
-0.2895910144
-0.2876319885
-0.2858819962
-0.2856500149
-0.2846170068
-0.2809109986
-0.279704988
-0.2788310051
-0.2786630094
-0.278012991
-0.2770220041
-0.2769519985
-0.2737869918
-0.2731449902
-0.272608012
-0.2718699872
-0.2692979872
-0.2681680024
-0.2677510083
-0.2675150037
-0.2660099864
-0.2648159862
-0.2619859874
-0.261819005
-0.2592749894
-0.2583450079
-0.2581819892
-0.2576979995
-0.256505996
-0.2560920119
-0.2555919886
-0.2546699941
-0.2546550035
-0.253933996
-0.2495480031
-0.2494080067
-0.2491630018
-0.2491589934
-0.2480619997
-0.2472860068
-0.2446440011
-0.2433499992
-0.2417050004
-0.2415689975
-0.2404229939
-0.240365997
-0.236995995
-0.2349669933
-0.2343710065
-0.2337179929
-0.2319709957
-0.2304520011
-0.230437994
-0.229975
-0.2295420021
-0.2295159996
-0.2279579937
-0.225018993
-0.2241020054
-0.2225819975
-0.2195190042
-0.2164539993
-0.2163069993
-0.2137549967
-0.2133570015
-0.2133489996
-0.2121520042
-0.2110020071
-0.2078769952
-0.2073220015
-0.2070659995
-0.2055130005
-0.2044660002
-0.2040019929
-0.2033880055
-0.2001129985
-0.2001010031
-0.1976740062
-0.1971240044
-0.1970739961
-0.1970189959
-0.1967529953
-0.1952279955
-0.1952140033
-0.1949599981
-0.1941310018
-0.1910029948
-0.1901080012
-0.1899230033
-0.189794004
-0.1896519959
-0.1893970072
-0.1877599955
-0.184999004
-0.1846970022
-0.1831550002
-0.182870999
-0.1828619987
-0.1819079965
-0.1817599982
-0.1816069931
-0.1815160066
-0.1810069978
-0.1789990067
-0.1781470031
-0.177098006
-0.1764249951
-0.1758210063
-0.1741510034
-0.1728059947
-0.1695919931
-0.1692910045
-0.1679330021
-0.1659229994
-0.165726006
-0.1654810011
-0.1654649973
-0.1641110033
-0.1636639982
-0.1629830003
-0.1626300067
-0.1620279998
-0.1619489938
-0.1608179957
-0.1600500047
-0.1599770039
-0.1598380059
-0.1581699997
-0.1576900035
-0.1571670026
-0.1565259993
-0.1564210057
-0.1560489982
-0.1555099934
-0.1549430043
-0.1546609998
-0.1538289934
-0.1527709961
-0.1522630006
-0.151692003
-0.1499969959
-0.1498550028
-0.1489820033
-0.147525996
-0.1473769993
-0.1466549933
-0.1456129998
-0.1452340037
-0.1441529989
-0.1440269947
-0.1429470032
-0.1423459947
-0.1408289969
-0.1403139979
-0.1399469972
-0.1398379952
-0.1385660022
-0.1381279975
-0.1379349977
-0.136815995
-0.1360940039
-0.134243995
-0.1340730041
-0.1340239942
-0.1336430013
-0.1334650069
-0.1331789941
-0.1331519932
-0.1330659986
-0.1324429959
-0.1321839988
-0.1319870055
-0.1309999973
-0.1301770061
-0.1291570067
-0.1274569929
-0.1274240017
-0.1265610009
-0.1250350028
-0.1249229982
-0.1247230023
-0.124605
-0.1243959963
-0.1232409999
-0.1224630028
-0.1214059964
-0.1207379997
-0.1187729985
-0.1182380021
-0.1171120033
-0.115275003
-0.1149159968
-0.1146109998
-0.1140090004
-0.113899
-0.1129629984
-0.1122649983
-0.1121620014
-0.1117110029
-0.111694999
-0.111198999
-0.1109860018
-0.1108630002
-0.1108269989
-0.1107449979
-0.1100990027
-0.1097019985
-0.108994998
-0.1081819981
-0.1080180034
-0.107975997
-0.1076909974
-0.1076629981
-0.1076399982
-0.1067150012
-0.1058999971
-0.1054529995
-0.1044619977
-0.1036640033
-0.1034630015
-0.103184998
-0.1025540009
-0.101102002
-0.1010420024
-0.1004609987
-0.09968750179
-0.09957270324
-0.0983870998
-0.09785100073
-0.09728270024
-0.09708350152
-0.09707029909
-0.09658320248
-0.09629999846
-0.09626050293
-0.09523800015
-0.09479539841
-0.09473290294
-0.09314940125
-0.09269139916
-0.09225290269
-0.09221830219
-0.09131590277
-0.08929529786
-0.08808030188
-0.08756739646
-0.08614320308
-0.08576609939
-0.08483479917
-0.08483409882
-0.08412069827
-0.08398140222
-0.08331800252
-0.08276049793
-0.08228579909
-0.08072949946
-0.08059799671
-0.07928439975
-0.07847300172
-0.07780110091
-0.07677350193
-0.07626269758
-0.07619559765
-0.07526250184
-0.07472839952
-0.07396110147
-0.07328809798
-0.07064040005
-0.07042939961
-0.0703791976
-0.06984020025
-0.06982529908
-0.06897000223
-0.06883370131
-0.06882730126
-0.06873379648
-0.06846340001
-0.06666839868
-0.06665550172
-0.06643760204
-0.06623820215
-0.06582459807
-0.06546790153
-0.06527909636
-0.06339170039
-0.06333810091
-0.06327240169
-0.06254369766
-0.06227349862
-0.06200719997
-0.06166600063
-0.06126619875
-0.06114209816
-0.06087329984
-0.06083580106
-0.0608137995
-0.06077250093
-0.06022619829
-0.05978649855
-0.05886530131
-0.05869499967
-0.05865919963
-0.05798619986
-0.05752420053
-0.05717860162
-0.05703470111
-0.05682409927
-0.05547890067
-0.05525299907
-0.0550932996
-0.05335789919
-0.05241559818
-0.05217919871
-0.05176509917
-0.05145040154
-0.0491839014
-0.04915669933
-0.04856460169
-0.04823119938
-0.04747160152
-0.04703230038
-0.04681739956
-0.04611340165
-0.04600569978
-0.04534170032
-0.04523409903
-0.04513650015
-0.04501850158
-0.04489289969
-0.04435610026
-0.04334690049
-0.04255529866
-0.0423909016
-0.04171510041
-0.04133399948
-0.04103890061
-0.03963080049
-0.03827819973
-0.03761319816
-0.03738670051
-0.0373781994
-0.03737299889
-0.03690439835
-0.03583860025
-0.0353865996
-0.03530099988
-0.03489189968
-0.03486739844
-0.03337569907
-0.03303330019
-0.03266320005
-0.03228100017
-0.03145619854
-0.03139860183
-0.03128850088
-0.02884010039
-0.02847970091
-0.02840849943
-0.02791349962
-0.02787810005
-0.02759359963
-0.02724069916
-0.02716990001
-0.0260339994
-0.02576199919
-0.02573350072
-0.02481810004
-0.02425440028
-0.02394060045
-0.02310430072
-0.02300520055
-0.02247750014
-0.02240980044
-0.02202479914
-0.02179059945
-0.02166219987
-0.02087569982
-0.02048950084
-0.02005580068
-0.01997859962
-0.01946960017
-0.01940260082
-0.01938620023
-0.0192590002
-0.01862799935
-0.01827169955
-0.01818970032
-0.01781130023
-0.01777550019
-0.01740770042
-0.01709330082
-0.01648800075
-0.01619880088
-0.01601059921
-0.01570839994
-0.01419490017
-0.01341450028
-0.01330310013
-0.01310880017
-0.01240179967
-0.01208209991
-0.01196859963
-0.01187709998
-0.01166099962
-0.01144190039
-0.01140759978
-0.01103950012
-0.01089259982
-0.01047619991
-0.009715120308
-0.008409759961
-0.008257050067
-0.008040050045
-0.007904210128
-0.007620280143
-0.007038650103
-0.006916339975
-0.006736719981
-0.006634039804
-0.006307320204
-0.006091339979
-0.005374650005
-0.005113350227
-0.004677339923
-0.00443304982
-0.004328269977
-0.004084830172
-0.003969459794
-0.003763650078
-0.002997260075
-0.002783460077
-0.001567229978
-0.001276690047
-0.001146020018
-0.001061119954
-0.0009222769877
-0.000699599972
0.0003604670055
0.00039087201
0.0007817730075
0.0008853839827
0.0009938590229
0.001392949955
0.001445399947
0.003215329954
0.003226629924
0.003232639981
0.003295260016
0.003735349979
0.00385812996
0.004090880044
0.005979700014
0.006045440212
0.006080740131
0.006352259777
0.006926139817
0.007207250223
0.007381990086
0.007850879803
0.009635989554
0.01038799994
0.01150509994
0.01154259965
0.01166080032
0.01173119992
0.01220879983
0.01369810011
0.01388190035
0.01485870034
0.01493190043
0.01536509953
0.01555209979
0.0156468004
0.01605639979
0.01624670066
0.01678810082
0.01687310077
0.0175379999
0.01821400039
0.01821650006
0.01847939938
0.0186890997
0.01886319928
0.01945289969
0.01979880035
0.02044210024
0.02044349909
0.02061690018
0.02121400088
0.02227270044
0.02233240008
0.02306050062
0.02308549918
0.02335900068
0.02376860008
0.0238065999
0.02463980019
0.02478669956
0.02559770085
0.02570609935
0.02588050067
0.02590410039
0.02592260018
0.02605240047
0.02632389963
0.02711240016
0.02745250054
0.02776510082
0.02786679938
0.02797859907
0.02833089978
0.02835150063
0.02903980017
0.02920250036
0.02982310019
0.0302980002
0.03055489995
0.03241369873
0.03278720006
0.03285060078
0.03480279818
0.03505700082
0.03532709926
0.03658419847
0.03737749904
0.0380268991
0.03814079985
0.03843130171
0.03861540183
0.03966509923
0.03968429938
0.0400714986
0.04028059915
0.04068230093
0.04072970152
0.04083710164
0.04291810095
0.04321660101
0.043579299
0.04388640076
0.04397400096
0.04414559901
0.04435160011
0.04442580044
0.04504609853
0.04631679878
0.04759670049
0.0477651991
0.04799960181
0.04809520021
0.05025580153
0.05067209899
0.05079830065
0.05082910135
0.05086160079
0.05130919814
0.05135620013
0.05270820111
0.05316400155
0.05362870172
0.05405449867
0.05468919873
0.0556486994
0.05639690161
0.05692509934
0.05692889914
0.05737730116
0.05815310031
0.05974199995
0.06052749977
0.06055330113
0.06096370146
0.06103479862
0.06104239821
0.06104430184
0.06166150048
0.06193299964
0.06202540174
0.06346630305
0.06365480274
0.06430999935
0.06465859711
0.06477549672
0.06491030008
0.0669908002
0.06703259796
0.06715030223
0.06729190052
0.06792200357
0.06822709739
0.06977140158
0.07125510275
0.0715669021
0.0725985989
0.07304929942
0.07330329716
0.07333510369
0.0735469982
0.07360229641
0.07364469767
0.07374790311
0.07375779748
0.07490099967
0.07496079803
0.07522749901
0.07596229762
0.07622180134
0.07691589743
0.07712060213
0.077250503
0.07774999738
0.07806260139
0.07809720188
0.07826790214
0.07829300314
0.07847280055
0.07913749665
0.07950630039
0.07998110354
0.08021569997
0.08232220262
0.08237460256
0.08344549686
0.08345100284
0.08443780243
0.08499109745
0.08541180193
0.08604720235
0.086347498
0.0864071995
0.08655569702
0.08697719872
0.08707910031
0.08724000305
0.08758249879
0.08768180013
0.08769190311
0.08824639767
0.08855540305
0.09287820011
0.09414839745
0.09445119649
0.09452229738
0.09525349736
0.09617319703
0.09617529809
0.09637060016
0.09650629759
0.0969344005
0.0970209986
0.09767390043
0.09779760242
0.09832020104
0.0989272967
0.09914399683
0.09915470332
0.09942919761
0.1003950015
0.1016710028
0.1020919979
0.1024129987
0.102907002
0.1031979993
0.1035630032
0.1051940024
0.1053989977
0.1053989977
0.105783999
0.1058520004
0.1059620008
0.1063250005
0.1064490005
0.1071399972
0.1078689992
0.1101849973
0.1109289974
0.111837998
0.1120209992
0.1121390015
0.1125200018
0.1130269989
0.1130520031
0.1130829975
0.1130890027
0.1135409996
0.1147089973
0.1157549992
0.116561003
0.1165779978
0.118156001
0.1184670031
0.1189519987
0.1213129982
0.1220939979
0.1222359985
0.1223110035
0.1227279976
0.1232979968
0.1234330013
0.1235340014
0.1237320006
0.1244509965
0.1245329976
0.1258160025
0.1265120059
0.1279889941
0.1289730072
0.1306110024
0.1309369951
0.132051006
0.1323229969
0.1338730007
0.1339299977
0.1342860013
0.1344889998
0.1345230043
0.1357980072
0.1359679997
0.1367119998
0.1369380057
0.1374669969
0.1388619989
0.1394219995
0.1396130025
0.1401710063
0.1403180063
0.1409360021
0.1422519982
0.1423590034
0.142862007
0.142869994
0.1441760063
0.1447860003
0.146134004
0.1479659975
0.1483670026
0.1483830065
0.1501809955
0.1515160054
0.152312994
0.1524119973
0.1525489986
0.1526979953
0.155272007
0.1553570032
0.1562059969
0.1563140005
0.1572100073
0.1575769931
0.1583140045
0.1604190022
0.160442993
0.1620019972
0.1625609994
0.1628900021
0.163951993
0.1652069986
0.1653620005
0.1659819931
0.1665939987
0.1680340022
0.168569997
0.168569997
0.1699399948
0.1700289994
0.1703879982
0.1724150032
0.1725600064
0.1747409999
0.1747580022
0.1752649993
0.1768449992
0.1771450043
0.1776250005
0.1803960055
0.1839399934
0.1856839955
0.1865379959
0.1897439957
0.190467
0.1926999986
0.2055319995
0.2099819928
0.2146539986
0.2182240039
0.2201520056
0.2228090018
0.2244230062
0.2288250029
0.2346139997
0.2372619957
0.2391600013
0.243107006
0.2436390072
0.2557860017
0.2598130107
0.2678579986
0.2685059905
0.2795070112
0.3627789915
