-0.093623
-0.093623
-0.093623
-0.093623
-0.093623
-0.093623
-0.093623
-0.093623
-0.093623
-0.093623
-0.093623
-0.093623
-0.093623
-0.093623
-0.093623
-0.093623
-0.093623
-0.093623
-0.093623
-0.093623
-0.093623
-0.093623
-0.093623
-0.093623
-0.093623
-0.093623
-0.093623
-0.093623
-0.093623
-0.093623
-0.093623
-0.093623
-0.093623
-0.093623
-0.093623
-0.093623
-0.093623
-0.093623
-0.093623
-0.093623
-0.093623
-0.093623
-0.093623
-0.093623
-0.093623
-0.093623
-0.093623
-0.093623
-0.093623
-0.093623
-0.093623
-0.093623
-0.093623
-0.093623
-0.093623
-0.093623
-0.093623
-0.093623
-0.093623
-0.093623
-0.093623
-0.093623
-0.093623
-0.093623
-0.093623
-0.093623
-0.093623
-0.093623
-0.093623
-0.093623
-0.093623
-0.093623
-0.093623
-0.093623
-0.093623
-0.093623
-0.093623
-0.093623
-0.093623
-0.093623
-0.093623
-0.093623
-0.093623
-0.093623
-0.08114
-0.08114
-0.08114
-0.08114
-0.08114
-0.08114
-0.08114
-0.08114
-0.08114
-0.08114
-0.08114
-0.08114
-0.08114
-0.08114
-0.08114
-0.08114
-0.08114
-0.08114
-0.08114
-0.08114
-0.08114
-0.08114
-0.08114
-0.08114
-0.08114
-0.08114
-0.08114
-0.08114
-0.08114
-0.08114
-0.08114
-0.08114
-0.08114
-0.08114
-0.08114
-0.08114
-0.08114
-0.08114
-0.08114
-0.08114
-0.08114
-0.08114
-0.08114
-0.08114
-0.08114
-0.08114
-0.08114
-0.08114
-0.08114
-0.08114
-0.08114
-0.08114
-0.08114
-0.08114
-0.08114
-0.08114
-0.08114
-0.08114
-0.08114
-0.08114
-0.08114
-0.08114
-0.08114
-0.08114
-0.08114
-0.08114
-0.08114
-0.08114
-0.08114
-0.08114
-0.08114
-0.08114
-0.08114
-0.08114
-0.08114
-0.08114
-0.08114
-0.08114
-0.08114
-0.08114
-0.08114
-0.08114
-0.08114
-0.08114
-0.08114
-0.08114
-0.08114
-0.08114
-0.08114
-0.08114
-0.08114
-0.08114
-0.08114
-0.08114
-0.08114
-0.08114
-0.08114
-0.08114
-0.08114
-0.08114
-0.08114
-0.08114
-0.08114
-0.08114
-0.08114
-0.08114
-0.08114
-0.08114
-0.08114
-0.08114
-0.08114
-0.08114
-0.08114
-0.08114
-0.08114
-0.08114
-0.08114
-0.08114
-0.08114
-0.08114
-0.08114
-0.08114
-0.08114
-0.08114
-0.08114
-0.08114
-0.08114
-0.08114
-0.08114
-0.08114
-0.08114
-0.08114
-0.08114
-0.08114
-0.08114
-0.08114
-0.08114
-0.08114
-0.08114
-0.08114
-0.08114
-0.08114
-0.08114
-0.08114
-0.08114
-0.08114
-0.08114
-0.08114
-0.08114
-0.08114
-0.0686569
-0.0686569
-0.0686569
-0.0686569
-0.0686569
-0.0686569
-0.0686569
-0.0686569
-0.0686569
-0.0686569
-0.0686569
-0.0686569
-0.0686569
-0.0686569
-0.0686569
-0.0686569
-0.0686569
-0.0686569
-0.0686569
-0.0686569
-0.0686569
-0.0686569
-0.0686569
-0.0686569
-0.0686569
-0.0686569
-0.0686569
-0.0686569
-0.0686569
-0.0686569
-0.0686569
-0.0686569
-0.0686569
-0.0686569
-0.0686569
-0.0686569
-0.0686569
-0.0686569
-0.0686569
-0.0686569
-0.0686569
-0.0686569
-0.0686569
-0.0686569
-0.0686569
-0.0686569
-0.0686569
-0.0686569
-0.0686569
-0.0686569
-0.0686569
-0.0686569
-0.0686569
-0.0686569
-0.0686569
-0.0686569
-0.0686569
-0.0686569
-0.0686569
-0.0686569
-0.0686569
-0.0686569
-0.0686569
-0.0686569
-0.0686569
-0.0686569
-0.0686569
-0.0686569
-0.0686569
-0.0686569
-0.0686569
-0.0686569
-0.0686569
-0.0686569
-0.0686569
-0.0686569
-0.0686569
-0.0686569
-0.0686569
-0.0686569
-0.0686569
-0.0686569
-0.0686569
-0.0686569
-0.0686569
-0.0686569
-0.0686569
-0.0686569
-0.0686569
-0.0686569
-0.0686569
-0.0686569
-0.0686569
-0.0686569
-0.0686569
-0.0686569
-0.0686569
-0.0686569
-0.0686569
-0.0686569
-0.0686569
-0.0686569
-0.0686569
-0.0686569
-0.0686569
-0.0686569
-0.0686569
-0.0686569
-0.0686569
-0.0686569
-0.0686569
-0.0686569
-0.0561738
-0.0561738
-0.0561738
-0.0561738
-0.0561738
-0.0561738
-0.0561738
-0.0561738
-0.0561738
-0.0561738
-0.0561738
-0.0561738
-0.0561738
-0.0561738
-0.0561738
-0.0561738
-0.0561738
-0.0561738
-0.0561738
-0.0561738
-0.0561738
-0.0561738
-0.0561738
-0.0561738
-0.0561738
-0.0561738
-0.0561738
-0.0561738
-0.0561738
-0.0561738
-0.0561738
-0.0561738
-0.0561738
-0.0561738
-0.0561738
-0.0561738
-0.0561738
-0.0561738
-0.0561738
-0.0561738
-0.0561738
-0.0561738
-0.0561738
-0.0561738
-0.0561738
-0.0561738
-0.0561738
-0.0561738
-0.0561738
-0.0561738
-0.0561738
-0.0561738
-0.0561738
-0.0561738
-0.0561738
-0.0561738
-0.0561738
-0.0561738
-0.0561738
-0.0561738
-0.0561738
-0.0561738
-0.0561738
-0.0561738
-0.0561738
-0.0561738
-0.0561738
-0.0561738
-0.0561738
-0.0561738
-0.0561738
-0.0561738
-0.0561738
-0.0561738
-0.0561738
-0.0561738
-0.0561738
-0.0561738
-0.0561738
-0.0561738
-0.0561738
-0.0561738
-0.0561738
-0.0561738
-0.0561738
-0.0561738
-0.0561738
-0.0561738
-0.0436907
-0.0436907
-0.0436907
-0.0436907
-0.0436907
-0.0436907
-0.0436907
-0.0436907
-0.0436907
-0.0436907
-0.0436907
-0.0436907
-0.0436907
-0.0436907
-0.0436907
-0.0436907
-0.0436907
-0.0436907
-0.0436907
-0.0436907
-0.0436907
-0.0436907
-0.0436907
-0.0436907
-0.0436907
-0.0436907
-0.0436907
-0.0436907
-0.0436907
-0.0436907
-0.0436907
-0.0436907
-0.0436907
-0.0436907
-0.0436907
-0.0436907
-0.0436907
-0.0436907
-0.0436907
-0.0436907
-0.0436907
-0.0436907
-0.0436907
-0.0436907
-0.0436907
-0.0436907
-0.0436907
-0.0436907
-0.0436907
-0.0436907
-0.0436907
-0.0436907
-0.0436907
-0.0436907
-0.0436907
-0.0436907
-0.0436907
-0.0436907
-0.0436907
-0.0436907
-0.0436907
-0.0436907
-0.0436907
-0.0436907
-0.0436907
-0.0436907
-0.0436907
-0.0436907
-0.0436907
-0.0436907
-0.0436907
-0.0436907
-0.0436907
-0.0436907
-0.0436907
-0.0436907
-0.0436907
-0.0436907
-0.0436907
-0.0436907
-0.0436907
-0.0436907
-0.0436907
-0.0436907
-0.0436907
-0.0436907
-0.0436907
-0.0436907
-0.0436907
-0.0312077
-0.0312077
-0.0312077
-0.0312077
-0.0312077
-0.0312077
-0.0312077
-0.0312077
-0.0312077
-0.0312077
-0.0312077
-0.0312077
-0.0312077
-0.0312077
-0.0312077
-0.0312077
-0.0312077
-0.0312077
-0.0312077
-0.0312077
-0.0312077
-0.0312077
-0.0312077
-0.0312077
-0.0312077
-0.0312077
-0.0312077
-0.0312077
-0.0312077
-0.0312077
-0.0312077
-0.0312077
-0.0312077
-0.0312077
-0.0312077
-0.0312077
-0.0312077
-0.0312077
-0.0312077
-0.0312077
-0.0312077
-0.0312077
-0.0312077
-0.0312077
-0.0312077
-0.0312077
-0.0312077
-0.0312077
-0.0312077
-0.0312077
-0.0312077
-0.0312077
-0.0312077
-0.0312077
-0.0312077
-0.0312077
-0.0312077
-0.0312077
-0.0312077
-0.0312077
-0.0312077
-0.0312077
-0.0312077
-0.0312077
-0.0312077
-0.0312077
-0.0312077
-0.0312077
-0.0312077
-0.0312077
-0.0312077
-0.0312077
-0.0312077
-0.0312077
-0.0312077
-0.0312077
-0.0312077
-0.0312077
-0.0312077
-0.0312077
-0.0312077
-0.0312077
-0.0312077
-0.0312077
-0.0312077
-0.0312077
-0.0312077
-0.0312077
-0.0312077
-0.0312077
-0.0312077
-0.0312077
-0.0312077
-0.0312077
-0.0312077
-0.0312077
-0.0312077
-0.0312077
-0.0312077
-0.0312077
-0.0312077
-0.0312077
-0.0312077
-0.0312077
-0.0312077
-0.0312077
-0.0312077
-0.0312077
-0.0312077
-0.0312077
-0.0312077
-0.0187246
-0.0187246
-0.0187246
-0.0187246
-0.0187246
-0.0187246
-0.0187246
-0.0187246
-0.0187246
-0.0187246
-0.0187246
-0.0187246
-0.0187246
-0.0187246
-0.0187246
-0.0187246
-0.0187246
-0.0187246
-0.0187246
-0.0187246
-0.0187246
-0.0187246
-0.0187246
-0.0187246
-0.0187246
-0.0187246
-0.0187246
-0.0187246
-0.0187246
-0.0187246
-0.0187246
-0.0187246
-0.0187246
-0.0187246
-0.0187246
-0.0187246
-0.0187246
-0.0187246
-0.0187246
-0.0187246
-0.0187246
-0.0187246
-0.0187246
-0.0187246
-0.0187246
-0.0187246
-0.0187246
-0.0187246
-0.0187246
-0.0187246
-0.0187246
-0.0187246
-0.0187246
-0.0187246
-0.0187246
-0.0187246
-0.0187246
-0.0187246
-0.0187246
-0.0187246
-0.0187246
-0.0187246
-0.0187246
-0.0187246
-0.0187246
-0.0187246
-0.0187246
-0.0187246
-0.0187246
-0.0187246
-0.0187246
-0.0187246
-0.0187246
-0.0187246
-0.0187246
-0.0187246
-0.0187246
-0.0187246
-0.0187246
-0.0187246
-0.0187246
-0.0187246
-0.0187246
-0.0187246
-0.0187246
-0.0187246
-0.0187246
-0.0187246
-0.0187246
-0.0187246
-0.0187246
-0.0187246
-0.0187246
-0.0187246
-0.0187246
-0.0187246
-0.0187246
-0.0187246
-0.0187246
-0.0187246
-0.0187246
-0.0187246
-0.0187246
-0.0187246
-0.0187246
-0.0187246
-0.0187246
-0.0187246
-0.0187246
-0.0187246
-0.0187246
-0.0187246
-0.0187246
-0.0187246
-0.0187246
-0.0187246
-0.0187246
-0.0187246
-0.0187246
-0.0187246
-0.0187246
-0.0187246
-0.0187246
-0.0187246
-0.0187246
-0.0187246
-0.0187246
-0.0187246
-0.0187246
-0.0187246
-0.0187246
-0.0187246
-0.0187246
-0.0187246
-0.0187246
-0.0187246
-0.0187246
-0.0187246
-0.0187246
-0.0187246
-0.0187246
-0.0187246
-0.0187246
-0.0187246
-0.0187246
-0.0187246
-0.0187246
-0.0187246
-0.0187246
-0.0187246
-0.0187246
-0.0187246
-0.0187246
-0.0187246
-0.0187246
-0.0187246
-0.0187246
-0.0187246
-0.0187246
-0.0187246
-0.0187246
-0.0187246
-0.0187246
-0.0187246
-0.0187246
-0.0187246
-0.0187246
-0.0187246
-0.0187246
-0.0187246
-0.0187246
-0.0187246
-0.00624153
-0.00624153
-0.00624153
-0.00624153
-0.00624153
-0.00624153
-0.00624153
-0.00624153
-0.00624153
-0.00624153
-0.00624153
-0.00624153
-0.00624153
-0.00624153
-0.00624153
-0.00624153
-0.00624153
-0.00624153
-0.00624153
-0.00624153
-0.00624153
-0.00624153
-0.00624153
-0.00624153
-0.00624153
-0.00624153
-0.00624153
-0.00624153
-0.00624153
-0.00624153
-0.00624153
-0.00624153
-0.00624153
-0.00624153
-0.00624153
-0.00624153
-0.00624153
-0.00624153
-0.00624153
-0.00624153
-0.00624153
-0.00624153
-0.00624153
-0.00624153
-0.00624153
-0.00624153
-0.00624153
-0.00624153
-0.00624153
-0.00624153
-0.00624153
-0.00624153
-0.00624153
-0.00624153
-0.00624153
-0.00624153
-0.00624153
-0.00624153
-0.00624153
-0.00624153
-0.00624153
-0.00624153
-0.00624153
-0.00624153
-0.00624153
-0.00624153
-0.00624153
-0.00624153
-0.00624153
-0.00624153
-0.00624153
-0.00624153
-0.00624153
-0.00624153
-0.00624153
-0.00624153
-0.00624153
-0.00624153
-0.00624153
-0.00624153
-0.00624153
-0.00624153
-0.00624153
-0.00624153
-0.00624153
-0.00624153
-0.00624153
-0.00624153
-0.00624153
-0.00624153
-0.00624153
-0.00624153
-0.00624153
-0.00624153
-0.00624153
-0.00624153
-0.00624153
-0.00624153
-0.00624153
-0.00624153
-0.00624153
-0.00624153
-0.00624153
-0.00624153
-0.00624153
-0.00624153
-0.00624153
-0.00624153
-0.00624153
-0.00624153
-0.00624153
-0.00624153
-0.00624153
-0.00624153
-0.00624153
-0.00624153
-0.00624153
-0.00624153
-0.00624153
-0.00624153
-0.00624153
-0.00624153
-0.00624153
-0.00624153
-0.00624153
-0.00624153
-0.00624153
-0.00624153
-0.00624153
-0.00624153
-0.00624153
-0.00624153
-0.00624153
-0.00624153
-0.00624153
-0.00624153
-0.00624153
-0.00624153
-0.00624153
-0.00624153
-0.00624153
-0.00624153
-0.00624153
-0.00624153
-0.00624153
-0.00624153
-0.00624153
-0.00624153
-0.00624153
-0.00624153
-0.00624153
-0.00624153
-0.00624153
-0.00624153
-0.00624153
-0.00624153
-0.00624153
-0.00624153
-0.00624153
-0.00624153
-0.00624153
-0.00624153
-0.00624153
-0.00624153
-0.00624153
-0.00624153
-0.00624153
-0.00624153
-0.00624153
-0.00624153
-0.00624153
-0.00624153
-0.00624153
-0.00624153
-0.00624153
-0.00624153
-0.00624153
-0.00624153
-0.00624153
-0.00624153
-0.00624153
-0.00624153
-0.00624153
-0.00624153
-0.00624153
-0.00624153
-0.00624153
-0.00624153
-0.00624153
-0.00624153
-0.00624153
-0.00624153
-0.00624153
-0.00624153
-0.00624153
-0.00624153
-0.00624153
-0.00624153
-0.00624153
-0.00624153
-0.00624153
-0.00624153
-0.00624153
-0.00624153
-0.00624153
-0.00624153
-0.00624153
-0.00624153
-0.00624153
-0.00624153
-0.00624153
-0.00624153
-0.00624153
-0.00624153
-0.00624153
-0.00624153
-0.00624153
-0.00624153
-0.00624153
-0.00624153
-0.00624153
-0.00624153
-0.00624153
-0.00624153
-0.00624153
-0.00624153
-0.00624153
-0.00624153
-0.00624153
-0.00624153
-0.00624153
-0.00624153
-0.00624153
-0.00624153
-0.00624153
-0.00624153
-0.00624153
-0.00624153
-0.00624153
-0.00624153
-0.00624153
-0.00624153
-0.00624153
-0.00624153
-0.00624153
-0.00624153
-0.00624153
-0.00624153
-0.00624153
-0.00624153
-0.00624153
-0.00624153
-0.00624153
-0.00624153
-0.00624153
-0.00624153
-0.00624153
-0.00624153
-0.00624153
-0.00624153
-0.00624153
-0.00624153
-0.00624153
-0.00624153
-0.00624153
-0.00624153
-0.00624153
-0.00624153
-0.00624153
-0.00624153
-0.00624153
-0.00624153
-0.00624153
-0.00624153
-0.00624153
-0.00624153
-0.00624153
-0.00624153
-0.00624153
-0.00624153
-0.00624153
-0.00624153
-0.00624153
-0.00624153
-0.00624153
-0.00624153
-0.00624153
-0.00624153
-0.00624153
-0.00624153
-0.00624153
-0.00624153
-0.00624153
-0.00624153
-0.00624153
-0.00624153
-0.00624153
-0.00624153
-0.00624153
-0.00624153
-0.00624153
-0.00624153
-0.00624153
-0.00624153
-0.00624153
-0.00624153
-0.00624153
-0.00624153
-0.00624153
-0.00624153
-0.00624153
-0.00624153
-0.00624153
-0.00624153
-0.00624153
-0.00624153
-0.00624153
-0.00624153
-0.00624153
-0.00624153
-0.00624153
-0.00624153
-0.00624153
-0.00624153
-0.00624153
-0.00624153
-0.00624153
-0.00624153
-0.00624153
-0.00624153
-0.00624153
-0.00624153
-0.00624153
-0.00624153
-0.00624153
-0.00624153
-0.00624153
-0.00624153
-0.00624153
-0.00624153
-0.00624153
-0.00624153
-0.00624153
-0.00624153
-0.00624153
-0.00624153
0.00624154
0.00624154
0.00624154
0.00624154
0.00624154
0.00624154
0.00624154
0.00624154
0.00624154
0.00624154
0.00624154
0.00624154
0.00624154
0.00624154
0.00624154
0.00624154
0.00624154
0.00624154
0.00624154
0.00624154
0.00624154
0.00624154
0.00624154
0.00624154
0.00624154
0.00624154
0.00624154
0.00624154
0.00624154
0.00624154
0.00624154
0.00624154
0.00624154
0.00624154
0.00624154
0.00624154
0.00624154
0.00624154
0.00624154
0.00624154
0.00624154
0.00624154
0.00624154
0.00624154
0.00624154
0.00624154
0.00624154
0.00624154
0.00624154
0.00624154
0.00624154
0.00624154
0.00624154
0.00624154
0.00624154
0.00624154
0.00624154
0.00624154
0.00624154
0.00624154
0.00624154
0.00624154
0.00624154
0.00624154
0.00624154
0.00624154
0.00624154
0.00624154
0.00624154
0.00624154
0.00624154
0.00624154
0.00624154
0.00624154
0.00624154
0.00624154
0.00624154
0.00624154
0.00624154
0.00624154
0.00624154
0.00624154
0.00624154
0.00624154
0.00624154
0.00624154
0.00624154
0.00624154
0.00624154
0.00624154
0.00624154
0.00624154
0.00624154
0.00624154
0.00624154
0.00624154
0.00624154
0.00624154
0.00624154
0.00624154
0.00624154
0.00624154
0.00624154
0.00624154
0.00624154
0.00624154
0.00624154
0.00624154
0.00624154
0.00624154
0.00624154
0.00624154
0.00624154
0.00624154
0.00624154
0.00624154
0.00624154
0.00624154
0.00624154
0.00624154
0.00624154
0.00624154
0.00624154
0.00624154
0.00624154
0.00624154
0.00624154
0.00624154
0.00624154
0.00624154
0.00624154
0.00624154
0.00624154
0.00624154
0.00624154
0.00624154
0.00624154
0.00624154
0.00624154
0.00624154
0.00624154
0.00624154
0.00624154
0.00624154
0.00624154
0.00624154
0.00624154
0.00624154
0.00624154
0.00624154
0.00624154
0.00624154
0.00624154
0.00624154
0.00624154
0.00624154
0.00624154
0.00624154
0.00624154
0.00624154
0.00624154
0.00624154
0.00624154
0.00624154
0.00624154
0.00624154
0.00624154
0.00624154
0.00624154
0.00624154
0.00624154
0.00624154
0.00624154
0.00624154
0.00624154
0.00624154
0.00624154
0.00624154
0.00624154
0.00624154
0.00624154
0.00624154
0.00624154
0.00624154
0.00624154
0.00624154
0.00624154
0.00624154
0.00624154
0.00624154
0.00624154
0.00624154
0.00624154
0.00624154
0.00624154
0.00624154
0.00624154
0.00624154
0.00624154
0.00624154
0.00624154
0.00624154
0.00624154
0.00624154
0.00624154
0.00624154
0.00624154
0.00624154
0.00624154
0.00624154
0.00624154
0.00624154
0.00624154
0.00624154
0.00624154
0.00624154
0.00624154
0.00624154
0.00624154
0.00624154
0.00624154
0.00624154
0.00624154
0.00624154
0.00624154
0.00624154
0.00624154
0.00624154
0.00624154
0.00624154
0.00624154
0.00624154
0.00624154
0.00624154
0.00624154
0.00624154
0.00624154
0.00624154
0.00624154
0.00624154
0.00624154
0.00624154
0.00624154
0.00624154
0.00624154
0.00624154
0.00624154
0.00624154
0.00624154
0.00624154
0.00624154
0.00624154
0.00624154
0.00624154
0.00624154
0.00624154
0.00624154
0.00624154
0.00624154
0.00624154
0.00624154
0.00624154
0.00624154
0.00624154
0.00624154
0.00624154
0.00624154
0.00624154
0.00624154
0.00624154
0.00624154
0.00624154
0.00624154
0.00624154
0.00624154
0.00624154
0.00624154
0.00624154
0.00624154
0.00624154
0.00624154
0.00624154
0.00624154
0.00624154
0.00624154
0.00624154
0.00624154
0.00624154
0.00624154
0.00624154
0.00624154
0.00624154
0.00624154
0.00624154
0.0187246
0.0187246
0.0187246
0.0187246
0.0187246
0.0187246
0.0187246
0.0187246
0.0187246
0.0187246
0.0187246
0.0187246
0.0187246
0.0187246
0.0187246
0.0187246
0.0187246
0.0187246
0.0187246
0.0187246
0.0187246
0.0187246
0.0187246
0.0187246
0.0187246
0.0187246
0.0187246
0.0187246
0.0187246
0.0187246
0.0187246
0.0187246
0.0187246
0.0187246
0.0187246
0.0187246
0.0187246
0.0187246
0.0187246
0.0187246
0.0187246
0.0187246
0.0187246
0.0187246
0.0187246
0.0187246
0.0187246
0.0187246
0.0187246
0.0187246
0.0187246
0.0187246
0.0187246
0.0187246
0.0187246
0.0187246
0.0187246
0.0187246
0.0187246
0.0187246
0.0187246
0.0187246
0.0187246
0.0187246
0.0187246
0.0187246
0.0187246
0.0187246
0.0187246
0.0187246
0.0187246
0.0187246
0.0187246
0.0187246
0.0187246
0.0187246
0.0187246
0.0187246
0.0187246
0.0187246
0.0187246
0.0187246
0.0187246
0.0187246
0.0187246
0.0187246
0.0187246
0.0187246
0.0187246
0.0187246
0.0187246
0.0187246
0.0187246
0.0187246
0.0187246
0.0187246
0.0187246
0.0187246
0.0187246
0.0187246
0.0187246
0.0187246
0.0187246
0.0187246
0.0187246
0.0187246
0.0187246
0.0187246
0.0187246
0.0187246
0.0187246
0.0187246
0.0187246
0.0187246
0.0187246
0.0187246
0.0187246
0.0187246
0.0187246
0.0187246
0.0187246
0.0187246
0.0187246
0.0187246
0.0187246
0.0187246
0.0187246
0.0187246
0.0187246
0.0187246
0.0187246
0.0187246
0.0187246
0.0187246
0.0187246
0.0187246
0.0187246
0.0187246
0.0187246
0.0187246
0.0187246
0.0187246
0.0187246
0.0187246
0.0187246
0.0187246
0.0187246
0.0187246
0.0187246
0.0187246
0.0187246
0.0187246
0.0187246
0.0187246
0.0187246
0.0187246
0.0187246
0.0187246
0.0187246
0.0187246
0.0187246
0.0187246
0.0187246
0.0187246
0.0187246
0.0187246
0.0187246
0.0187246
0.0187246
0.0187246
0.0187246
0.0187246
0.0187246
0.0187246
0.0187246
0.0187246
0.0187246
0.0187246
0.0187246
0.0187246
0.0187246
0.0187246
0.0187246
0.0187246
0.0187246
0.0187246
0.0312077
0.0312077
0.0312077
0.0312077
0.0312077
0.0312077
0.0312077
0.0312077
0.0312077
0.0312077
0.0312077
0.0312077
0.0312077
0.0312077
0.0312077
0.0312077
0.0312077
0.0312077
0.0312077
0.0312077
0.0312077
0.0312077
0.0312077
0.0312077
0.0312077
0.0312077
0.0312077
0.0312077
0.0312077
0.0312077
0.0312077
0.0312077
0.0312077
0.0312077
0.0312077
0.0312077
0.0312077
0.0312077
0.0312077
0.0312077
0.0312077
0.0312077
0.0312077
0.0312077
0.0312077
0.0312077
0.0312077
0.0312077
0.0312077
0.0312077
0.0312077
0.0312077
0.0312077
0.0312077
0.0312077
0.0312077
0.0312077
0.0312077
0.0312077
0.0312077
0.0312077
0.0312077
0.0312077
0.0312077
0.0312077
0.0312077
0.0312077
0.0312077
0.0312077
0.0312077
0.0312077
0.0312077
0.0312077
0.0312077
0.0312077
0.0312077
0.0312077
0.0312077
0.0312077
0.0312077
0.0312077
0.0312077
0.0312077
0.0312077
0.0312077
0.0312077
0.0312077
0.0312077
0.0312077
0.0312077
0.0312077
0.0312077
0.0312077
0.0312077
0.0312077
0.0312077
0.0312077
0.0312077
0.0312077
0.0312077
0.0312077
0.0312077
0.0312077
0.0312077
0.0312077
0.0312077
0.0312077
0.0312077
0.0312077
0.0312077
0.0312077
0.0312077
0.0312077
0.0312077
0.0312077
0.0312077
0.0312077
0.0312077
0.0312077
0.0312077
0.0312077
0.0312077
0.0312077
0.0312077
0.0312077
0.0312077
0.0312077
0.0312077
0.0312077
0.0312077
0.0312077
0.0312077
0.0312077
0.0312077
0.0312077
0.0312077
0.0312077
0.0312077
0.0312077
0.0312077
0.0312077
0.0312077
0.0436908
0.0436908
0.0436908
0.0436908
0.0436908
0.0436908
0.0436908
0.0436908
0.0436908
0.0436908
0.0436908
0.0436908
0.0436908
0.0436908
0.0436908
0.0436908
0.0436908
0.0436908
0.0436908
0.0436908
0.0436908
0.0436908
0.0436908
0.0436908
0.0436908
0.0436908
0.0436908
0.0436908
0.0436908
0.0436908
0.0436908
0.0436908
0.0436908
0.0436908
0.0436908
0.0436908
0.0436908
0.0436908
0.0436908
0.0436908
0.0436908
0.0436908
0.0436908
0.0436908
0.0436908
0.0436908
0.0436908
0.0436908
0.0436908
0.0436908
0.0436908
0.0436908
0.0436908
0.0436908
0.0436908
0.0436908
0.0436908
0.0436908
0.0436908
0.0436908
0.0436908
0.0436908
0.0436908
0.0436908
0.0436908
0.0436908
0.0436908
0.0436908
0.0436908
0.0436908
0.0436908
0.0436908
0.0436908
0.0436908
0.0436908
0.0436908
0.0436908
0.0436908
0.0436908
0.0436908
0.0436908
0.0436908
0.0436908
0.0436908
0.0436908
0.0436908
0.0436908
0.0436908
0.0436908
0.0436908
0.0436908
0.0436908
0.0436908
0.0436908
0.0436908
0.0436908
0.0436908
0.0436908
0.0436908
0.0436908
0.0436908
0.0436908
0.0436908
0.0436908
0.0436908
0.0436908
0.0436908
0.0436908
0.0436908
0.0436908
0.0436908
0.0436908
0.0436908
0.0436908
0.0436908
0.0436908
0.0436908
0.0436908
0.0436908
0.0436908
0.0436908
0.0436908
0.0561738
0.0561738
0.0561738
0.0561738
0.0561738
0.0561738
0.0561738
0.0561738
0.0561738
0.0561738
0.0561738
0.0561738
0.0561738
0.0561738
0.0561738
0.0561738
0.0561738
0.0561738
0.0561738
0.0561738
0.0561738
0.0561738
0.0561738
0.0561738
0.0561738
0.0561738
0.0561738
0.0561738
0.0561738
0.0561738
0.0561738
0.0561738
0.0561738
0.0561738
0.0561738
0.0561738
0.0561738
0.0561738
0.0561738
0.0561738
0.0561738
0.0561738
0.0561738
0.0561738
0.0561738
0.0561738
0.0561738
0.0561738
0.0561738
0.0561738
0.0561738
0.0561738
0.0561738
0.0561738
0.0561738
0.0561738
0.0561738
0.0561738
0.0561738
0.0561738
0.0561738
0.0561738
0.0561738
0.0561738
0.0561738
0.0561738
0.0561738
0.0561738
0.0561738
0.0561738
0.0561738
0.0561738
0.0561738
0.0561738
0.0561738
0.0561738
0.0561738
0.0561738
0.0561738
0.0561738
0.0561738
0.0561738
0.0561738
0.0561738
0.0561738
0.0561738
0.0561738
0.0561738
0.0561738
0.0561738
0.0561738
0.0561738
0.0561738
0.0561738
0.0561738
0.0561738
0.0561738
0.0561738
0.0561738
0.0561738
0.0561738
0.0561738
0.0561738
0.0561738
0.0561738
0.0561738
0.0561738
0.0561738
0.0561738
0.0561738
0.0561738
0.0561738
0.0561738
0.0561738
0.0561738
0.0561738
0.0561738
0.0561738
0.0561738
0.0561738
0.0561738
0.0561738
0.0561738
0.0561738
0.0561738
0.0561738
0.0561738
0.0561738
0.0561738
0.0561738
0.0561738
0.0561738
0.0561738
0.0561738
0.0561738
0.0561738
0.0561738
0.0561738
0.0561738
0.0561738
0.0561738
0.0561738
0.0561738
0.0561738
0.0561738
0.0561738
0.0561738
0.0561738
0.0561738
0.0561738
0.0561738
0.0561738
0.0561738
0.0561738
0.0561738
0.0561738
0.0561738
0.0561738
0.0561738
0.0686569
0.0686569
0.0686569
0.0686569
0.0686569
0.0686569
0.0686569
0.0686569
0.0686569
0.0686569
0.0686569
0.0686569
0.0686569
0.0686569
0.0686569
0.0686569
0.0686569
0.0686569
0.0686569
0.0686569
0.0686569
0.0686569
0.0686569
0.0686569
0.0686569
0.0686569
0.0686569
0.0686569
0.0686569
0.0686569
0.0686569
0.0686569
0.0686569
0.0686569
0.0686569
0.0686569
0.0686569
0.0686569
0.0686569
0.0686569
0.0686569
0.0686569
0.0686569
0.0686569
0.0686569
0.0686569
0.0686569
0.0686569
0.0686569
0.0686569
0.0686569
0.0686569
0.0686569
0.0686569
0.0686569
0.0686569
0.0686569
0.0686569
0.0686569
0.0686569
0.0686569
0.0686569
0.0686569
0.0686569
0.0686569
0.0686569
0.0686569
0.0686569
0.0686569
0.0686569
0.0686569
0.0686569
0.0686569
0.0686569
0.0686569
0.0686569
0.0686569
0.0686569
0.0686569
0.0686569
0.0686569
0.0686569
0.0686569
0.0686569
0.0686569
0.0686569
0.0686569
0.0686569
0.0686569
0.0686569
0.0686569
0.0686569
0.0686569
0.0686569
0.0686569
0.0686569
0.0686569
0.0686569
0.0686569
0.0686569
0.0686569
0.0686569
0.0686569
0.0686569
0.0686569
0.0686569
0.0686569
0.0686569
0.0686569
0.0686569
0.0686569
0.0686569
0.0686569
0.0686569
0.0686569
0.0686569
0.0686569
0.0686569
0.0686569
0.0686569
0.0686569
0.0686569
0.0686569
0.08114
0.08114
0.08114
0.08114
0.08114
0.08114
0.08114
0.08114
0.08114
0.08114
0.08114
0.08114
0.08114
0.08114
0.08114
0.08114
0.08114
0.08114
0.08114
0.08114
0.08114
0.08114
0.08114
0.08114
0.08114
0.08114
0.08114
0.08114
0.08114
0.08114
0.08114
0.08114
0.08114
0.08114
0.08114
0.08114
0.08114
0.08114
0.08114
0.08114
0.08114
0.08114
0.08114
0.08114
0.08114
0.08114
0.08114
0.08114
0.08114
0.08114
0.08114
0.08114
0.08114
0.08114
0.08114
0.08114
0.08114
0.08114
0.08114
0.08114
0.08114
0.08114
0.08114
0.08114
0.08114
0.08114
0.08114
0.08114
0.08114
0.08114
0.08114
0.08114
0.08114
0.08114
0.08114
0.08114
0.08114
0.08114
0.08114
0.08114
0.08114
0.08114
0.08114
0.08114
0.08114
0.08114
0.08114
0.08114
0.08114
0.08114
0.08114
0.08114
0.08114
0.08114
0.08114
0.08114
0.08114
0.08114
0.08114
0.08114
0.08114
0.08114
0.08114
0.08114
0.08114
0.08114
0.08114
0.08114
0.08114
0.08114
0.08114
0.08114
0.08114
0.08114
0.08114
0.08114
0.08114
0.08114
0.08114
0.08114
0.08114
0.08114
0.08114
0.08114
0.08114
0.08114
0.08114
0.08114
0.08114
0.08114
0.08114
0.08114
0.08114
0.08114
0.08114
0.08114
0.08114
0.08114
0.08114
0.08114
0.08114
0.08114
0.08114
0.08114
0.08114
0.08114
0.08114
0.08114
0.08114
0.08114
0.08114
0.08114
0.08114
0.08114
0.08114
0.08114
0.08114
0.08114
0.093623
0.093623
0.093623
0.093623
0.093623
0.093623
0.093623
0.093623
0.093623
0.093623
0.093623
0.093623
0.093623
0.093623
0.093623
0.093623
0.093623
0.093623
0.093623
0.093623
0.093623
0.093623
0.093623
0.093623
0.093623
0.093623
0.093623
0.093623
0.093623
0.093623
0.093623
0.093623
0.093623
0.093623
0.093623
0.093623
0.093623
0.093623
0.093623
0.093623
0.093623
0.093623
0.093623
0.093623
0.093623
0.093623
0.093623
0.093623
0.093623
0.093623
0.093623
0.093623
0.093623
0.093623
0.093623
0.093623
0.093623
0.093623
0.093623
0.093623
0.093623
0.093623
0.093623
0.093623
