-0.198837
-0.198837
-0.198837
-0.198837
-0.198837
-0.198837
-0.198837
-0.198837
-0.198837
-0.198837
-0.172326
-0.172326
-0.172326
-0.172326
-0.172326
-0.172326
-0.172326
-0.145814
-0.145814
-0.145814
-0.145814
-0.119302
-0.119302
-0.119302
-0.119302
-0.119302
-0.119302
-0.119302
-0.119302
-0.119302
-0.119302
-0.119302
-0.119302
-0.119302
-0.0927908
-0.0927908
-0.0927908
-0.0927908
-0.0927908
-0.0927908
-0.0927908
-0.0927908
-0.0927908
-0.0927908
-0.0927908
-0.0927908
-0.0927908
-0.0927908
-0.0927908
-0.0927908
-0.0927908
-0.0927908
-0.0927908
-0.0927908
-0.0927908
-0.0927908
-0.0927908
-0.0927908
-0.0927908
-0.0927908
-0.0927908
-0.0927908
-0.0927908
-0.0927908
-0.0927908
-0.0927908
-0.0927908
-0.0662791
-0.0662791
-0.0662791
-0.0662791
-0.0662791
-0.0662791
-0.0662791
-0.0662791
-0.0662791
-0.0662791
-0.0662791
-0.0662791
-0.0662791
-0.0662791
-0.0662791
-0.0662791
-0.0662791
-0.0662791
-0.0662791
-0.0662791
-0.0662791
-0.0662791
-0.0662791
-0.0662791
-0.0662791
-0.0662791
-0.0662791
-0.0662791
-0.0662791
-0.0662791
-0.0662791
-0.0662791
-0.0662791
-0.0662791
-0.0662791
-0.0662791
-0.0662791
-0.0662791
-0.0662791
-0.0662791
-0.0662791
-0.0662791
-0.0662791
-0.0662791
-0.0662791
-0.0662791
-0.0662791
-0.0397675
-0.0397675
-0.0397675
-0.0397675
-0.0397675
-0.0397675
-0.0397675
-0.0397675
-0.0397675
-0.0397675
-0.0397675
-0.0397675
-0.0397675
-0.0397675
-0.0397675
-0.0397675
-0.0397675
-0.0397675
-0.0397675
-0.0397675
-0.0397675
-0.0397675
-0.0397675
-0.0397675
-0.0397675
-0.0397675
-0.0397675
-0.0397675
-0.0397675
-0.0397675
-0.0397675
-0.0397675
-0.0397675
-0.0397675
-0.0132558
-0.0132558
-0.0132558
-0.0132558
-0.0132558
-0.0132558
-0.0132558
-0.0132558
-0.0132558
-0.0132558
-0.0132558
-0.0132558
-0.0132558
-0.0132558
-0.0132558
-0.0132558
-0.0132558
-0.0132558
-0.0132558
-0.0132558
-0.0132558
-0.0132558
-0.0132558
-0.0132558
-0.0132558
-0.0132558
-0.0132558
-0.0132558
-0.0132558
0.0132558
0.0132558
0.0132558
0.0132558
0.0132558
0.0132558
0.0132558
0.0132558
0.0132558
0.0132558
0.0132558
0.0132558
0.0132558
0.0132558
0.0132558
0.0132558
0.0132558
0.0132558
0.0132558
0.0132558
0.0132558
0.0132558
0.0132558
0.0132558
0.0132558
0.0132558
0.0132558
0.0132558
0.0132558
0.0132558
0.0397675
0.0397675
0.0397675
0.0397675
0.0397675
0.0397675
0.0397675
0.0397675
0.0397675
0.0397675
0.0397675
0.0397675
0.0397675
0.0397675
0.0397675
0.0397675
0.0397675
0.0397675
0.0397675
0.0397675
0.0397675
0.0397675
0.0397675
0.0397675
0.0397675
0.0397675
0.0397675
0.0397675
0.0662792
0.0662792
0.0662792
0.0662792
0.0662792
0.0662792
0.0662792
0.0662792
0.0662792
0.0662792
0.0662792
0.0662792
0.0662792
0.0662792
0.0662792
0.0662792
0.0662792
0.0662792
0.0662792
0.0662792
0.0927908
0.0927908
0.0927908
0.0927908
0.0927908
0.0927908
0.0927908
0.0927908
0.0927908
0.0927908
0.0927908
0.0927908
0.0927908
0.0927908
0.0927908
0.0927908
0.0927908
0.0927908
0.0927908
0.0927908
0.0927908
0.0927908
0.0927908
0.0927908
0.0927908
0.119302
0.119302
0.119302
0.119302
0.119302
0.119302
0.119302
0.119302
0.119302
0.119302
0.119302
0.119302
0.119302
0.119302
0.119302
0.119302
0.145814
0.145814
0.145814
0.172326
