-0.665645
-0.665645
-0.665645
-0.665645
-0.665645
-0.665645
-0.665645
-0.665645
-0.665645
-0.665645
-0.665645
-0.665645
-0.665645
-0.665645
-0.665645
-0.665645
-0.665645
-0.665645
-0.665645
-0.665645
-0.576892
-0.576892
-0.576892
-0.576892
-0.576892
-0.576892
-0.576892
-0.576892
-0.576892
-0.576892
-0.576892
-0.576892
-0.576892
-0.576892
-0.576892
-0.576892
-0.576892
-0.576892
-0.576892
-0.576892
-0.576892
-0.576892
-0.576892
-0.576892
-0.576892
-0.576892
-0.576892
-0.576892
-0.576892
-0.576892
-0.576892
-0.576892
-0.576892
-0.576892
-0.576892
-0.576892
-0.576892
-0.576892
-0.576892
-0.576892
-0.576892
-0.576892
-0.576892
-0.576892
-0.576892
-0.576892
-0.576892
-0.576892
-0.576892
-0.576892
-0.576892
-0.576892
-0.576892
-0.576892
-0.576892
-0.576892
-0.576892
-0.576892
-0.576892
-0.576892
-0.576892
-0.576892
-0.576892
-0.576892
-0.576892
-0.576892
-0.576892
-0.576892
-0.576892
-0.488139
-0.488139
-0.488139
-0.488139
-0.488139
-0.488139
-0.488139
-0.488139
-0.488139
-0.488139
-0.488139
-0.488139
-0.488139
-0.488139
-0.488139
-0.488139
-0.488139
-0.488139
-0.488139
-0.488139
-0.488139
-0.488139
-0.488139
-0.488139
-0.488139
-0.488139
-0.488139
-0.488139
-0.488139
-0.488139
-0.488139
-0.488139
-0.488139
-0.488139
-0.488139
-0.488139
-0.488139
-0.488139
-0.488139
-0.488139
-0.488139
-0.488139
-0.488139
-0.488139
-0.488139
-0.488139
-0.488139
-0.488139
-0.488139
-0.488139
-0.488139
-0.488139
-0.399387
-0.399387
-0.399387
-0.399387
-0.399387
-0.399387
-0.399387
-0.399387
-0.399387
-0.399387
-0.399387
-0.399387
-0.399387
-0.399387
-0.399387
-0.399387
-0.399387
-0.399387
-0.399387
-0.399387
-0.399387
-0.399387
-0.399387
-0.399387
-0.399387
-0.399387
-0.399387
-0.399387
-0.399387
-0.399387
-0.399387
-0.399387
-0.399387
-0.399387
-0.399387
-0.399387
-0.399387
-0.399387
-0.310634
-0.310634
-0.310634
-0.310634
-0.310634
-0.310634
-0.310634
-0.310634
-0.310634
-0.310634
-0.310634
-0.310634
-0.310634
-0.310634
-0.310634
-0.310634
-0.310634
-0.310634
-0.310634
-0.310634
-0.310634
-0.310634
-0.310634
-0.310634
-0.310634
-0.310634
-0.310634
-0.310634
-0.310634
-0.310634
-0.310634
-0.310634
-0.310634
-0.310634
-0.310634
-0.310634
-0.310634
-0.310634
-0.310634
-0.310634
-0.310634
-0.310634
-0.310634
-0.310634
-0.221882
-0.221882
-0.221882
-0.221882
-0.221882
-0.221882
-0.221882
-0.221882
-0.221882
-0.221882
-0.221882
-0.221882
-0.221882
-0.221882
-0.221882
-0.221882
-0.221882
-0.221882
-0.221882
-0.221882
-0.221882
-0.221882
-0.221882
-0.221882
-0.221882
-0.221882
-0.221882
-0.221882
-0.133129
-0.133129
-0.133129
-0.133129
-0.133129
-0.133129
-0.133129
-0.133129
-0.133129
-0.133129
-0.133129
-0.133129
-0.133129
-0.133129
-0.133129
-0.133129
-0.133129
-0.133129
-0.133129
-0.133129
-0.133129
-0.133129
-0.133129
-0.133129
-0.133129
-0.133129
-0.133129
-0.133129
-0.133129
-0.133129
-0.133129
-0.133129
-0.133129
-0.133129
-0.133129
-0.133129
-0.133129
-0.133129
-0.133129
-0.133129
-0.133129
-0.133129
-0.133129
-0.0443763
-0.0443763
-0.0443763
-0.0443763
-0.0443763
-0.0443763
-0.0443763
-0.0443763
-0.0443763
-0.0443763
-0.0443763
-0.0443763
-0.0443763
-0.0443763
-0.0443763
-0.0443763
-0.0443763
-0.0443763
-0.0443763
-0.0443763
-0.0443763
-0.0443763
-0.0443763
-0.0443763
-0.0443763
-0.0443763
-0.0443763
-0.0443763
-0.0443763
-0.0443763
-0.0443763
-0.0443763
-0.0443763
-0.0443763
-0.0443763
-0.0443763
-0.0443763
-0.0443763
-0.0443763
-0.0443763
-0.0443763
-0.0443763
-0.0443763
-0.0443763
-0.0443763
-0.0443763
-0.0443763
-0.0443763
-0.0443763
-0.0443763
-0.0443763
-0.0443763
-0.0443763
-0.0443763
-0.0443763
-0.0443763
-0.0443763
-0.0443763
-0.0443763
-0.0443763
-0.0443763
-0.0443763
-0.0443763
-0.0443763
-0.0443763
-0.0443763
-0.0443763
-0.0443763
-0.0443763
-0.0443763
-0.0443763
-0.0443763
-0.0443763
-0.0443763
-0.0443763
-0.0443763
-0.0443763
-0.0443763
-0.0443763
-0.0443763
-0.0443763
-0.0443763
-0.0443763
-0.0443763
-0.0443763
-0.0443763
-0.0443763
-0.0443763
-0.0443763
-0.0443763
-0.0443763
-0.0443763
-0.0443763
-0.0443763
-0.0443763
-0.0443763
-0.0443763
-0.0443763
-0.0443763
-0.0443763
-0.0443763
-0.0443763
-0.0443763
-0.0443763
-0.0443763
-0.0443763
-0.0443763
-0.0443763
-0.0443763
-0.0443763
-0.0443763
-0.0443763
-0.0443763
-0.0443763
-0.0443763
-0.0443763
-0.0443763
-0.0443763
-0.0443763
-0.0443763
-0.0443763
-0.0443763
-0.0443763
-0.0443763
-0.0443763
-0.0443763
-0.0443763
-0.0443763
-0.0443763
-0.0443763
-0.0443763
-0.0443763
-0.0443763
-0.0443763
-0.0443763
-0.0443763
-0.0443763
-0.0443763
-0.0443763
-0.0443763
-0.0443763
-0.0443763
-0.0443763
-0.0443763
-0.0443763
-0.0443763
-0.0443763
-0.0443763
-0.0443763
-0.0443763
-0.0443763
-0.0443763
-0.0443763
-0.0443763
-0.0443763
-0.0443763
-0.0443763
-0.0443763
-0.0443763
0.0443763
0.0443763
0.0443763
0.0443763
0.0443763
0.0443763
0.0443763
0.0443763
0.0443763
0.0443763
0.0443763
0.0443763
0.0443763
0.0443763
0.0443763
0.0443763
0.0443763
0.0443763
0.0443763
0.0443763
0.0443763
0.0443763
0.0443763
0.0443763
0.0443763
0.0443763
0.0443763
0.0443763
0.0443763
0.0443763
0.0443763
0.0443763
0.0443763
0.0443763
0.0443763
0.0443763
0.0443763
0.0443763
0.0443763
0.0443763
0.0443763
0.0443763
0.0443763
0.0443763
0.0443763
0.0443763
0.0443763
0.0443763
0.0443763
0.0443763
0.0443763
0.0443763
0.0443763
0.0443763
0.0443763
0.0443763
0.0443763
0.0443763
0.0443763
0.0443763
0.0443763
0.0443763
0.0443763
0.0443763
0.0443763
0.0443763
0.0443763
0.0443763
0.0443763
0.0443763
0.0443763
0.0443763
0.0443763
0.0443763
0.0443763
0.0443763
0.0443763
0.0443763
0.0443763
0.0443763
0.0443763
0.0443763
0.0443763
0.0443763
0.0443763
0.0443763
0.0443763
0.0443763
0.0443763
0.0443763
0.0443763
0.0443763
0.0443763
0.0443763
0.0443763
0.0443763
0.0443763
0.0443763
0.0443763
0.0443763
0.0443763
0.0443763
0.0443763
0.0443763
0.0443763
0.0443763
0.0443763
0.0443763
0.0443763
0.0443763
0.0443763
0.0443763
0.0443763
0.0443763
0.0443763
0.0443763
0.0443763
0.0443763
0.133129
0.133129
0.133129
0.133129
0.133129
0.133129
0.133129
0.133129
0.133129
0.133129
0.133129
0.133129
0.133129
0.133129
0.133129
0.133129
0.133129
0.133129
0.133129
0.133129
0.133129
0.133129
0.133129
0.133129
0.133129
0.133129
0.133129
0.133129
0.133129
0.133129
0.133129
0.133129
0.133129
0.133129
0.133129
0.133129
0.133129
0.133129
0.133129
0.133129
0.133129
0.133129
0.133129
0.133129
0.133129
0.133129
0.133129
0.133129
0.133129
0.133129
0.133129
0.133129
0.133129
0.133129
0.133129
0.133129
0.133129
0.133129
0.133129
0.221882
0.221882
0.221882
0.221882
0.221882
0.221882
0.221882
0.221882
0.221882
0.221882
0.221882
0.221882
0.221882
0.221882
0.221882
0.221882
0.221882
0.221882
0.221882
0.221882
0.221882
0.221882
0.221882
0.221882
0.221882
0.221882
0.221882
0.221882
0.221882
0.221882
0.221882
0.221882
0.221882
0.221882
0.221882
0.221882
0.221882
0.221882
0.221882
0.221882
0.221882
0.221882
0.221882
0.221882
0.221882
0.221882
0.221882
0.221882
0.221882
0.221882
0.221882
0.221882
0.221882
0.221882
0.221882
0.221882
0.221882
0.221882
0.221882
0.221882
0.221882
0.310634
0.310634
0.310634
0.310634
0.310634
0.310634
0.310634
0.310634
0.310634
0.310634
0.310634
0.310634
0.310634
0.310634
0.310634
0.310634
0.310634
0.310634
0.310634
0.310634
0.310634
0.310634
0.310634
0.310634
0.310634
0.310634
0.310634
0.310634
0.310634
0.310634
0.310634
0.310634
0.310634
0.310634
0.310634
0.310634
0.310634
0.310634
0.310634
0.310634
0.310634
0.310634
0.310634
0.310634
0.310634
0.310634
0.310634
0.310634
0.310634
0.310634
0.310634
0.310634
0.310634
0.310634
0.310634
0.310634
0.310634
0.310634
0.310634
0.310634
0.310634
0.310634
0.310634
0.310634
0.310634
0.399387
0.399387
0.399387
0.399387
0.399387
0.399387
0.399387
0.399387
0.399387
0.399387
0.399387
0.399387
0.399387
0.399387
0.399387
0.399387
0.399387
0.399387
0.399387
0.399387
0.399387
0.399387
0.399387
0.399387
0.399387
0.399387
0.399387
0.399387
0.399387
0.399387
0.399387
0.399387
0.399387
0.399387
0.399387
0.399387
0.399387
0.399387
0.399387
0.399387
0.399387
0.399387
0.399387
0.48814
0.48814
0.48814
0.48814
0.48814
0.48814
0.48814
0.48814
0.48814
0.48814
0.48814
0.48814
0.48814
0.48814
0.48814
0.48814
0.48814
0.48814
0.48814
0.48814
0.48814
0.48814
0.48814
0.48814
0.576892
0.576892
0.576892
0.576892
0.576892
0.576892
0.576892
0.576892
0.576892
0.576892
0.576892
0.576892
0.576892
0.576892
0.576892
0.576892
0.665645
