-0.195763
-0.191157
-0.186551
-0.181945
-0.180409
-0.171197
-0.168126
-0.166591
-0.165055
-0.16352
-0.157378
-0.157378
-0.155843
-0.154308
-0.154308
-0.151237
-0.149701
-0.149701
-0.149701
-0.148166
-0.146631
-0.146631
-0.146631
-0.146631
-0.146631
-0.142024
-0.142024
-0.140489
-0.138954
-0.138954
-0.137418
-0.137418
-0.137418
-0.135883
-0.135883
-0.135883
-0.134347
-0.134347
-0.132812
-0.132812
-0.131277
-0.131277
-0.131277
-0.128206
-0.12667
-0.12667
-0.12667
-0.125135
-0.125135
-0.1236
-0.1236
-0.1236
-0.122064
-0.122064
-0.122064
-0.122064
-0.122064
-0.120529
-0.120529
-0.120529
-0.118993
-0.118993
-0.117458
-0.115923
-0.115923
-0.115923
-0.114387
-0.114387
-0.114387
-0.114387
-0.112852
-0.112852
-0.112852
-0.112852
-0.112852
-0.112852
-0.112852
-0.111316
-0.111316
-0.111316
-0.111316
-0.111316
-0.109781
-0.109781
-0.108246
-0.108246
-0.108246
-0.10671
-0.10671
-0.10671
-0.10671
-0.10671
-0.10671
-0.10671
-0.10671
-0.10671
-0.10671
-0.105175
-0.103639
-0.103639
-0.103639
-0.103639
-0.103639
-0.102104
-0.102104
-0.100569
-0.100569
-0.100569
-0.0990332
-0.0990332
-0.0990332
-0.0990332
-0.0974978
-0.0974978
-0.0959624
-0.0959624
-0.0959624
-0.0959624
-0.0959624
-0.0959624
-0.094427
-0.094427
-0.094427
-0.094427
-0.0928916
-0.0928916
-0.0928916
-0.0928916
-0.0913562
-0.0913562
-0.0913562
-0.0898208
-0.0898208
-0.0898208
-0.0898208
-0.0898208
-0.0898208
-0.0882854
-0.0882854
-0.0882854
-0.0882854
-0.0882854
-0.0882854
-0.0882854
-0.0882854
-0.0852146
-0.0852146
-0.0852146
-0.0852146
-0.0852146
-0.0836792
-0.0836792
-0.0836792
-0.0836792
-0.0836792
-0.0836792
-0.0821438
-0.0821438
-0.0806084
-0.0806084
-0.0806084
-0.0806084
-0.0806084
-0.0806084
-0.0806084
-0.0806084
-0.0806084
-0.0806084
-0.0806084
-0.0806084
-0.079073
-0.079073
-0.079073
-0.079073
-0.079073
-0.079073
-0.0775376
-0.0775376
-0.0775376
-0.0775376
-0.0775376
-0.0775376
-0.0775376
-0.0775376
-0.0760022
-0.0760022
-0.0760022
-0.0760022
-0.0760022
-0.0760022
-0.0760022
-0.0760022
-0.0744668
-0.0744668
-0.0744668
-0.0744668
-0.0744668
-0.0744668
-0.0729314
-0.0729314
-0.0729314
-0.0729314
-0.0729314
-0.0729314
-0.0729314
-0.0729314
-0.0729314
-0.071396
-0.071396
-0.071396
-0.071396
-0.0698606
-0.0698606
-0.0698606
-0.0698606
-0.0698606
-0.0698606
-0.0698606
-0.0683252
-0.0683252
-0.0683252
-0.0683252
-0.0683252
-0.0683252
-0.0683252
-0.0667898
-0.0667898
-0.0667898
-0.0667898
-0.0667898
-0.0652544
-0.0652544
-0.0652544
-0.0652544
-0.0652544
-0.0652544
-0.0652544
-0.0652544
-0.0652544
-0.0652544
-0.063719
-0.063719
-0.063719
-0.063719
-0.063719
-0.063719
-0.063719
-0.0621836
-0.0621836
-0.0621836
-0.0621836
-0.0621836
-0.0621836
-0.0621836
-0.0621836
-0.0606482
-0.0606482
-0.0606482
-0.0606482
-0.0591128
-0.0591128
-0.0591128
-0.0591128
-0.0591128
-0.0591128
-0.0591128
-0.0591128
-0.0591128
-0.0591128
-0.0575774
-0.0575774
-0.0575774
-0.0575774
-0.0575774
-0.0575774
-0.0575774
-0.0575774
-0.0575774
-0.0575774
-0.0575774
-0.0575774
-0.0575774
-0.0575774
-0.0575774
-0.056042
-0.056042
-0.056042
-0.056042
-0.056042
-0.056042
-0.056042
-0.056042
-0.056042
-0.056042
-0.0545066
-0.0545066
-0.0545066
-0.0545066
-0.0545066
-0.0545066
-0.0545066
-0.0545066
-0.0545066
-0.0545066
-0.0545066
-0.0545066
-0.0529712
-0.0529712
-0.0529712
-0.0529712
-0.0529712
-0.0529712
-0.0529712
-0.0529712
-0.0529712
-0.0529712
-0.0529712
-0.0529712
-0.0529712
-0.0529712
-0.0529712
-0.0514358
-0.0514358
-0.0514358
-0.0514358
-0.0514358
-0.0514358
-0.0514358
-0.0514358
-0.0514358
-0.0514358
-0.0499004
-0.0499004
-0.0499004
-0.0499004
-0.0499004
-0.0499004
-0.0499004
-0.0499004
-0.0499004
-0.0499004
-0.0499004
-0.048365
-0.048365
-0.048365
-0.048365
-0.048365
-0.048365
-0.048365
-0.048365
-0.048365
-0.048365
-0.048365
-0.048365
-0.048365
-0.048365
-0.0468296
-0.0468296
-0.0468296
-0.0468296
-0.0468296
-0.0468296
-0.0468296
-0.0468296
-0.0468296
-0.0468296
-0.0468296
-0.0468296
-0.0468296
-0.0468296
-0.0468296
-0.0468296
-0.0468296
-0.0452942
-0.0452942
-0.0452942
-0.0452942
-0.0452942
-0.0452942
-0.0452942
-0.0452942
-0.0452942
-0.0452942
-0.0452942
-0.0452942
-0.0452942
-0.0437588
-0.0437588
-0.0437588
-0.0437588
-0.0437588
-0.0437588
-0.0437588
-0.0437588
-0.0437588
-0.0437588
-0.0437588
-0.0437588
-0.0437588
-0.0437588
-0.0437588
-0.0437588
-0.0437588
-0.0437588
-0.0422234
-0.0422234
-0.0422234
-0.0422234
-0.0422234
-0.0422234
-0.0422234
-0.0422234
-0.0422234
-0.0422234
-0.0422234
-0.0422234
-0.0422234
-0.0422234
-0.0422234
-0.0422234
-0.0422234
-0.040688
-0.040688
-0.040688
-0.040688
-0.040688
-0.040688
-0.040688
-0.040688
-0.040688
-0.040688
-0.040688
-0.040688
-0.040688
-0.040688
-0.040688
-0.0391526
-0.0391526
-0.0391526
-0.0391526
-0.0391526
-0.0391526
-0.0391526
-0.0391526
-0.0391526
-0.0391526
-0.0391526
-0.0391526
-0.0391526
-0.0391526
-0.0391526
-0.0391526
-0.0391526
-0.0391526
-0.0391526
-0.0391526
-0.0391526
-0.0391526
-0.0376172
-0.0376172
-0.0376172
-0.0376172
-0.0376172
-0.0376172
-0.0376172
-0.0376172
-0.0376172
-0.0376172
-0.0376172
-0.0376172
-0.0376172
-0.0376172
-0.0376172
-0.0376172
-0.0376172
-0.0376172
-0.0360818
-0.0360818
-0.0360818
-0.0360818
-0.0360818
-0.0360818
-0.0360818
-0.0360818
-0.0360818
-0.0360818
-0.0360818
-0.0360818
-0.0360818
-0.0360818
-0.0360818
-0.0360818
-0.0345464
-0.0345464
-0.0345464
-0.0345464
-0.0345464
-0.0345464
-0.0345464
-0.0345464
-0.0345464
-0.0345464
-0.0345464
-0.0345464
-0.0345464
-0.0345464
-0.0345464
-0.0345464
-0.0345464
-0.0345464
-0.0345464
-0.0345464
-0.0345464
-0.033011
-0.033011
-0.033011
-0.033011
-0.033011
-0.033011
-0.033011
-0.033011
-0.033011
-0.033011
-0.033011
-0.033011
-0.033011
-0.033011
-0.033011
-0.033011
-0.033011
-0.0314756
-0.0314756
-0.0314756
-0.0314756
-0.0314756
-0.0314756
-0.0314756
-0.0314756
-0.0314756
-0.0314756
-0.0314756
-0.0314756
-0.0314756
-0.0314756
-0.0314756
-0.0314756
-0.0314756
-0.0314756
-0.0314756
-0.0299403
-0.0299403
-0.0299403
-0.0299403
-0.0299403
-0.0299403
-0.0299403
-0.0299403
-0.0299403
-0.0299403
-0.0299403
-0.0299403
-0.0299403
-0.0299403
-0.0299403
-0.0299403
-0.0299403
-0.0299403
-0.0299403
-0.0284049
-0.0284049
-0.0284049
-0.0284049
-0.0284049
-0.0284049
-0.0284049
-0.0284049
-0.0284049
-0.0284049
-0.0268695
-0.0268695
-0.0268695
-0.0268695
-0.0268695
-0.0268695
-0.0268695
-0.0268695
-0.0268695
-0.0268695
-0.0268695
-0.0268695
-0.0268695
-0.0268695
-0.0268695
-0.0268695
-0.0268695
-0.0268695
-0.0268695
-0.0268695
-0.0268695
-0.0268695
-0.0268695
-0.0268695
-0.0253341
-0.0253341
-0.0253341
-0.0253341
-0.0253341
-0.0253341
-0.0253341
-0.0253341
-0.0253341
-0.0253341
-0.0253341
-0.0253341
-0.0253341
-0.0253341
-0.0253341
-0.0253341
-0.0253341
-0.0253341
-0.0253341
-0.0253341
-0.0253341
-0.0253341
-0.0253341
-0.0253341
-0.0253341
-0.0253341
-0.0237987
-0.0237987
-0.0237987
-0.0237987
-0.0237987
-0.0237987
-0.0237987
-0.0237987
-0.0237987
-0.0237987
-0.0237987
-0.0237987
-0.0237987
-0.0237987
-0.0237987
-0.0237987
-0.0237987
-0.0237987
-0.0237987
-0.0237987
-0.0237987
-0.0237987
-0.0237987
-0.0237987
-0.0222633
-0.0222633
-0.0222633
-0.0222633
-0.0222633
-0.0222633
-0.0222633
-0.0222633
-0.0222633
-0.0222633
-0.0222633
-0.0222633
-0.0222633
-0.0222633
-0.0222633
-0.0222633
-0.0222633
-0.0222633
-0.0222633
-0.0222633
-0.0222633
-0.0222633
-0.0222633
-0.0222633
-0.0222633
-0.0222633
-0.0222633
-0.0222633
-0.0222633
-0.0222633
-0.0222633
-0.0207279
-0.0207279
-0.0207279
-0.0207279
-0.0207279
-0.0207279
-0.0207279
-0.0207279
-0.0207279
-0.0207279
-0.0207279
-0.0207279
-0.0207279
-0.0207279
-0.0207279
-0.0207279
-0.0207279
-0.0207279
-0.0207279
-0.0207279
-0.0207279
-0.0207279
-0.0207279
-0.0207279
-0.0207279
-0.0207279
-0.0207279
-0.0207279
-0.0191925
-0.0191925
-0.0191925
-0.0191925
-0.0191925
-0.0191925
-0.0191925
-0.0191925
-0.0191925
-0.0191925
-0.0191925
-0.0191925
-0.0191925
-0.0191925
-0.0191925
-0.0191925
-0.0191925
-0.0191925
-0.0191925
-0.0191925
-0.0191925
-0.0191925
-0.0191925
-0.0191925
-0.0191925
-0.0191925
-0.0191925
-0.0176571
-0.0176571
-0.0176571
-0.0176571
-0.0176571
-0.0176571
-0.0176571
-0.0176571
-0.0176571
-0.0176571
-0.0176571
-0.0176571
-0.0176571
-0.0176571
-0.0176571
-0.0176571
-0.0176571
-0.0176571
-0.0176571
-0.0176571
-0.0176571
-0.0176571
-0.0176571
-0.0176571
-0.0176571
-0.0161217
-0.0161217
-0.0161217
-0.0161217
-0.0161217
-0.0161217
-0.0161217
-0.0161217
-0.0161217
-0.0161217
-0.0161217
-0.0161217
-0.0161217
-0.0161217
-0.0161217
-0.0161217
-0.0161217
-0.0161217
-0.0161217
-0.0161217
-0.0161217
-0.0161217
-0.0161217
-0.0161217
-0.0161217
-0.0161217
-0.0161217
-0.0161217
-0.0161217
-0.0161217
-0.0145863
-0.0145863
-0.0145863
-0.0145863
-0.0145863
-0.0145863
-0.0145863
-0.0145863
-0.0145863
-0.0145863
-0.0145863
-0.0145863
-0.0145863
-0.0145863
-0.0145863
-0.0145863
-0.0145863
-0.0145863
-0.0145863
-0.0145863
-0.0145863
-0.0145863
-0.0145863
-0.0145863
-0.0145863
-0.0145863
-0.0145863
-0.0145863
-0.0145863
-0.0145863
-0.0145863
-0.0145863
-0.0145863
-0.0145863
-0.0145863
-0.0145863
-0.0145863
-0.0145863
-0.0130509
-0.0130509
-0.0130509
-0.0130509
-0.0130509
-0.0130509
-0.0130509
-0.0130509
-0.0130509
-0.0130509
-0.0130509
-0.0130509
-0.0130509
-0.0130509
-0.0130509
-0.0130509
-0.0130509
-0.0130509
-0.0130509
-0.0130509
-0.0130509
-0.0130509
-0.0115155
-0.0115155
-0.0115155
-0.0115155
-0.0115155
-0.0115155
-0.0115155
-0.0115155
-0.0115155
-0.0115155
-0.0115155
-0.0115155
-0.0115155
-0.0115155
-0.0115155
-0.0115155
-0.0115155
-0.0115155
-0.0115155
-0.0115155
-0.0115155
-0.0115155
-0.0115155
-0.0115155
-0.0115155
-0.0115155
-0.0115155
-0.0115155
-0.0115155
-0.0115155
-0.0115155
-0.0115155
-0.0115155
-0.0115155
-0.0115155
-0.0115155
-0.0115155
-0.0115155
-0.0115155
-0.0115155
-0.0115155
-0.00998008
-0.00998008
-0.00998008
-0.00998008
-0.00998008
-0.00998008
-0.00998008
-0.00998008
-0.00998008
-0.00998008
-0.00998008
-0.00998008
-0.00998008
-0.00998008
-0.00998008
-0.00998008
-0.00998008
-0.00998008
-0.00998008
-0.00998008
-0.00998008
-0.00998008
-0.00998008
-0.00998008
-0.00998008
-0.00998008
-0.00998008
-0.00998008
-0.00998008
-0.00998008
-0.00998008
-0.00998008
-0.00998008
-0.00998008
-0.00998008
-0.00998008
-0.00844468
-0.00844468
-0.00844468
-0.00844468
-0.00844468
-0.00844468
-0.00844468
-0.00844468
-0.00844468
-0.00844468
-0.00844468
-0.00844468
-0.00844468
-0.00844468
-0.00844468
-0.00844468
-0.00844468
-0.00690928
-0.00690928
-0.00690928
-0.00690928
-0.00690928
-0.00690928
-0.00690928
-0.00690928
-0.00690928
-0.00690928
-0.00690928
-0.00690928
-0.00690928
-0.00690928
-0.00690928
-0.00690928
-0.00690928
-0.00690928
-0.00690928
-0.00690928
-0.00690928
-0.00690928
-0.00690928
-0.00690928
-0.00690928
-0.00690928
-0.00690928
-0.00690928
-0.00690928
-0.00690928
-0.00690928
-0.00690928
-0.00690928
-0.00690928
-0.00690928
-0.00690928
-0.00690928
-0.00537388
-0.00537388
-0.00537388
-0.00537388
-0.00537388
-0.00537388
-0.00537388
-0.00537388
-0.00537388
-0.00537388
-0.00537388
-0.00537388
-0.00537388
-0.00537388
-0.00537388
-0.00537388
-0.00537388
-0.00537388
-0.00537388
-0.00537388
-0.00537388
-0.00537388
-0.00537388
-0.00537388
-0.00537388
-0.00537388
-0.00537388
-0.00537388
-0.00537388
-0.00537388
-0.00537388
-0.00537388
-0.00537388
-0.00537388
-0.00537388
-0.00537388
-0.00537388
-0.00537388
-0.00537388
-0.00537388
-0.00383848
-0.00383848
-0.00383848
-0.00383848
-0.00383848
-0.00383848
-0.00383848
-0.00383848
-0.00383848
-0.00383848
-0.00383848
-0.00383848
-0.00383848
-0.00383848
-0.00383848
-0.00383848
-0.00383848
-0.00383848
-0.00383848
-0.00383848
-0.00383848
-0.00383848
-0.00383848
-0.00383848
-0.00383848
-0.00383848
-0.00383848
-0.00383848
-0.00383848
-0.00383848
-0.00383848
-0.00383848
-0.00383848
-0.00230309
-0.00230309
-0.00230309
-0.00230309
-0.00230309
-0.00230309
-0.00230309
-0.00230309
-0.00230309
-0.00230309
-0.00230309
-0.00230309
-0.00230309
-0.00230309
-0.00230309
-0.00230309
-0.00230309
-0.00230309
-0.00230309
-0.00230309
-0.00230309
-0.00230309
-0.00230309
-0.00230309
-0.00230309
-0.00230309
-0.00230309
-0.00230309
-0.00230309
-0.00230309
-0.00230309
-0.00230309
-0.00230309
-0.00230309
-0.00230309
-0.00230309
-0.00230309
-0.00230309
-0.00230309
-0.00230309
-0.00230309
-0.00230309
-0.00230309
-0.00230309
-0.00230309
-0.00230309
-0.00230309
-0.00230309
-0.000767687
-0.000767687
-0.000767687
-0.000767687
-0.000767687
-0.000767687
-0.000767687
-0.000767687
-0.000767687
-0.000767687
-0.000767687
-0.000767687
-0.000767687
-0.000767687
-0.000767687
-0.000767687
-0.000767687
-0.000767687
-0.000767687
-0.000767687
-0.000767687
-0.000767687
-0.000767687
-0.000767687
-0.000767687
-0.000767687
-0.000767687
-0.000767687
-0.000767687
-0.000767687
-0.000767687
-0.000767687
-0.000767687
-0.000767687
-0.000767687
-0.000767687
-0.000767687
-0.000767687
-0.000767687
-0.000767687
-0.000767687
-0.000767687
-0.000767687
-0.000767687
-0.000767687
-0.000767687
0.000767711
0.000767711
0.000767711
0.000767711
0.000767711
0.000767711
0.000767711
0.000767711
0.000767711
0.000767711
0.000767711
0.000767711
0.000767711
0.000767711
0.000767711
0.000767711
0.000767711
0.000767711
0.000767711
0.000767711
0.000767711
0.000767711
0.000767711
0.000767711
0.000767711
0.000767711
0.000767711
0.000767711
0.000767711
0.000767711
0.000767711
0.000767711
0.000767711
0.000767711
0.000767711
0.00230311
0.00230311
0.00230311
0.00230311
0.00230311
0.00230311
0.00230311
0.00230311
0.00230311
0.00230311
0.00230311
0.00230311
0.00230311
0.00230311
0.00230311
0.00230311
0.00230311
0.00230311
0.00230311
0.00230311
0.00230311
0.00230311
0.00230311
0.00230311
0.00230311
0.00230311
0.00230311
0.00230311
0.00230311
0.00230311
0.00230311
0.00230311
0.00230311
0.00230311
0.00230311
0.00230311
0.00230311
0.00230311
0.00230311
0.00230311
0.00230311
0.00230311
0.00230311
0.00230311
0.00230311
0.00230311
0.00383851
0.00383851
0.00383851
0.00383851
0.00383851
0.00383851
0.00383851
0.00383851
0.00383851
0.00383851
0.00383851
0.00383851
0.00383851
0.00383851
0.00383851
0.00383851
0.00383851
0.00383851
0.00383851
0.00383851
0.00383851
0.00383851
0.00383851
0.00383851
0.00383851
0.00383851
0.00383851
0.0053739
0.0053739
0.0053739
0.0053739
0.0053739
0.0053739
0.0053739
0.0053739
0.0053739
0.0053739
0.0053739
0.0053739
0.0053739
0.0053739
0.0053739
0.0053739
0.0053739
0.0053739
0.0053739
0.0053739
0.0053739
0.0053739
0.0053739
0.0053739
0.0053739
0.0053739
0.0053739
0.0053739
0.0053739
0.0053739
0.0053739
0.0069093
0.0069093
0.0069093
0.0069093
0.0069093
0.0069093
0.0069093
0.0069093
0.0069093
0.0069093
0.0069093
0.0069093
0.0069093
0.0069093
0.0069093
0.0069093
0.0069093
0.0069093
0.0069093
0.0069093
0.0069093
0.0069093
0.0069093
0.0069093
0.0069093
0.0069093
0.0069093
0.0069093
0.0069093
0.0069093
0.0069093
0.0069093
0.0069093
0.0069093
0.0069093
0.0069093
0.0069093
0.0069093
0.0069093
0.0084447
0.0084447
0.0084447
0.0084447
0.0084447
0.0084447
0.0084447
0.0084447
0.0084447
0.0084447
0.0084447
0.0084447
0.0084447
0.0084447
0.0084447
0.0084447
0.0084447
0.0084447
0.0084447
0.0084447
0.0084447
0.0084447
0.0084447
0.0084447
0.0084447
0.0084447
0.0084447
0.0084447
0.0084447
0.0084447
0.0084447
0.0084447
0.0084447
0.0084447
0.0084447
0.0084447
0.0099801
0.0099801
0.0099801
0.0099801
0.0099801
0.0099801
0.0099801
0.0099801
0.0099801
0.0099801
0.0099801
0.0099801
0.0099801
0.0099801
0.0099801
0.0099801
0.0099801
0.0099801
0.0099801
0.0099801
0.0099801
0.0099801
0.0099801
0.0099801
0.0099801
0.0099801
0.0099801
0.0099801
0.0115155
0.0115155
0.0115155
0.0115155
0.0115155
0.0115155
0.0115155
0.0115155
0.0115155
0.0115155
0.0115155
0.0115155
0.0115155
0.0115155
0.0115155
0.0115155
0.0115155
0.0115155
0.0115155
0.0115155
0.0115155
0.0115155
0.0115155
0.0115155
0.0115155
0.0115155
0.0115155
0.0115155
0.0115155
0.0115155
0.0115155
0.0115155
0.0115155
0.0115155
0.0130509
0.0130509
0.0130509
0.0130509
0.0130509
0.0130509
0.0130509
0.0130509
0.0130509
0.0130509
0.0130509
0.0130509
0.0130509
0.0130509
0.0130509
0.0130509
0.0130509
0.0130509
0.0130509
0.0130509
0.0130509
0.0130509
0.0130509
0.0130509
0.0130509
0.0130509
0.0145863
0.0145863
0.0145863
0.0145863
0.0145863
0.0145863
0.0145863
0.0145863
0.0145863
0.0145863
0.0145863
0.0145863
0.0145863
0.0145863
0.0145863
0.0145863
0.0145863
0.0145863
0.0145863
0.0145863
0.0145863
0.0145863
0.0145863
0.0145863
0.0145863
0.0145863
0.0145863
0.0161217
0.0161217
0.0161217
0.0161217
0.0161217
0.0161217
0.0161217
0.0161217
0.0161217
0.0161217
0.0161217
0.0161217
0.0161217
0.0161217
0.0161217
0.0161217
0.0161217
0.0161217
0.0161217
0.0161217
0.0161217
0.0161217
0.0161217
0.0161217
0.0161217
0.0161217
0.0161217
0.0161217
0.0161217
0.0161217
0.0161217
0.0161217
0.0161217
0.0161217
0.0161217
0.0161217
0.0161217
0.0161217
0.0161217
0.0161217
0.0176571
0.0176571
0.0176571
0.0176571
0.0176571
0.0176571
0.0176571
0.0176571
0.0176571
0.0176571
0.0176571
0.0176571
0.0176571
0.0176571
0.0176571
0.0176571
0.0176571
0.0176571
0.0176571
0.0176571
0.0176571
0.0176571
0.0176571
0.0176571
0.0176571
0.0176571
0.0176571
0.0176571
0.0191925
0.0191925
0.0191925
0.0191925
0.0191925
0.0191925
0.0191925
0.0191925
0.0191925
0.0191925
0.0191925
0.0191925
0.0191925
0.0191925
0.0191925
0.0191925
0.0191925
0.0191925
0.0191925
0.0191925
0.0191925
0.0191925
0.0191925
0.0191925
0.0191925
0.0191925
0.0191925
0.0191925
0.0191925
0.0191925
0.0191925
0.0191925
0.0191925
0.0191925
0.0191925
0.0191925
0.0191925
0.0191925
0.0191925
0.0191925
0.0191925
0.0207279
0.0207279
0.0207279
0.0207279
0.0207279
0.0207279
0.0207279
0.0207279
0.0207279
0.0207279
0.0207279
0.0207279
0.0207279
0.0207279
0.0207279
0.0207279
0.0207279
0.0207279
0.0207279
0.0207279
0.0207279
0.0207279
0.0207279
0.0207279
0.0207279
0.0207279
0.0207279
0.0207279
0.0207279
0.0207279
0.0207279
0.0207279
0.0207279
0.0207279
0.0207279
0.0222633
0.0222633
0.0222633
0.0222633
0.0222633
0.0222633
0.0222633
0.0222633
0.0222633
0.0222633
0.0222633
0.0222633
0.0222633
0.0222633
0.0222633
0.0222633
0.0222633
0.0222633
0.0222633
0.0222633
0.0222633
0.0222633
0.0222633
0.0222633
0.0222633
0.0222633
0.0222633
0.0222633
0.0222633
0.0222633
0.0222633
0.0222633
0.0222633
0.0222633
0.0222633
0.0222633
0.0222633
0.0222633
0.0222633
0.0237987
0.0237987
0.0237987
0.0237987
0.0237987
0.0237987
0.0237987
0.0237987
0.0237987
0.0237987
0.0237987
0.0237987
0.0237987
0.0237987
0.0237987
0.0237987
0.0237987
0.0237987
0.0237987
0.0237987
0.0237987
0.0237987
0.0237987
0.0237987
0.0253341
0.0253341
0.0253341
0.0253341
0.0253341
0.0253341
0.0253341
0.0253341
0.0253341
0.0253341
0.0253341
0.0253341
0.0253341
0.0253341
0.0253341
0.0253341
0.0253341
0.0253341
0.0253341
0.0253341
0.0253341
0.0253341
0.0253341
0.0253341
0.0253341
0.0253341
0.0268695
0.0268695
0.0268695
0.0268695
0.0268695
0.0268695
0.0268695
0.0268695
0.0268695
0.0268695
0.0268695
0.0268695
0.0268695
0.0268695
0.0268695
0.0268695
0.0268695
0.0268695
0.0268695
0.0268695
0.0268695
0.0268695
0.0268695
0.0268695
0.0268695
0.0268695
0.0268695
0.0268695
0.0268695
0.0268695
0.0284049
0.0284049
0.0284049
0.0284049
0.0284049
0.0284049
0.0284049
0.0284049
0.0284049
0.0284049
0.0284049
0.0284049
0.0284049
0.0284049
0.0284049
0.0284049
0.0284049
0.0284049
0.0284049
0.0284049
0.0284049
0.0284049
0.0284049
0.0284049
0.0284049
0.0284049
0.0284049
0.0284049
0.0284049
0.0299403
0.0299403
0.0299403
0.0299403
0.0299403
0.0299403
0.0299403
0.0299403
0.0299403
0.0299403
0.0299403
0.0299403
0.0299403
0.0299403
0.0299403
0.0299403
0.0299403
0.0299403
0.0299403
0.0299403
0.0299403
0.0299403
0.0299403
0.0299403
0.0299403
0.0299403
0.0299403
0.0299403
0.0299403
0.0299403
0.0299403
0.0299403
0.0299403
0.0299403
0.0299403
0.0299403
0.0299403
0.0314757
0.0314757
0.0314757
0.0314757
0.0314757
0.0314757
0.0314757
0.0314757
0.0314757
0.0314757
0.0314757
0.0314757
0.0314757
0.0314757
0.0314757
0.0314757
0.0314757
0.0314757
0.0314757
0.0314757
0.0314757
0.0314757
0.0314757
0.0314757
0.0314757
0.0314757
0.0314757
0.0314757
0.0314757
0.0330111
0.0330111
0.0330111
0.0330111
0.0330111
0.0330111
0.0330111
0.0330111
0.0330111
0.0330111
0.0330111
0.0330111
0.0330111
0.0330111
0.0330111
0.0330111
0.0330111
0.0330111
0.0330111
0.0330111
0.0330111
0.0330111
0.0330111
0.0330111
0.0330111
0.0330111
0.0330111
0.0330111
0.0330111
0.0330111
0.0330111
0.0345465
0.0345465
0.0345465
0.0345465
0.0345465
0.0345465
0.0345465
0.0345465
0.0345465
0.0345465
0.0345465
0.0345465
0.0345465
0.0345465
0.0345465
0.0345465
0.0345465
0.0345465
0.0345465
0.0345465
0.0345465
0.0345465
0.0345465
0.0345465
0.0345465
0.0345465
0.0345465
0.0345465
0.0345465
0.0345465
0.0345465
0.0345465
0.0360819
0.0360819
0.0360819
0.0360819
0.0360819
0.0360819
0.0360819
0.0360819
0.0360819
0.0360819
0.0360819
0.0360819
0.0360819
0.0360819
0.0360819
0.0360819
0.0360819
0.0360819
0.0360819
0.0360819
0.0376173
0.0376173
0.0376173
0.0376173
0.0376173
0.0376173
0.0376173
0.0376173
0.0376173
0.0376173
0.0376173
0.0376173
0.0376173
0.0376173
0.0376173
0.0376173
0.0376173
0.0376173
0.0376173
0.0391527
0.0391527
0.0391527
0.0391527
0.0391527
0.0391527
0.0391527
0.0391527
0.0391527
0.0391527
0.0391527
0.0391527
0.0391527
0.0391527
0.0391527
0.0391527
0.0391527
0.0391527
0.0406881
0.0406881
0.0406881
0.0406881
0.0406881
0.0406881
0.0406881
0.0406881
0.0406881
0.0406881
0.0406881
0.0406881
0.0406881
0.0406881
0.0406881
0.0406881
0.0406881
0.0406881
0.0422235
0.0422235
0.0422235
0.0422235
0.0422235
0.0422235
0.0422235
0.0422235
0.0422235
0.0422235
0.0422235
0.0422235
0.0422235
0.0422235
0.0422235
0.0422235
0.0422235
0.0437589
0.0437589
0.0437589
0.0437589
0.0437589
0.0437589
0.0437589
0.0437589
0.0437589
0.0437589
0.0437589
0.0437589
0.0437589
0.0437589
0.0437589
0.0437589
0.0437589
0.0437589
0.0437589
0.0437589
0.0437589
0.0452943
0.0452943
0.0452943
0.0452943
0.0452943
0.0452943
0.0452943
0.0452943
0.0452943
0.0452943
0.0452943
0.0452943
0.0452943
0.0452943
0.0468297
0.0468297
0.0468297
0.0468297
0.0468297
0.0468297
0.0468297
0.0468297
0.0468297
0.0468297
0.0468297
0.0468297
0.0468297
0.0468297
0.0468297
0.0468297
0.0468297
0.0468297
0.0468297
0.0468297
0.0483651
0.0483651
0.0483651
0.0483651
0.0483651
0.0483651
0.0483651
0.0483651
0.0483651
0.0483651
0.0483651
0.0483651
0.0483651
0.0483651
0.0483651
0.0483651
0.0483651
0.0499004
0.0499004
0.0499004
0.0499004
0.0499004
0.0499004
0.0499004
0.0499004
0.0499004
0.0499004
0.0499004
0.0499004
0.0499004
0.0499004
0.0499004
0.0499004
0.0499004
0.0499004
0.0499004
0.0499004
0.0499004
0.0499004
0.0514358
0.0514358
0.0514358
0.0514358
0.0514358
0.0514358
0.0514358
0.0514358
0.0514358
0.0514358
0.0514358
0.0514358
0.0514358
0.0514358
0.0514358
0.0514358
0.0529712
0.0529712
0.0529712
0.0529712
0.0529712
0.0529712
0.0529712
0.0529712
0.0529712
0.0529712
0.0529712
0.0529712
0.0529712
0.0529712
0.0545066
0.0545066
0.0545066
0.0545066
0.0545066
0.0545066
0.0545066
0.0545066
0.0545066
0.0545066
0.0545066
0.0545066
0.0545066
0.0545066
0.0545066
0.0545066
0.0545066
0.056042
0.056042
0.056042
0.056042
0.056042
0.056042
0.056042
0.056042
0.056042
0.056042
0.056042
0.056042
0.056042
0.056042
0.0575774
0.0575774
0.0575774
0.0575774
0.0575774
0.0575774
0.0575774
0.0575774
0.0575774
0.0575774
0.0575774
0.0575774
0.0575774
0.0575774
0.0575774
0.0575774
0.0575774
0.0591128
0.0591128
0.0591128
0.0591128
0.0591128
0.0591128
0.0591128
0.0591128
0.0591128
0.0591128
0.0591128
0.0591128
0.0591128
0.0606482
0.0606482
0.0606482
0.0606482
0.0606482
0.0606482
0.0606482
0.0606482
0.0606482
0.0606482
0.0606482
0.0606482
0.0606482
0.0621836
0.0621836
0.0621836
0.0621836
0.0621836
0.0621836
0.0621836
0.0621836
0.0621836
0.0621836
0.0621836
0.063719
0.063719
0.063719
0.063719
0.063719
0.063719
0.063719
0.0652544
0.0652544
0.0652544
0.0652544
0.0652544
0.0652544
0.0652544
0.0667898
0.0667898
0.0667898
0.0667898
0.0667898
0.0667898
0.0667898
0.0667898
0.0667898
0.0667898
0.0667898
0.0667898
0.0667898
0.0667898
0.0667898
0.0667898
0.0683252
0.0683252
0.0683252
0.0683252
0.0683252
0.0683252
0.0683252
0.0683252
0.0683252
0.0683252
0.0683252
0.0698606
0.0698606
0.0698606
0.0698606
0.0698606
0.0698606
0.0698606
0.0698606
0.071396
0.071396
0.071396
0.071396
0.071396
0.0729314
0.0729314
0.0729314
0.0729314
0.0729314
0.0729314
0.0729314
0.0729314
0.0729314
0.0729314
0.0729314
0.0729314
0.0744668
0.0744668
0.0744668
0.0744668
0.0760022
0.0760022
0.0760022
0.0760022
0.0760022
0.0760022
0.0775376
0.0775376
0.0775376
0.0775376
0.0775376
0.079073
0.079073
0.079073
0.079073
0.079073
0.079073
0.079073
0.079073
0.079073
0.079073
0.079073
0.0806084
0.0806084
0.0806084
0.0806084
0.0806084
0.0806084
0.0806084
0.0806084
0.0821438
0.0821438
0.0821438
0.0821438
0.0821438
0.0821438
0.0821438
0.0836792
0.0836792
0.0836792
0.0836792
0.0836792
0.0836792
0.0836792
0.0836792
0.0836792
0.0836792
0.0852146
0.0852146
0.0852146
0.0852146
0.0852146
0.0852146
0.08675
0.08675
0.08675
0.0882854
0.0882854
0.0882854
0.0898208
0.0898208
0.0898208
0.0898208
0.0898208
0.0913562
0.0913562
0.0913562
0.0913562
0.0928916
0.0928916
0.0928916
0.0928916
0.0928916
0.0928916
0.0928916
0.0928916
0.094427
0.094427
0.094427
0.094427
0.0959624
0.0959624
0.0974978
0.0974978
0.0974978
0.0974978
0.0974978
0.0990332
0.0990332
0.0990332
0.0990332
0.0990332
0.100569
0.100569
0.100569
0.103639
0.103639
0.103639
0.103639
0.103639
0.105175
0.105175
0.105175
0.10671
0.109781
0.109781
0.109781
0.112852
0.112852
0.112852
0.112852
0.114387
0.114387
0.114387
0.117458
0.117458
0.117458
0.120529
0.122064
0.1236
0.12667
0.128206
0.131277
0.131277
0.132812
0.134347
0.137418
0.146631
