-0.862849
-0.835779
-0.829012
-0.801942
-0.795175
-0.78164
-0.774872
-0.774872
-0.768105
-0.75457
-0.75457
-0.75457
-0.747802
-0.734268
-0.734268
-0.7275
-0.7275
-0.7275
-0.7275
-0.7275
-0.720733
-0.720733
-0.720733
-0.720733
-0.713965
-0.713965
-0.713965
-0.707198
-0.70043
-0.70043
-0.693663
-0.693663
-0.686896
-0.680128
-0.680128
-0.680128
-0.680128
-0.673361
-0.673361
-0.666593
-0.666593
-0.666593
-0.666593
-0.666593
-0.659826
-0.659826
-0.659826
-0.653058
-0.653058
-0.653058
-0.653058
-0.646291
-0.646291
-0.639523
-0.639523
-0.639523
-0.639523
-0.632756
-0.625989
-0.625989
-0.612454
-0.612454
-0.612454
-0.612454
-0.605686
-0.605686
-0.605686
-0.605686
-0.605686
-0.598919
-0.598919
-0.592151
-0.592151
-0.585384
-0.585384
-0.585384
-0.585384
-0.578616
-0.578616
-0.578616
-0.578616
-0.578616
-0.571849
-0.571849
-0.571849
-0.565082
-0.565082
-0.558314
-0.558314
-0.551547
-0.551547
-0.544779
-0.544779
-0.544779
-0.544779
-0.538012
-0.538012
-0.538012
-0.538012
-0.531244
-0.531244
-0.531244
-0.531244
-0.524477
-0.524477
-0.524477
-0.524477
-0.517709
-0.517709
-0.517709
-0.510942
-0.510942
-0.510942
-0.510942
-0.504175
-0.504175
-0.497407
-0.497407
-0.483872
-0.483872
-0.477105
-0.477105
-0.477105
-0.470337
-0.470337
-0.470337
-0.470337
-0.46357
-0.46357
-0.456802
-0.456802
-0.450035
-0.450035
-0.443268
-0.443268
-0.4365
-0.4365
-0.4365
-0.4365
-0.4365
-0.429733
-0.429733
-0.422965
-0.422965
-0.416198
-0.416198
-0.416198
-0.416198
-0.416198
-0.40943
-0.40943
-0.40943
-0.40943
-0.402663
-0.402663
-0.402663
-0.395895
-0.395895
-0.382361
-0.382361
-0.382361
-0.375593
-0.375593
-0.368826
-0.368826
-0.368826
-0.368826
-0.362058
-0.355291
-0.355291
-0.355291
-0.348523
-0.348523
-0.341756
-0.341756
-0.334988
-0.328221
-0.328221
-0.321454
-0.321454
-0.321454
-0.321454
-0.314686
-0.314686
-0.314686
-0.307919
-0.307919
-0.307919
-0.307919
-0.301151
-0.294384
-0.294384
-0.294384
-0.287616
-0.280849
-0.280849
-0.274081
-0.274081
-0.267314
-0.267314
-0.267314
-0.267314
-0.267314
-0.253779
-0.253779
-0.253779
-0.253779
-0.253779
-0.253779
-0.253779
-0.247012
-0.247012
-0.247012
-0.240244
-0.240244
-0.240244
-0.233477
-0.233477
-0.233477
-0.233477
-0.219942
-0.219942
-0.219942
-0.219942
-0.219942
-0.213174
-0.213174
-0.213174
-0.206407
-0.206407
-0.206407
-0.206407
-0.19964
-0.19964
-0.19964
-0.19964
-0.19964
-0.19964
-0.192872
-0.186105
-0.186105
-0.186105
-0.186105
-0.179337
-0.179337
-0.17257
-0.165802
-0.165802
-0.165802
-0.159035
-0.159035
-0.159035
-0.152267
-0.152267
-0.152267
-0.152267
-0.1455
-0.1455
-0.138733
-0.138733
-0.138733
-0.131965
-0.131965
-0.125198
-0.125198
-0.125198
-0.125198
-0.11843
-0.11843
-0.11843
-0.11843
-0.111663
-0.111663
-0.104895
-0.104895
-0.104895
-0.104895
-0.104895
-0.104895
-0.104895
-0.104895
-0.104895
-0.0981279
-0.0981279
-0.0981279
-0.0981279
-0.0981279
-0.0981279
-0.0981279
-0.0981279
-0.0981279
-0.0913604
-0.0913604
-0.0913604
-0.0913604
-0.084593
-0.084593
-0.084593
-0.084593
-0.084593
-0.084593
-0.0778255
-0.0778255
-0.0778255
-0.0778255
-0.0778255
-0.0778255
-0.0778255
-0.0778255
-0.0778255
-0.0778255
-0.0710581
-0.0710581
-0.0710581
-0.0710581
-0.0710581
-0.0710581
-0.0710581
-0.0710581
-0.0710581
-0.0642907
-0.0642907
-0.0642907
-0.0642907
-0.0642907
-0.0642907
-0.0642907
-0.0642907
-0.0642907
-0.0642907
-0.0575232
-0.0575232
-0.0575232
-0.0575232
-0.0575232
-0.0575232
-0.0575232
-0.0575232
-0.0575232
-0.0575232
-0.0575232
-0.0575232
-0.0575232
-0.0575232
-0.0507558
-0.0507558
-0.0507558
-0.0507558
-0.0507558
-0.0507558
-0.0507558
-0.0507558
-0.0507558
-0.0507558
-0.0507558
-0.0439883
-0.0439883
-0.0439883
-0.0439883
-0.0439883
-0.0439883
-0.0439883
-0.0439883
-0.0372209
-0.0372209
-0.0372209
-0.0372209
-0.0372209
-0.0372209
-0.0372209
-0.0372209
-0.0372209
-0.0372209
-0.0304534
-0.0304534
-0.0304534
-0.0304534
-0.0304534
-0.0304534
-0.0304534
-0.0304534
-0.0304534
-0.0304534
-0.0304534
-0.023686
-0.023686
-0.023686
-0.023686
-0.023686
-0.023686
-0.023686
-0.023686
-0.023686
-0.0169186
-0.0169186
-0.0169186
-0.0169186
-0.0169186
-0.0169186
-0.0169186
-0.0169186
-0.0169186
-0.0169186
-0.0169186
-0.0169186
-0.0169186
-0.0169186
-0.0169186
-0.0169186
-0.0169186
-0.0169186
-0.0169186
-0.0169186
-0.0169186
-0.0101511
-0.0101511
-0.0101511
-0.0101511
-0.0101511
-0.0101511
-0.0101511
-0.0101511
-0.0101511
-0.0101511
-0.0101511
-0.0101511
-0.0101511
-0.0101511
-0.0101511
-0.0101511
-0.0101511
-0.0101511
-0.0101511
-0.00338367
-0.00338367
-0.00338367
-0.00338367
-0.00338367
-0.00338367
-0.00338367
-0.00338367
-0.00338367
-0.00338367
-0.00338367
-0.00338367
-0.00338367
-0.00338367
-0.00338367
-0.00338367
-0.00338367
-0.00338367
0.00338377
0.00338377
0.00338377
0.00338377
0.00338377
0.00338377
0.00338377
0.00338377
0.00338377
0.00338377
0.00338377
0.00338377
0.00338377
0.00338377
0.00338377
0.00338377
0.00338377
0.00338377
0.00338377
0.00338377
0.0101512
0.0101512
0.0101512
0.0101512
0.0101512
0.0101512
0.0101512
0.0101512
0.0101512
0.0169187
0.0169187
0.0169187
0.0169187
0.0169187
0.0169187
0.0169187
0.0169187
0.0169187
0.0169187
0.0169187
0.0169187
0.0169187
0.0169187
0.0169187
0.0236861
0.0236861
0.0236861
0.0236861
0.0236861
0.0236861
0.0236861
0.0236861
0.0236861
0.0236861
0.0236861
0.0236861
0.0236861
0.0236861
0.0304535
0.0304535
0.0304535
0.0304535
0.0304535
0.0304535
0.0304535
0.0304535
0.0304535
0.0304535
0.0304535
0.0304535
0.0304535
0.0304535
0.0304535
0.0304535
0.0304535
0.0304535
0.037221
0.037221
0.037221
0.037221
0.037221
0.037221
0.037221
0.037221
0.037221
0.037221
0.037221
0.037221
0.037221
0.037221
0.0439884
0.0439884
0.0439884
0.0439884
0.0439884
0.0439884
0.0439884
0.0439884
0.0439884
0.0439884
0.0439884
0.0439884
0.0439884
0.0439884
0.0507559
0.0507559
0.0507559
0.0507559
0.0507559
0.0507559
0.0507559
0.0575233
0.0575233
0.0575233
0.0575233
0.0575233
0.0575233
0.0575233
0.0642908
0.0642908
0.0642908
0.0642908
0.0642908
0.0642908
0.0642908
0.0642908
0.0710582
0.0710582
0.0710582
0.0710582
0.0710582
0.0710582
0.0710582
0.0710582
0.0710582
0.0710582
0.0710582
0.0710582
0.0778256
0.0778256
0.0778256
0.0778256
0.0778256
0.0778256
0.0778256
0.0778256
0.0845931
0.0845931
0.0845931
0.0845931
0.0845931
0.0845931
0.0913605
0.0913605
0.0913605
0.0913605
0.0913605
0.0913605
0.098128
0.098128
0.098128
0.098128
0.104895
0.104895
0.104895
0.104895
0.104895
0.104895
0.104895
0.104895
0.104895
0.111663
0.111663
0.111663
0.111663
0.111663
0.111663
0.111663
0.111663
0.11843
0.11843
0.11843
0.125198
0.125198
0.125198
0.125198
0.125198
0.125198
0.125198
0.125198
0.125198
0.125198
0.131965
0.131965
0.131965
0.131965
0.138733
0.138733
0.138733
0.138733
0.138733
0.138733
0.138733
0.138733
0.1455
0.1455
0.1455
0.152268
0.152268
0.159035
0.159035
0.159035
0.165802
0.165802
0.165802
0.17257
0.17257
0.17257
0.17257
0.179337
0.179337
0.179337
0.179337
0.179337
0.186105
0.186105
0.186105
0.192872
0.192872
0.192872
0.19964
0.19964
0.19964
0.19964
0.19964
0.19964
0.206407
0.206407
0.213175
0.213175
0.213175
0.213175
0.213175
0.219942
0.219942
0.219942
0.219942
0.226709
0.233477
0.233477
0.233477
0.233477
0.233477
0.233477
0.233477
0.240244
0.240244
0.240244
0.240244
0.240244
0.240244
0.247012
0.247012
0.247012
0.253779
0.253779
0.253779
0.253779
0.260547
0.260547
0.260547
0.260547
0.267314
0.267314
0.267314
0.267314
0.274081
0.280849
0.280849
0.280849
0.280849
0.287616
0.287616
0.287616
0.294384
0.294384
0.294384
0.301151
0.301151
0.307919
0.307919
0.307919
0.307919
0.307919
0.307919
0.314686
0.314686
0.321454
0.321454
0.321454
0.321454
0.328221
0.328221
0.328221
0.328221
0.328221
0.328221
0.328221
0.334988
0.334988
0.334988
0.334988
0.334988
0.341756
0.341756
0.341756
0.341756
0.341756
0.348523
0.348523
0.348523
0.348523
0.348523
0.348523
0.355291
0.355291
0.355291
0.355291
0.362058
0.362058
0.362058
0.368826
0.368826
0.375593
0.375593
0.382361
0.382361
0.382361
0.389128
0.395895
0.402663
0.402663
0.402663
0.40943
0.40943
0.416198
0.422965
0.429733
0.429733
0.429733
0.4365
0.4365
0.4365
0.4365
0.450035
0.450035
0.450035
0.450035
0.450035
0.46357
0.46357
0.470337
0.470337
0.477105
0.477105
0.477105
0.477105
0.477105
0.477105
0.483872
0.483872
0.497407
0.504175
0.510942
0.531244
0.531244
0.538012
0.544779
0.551547
0.565082
0.598919
0.598919
0.598919
0.605686
0.619221
0.659826
0.680128
0.713965
0.720733
