-0.145042
-0.145042
-0.145042
-0.145042
-0.145042
-0.145042
-0.145042
-0.145042
-0.145042
-0.145042
-0.145042
-0.145042
-0.145042
-0.145042
-0.145042
-0.145042
-0.145042
-0.145042
-0.145042
-0.145042
-0.145042
-0.145042
-0.145042
-0.145042
-0.0483475
-0.0483475
-0.0483475
-0.0483475
-0.0483475
-0.0483475
-0.0483475
-0.0483475
-0.0483475
-0.0483475
-0.0483475
-0.0483475
-0.0483475
-0.0483475
-0.0483475
-0.0483475
-0.0483475
-0.0483475
-0.0483475
-0.0483475
-0.0483475
-0.0483475
-0.0483475
-0.0483475
-0.0483475
-0.0483475
-0.0483475
-0.0483475
-0.0483475
-0.0483475
-0.0483475
-0.0483475
-0.0483475
-0.0483475
-0.0483475
-0.0483475
-0.0483475
-0.0483475
-0.0483475
-0.0483475
-0.0483475
-0.0483475
-0.0483475
-0.0483475
-0.0483475
-0.0483475
-0.0483475
-0.0483475
-0.0483475
-0.0483475
-0.0483475
-0.0483475
-0.0483475
-0.0483475
-0.0483475
-0.0483475
-0.0483475
-0.0483475
-0.0483475
-0.0483475
-0.0483475
-0.0483475
-0.0483475
-0.0483475
-0.0483475
-0.0483475
-0.0483475
-0.0483475
-0.0483475
-0.0483475
-0.0483475
-0.0483475
-0.0483475
-0.0483475
0.0483475
0.0483475
0.0483475
0.0483475
0.0483475
0.0483475
0.0483475
0.0483475
0.0483475
0.0483475
0.0483475
0.0483475
0.0483475
0.0483475
0.0483475
0.0483475
0.0483475
0.0483475
0.0483475
0.0483475
0.0483475
0.0483475
0.0483475
0.0483475
0.0483475
0.0483475
0.0483475
0.0483475
0.0483475
0.0483475
0.0483475
0.0483475
0.0483475
0.0483475
0.0483475
0.0483475
0.0483475
0.0483475
0.145042
0.145042
0.145042
0.145042
0.145042
0.145042
0.145042
0.145042
0.145042
0.145042
0.145042
0.145042
0.145042
0.145042
