-0.947309
-0.947309
-0.947309
-0.947309
-0.947309
-0.31577
-0.31577
-0.31577
-0.31577
-0.31577
-0.31577
-0.31577
-0.31577
-0.31577
-0.31577
-0.31577
-0.31577
-0.31577
-0.31577
-0.31577
-0.31577
-0.31577
-0.31577
-0.31577
-0.31577
-0.31577
-0.31577
-0.31577
-0.31577
-0.31577
-0.31577
-0.31577
-0.31577
-0.31577
-0.31577
-0.31577
-0.31577
-0.31577
-0.31577
-0.31577
-0.31577
-0.31577
-0.31577
-0.31577
-0.31577
-0.31577
-0.31577
-0.31577
-0.31577
-0.31577
-0.31577
-0.31577
-0.31577
-0.31577
-0.31577
-0.31577
-0.31577
-0.31577
-0.31577
-0.31577
-0.31577
-0.31577
-0.31577
-0.31577
-0.31577
-0.31577
-0.31577
-0.31577
-0.31577
-0.31577
-0.31577
-0.31577
-0.31577
-0.31577
-0.31577
-0.31577
-0.31577
-0.31577
-0.31577
-0.31577
-0.31577
-0.31577
-0.31577
-0.31577
-0.31577
-0.31577
-0.31577
-0.31577
-0.31577
-0.31577
-0.31577
-0.31577
-0.31577
-0.31577
-0.31577
-0.31577
-0.31577
-0.31577
-0.31577
-0.31577
-0.31577
-0.31577
-0.31577
-0.31577
-0.31577
-0.31577
-0.31577
-0.31577
-0.31577
-0.31577
-0.31577
-0.31577
-0.31577
-0.31577
-0.31577
-0.31577
-0.31577
-0.31577
-0.31577
-0.31577
-0.31577
-0.31577
-0.31577
-0.31577
-0.31577
-0.31577
-0.31577
-0.31577
-0.31577
-0.31577
-0.31577
-0.31577
-0.31577
-0.31577
-0.31577
-0.31577
-0.31577
-0.31577
-0.31577
-0.31577
-0.31577
-0.31577
-0.31577
-0.31577
-0.31577
-0.31577
-0.31577
-0.31577
-0.31577
-0.31577
-0.31577
-0.31577
-0.31577
-0.31577
-0.31577
-0.31577
-0.31577
-0.31577
-0.31577
-0.31577
-0.31577
-0.31577
-0.31577
-0.31577
-0.31577
-0.31577
-0.31577
-0.31577
-0.31577
-0.31577
-0.31577
-0.31577
-0.31577
-0.31577
-0.31577
-0.31577
-0.31577
-0.31577
-0.31577
-0.31577
-0.31577
-0.31577
-0.31577
-0.31577
-0.31577
-0.31577
-0.31577
-0.31577
-0.31577
-0.31577
-0.31577
-0.31577
-0.31577
-0.31577
-0.31577
-0.31577
-0.31577
-0.31577
-0.31577
-0.31577
-0.31577
-0.31577
-0.31577
-0.31577
-0.31577
-0.31577
-0.31577
-0.31577
-0.31577
-0.31577
-0.31577
-0.31577
-0.31577
-0.31577
-0.31577
-0.31577
-0.31577
-0.31577
-0.31577
-0.31577
-0.31577
-0.31577
-0.31577
-0.31577
-0.31577
-0.31577
-0.31577
-0.31577
-0.31577
-0.31577
-0.31577
-0.31577
-0.31577
-0.31577
-0.31577
-0.31577
-0.31577
-0.31577
-0.31577
-0.31577
-0.31577
-0.31577
-0.31577
-0.31577
-0.31577
-0.31577
-0.31577
-0.31577
-0.31577
-0.31577
-0.31577
-0.31577
-0.31577
-0.31577
-0.31577
-0.31577
-0.31577
-0.31577
-0.31577
-0.31577
-0.31577
-0.31577
-0.31577
-0.31577
-0.31577
-0.31577
-0.31577
-0.31577
-0.31577
-0.31577
-0.31577
-0.31577
-0.31577
-0.31577
-0.31577
-0.31577
-0.31577
-0.31577
-0.31577
-0.31577
-0.31577
-0.31577
-0.31577
-0.31577
-0.31577
-0.31577
-0.31577
-0.31577
-0.31577
-0.31577
-0.31577
-0.31577
-0.31577
-0.31577
-0.31577
-0.31577
-0.31577
-0.31577
-0.31577
-0.31577
-0.31577
-0.31577
-0.31577
-0.31577
-0.31577
-0.31577
-0.31577
-0.31577
-0.31577
-0.31577
-0.31577
-0.31577
-0.31577
-0.31577
-0.31577
-0.31577
-0.31577
-0.31577
-0.31577
-0.31577
-0.31577
-0.31577
-0.31577
-0.31577
-0.31577
-0.31577
-0.31577
-0.31577
-0.31577
-0.31577
-0.31577
-0.31577
-0.31577
-0.31577
-0.31577
-0.31577
-0.31577
-0.31577
-0.31577
-0.31577
-0.31577
-0.31577
-0.31577
-0.31577
-0.31577
-0.31577
-0.31577
-0.31577
-0.31577
-0.31577
-0.31577
-0.31577
-0.31577
-0.31577
-0.31577
-0.31577
-0.31577
-0.31577
-0.31577
-0.31577
-0.31577
-0.31577
-0.31577
-0.31577
-0.31577
-0.31577
-0.31577
-0.31577
-0.31577
-0.31577
-0.31577
-0.31577
-0.31577
-0.31577
-0.31577
-0.31577
-0.31577
-0.31577
-0.31577
-0.31577
-0.31577
-0.31577
-0.31577
-0.31577
-0.31577
-0.31577
-0.31577
-0.31577
-0.31577
-0.31577
-0.31577
-0.31577
-0.31577
-0.31577
-0.31577
-0.31577
-0.31577
-0.31577
-0.31577
-0.31577
-0.31577
-0.31577
-0.31577
-0.31577
-0.31577
-0.31577
-0.31577
-0.31577
-0.31577
-0.31577
-0.31577
-0.31577
-0.31577
-0.31577
-0.31577
-0.31577
-0.31577
-0.31577
-0.31577
-0.31577
-0.31577
-0.31577
-0.31577
-0.31577
-0.31577
-0.31577
-0.31577
-0.31577
-0.31577
-0.31577
-0.31577
-0.31577
-0.31577
-0.31577
-0.31577
-0.31577
-0.31577
-0.31577
-0.31577
-0.31577
-0.31577
-0.31577
-0.31577
-0.31577
-0.31577
-0.31577
-0.31577
-0.31577
-0.31577
-0.31577
-0.31577
-0.31577
-0.31577
-0.31577
-0.31577
-0.31577
-0.31577
-0.31577
-0.31577
-0.31577
-0.31577
-0.31577
-0.31577
-0.31577
-0.31577
-0.31577
-0.31577
-0.31577
-0.31577
-0.31577
-0.31577
-0.31577
-0.31577
-0.31577
-0.31577
-0.31577
-0.31577
-0.31577
-0.31577
-0.31577
-0.31577
-0.31577
-0.31577
-0.31577
-0.31577
-0.31577
-0.31577
-0.31577
-0.31577
-0.31577
-0.31577
-0.31577
-0.31577
-0.31577
-0.31577
-0.31577
-0.31577
-0.31577
-0.31577
-0.31577
-0.31577
-0.31577
-0.31577
-0.31577
-0.31577
0.31577
0.31577
0.31577
0.31577
0.31577
0.31577
0.31577
0.31577
0.31577
0.31577
0.31577
0.31577
0.31577
0.31577
0.31577
0.31577
0.31577
0.31577
0.31577
0.31577
0.31577
0.31577
0.31577
0.31577
0.31577
0.31577
0.31577
0.31577
0.31577
0.31577
0.31577
0.31577
0.31577
0.31577
0.31577
0.31577
0.31577
0.31577
0.31577
0.31577
0.31577
0.31577
0.31577
0.31577
0.31577
0.31577
0.31577
0.31577
0.31577
0.31577
0.31577
0.31577
0.31577
0.31577
0.31577
0.31577
0.31577
0.31577
0.31577
0.31577
0.31577
0.31577
0.31577
0.31577
0.31577
0.31577
0.31577
0.31577
0.31577
0.31577
0.31577
0.31577
0.31577
0.31577
0.31577
0.31577
0.31577
0.31577
0.31577
0.31577
0.31577
0.31577
0.31577
0.31577
0.31577
0.31577
0.31577
0.31577
0.31577
0.31577
0.31577
0.31577
0.31577
0.31577
0.31577
0.31577
0.31577
0.31577
0.31577
0.31577
0.31577
0.31577
0.31577
0.31577
0.31577
0.31577
0.31577
0.31577
0.31577
0.31577
0.31577
0.31577
0.31577
0.31577
0.31577
0.31577
0.31577
0.31577
0.31577
0.31577
0.31577
0.31577
0.31577
0.31577
0.31577
0.31577
0.31577
0.31577
0.31577
0.31577
0.31577
0.31577
0.31577
0.31577
0.31577
0.31577
0.31577
0.31577
0.31577
0.31577
0.31577
0.31577
0.31577
0.31577
0.31577
0.31577
0.31577
0.31577
0.31577
0.31577
0.31577
0.31577
0.31577
0.31577
0.31577
0.31577
0.31577
0.31577
0.31577
0.31577
0.31577
0.31577
0.31577
0.31577
0.31577
0.31577
0.31577
0.31577
0.31577
0.31577
0.31577
0.31577
0.31577
0.31577
0.31577
0.31577
0.31577
0.31577
0.31577
0.31577
0.31577
0.31577
0.31577
0.31577
0.31577
0.31577
0.31577
0.31577
0.31577
0.31577
0.31577
0.31577
0.31577
0.31577
0.31577
0.31577
0.31577
0.31577
0.31577
0.31577
0.31577
0.31577
0.31577
0.31577
0.31577
0.31577
0.31577
0.31577
0.31577
0.31577
0.31577
0.31577
0.31577
0.31577
0.31577
0.31577
0.31577
0.31577
0.31577
0.31577
0.31577
0.31577
0.31577
0.31577
0.31577
0.31577
0.31577
0.31577
0.31577
0.31577
0.31577
0.31577
0.31577
0.31577
0.31577
0.31577
0.31577
0.31577
0.31577
0.31577
0.31577
0.31577
0.31577
0.31577
0.31577
0.31577
0.31577
0.31577
0.31577
0.31577
0.31577
0.31577
0.31577
0.31577
0.31577
0.31577
0.31577
0.31577
0.31577
0.31577
0.31577
0.31577
0.31577
0.31577
0.31577
0.31577
0.31577
0.31577
0.31577
0.31577
0.31577
0.31577
0.31577
0.31577
0.31577
0.31577
0.31577
0.31577
0.31577
0.31577
0.31577
0.31577
0.31577
0.31577
0.31577
0.31577
0.31577
0.31577
0.31577
0.31577
0.31577
0.31577
0.31577
0.31577
0.31577
0.31577
0.31577
0.31577
0.31577
0.31577
0.31577
0.31577
0.31577
0.31577
0.31577
0.31577
0.31577
0.31577
0.31577
0.31577
0.31577
0.31577
0.31577
0.31577
0.31577
0.31577
0.31577
0.31577
0.31577
0.31577
0.31577
0.31577
0.31577
0.31577
0.31577
0.31577
0.31577
0.31577
0.31577
0.31577
0.31577
0.31577
0.31577
0.31577
0.31577
