-0.4256767631
-0.3768438995
-0.3269039392
-0.3117503226
-0.3038253188
-0.2995415032
-0.2908765376
-0.2823887169
-0.269964397
-0.2607952058
-0.2561841905
-0.2518288791
-0.2502263486
-0.2401490062
-0.2384628654
-0.229958415
-0.2199009806
-0.2138207257
-0.2036773115
-0.202984795
-0.1996732652
-0.1937017441
-0.1912296861
-0.1894185543
-0.1825906783
-0.1696553081
-0.1662769169
-0.1640024483
-0.1639367044
-0.1556387842
-0.1474850774
-0.1445031315
-0.1403950453
-0.1384835988
-0.1373193115
-0.1362212896
-0.1345391124
-0.1306535602
-0.1293884963
-0.1265142262
-0.1247353107
-0.1241587847
-0.1240303516
-0.1217865273
-0.1204416975
-0.1179686934
-0.1159499958
-0.1158644855
-0.113762781
-0.1134104505
-0.1091290489
-0.1086971164
-0.1071822345
-0.1038759574
-0.09914519638
-0.09254932404
-0.08675983548
-0.08542860299
-0.0782782957
-0.07525846362
-0.06631591916
-0.05977559462
-0.05671306327
-0.05602424964
-0.04965982959
-0.04818879068
-0.04776331037
-0.04717806354
-0.04590920359
-0.0451650992
-0.0411484018
-0.0363781862
-0.03418032452
-0.03386381641
-0.02670127153
-0.02515808865
-0.02296440862
-0.006396147888
0.0009921573801
0.002665936016
0.002712832298
0.004444599152
0.006456914358
0.006929823197
0.008458049968
0.008587516844
0.008738520555
0.0117927473
0.01559275389
0.01760853454
0.0230207257
0.02711848728
0.02796597406
0.02857734263
0.02908563986
0.03335890174
0.03599656373
0.03667004406
0.03748518601
0.04061912745
0.04075498134
0.04723875597
0.04982597008
0.05249845609
0.05613351613
0.05627524853
0.05707710981
0.06504565477
0.06975470483
0.0741905272
0.08077716082
0.08220047504
0.09221354127
0.0967585668
0.09890461713
0.100858368
0.1017982364
0.1063232198
0.1133836135
0.1148500592
0.1167605296
0.1336862892
0.1482341886
0.1504136175
0.1652624756
0.1704589278
0.1725984365
0.1740469038
0.1766533554
0.1827269793
0.1996282488
0.2133949101
0.2236966938
0.2268293053
0.2600374222
0.2746305168
0.2821018398
0.2860701978
0.2919951677
0.2956492603
0.3196383119
0.3322863281
0.3544044495
0.3553195
0.3817392886
0.3817509115
0.3892496526
0.4278577268
0.4686332345
0.5736447573
