-0.6658288836
-0.6207957864
-0.6157777309
-0.5993076563
-0.593644917
-0.5550641418
-0.5459025502
-0.5409866571
-0.5148323178
-0.5043381453
-0.4970083833
-0.4864931107
-0.4818912745
-0.4760352373
-0.4727312922
-0.4710180461
-0.4607939124
-0.4599252045
-0.4596374333
-0.4553289115
-0.4499448538
-0.4414726794
-0.4411666393
-0.4403885603
-0.4401804507
-0.4285029173
-0.426823616
-0.421615839
-0.4207815826
-0.4204489291
-0.4176366925
-0.4173065126
-0.4058063924
-0.4019614756
-0.3998581767
-0.3992808759
-0.3946259618
-0.391143024
-0.3835695386
-0.3785240948
-0.3758755922
-0.3755604029
-0.3738349378
-0.3655613661
-0.3614055216
-0.35307163
-0.3529441357
-0.3528147638
-0.3514342308
-0.3500773609
-0.3493497968
-0.3470070362
-0.3467700779
-0.3456553519
-0.3456453979
-0.3443120122
-0.3409041166
-0.3356443048
-0.335449487
-0.3340517282
-0.3327854872
-0.3327824771
-0.331926018
-0.3302229345
-0.3297784626
-0.3286261261
-0.3258113861
-0.3252865672
-0.3249509037
-0.324200213
-0.3224992156
-0.3152804971
-0.3122451007
-0.3070516288
-0.3065114021
-0.3058795631
-0.3058430254
-0.3041138351
-0.3005104661
-0.2999225557
-0.2996763885
-0.2980574667
-0.2975696921
-0.2973001003
-0.2966124713
-0.2964116633
-0.2961055934
-0.2932712734
-0.2923297882
-0.290354073
-0.2891127169
-0.2873506546
-0.2866551578
-0.2862775624
-0.286159873
-0.28556481
-0.2830345929
-0.282071352
-0.2795194685
-0.2790623307
-0.2786540985
-0.2782328427
-0.2775786817
-0.2771121264
-0.276445955
-0.2741539776
-0.2737390101
-0.2711346447
-0.2703031301
-0.2687501907
-0.2686217129
-0.2661966085
-0.2652528882
-0.2636685073
-0.2623768747
-0.261331439
-0.2580484748
-0.2567914128
-0.2555958033
-0.255001694
-0.2547571659
-0.2542639077
-0.2539592981
-0.2535601258
-0.2529616356
-0.2500309944
-0.2497742772
-0.2488877922
-0.246545285
-0.2451742738
-0.240400821
-0.2365386188
-0.2349203974
-0.2345453203
-0.2331890166
-0.233104974
-0.2325544655
-0.2315538377
-0.2265809923
-0.223274976
-0.2215364724
-0.2207235396
-0.2197221369
-0.2195569724
-0.2195537984
-0.2189514339
-0.2176999301
-0.216735974
-0.2154470682
-0.2147249728
-0.2140022218
-0.2128926218
-0.2112059444
-0.2107307911
-0.2085056454
-0.208475247
-0.2072775066
-0.2068571001
-0.2044018805
-0.2039734274
-0.200107336
-0.1991820186
-0.1974114925
-0.197354883
-0.1970091462
-0.1968036145
-0.196307227
-0.1961693913
-0.1960608065
-0.1948425919
-0.1941831112
-0.1939396262
-0.1934384704
-0.1918802559
-0.1902831346
-0.1864138991
-0.1859542727
-0.1835003346
-0.1808099896
-0.180745557
-0.1805410534
-0.1797806323
-0.1793710589
-0.1792416871
-0.1779218167
-0.1766184419
-0.1764664501
-0.1749061346
-0.1746370494
-0.1734366268
-0.1716224551
-0.1706997603
-0.1671403795
-0.1646383256
-0.164104715
-0.1631118655
-0.1624362171
-0.1622114778
-0.1618775427
-0.1615107805
-0.1583418101
-0.1577530056
-0.1573617458
-0.156922102
-0.1568649858
-0.1560119987
-0.1556069702
-0.1552503556
-0.1544937044
-0.153802827
-0.1508380622
-0.1483913809
-0.1480547041
-0.1449284852
-0.1429072469
-0.1422641277
-0.1404240131
-0.1401140094
-0.1390088946
-0.1386993825
-0.1377078444
-0.1364057064
-0.1357429326
-0.1357407272
-0.1342054605
-0.1326896697
-0.1315556467
-0.1307359636
-0.1295382828
-0.1288806349
-0.1275461465
-0.1266648322
-0.126312241
-0.1261063814
-0.1248909235
-0.1232887581
-0.1228606403
-0.122161597
-0.118043147
-0.1180162132
-0.117379643
-0.1158684865
-0.108155854
-0.1064717025
-0.1055977419
-0.1018990427
-0.101693742
-0.1010816023
-0.0974951461
-0.09741079807
-0.09736052901
-0.09709626436
-0.09659608454
-0.09651174396
-0.09530487657
-0.09528890997
-0.09503027797
-0.09480693191
-0.09374837577
-0.0931866467
-0.09300927073
-0.09206419438
-0.08949447423
-0.08809143305
-0.08659767359
-0.08399051428
-0.08364831656
-0.08325425535
-0.08270705491
-0.08257967234
-0.08250192553
-0.08187543601
-0.08187279105
-0.08092670143
-0.08044415712
-0.07959470153
-0.07913190126
-0.07899012417
-0.07804837078
-0.07790888101
-0.07707708329
-0.07662212104
-0.07593978196
-0.07562081516
-0.0752518177
-0.07520975173
-0.07520797849
-0.07432314008
-0.07356179506
-0.07283317298
-0.07230077684
-0.07187662274
-0.07184679061
-0.07179871947
-0.07090073824
-0.07058689743
-0.06907264143
-0.06906351447
-0.06889662147
-0.068232961
-0.06784787029
-0.0676824376
-0.06718099862
-0.06617056578
-0.06559588015
-0.06363319606
-0.06313095987
-0.06282252073
-0.06262571365
-0.06143800542
-0.06106690317
-0.06100794673
-0.06062524393
-0.06016508862
-0.05966313183
-0.05915024132
-0.05907282978
-0.05825462192
-0.05644576252
-0.05621314421
-0.05572193488
-0.05545767769
-0.05522369221
-0.0545350723
-0.05447855219
-0.0539493598
-0.05370567739
-0.05341422558
-0.05304926634
-0.05288184807
-0.05279195681
-0.05264795572
-0.05235729739
-0.05220465362
-0.05184565485
-0.05124520138
-0.05102866143
-0.05010899156
-0.04895984754
-0.04842825606
-0.04837748408
-0.04816686362
-0.04776857421
-0.04669132456
-0.04652033374
-0.04638506472
-0.04598553851
-0.04592131451
-0.04528419673
-0.04444060847
-0.04435645789
-0.0438443087
-0.04159666225
-0.04133147374
-0.0412954241
-0.04124256968
-0.04123635963
-0.04120177403
-0.04118045792
-0.04101836681
-0.0405542776
-0.04017418995
-0.03980652615
-0.03918459266
-0.03903183714
-0.03844976798
-0.03803169727
-0.03801038861
-0.03793786466
-0.03777962551
-0.03764870763
-0.03752263263
-0.03749024495
-0.03744036704
-0.03737390786
-0.03736058623
-0.03727373108
-0.0372579135
-0.03725679219
-0.03693039343
-0.03675024211
-0.0365986675
-0.03606902435
-0.03589294851
-0.0354167819
-0.03536200151
-0.03518346325
-0.03511701524
-0.03497408703
-0.03453792632
-0.033888679
-0.03308193758
-0.03305756301
-0.03296200186
-0.03272376955
-0.03266278282
-0.03261032701
-0.03255020455
-0.03221151978
-0.03188638762
-0.03183280677
-0.03162057698
-0.03062682599
-0.03033193015
-0.03017763048
-0.03017000668
-0.02987085283
-0.02930887975
-0.02907942235
-0.02897107042
-0.02825017273
-0.02819181792
-0.02800069191
-0.02783296816
-0.02698275261
-0.02677681111
-0.02605010942
-0.02568779141
-0.02559876069
-0.02526285127
-0.02515252866
-0.02404410206
-0.02216544934
-0.02178081498
-0.02145775966
-0.02102668956
-0.02082779445
-0.02076093853
-0.02017734572
-0.01993240416
-0.01969025098
-0.01909666695
-0.01904901862
-0.01899127103
-0.01898595318
-0.01862928644
-0.01732487045
-0.01724213921
-0.01702536643
-0.01685718633
-0.01683965884
-0.01678679511
-0.01650832407
-0.01636094041
-0.01633798331
-0.0161023736
-0.01582081802
-0.01555753034
-0.01537648868
-0.01534066908
-0.01533959899
-0.01522062998
-0.01371288393
-0.01259197667
-0.01235076785
-0.01229574624
-0.012169444
-0.01205783337
-0.01168529596
-0.01166848186
-0.01163309067
-0.01148357056
-0.01030576229
-0.01011812687
-0.009832409211
-0.008785734884
-0.008388374001
-0.007291684393
-0.00716864178
-0.00647957623
-0.006317013875
-0.006008580793
-0.005725704134
-0.005573246628
-0.00499712443
-0.004808063153
-0.004008194897
-0.003757998813
-0.002125406172
-0.001012861147
-0.0004161387915
-0.0001597304072
-7.171791367e-05
-1.945927761e-05
9.810431948e-05
0.0003068656079
0.001454105368
0.001922504278
0.001930916798
0.002270555357
0.002575745806
0.002608370502
0.002830184065
0.003606311977
0.004177887924
0.004573855083
0.005277008284
0.005642680451
0.005943730008
0.006165456958
0.006919309497
0.007981183939
0.008179446682
0.01004055049
0.01008888427
0.01038983744
0.01096257009
0.01111666299
0.01168414205
0.01199008431
0.01215860248
0.01218021102
0.01294562966
0.01326528285
0.01358977798
0.01431990694
0.01479556039
0.01488650497
0.0155993253
0.01568416134
0.01575335674
0.01579289325
0.01587097533
0.01748259366
0.01803653315
0.01847493649
0.01883734576
0.01892409101
0.02017596923
0.02023023739
0.02084901556
0.02089197934
0.02112677135
0.02160323784
0.02168062702
0.02234362438
0.02247697674
0.02366999909
0.02384151891
0.02400156111
0.02567878552
0.02585211955
0.02599967085
0.02638461813
0.02655450813
0.02659092657
0.02669539489
0.02693124302
0.02715817094
0.02757181972
0.02766560577
0.02808746696
0.02836725116
0.02889384143
0.02894203365
0.0289864745
0.02913518436
0.02954824641
0.02957795374
0.02973391488
0.0312387906
0.03138118982
0.03222758695
0.03228393942
0.03253868222
0.03279263899
0.03314024583
0.03403511271
0.03432836384
0.03439737484
0.03498616815
0.03542838991
0.03574368358
0.03576764092
0.0366403386
0.03688559681
0.03725511581
0.0380102545
0.03810143843
0.03905110806
0.03905789182
0.03911379725
0.03925477341
0.0392585434
0.04057528079
0.04069411755
0.04093934968
0.04103214294
0.04120218009
0.04156340659
0.04181401804
0.04201742262
0.04294242337
0.04547879472
0.04581754282
0.04586656392
0.04619305953
0.04638284445
0.04668506235
0.04732786492
0.04754753038
0.04785630479
0.04958379269
0.04981885478
0.05027962476
0.05203065276
0.05448493361
0.05478846282
0.05598031357
0.05635880679
0.05781812966
0.0581908226
0.05827695876
0.05874301866
0.05886844918
0.06143080816
0.0622777082
0.06379364431
0.06397534907
0.06651435047
0.06736993045
0.06757721305
0.06782519072
0.06850586087
0.06900278479
0.07000958174
0.07080931216
0.07086416334
0.0727000013
0.0748283267
0.0755572468
0.07588104904
0.07625696063
0.07711739093
0.07839040458
0.07839151472
0.0800223127
0.0816141516
0.08223322034
0.0827056393
0.08298424631
0.08336376399
0.0845650956
0.08529812843
0.08619081974
0.08634257317
0.08638244867
0.08864077181
0.08937500417
0.0900894925
0.09103520215
0.0915883109
0.09160660952
0.09267479926
0.09457506984
0.09648093581
0.09687009454
0.09735116363
0.09735269099
0.09768009186
0.0980868116
0.09814757854
0.09987164289
0.1007859036
0.1008651406
0.1013035253
0.1018245071
0.1020838916
0.1025695354
0.1030138656
0.1033000275
0.1033101603
0.1034062877
0.1037129015
0.1039054543
0.1043809205
0.1058928072
0.1073946357
0.1077005863
0.1078984514
0.1103891432
0.110746406
0.1114116013
0.1115615517
0.1136035621
0.1149401739
0.1163399294
0.1164575443
0.1173917577
0.1218235493
0.1228551939
0.1231647134
0.1233282611
0.1234130636
0.1236012131
0.1244377866
0.124874942
0.1254580021
0.1273463368
0.130665049
0.133705318
0.1356144547
0.1362065375
0.1370876729
0.1374064833
0.138756156
0.1396784633
0.1398558319
0.1420913935
0.1427150816
0.1430742741
0.1436697096
0.1450216621
0.1455842108
0.1472370327
0.1473766714
0.147589922
0.1491515934
0.1493113488
0.1507297456
0.1527100652
0.1527982801
0.1540006697
0.1552660316
0.1558580697
0.156222403
0.1579668373
0.1612435132
0.1613299251
0.1614978313
0.1628874838
0.1638748795
0.1664552987
0.1667382866
0.1683495194
0.1686123908
0.1697442979
0.174094364
0.1741818488
0.1772143543
0.1775398254
0.1780284494
0.1780935377
0.17837134
0.1801071465
0.1815871596
0.1824627966
0.18273215
0.1830254048
0.1890980005
0.1898242235
0.1909481734
0.1944282949
0.1950005144
0.1957820356
0.1960282624
0.1995647848
0.1996409744
0.1997362822
0.2002319098
0.2010305077
0.2037611306
0.2039003074
0.20555076
0.2076865137
0.2101092339
0.2107257098
0.2122221589
0.2157601565
0.2158187032
0.2161025554
0.2175538987
0.2197333574
0.2241481394
0.2250483036
0.2292637378
0.2310661823
0.234473303
0.2369265258
0.2379102856
0.2400277406
0.245196566
0.2474084198
0.2474709451
0.2493237108
0.2497117221
0.2509418428
0.2556248009
0.2569378018
0.2572896183
0.2587225139
0.2590250671
0.2592051923
0.2616451383
0.2619568408
0.262647301
0.2695750296
0.2698629797
0.2716777623
0.2737454176
0.2746139169
0.2761304677
0.2797752321
0.2813513279
0.2819996476
0.2835296094
0.2862220705
0.2924674749
0.2965560853
0.2966761887
0.2968285382
0.2988438308
0.2994786501
0.3135898411
0.3154859841
0.3178539872
0.3209484518
0.3210062385
0.32667467
0.3291096091
0.3306201398
0.3344279528
0.3353571594
0.3356880546
0.3436012566
0.3453398049
0.3568120599
0.3592006564
0.3687885106
0.3710671067
0.3710916638
0.3779286146
0.4124222994
0.4169152975
0.4237908721
0.4288062155
0.4709687531
0.4755640328
0.5622543693
0.6314718127
