-0.192149
-0.192149
-0.192149
-0.16653
-0.16653
-0.16653
-0.16653
-0.16653
-0.16653
-0.14091
-0.14091
-0.14091
-0.14091
-0.14091
-0.14091
-0.14091
-0.14091
-0.14091
-0.14091
-0.14091
-0.14091
-0.14091
-0.14091
-0.14091
-0.14091
-0.14091
-0.14091
-0.14091
-0.14091
-0.11529
-0.11529
-0.11529
-0.11529
-0.11529
-0.11529
-0.11529
-0.11529
-0.11529
-0.11529
-0.11529
-0.11529
-0.11529
-0.11529
-0.11529
-0.11529
-0.11529
-0.11529
-0.11529
-0.11529
-0.11529
-0.11529
-0.11529
-0.11529
-0.11529
-0.11529
-0.11529
-0.11529
-0.11529
-0.11529
-0.11529
-0.11529
-0.11529
-0.11529
-0.11529
-0.11529
-0.11529
-0.11529
-0.11529
-0.11529
-0.11529
-0.11529
-0.11529
-0.11529
-0.11529
-0.11529
-0.11529
-0.11529
-0.11529
-0.11529
-0.11529
-0.0896697
-0.0896697
-0.0896697
-0.0896697
-0.0896697
-0.0896697
-0.0896697
-0.0896697
-0.0896697
-0.0896697
-0.0896697
-0.0896697
-0.0896697
-0.0896697
-0.0896697
-0.0896697
-0.0896697
-0.0896697
-0.0896697
-0.0896697
-0.0896697
-0.0896697
-0.0896697
-0.0896697
-0.0896697
-0.0896697
-0.0896697
-0.0896697
-0.0896697
-0.0896697
-0.0896697
-0.0896697
-0.0896697
-0.0896697
-0.0896697
-0.0896697
-0.0896697
-0.0896697
-0.0896697
-0.0896697
-0.0896697
-0.0896697
-0.0896697
-0.0896697
-0.0896697
-0.0896697
-0.0896697
-0.0896697
-0.0896697
-0.0896697
-0.0896697
-0.0896697
-0.0896697
-0.0896697
-0.0896697
-0.0896697
-0.0896697
-0.0896697
-0.0896697
-0.0896697
-0.0896697
-0.0896697
-0.0896697
-0.0896697
-0.0896697
-0.0896697
-0.0896697
-0.0896697
-0.0896697
-0.0896697
-0.0896697
-0.0896697
-0.0896697
-0.0896697
-0.0896697
-0.0896697
-0.0896697
-0.0896697
-0.0896697
-0.0896697
-0.0896697
-0.0896697
-0.0896697
-0.0896697
-0.0896697
-0.0896697
-0.0896697
-0.0896697
-0.0896697
-0.0896697
-0.0896697
-0.0896697
-0.0896697
-0.0896697
-0.0896697
-0.0896697
-0.0896697
-0.0896697
-0.0896697
-0.0896697
-0.0896697
-0.0896697
-0.0896697
-0.0896697
-0.0896697
-0.0896697
-0.0896697
-0.0896697
-0.0896697
-0.0896697
-0.0896697
-0.0896697
-0.0896697
-0.0896697
-0.0896697
-0.0896697
-0.0896697
-0.0896697
-0.0896697
-0.0896697
-0.0896697
-0.0896697
-0.0896697
-0.0640498
-0.0640498
-0.0640498
-0.0640498
-0.0640498
-0.0640498
-0.0640498
-0.0640498
-0.0640498
-0.0640498
-0.0640498
-0.0640498
-0.0640498
-0.0640498
-0.0640498
-0.0640498
-0.0640498
-0.0640498
-0.0640498
-0.0640498
-0.0640498
-0.0640498
-0.0640498
-0.0640498
-0.0640498
-0.0640498
-0.0640498
-0.0640498
-0.0640498
-0.0640498
-0.0640498
-0.0640498
-0.0640498
-0.0640498
-0.0640498
-0.0640498
-0.0640498
-0.0640498
-0.0640498
-0.0640498
-0.0640498
-0.0640498
-0.0640498
-0.0640498
-0.0640498
-0.0640498
-0.0640498
-0.0640498
-0.0640498
-0.0640498
-0.0640498
-0.0640498
-0.0640498
-0.0640498
-0.0640498
-0.0640498
-0.0640498
-0.0640498
-0.0640498
-0.0640498
-0.0640498
-0.0640498
-0.0640498
-0.0640498
-0.0640498
-0.0640498
-0.0640498
-0.0640498
-0.0640498
-0.0640498
-0.0640498
-0.0640498
-0.0640498
-0.0640498
-0.0640498
-0.0640498
-0.0640498
-0.0640498
-0.0640498
-0.0640498
-0.0640498
-0.0640498
-0.0640498
-0.0640498
-0.0640498
-0.0640498
-0.0640498
-0.0640498
-0.0640498
-0.0640498
-0.0640498
-0.0640498
-0.0640498
-0.0640498
-0.0640498
-0.0640498
-0.0640498
-0.0640498
-0.0640498
-0.0640498
-0.0640498
-0.0640498
-0.0640498
-0.0640498
-0.0640498
-0.0640498
-0.0640498
-0.0640498
-0.0640498
-0.0640498
-0.0640498
-0.0640498
-0.0640498
-0.0640498
-0.0640498
-0.0640498
-0.0640498
-0.0640498
-0.0640498
-0.0640498
-0.0640498
-0.0640498
-0.0640498
-0.0640498
-0.0640498
-0.0640498
-0.0640498
-0.0640498
-0.0640498
-0.0640498
-0.0640498
-0.0640498
-0.0640498
-0.0640498
-0.0640498
-0.0640498
-0.0640498
-0.0640498
-0.0640498
-0.0640498
-0.0640498
-0.0640498
-0.0640498
-0.0640498
-0.0640498
-0.0640498
-0.0640498
-0.0640498
-0.0640498
-0.0640498
-0.0640498
-0.0640498
-0.0640498
-0.0640498
-0.0640498
-0.0640498
-0.0640498
-0.0640498
-0.0640498
-0.0640498
-0.0640498
-0.0640498
-0.0640498
-0.0640498
-0.0640498
-0.0640498
-0.0640498
-0.0640498
-0.0640498
-0.0640498
-0.0640498
-0.0640498
-0.0640498
-0.0640498
-0.0640498
-0.0384299
-0.0384299
-0.0384299
-0.0384299
-0.0384299
-0.0384299
-0.0384299
-0.0384299
-0.0384299
-0.0384299
-0.0384299
-0.0384299
-0.0384299
-0.0384299
-0.0384299
-0.0384299
-0.0384299
-0.0384299
-0.0384299
-0.0384299
-0.0384299
-0.0384299
-0.0384299
-0.0384299
-0.0384299
-0.0384299
-0.0384299
-0.0384299
-0.0384299
-0.0384299
-0.0384299
-0.0384299
-0.0384299
-0.0384299
-0.0384299
-0.0384299
-0.0384299
-0.0384299
-0.0384299
-0.0384299
-0.0384299
-0.0384299
-0.0384299
-0.0384299
-0.0384299
-0.0384299
-0.0384299
-0.0384299
-0.0384299
-0.0384299
-0.0384299
-0.0384299
-0.0384299
-0.0384299
-0.0384299
-0.0384299
-0.0384299
-0.0384299
-0.0384299
-0.0384299
-0.0384299
-0.0384299
-0.0384299
-0.0384299
-0.0384299
-0.0384299
-0.0384299
-0.0384299
-0.0384299
-0.0384299
-0.0384299
-0.0384299
-0.0384299
-0.0384299
-0.0384299
-0.0384299
-0.0384299
-0.0384299
-0.0384299
-0.0384299
-0.0384299
-0.0384299
-0.0384299
-0.0384299
-0.0384299
-0.0384299
-0.0384299
-0.0384299
-0.0384299
-0.0384299
-0.0384299
-0.0384299
-0.0384299
-0.0384299
-0.0384299
-0.0384299
-0.0384299
-0.0384299
-0.0384299
-0.0384299
-0.0384299
-0.0384299
-0.0384299
-0.0384299
-0.0384299
-0.0384299
-0.0384299
-0.0384299
-0.0384299
-0.0384299
-0.0384299
-0.0384299
-0.0384299
-0.0384299
-0.0384299
-0.0384299
-0.0384299
-0.0384299
-0.0384299
-0.0384299
-0.0384299
-0.0384299
-0.0384299
-0.0384299
-0.0384299
-0.0384299
-0.0384299
-0.0384299
-0.0384299
-0.0384299
-0.0384299
-0.0384299
-0.0384299
-0.0384299
-0.0384299
-0.0384299
-0.0384299
-0.0384299
-0.0384299
-0.0384299
-0.0384299
-0.0384299
-0.0384299
-0.0384299
-0.0384299
-0.0384299
-0.0384299
-0.0384299
-0.0384299
-0.0384299
-0.0384299
-0.0384299
-0.0384299
-0.0384299
-0.0384299
-0.0384299
-0.0384299
-0.0384299
-0.0384299
-0.0384299
-0.0384299
-0.0384299
-0.0384299
-0.0384299
-0.0384299
-0.0384299
-0.0384299
-0.0384299
-0.0384299
-0.0384299
-0.0384299
-0.0384299
-0.0384299
-0.0384299
-0.0384299
-0.0384299
-0.0384299
-0.0384299
-0.0384299
-0.0384299
-0.0384299
-0.0384299
-0.0384299
-0.0384299
-0.0384299
-0.0384299
-0.0384299
-0.0384299
-0.0384299
-0.0384299
-0.0384299
-0.0384299
-0.0384299
-0.0384299
-0.0384299
-0.0384299
-0.0384299
-0.0384299
-0.0384299
-0.0384299
-0.0384299
-0.0384299
-0.0384299
-0.0384299
-0.0384299
-0.0384299
-0.0384299
-0.0384299
-0.0384299
-0.0384299
-0.0384299
-0.0384299
-0.0384299
-0.0384299
-0.0384299
-0.0384299
-0.0384299
-0.0384299
-0.0384299
-0.0384299
-0.0384299
-0.0384299
-0.0384299
-0.0384299
-0.0384299
-0.0384299
-0.0384299
-0.0384299
-0.0384299
-0.0384299
-0.0384299
-0.0384299
-0.0384299
-0.0384299
-0.0384299
-0.0384299
-0.0384299
-0.0384299
-0.0384299
-0.0384299
-0.0384299
-0.0384299
-0.0384299
-0.0384299
-0.0384299
-0.0384299
-0.0384299
-0.0384299
-0.0384299
-0.0384299
-0.0384299
-0.0384299
-0.0384299
-0.0384299
-0.0384299
-0.0384299
-0.0384299
-0.0384299
-0.0384299
-0.0384299
-0.0384299
-0.0384299
-0.0384299
-0.0384299
-0.0384299
-0.0384299
-0.0384299
-0.0384299
-0.0384299
-0.0384299
-0.0384299
-0.0384299
-0.0384299
-0.0384299
-0.0384299
-0.0384299
-0.0384299
-0.0384299
-0.0384299
-0.0384299
-0.0384299
-0.0384299
-0.0384299
-0.0384299
-0.0384299
-0.0384299
-0.0384299
-0.0384299
-0.0384299
-0.0384299
-0.0384299
-0.0384299
-0.0384299
-0.0384299
-0.0384299
-0.0384299
-0.0384299
-0.0384299
-0.0384299
-0.0384299
-0.0384299
-0.0384299
-0.0384299
-0.0384299
-0.0384299
-0.0128099
-0.0128099
-0.0128099
-0.0128099
-0.0128099
-0.0128099
-0.0128099
-0.0128099
-0.0128099
-0.0128099
-0.0128099
-0.0128099
-0.0128099
-0.0128099
-0.0128099
-0.0128099
-0.0128099
-0.0128099
-0.0128099
-0.0128099
-0.0128099
-0.0128099
-0.0128099
-0.0128099
-0.0128099
-0.0128099
-0.0128099
-0.0128099
-0.0128099
-0.0128099
-0.0128099
-0.0128099
-0.0128099
-0.0128099
-0.0128099
-0.0128099
-0.0128099
-0.0128099
-0.0128099
-0.0128099
-0.0128099
-0.0128099
-0.0128099
-0.0128099
-0.0128099
-0.0128099
-0.0128099
-0.0128099
-0.0128099
-0.0128099
-0.0128099
-0.0128099
-0.0128099
-0.0128099
-0.0128099
-0.0128099
-0.0128099
-0.0128099
-0.0128099
-0.0128099
-0.0128099
-0.0128099
-0.0128099
-0.0128099
-0.0128099
-0.0128099
-0.0128099
-0.0128099
-0.0128099
-0.0128099
-0.0128099
-0.0128099
-0.0128099
-0.0128099
-0.0128099
-0.0128099
-0.0128099
-0.0128099
-0.0128099
-0.0128099
-0.0128099
-0.0128099
-0.0128099
-0.0128099
-0.0128099
-0.0128099
-0.0128099
-0.0128099
-0.0128099
-0.0128099
-0.0128099
-0.0128099
-0.0128099
-0.0128099
-0.0128099
-0.0128099
-0.0128099
-0.0128099
-0.0128099
-0.0128099
-0.0128099
-0.0128099
-0.0128099
-0.0128099
-0.0128099
-0.0128099
-0.0128099
-0.0128099
-0.0128099
-0.0128099
-0.0128099
-0.0128099
-0.0128099
-0.0128099
-0.0128099
-0.0128099
-0.0128099
-0.0128099
-0.0128099
-0.0128099
-0.0128099
-0.0128099
-0.0128099
-0.0128099
-0.0128099
-0.0128099
-0.0128099
-0.0128099
-0.0128099
-0.0128099
-0.0128099
-0.0128099
-0.0128099
-0.0128099
-0.0128099
-0.0128099
-0.0128099
-0.0128099
-0.0128099
-0.0128099
-0.0128099
-0.0128099
-0.0128099
-0.0128099
-0.0128099
-0.0128099
-0.0128099
-0.0128099
-0.0128099
-0.0128099
-0.0128099
-0.0128099
-0.0128099
-0.0128099
-0.0128099
-0.0128099
-0.0128099
-0.0128099
-0.0128099
-0.0128099
-0.0128099
-0.0128099
-0.0128099
-0.0128099
-0.0128099
-0.0128099
-0.0128099
-0.0128099
-0.0128099
-0.0128099
-0.0128099
-0.0128099
-0.0128099
-0.0128099
-0.0128099
-0.0128099
-0.0128099
-0.0128099
-0.0128099
-0.0128099
-0.0128099
-0.0128099
-0.0128099
-0.0128099
-0.0128099
-0.0128099
-0.0128099
-0.0128099
-0.0128099
-0.0128099
-0.0128099
-0.0128099
-0.0128099
-0.0128099
-0.0128099
-0.0128099
-0.0128099
-0.0128099
-0.0128099
-0.0128099
-0.0128099
-0.0128099
-0.0128099
-0.0128099
-0.0128099
-0.0128099
-0.0128099
-0.0128099
-0.0128099
-0.0128099
-0.0128099
-0.0128099
-0.0128099
-0.0128099
-0.0128099
-0.0128099
-0.0128099
-0.0128099
-0.0128099
-0.0128099
-0.0128099
-0.0128099
-0.0128099
-0.0128099
-0.0128099
-0.0128099
-0.0128099
-0.0128099
-0.0128099
-0.0128099
-0.0128099
-0.0128099
-0.0128099
-0.0128099
-0.0128099
-0.0128099
-0.0128099
-0.0128099
-0.0128099
-0.0128099
-0.0128099
-0.0128099
-0.0128099
-0.0128099
-0.0128099
-0.0128099
-0.0128099
-0.0128099
-0.0128099
-0.0128099
-0.0128099
-0.0128099
-0.0128099
-0.0128099
-0.0128099
-0.0128099
-0.0128099
-0.0128099
-0.0128099
-0.0128099
-0.0128099
-0.0128099
-0.0128099
-0.0128099
-0.0128099
-0.0128099
-0.0128099
-0.0128099
-0.0128099
-0.0128099
-0.0128099
-0.0128099
-0.0128099
-0.0128099
-0.0128099
-0.0128099
-0.0128099
-0.0128099
-0.0128099
-0.0128099
-0.0128099
-0.0128099
-0.0128099
-0.0128099
-0.0128099
-0.0128099
-0.0128099
-0.0128099
-0.0128099
-0.0128099
-0.0128099
-0.0128099
-0.0128099
-0.0128099
-0.0128099
-0.0128099
-0.0128099
-0.0128099
-0.0128099
-0.0128099
-0.0128099
-0.0128099
-0.0128099
-0.0128099
-0.0128099
-0.0128099
-0.0128099
-0.0128099
-0.0128099
-0.0128099
-0.0128099
-0.0128099
-0.0128099
-0.0128099
-0.0128099
-0.0128099
-0.0128099
-0.0128099
-0.0128099
-0.0128099
-0.0128099
-0.0128099
-0.0128099
-0.0128099
-0.0128099
-0.0128099
-0.0128099
-0.0128099
-0.0128099
-0.0128099
-0.0128099
-0.0128099
-0.0128099
-0.0128099
-0.0128099
-0.0128099
-0.0128099
-0.0128099
-0.0128099
-0.0128099
-0.0128099
-0.0128099
-0.0128099
-0.0128099
-0.0128099
-0.0128099
-0.0128099
-0.0128099
-0.0128099
-0.0128099
-0.0128099
-0.0128099
-0.0128099
-0.0128099
-0.0128099
-0.0128099
-0.0128099
-0.0128099
-0.0128099
-0.0128099
-0.0128099
-0.0128099
-0.0128099
-0.0128099
-0.0128099
-0.0128099
-0.0128099
-0.0128099
-0.0128099
-0.0128099
-0.0128099
-0.0128099
-0.0128099
-0.0128099
-0.0128099
-0.0128099
-0.0128099
-0.0128099
-0.0128099
-0.0128099
-0.0128099
-0.0128099
-0.0128099
-0.0128099
-0.0128099
-0.0128099
-0.0128099
-0.0128099
-0.0128099
-0.0128099
-0.0128099
-0.0128099
-0.0128099
-0.0128099
-0.0128099
-0.0128099
-0.0128099
-0.0128099
-0.0128099
-0.0128099
-0.0128099
-0.0128099
-0.0128099
-0.0128099
-0.0128099
-0.0128099
-0.0128099
-0.0128099
-0.0128099
-0.0128099
-0.0128099
-0.0128099
-0.0128099
-0.0128099
-0.0128099
-0.0128099
-0.0128099
-0.0128099
-0.0128099
-0.0128099
-0.0128099
-0.0128099
-0.0128099
-0.0128099
-0.0128099
-0.0128099
-0.0128099
-0.0128099
-0.0128099
-0.0128099
-0.0128099
-0.0128099
-0.0128099
-0.0128099
-0.0128099
-0.0128099
-0.0128099
-0.0128099
-0.0128099
-0.0128099
-0.0128099
-0.0128099
-0.0128099
-0.0128099
-0.0128099
-0.0128099
-0.0128099
-0.0128099
-0.0128099
-0.0128099
-0.0128099
-0.0128099
-0.0128099
-0.0128099
-0.0128099
-0.0128099
-0.0128099
-0.0128099
-0.0128099
0.01281
0.01281
0.01281
0.01281
0.01281
0.01281
0.01281
0.01281
0.01281
0.01281
0.01281
0.01281
0.01281
0.01281
0.01281
0.01281
0.01281
0.01281
0.01281
0.01281
0.01281
0.01281
0.01281
0.01281
0.01281
0.01281
0.01281
0.01281
0.01281
0.01281
0.01281
0.01281
0.01281
0.01281
0.01281
0.01281
0.01281
0.01281
0.01281
0.01281
0.01281
0.01281
0.01281
0.01281
0.01281
0.01281
0.01281
0.01281
0.01281
0.01281
0.01281
0.01281
0.01281
0.01281
0.01281
0.01281
0.01281
0.01281
0.01281
0.01281
0.01281
0.01281
0.01281
0.01281
0.01281
0.01281
0.01281
0.01281
0.01281
0.01281
0.01281
0.01281
0.01281
0.01281
0.01281
0.01281
0.01281
0.01281
0.01281
0.01281
0.01281
0.01281
0.01281
0.01281
0.01281
0.01281
0.01281
0.01281
0.01281
0.01281
0.01281
0.01281
0.01281
0.01281
0.01281
0.01281
0.01281
0.01281
0.01281
0.01281
0.01281
0.01281
0.01281
0.01281
0.01281
0.01281
0.01281
0.01281
0.01281
0.01281
0.01281
0.01281
0.01281
0.01281
0.01281
0.01281
0.01281
0.01281
0.01281
0.01281
0.01281
0.01281
0.01281
0.01281
0.01281
0.01281
0.01281
0.01281
0.01281
0.01281
0.01281
0.01281
0.01281
0.01281
0.01281
0.01281
0.01281
0.01281
0.01281
0.01281
0.01281
0.01281
0.01281
0.01281
0.01281
0.01281
0.01281
0.01281
0.01281
0.01281
0.01281
0.01281
0.01281
0.01281
0.01281
0.01281
0.01281
0.01281
0.01281
0.01281
0.01281
0.01281
0.01281
0.01281
0.01281
0.01281
0.01281
0.01281
0.01281
0.01281
0.01281
0.01281
0.01281
0.01281
0.01281
0.01281
0.01281
0.01281
0.01281
0.01281
0.01281
0.01281
0.01281
0.01281
0.01281
0.01281
0.01281
0.01281
0.01281
0.01281
0.01281
0.01281
0.01281
0.01281
0.01281
0.01281
0.01281
0.01281
0.01281
0.01281
0.01281
0.01281
0.01281
0.01281
0.01281
0.01281
0.01281
0.01281
0.01281
0.01281
0.01281
0.01281
0.01281
0.01281
0.01281
0.01281
0.01281
0.01281
0.01281
0.01281
0.01281
0.01281
0.01281
0.01281
0.01281
0.01281
0.01281
0.01281
0.01281
0.01281
0.01281
0.01281
0.01281
0.01281
0.01281
0.01281
0.01281
0.01281
0.01281
0.01281
0.01281
0.01281
0.01281
0.01281
0.01281
0.01281
0.01281
0.01281
0.01281
0.01281
0.01281
0.01281
0.01281
0.01281
0.01281
0.01281
0.01281
0.01281
0.01281
0.01281
0.01281
0.01281
0.01281
0.01281
0.01281
0.01281
0.01281
0.01281
0.01281
0.01281
0.01281
0.01281
0.01281
0.01281
0.01281
0.01281
0.01281
0.01281
0.01281
0.01281
0.01281
0.01281
0.01281
0.01281
0.01281
0.01281
0.01281
0.01281
0.01281
0.01281
0.01281
0.01281
0.01281
0.01281
0.01281
0.01281
0.01281
0.01281
0.01281
0.01281
0.01281
0.01281
0.01281
0.01281
0.01281
0.01281
0.01281
0.01281
0.01281
0.01281
0.01281
0.01281
0.01281
0.01281
0.01281
0.01281
0.01281
0.01281
0.01281
0.01281
0.01281
0.01281
0.01281
0.01281
0.01281
0.01281
0.01281
0.01281
0.01281
0.01281
0.01281
0.01281
0.01281
0.01281
0.01281
0.01281
0.01281
0.01281
0.01281
0.01281
0.01281
0.01281
0.01281
0.01281
0.01281
0.01281
0.01281
0.01281
0.01281
0.01281
0.01281
0.01281
0.01281
0.01281
0.01281
0.01281
0.01281
0.01281
0.01281
0.01281
0.01281
0.01281
0.01281
0.01281
0.01281
0.01281
0.01281
0.01281
0.01281
0.01281
0.01281
0.01281
0.01281
0.01281
0.01281
0.01281
0.01281
0.01281
0.01281
0.01281
0.01281
0.01281
0.01281
0.01281
0.01281
0.01281
0.01281
0.01281
0.01281
0.01281
0.01281
0.01281
0.01281
0.01281
0.01281
0.01281
0.01281
0.01281
0.01281
0.01281
0.01281
0.01281
0.01281
0.01281
0.01281
0.01281
0.01281
0.01281
0.01281
0.01281
0.01281
0.01281
0.01281
0.01281
0.01281
0.01281
0.01281
0.01281
0.01281
0.01281
0.01281
0.01281
0.01281
0.01281
0.01281
0.01281
0.01281
0.01281
0.01281
0.01281
0.01281
0.01281
0.01281
0.01281
0.01281
0.01281
0.01281
0.01281
0.01281
0.01281
0.01281
0.01281
0.01281
0.01281
0.01281
0.01281
0.01281
0.01281
0.01281
0.01281
0.01281
0.01281
0.01281
0.01281
0.01281
0.01281
0.01281
0.01281
0.01281
0.01281
0.01281
0.01281
0.01281
0.01281
0.01281
0.01281
0.01281
0.01281
0.01281
0.01281
0.01281
0.01281
0.01281
0.01281
0.01281
0.01281
0.01281
0.01281
0.01281
0.01281
0.01281
0.01281
0.01281
0.01281
0.01281
0.01281
0.01281
0.01281
0.01281
0.01281
0.01281
0.01281
0.01281
0.01281
0.01281
0.01281
0.01281
0.01281
0.01281
0.01281
0.01281
0.01281
0.01281
0.01281
0.01281
0.01281
0.01281
0.01281
0.01281
0.01281
0.01281
0.01281
0.01281
0.0384299
0.0384299
0.0384299
0.0384299
0.0384299
0.0384299
0.0384299
0.0384299
0.0384299
0.0384299
0.0384299
0.0384299
0.0384299
0.0384299
0.0384299
0.0384299
0.0384299
0.0384299
0.0384299
0.0384299
0.0384299
0.0384299
0.0384299
0.0384299
0.0384299
0.0384299
0.0384299
0.0384299
0.0384299
0.0384299
0.0384299
0.0384299
0.0384299
0.0384299
0.0384299
0.0384299
0.0384299
0.0384299
0.0384299
0.0384299
0.0384299
0.0384299
0.0384299
0.0384299
0.0384299
0.0384299
0.0384299
0.0384299
0.0384299
0.0384299
0.0384299
0.0384299
0.0384299
0.0384299
0.0384299
0.0384299
0.0384299
0.0384299
0.0384299
0.0384299
0.0384299
0.0384299
0.0384299
0.0384299
0.0384299
0.0384299
0.0384299
0.0384299
0.0384299
0.0384299
0.0384299
0.0384299
0.0384299
0.0384299
0.0384299
0.0384299
0.0384299
0.0384299
0.0384299
0.0384299
0.0384299
0.0384299
0.0384299
0.0384299
0.0384299
0.0384299
0.0384299
0.0384299
0.0384299
0.0384299
0.0384299
0.0384299
0.0384299
0.0384299
0.0384299
0.0384299
0.0384299
0.0384299
0.0384299
0.0384299
0.0384299
0.0384299
0.0384299
0.0384299
0.0384299
0.0384299
0.0384299
0.0384299
0.0384299
0.0384299
0.0384299
0.0384299
0.0384299
0.0384299
0.0384299
0.0384299
0.0384299
0.0384299
0.0384299
0.0384299
0.0384299
0.0384299
0.0384299
0.0384299
0.0384299
0.0384299
0.0384299
0.0384299
0.0384299
0.0384299
0.0384299
0.0384299
0.0384299
0.0384299
0.0384299
0.0384299
0.0384299
0.0384299
0.0384299
0.0384299
0.0384299
0.0384299
0.0384299
0.0384299
0.0384299
0.0384299
0.0384299
0.0384299
0.0384299
0.0384299
0.0384299
0.0384299
0.0384299
0.0384299
0.0384299
0.0384299
0.0384299
0.0384299
0.0384299
0.0384299
0.0384299
0.0384299
0.0384299
0.0384299
0.0384299
0.0384299
0.0384299
0.0384299
0.0384299
0.0384299
0.0384299
0.0384299
0.0384299
0.0384299
0.0384299
0.0384299
0.0384299
0.0384299
0.0384299
0.0384299
0.0384299
0.0384299
0.0384299
0.0384299
0.0384299
0.0384299
0.0384299
0.0384299
0.0384299
0.0384299
0.0384299
0.0384299
0.0384299
0.0384299
0.0384299
0.0384299
0.0384299
0.0384299
0.0384299
0.0384299
0.0384299
0.0384299
0.0384299
0.0384299
0.0384299
0.0384299
0.0384299
0.0384299
0.0384299
0.0384299
0.0384299
0.0384299
0.0384299
0.0384299
0.0384299
0.0384299
0.0384299
0.0384299
0.0384299
0.0384299
0.0384299
0.0384299
0.0384299
0.0384299
0.0384299
0.0384299
0.0384299
0.0384299
0.0384299
0.0384299
0.0384299
0.0384299
0.0384299
0.0384299
0.0384299
0.0384299
0.0384299
0.0384299
0.0384299
0.0384299
0.0384299
0.0384299
0.0384299
0.0384299
0.0384299
0.0384299
0.0384299
0.0384299
0.0384299
0.0384299
0.0384299
0.0384299
0.0384299
0.0384299
0.0384299
0.0384299
0.0384299
0.0384299
0.0384299
0.0384299
0.0384299
0.0384299
0.0384299
0.0384299
0.0384299
0.0384299
0.0384299
0.0384299
0.0384299
0.0384299
0.0384299
0.0384299
0.0384299
0.0384299
0.0384299
0.0384299
0.0384299
0.0384299
0.0384299
0.0384299
0.0384299
0.0384299
0.0384299
0.0384299
0.0384299
0.0384299
0.0384299
0.0384299
0.0384299
0.0384299
0.0384299
0.0384299
0.0384299
0.0384299
0.0384299
0.0384299
0.0384299
0.0384299
0.0384299
0.0384299
0.0384299
0.0384299
0.0384299
0.0384299
0.0384299
0.0384299
0.0384299
0.0384299
0.0384299
0.0384299
0.0384299
0.0384299
0.0384299
0.0384299
0.0384299
0.0384299
0.0384299
0.0384299
0.0384299
0.0384299
0.0384299
0.0384299
0.0384299
0.0384299
0.0384299
0.0384299
0.0384299
0.0384299
0.0384299
0.0384299
0.0384299
0.0384299
0.0384299
0.0384299
0.0384299
0.0384299
0.0384299
0.0384299
0.0384299
0.0384299
0.0384299
0.0384299
0.0384299
0.0384299
0.0384299
0.0384299
0.0384299
0.0384299
0.0384299
0.0384299
0.0384299
0.0384299
0.0384299
0.0384299
0.0384299
0.0384299
0.0384299
0.0384299
0.0384299
0.0384299
0.0384299
0.0384299
0.0384299
0.0384299
0.0384299
0.0384299
0.0384299
0.0384299
0.0384299
0.0384299
0.0384299
0.0384299
0.0384299
0.0384299
0.0384299
0.0384299
0.0384299
0.0384299
0.0384299
0.0384299
0.0384299
0.0384299
0.0384299
0.0384299
0.0384299
0.0384299
0.0384299
0.0384299
0.0384299
0.0384299
0.0384299
0.0384299
0.0384299
0.0384299
0.0384299
0.0384299
0.0384299
0.0384299
0.0384299
0.0384299
0.0384299
0.0384299
0.0384299
0.0384299
0.0384299
0.0384299
0.0384299
0.0384299
0.0384299
0.0384299
0.0384299
0.0384299
0.0384299
0.0384299
0.0384299
0.0384299
0.0384299
0.0384299
0.0384299
0.0384299
0.0384299
0.0384299
0.0384299
0.0384299
0.0384299
0.0384299
0.0384299
0.0384299
0.0384299
0.0384299
0.0384299
0.0384299
0.0384299
0.0384299
0.0384299
0.0384299
0.0384299
0.0384299
0.0384299
0.0384299
0.0384299
0.0640498
0.0640498
0.0640498
0.0640498
0.0640498
0.0640498
0.0640498
0.0640498
0.0640498
0.0640498
0.0640498
0.0640498
0.0640498
0.0640498
0.0640498
0.0640498
0.0640498
0.0640498
0.0640498
0.0640498
0.0640498
0.0640498
0.0640498
0.0640498
0.0640498
0.0640498
0.0640498
0.0640498
0.0640498
0.0640498
0.0640498
0.0640498
0.0640498
0.0640498
0.0640498
0.0640498
0.0640498
0.0640498
0.0640498
0.0640498
0.0640498
0.0640498
0.0640498
0.0640498
0.0640498
0.0640498
0.0640498
0.0640498
0.0640498
0.0640498
0.0640498
0.0640498
0.0640498
0.0640498
0.0640498
0.0640498
0.0640498
0.0640498
0.0640498
0.0640498
0.0640498
0.0640498
0.0640498
0.0640498
0.0640498
0.0640498
0.0640498
0.0640498
0.0640498
0.0640498
0.0640498
0.0640498
0.0640498
0.0640498
0.0640498
0.0640498
0.0640498
0.0640498
0.0640498
0.0640498
0.0640498
0.0640498
0.0640498
0.0640498
0.0640498
0.0640498
0.0640498
0.0640498
0.0640498
0.0640498
0.0640498
0.0640498
0.0640498
0.0640498
0.0640498
0.0640498
0.0640498
0.0640498
0.0640498
0.0640498
0.0640498
0.0640498
0.0640498
0.0640498
0.0640498
0.0640498
0.0640498
0.0640498
0.0640498
0.0640498
0.0640498
0.0640498
0.0640498
0.0640498
0.0640498
0.0640498
0.0640498
0.0640498
0.0640498
0.0640498
0.0640498
0.0640498
0.0640498
0.0640498
0.0640498
0.0640498
0.0640498
0.0640498
0.0640498
0.0640498
0.0640498
0.0640498
0.0640498
0.0640498
0.0640498
0.0640498
0.0640498
0.0640498
0.0640498
0.0640498
0.0640498
0.0640498
0.0640498
0.0640498
0.0640498
0.0640498
0.0640498
0.0640498
0.0640498
0.0640498
0.0640498
0.0640498
0.0640498
0.0640498
0.0640498
0.0640498
0.0640498
0.0640498
0.0640498
0.0640498
0.0640498
0.0640498
0.0640498
0.0640498
0.0640498
0.0640498
0.0640498
0.0640498
0.0640498
0.0640498
0.0640498
0.0640498
0.0640498
0.0640498
0.0640498
0.0640498
0.0640498
0.0640498
0.0640498
0.0640498
0.0640498
0.0640498
0.0640498
0.0640498
0.0640498
0.0640498
0.0640498
0.0640498
0.0640498
0.0640498
0.0640498
0.0640498
0.0640498
0.0640498
0.0640498
0.0640498
0.0640498
0.0640498
0.0640498
0.0640498
0.0640498
0.0640498
0.0640498
0.0640498
0.0640498
0.0640498
0.0640498
0.0640498
0.0640498
0.0640498
0.0640498
0.0640498
0.0640498
0.0640498
0.0640498
0.0640498
0.0640498
0.0640498
0.0640498
0.0640498
0.0640498
0.0640498
0.0640498
0.0640498
0.0896697
0.0896697
0.0896697
0.0896697
0.0896697
0.0896697
0.0896697
0.0896697
0.0896697
0.0896697
0.0896697
0.0896697
0.0896697
0.0896697
0.0896697
0.0896697
0.0896697
0.0896697
0.0896697
0.0896697
0.0896697
0.0896697
0.0896697
0.0896697
0.0896697
0.0896697
0.0896697
0.0896697
0.0896697
0.0896697
0.0896697
0.0896697
0.0896697
0.0896697
0.0896697
0.0896697
0.0896697
0.0896697
0.0896697
0.0896697
0.0896697
0.0896697
0.0896697
0.0896697
0.0896697
0.0896697
0.0896697
0.0896697
0.0896697
0.0896697
0.0896697
0.0896697
0.0896697
0.0896697
0.0896697
0.0896697
0.0896697
0.0896697
0.0896697
0.11529
0.11529
0.11529
0.11529
0.11529
0.11529
0.11529
0.11529
0.11529
0.11529
0.11529
0.11529
0.11529
0.11529
0.11529
0.11529
0.11529
0.11529
0.11529
0.14091
0.14091
