-1.16926
-1.01336
-0.857459
-0.857459
-0.857459
-0.857459
-0.857459
-0.857459
-0.857459
-0.857459
-0.701557
-0.701557
-0.701557
-0.701557
-0.701557
-0.701557
-0.701557
-0.701557
-0.701557
-0.701557
-0.701557
-0.701557
-0.701557
-0.701557
-0.701557
-0.701557
-0.701557
-0.701557
-0.701557
-0.701557
-0.701557
-0.701557
-0.701557
-0.701557
-0.701557
-0.701557
-0.701557
-0.701557
-0.701557
-0.701557
-0.701557
-0.701557
-0.701557
-0.701557
-0.701557
-0.701557
-0.701557
-0.701557
-0.701557
-0.701557
-0.701557
-0.701557
-0.701557
-0.545656
-0.545656
-0.545656
-0.545656
-0.545656
-0.545656
-0.545656
-0.545656
-0.545656
-0.545656
-0.545656
-0.545656
-0.545656
-0.545656
-0.545656
-0.545656
-0.545656
-0.545656
-0.545656
-0.545656
-0.545656
-0.545656
-0.545656
-0.545656
-0.545656
-0.545656
-0.545656
-0.545656
-0.545656
-0.545656
-0.545656
-0.545656
-0.545656
-0.545656
-0.545656
-0.545656
-0.545656
-0.545656
-0.545656
-0.545656
-0.545656
-0.545656
-0.545656
-0.545656
-0.545656
-0.545656
-0.545656
-0.545656
-0.545656
-0.545656
-0.545656
-0.545656
-0.545656
-0.545656
-0.545656
-0.545656
-0.545656
-0.545656
-0.545656
-0.545656
-0.545656
-0.545656
-0.545656
-0.545656
-0.545656
-0.545656
-0.545656
-0.389754
-0.389754
-0.389754
-0.389754
-0.389754
-0.389754
-0.389754
-0.389754
-0.389754
-0.389754
-0.389754
-0.389754
-0.389754
-0.389754
-0.389754
-0.389754
-0.389754
-0.389754
-0.389754
-0.389754
-0.389754
-0.389754
-0.389754
-0.389754
-0.389754
-0.389754
-0.389754
-0.389754
-0.389754
-0.389754
-0.389754
-0.389754
-0.389754
-0.389754
-0.389754
-0.389754
-0.389754
-0.389754
-0.389754
-0.389754
-0.389754
-0.389754
-0.389754
-0.389754
-0.389754
-0.389754
-0.389754
-0.389754
-0.389754
-0.389754
-0.389754
-0.389754
-0.389754
-0.389754
-0.389754
-0.389754
-0.389754
-0.389754
-0.389754
-0.389754
-0.389754
-0.389754
-0.389754
-0.389754
-0.389754
-0.389754
-0.389754
-0.389754
-0.389754
-0.389754
-0.389754
-0.389754
-0.389754
-0.389754
-0.389754
-0.389754
-0.389754
-0.389754
-0.389754
-0.389754
-0.389754
-0.389754
-0.389754
-0.389754
-0.389754
-0.389754
-0.389754
-0.389754
-0.389754
-0.389754
-0.389754
-0.389754
-0.233852
-0.233852
-0.233852
-0.233852
-0.233852
-0.233852
-0.233852
-0.233852
-0.233852
-0.233852
-0.233852
-0.233852
-0.233852
-0.233852
-0.233852
-0.233852
-0.233852
-0.233852
-0.233852
-0.233852
-0.233852
-0.233852
-0.233852
-0.233852
-0.233852
-0.233852
-0.233852
-0.233852
-0.233852
-0.233852
-0.233852
-0.233852
-0.233852
-0.233852
-0.233852
-0.233852
-0.233852
-0.233852
-0.233852
-0.233852
-0.233852
-0.233852
-0.233852
-0.233852
-0.233852
-0.233852
-0.233852
-0.233852
-0.233852
-0.233852
-0.233852
-0.233852
-0.233852
-0.233852
-0.233852
-0.233852
-0.233852
-0.233852
-0.233852
-0.233852
-0.233852
-0.233852
-0.233852
-0.233852
-0.233852
-0.233852
-0.233852
-0.233852
-0.233852
-0.233852
-0.233852
-0.233852
-0.233852
-0.233852
-0.233852
-0.233852
-0.233852
-0.233852
-0.233852
-0.233852
-0.233852
-0.233852
-0.233852
-0.233852
-0.233852
-0.233852
-0.233852
-0.233852
-0.233852
-0.233852
-0.233852
-0.233852
-0.233852
-0.233852
-0.233852
-0.233852
-0.233852
-0.233852
-0.0779507
-0.0779507
-0.0779507
-0.0779507
-0.0779507
-0.0779507
-0.0779507
-0.0779507
-0.0779507
-0.0779507
-0.0779507
-0.0779507
-0.0779507
-0.0779507
-0.0779507
-0.0779507
-0.0779507
-0.0779507
-0.0779507
-0.0779507
-0.0779507
-0.0779507
-0.0779507
-0.0779507
-0.0779507
-0.0779507
-0.0779507
-0.0779507
-0.0779507
-0.0779507
-0.0779507
-0.0779507
-0.0779507
-0.0779507
-0.0779507
-0.0779507
-0.0779507
-0.0779507
-0.0779507
-0.0779507
-0.0779507
-0.0779507
-0.0779507
-0.0779507
-0.0779507
-0.0779507
-0.0779507
-0.0779507
-0.0779507
-0.0779507
-0.0779507
-0.0779507
-0.0779507
-0.0779507
-0.0779507
-0.0779507
-0.0779507
-0.0779507
-0.0779507
-0.0779507
-0.0779507
-0.0779507
-0.0779507
-0.0779507
-0.0779507
-0.0779507
-0.0779507
-0.0779507
-0.0779507
-0.0779507
-0.0779507
-0.0779507
-0.0779507
-0.0779507
-0.0779507
-0.0779507
-0.0779507
-0.0779507
-0.0779507
-0.0779507
-0.0779507
-0.0779507
-0.0779507
-0.0779507
-0.0779507
-0.0779507
-0.0779507
-0.0779507
-0.0779507
-0.0779507
-0.0779507
-0.0779507
-0.0779507
-0.0779507
-0.0779507
-0.0779507
-0.0779507
-0.0779507
-0.0779507
-0.0779507
-0.0779507
-0.0779507
-0.0779507
-0.0779507
-0.0779507
-0.0779507
-0.0779507
-0.0779507
-0.0779507
-0.0779507
-0.0779507
-0.0779507
-0.0779507
-0.0779507
-0.0779507
-0.0779507
-0.0779507
-0.0779507
-0.0779507
-0.0779507
-0.0779507
-0.0779507
-0.0779507
-0.0779507
-0.0779507
-0.0779507
-0.0779507
-0.0779507
-0.0779507
-0.0779507
-0.0779507
-0.0779507
-0.0779507
-0.0779507
-0.0779507
-0.0779507
-0.0779507
-0.0779507
-0.0779507
-0.0779507
-0.0779507
-0.0779507
-0.0779507
-0.0779507
-0.0779507
-0.0779507
-0.0779507
-0.0779507
-0.0779507
-0.0779507
-0.0779507
-0.0779507
-0.0779507
-0.0779507
-0.0779507
-0.0779507
-0.0779507
-0.0779507
-0.0779507
-0.0779507
-0.0779507
-0.0779507
-0.0779507
-0.0779507
-0.0779507
-0.0779507
-0.0779507
-0.0779507
-0.0779507
-0.0779507
-0.0779507
-0.0779507
-0.0779507
-0.0779507
-0.0779507
-0.0779507
-0.0779507
-0.0779507
-0.0779507
-0.0779507
-0.0779507
-0.0779507
-0.0779507
-0.0779507
-0.0779507
-0.0779507
-0.0779507
-0.0779507
-0.0779507
-0.0779507
-0.0779507
-0.0779507
-0.0779507
0.0779509
0.0779509
0.0779509
0.0779509
0.0779509
0.0779509
0.0779509
0.0779509
0.0779509
0.0779509
0.0779509
0.0779509
0.0779509
0.0779509
0.0779509
0.0779509
0.0779509
0.0779509
0.0779509
0.0779509
0.0779509
0.0779509
0.0779509
0.0779509
0.0779509
0.0779509
0.0779509
0.0779509
0.0779509
0.0779509
0.0779509
0.0779509
0.0779509
0.0779509
0.0779509
0.0779509
0.0779509
0.0779509
0.0779509
0.0779509
0.0779509
0.0779509
0.0779509
0.0779509
0.0779509
0.0779509
0.0779509
0.0779509
0.0779509
0.0779509
0.0779509
0.0779509
0.0779509
0.0779509
0.0779509
0.0779509
0.0779509
0.0779509
0.0779509
0.0779509
0.0779509
0.0779509
0.0779509
0.0779509
0.0779509
0.0779509
0.0779509
0.0779509
0.0779509
0.0779509
0.0779509
0.0779509
0.0779509
0.0779509
0.0779509
0.0779509
0.0779509
0.0779509
0.0779509
0.0779509
0.0779509
0.0779509
0.0779509
0.0779509
0.0779509
0.0779509
0.0779509
0.0779509
0.0779509
0.0779509
0.0779509
0.0779509
0.0779509
0.0779509
0.0779509
0.0779509
0.0779509
0.0779509
0.0779509
0.0779509
0.0779509
0.0779509
0.0779509
0.0779509
0.0779509
0.0779509
0.0779509
0.0779509
0.0779509
0.0779509
0.0779509
0.0779509
0.0779509
0.0779509
0.0779509
0.0779509
0.0779509
0.0779509
0.0779509
0.0779509
0.0779509
0.0779509
0.0779509
0.0779509
0.0779509
0.0779509
0.0779509
0.0779509
0.0779509
0.0779509
0.0779509
0.0779509
0.0779509
0.0779509
0.0779509
0.0779509
0.0779509
0.0779509
0.0779509
0.0779509
0.0779509
0.0779509
0.0779509
0.0779509
0.0779509
0.0779509
0.0779509
0.0779509
0.0779509
0.0779509
0.0779509
0.0779509
0.0779509
0.0779509
0.0779509
0.0779509
0.233852
0.233852
0.233852
0.233852
0.233852
0.233852
0.233852
0.233852
0.233852
0.233852
0.233852
0.233852
0.233852
0.233852
0.233852
0.233852
0.233852
0.233852
0.233852
0.233852
0.233852
0.233852
0.233852
0.233852
0.233852
0.233852
0.233852
0.233852
0.233852
0.233852
0.233852
0.233852
0.233852
0.233852
0.233852
0.233852
0.233852
0.233852
0.233852
0.233852
0.233852
0.233852
0.233852
0.233852
0.233852
0.233852
0.233852
0.233852
0.233852
0.233852
0.233852
0.233852
0.233852
0.233852
0.233852
0.233852
0.233852
0.233852
0.233852
0.233852
0.233852
0.233852
0.233852
0.233852
0.233852
0.233852
0.233852
0.233852
0.233852
0.233852
0.233852
0.233852
0.233852
0.233852
0.233852
0.233852
0.233852
0.233852
0.233852
0.233852
0.233852
0.233852
0.233852
0.233852
0.233852
0.233852
0.233852
0.233852
0.233852
0.233852
0.233852
0.233852
0.233852
0.233852
0.233852
0.233852
0.233852
0.233852
0.233852
0.233852
0.233852
0.233852
0.233852
0.233852
0.389754
0.389754
0.389754
0.389754
0.389754
0.389754
0.389754
0.389754
0.389754
0.389754
0.389754
0.389754
0.389754
0.389754
0.389754
0.389754
0.389754
0.389754
0.389754
0.389754
0.389754
0.389754
0.389754
0.389754
0.389754
0.389754
0.389754
0.389754
0.389754
0.389754
0.389754
0.389754
0.389754
0.389754
0.389754
0.389754
0.389754
0.389754
0.389754
0.389754
0.389754
0.389754
0.389754
0.389754
0.389754
0.389754
0.389754
0.389754
0.389754
0.389754
0.389754
0.389754
0.389754
0.389754
0.389754
0.389754
0.389754
0.389754
0.389754
0.389754
0.545656
0.545656
0.545656
0.545656
0.545656
0.545656
0.545656
0.545656
0.545656
0.545656
0.545656
0.545656
0.545656
0.701557
0.701557
0.701557
0.701557
