-0.169298
-0.169298
-0.169298
-0.138516
-0.138516
-0.138516
-0.138516
-0.138516
-0.138516
-0.138516
-0.138516
-0.138516
-0.138516
-0.138516
-0.138516
-0.138516
-0.138516
-0.138516
-0.138516
-0.138516
-0.107735
-0.107735
-0.107735
-0.107735
-0.107735
-0.107735
-0.107735
-0.107735
-0.107735
-0.107735
-0.107735
-0.107735
-0.107735
-0.107735
-0.107735
-0.107735
-0.0769534
-0.0769534
-0.0769534
-0.0769534
-0.0769534
-0.0769534
-0.0769534
-0.0769534
-0.0769534
-0.0769534
-0.0769534
-0.0769534
-0.0769534
-0.0769534
-0.0769534
-0.0769534
-0.0769534
-0.0769534
-0.0769534
-0.0769534
-0.0769534
-0.0769534
-0.0769534
-0.0769534
-0.0769534
-0.0769534
-0.0769534
-0.0769534
-0.0769534
-0.0769534
-0.0769534
-0.0769534
-0.0769534
-0.0769534
-0.0769534
-0.0769534
-0.0769534
-0.0769534
-0.0769534
-0.0769534
-0.0769534
-0.046172
-0.046172
-0.046172
-0.046172
-0.046172
-0.046172
-0.046172
-0.046172
-0.046172
-0.046172
-0.046172
-0.046172
-0.046172
-0.046172
-0.046172
-0.046172
-0.046172
-0.046172
-0.046172
-0.046172
-0.046172
-0.046172
-0.046172
-0.046172
-0.046172
-0.046172
-0.046172
-0.046172
-0.046172
-0.046172
-0.046172
-0.046172
-0.046172
-0.046172
-0.046172
-0.046172
-0.046172
-0.046172
-0.046172
-0.046172
-0.046172
-0.046172
-0.046172
-0.0153907
-0.0153907
-0.0153907
-0.0153907
-0.0153907
-0.0153907
-0.0153907
-0.0153907
-0.0153907
-0.0153907
-0.0153907
-0.0153907
-0.0153907
-0.0153907
-0.0153907
-0.0153907
-0.0153907
-0.0153907
-0.0153907
-0.0153907
-0.0153907
-0.0153907
-0.0153907
-0.0153907
-0.0153907
-0.0153907
-0.0153907
-0.0153907
-0.0153907
-0.0153907
-0.0153907
-0.0153907
-0.0153907
-0.0153907
-0.0153907
-0.0153907
-0.0153907
-0.0153907
-0.0153907
-0.0153907
-0.0153907
0.0153907
0.0153907
0.0153907
0.0153907
0.0153907
0.0153907
0.0153907
0.0153907
0.0153907
0.0153907
0.0153907
0.0153907
0.0153907
0.0153907
0.0153907
0.0153907
0.0153907
0.0153907
0.0153907
0.0153907
0.0153907
0.0153907
0.0153907
0.0153907
0.0153907
0.0153907
0.0153907
0.0153907
0.0153907
0.0153907
0.0153907
0.0153907
0.0153907
0.0153907
0.0153907
0.0153907
0.0153907
0.0153907
0.0461721
0.0461721
0.0461721
0.0461721
0.0461721
0.0461721
0.0461721
0.0461721
0.0461721
0.0461721
0.0461721
0.0461721
0.0461721
0.0461721
0.0461721
0.0461721
0.0461721
0.0461721
0.0461721
0.0461721
0.0461721
0.0461721
0.0461721
0.0461721
0.0461721
0.0461721
0.0461721
0.0461721
0.0461721
0.0461721
0.0461721
0.0461721
0.0461721
0.0461721
0.0461721
0.0461721
0.0769534
0.0769534
0.0769534
0.0769534
0.0769534
0.0769534
0.0769534
0.0769534
0.0769534
0.0769534
0.0769534
0.0769534
0.0769534
0.0769534
0.0769534
0.0769534
0.0769534
0.0769534
0.0769534
0.0769534
0.0769534
0.0769534
0.0769534
0.107735
0.107735
0.107735
0.107735
0.107735
0.107735
0.107735
0.107735
0.107735
0.107735
0.107735
0.107735
0.107735
0.107735
0.107735
0.107735
0.107735
0.138516
0.138516
0.138516
0.138516
0.138516
0.138516
0.138516
0.138516
0.138516
0.138516
0.138516
0.138516
0.138516
0.138516
0.138516
0.169298
0.169298
0.169298
0.169298
0.169298
0.169298
0.200079
0.200079
0.200079
0.23086
