-0.186212
-0.186212
-0.186212
-0.186212
-0.161384
-0.161384
-0.161384
-0.161384
-0.161384
-0.161384
-0.161384
-0.161384
-0.161384
-0.161384
-0.161384
-0.161384
-0.161384
-0.161384
-0.161384
-0.136556
-0.136556
-0.136556
-0.136556
-0.136556
-0.136556
-0.136556
-0.136556
-0.136556
-0.136556
-0.136556
-0.136556
-0.136556
-0.136556
-0.136556
-0.136556
-0.136556
-0.136556
-0.136556
-0.136556
-0.136556
-0.136556
-0.136556
-0.136556
-0.136556
-0.136556
-0.136556
-0.136556
-0.136556
-0.111727
-0.111727
-0.111727
-0.111727
-0.111727
-0.111727
-0.111727
-0.111727
-0.111727
-0.111727
-0.111727
-0.111727
-0.111727
-0.111727
-0.111727
-0.111727
-0.111727
-0.111727
-0.111727
-0.111727
-0.111727
-0.111727
-0.111727
-0.111727
-0.111727
-0.111727
-0.111727
-0.111727
-0.111727
-0.111727
-0.111727
-0.111727
-0.111727
-0.111727
-0.111727
-0.111727
-0.111727
-0.111727
-0.111727
-0.111727
-0.111727
-0.111727
-0.111727
-0.111727
-0.111727
-0.111727
-0.111727
-0.111727
-0.111727
-0.111727
-0.111727
-0.111727
-0.0868991
-0.0868991
-0.0868991
-0.0868991
-0.0868991
-0.0868991
-0.0868991
-0.0868991
-0.0868991
-0.0868991
-0.0868991
-0.0868991
-0.0868991
-0.0868991
-0.0868991
-0.0868991
-0.0868991
-0.0868991
-0.0868991
-0.0868991
-0.0868991
-0.0868991
-0.0868991
-0.0868991
-0.0868991
-0.0868991
-0.0868991
-0.0868991
-0.0868991
-0.0868991
-0.0868991
-0.0868991
-0.0868991
-0.0868991
-0.0868991
-0.0868991
-0.0868991
-0.0868991
-0.0868991
-0.0868991
-0.0868991
-0.0868991
-0.0868991
-0.0868991
-0.0868991
-0.0868991
-0.0868991
-0.0868991
-0.0868991
-0.0868991
-0.0868991
-0.0868991
-0.0868991
-0.0868991
-0.0868991
-0.0868991
-0.0868991
-0.0868991
-0.0868991
-0.0868991
-0.0868991
-0.0868991
-0.0868991
-0.0868991
-0.0868991
-0.0868991
-0.0868991
-0.0868991
-0.0868991
-0.0868991
-0.0868991
-0.0868991
-0.0868991
-0.0868991
-0.0868991
-0.0868991
-0.0868991
-0.0868991
-0.0868991
-0.0868991
-0.0868991
-0.0868991
-0.0868991
-0.0868991
-0.0868991
-0.0868991
-0.0868991
-0.0868991
-0.0868991
-0.0868991
-0.0868991
-0.0868991
-0.0868991
-0.0868991
-0.0868991
-0.0868991
-0.0868991
-0.0868991
-0.0868991
-0.0868991
-0.0868991
-0.0620708
-0.0620708
-0.0620708
-0.0620708
-0.0620708
-0.0620708
-0.0620708
-0.0620708
-0.0620708
-0.0620708
-0.0620708
-0.0620708
-0.0620708
-0.0620708
-0.0620708
-0.0620708
-0.0620708
-0.0620708
-0.0620708
-0.0620708
-0.0620708
-0.0620708
-0.0620708
-0.0620708
-0.0620708
-0.0620708
-0.0620708
-0.0620708
-0.0620708
-0.0620708
-0.0620708
-0.0620708
-0.0620708
-0.0620708
-0.0620708
-0.0620708
-0.0620708
-0.0620708
-0.0620708
-0.0620708
-0.0620708
-0.0620708
-0.0620708
-0.0620708
-0.0620708
-0.0620708
-0.0620708
-0.0620708
-0.0620708
-0.0620708
-0.0620708
-0.0620708
-0.0620708
-0.0620708
-0.0620708
-0.0620708
-0.0620708
-0.0620708
-0.0620708
-0.0620708
-0.0620708
-0.0620708
-0.0620708
-0.0620708
-0.0620708
-0.0620708
-0.0620708
-0.0620708
-0.0620708
-0.0620708
-0.0620708
-0.0620708
-0.0620708
-0.0620708
-0.0620708
-0.0620708
-0.0620708
-0.0620708
-0.0620708
-0.0620708
-0.0620708
-0.0620708
-0.0620708
-0.0620708
-0.0620708
-0.0620708
-0.0620708
-0.0620708
-0.0620708
-0.0620708
-0.0620708
-0.0620708
-0.0620708
-0.0620708
-0.0620708
-0.0620708
-0.0620708
-0.0620708
-0.0620708
-0.0620708
-0.0620708
-0.0620708
-0.0620708
-0.0620708
-0.0620708
-0.0620708
-0.0620708
-0.0620708
-0.0620708
-0.0620708
-0.0620708
-0.0620708
-0.0620708
-0.0620708
-0.0620708
-0.0620708
-0.0620708
-0.0620708
-0.0620708
-0.0620708
-0.0620708
-0.0620708
-0.0620708
-0.0620708
-0.0620708
-0.0620708
-0.0620708
-0.0620708
-0.0620708
-0.0620708
-0.0620708
-0.0620708
-0.0620708
-0.0620708
-0.0620708
-0.0620708
-0.0620708
-0.0620708
-0.0620708
-0.0620708
-0.0620708
-0.0620708
-0.0620708
-0.0620708
-0.0620708
-0.0620708
-0.0620708
-0.0620708
-0.0620708
-0.0620708
-0.0620708
-0.0620708
-0.0620708
-0.0620708
-0.0620708
-0.0620708
-0.0620708
-0.0620708
-0.0620708
-0.0620708
-0.0620708
-0.0620708
-0.0620708
-0.0620708
-0.0620708
-0.0620708
-0.0620708
-0.0620708
-0.0620708
-0.0620708
-0.0620708
-0.0620708
-0.0620708
-0.0620708
-0.0620708
-0.0372424
-0.0372424
-0.0372424
-0.0372424
-0.0372424
-0.0372424
-0.0372424
-0.0372424
-0.0372424
-0.0372424
-0.0372424
-0.0372424
-0.0372424
-0.0372424
-0.0372424
-0.0372424
-0.0372424
-0.0372424
-0.0372424
-0.0372424
-0.0372424
-0.0372424
-0.0372424
-0.0372424
-0.0372424
-0.0372424
-0.0372424
-0.0372424
-0.0372424
-0.0372424
-0.0372424
-0.0372424
-0.0372424
-0.0372424
-0.0372424
-0.0372424
-0.0372424
-0.0372424
-0.0372424
-0.0372424
-0.0372424
-0.0372424
-0.0372424
-0.0372424
-0.0372424
-0.0372424
-0.0372424
-0.0372424
-0.0372424
-0.0372424
-0.0372424
-0.0372424
-0.0372424
-0.0372424
-0.0372424
-0.0372424
-0.0372424
-0.0372424
-0.0372424
-0.0372424
-0.0372424
-0.0372424
-0.0372424
-0.0372424
-0.0372424
-0.0372424
-0.0372424
-0.0372424
-0.0372424
-0.0372424
-0.0372424
-0.0372424
-0.0372424
-0.0372424
-0.0372424
-0.0372424
-0.0372424
-0.0372424
-0.0372424
-0.0372424
-0.0372424
-0.0372424
-0.0372424
-0.0372424
-0.0372424
-0.0372424
-0.0372424
-0.0372424
-0.0372424
-0.0372424
-0.0372424
-0.0372424
-0.0372424
-0.0372424
-0.0372424
-0.0372424
-0.0372424
-0.0372424
-0.0372424
-0.0372424
-0.0372424
-0.0372424
-0.0372424
-0.0372424
-0.0372424
-0.0372424
-0.0372424
-0.0372424
-0.0372424
-0.0372424
-0.0372424
-0.0372424
-0.0372424
-0.0372424
-0.0372424
-0.0372424
-0.0372424
-0.0372424
-0.0372424
-0.0372424
-0.0372424
-0.0372424
-0.0372424
-0.0372424
-0.0372424
-0.0372424
-0.0372424
-0.0372424
-0.0372424
-0.0372424
-0.0372424
-0.0372424
-0.0372424
-0.0372424
-0.0372424
-0.0372424
-0.0372424
-0.0372424
-0.0372424
-0.0372424
-0.0372424
-0.0372424
-0.0372424
-0.0372424
-0.0372424
-0.0372424
-0.0372424
-0.0372424
-0.0372424
-0.0372424
-0.0372424
-0.0372424
-0.0372424
-0.0372424
-0.0372424
-0.0372424
-0.0372424
-0.0372424
-0.0372424
-0.0372424
-0.0372424
-0.0372424
-0.0372424
-0.0372424
-0.0372424
-0.0372424
-0.0372424
-0.0372424
-0.0372424
-0.0372424
-0.0372424
-0.0372424
-0.0372424
-0.0372424
-0.0372424
-0.0372424
-0.0372424
-0.0372424
-0.0372424
-0.0372424
-0.0372424
-0.0372424
-0.0372424
-0.0372424
-0.0372424
-0.0372424
-0.0372424
-0.0372424
-0.0372424
-0.0372424
-0.0372424
-0.0372424
-0.0372424
-0.0372424
-0.0372424
-0.0372424
-0.0372424
-0.0372424
-0.0372424
-0.0372424
-0.0372424
-0.0372424
-0.0372424
-0.0372424
-0.0372424
-0.0372424
-0.0372424
-0.0372424
-0.0372424
-0.0372424
-0.0372424
-0.0372424
-0.0372424
-0.0372424
-0.0372424
-0.0372424
-0.0372424
-0.0372424
-0.0372424
-0.0372424
-0.0372424
-0.0372424
-0.0372424
-0.0372424
-0.0372424
-0.0372424
-0.0372424
-0.0372424
-0.0372424
-0.0372424
-0.0372424
-0.0372424
-0.0372424
-0.0372424
-0.0372424
-0.0372424
-0.0372424
-0.0372424
-0.0372424
-0.0372424
-0.0372424
-0.0372424
-0.0372424
-0.0372424
-0.0372424
-0.0372424
-0.0372424
-0.0372424
-0.0372424
-0.0372424
-0.0372424
-0.0372424
-0.0372424
-0.0372424
-0.0372424
-0.0372424
-0.0372424
-0.0372424
-0.0372424
-0.0372424
-0.0372424
-0.0372424
-0.0372424
-0.0372424
-0.0372424
-0.0372424
-0.0372424
-0.0372424
-0.0372424
-0.0372424
-0.0372424
-0.0372424
-0.0372424
-0.0372424
-0.0372424
-0.0372424
-0.0372424
-0.0372424
-0.0372424
-0.0372424
-0.0372424
-0.0372424
-0.0372424
-0.0372424
-0.0372424
-0.0372424
-0.0372424
-0.0372424
-0.0372424
-0.0372424
-0.0372424
-0.0372424
-0.0372424
-0.0372424
-0.0372424
-0.0372424
-0.0372424
-0.0372424
-0.0372424
-0.0372424
-0.0372424
-0.0372424
-0.0372424
-0.0372424
-0.0372424
-0.0372424
-0.0372424
-0.0372424
-0.0372424
-0.0372424
-0.0372424
-0.0372424
-0.0372424
-0.0372424
-0.0372424
-0.0372424
-0.0372424
-0.0372424
-0.0372424
-0.0372424
-0.0372424
-0.0372424
-0.0372424
-0.0372424
-0.0372424
-0.0372424
-0.0124141
-0.0124141
-0.0124141
-0.0124141
-0.0124141
-0.0124141
-0.0124141
-0.0124141
-0.0124141
-0.0124141
-0.0124141
-0.0124141
-0.0124141
-0.0124141
-0.0124141
-0.0124141
-0.0124141
-0.0124141
-0.0124141
-0.0124141
-0.0124141
-0.0124141
-0.0124141
-0.0124141
-0.0124141
-0.0124141
-0.0124141
-0.0124141
-0.0124141
-0.0124141
-0.0124141
-0.0124141
-0.0124141
-0.0124141
-0.0124141
-0.0124141
-0.0124141
-0.0124141
-0.0124141
-0.0124141
-0.0124141
-0.0124141
-0.0124141
-0.0124141
-0.0124141
-0.0124141
-0.0124141
-0.0124141
-0.0124141
-0.0124141
-0.0124141
-0.0124141
-0.0124141
-0.0124141
-0.0124141
-0.0124141
-0.0124141
-0.0124141
-0.0124141
-0.0124141
-0.0124141
-0.0124141
-0.0124141
-0.0124141
-0.0124141
-0.0124141
-0.0124141
-0.0124141
-0.0124141
-0.0124141
-0.0124141
-0.0124141
-0.0124141
-0.0124141
-0.0124141
-0.0124141
-0.0124141
-0.0124141
-0.0124141
-0.0124141
-0.0124141
-0.0124141
-0.0124141
-0.0124141
-0.0124141
-0.0124141
-0.0124141
-0.0124141
-0.0124141
-0.0124141
-0.0124141
-0.0124141
-0.0124141
-0.0124141
-0.0124141
-0.0124141
-0.0124141
-0.0124141
-0.0124141
-0.0124141
-0.0124141
-0.0124141
-0.0124141
-0.0124141
-0.0124141
-0.0124141
-0.0124141
-0.0124141
-0.0124141
-0.0124141
-0.0124141
-0.0124141
-0.0124141
-0.0124141
-0.0124141
-0.0124141
-0.0124141
-0.0124141
-0.0124141
-0.0124141
-0.0124141
-0.0124141
-0.0124141
-0.0124141
-0.0124141
-0.0124141
-0.0124141
-0.0124141
-0.0124141
-0.0124141
-0.0124141
-0.0124141
-0.0124141
-0.0124141
-0.0124141
-0.0124141
-0.0124141
-0.0124141
-0.0124141
-0.0124141
-0.0124141
-0.0124141
-0.0124141
-0.0124141
-0.0124141
-0.0124141
-0.0124141
-0.0124141
-0.0124141
-0.0124141
-0.0124141
-0.0124141
-0.0124141
-0.0124141
-0.0124141
-0.0124141
-0.0124141
-0.0124141
-0.0124141
-0.0124141
-0.0124141
-0.0124141
-0.0124141
-0.0124141
-0.0124141
-0.0124141
-0.0124141
-0.0124141
-0.0124141
-0.0124141
-0.0124141
-0.0124141
-0.0124141
-0.0124141
-0.0124141
-0.0124141
-0.0124141
-0.0124141
-0.0124141
-0.0124141
-0.0124141
-0.0124141
-0.0124141
-0.0124141
-0.0124141
-0.0124141
-0.0124141
-0.0124141
-0.0124141
-0.0124141
-0.0124141
-0.0124141
-0.0124141
-0.0124141
-0.0124141
-0.0124141
-0.0124141
-0.0124141
-0.0124141
-0.0124141
-0.0124141
-0.0124141
-0.0124141
-0.0124141
-0.0124141
-0.0124141
-0.0124141
-0.0124141
-0.0124141
-0.0124141
-0.0124141
-0.0124141
-0.0124141
-0.0124141
-0.0124141
-0.0124141
-0.0124141
-0.0124141
-0.0124141
-0.0124141
-0.0124141
-0.0124141
-0.0124141
-0.0124141
-0.0124141
-0.0124141
-0.0124141
-0.0124141
-0.0124141
-0.0124141
-0.0124141
-0.0124141
-0.0124141
-0.0124141
-0.0124141
-0.0124141
-0.0124141
-0.0124141
-0.0124141
-0.0124141
-0.0124141
-0.0124141
-0.0124141
-0.0124141
-0.0124141
-0.0124141
-0.0124141
-0.0124141
-0.0124141
-0.0124141
-0.0124141
-0.0124141
-0.0124141
-0.0124141
-0.0124141
-0.0124141
-0.0124141
-0.0124141
-0.0124141
-0.0124141
-0.0124141
-0.0124141
-0.0124141
-0.0124141
-0.0124141
-0.0124141
-0.0124141
-0.0124141
-0.0124141
-0.0124141
-0.0124141
-0.0124141
-0.0124141
-0.0124141
-0.0124141
-0.0124141
-0.0124141
-0.0124141
-0.0124141
-0.0124141
-0.0124141
-0.0124141
-0.0124141
-0.0124141
-0.0124141
-0.0124141
-0.0124141
-0.0124141
-0.0124141
-0.0124141
-0.0124141
-0.0124141
-0.0124141
-0.0124141
-0.0124141
-0.0124141
-0.0124141
-0.0124141
-0.0124141
-0.0124141
-0.0124141
-0.0124141
-0.0124141
-0.0124141
-0.0124141
-0.0124141
-0.0124141
-0.0124141
-0.0124141
-0.0124141
-0.0124141
-0.0124141
-0.0124141
-0.0124141
-0.0124141
-0.0124141
-0.0124141
-0.0124141
-0.0124141
-0.0124141
-0.0124141
-0.0124141
-0.0124141
-0.0124141
-0.0124141
-0.0124141
-0.0124141
-0.0124141
-0.0124141
-0.0124141
-0.0124141
-0.0124141
-0.0124141
-0.0124141
-0.0124141
-0.0124141
-0.0124141
-0.0124141
-0.0124141
-0.0124141
-0.0124141
-0.0124141
-0.0124141
-0.0124141
-0.0124141
-0.0124141
-0.0124141
-0.0124141
-0.0124141
-0.0124141
-0.0124141
-0.0124141
-0.0124141
-0.0124141
-0.0124141
-0.0124141
-0.0124141
-0.0124141
-0.0124141
-0.0124141
-0.0124141
-0.0124141
-0.0124141
-0.0124141
-0.0124141
-0.0124141
-0.0124141
-0.0124141
-0.0124141
-0.0124141
-0.0124141
-0.0124141
-0.0124141
-0.0124141
-0.0124141
-0.0124141
-0.0124141
-0.0124141
-0.0124141
-0.0124141
-0.0124141
-0.0124141
-0.0124141
-0.0124141
-0.0124141
-0.0124141
-0.0124141
-0.0124141
-0.0124141
-0.0124141
-0.0124141
-0.0124141
-0.0124141
-0.0124141
-0.0124141
-0.0124141
-0.0124141
-0.0124141
-0.0124141
-0.0124141
-0.0124141
-0.0124141
-0.0124141
-0.0124141
-0.0124141
-0.0124141
-0.0124141
-0.0124141
-0.0124141
-0.0124141
-0.0124141
-0.0124141
-0.0124141
-0.0124141
-0.0124141
-0.0124141
-0.0124141
-0.0124141
-0.0124141
-0.0124141
-0.0124141
-0.0124141
-0.0124141
-0.0124141
-0.0124141
-0.0124141
-0.0124141
-0.0124141
-0.0124141
-0.0124141
-0.0124141
-0.0124141
-0.0124141
-0.0124141
-0.0124141
-0.0124141
-0.0124141
-0.0124141
-0.0124141
-0.0124141
-0.0124141
-0.0124141
-0.0124141
-0.0124141
-0.0124141
-0.0124141
-0.0124141
-0.0124141
-0.0124141
-0.0124141
-0.0124141
-0.0124141
-0.0124141
-0.0124141
-0.0124141
-0.0124141
-0.0124141
-0.0124141
-0.0124141
-0.0124141
-0.0124141
-0.0124141
-0.0124141
-0.0124141
0.0124142
0.0124142
0.0124142
0.0124142
0.0124142
0.0124142
0.0124142
0.0124142
0.0124142
0.0124142
0.0124142
0.0124142
0.0124142
0.0124142
0.0124142
0.0124142
0.0124142
0.0124142
0.0124142
0.0124142
0.0124142
0.0124142
0.0124142
0.0124142
0.0124142
0.0124142
0.0124142
0.0124142
0.0124142
0.0124142
0.0124142
0.0124142
0.0124142
0.0124142
0.0124142
0.0124142
0.0124142
0.0124142
0.0124142
0.0124142
0.0124142
0.0124142
0.0124142
0.0124142
0.0124142
0.0124142
0.0124142
0.0124142
0.0124142
0.0124142
0.0124142
0.0124142
0.0124142
0.0124142
0.0124142
0.0124142
0.0124142
0.0124142
0.0124142
0.0124142
0.0124142
0.0124142
0.0124142
0.0124142
0.0124142
0.0124142
0.0124142
0.0124142
0.0124142
0.0124142
0.0124142
0.0124142
0.0124142
0.0124142
0.0124142
0.0124142
0.0124142
0.0124142
0.0124142
0.0124142
0.0124142
0.0124142
0.0124142
0.0124142
0.0124142
0.0124142
0.0124142
0.0124142
0.0124142
0.0124142
0.0124142
0.0124142
0.0124142
0.0124142
0.0124142
0.0124142
0.0124142
0.0124142
0.0124142
0.0124142
0.0124142
0.0124142
0.0124142
0.0124142
0.0124142
0.0124142
0.0124142
0.0124142
0.0124142
0.0124142
0.0124142
0.0124142
0.0124142
0.0124142
0.0124142
0.0124142
0.0124142
0.0124142
0.0124142
0.0124142
0.0124142
0.0124142
0.0124142
0.0124142
0.0124142
0.0124142
0.0124142
0.0124142
0.0124142
0.0124142
0.0124142
0.0124142
0.0124142
0.0124142
0.0124142
0.0124142
0.0124142
0.0124142
0.0124142
0.0124142
0.0124142
0.0124142
0.0124142
0.0124142
0.0124142
0.0124142
0.0124142
0.0124142
0.0124142
0.0124142
0.0124142
0.0124142
0.0124142
0.0124142
0.0124142
0.0124142
0.0124142
0.0124142
0.0124142
0.0124142
0.0124142
0.0124142
0.0124142
0.0124142
0.0124142
0.0124142
0.0124142
0.0124142
0.0124142
0.0124142
0.0124142
0.0124142
0.0124142
0.0124142
0.0124142
0.0124142
0.0124142
0.0124142
0.0124142
0.0124142
0.0124142
0.0124142
0.0124142
0.0124142
0.0124142
0.0124142
0.0124142
0.0124142
0.0124142
0.0124142
0.0124142
0.0124142
0.0124142
0.0124142
0.0124142
0.0124142
0.0124142
0.0124142
0.0124142
0.0124142
0.0124142
0.0124142
0.0124142
0.0124142
0.0124142
0.0124142
0.0124142
0.0124142
0.0124142
0.0124142
0.0124142
0.0124142
0.0124142
0.0124142
0.0124142
0.0124142
0.0124142
0.0124142
0.0124142
0.0124142
0.0124142
0.0124142
0.0124142
0.0124142
0.0124142
0.0124142
0.0124142
0.0124142
0.0124142
0.0124142
0.0124142
0.0124142
0.0124142
0.0124142
0.0124142
0.0124142
0.0124142
0.0124142
0.0124142
0.0124142
0.0124142
0.0124142
0.0124142
0.0124142
0.0124142
0.0124142
0.0124142
0.0124142
0.0124142
0.0124142
0.0124142
0.0124142
0.0124142
0.0124142
0.0124142
0.0124142
0.0124142
0.0124142
0.0124142
0.0124142
0.0124142
0.0124142
0.0124142
0.0124142
0.0124142
0.0124142
0.0124142
0.0124142
0.0124142
0.0124142
0.0124142
0.0124142
0.0124142
0.0124142
0.0124142
0.0124142
0.0124142
0.0124142
0.0124142
0.0124142
0.0124142
0.0124142
0.0124142
0.0124142
0.0124142
0.0124142
0.0124142
0.0124142
0.0124142
0.0124142
0.0124142
0.0124142
0.0124142
0.0124142
0.0124142
0.0124142
0.0124142
0.0124142
0.0124142
0.0124142
0.0124142
0.0124142
0.0124142
0.0124142
0.0124142
0.0124142
0.0124142
0.0124142
0.0124142
0.0124142
0.0124142
0.0124142
0.0124142
0.0124142
0.0124142
0.0124142
0.0124142
0.0124142
0.0124142
0.0124142
0.0124142
0.0124142
0.0124142
0.0124142
0.0124142
0.0124142
0.0124142
0.0124142
0.0124142
0.0124142
0.0124142
0.0124142
0.0124142
0.0124142
0.0124142
0.0124142
0.0124142
0.0124142
0.0124142
0.0124142
0.0124142
0.0124142
0.0124142
0.0124142
0.0124142
0.0124142
0.0124142
0.0124142
0.0124142
0.0124142
0.0124142
0.0124142
0.0124142
0.0124142
0.0124142
0.0124142
0.0124142
0.0124142
0.0124142
0.0124142
0.0124142
0.0124142
0.0124142
0.0124142
0.0124142
0.0124142
0.0124142
0.0124142
0.0124142
0.0124142
0.0124142
0.0124142
0.0124142
0.0124142
0.0124142
0.0124142
0.0124142
0.0124142
0.0124142
0.0124142
0.0124142
0.0124142
0.0124142
0.0124142
0.0124142
0.0124142
0.0124142
0.0124142
0.0124142
0.0124142
0.0124142
0.0124142
0.0124142
0.0124142
0.0124142
0.0124142
0.0124142
0.0124142
0.0124142
0.0124142
0.0124142
0.0124142
0.0124142
0.0124142
0.0124142
0.0124142
0.0124142
0.0124142
0.0124142
0.0124142
0.0124142
0.0124142
0.0124142
0.0124142
0.0124142
0.0124142
0.0124142
0.0124142
0.0124142
0.0124142
0.0124142
0.0124142
0.0124142
0.0124142
0.0124142
0.0124142
0.0124142
0.0124142
0.0124142
0.0124142
0.0124142
0.0124142
0.0124142
0.0124142
0.0124142
0.0124142
0.0124142
0.0124142
0.0124142
0.0124142
0.0124142
0.0124142
0.0124142
0.0124142
0.0124142
0.0124142
0.0124142
0.0124142
0.0124142
0.0124142
0.0124142
0.0124142
0.0124142
0.0124142
0.0124142
0.0124142
0.0124142
0.0124142
0.0124142
0.0124142
0.0124142
0.0124142
0.0124142
0.0124142
0.0124142
0.0124142
0.0124142
0.0124142
0.0124142
0.0124142
0.0124142
0.0124142
0.0124142
0.0124142
0.0124142
0.0124142
0.0124142
0.0124142
0.0124142
0.0124142
0.0124142
0.0124142
0.0124142
0.0124142
0.0124142
0.0124142
0.0124142
0.0124142
0.0124142
0.0124142
0.0124142
0.0124142
0.0124142
0.0124142
0.0124142
0.0124142
0.0124142
0.0124142
0.0124142
0.0124142
0.0124142
0.0124142
0.0124142
0.0124142
0.0124142
0.0124142
0.0124142
0.0124142
0.0124142
0.0124142
0.0124142
0.0124142
0.0124142
0.0124142
0.0124142
0.0124142
0.0124142
0.0124142
0.0124142
0.0124142
0.0124142
0.0124142
0.0124142
0.0124142
0.0124142
0.0124142
0.0124142
0.0124142
0.0372425
0.0372425
0.0372425
0.0372425
0.0372425
0.0372425
0.0372425
0.0372425
0.0372425
0.0372425
0.0372425
0.0372425
0.0372425
0.0372425
0.0372425
0.0372425
0.0372425
0.0372425
0.0372425
0.0372425
0.0372425
0.0372425
0.0372425
0.0372425
0.0372425
0.0372425
0.0372425
0.0372425
0.0372425
0.0372425
0.0372425
0.0372425
0.0372425
0.0372425
0.0372425
0.0372425
0.0372425
0.0372425
0.0372425
0.0372425
0.0372425
0.0372425
0.0372425
0.0372425
0.0372425
0.0372425
0.0372425
0.0372425
0.0372425
0.0372425
0.0372425
0.0372425
0.0372425
0.0372425
0.0372425
0.0372425
0.0372425
0.0372425
0.0372425
0.0372425
0.0372425
0.0372425
0.0372425
0.0372425
0.0372425
0.0372425
0.0372425
0.0372425
0.0372425
0.0372425
0.0372425
0.0372425
0.0372425
0.0372425
0.0372425
0.0372425
0.0372425
0.0372425
0.0372425
0.0372425
0.0372425
0.0372425
0.0372425
0.0372425
0.0372425
0.0372425
0.0372425
0.0372425
0.0372425
0.0372425
0.0372425
0.0372425
0.0372425
0.0372425
0.0372425
0.0372425
0.0372425
0.0372425
0.0372425
0.0372425
0.0372425
0.0372425
0.0372425
0.0372425
0.0372425
0.0372425
0.0372425
0.0372425
0.0372425
0.0372425
0.0372425
0.0372425
0.0372425
0.0372425
0.0372425
0.0372425
0.0372425
0.0372425
0.0372425
0.0372425
0.0372425
0.0372425
0.0372425
0.0372425
0.0372425
0.0372425
0.0372425
0.0372425
0.0372425
0.0372425
0.0372425
0.0372425
0.0372425
0.0372425
0.0372425
0.0372425
0.0372425
0.0372425
0.0372425
0.0372425
0.0372425
0.0372425
0.0372425
0.0372425
0.0372425
0.0372425
0.0372425
0.0372425
0.0372425
0.0372425
0.0372425
0.0372425
0.0372425
0.0372425
0.0372425
0.0372425
0.0372425
0.0372425
0.0372425
0.0372425
0.0372425
0.0372425
0.0372425
0.0372425
0.0372425
0.0372425
0.0372425
0.0372425
0.0372425
0.0372425
0.0372425
0.0372425
0.0372425
0.0372425
0.0372425
0.0372425
0.0372425
0.0372425
0.0372425
0.0372425
0.0372425
0.0372425
0.0372425
0.0372425
0.0372425
0.0372425
0.0372425
0.0372425
0.0372425
0.0372425
0.0372425
0.0372425
0.0372425
0.0372425
0.0372425
0.0372425
0.0372425
0.0372425
0.0372425
0.0372425
0.0372425
0.0372425
0.0372425
0.0372425
0.0372425
0.0372425
0.0372425
0.0372425
0.0372425
0.0372425
0.0372425
0.0372425
0.0372425
0.0372425
0.0372425
0.0372425
0.0372425
0.0372425
0.0372425
0.0372425
0.0372425
0.0372425
0.0372425
0.0372425
0.0372425
0.0372425
0.0372425
0.0372425
0.0372425
0.0372425
0.0372425
0.0372425
0.0372425
0.0372425
0.0372425
0.0372425
0.0372425
0.0372425
0.0372425
0.0372425
0.0372425
0.0372425
0.0372425
0.0372425
0.0372425
0.0372425
0.0372425
0.0372425
0.0372425
0.0372425
0.0372425
0.0372425
0.0372425
0.0372425
0.0372425
0.0372425
0.0372425
0.0372425
0.0372425
0.0372425
0.0372425
0.0372425
0.0372425
0.0372425
0.0372425
0.0372425
0.0372425
0.0372425
0.0372425
0.0372425
0.0372425
0.0372425
0.0372425
0.0372425
0.0372425
0.0372425
0.0372425
0.0372425
0.0372425
0.0372425
0.0372425
0.0372425
0.0372425
0.0372425
0.0372425
0.0372425
0.0372425
0.0372425
0.0372425
0.0372425
0.0372425
0.0372425
0.0372425
0.0372425
0.0372425
0.0372425
0.0372425
0.0372425
0.0372425
0.0372425
0.0372425
0.0372425
0.0372425
0.0372425
0.0372425
0.0372425
0.0372425
0.0372425
0.0372425
0.0372425
0.0372425
0.0372425
0.0372425
0.0372425
0.0372425
0.0372425
0.0372425
0.0372425
0.0372425
0.0372425
0.0372425
0.0372425
0.0372425
0.0372425
0.0372425
0.0372425
0.0372425
0.0372425
0.0372425
0.0372425
0.0372425
0.0372425
0.0372425
0.0372425
0.0372425
0.0372425
0.0372425
0.0372425
0.0372425
0.0372425
0.0372425
0.0372425
0.0372425
0.0372425
0.0372425
0.0372425
0.0372425
0.0372425
0.0372425
0.0372425
0.0372425
0.0372425
0.0372425
0.0372425
0.0372425
0.0372425
0.0372425
0.0372425
0.0372425
0.0372425
0.0372425
0.0372425
0.0372425
0.0372425
0.0372425
0.0372425
0.0372425
0.0372425
0.0372425
0.0372425
0.0372425
0.0372425
0.0372425
0.0372425
0.0372425
0.0372425
0.0372425
0.0620708
0.0620708
0.0620708
0.0620708
0.0620708
0.0620708
0.0620708
0.0620708
0.0620708
0.0620708
0.0620708
0.0620708
0.0620708
0.0620708
0.0620708
0.0620708
0.0620708
0.0620708
0.0620708
0.0620708
0.0620708
0.0620708
0.0620708
0.0620708
0.0620708
0.0620708
0.0620708
0.0620708
0.0620708
0.0620708
0.0620708
0.0620708
0.0620708
0.0620708
0.0620708
0.0620708
0.0620708
0.0620708
0.0620708
0.0620708
0.0620708
0.0620708
0.0620708
0.0620708
0.0620708
0.0620708
0.0620708
0.0620708
0.0620708
0.0620708
0.0620708
0.0620708
0.0620708
0.0620708
0.0620708
0.0620708
0.0620708
0.0620708
0.0620708
0.0620708
0.0620708
0.0620708
0.0620708
0.0620708
0.0620708
0.0620708
0.0620708
0.0620708
0.0620708
0.0620708
0.0620708
0.0620708
0.0620708
0.0620708
0.0620708
0.0620708
0.0620708
0.0620708
0.0620708
0.0620708
0.0620708
0.0620708
0.0620708
0.0620708
0.0620708
0.0620708
0.0620708
0.0620708
0.0620708
0.0620708
0.0620708
0.0620708
0.0620708
0.0620708
0.0620708
0.0620708
0.0620708
0.0620708
0.0620708
0.0620708
0.0620708
0.0620708
0.0620708
0.0620708
0.0620708
0.0620708
0.0620708
0.0620708
0.0620708
0.0620708
0.0620708
0.0620708
0.0620708
0.0620708
0.0620708
0.0620708
0.0620708
0.0620708
0.0620708
0.0620708
0.0620708
0.0620708
0.0620708
0.0620708
0.0620708
0.0620708
0.0620708
0.0620708
0.0620708
0.0620708
0.0620708
0.0620708
0.0620708
0.0620708
0.0620708
0.0620708
0.0620708
0.0620708
0.0620708
0.0620708
0.0620708
0.0620708
0.0620708
0.0620708
0.0620708
0.0620708
0.0620708
0.0620708
0.0620708
0.0620708
0.0620708
0.0620708
0.0620708
0.0620708
0.0620708
0.0620708
0.0620708
0.0620708
0.0620708
0.0620708
0.0620708
0.0620708
0.0620708
0.0620708
0.0620708
0.0620708
0.0620708
0.0620708
0.0620708
0.0620708
0.0620708
0.0620708
0.0620708
0.0620708
0.0620708
0.0620708
0.0620708
0.0620708
0.0620708
0.0620708
0.0620708
0.0620708
0.0620708
0.0620708
0.0620708
0.0620708
0.0620708
0.0620708
0.0620708
0.0620708
0.0620708
0.0620708
0.0620708
0.0620708
0.0620708
0.0620708
0.0620708
0.0620708
0.0620708
0.0620708
0.0620708
0.0620708
0.0620708
0.0620708
0.0620708
0.0620708
0.0620708
0.0620708
0.0620708
0.0620708
0.0620708
0.0620708
0.0620708
0.0620708
0.0620708
0.0620708
0.0620708
0.0620708
0.0620708
0.0620708
0.0620708
0.0620708
0.0620708
0.0620708
0.0620708
0.0620708
0.0620708
0.0620708
0.0620708
0.0620708
0.0620708
0.0868991
0.0868991
0.0868991
0.0868991
0.0868991
0.0868991
0.0868991
0.0868991
0.0868991
0.0868991
0.0868991
0.0868991
0.0868991
0.0868991
0.0868991
0.0868991
0.0868991
0.0868991
0.0868991
0.0868991
0.0868991
0.0868991
0.0868991
0.0868991
0.0868991
0.0868991
0.0868991
0.0868991
0.0868991
0.0868991
0.0868991
0.0868991
0.0868991
0.0868991
0.0868991
0.0868991
0.0868991
0.0868991
0.0868991
0.0868991
0.0868991
0.0868991
0.0868991
0.0868991
0.0868991
0.0868991
0.0868991
0.0868991
0.0868991
0.0868991
0.0868991
0.0868991
0.0868991
0.0868991
0.0868991
0.0868991
0.0868991
0.0868991
0.0868991
0.0868991
0.0868991
0.0868991
0.0868991
0.0868991
0.0868991
0.0868991
0.0868991
0.0868991
0.0868991
0.0868991
0.0868991
0.0868991
0.0868991
0.0868991
0.0868991
0.0868991
0.0868991
0.0868991
0.0868991
0.0868991
0.111727
0.111727
0.111727
0.111727
0.111727
0.111727
0.111727
0.111727
0.111727
0.111727
0.111727
0.111727
0.111727
0.111727
0.111727
0.111727
0.136556
0.136556
